SVM-light Version V6.02
0 # kernel type
3 # kernel parameter -d 
1 # kernel parameter -g 
1 # kernel parameter -s 
1 # kernel parameter -r 
empty# kernel parameter -u 
18768 # highest feature index 
8528 # number of training documents 
6791 # number of support vectors plus 1 
0.0083215694 # threshold b, each following line is a SV (starting with alpha*y)
-2.8798301520329752101190479152137 41:0.058789827 125:0.095009066 128:0.077322684 151:0.096860349 209:0.081238545 396:0.096860349 643:0.064178944 726:0.080603831 774:0.071999997 1223:0.10768979 1332:0.065830551 2992:0.12036949 2993:0.13304919 2994:0.10436881 2995:0.099065311 2996:0.11447354 2997:0.11447354 2998:0.10537317 #
-2.8798301520329752101190479152137 4:0.37798065 5:0.31417647 6:0.27517146 7:0.26872194 8:0.27517146 9:0.18954204 #
-2.8798301520329752101190479152137 10:0.13863742 11:0.12548022 12:0.13066162 13:0.1174293 14:0.1524075 15:0.074894004 16:0.10232674 17:0.11857463 18:0.12899129 19:0.13066162 20:0.14399755 #
-2.8798301520329752101190479152137 21:0.15839189 22:0.15839189 23:0.10770389 24:0.14886808 25:0.10260133 26:0.15839189 27:0.099817052 28:0.14329702 29:0.098346949 30:0.14886808 31:0.10548712 #
-2.8798301520329752101190479152137 32:0.13961615 33:0.16106297 34:0.17665669 35:0.1734097 36:0.14304161 37:0.17066377 38:0.13426851 39:0.12258343 40:0.20532282 #
2.8798301520329752101190479152137 15:0.060930718 252:0.084504604 360:0.073554918 994:0.083686285 1417:0.11903547 1418:0.10158698 1901:0.096467495 2149:0.091944113 2397:0.13246736 3820:0.11407816 4905:0.10783125 5407:0.11056018 7385:0.11715055 9153:0.11551749 13481:0.12751006 13482:0.13246736 13483:0.14094193 #
2.8798301520329752101190479152137 80:0.072954386 295:0.054171585 733:0.077967808 1741:0.078303084 1916:0.080605894 2942:0.096894838 4310:0.093021102 4385:0.096894838 5028:0.079775505 5366:0.087229446 6733:0.070253342 7147:0.096894838 8436:0.084925599 9713:0.093021102 10963:0.094762862 13484:0.10351754 13485:0.099643618 13486:0.11014006 #
1.4102330135185163761946114391321 10:0.32461444 321:0.18292306 14512:0.34900469 14609:0.35685658 #
2.8798301520329752101190479152137 124:0.22914456 245:0.17771122 321:0.19230375 337:0.25155312 377:0.25644636 739:0.2028946 8037:0.38579965 #
2.8798301520329752101190479152137 50:0.095238097 245:0.1100117 352:0.16669583 408:0.13964543 1088:0.1606798 1332:0.13061617 1876:0.20049126 2437:0.17630503 13488:0.23882835 13489:0.22295533 #
2.8798301520329752101190479152137 171:0.24458642 548:0.23419167 739:0.18840213 6916:0.34836 14611:0.34069505 14612:0.39597973 #
-2.8798301520329752101190479152137 50:0.19354838 408:0.28379554 739:0.51050901 1332:0.53089154 1709:0.41366985 #
-2.2391674325141237567038388078799 149:0.28639603 245:0.69307375 3340:0.61915821 7623:0.75230932 #
-2.8798301520329752101190479152137 124:0.89366382 126:0.8741467 #
-2.8798301520329752101190479152137 245:0.050961304 360:0.063819706 408:0.06468869 541:0.11697347 956:0.080577597 994:0.072610155 995:0.094292395 1903:0.075282387 2151:0.066176474 3657:0.076771095 4109:0.11493491 4790:0.098979585 4814:0.11493491 5468:0.10521465 5471:0.10164534 6230:0.11493491 6231:0.091626644 6232:0.12228785 6233:0.10521465 #
2.8798301520329752101190479152137 6:0.52641493 7:0.25703838 234:0.27877751 459:0.18936536 1407:0.18178138 1619:0.28933027 3161:0.25187764 #
1.0519107723849754343348195106955 34:0.28618383 36:0.23172742 1172:0.21496385 3976:0.21974528 5445:0.23353676 #
-1.9477451808150656464846406379365 272:0.19122975 1021:0.14501204 5187:0.24423669 5188:0.25986171 5189:0.21033162 5190:0.21298537 5191:0.25986171 #
-2.8798301520329752101190479152137 50:0.075000003 51:0.14429393 1326:0.14181757 1382:0.11474887 1491:0.14136134 4552:0.16307627 6518:0.1513443 6519:0.19538936 6520:0.19538936 #
2.8798301520329752101190479152137 41:0.055672184 157:0.072541967 350:0.077436268 547:0.071739711 728:0.080532327 990:0.064836517 1142:0.09125834 1671:0.089190446 1791:0.092208251 1953:0.087775536 2422:0.094403207 2556:0.076569825 3628:0.088111535 3819:0.085673541 5849:0.092717446 7433:0.1064105 10420:0.10082721 #
-2.8798301520329752101190479152137 972:0.10829934 985:0.099531427 2702:0.11313707 2703:0.10235501 2704:0.10235501 2705:0.11313707 2706:0.11313707 2707:0.11313707 2708:0.055371098 2709:0.10633434 2710:0.095552288 2711:0.094039217 2712:0.095552288 2713:0.10633434 2714:0.11313707 2715:0.11313707 2716:0.11313707 2717:0.092728324 2718:0.11313707 #
-2.8798301520329752101190479152137 2809:0.3131448 3477:0.33996397 5445:0.32435662 5446:0.34614509 #
-2.7275141367043511664292054774705 596:0.41022769 2437:0.41137841 3297:0.4091022 8598:0.5048542 #
-2.8798301520329752101190479152137 50:0.26086956 79:0.4163278 377:0.43484384 378:0.51635361 #
-2.7830507713677277159547429619124 198:0.26143363 426:0.223745 1172:0.31612331 1852:0.31334531 3681:0.35996187 #
2.8798301520329752101190479152137 50:0.17647059 169:0.31135005 739:0.46546409 1332:0.48404816 1709:0.37716958 #
2.8798301520329752101190479152137 50:0.14814815 128:0.11932513 273:0.095903508 516:0.086139262 739:0.19537999 1332:0.60954213 1709:0.15831809 4890:0.12310547 5968:0.15109511 17359:0.20532282 #
1.8315709240794217915748731684289 149:0.40913719 643:0.5730263 3340:0.88451171 #
1.5409748172946142741324138114578 126:0.56396562 308:0.29885298 14548:0.50423062 18296:0.83422917 #
2.8798301520329752101190479152137 126:0.28198281 245:0.22357216 430:0.27002218 752:0.40744999 2390:0.4248918 4282:0.4248918 #
-0.23000146910956226209421515704889 739:0.79128891 1640:1.2724087 #
-2.8798301520329752101190479152137 25:0.15842852 149:0.084234126 426:0.1118725 607:0.15535514 1079:0.18101753 1725:0.14664035 1980:0.15031746 2640:0.1703878 5237:0.17544658 7838:0.24457571 #
-2.8798301520329752101190479152137 149:1.4319801 #
-2.8798301520329752101190479152137 739:0.71935356 2957:1.0041599 #
2.8798301520329752101190479152137 79:2.1278975 #
1.6485190971260348380411642210674 321:0.10563163 344:0.12644055 500:0.12321398 959:0.14705449 8300:0.19783361 8477:0.18551613 11887:0.17666923 14423:0.22015703 14424:0.20607212 #
2.8798301520329752101190479152137 124:0.36476073 157:0.19541916 228:0.18921353 252:0.20350088 607:0.21559489 669:0.22604382 3738:0.19167995 15843:0.2985943 #
2.8798301520329752101190479152137 50:0.27272728 137:0.44194579 408:0.3998937 860:0.40883425 #
2.8798301520329752101190479152137 656:0.3062793 2009:0.30486956 5446:0.37761283 #
-0.56061381214629113500791390833911 137:0.69448626 558:0.87419307 #
-2.8798301520329752101190479152137 108:0.27356702 752:0.22965363 934:0.1977409 1800:0.1982387 2001:0.19131966 3769:0.25134119 4282:0.23948447 #
-0.62678196444921352448176321559004 308:0.3563247 580:0.33960474 643:0.30855262 1722:0.43224633 5842:0.56273538 #
-2.8798301520329752101190479152137 50:0.16216215 752:0.34137702 1130:0.31559023 1453:0.28218564 6332:0.40665367 #
-2.8798301520329752101190479152137 2009:0.52951032 7055:0.75311536 #
0.70328939793343736575081948103616 149:0.57279205 1252:0.9372865 #
1.7086830507869066320125739366631 149:0.57279205 2349:1.2724087 #
0.3021148347601890216118647458643 739:0.60868382 1028:0.7246123 #
2.8798301520329752101190479152137 898:0.064353548 1781:0.036267947 2580:0.075290456 4513:0.078752615 5998:0.078752615 6360:0.083113529 8812:0.073735051 8813:0.074221984 10963:0.084669776 11478:0.086574674 11516:0.045100898 12939:0.079652213 14074:0.083113529 16527:0.092492007 16528:0.092492007 16529:0.098409161 16530:0.092492007 16531:0.098409161 16532:0.098409161 16533:0.092492007 16534:0.098409161 16535:0.098409161 #
2.8798301520329752101190479152137 682:0.67381448 739:0.52752596 1254:0.72866654 #
-1.4733636179182951764232711866498 2003:0.79181975 3479:0.95848644 #
-2.7509351861961723884064667799976 191:0.56005865 440:0.60547662 739:0.52752596 #
-2.8798301520329752101190479152137 1195:0.15975928 1798:0.1397837 3916:0.29090783 5218:0.18345118 5654:0.15875852 6042:0.21321985 6043:0.21321985 6044:0.18757847 6045:0.20039934 #
-2.8798301520329752101190479152137 321:0.25861537 422:0.2988047 617:0.36002997 915:0.35934526 1252:0.32320225 #
-2.8798301520329752101190479152137 15:0.060418695 41:0.061754018 149:0.048133787 606:0.073875315 1550:0.078836493 2950:0.10692511 4411:0.095339537 5083:0.1040602 5179:0.12024532 5777:0.13975756 5778:0.13135418 5779:0.12024532 5780:0.13975756 5781:0.12643854 5782:0.13975756 5783:0.13135418 #
2.8798301520329752101190479152137 92:0.26059598 3476:0.37361526 4497:0.33468011 13498:0.38673493 #
0.58304371626076800794180599041283 41:0.22268873 94:0.15153649 547:0.14347942 608:0.2363909 1272:0.18251668 1663:0.13013203 2957:0.33471999 14855:0.2519871 #
2.8798301520329752101190479152137 8:0.40358481 43:0.2389975 580:0.2943241 17549:0.5543716 #
2.6838579038000056620205668878043 2189:0.3393181 2231:0.40883407 2547:0.28966489 2745:0.54112238 7623:0.42989102 9254:0.34775683 #
0.16318559302929422361039257793891 1643:0.94240898 16427:1.2538488 #
-2.8798301520329752101190479152137 4497:0.6517455 5763:0.62791407 #
-2.8798301520329752101190479152137 41:0.080755256 474:0.16078155 1846:0.13693653 2285:0.13237473 3921:0.13526584 4556:0.15724386 4798:0.13237473 4799:0.17177087 5239:0.13050696 7704:0.12883613 7705:0.18275988 #
-0.52431528166255292333630677603651 126:0.51420397 846:0.4682354 897:0.81316268 #
-2.8798301520329752101190479152137 1028:0.33642715 8391:0.59396958 #
2.8798301520329752101190479152137 46:0.099162526 844:0.10716205 1593:0.096877575 2093:0.11812245 3227:0.13177417 4207:0.12598106 4662:0.092429608 4695:0.090157509 8290:0.13496102 9143:0.13496102 12214:0.14897214 17246:0.15476385 18652:0.16466483 #
2.8798301520329752101190479152137 915:0.94736481 1237:0.70129502 #
2.8798301520329752101190479152137 191:0.46671551 2353:0.56415653 4376:0.67992795 #
2.8798301520329752101190479152137 191:0.21002199 228:0.23178658 377:0.2500352 378:0.29690334 606:0.21977907 1783:0.3026886 7384:0.31810218 #
2.8798301520329752101190479152137 152:0.24877219 191:0.2270508 422:0.23419827 3129:0.32097659 16024:0.38673493 #
-2.8798301520329752101190479152137 273:0.77681845 2353:1.0154818 #
-2.8798301520329752101190479152137 41:0.28264338 191:0.32311076 1382:0.35307342 3129:0.45677435 #
-2.8798301520329752101190479152137 915:0.41684052 3128:0.52686584 3129:0.47504532 #
-1.6335462139888379251573269357323 245:0.16904238 832:0.28714973 833:0.29686561 1783:0.29530594 2348:0.32832253 2349:0.31034359 2350:0.27495641 #
-0.36024476745857514359272499859799 203:0.16061084 228:0.16265725 408:0.15434495 1783:0.21241306 2189:0.20835322 2349:0.2232296 2483:0.23914146 4028:0.27423069 #
2.8798301520329752101190479152137 149:0.088121854 1546:0.17964368 1798:0.16774043 2282:0.1739832 4497:0.19051021 5763:0.18354411 7366:0.18626991 #
1.1780325641489999277666811394738 149:0.3014695 2003:0.50009668 7753:0.73927295 #
2.8798301520329752101190479152137 617:0.34802896 2394:0.3305293 8060:0.43487003 8876:0.43487003 #
2.8798301520329752101190479152137 33:0.44986555 149:0.1975145 835:0.62960571 2424:0.38521299 4029:0.411392 #
1.3295180392739147645642105999286 9061:0.29263529 17530:0.33980757 17531:0.3615467 17532:0.33980757 #
-2.8798301520329752101190479152137 92:0.32140172 1365:0.44363973 3595:0.34484684 #
-2.8798301520329752101190479152137 41:0.15635592 157:0.20373487 196:0.17173325 580:0.18786643 607:0.22476915 608:0.1659766 1556:0.18925144 2394:0.42195231 7359:0.18481916 #
2.8798301520329752101190479152137 245:0.087730855 429:0.1309545 547:0.11986888 572:0.17039524 1382:0.11620138 1710:0.14666292 2364:0.13428171 2861:0.16514051 7880:0.19786264 15221:0.19786264 15939:0.21052086 #
-2.8798301520329752101190479152137 149:0.21214521 321:0.27777207 509:0.37375686 643:0.29712474 1585:0.39628047 6718:0.32999605 #
2.8798301520329752101190479152137 191:0.28002933 739:0.26376298 832:0.39243796 833:0.40571633 8208:0.52103829 #
2.8798301520329752101190479152137 833:0.32895917 1783:0.32723093 2230:0.34389424 2348:0.36381686 3113:0.34137702 #
2.8798301520329752101190479152137 203:0.43594372 245:0.66007024 14043:0.65827453 #
2.347853626222395018174893266405 245:0.14144363 360:0.17713225 2009:0.20532033 5044:0.28211766 8019:0.23645654 8036:0.27161616 #
2.8798301520329752101190479152137 126:0.12140927 198:0.12345476 408:0.12218975 682:0.14037801 744:0.15068617 966:0.15426691 2077:0.15757507 5210:0.14037801 5734:0.18293953 7570:0.19199674 16440:0.17307255 #
-2.8798301520329752101190479152137 245:0.46204916 430:0.5580458 836:0.76406449 #
-2.8798301520329752101190479152137 337:0.19236416 832:0.23084587 833:0.23865665 834:0.17100194 835:0.17900555 836:0.22472486 837:0.22036088 838:0.19697568 839:0.24280713 #
-0.24346033127128222095514331613231 245:0.1506682 376:0.31806782 377:0.21742192 378:0.2581768 379:0.29263529 380:0.3615467 381:0.30535188 382:0.3110694 #
-1.938318658122459403614357142942 700:0.39591834 835:0.53701663 5209:0.41312313 7357:0.48915142 7358:0.48915142 #
-1.1431101460781423195811612458783 44:0.1264796 203:0.1017202 229:0.1084432 346:0.11376005 739:0.087920994 781:0.12176169 1004:0.11668708 2276:0.14034389 3170:0.1264796 3506:0.14956915 3873:0.12240124 4748:0.13759072 7240:0.12734409 10824:0.18479054 10825:0.18479054 #
2.8798301520329752101190479152137 149:0.074388579 834:0.11326103 1556:0.11551712 2001:0.13665691 2406:0.16524789 2941:0.13692249 3479:0.14937451 4813:0.14937451 6177:0.182418 6315:0.16524789 14793:0.19001454 #
2.8798301520329752101190479152137 2:0.32946974 196:0.25223321 459:0.27221271 607:0.33012968 608:0.24377812 4071:0.43199268 #
2.8798301520329752101190479152137 608:0.11471912 643:0.11797599 1382:0.13499866 2729:0.17171821 3309:0.16975757 3479:0.16914466 4034:0.18858479 5245:0.18574926 6438:0.18325329 #
2.8798301520329752101190479152137 41:0.19338758 336:0.26023009 487:0.2574904 1169:0.23801038 1852:0.28036159 16748:0.41134602 #
-1.5566027370544788244188794124057 67:0.25615519 152:0.25568253 608:0.43338332 2196:0.31413633 7558:0.39017183 #
-2.8798301520329752101190479152137 47:0.069217004 49:0.063620105 60:0.054435022 149:0.042429041 152:0.068182006 314:0.064134903 584:0.10239826 677:0.07108289 739:0.058613993 1133:0.075342052 1403:0.075461864 1692:0.0861535 2018:0.070929922 3552:0.090657063 3852:0.079087697 4019:0.088373095 5060:0.0911792 5087:0.10837867 5842:0.10837867 6073:0.11578628 6074:0.10097084 #
-2.7593921541369055283610123296967 128:0.32217786 228:0.30904877 459:0.29036021 6152:0.48770401 7682:0.46079218 #
-1.7115880132195240292958260397427 43:0.079665832 238:0.091853186 273:0.086313158 2437:0.12341353 3822:0.12873745 4813:0.12779818 6386:0.162568 6542:0.14248627 9760:0.19826314 9761:0.26638365 9762:0.17367943 #
2.8798301520329752101190479152137 836:0.8816129 1819:0.82304406 #
1.685146146930976973621341130638 420:0.76491898 836:0.7163105 5718:0.86398536 #
2.8798301520329752101190479152137 172:0.29387096 617:0.26771459 1844:0.27434802 8702:0.36690235 14958:0.38579965 #
0.52265060554365938561005577867036 321:0.26785165 639:0.42227733 835:0.32604581 838:0.35877714 14211:0.59396958 #
-0.18692008037997950853359441225621 160:0.6412257 1819:0.71330482 #
0.53289185556900287021875328719034 173:0.076802045 881:0.077943079 1164:0.10855637 2556:0.093585342 3663:0.10901055 4215:0.10200103 4337:0.11972734 5725:0.13547334 7059:0.12323326 11094:0.12621355 14565:0.13931654 15894:0.14473286 #
-2.8798301520329752101190479152137 49:0.21471786 50:0.15000001 459:0.21777016 860:0.22485884 1819:0.26748931 10372:0.41577873 #
0.4208388602031412628612372373027 321:0.17045105 2338:0.24840905 5288:0.31923151 13750:0.29144922 13916:0.35525337 #
-0.54231888862896726610784980948665 1819:0.38212758 2403:0.48682368 2616:0.44225585 #
2.8798301520329752101190479152137 149:0.13637906 241:0.22623421 245:0.16501756 608:0.18573572 785:0.24027227 1239:0.23269379 2658:0.20977552 9806:0.2701287 #
0.37853533479834083896875540631299 608:0.30003461 1793:0.44910917 1800:0.4193511 1995:0.47343045 #
-2.8798301520329752101190479152137 60:0.078177959 64:0.10563041 1139:0.14320451 1596:0.098829985 2000:0.11783136 2001:0.11194236 2002:0.17692712 2003:0.10108338 2004:0.12422169 2005:0.13642304 2006:0.16628881 2007:0.15565021 #
0.44555379852192666945143173506949 3129:0.37112916 4504:0.37112916 5246:0.39762774 7544:0.45722249 #
-2.5005616745828547209384851157665 1239:1.9546279 #
1.9755543473654715302956219602493 41:0.085450329 278:0.1363266 430:0.097333573 882:0.12283894 2273:0.1423105 3071:0.12646221 4001:0.127093 5189:0.15652585 5832:0.18175754 8895:0.17495565 13849:0.16074146 16683:0.17495565 #
-2.8798301520329752101190479152137 15:0.15630053 739:0.17201933 994:0.2146735 1407:0.18178138 2395:0.3110694 2396:0.3615467 2397:0.33980757 #
-1.1113787734850009147891114480444 1844:0.41152203 9892:0.55035353 9893:0.63965958 9894:0.63965958 #
-2.4533965139808335820248430536594 774:0.20930232 2244:0.23848903 2419:0.254186 7317:0.3327719 8875:0.2982271 8876:0.30339769 8877:0.29170966 #
2.8798301520329752101190479152137 124:0.075097799 314:0.072758079 325:0.1106861 910:0.098521747 1000:0.088774368 1839:0.081221312 2821:0.11311953 3860:0.092329949 7016:0.1086601 11933:0.13135418 13945:0.13135418 15887:0.13975756 15888:0.13975756 #
2.8798301520329752101190479152137 9:0.1389975 546:0.19035898 1323:0.16669014 1819:0.1783262 2023:0.19978774 3809:0.21952744 5886:0.22435373 #
2.3238571672387644539981010893825 149:0.27275813 3283:0.5496912 3308:0.57959473 #
2.8798301520329752101190479152137 93:0.22342628 196:0.18770842 1550:0.21817541 1819:0.24882726 15731:0.3867709 #
-1.578903232343487061939413251821 546:0.87857991 2786:0.97877598 #
-2.8798301520329752101190479152137 93:0.43669683 94:0.45460945 #
-1.8307777056476619570446473517222 149:0.21214521 581:0.47890934 582:0.37794709 915:0.38596344 #
2.8798301520329752101190479152137 322:0.78904366 2693:1.0216732 #
2.8798301520329752101190479152137 50:0.15384616 305:0.24523461 459:0.22335401 3639:0.32881451 7895:0.38579965 10031:0.38579965 #
2.8798301520329752101190479152137 67:0.22491676 459:0.2124587 2556:0.24651749 2776:0.26335761 7510:0.34900469 7673:0.36698014 #
2.8798301520329752101190479152137 1322:0.31956121 1482:0.29773274 1719:0.33468011 2614:0.33678982 #
-2.8798301520329752101190479152137 9:0.10296111 27:0.12939247 308:0.11437584 781:0.13529077 796:0.12127614 960:0.16431101 1237:0.095237598 1391:0.16261292 2652:0.17066377 3220:0.16618794 3221:0.18063112 #
-2.8798301520329752101190479152137 459:0.14049688 588:0.18618573 835:0.14724649 1578:0.15643072 1965:0.22655138 2361:0.21466438 2598:0.21042098 3619:0.16431212 8702:0.23079342 #
-1.4624824537117007139386259950697 50:0.15384616 146:0.22317702 371:0.33773452 7673:0.38579965 7674:0.4264397 #
-0.46993503882758425049814832163975 9:0.17744362 167:0.18459482 168:0.27757663 3293:0.2066129 3308:0.25896788 4077:0.28640902 4078:0.28640902 #
-1.1344093650207276446906234923517 282:0.25356114 1262:0.32665548 1529:0.2830579 4004:0.31700146 8386:0.30631736 #
-1.2594520006494172026378919326817 50:0.090909094 90:0.1394632 199:0.20165442 314:0.13118502 1177:0.15849176 1407:0.12669612 5266:0.22797252 5900:0.23683558 5901:0.2519871 #
2.8798301520329752101190479152137 50:0.18181819 190:0.26269349 370:0.31823748 581:0.39183491 582:0.30922943 #
2.8798301520329752101190479152137 124:0.090269066 555:0.12758535 786:0.11748204 814:0.097394459 881:0.085028812 898:0.10985605 1578:0.097966716 1596:0.093838573 1765:0.11794786 9343:0.12167779 15800:0.15198168 18693:0.1679914 18694:0.13177879 #
2.235458639878672659762059993227 459:0.11312736 739:0.1027648 846:0.10337665 2548:0.182418 2582:0.1206496 2975:0.17702679 6204:0.18583366 15017:0.21598895 15018:0.21598895 15019:0.20300193 15020:0.21598895 #
2.7415025085162199047772446647286 50:0.17647059 245:0.20384522 430:0.24619669 2244:0.30161849 18585:0.48915142 18586:0.48915142 #
-2.8798301520329752101190479152137 90:0.12111278 201:0.17165922 307:0.14533894 335:0.12859394 638:0.12055778 657:0.16196306 1331:0.15772715 1756:0.14614759 1757:0.15080221 1758:0.15930979 #
-2.8798301520329752101190479152137 149:0.18477163 370:0.33876893 608:0.25164193 1800:0.35171384 2146:0.39056593 #
-2.4681429468842961405528058094205 370:0.47735623 739:0.35967678 9409:0.68391752 #
-2.8798301520329752101190479152137 149:0.1060726 190:0.32106981 336:0.36624974 345:0.20942421 739:0.14653499 1318:0.19814023 7520:0.27863309 #
-2.8798301520329752101190479152137 63:0.3448261 94:0.29415905 321:0.22058371 1904:0.38740134 #
-0.21869533318603992522177748014656 1647:0.2393996 2771:0.39017183 2802:0.36969978 4366:0.38399348 10512:0.46197635 #
2.8798301520329752101190479152137 39:0.2836931 90:0.26298773 128:0.27615246 1038:0.26723278 9917:0.42989102 15315:0.42989102 #
2.4264024288050780597814082284458 459:0.075093158 489:0.10437538 1732:0.10813375 2211:0.1297085 2302:0.10550606 4354:0.098130725 5118:0.1297085 6113:0.086219035 8944:0.12613034 9609:0.12613034 15576:0.13475128 16941:0.12335511 16942:0.12335511 18098:0.14337197 #
2.8798301520329752101190479152137 535:0.16621752 860:0.18355824 1382:0.18734509 2136:0.21985999 2786:0.25967526 3071:0.22195406 7060:0.28665686 #
2.8798301520329752101190479152137 32:0.13791351 922:0.15403597 2419:0.13329266 3655:0.14026631 5146:0.16416126 6802:0.16416126 10299:0.16623248 11832:0.17842829 17281:0.20281889 #
-1.0882632344771874244315768009983 2722:0.3804701 6882:0.58524483 11086:0.55295062 11087:0.52686584 #
-1.9443439961817909900076983831241 335:0.087260172 2669:0.12170592 2672:0.11545137 3370:0.12342647 3468:0.10702914 3475:0.1201895 6243:0.10867401 6919:0.12776065 6920:0.12541237 6921:0.13063501 6922:0.11648304 6923:0.13434094 6924:0.1484924 6925:0.11056396 #
-2.8798301520329752101190479152137 547:0.2492011 1159:0.25817293 3315:0.30607164 6558:0.31252983 7366:0.31861958 #
-2.587094238949948277195289847441 1201:0.21357003 2574:0.19864465 4304:0.19299333 10329:0.12796488 10347:0.24822611 10348:0.21837492 10349:0.24822611 #
2.7596766429197887582347448187647 50:0.16216215 4183:0.33468011 5749:0.31686723 5849:0.33077577 8493:0.36840713 #
2.8798301520329752101190479152137 370:0.30005249 1800:0.31151795 2271:0.27885395 2272:0.33782187 8329:0.36088428 9465:0.38026264 #
2.8798301520329752101190479152137 49:0.33033517 149:0.22030464 322:0.33382615 1601:0.3426882 5559:0.42720065 #
-2.8798301520329752101190479152137 137:0.19064328 418:0.20632513 726:0.19755842 1727:0.22395174 1993:0.20672612 4465:0.2413567 5202:0.24433772 #
2.8798301520329752101190479152137 452:0.11728566 481:0.14308594 1733:0.109327 3056:0.13499483 4001:0.13168672 5079:0.16218342 5907:0.17239991 16777:0.18832709 16778:0.20037529 16779:0.20037529 #
-1.5801492317946188581601063560811 10:0.23766415 193:0.15530299 229:0.17428371 862:0.2120738 1725:0.17806327 4183:0.22112793 5696:0.26127002 #
-2.8798301520329752101190479152137 9:0.23828143 1175:0.31825462 1238:0.3107357 2971:0.35603496 #
-2.8798301520329752101190479152137 535:0.1986502 612:0.25513306 2693:0.27410743 3844:0.34900469 8660:0.38124752 #
-1.4346504284921259841922847044771 126:0.26489294 152:0.2789264 643:0.24310206 800:0.34980348 1821:0.29390013 2477:0.40330884 2883:0.40330884 #
-2.8798301520329752101190479152137 149:0.20456859 739:0.2826032 807:0.42227733 808:0.31788811 990:0.30565789 #
-2.8798301520329752101190479152137 41:0.10350321 314:0.12194664 487:0.13781177 608:0.10987183 2142:0.18551613 3279:0.1895947 3280:0.16726948 3281:0.19198681 #
2.8798301520329752101190479152137 15:0.14978801 580:0.18395256 915:0.21710443 959:0.21751811 1078:0.24632844 1186:0.21121399 1450:0.23075308 2338:0.22770829 3261:0.24138272 #
2.8798301520329752101190479152137 9:0.75816816 50:0.54545456 #
2.8798301520329752101190479152137 50:0.29268292 427:0.27582702 914:0.32461444 2957:0.26940876 8782:0.337165 #
0.28426360723091292914688210657914 190:0.23429419 283:0.29853404 345:0.30564615 608:0.21083513 3248:0.38673493 8634:0.30869025 #
0.79658609218606046820099209071486 2131:0.58346188 3261:0.72414815 7237:0.77394778 #
-2.8798301520329752101190479152137 9:0.46332499 50:0.33333334 1803:0.63899094 #
-1.6598419180579699894195755405235 245:0.27722949 430:0.33482748 1450:0.44304591 3261:0.46345484 3262:0.66524595 #
-1.7309435251271116928961646408425 167:0.091325864 168:0.13732737 253:0.15401179 2654:0.098361008 2655:0.134987 3216:0.14009675 3243:0.12242866 3418:0.15062307 3557:0.14169709 7263:0.14009675 11147:0.17506473 #
-2.8798301520329752101190479152137 57:0.36089471 3773:0.49844894 8782:0.55295062 #
2.8798301520329752101190479152137 1015:0.91800934 1026:0.99893868 #
2.8798301520329752101190479152137 186:0.18414499 273:0.14938816 807:0.2273801 1585:0.20576102 3140:0.17377257 4478:0.18007952 16027:0.28136769 17395:0.28136769 #
1.7747665401706014254301635446609 162:0.17911905 314:0.15461092 2306:0.24037899 2916:0.19568844 3144:0.2555213 6438:0.22252186 17045:0.26127002 #
2.8798301520329752101190479152137 149:0.22030464 502:0.36621541 756:0.43224633 1021:0.35695273 1169:0.34786132 #
2.8798301520329752101190479152137 50:0.60000002 612:1.0460455 #
-1.4048331406248808495007551755407 580:0.73581022 1186:0.84485596 1682:0.83962327 #
-2.3823587032576178934561994537944 79:0.20373487 149:0.12187064 314:0.18421726 427:0.24061505 956:0.23316069 1169:0.19243392 1605:0.28317431 #
-2.4067924942928233811301197420107 47:0.29200923 307:0.34517998 1477:0.43199268 1601:0.27843416 2131:0.29173094 4613:0.27729514 #
-2.7114851139721594108777935616672 50:0.075949363 60:0.093021877 190:0.10973272 241:0.12027642 245:0.087730855 252:0.12622207 273:0.098331444 608:0.09874557 1528:0.13399875 2161:0.15326005 3140:0.11438195 5831:0.16232614 7871:0.21052086 #
-2.8798301520329752101190479152137 6:0.29530594 1021:0.22636026 1403:0.24847201 1601:0.21731447 2169:0.24930701 2558:0.32461444 #
2.8798301520329752101190479152137 67:0.16766521 640:0.19412434 2338:0.39745447 3769:0.25134119 6661:0.27356702 8132:0.28420269 #
2.1923692719282201757380335038761 245:0.57756144 5089:0.5608843 8610:0.58525777 #
2.8798301520329752101190479152137 350:0.26898915 739:0.20823392 1733:0.23879319 2337:0.27423719 2419:0.28763154 2492:0.33239341 #
2.8798301520329752101190479152137 146:0.12434148 160:0.1374055 516:0.099675424 808:0.12715524 1313:0.14033382 1332:0.11755455 1803:0.16431196 2769:0.17387842 3236:0.16681197 4605:0.15912731 7481:0.2006598 17208:0.23758784 17209:0.14887162 #
2.8798301520329752101190479152137 413:0.16077743 718:0.11582404 835:0.10257621 905:0.1328513 1556:0.099941775 2068:0.12410966 2338:0.12280897 2573:0.11446463 3773:0.14001375 4119:0.15532321 4825:0.13830553 5574:0.13468836 8007:0.1643946 #
-2.8798301520329752101190479152137 49:0.2260188 50:0.31578946 739:0.41646785 5559:0.29229519 7609:0.38502946 #
-1.454577950339509095911694203096 186:0.38302156 305:0.38256598 909:0.35863137 7024:0.66524595 #
-2.5839709590292398999622491828632 50:0.23076923 677:0.36908421 3140:0.69509029 8485:0.63965958 #
-1.94303225647075605841962442355 50:0.40000001 3140:0.60241157 4141:0.74259412 #
-2.8798301520329752101190479152137 193:0.1224925 1388:0.16142207 1479:0.1733689 1582:0.13173446 2247:0.22015703 2818:0.19198681 3648:0.13677192 3863:0.20153792 8672:0.19783361 10500:0.20153792 #
2.8798301520329752101190479152137 32:0.14880142 157:0.12599394 191:0.33161366 934:0.14310196 3773:0.16396347 8739:0.19797613 13859:0.17013885 14213:0.20567301 14214:0.19797613 #
2.8798301520329752101190479152137 9:0.20849624 149:0.14319801 191:0.21002199 580:0.22074308 807:0.29559413 4686:0.3365306 #
2.2977874729939036235748517356114 643:0.45842102 881:0.24051008 2558:0.38026264 2927:0.3441743 15570:0.44660425 15571:0.41803202 #
-2.7407159077950007386448305624072 384:0.21365635 643:0.18232654 3248:0.3252089 3649:0.24371956 3921:0.27975437 4007:0.37798065 4008:0.25620937 #
-2.8798301520329752101190479152137 65:0.35676178 90:0.2789264 196:0.24458978 545:0.32146227 1407:0.5067845 #
-2.8798301520329752101190479152137 16:0.087708637 57:0.080556855 149:0.051142149 418:0.09395162 868:0.094516978 2357:0.10233007 3652:0.098622851 4683:0.12342647 5163:0.13063501 6212:0.1099035 9564:0.12541237 9877:0.097589269 10209:0.12776065 10343:0.10867401 #
-2.8798301520329752101190479152137 9:0.28758103 757:0.27202561 2360:0.45893764 2556:0.34852472 3935:0.36737037 #
-2.8798301520329752101190479152137 41:0.074229576 474:0.14778909 531:0.13597195 808:0.089907743 955:0.0872752 2056:0.13304693 2057:0.15789039 2058:0.1679914 2059:0.11188028 2060:0.1679914 2061:0.1445373 2062:0.12433527 2063:0.14778909 2064:0.10324836 #
2.8798301520329752101190479152137 50:0.23076923 190:0.33341867 228:0.35659474 739:0.30434191 1428:0.49732894 #
2.8798301520329752101190479152137 50:0.66666669 853:0.63672042 #
2.8798301520329752101190479152137 238:0.10464287 295:0.10354315 408:0.11136281 1685:0.18112901 1852:0.13485748 4354:0.14409068 10076:0.16672969 13158:0.18520406 15252:0.21052086 #
2.8798301520329752101190479152137 50:0.21428572 322:0.30998144 547:0.33820149 739:0.2826032 9034:0.35413855 #
-2.8798301520329752101190479152137 50:0.54545456 2341:0.90921891 #
-0.57334936523033908084556742323912 41:0.43227813 4763:0.69551563 9034:0.583287 #
-0.87218343157724143033249220025027 570:1.087175 #
-1.7481619145514435409438647184288 77:0.09547364 128:0.09293592 487:0.094083026 1463:0.098446198 1980:0.09828449 2283:0.10909043 2394:0.09534499 2419:0.10509613 3146:0.11981945 3802:0.14068384 5391:0.28136769 5392:0.14467487 5393:0.1599149 5394:0.14467487 #
1.2869193254022734951291795368888 213:1.1126094 3140:0.82147032 #
2.8798301520329752101190479152137 9:0.18954204 49:0.19519806 307:0.25103998 384:0.21365635 1054:0.19882256 3352:0.26047653 5555:0.28320962 #
2.8798301520329752101190479152137 57:0.25062132 400:0.24401763 596:0.30767077 3891:0.34614509 17711:0.46197635 #
2.8798301520329752101190479152137 321:0.15305808 1054:0.17853455 1133:0.20757504 2169:0.20860381 2360:0.27161616 2417:0.18887813 15265:0.29202431 #
2.8798301520329752101190479152137 282:0.31151795 1238:0.3107357 2289:0.34592983 15828:0.41803202 #
-0.38985684440096812775067292022868 1054:0.9720214 1845:1.4787991 #
-2.8798301520329752101190479152137 321:0.24999486 1207:0.42745885 4890:0.33238479 5286:0.41277215 5555:0.41537413 #
-2.8798301520329752101190479152137 149:0.16365486 228:0.52979791 3526:0.38460639 3754:0.38945895 4985:0.30998302 #
-0.42897747373688011052195179217961 518:0.29955694 955:0.22737487 1428:0.3402777 1774:0.27857634 3980:0.3502419 7297:0.38502946 #
2.8798301520329752101190479152137 18:0.11257422 60:0.066806622 149:0.052072003 229:0.08872626 281:0.10383217 305:0.086946815 959:0.094916992 3763:0.11257422 15362:0.11860092 15396:0.14210135 17355:0.15119226 17356:0.15119226 #
2.8798301520329752101190479152137 350:0.56786597 422:0.48140755 484:0.51469123 #
-0.53396707269500431891628977609798 782:0.19027403 1093:0.17893988 1239:0.15512919 2293:0.21636608 2853:0.20524687 3966:0.20049126 4398:0.24811347 4399:0.2639865 #
-0.43224785803928822414121668771259 126:0.23625587 459:0.2354272 1632:0.36840713 2352:0.35599044 4850:0.34137702 4851:0.37361526 #
-2.8798301520329752101190479152137 842:0.34343642 2118:0.38031036 4408:0.41312313 #
-2.8798301520329752101190479152137 50:0.23076923 1177:0.40232521 1244:0.36951271 5923:0.51189202 #
-2.8798301520329752101190479152137 157:0.12939918 842:0.15779512 1015:0.14886637 1296:0.18190843 2169:0.13812956 4923:0.15282308 8329:0.17068851 9465:0.17985395 9466:0.21123174 #
-2.8798301520329752101190479152137 2692:0.37392288 2693:0.3121779 2694:0.35344687 2695:0.30600309 #
-2.1235625586625848093547119788127 1244:0.48036653 2563:0.56727028 2936:0.61915821 #
2.8798301520329752101190479152137 955:0.3927384 2164:0.52866918 3935:0.48426095 #
2.8798301520329752101190479152137 50:0.11764706 518:0.44639859 4008:0.22104339 9309:0.28057238 17248:0.32610095 #
2.8798301520329752101190479152137 50:0.17142858 393:0.29719847 2161:0.34592983 2283:0.32415444 13612:0.44660425 #
2.8798301520329752101190479152137 739:0.41646785 1774:0.55715269 1824:0.60113364 #
-0.93881596888389862165524846204789 157:0.68396711 2283:0.81038606 2284:0.83076584 #
-2.8798301520329752101190479152137 548:0.18915482 789:0.21019226 834:0.16771345 1252:0.18024741 2164:0.22366774 3947:0.20717575 4811:0.27517676 #
-2.8798301520329752101190479152137 2164:0.33230636 2640:0.33103916 6286:0.35838616 7016:0.36944437 #
-1.1799244700439572852701530791819 149:0.16365486 171:0.2935037 318:0.34086764 511:0.27993318 1824:0.32632968 #
-2.8798301520329752101190479152137 64:0.11032509 162:0.11145186 245:0.077008195 350:0.11357319 425:0.11434634 459:0.096786737 643:0.08913742 915:0.11578903 1804:0.12341353 2153:0.15145627 2164:0.12923025 2180:0.16717985 7987:0.11112676 #
0.39253325780276382417355307552498 197:0.22617589 336:0.21039879 2957:0.23501617 4607:0.24844338 5831:0.27284607 11913:0.31130043 #
2.8798301520329752101190479152137 1244:0.40030542 4334:0.51921767 5555:0.51921767 #
0.8149242869238964015465853663045 336:0.17979532 516:0.12685964 2776:0.19632111 2957:0.20083199 4146:0.20371948 9034:0.18028872 14114:0.23948447 14115:0.30238453 #
1.186826670002346206800325489894 430:0.13286805 643:0.12733917 959:0.16572808 1705:0.19120795 2131:0.1481808 2675:0.17732027 2996:0.22713004 3219:0.17221278 4167:0.22713004 14248:0.21125701 #
2.0924189184268553454160155524733 453:0.29452398 846:0.22742863 2711:0.39496472 3754:0.38945895 4695:0.26016882 15072:0.39496472 #
-1.3093832707915660229502918809885 322:0.289316 430:0.2790229 580:0.2943241 1244:0.32024434 1313:0.32744557 1774:0.35286337 #
-1.9040051376185622711290079678292 149:0.13637906 393:0.24766539 584:0.32913727 1244:0.22874597 1876:0.3007369 1877:0.28541106 1878:0.32913727 #
-2.8798301520329752101190479152137 137:0.17362157 853:0.20466013 1596:0.1658932 2678:0.22721584 5968:0.21854827 11595:0.27912766 11596:0.21734802 #
-0.78031223792541437589420638687443 4695:0.75882572 7759:1.3025957 #
2.8798301520329752101190479152137 867:0.15657258 927:0.17068851 1407:0.11299924 4284:0.1334457 4788:0.19771785 5156:0.17194712 6262:0.20332684 6676:0.18981333 #
0.066548803271682582805013339566358 149:0.28639603 511:0.48988307 18650:0.67306119 #
1.4984903634187711762848493890488 511:0.20846088 3784:0.31130043 7016:0.27511814 17412:0.33257762 17820:0.35385424 #
2.8798301520329752101190479152137 101:0.38859895 124:0.27080721 245:0.21002235 321:0.22726806 449:0.30486956 789:0.33121207 #
2.8798301520329752101190479152137 149:0.11015232 847:0.24290287 1874:0.23406711 4408:0.27011895 6528:0.27011895 13844:0.30059901 #
-1.3832014343578977744186886411626 449:1.1178551 506:1.2525792 #
-1.2466341553185205093257081898628 245:0.12834699 282:0.2019098 449:0.18630919 516:0.12920889 756:0.2081186 4581:0.28946573 4582:0.2524271 4583:0.30798423 4584:0.23747714 #
-1.5375286803472369978607048324193 183:0.16148371 3111:0.27423069 3930:0.2232296 4028:0.27423069 5883:0.19175436 10757:0.27423069 #
-1.215008012639995138570725430327 234:0.28497255 846:0.17688893 2003:0.21115194 3216:0.29575983 7077:0.28497255 8098:0.34735885 #
-2.8798301520329752101190479152137 50:0.13043478 149:0.12452001 231:0.32709101 245:0.1506682 846:0.17304352 852:0.25003994 4686:0.29263529 #
1.1008651500749218055119627024396 1244:0.64048868 2734:0.83074826 #
2.8798301520329752101190479152137 32:0.1087395 238:0.07948833 1159:0.094332419 1572:0.12061072 2886:0.064157933 4212:0.11369005 5975:0.12665044 7524:0.12665044 8675:0.13758838 14471:0.14467487 17590:0.1599149 17591:0.1599149 17592:0.13292082 #
2.8798301520329752101190479152137 41:0.24495761 1313:0.32744557 1630:0.34303904 3140:0.30120578 5050:0.44363973 #
0.9248408171875013294993550516665 41:0.41992733 430:0.2391625 1268:0.29831055 2678:0.36354536 4212:0.33782187 #
2.8798301520329752101190479152137 9:0.37908408 50:0.27272728 1244:0.43669683 1742:0.51241875 #
-2.8798301520329752101190479152137 149:0.17899752 197:0.6643917 3140:0.56476086 #
-0.97532788161528616299733585037757 41:0.16330507 187:0.27874479 191:0.1866862 847:0.28068778 3976:0.24416143 5192:0.31798205 #
0.31713565357474310379970461326593 149:0.062260006 206:0.11306463 1332:0.089443684 1363:0.1162997 1985:0.14816374 5749:0.12743573 9223:0.12851919 9674:0.11974034 13038:0.15903391 13609:0.15267594 15680:0.15025832 18369:0.18077335 18370:0.16990378 #
2.8798301520329752101190479152137 41:0.081652537 67:0.10246208 910:0.13026763 1972:0.11622728 2009:0.11178551 2233:0.12923025 3619:0.1131928 4565:0.15359738 6128:0.12084166 8506:0.162568 9924:0.162568 10397:0.16717985 #
-2.2569062762768337115915073809447 171:0.18677509 196:0.14675386 439:0.21405707 452:0.17699473 491:0.2013845 2894:0.21230616 11665:0.23948447 11666:0.24198531 #
2.4572477153388105897136028943351 852:0.7188648 1725:0.62322146 2655:0.80148536 #
2.112891491645533470489226601785 229:0.60999304 245:0.43317109 11319:0.74920398 #
2.8798301520329752101190479152137 126:0.19425482 196:0.17936583 580:0.19621606 990:0.19018713 1205:0.20956561 2011:0.25559637 9900:0.34735885 13711:0.29270324 #
1.9910803805385537401662077172659 506:0.75154752 2457:0.85491771 #
2.8798301520329752101190479152137 350:0.15725519 1508:0.15944822 2744:0.18828775 3873:0.16947864 3945:0.19893157 9887:0.2047568 10075:0.17237802 18389:0.25586382 #
-2.8798301520329752101190479152137 49:0.19086033 229:0.2168864 881:0.1870634 1021:0.20623936 1725:0.22158986 4376:0.2719712 5617:0.30291253 7897:0.36958107 #
-2.6775825259572183512091214652173 50:0.17142858 1450:0.31646135 1725:0.28490123 2242:0.39496472 2655:0.3663933 8764:0.44660425 #
-2.8798301520329752101190479152137 229:0.36147735 959:0.38669887 4058:0.44842756 4700:0.54189336 #
-2.8798301520329752101190479152137 124:0.3723599 229:0.40666202 443:0.44581553 1800:0.45429704 #
2.8798301520329752101190479152137 41:0.093021877 276:0.13981974 1774:0.13399875 2153:0.17254511 2477:0.16847079 3393:0.16367789 3492:0.18112901 4145:0.18520406 4584:0.16232614 7501:0.1610644 9138:0.18520406 17100:0.21052086 #
2.8798301520329752101190479152137 50:0.27272728 580:0.40135103 1565:0.53514272 2054:0.48634419 #
2.8798301520329752101190479152137 149:0.098757252 335:0.16850241 1539:0.18943559 2403:0.23501833 2526:0.21484868 9289:0.26950255 13183:0.22946882 #
2.8798301520329752101190479152137 149:0.11455841 2694:0.25448176 3219:0.2169881 3920:0.30092373 17501:0.33262298 #
-2.8798301520329752101190479152137 2:0.13016088 789:0.13493825 1015:0.13600138 1351:0.25878495 1550:0.11582152 2011:0.28399599 2784:0.18063112 2918:0.18575539 3219:0.13394327 4942:0.15196534 5178:0.14358917 #
2.8798301520329752101190479152137 149:0.059665836 317:0.10961022 426:0.079243027 1130:0.12163374 1323:0.10418133 1375:0.11671428 1421:0.14199024 6092:0.13469325 11156:0.14905408 11260:0.1567311 18349:0.17324114 #
-2.8798301520329752101190479152137 104:0.37086979 1638:0.41306251 2457:0.38859895 #
-0.64652069952164303856534388614818 9:0.30888334 336:0.36624974 1733:0.3360793 7230:0.52997005 #
-2.8798301520329752101190479152137 9:0.20849624 1733:0.22685353 4459:0.28652421 9308:0.35115466 9309:0.35772979 #
-2.8798301520329752101190479152137 9:0.18533 796:0.21829705 955:0.19200544 1332:0.18286264 2894:0.2594853 3834:0.31213745 9667:0.34735885 #
2.6197701723176995969311064982321 1453:0.49718425 1725:0.4748354 2674:0.60590893 #
2.8798301520329752101190479152137 306:0.11530226 405:0.12353483 1596:0.090194359 1800:0.21171124 2883:0.12921546 3504:0.11950672 5541:0.1217817 5737:0.1389242 5763:0.11582881 6892:0.1389242 7106:0.13637073 9276:0.14204971 #
2.8798301520329752101190479152137 203:0.21797186 665:0.25708717 1828:0.28541106 2092:0.26521218 2394:0.23609236 4058:0.28827485 #
2.8798301520329752101190479152137 124:0.11032886 238:0.1020591 314:0.1068915 608:0.096307404 881:0.1039241 1800:0.26921305 2009:0.12420613 2894:0.1441585 3676:0.15026531 12027:0.1570875 #
-0.028996218400949815702238865355866 1800:0.8387022 4773:1.0035462 #
-0.66666433285052140167437073614565 50:0.13636364 501:0.33252546 502:0.21640001 2289:0.27517146 2507:0.33252546 #
-2.058654100443449319612909675925 532:0.1705237 541:0.13039666 733:0.19300228 1000:0.17318279 3279:0.2206758 4012:0.20563139 11549:0.27264178 #
-1.5317779924458700957501378070447 608:0.45887646 2244:0.60323697 11287:0.97830284 #
0.37024921315977699087795826926595 608:0.24377812 945:0.44716224 4212:0.36949268 8059:0.40074268 #
2.8798301520329752101190479152137 92:0.20515004 104:0.26039794 1638:0.29002261 3595:0.22011501 #
2.8798301520329752101190479152137 9:0.12636137 50:0.090909094 83:0.16006286 793:0.19005325 999:0.15537922 4459:0.17365102 5622:0.21282101 7055:0.21680593 9308:0.21282101 #
2.8798301520329752101190479152137 77:0.36775032 1733:0.3360793 2026:0.45863572 13672:0.49293303 #
-2.8798301520329752101190479152137 50:0.13636364 516:0.15857454 739:0.17983839 2471:0.24058867 3124:0.27114472 3595:0.23512284 5965:0.31417647 #
-1.0812498749235883721553364011925 214:0.25719661 1066:0.27686313 1791:0.31208947 7378:0.36015862 7379:0.36690235 #
-2.8798301520329752101190479152137 92:0.25373819 1244:0.25282449 2074:0.34662226 3065:0.31115171 #
-2.8798301520329752101190479152137 541:0.41864192 999:0.53973836 1596:0.48894837 #
-2.8798301520329752101190479152137 94:0.13159747 314:0.11392383 484:0.12190056 696:0.16396347 1539:0.14456926 2693:0.14787374 2800:0.18189165 5264:0.17512095 8324:0.20567301 #
1.3141226133444636747782396923867 796:0.61396044 6355:0.86398536 #
2.3082361908731323651977618283127 160:0.28289369 273:0.228476 11258:0.36203507 16632:0.45973966 16633:0.48915142 #
2.8798301520329752101190479152137 238:0.19225085 796:0.2284504 1029:0.29374301 3128:0.30631736 4002:0.2982271 #
2.8798301520329752101190479152137 27:0.20155366 149:0.11015232 509:0.19406606 618:0.23165579 896:0.20864241 1734:0.22118917 2244:0.19721209 17602:0.27011895 #
-2.8798301520329752101190479152137 796:0.39293468 3071:0.43502998 4443:0.60184747 #
-1.9600499999404628059807009776705 149:0.26036003 796:0.44651669 1556:0.4043099 11237:0.71050674 #
-0.85036116003399397911266532901209 796:0.61396044 797:0.87788665 #
2.8798301520329752101190479152137 50:0.10344828 196:0.13916315 581:0.22294056 1179:0.20052969 2840:0.22493277 3129:0.20476092 4459:0.1976029 9308:0.24217562 #
2.8798301520329752101190479152137 50:0.085714288 541:0.11363138 1451:0.21494551 3060:0.18319665 4763:0.16891094 5684:0.19472948 14041:0.20901601 16103:0.20441703 16930:0.23758784 #
-2.8798301520329752101190479152137 50:0.13333334 256:0.28734562 511:0.21772581 4983:0.32513601 6034:0.32513601 #
2.8798301520329752101190479152137 50:0.15789473 193:0.22886756 1437:0.25586337 1607:0.26356354 4252:0.36963648 4811:0.37655768 #
-1.3138407329856349736729725918849 846:0.34608704 1734:0.50007987 2546:0.50007987 4123:0.50768864 #
-1.0104214428309135076489155835588 1027:0.81538129 1028:0.29437375 1029:0.39471719 #
-2.8798301520329752101190479152137 50:0.23076923 453:0.39647457 1141:0.40007484 4042:0.51189202 #
-2.8798301520329752101190479152137 44:0.091799714 137:0.078409739 149:0.046192907 238:0.066667631 344:0.072397418 413:0.11539671 582:0.082294926 860:0.072535105 1078:0.095352948 2337:0.084040426 2577:0.11148198 5110:0.091200866 5379:0.097641483 7639:0.11799291 8006:0.095352948 8007:0.11799291 8008:0.093092866 #
-2.8039314644026189782266555994283 459:0.20257689 846:0.18511632 3128:0.30631736 4029:0.27745041 6538:0.3499113 6539:0.3499113 6540:0.3867709 #
2.8798301520329752101190479152137 162:0.078981631 422:0.068230994 1857:0.10884854 1924:0.071042269 3191:0.11059989 3195:0.087707967 3964:0.081905089 5816:0.10884854 5821:0.10479679 6895:0.10884854 9877:0.086062975 10274:0.076006651 17257:0.13095392 17258:0.13095392 #
2.8798301520329752101190479152137 67:0.46107936 1448:0.63620436 2353:0.50774091 #
-2.8798301520329752101190479152137 39:0.071951151 63:0.084957153 124:0.064758249 360:0.062894784 418:0.07625059 549:0.069618337 559:0.086864233 860:0.13035294 1058:0.085312605 1653:0.087735824 1818:0.096443422 2404:0.074698105 4012:0.090895034 5932:0.09029872 6396:0.097545102 9943:0.11326919 9944:0.12051557 #
2.8798301520329752101190479152137 179:0.16008347 296:0.16991431 496:0.14331512 865:0.1357121 999:0.1486236 2273:0.17737252 2364:0.15374282 15782:0.24103114 15783:0.24103114 #
-2.3721486640687090563517358532408 1299:0.84132648 2353:0.63467616 #
-2.8798301520329752101190479152137 238:0.085224606 343:0.15083629 814:0.099402592 1937:0.11585984 2142:0.13579017 7034:0.15083629 7035:0.17145514 7036:0.14480604 7037:0.17145514 7038:0.17145514 #
-2.8798301520329752101190479152137 9:0.17374687 198:0.18518215 370:0.21878828 1550:0.19544882 1630:0.21439938 2353:0.21155871 3177:0.26132324 3219:0.22602928 #
0.87735868605570821454620045187767 96:0.22921573 796:0.20900781 2035:0.27757663 5445:0.24844338 5898:0.32013163 8407:0.29412267 8700:0.16369121 #
2.8511651488086524608434046967886 430:0.14947656 510:0.23090273 595:0.26868188 596:0.19778834 608:0.13930178 1733:0.16203824 2874:0.23090273 3140:0.16136025 5617:0.24341184 6421:0.24037899 #
2.4076824173658679661969017615775 796:0.2338897 990:0.20377192 9038:0.30532774 13800:0.30532774 13801:0.37217021 #
2.8798301520329752101190479152137 104:0.21854827 245:0.12376317 335:0.17452034 459:0.15555012 796:0.17541727 881:0.1503188 2111:0.24341184 8059:0.22899581 #
0.94481522812039153702556859570905 149:0.10048983 443:0.37542358 1155:0.1762414 1552:0.18856479 12253:0.24642432 14087:0.24642432 15433:0.26396817 15434:0.26396817 #
-2.8798301520329752101190479152137 94:0.35719314 1156:0.38298789 2629:0.36267206 #
-2.8798301520329752101190479152137 75:0.24583879 718:0.21037427 1448:0.25967526 5238:0.3394112 5239:0.24237007 #
-2.8798301520329752101190479152137 896:0.3499808 1340:0.4248918 1342:0.33943811 9038:0.41366985 #
-2.8798301520329752101190479152137 535:0.1732906 1448:0.27072525 1466:0.26039794 2174:0.19620398 7940:0.33257762 9274:0.25630003 #
-1.8364891796812776725289495516336 149:0.076372273 1038:0.12470862 1634:0.16061468 1656:0.14204988 3852:0.14235784 4876:0.20841531 4877:0.1696545 4878:0.22174865 4879:0.20061581 #
2.8798301520329752101190479152137 198:0.24690953 273:0.2157829 739:0.21980248 2862:0.33632067 3140:0.25100482 4267:0.31726497 14050:0.43419856 #
2.8798301520329752101190479152137 63:0.19540146 67:0.15369312 173:0.13824368 695:0.28824863 1400:0.20905858 2341:0.16669014 4585:0.23039609 #
2.0266912239831591513450348429615 273:0.228476 1450:0.32576904 1607:0.29457104 2572:0.35798499 6686:0.39591834 15164:0.48915142 #
2.8798301520329752101190479152137 198:0.2402363 370:0.14191672 668:0.17985395 756:0.15187034 1215:0.15052584 1309:0.16361547 1427:0.12131459 2560:0.15657258 8724:0.19771785 #
-1.1338601186310455215533465889166 8724:1.21926 #
-1.4137932224865421559911737858783 41:0.14997405 695:0.17647874 1099:0.27818498 2338:0.22306119 4585:0.28211766 6925:0.25271764 7777:0.21789466 11637:0.28665686 #
-2.8798301520329752101190479152137 198:0.32921273 229:0.36147735 1578:0.3592113 2010:0.46457464 6355:0.51199132 #
-1.2728095780707016082544669188792 1308:0.79115337 1309:0.86482459 #
-2.8798301520329752101190479152137 149:0.1060726 321:0.13888603 422:0.16046919 2023:0.22198637 3118:0.16891728 3140:0.16733655 4334:0.23076341 4874:0.27863309 #
2.8798301520329752101190479152137 149:0.059665836 179:0.11505999 191:0.087509163 999:0.10682321 1483:0.12115335 1602:0.11897437 1775:0.11636642 1846:0.12980442 2439:0.11603033 3141:0.12427466 8898:0.1524075 #
2.8798301520329752101190479152137 346:0.40953618 2629:0.40619272 3380:0.47092557 5069:0.4689635 #
2.556110318559833949336734804092 860:0.21937448 1156:0.26155269 1342:0.25664833 1857:0.337165 10365:0.34258991 #
2.8798301520329752101190479152137 90:0.3287347 191:0.30003139 10441:0.45110536 17528:0.59396958 #
-2.8798301520329752101190479152137 50:0.084507041 137:0.13694096 203:0.1289411 210:0.12326118 244:0.18061641 264:0.19783361 346:0.14420289 408:0.12391073 459:0.12268741 739:0.11144914 11747:0.23424153 11748:0.23424153 #
0.1299729973360045920394156837574 831:0.15697519 1237:0.10285661 2582:0.12386692 3237:0.1576502 5695:0.20841531 9223:0.1576502 12803:0.19508161 13640:0.20061581 13717:0.22174865 13718:0.20841531 13719:0.20061581 13720:0.22174865 #
-2.8798301520329752101190479152137 41:0.24495761 238:0.27555954 9034:0.3305293 9274:0.4015367 #
-2.8798301520329752101190479152137 191:0.24708469 1268:0.30708438 3696:0.36203507 11146:0.48915142 #
2.8798301520329752101190479152137 426:0.1618581 1308:0.23566271 1578:0.20635542 3474:0.25156948 3828:0.22051351 13921:0.35385424 #
2.8798301520329752101190479152137 90:0.18784839 393:0.21228461 1240:0.21835862 2023:0.24463804 3621:0.23309264 4779:0.30706501 #
0.91534398587648480027922914814553 229:0.60999304 5573:0.69819856 7446:0.89432448 #
0.53404591913017129822804918148904 1578:0.29390013 2253:0.35676178 2940:0.43361187 3056:0.33953246 3687:0.38010651 #
2.8798301520329752101190479152137 50:0.049180329 82:0.074638598 206:0.085261852 245:0.056809321 246:0.091567025 1928:0.10031724 3874:0.096099079 4210:0.10598814 5426:0.12812416 10864:0.12332939 12253:0.11513267 14087:0.11513267 15834:0.10909174 17648:0.12812416 17649:0.11728846 #
-0.52918455471715186710923717328114 422:0.17330672 563:0.19646734 1578:0.19397409 2770:0.31262296 3639:0.2564753 3640:0.33262298 3641:0.30092373 3642:0.26092201 #
-2.8798301520329752101190479152137 124:0.1224197 430:0.11466695 453:0.14121012 496:0.13546224 2064:0.14002174 2336:0.17302671 2587:0.14097494 5068:0.16765347 5069:0.16060394 7445:0.22782396 7446:0.19601633 7447:0.18043351 #
-2.8798301520329752101190479152137 496:0.17049557 881:0.14513539 1169:0.15593784 4214:0.23834078 4603:0.21777499 4779:0.259417 11154:0.28674394 11155:0.25226068 #
-0.70435580481959958465409954442293 170:0.38817742 535:0.30165401 1370:0.52997005 3033:0.42159867 #
-2.8798301520329752101190479152137 408:0.20946813 426:0.18112691 484:0.22058196 1078:0.28151822 4267:0.27194139 5302:0.3007369 #
2.8798301520329752101190479152137 137:0.46299082 149:0.27275813 354:0.57082212 808:0.4238508 #
0.37815946545342876694562050943205 50:0.22222222 1068:0.40481475 4582:0.5048542 7837:0.55726618 #
2.8798301520329752101190479152137 41:0.16701655 352:0.23867811 774:0.20454545 775:0.20730758 3065:0.26872194 14151:0.3252089 #
2.8798301520329752101190479152137 1040:0.1976029 2169:0.17623426 3696:0.21222745 3976:0.18943559 5169:0.21777499 5178:0.20052969 9071:0.259417 #
-2.8798301520329752101190479152137 149:0.11689634 350:0.20860381 351:0.25599012 352:0.21432321 353:0.26624694 354:0.24463804 355:0.2392671 #
-0.11210310900703490677443596723606 191:0.30003139 844:0.38654882 1107:0.5016495 7837:0.53736377 #
-2.8798301520329752101190479152137 245:0.066007026 393:0.099066153 842:0.11120798 896:0.10332767 1828:0.11416442 3621:0.10877656 5247:0.14886808 5366:0.12544425 6334:0.1179349 8254:0.14329702 8905:0.12820213 8906:0.14329702 8907:0.13934401 8908:0.14886808 #
-1.7951583853069092988619104289683 756:0.34055772 3354:0.36152628 7085:0.33207735 11258:0.37300581 11293:0.47367117 #
-2.8798301520329752101190479152137 13:0.15442757 101:0.17566802 400:0.12033746 1323:0.1370056 1432:0.16342969 3809:0.18043351 9529:0.17566802 10012:0.21412532 #
2.8798301520329752101190479152137 92:0.17531003 162:0.18237576 408:0.31991497 1092:0.19055982 2722:0.17294095 10838:0.26016712 13627:0.27356702 #
0.1390031074099530306042993288429 1169:0.82221764 14786:1.1006858 #
-1.3078854017269463394512740705977 47:0.1437584 408:0.13534863 640:0.16425906 1021:0.14278109 1379:0.20070924 1380:0.19728869 1381:0.20970866 1382:0.14122938 1383:0.14107578 #
2.8798301520329752101190479152137 245:0.11949547 379:0.23209006 484:0.15973178 516:0.12029793 1407:0.14417145 1667:0.2162675 1803:0.19830754 3636:0.19044413 4627:0.259417 6805:0.26950255 #
-1.8742812355769773446922954462934 79:0.13299359 371:0.18293953 2233:0.16153781 4082:0.15260088 4756:0.19199674 8056:0.21709928 10178:0.23098817 10179:0.23098817 10180:0.23098817 #
-2.8798301520329752101190479152137 809:0.26508516 1407:0.17420717 1798:0.22714852 2989:0.23877016 9334:0.26132324 10526:0.32564893 #
-2.8798301520329752101190479152137 60:0.094214462 429:0.1326334 739:0.1014473 774:0.11538462 1254:0.14012818 1407:0.21440881 1574:0.18345118 1575:0.15875852 1576:0.088239014 1577:0.21321985 1578:0.12434237 1579:0.18757847 1580:0.16193525 #
-0.6284147166790264860125603263441 2235:0.58625853 2236:0.71742439 2237:0.57979536 #
-2.8798301520329752101190479152137 50:0.10169491 176:0.1956528 245:0.11747012 314:0.14674935 547:0.1605024 739:0.13411677 1407:0.14172786 3146:0.21120718 4962:0.2004028 #
2.8798301520329752101190479152137 93:0.33128726 351:0.43253499 1375:0.38636452 #
2.6773287157868645991243283788208 355:0.6896522 3044:0.77480268 #
-2.578242953509535695388876774814 3:0.27194139 739:0.18840213 1298:0.3007369 9038:0.30532774 10677:0.39597973 #
0.055886258984885507639095436616117 355:0.53291309 14332:0.68391752 #
2.0741050744425941765314291842515 244:0.61065549 2886:0.63546908 7865:0.66886598 #
-2.8798301520329752101190479152137 334:0.23524225 355:0.26053527 1937:0.24974233 2064:0.22714639 4461:0.31213745 4462:0.32513601 #
-2.8798301520329752101190479152137 149:0.10807397 1375:0.21140701 8148:0.2322489 8631:0.31379527 8632:0.29492733 8633:0.27605888 8634:0.21550073 #
-1.524718635091147023175039976195 50:0.16666667 355:0.32566911 3370:0.38399348 4178:0.43419856 4748:0.3439768 #
-2.8798301520329752101190479152137 137:0.15681948 484:0.29885298 509:0.16276509 1068:0.17629029 1215:0.17965987 2220:0.22655138 2221:0.26824433 2222:0.19528297 2223:0.21042098 #
-2.8798301520329752101190479152137 149:0.18780068 607:0.17318279 628:0.16959681 758:0.10507198 1398:0.21022566 1482:0.180592 2347:0.165948 2975:0.22346005 6288:0.2085916 #
2.8798301520329752101190479152137 50:0.25 171:0.42802623 191:0.35003665 739:0.32970372 #
2.8798301520329752101190479152137 2:0.22431983 13:0.23985559 60:0.15635592 739:0.16835935 955:0.183835 4505:0.28640902 14464:0.32013163 #
0.66086633929751414928688291183789 50:0.084507041 1482:0.15515651 3569:0.17441076 13634:0.18061641 16494:0.22015703 16798:0.21191812 18461:0.23424153 18462:0.23424153 #
-1.5597359260581207252016611164436 739:0.39564446 1840:0.69118828 4156:0.83155745 #
-2.4788493730735705611323282937519 123:0.33678982 322:0.23458055 739:0.21386187 1663:0.23212743 3236:0.31559023 8528:0.28856319 #
2.3347792082103566713158215861768 1437:0.12307351 1544:0.15173753 1718:0.16672969 6178:0.16847079 6681:0.18520406 9806:0.28722546 11595:0.19786264 14967:0.18520406 14968:0.21052086 #
-2.8798301520329752101190479152137 149:0.13018002 173:0.18851411 408:0.19994685 739:0.17983839 3619:0.23153073 5902:0.2891838 5903:0.29144922 #
-2.8798301520329752101190479152137 739:0.13642913 1052:0.21777499 1850:0.18531367 1858:0.17536512 4376:0.21101213 7814:0.28674394 7815:0.24217562 #
2.806733774506474876631045844988 353:0.44986555 514:0.40952185 15519:0.57348788 #
0.87369600843650729871114890556782 149:0.15073475 449:0.26475516 1053:0.33239341 2856:0.30981946 10291:0.37655768 13693:0.3637833 16567:0.3587122 #
-0.8923100988403274147486854417366 50:0.075949363 322:0.10986684 1393:0.1503308 4116:0.18112901 4117:0.18112901 4118:0.21052086 4119:0.17498437 4120:0.19786264 4121:0.15248229 4122:0.18520406 #
2.8798301520329752101190479152137 149:0.11933167 160:0.20038304 190:0.18060178 6334:0.25798258 11159:0.30481499 12127:0.30481499 #
2.8798301520329752101190479152137 496:0.11914148 744:0.13071573 1028:0.11349349 1509:0.17239991 5318:0.14587402 5375:0.14184505 5923:0.16035171 6006:0.16422968 11546:0.16923116 15110:0.20037529 #
-0.24085280786398544083937167670229 335:0.17452034 1358:0.21620615 1524:0.2555213 2887:0.22112793 4004:0.24341184 4055:0.1994853 8955:0.26868188 10569:0.29698479 #
-2.4038328136371500676204959745519 190:0.54180533 2858:0.70680672 8085:0.56578553 #
-2.8798301520329752101190479152137 1028:0.24789369 1258:0.28989768 4650:0.34662226 9274:0.31700265 #
-2.8798301520329752101190479152137 2:0.17571719 487:0.16307725 1647:0.14363976 2003:0.15836395 2274:0.2017924 4149:0.20638607 4504:0.19793555 5555:0.20768707 #
2.8798301520329752101190479152137 408:0.19994685 541:0.36155438 1839:0.21966672 4431:0.28706703 13827:0.37798065 #
2.8798301520329752101190479152137 149:0.054036986 408:0.082996808 452:0.091836885 491:0.10449196 846:0.075094357 1215:0.10508408 1403:0.096107095 1663:0.081025608 1733:0.085605107 2722:0.089733519 5883:0.10311319 13511:0.14746366 14442:0.15689763 14443:0.15689763 #
2.8798301520329752101190479152137 57:0.20505382 260:0.27815235 408:0.19994685 2341:0.22730473 4644:0.29144922 5625:0.33252546 #
2.5008699238000766662537444062764 41:0.3340331 1663:0.39039612 2175:0.53744388 18201:0.7559613 #
-2.8798301520329752101190479152137 90:0.317399 92:0.33248454 846:0.27448282 5134:0.47003666 #
-2.8798301520329752101190479152137 90:0.28764284 91:0.47019333 92:0.30131412 846:0.24875006 #
-0.16085383841708375540768827249849 78:0.30570206 582:0.29155919 1556:0.25413767 1593:0.27956098 4784:0.39496472 #
-2.8798301520329752101190479152137 360:0.54246753 1839:0.60408348 #
2.8798301520329752101190479152137 1692:0.44733548 1745:0.39182124 2858:0.86991596 9173:0.53168327 #
0.082555333734461069927768051002204 295:0.17404062 355:0.24944867 1182:0.21711853 1916:0.25896788 4214:0.29412267 6708:0.22570755 #
2.3364655157099156745914569910383 895:0.40631345 1732:0.48244289 3875:0.49322173 12438:0.60119802 #
-1.2212871446471122993671087897383 124:0.091190182 273:0.079267189 404:0.11915141 408:0.089772053 582:0.10412828 3370:0.14105883 6919:0.14601216 6920:0.28665686 7501:0.25967526 10312:0.15353251 10313:0.1697056 10314:0.1697056 #
-2.8798301520329752101190479152137 408:0.087105557 581:0.12802528 582:0.10103536 881:0.083345078 2563:0.11233074 4833:0.11812245 4899:0.11028626 4966:0.13496102 5115:0.14486258 7454:0.13907115 7743:0.15476385 9789:0.13177417 10142:0.10907041 11077:0.14167517 11078:0.13907115 #
-2.8798301520329752101190479152137 149:0.13970537 608:0.19026585 841:0.28595334 2245:0.32461444 3283:0.28154916 5488:0.33246496 #
-1.1618431669914726089842815781594 50:0.13043478 643:0.1743993 929:0.25935581 1482:0.23948069 2618:0.24285167 3177:0.27268511 4181:0.30133641 #
-2.8798301520329752101190479152137 77:0.13984871 273:0.10941105 511:0.13799523 535:0.1147135 1169:0.12738584 1307:0.19198681 1463:0.14420289 1725:0.14044428 3004:0.19198681 3169:0.23424153 #
-0.3609622426967981079215519457648 50:0.14285715 149:0.13637906 170:0.24954262 3348:0.32913727 7409:0.65827453 7827:0.24255601 #
-2.447649858250927401570606889436 1:0.077881537 127:0.070681788 149:0.036024656 581:0.081324227 582:0.064179696 1323:0.062901936 1376:0.078890033 1540:0.070258975 1729:0.078372478 2012:0.070468999 3694:0.08694192 5107:0.068400942 5474:0.074363306 6233:0.089994922 11136:0.098309115 11137:0.08002571 11138:0.098309115 11139:0.10459842 #
0.88675198659769438602751279177028 60:0.13865525 190:0.16356386 229:0.18414883 1244:0.18127038 1839:0.18236482 7322:0.25111684 14352:0.24852163 #
2.8798301520329752101190479152137 360:0.41330859 422:0.41263506 1058:0.56062567 4695:0.4336147 #
2.3744046230320074997166557295714 50:0.10526316 896:0.19034044 2406:0.2232296 2610:0.20326966 3186:0.20654631 4693:0.24252219 14698:0.26396817 #
2.8798301520329752101190479152137 90:0.17045502 607:0.1956324 4462:0.27094668 4563:0.22307594 9385:0.24159446 10996:0.27094668 15432:0.27863309 17220:0.20627615 #
-2.8798301520329752101190479152137 171:0.14468493 233:0.14879084 430:0.117897 1313:0.13835728 1756:0.15643968 1781:0.086327933 3490:0.17441076 3491:0.20607212 3492:0.40307584 3493:0.18212046 #
-2.8798301520329752101190479152137 580:0.18786643 860:0.19136922 2601:0.2413916 3405:0.26189771 5375:0.25049233 6422:0.31130043 6599:0.29412267 #
-0.95582775453668589182854020691593 245:0.17326844 344:0.22443199 360:0.216987 408:0.21994154 1058:0.29432848 1407:0.2090486 11591:0.41577873 11592:0.41577873 #
-2.8798301520329752101190479152137 351:0.20231476 758:0.10337728 1556:0.1434648 1783:0.19528297 2711:0.22296396 3083:0.20098747 4133:0.25211531 4134:0.2124459 4135:0.1855135 #
2.8798301520329752101190479152137 1177:0.65377849 3283:0.7214697 #
2.8798301520329752101190479152137 50:0.13333334 322:0.19287734 1021:0.20623936 1098:0.26275033 5309:0.32513601 7923:0.26638365 9676:0.26638365 #
2.8798301520329752101190479152137 3:0.17305362 50:0.090909094 149:0.086786672 228:0.14047672 245:0.10501117 295:0.12393802 497:0.16519892 707:0.16735999 752:0.19137803 6907:0.20653126 #
2.6895101927800739716190037142951 13:0.37577376 314:0.28860706 834:0.2907033 1892:0.35589463 3004:0.45436877 #
-2.8798301520329752101190479152137 13:0.45092851 834:0.34884396 1892:0.42707354 2816:0.47295061 #
-0.19117043952341097878822040456726 739:0.11636602 892:0.17171821 1207:0.18858479 1665:0.18711893 1733:0.13344325 2010:0.18446346 3205:0.1703878 3887:0.19185442 5955:0.1731344 6558:0.17464902 #
-0.44971703202930068954401576775126 13:0.66313016 1810:0.77480268 6952:0.97830284 #
-2.8798301520329752101190479152137 50:0.12 245:0.13861474 314:0.17316423 323:0.19003674 1021:0.18561542 1244:0.1921466 3283:0.23087031 7294:0.31262296 #
2.8798301520329752101190479152137 126:0.18598866 567:0.21039879 2601:0.2413916 3129:0.2526837 8372:0.3044509 14445:0.35385424 #
2.8587930287019633901479664928047 184:0.40932027 273:0.27743515 758:0.22890683 1313:0.35083455 5572:0.43709654 8634:0.40791211 #
1.6271432549411857237942058418412 1028:0.5887475 4504:0.74225831 #
2.8798301520329752101190479152137 187:0.1629028 233:0.13719675 245:0.090009578 673:0.13692249 1052:0.1640383 1663:0.11154175 2451:0.18583366 3984:0.12950057 4411:0.14734292 13898:0.19001454 16733:0.21598895 #
2.8798301520329752101190479152137 273:0.114238 345:0.16630746 1028:0.13852882 1803:0.16914466 2640:0.1703878 2850:0.17805211 3868:0.1679638 17153:0.24457571 17154:0.24457571 #
-2.208545847231870862259484056267 203:0.35210839 1177:0.40232521 3794:0.49322173 5594:0.63965958 #
-2.8798301520329752101190479152137 149:0.076372273 403:0.16318271 486:0.14727679 1177:0.13947274 1844:0.14266096 2451:0.19078922 4534:0.18431687 6528:0.18728249 6975:0.17562194 9373:0.18431687 #
-2.8798301520329752101190479152137 9:0.18533 852:0.25559637 1177:0.23245457 2130:0.28068778 3140:0.20080386 4012:0.27874479 10373:0.31213745 #
-1.2329852223489936591249716002494 497:0.72687525 1413:0.86203682 #
-2.7344713920920074023968027177034 50:0.14285715 422:0.20631753 2722:0.22647031 5715:0.39597973 5716:0.32454914 5717:0.39597973 5718:0.32913727 #
2.8798301520329752101190479152137 314:0.32067451 834:0.32300368 880:0.44615188 1892:0.39543846 #
2.8798301520329752101190479152137 13:0.25620937 39:0.22566496 718:0.23428044 2137:0.25103998 11156:0.3252089 14670:0.37798065 #
-0.6394068183502235047654949084972 3144:0.26016712 4196:0.23720184 5254:0.21497755 6071:0.26602036 8457:0.30238453 8458:0.30238453 #
2.8798301520329752101190479152137 13:0.16578254 173:0.12197971 408:0.12937738 1584:0.16200164 3303:0.18325329 3823:0.19015518 4107:0.16243765 4903:0.1679638 13961:0.20329067 #
-2.8798301520329752101190479152137 171:0.24458642 314:0.20614789 1331:0.28541106 2009:0.23954038 2275:0.29865512 #
-2.8798301520329752101190479152137 29:0.075929627 50:0.044117648 87:0.086567201 173:0.060989857 197:0.078163728 425:0.075670376 629:0.095927209 1503:0.097861707 1899:0.091626644 2253:0.086567201 3071:0.079968743 4168:0.083981901 4318:0.095927209 9156:0.10521465 9999:0.10521465 10000:0.098979585 10001:0.12228785 #
2.8798301520329752101190479152137 57:0.11277959 152:0.11505714 315:0.1513443 1238:0.13594687 2478:0.16163191 2687:0.13561757 3496:0.13374466 3964:0.13002433 5484:0.1682653 5559:0.13884021 17289:0.17557733 #
-2.8798301520329752101190479152137 32:0.14880142 36:0.15245225 756:0.14787374 3303:0.16396347 3529:0.17331113 5683:0.2188309 5684:0.1793561 5685:0.20567301 5686:0.19797613 #
1.5227222341026604990332771194517 149:0.088121854 720:0.14939702 1068:0.16815382 1697:0.18112522 2730:0.17136787 2978:0.16947864 4477:0.18725368 9922:0.21267331 14867:0.25586382 14868:0.19728869 #
2.8798301520329752101190479152137 956:0.13529077 1015:0.13600138 1241:0.14597242 1413:0.15963645 2144:0.099845223 4985:0.13394327 5755:0.15384227 6341:0.1487173 7450:0.19297715 18301:0.20532282 #
2.8798301520329752101190479152137 64:0.18387516 228:0.17169376 3681:0.22664265 4012:0.23228732 4687:0.24159446 5978:0.24928191 7525:0.23563124 #
2.0840118364461881483862271124963 149:0.16846825 4012:0.36892691 6702:0.39144683 9479:0.40091363 16092:0.48915142 #
-2.8798301520329752101190479152137 3:0.38071796 214:0.33435556 321:0.24999486 2349:0.42413625 3789:0.38203225 #
-2.8798301520329752101190479152137 321:0.17856775 422:0.20631753 744:0.25831917 3910:0.31688553 4431:0.3007369 9401:0.31688553 #
-2.8798301520329752101190479152137 67:0.10361334 296:0.13173132 990:0.096162029 1086:0.15315801 1087:0.15124971 1088:0.11373964 1089:0.13228247 1090:0.17563088 1091:0.15124971 1092:0.11776169 1093:0.12666531 1094:0.14192078 1095:0.098995186 #
-2.4452053053481543898328709474299 2003:0.35191989 4149:0.45863572 6200:0.61596847 #
2.8798301520329752101190479152137 36:0.10728121 48:0.092329107 170:0.097044356 238:0.076544322 838:0.093016297 921:0.095790789 1821:0.089802824 2552:0.12621355 2816:0.10947931 3314:0.10575499 6113:0.092605628 16113:0.14473286 16114:0.15399212 16115:0.15399212 #
2.8798301520329752101190479152137 50:0.10344828 87:0.20298515 198:0.1532542 910:0.20213944 3140:0.1557961 3558:0.23501833 4168:0.19692309 4868:0.26950255 #
-0.71943810208798930627693835049286 50:0.15384616 193:0.44599834 9385:0.33451539 10132:0.4264397 #
-2.8798301520329752101190479152137 50:0.07692308 665:0.13843156 1617:0.16440725 2587:0.13193808 3533:0.18007931 5905:0.14854321 6113:0.12822318 10540:0.19289982 10541:0.20039934 10542:0.21321985 10543:0.16440725 #
-2.0271709384673597398318634077441 67:0.062308021 74:0.07385134 193:0.058763295 459:0.0588568 758:0.043306697 846:0.053783797 1157:0.14396948 1323:0.067577079 1511:0.075706564 1548:0.069773175 1556:0.06010012 1630:0.069534935 2182:0.092101783 4063:0.092101783 5699:0.096683733 10704:0.10561587 10705:0.11237263 10706:0.15779512 10707:0.10561587 10708:0.10561587 10709:0.11237263 10710:0.10166342 #
-2.8798301520329752101190479152137 50:0.11538462 64:0.19094728 1663:0.16516759 1781:0.23574166 2092:0.21420984 2832:0.25088656 2833:0.22199067 2854:0.27517676 #
1.2735133135104512724922187771881 50:0.14285715 334:0.25204527 1237:0.18367252 6064:0.25421044 9401:0.63377106 14074:0.33443299 #
2.8798301520329752101190479152137 3:0.30056682 214:0.26396492 1055:0.32792693 13722:0.34331843 13723:0.21603824 #
0.33213017282439022404005868338572 124:0.073251128 245:0.056809321 295:0.067048438 860:0.07372421 881:0.068998791 1141:0.085261852 1709:0.10511283 3512:0.1103379 3997:0.081167012 4315:0.10909174 6234:0.11992721 7411:0.11173002 13859:0.10598814 14514:0.13632089 14515:0.12332939 14516:0.11330955 14517:0.13632089 #
2.8798301520329752101190479152137 674:0.11611708 1014:0.16416126 1370:0.17450234 1598:0.15909879 2595:0.17842829 2675:0.13623387 3151:0.14026631 10356:0.18349007 10373:0.17129496 13663:0.20281889 13664:0.20281889 13665:0.18349007 #
-2.8798301520329752101190479152137 350:0.24930701 354:0.29237229 484:0.22596201 711:0.27495641 934:0.26526219 1506:0.28154916 #
-2.8798301520329752101190479152137 393:0.1891263 541:0.14462174 990:0.15560766 3558:0.24783751 6091:0.30238453 6092:0.23510095 6093:0.22013716 6094:0.27356702 #
-2.8798301520329752101190479152137 273:0.1252933 953:0.16250773 1584:0.17767923 1972:0.16871703 3151:0.1855135 3152:0.18618573 3283:0.18618573 4819:0.17767923 5089:0.2171165 #
-2.8798301520329752101190479152137 1026:0.27877358 1816:0.26216775 3578:0.29170966 5727:0.32665548 5728:0.3402586 #
-2.8798301520329752101190479152137 149:0.090919375 354:0.19027403 491:0.17581187 496:0.15696418 741:0.17100221 2341:0.15875252 6713:0.22295533 11562:0.22713004 11833:0.21125701 #
0.72960894025023770304017034504795 2296:1.0615308 3109:1.1482681 #
2.52692096331411475418349255051 50:0.12244898 2832:0.26624694 2833:0.23558195 2856:0.24026814 3526:0.27471885 4082:0.22422987 4470:0.28665686 #
2.8798301520329752101190479152137 41:0.16330507 47:0.20765102 50:0.13333334 193:0.19326594 204:0.26162532 269:0.25846049 306:0.26391408 #
2.8798301520329752101190479152137 50:0.06818182 60:0.083508275 88:0.12054835 852:0.13070269 944:0.12029433 1360:0.11886882 2832:0.14825115 2833:0.13117631 5286:0.14071777 8604:0.13987719 11024:0.15708824 12756:0.17762668 #
2.8798301520329752101190479152137 193:0.17748913 229:0.19918139 921:0.21113072 1115:0.22866471 3526:0.27471885 12401:0.31900305 18267:0.3394112 #
-2.8798301520329752101190479152137 459:0.32262245 3109:0.46781296 3110:0.5048542 3111:0.57893145 #
2.8798301520329752101190479152137 92:0.092712037 219:0.1005813 352:0.1009792 511:0.094208285 607:0.10157836 1010:0.13292082 2610:0.11140741 3033:0.1094535 3368:0.12797301 4656:0.10650142 11355:0.14068384 12494:0.13505948 15942:0.1502995 #
-2.0455201320644347262600604153704 50:0.25 334:0.44107923 5299:0.49483889 6907:0.56796098 #
-2.8798301520329752101190479152137 43:0.29874688 204:0.49054748 541:0.33142483 3154:0.43260932 #
-2.8798301520329752101190479152137 7:0.13748564 50:0.069767445 459:0.10128845 1742:0.13108388 2547:0.11788688 3109:0.14687151 5474:0.13748564 6074:0.15850073 8880:0.1701293 9538:0.19338545 9539:0.19338545 9540:0.19338545 9541:0.19338545 #
1.5488079235420117996113731351215 354:0.54487562 453:0.46856087 601:0.4968181 14830:0.71050674 #
2.8798301520329752101190479152137 682:0.33690724 898:0.36252499 1506:0.38478383 6195:0.35286337 #
2.8798301520329752101190479152137 149:0.15073475 197:0.27974388 959:0.27475971 1258:0.28989768 9956:0.39595225 #
2.2316960768520823776839279162232 149:0.13970537 496:0.24118885 739:0.19299731 947:0.25465533 1331:0.29237229 2911:0.33246496 #
-1.7917784296302545765655622744816 6195:2.6464753 #
-2.0320471529764607687695843196707 682:0.27316803 898:0.29393917 2244:0.27716294 6195:0.28610545 10638:0.44949052 #
-1.040589555456352455209412255499 55:0.39557669 232:0.4013716 2629:0.36267206 9956:0.53736377 #
1.3748280882298589133938548911829 81:0.085051 196:0.0667063 430:0.069179237 675:0.10059083 1228:0.10172886 1358:0.10006235 1381:0.11265342 1769:0.099068299 2169:0.084475927 2185:0.09346205 4058:0.10006235 4146:0.092599764 5762:0.097717069 6733:0.087671526 13859:0.10686407 #
2.8798301520329752101190479152137 88:0.14335479 146:0.11762032 149:0.077404328 229:0.13189039 872:0.14191672 2169:0.13812956 8159:0.1747372 12316:0.19771785 18104:0.21123174 #
2.8798301520329752101190479152137 43:0.14937344 545:0.22100531 2341:0.20836267 3154:0.21630466 4427:0.3134622 14712:0.34648228 #
2.8798301520329752101190479152137 273:0.17654964 532:0.23640786 849:0.29650229 854:0.27662477 3154:0.23596872 16941:0.3252089 #
2.8798301520329752101190479152137 50:0.084507041 245:0.097616017 273:0.10941105 443:0.1506982 541:0.11203093 547:0.13337524 1094:0.1779007 1889:0.16381299 2357:0.16142207 4998:0.19783361 #
-2.8798301520329752101190479152137 149:0.23866335 335:0.40721413 881:0.35074386 1600:0.47589746 #
-1.7153540235796034263415776877082 124:0.27080721 322:0.26301455 608:0.2363909 1744:0.41890198 1745:0.30870762 2572:0.36883301 #
-2.8798301520329752101190479152137 445:0.23505156 959:0.2428109 1152:0.22638859 4282:0.30631736 8302:0.3867709 8303:0.36351508 #
-2.8798301520329752101190479152137 149:0.1060726 707:0.2045511 2492:0.23390648 3390:0.19603521 3814:0.26011455 4050:0.27863309 4051:0.30798423 #
-0.15952184949716188833157559656684 50:0.15384616 601:0.28025636 637:0.31751704 739:0.2028946 1917:0.34951445 1918:0.35445553 1919:0.28246441 1920:0.31381291 #
2.8798301520329752101190479152137 170:0.16124293 317:0.16188587 323:0.1461821 2040:0.21267331 2629:0.15622798 3261:0.17825186 4641:0.21267331 9114:0.1943223 10294:0.20070924 13493:0.25586382 #
2.8798301520329752101190479152137 426:0.11025117 682:0.14648141 741:0.15613246 1876:0.18305723 4942:0.17839409 8238:0.21204522 15391:0.20356792 18170:0.1496584 18171:0.20737959 #
1.8520400132777914414816677890485 50:0.16216215 302:0.32557029 1529:0.32895917 2629:0.27445453 14003:0.37361526 #
-2.8798301520329752101190479152137 50:0.10909091 300:0.25538519 301:0.26602036 302:0.21902001 303:0.25134119 304:0.22252187 305:0.17389363 306:0.2159297 #
-2.8798301520329752101190479152137 618:0.24583879 1529:0.24839775 3687:0.25599012 3861:0.27471885 4958:0.31900305 6270:0.28665686 8172:0.29202431 #
-2.7680648547539452586363495356636 50:0.22222222 126:0.32375804 186:0.3546496 947:0.38669887 2232:0.49293303 #
-2.8798301520329752101190479152137 41:0.13122728 64:0.17730819 496:0.17658471 5977:0.29698479 5978:0.24037899 5979:0.29698479 #
2.8798301520329752101190479152137 711:0.32209179 881:0.24051008 1205:0.26944152 1993:0.30122948 2362:0.39496472 3993:0.41803202 #
1.7918780014447028836599429268972 2244:0.26294944 7552:0.31951857 8035:0.34515959 11470:0.34515959 17565:0.40079868 #
2.8798301520329752101190479152137 43:0.21727045 149:0.17357334 2574:0.40330884 6907:0.41306251 10217:0.45594504 #
2.8798301520329752101190479152137 55:0.21097423 622:0.12981965 677:0.091392286 990:0.081508771 1407:0.079637557 1990:0.10124064 3595:0.09852767 4813:0.1095413 8085:0.086214937 11866:0.14886808 13420:0.14329702 18425:0.15839189 18426:0.16982627 #
1.3622492458156980621453158164513 535:0.1536728 796:0.18534656 1839:0.18236482 3479:0.2170158 3910:0.25111684 4835:0.27605888 15065:0.29492733 #
-1.034355276798913481073327602644 1070:0.57959473 1205:0.44906917 1403:0.48511201 5605:0.59731025 #
-1.718263875975917231997414091893 84:0.43469605 1205:0.33680189 2291:0.38841963 10922:0.55825531 10923:0.59396958 #
-2.8798301520329752101190479152137 535:0.12726028 718:0.1610678 726:0.15742937 1258:0.17212674 1726:0.19233112 1727:0.17846155 1728:0.19599243 #
-0.94456304069491892061449789252947 535:0.21433312 1789:0.33484441 6076:0.3587122 11644:0.4376618 11645:0.4376618 #
1.0949618399044265260044994647615 149:0.19093068 2164:0.38769075 3195:0.37129706 3687:0.41811717 #
1.0697252595110700035263562313048 50:0.375 14515:0.94038665 18761:0.73275548 #
2.8798301520329752101190479152137 50:0.073170729 160:0.11729738 1220:0.13296498 1342:0.12832417 1816:0.1374782 2336:0.15403597 7334:0.17842829 9595:0.16416126 10251:0.16230722 13621:0.20281889 13622:0.18349007 #
2.8798301520329752101190479152137 50:0.17647059 774:0.2647059 1088:0.29773024 1514:0.34077561 1603:0.32400328 4344:0.38370883 #
2.8798301520329752101190479152137 50:0.14285715 1309:0.28827485 5379:0.28827485 15893:0.33443299 16997:0.39597973 #
-2.8798301520329752101190479152137 910:0.22546323 1240:0.20576102 2164:0.22366774 2400:0.18351984 4157:0.26213583 4308:0.20155366 #
-2.8798301520329752101190479152137 149:0.13320746 321:0.17441502 2077:0.26384664 4168:0.26561719 7531:0.30631736 10786:0.3867709 #
-1.0220260532260578845153986549121 45:0.47668156 3195:0.38410041 3538:0.5390051 3539:0.50452137 #
-2.3431281465984290512949428375578 798:0.2247681 1514:0.23172742 2347:0.20245656 3018:0.28618383 4440:0.24215089 6660:0.33262298 6661:0.30092373 #
-2.8798301520329752101190479152137 15:0.12613727 149:0.10048983 384:0.16492771 408:0.15434495 846:0.13964915 1725:0.17493936 2189:0.20835322 2726:0.2172485 2886:0.1170601 3004:0.23914146 #
2.8798301520329752101190479152137 1070:0.2830579 1728:0.29170966 3154:0.24145637 9800:0.31700146 14613:0.27745041 #
2.8798301520329752101190479152137 81:0.077377222 149:0.043067072 417:0.069461688 429:0.077785 547:0.071200311 1427:0.067498349 1842:0.098090984 2009:0.15128866 4337:0.097222202 4900:0.09641929 5729:0.11000843 5966:0.093693413 7299:0.09641929 7816:0.11312922 15759:0.11000843 15760:0.12504622 #
2.8798301520329752101190479152137 94:0.14287727 169:0.15122716 334:0.15122716 491:0.15823068 496:0.14126776 1407:0.11945634 1937:0.16054864 3110:0.19472948 3821:0.16965905 10514:0.20441703 #
2.8798301520329752101190479152137 63:0.13475962 186:0.11006367 245:0.079663649 608:0.089665517 1369:0.17966838 2547:0.11653186 2671:0.13846093 2906:0.15139823 3782:0.14625388 4534:0.15889385 5507:0.15139823 12176:0.17966838 #
2.8798301520329752101190479152137 149:0.084234126 185:0.15701233 186:0.14081675 252:0.14664035 335:0.14372264 835:0.13425416 3033:0.16739948 6991:0.17464902 11186:0.20329067 12640:0.20656157 #
-2.8798301520329752101190479152137 200:0.44684708 835:0.36517131 1692:0.46522889 9588:0.55295062 #
1.5980701047195930986077883062535 798:1.0216732 10720:1.2391876 #
-2.8798301520329752101190479152137 139:0.094073161 307:0.097750083 416:0.10830711 1038:0.082771212 1351:0.092750356 1736:0.11027631 3852:0.094485298 4593:0.11177832 4594:0.14717831 4595:0.14717831 4596:0.12947895 4597:0.092750356 4598:0.11545222 4599:0.13832875 4600:0.1223342 #
-2.8798301520329752101190479152137 39:0.13790637 252:0.13849366 295:0.11360985 1038:0.12990482 1508:0.14394632 3605:0.15068617 3976:0.15260088 5763:0.16569956 7739:0.19199674 10121:0.18696144 #
-2.8798301520329752101190479152137 149:0.088121854 1427:0.13811199 1892:0.16425906 2422:0.19171113 3597:0.22509415 3598:0.18626991 3599:0.22509415 3600:0.24047922 #
-2.8798301520329752101190479152137 9:0.066718802 54:0.099065311 162:0.080245338 169:0.16937442 743:0.081238545 782:0.095898114 1115:0.089636572 2127:0.10259012 3139:0.1017927 3140:0.072289392 3141:0.095442943 3142:0.093792699 3143:0.12504919 3144:0.11447354 3145:0.13304919 #
-2.7863057718462016509874956682324 375:0.39533639 701:0.38859895 702:0.36503336 1427:0.27203879 8639:0.43361187 10847:0.41306251 #
1.7217365898820145009295856652898 92:0.07592167 743:0.079959199 831:0.18540376 990:0.067389138 1202:0.10371375 1589:0.09692277 2622:0.097505227 3084:0.08822497 4284:0.077755757 4776:0.065419994 6906:0.12307991 14641:0.1126708 18563:0.13095392 18564:0.13095392 #
0.3123472623310969975563011757913 1647:0.31919947 2107:0.47890934 4168:0.42301995 8169:0.45328531 #
2.6483811356182935803360578574939 295:0.080195189 1427:0.088012546 1561:0.11542293 2039:0.12140357 2370:0.11809903 12058:0.12913379 13312:0.14751163 13839:0.13363788 14055:0.14751163 16007:0.15324655 17553:0.11018044 17554:0.15324655 #
0.57947435587314799487756999951671 321:0.23437019 7077:0.40074268 12010:0.44716224 18336:0.51972342 #
2.8798301520329752101190479152137 791:0.092549406 865:0.094587222 1640:0.12852614 1779:0.14778909 2395:0.1445373 2556:0.1020931 3474:0.11943197 3490:0.12508246 4440:0.12229843 10075:0.11317749 14312:0.15789039 14628:0.1679914 14629:0.1679914 #
0.64474971654239521257068190607242 252:0.19552046 1737:0.21171886 2540:0.25826758 3300:0.25580591 9223:0.23183854 9734:0.23286536 17011:0.3064931 17046:0.32610095 #
-2.8798301520329752101190479152137 314:0.13743193 1607:0.15897484 2466:0.15491886 3017:0.18534665 6664:0.22295533 8166:0.2639865 8167:0.24811347 8168:0.21367021 8169:0.19426513 #
-2.8798301520329752101190479152137 3636:0.552288 6807:0.62717575 6808:0.61193514 #
-1.0650577431655738891436158155557 345:0.31413633 346:0.28440014 347:0.3439768 348:0.41794962 349:0.46197635 #
-1.1769564330838417909319559839787 1133:0.78239822 4699:0.75465935 #
2.8798301520329752101190479152137 322:0.11889699 835:0.12505867 1263:0.18043351 1403:0.13955277 1508:0.14197445 1798:0.14935793 2564:0.14757726 3205:0.15871741 4308:0.14357246 5512:0.20611213 11374:0.21412532 11986:0.20611213 #
2.8798301520329752101190479152137 375:0.56722176 487:0.42541891 3892:0.51871163 #
2.8798301520329752101190479152137 50:0.070588239 77:0.11681481 92:0.1134359 190:0.10198689 305:0.11251941 1488:0.15657873 2039:0.14568429 2230:0.14969514 3619:0.1198512 5110:0.13304597 5261:0.1210726 6195:0.12454002 14187:0.15836734 #
2.8798301520329752101190479152137 196:0.215239 344:0.11969706 384:0.12534507 500:0.11664257 771:0.16143392 838:0.13394347 3377:0.14266096 5423:0.16614965 5656:0.18431687 13958:0.1503095 13959:0.20841531 #
1.5271941222679710215004433848662 305:0.096607573 835:0.092214979 2077:0.11460005 2582:0.093838573 3379:0.1376875 3549:0.1083198 4763:0.11943197 4832:0.10807649 5919:0.11892059 8159:0.13061164 11899:0.139634 12484:0.15198168 13595:0.15789039 15896:0.15789039 #
-2.8798301520329752101190479152137 337:0.28854623 834:0.25650293 835:0.26850832 1903:0.30112955 7607:0.48915142 7608:0.48915142 #
-1.1065072104782505135744941071607 2:0.21516392 203:0.18683302 645:0.30706501 853:0.2338973 2409:0.30706501 3377:0.43671724 4955:0.25599012 #
-1.19019007122472397774970431783 50:0.23076923 3892:0.45886031 8787:0.63965958 #
-2.8798301520329752101190479152137 323:0.28793445 838:0.30441695 990:0.25934607 2481:0.38010651 2989:0.34730205 7105:0.39183491 #
-2.8798301520329752101190479152137 9:0.16352648 50:0.11764706 193:0.17052877 196:0.15826397 1029:0.24766567 3379:0.26727575 7823:0.32610095 #
2.8798301520329752101190479152137 149:0.033301864 183:0.05351495 592:0.07115525 640:0.062074643 834:0.050704066 836:0.06663353 1087:0.078262925 1092:0.060934827 1407:0.048615951 1552:0.062489495 4208:0.060934827 4625:0.08506465 4755:0.072448976 6704:0.08506465 6988:0.081663869 11559:0.079250365 17683:0.096692726 17684:0.096692726 17685:0.078262925 17686:0.096692726 17687:0.058853652 #
1.6598167699339569924887882734765 256:0.24866447 430:0.16097476 6276:0.27517676 6807:0.24122144 7627:0.27011895 14199:0.24661086 #
2.8798301520329752101190479152137 50:0.071428575 314:0.10307395 548:0.11709584 1133:0.12108544 1745:0.121278 1816:0.13420491 2009:0.11977019 2687:0.12915958 15413:0.17034753 15544:0.1860851 #
2.8798301520329752101190479152137 15:0.18435447 19:0.1608143 124:0.11457228 322:0.11127538 342:0.13658643 561:0.14911182 1038:0.11991214 4642:0.15093768 7333:0.1608143 9415:0.20039934 16033:0.21321985 #
2.8798301520329752101190479152137 118:0.11243959 302:0.1047487 839:0.10767969 1100:0.091862172 1133:0.088445015 2049:0.1064235 2077:0.098655701 2525:0.076216273 3236:0.10153773 3337:0.10153773 3454:0.13592303 3619:0.088585667 3908:0.11453605 5716:0.11853099 6405:0.10983434 7934:0.098655701 15262:0.14461869 #
-2.8798301520329752101190479152137 430:0.17809974 491:0.23566271 739:0.16835935 952:0.25156948 4384:0.23255315 9530:0.33257762 9880:0.29002261 #
-1.203319072491039642969212764001 4002:0.34658825 4350:0.36840713 4802:0.39543569 10405:0.37962666 11064:0.37962666 #
-2.8798301520329752101190479152137 269:0.18173003 541:0.12428432 1422:0.22358112 2911:0.21298537 6050:0.23509666 6051:0.19122975 6052:0.22861125 6053:0.23509666 #
-2.8798301520329752101190479152137 229:0.22697414 952:0.27497128 1653:0.28157079 1995:0.28626028 4413:0.32665548 #
-1.0181250542998372399239315200248 570:0.54358751 2131:0.38897461 6283:0.50994599 #
0.43822098237777823426242207460746 50:0.31578946 323:0.50009668 1903:0.53886342 18433:0.79190451 #
2.1932827918332842287441053485963 50:0.085714288 196:0.11530661 452:0.13906728 567:0.14126776 739:0.33912382 955:0.12343207 1234:0.20441703 2563:0.16207722 14466:0.23758784 #
2.8798301520329752101190479152137 27:0.14972557 200:0.15958823 323:0.13574053 864:0.15425231 2001:0.15032259 2222:0.17296492 2223:0.18637288 3188:0.18816637 4019:0.17043382 4591:0.18472219 7851:0.2006598 #
2.8798301520329752101190479152137 50:0.125 701:0.26716179 2064:0.21294974 3151:0.23962161 3152:0.2404899 3860:0.22890133 5558:0.30481499 13171:0.32564893 #
1.3622506312027449215662500137114 50:0.2 5508:0.41277215 6398:0.43101841 12250:0.46079218 #
-0.10868858884776907980374005546764 1556:0.49415654 2064:1.1357319 4692:0.63030028 #
-2.8798301520329752101190479152137 1124:0.44716224 2291:0.33986717 4832:0.33436164 11470:0.42066324 #
-2.3400209642101628126908963167807 50:0.23999999 1237:0.30856982 3181:0.43190646 6029:0.53844893 #
1.311614233576783083989880651643 149:0.075367376 173:0.10913975 3118:0.12002018 3119:0.16396347 11186:0.18189165 12109:0.20567301 12645:0.18189165 13585:0.18189165 17523:0.2188309 #
-2.8798301520329752101190479152137 149:0.088121854 183:0.28321758 487:0.15053284 959:0.16062875 3294:0.20709574 3708:0.17759255 3709:0.25586382 3710:0.25586382 #
2.8798301520329752101190479152137 149:0.16846825 393:0.30593958 541:0.23394695 1290:0.31200749 1892:0.31402466 4227:0.33156508 #
1.9391027606859436716035816061776 580:0.23236112 739:0.20823392 990:0.2252216 1556:0.23407415 4837:0.33746752 11110:0.36963648 18507:0.4376618 #
2.8798301520329752101190479152137 344:0.080154285 798:0.1003429 952:0.10556933 998:0.088414066 1313:0.087708637 1326:0.10129826 2223:0.11648304 3124:0.10652114 3352:0.10233007 4563:0.10755447 4955:0.11199567 6133:0.12541237 6636:0.11648304 7313:0.13434094 15031:0.1484924 #
2.3866525175872972397428384283558 123:0.2543107 162:0.20470749 8017:0.17179291 13491:0.29202431 14508:0.28665686 17902:0.3394112 #
2.8798301520329752101190479152137 541:0.082002021 744:0.11184954 1337:0.11418709 1601:0.091854565 1756:0.11450739 2161:0.12482004 2445:0.10959038 9854:0.14251304 10676:0.15511532 11551:0.15511532 13794:0.14480604 #
-1.795029224851454108247139629384 323:0.28793445 1323:0.30307299 3906:0.27142733 4227:0.34161252 6822:0.30922943 11574:0.47367117 #
-0.46618419463891813681044595796266 162:0.4012267 405:0.50896353 11209:0.66524595 #
-2.8798301520329752101190479152137 739:0.2826032 2223:0.46593216 3121:0.41538292 5955:0.42046925 #
0.92627381858539248327133464044891 149:0.053036302 296:0.10855637 739:0.073267497 1507:0.09997835 2582:0.086018696 3789:0.21224014 5749:0.10855637 8572:0.14473286 10010:0.12195969 11281:0.13547334 15570:0.14473286 15571:0.27094668 15986:0.14473286 18591:0.14473286 18592:0.15399212 #
2.8798301520329752101190479152137 36:0.089125931 60:0.056528676 149:0.044060927 367:0.080465049 477:0.072461233 925:0.081262685 3608:0.11254708 3774:0.099465787 3927:0.11254708 4321:0.087857991 4603:0.097161151 9343:0.092662312 9896:0.099465787 15199:0.11007071 15200:0.10804758 15201:0.12793191 15202:0.12793191 #
2.8798301520329752101190479152137 273:0.17262632 360:0.19287734 429:0.2298979 2064:0.22714639 2989:0.25468817 4017:0.31213745 9481:0.30719477 14440:0.33435971 #
2.8798301520329752101190479152137 452:0.095438331 467:0.15324655 860:0.088179938 1038:0.091697522 1115:0.10984874 2049:0.11998729 3650:0.14344235 4925:0.12572318 5614:0.13197277 9046:0.13770771 11439:0.13363788 12367:0.14751163 14469:0.16305047 #
1.497136470172937494638176758599 430:0.094052665 1141:0.1168758 1647:0.096835792 4845:0.15315801 5318:0.13603982 9978:0.15532321 10530:0.14528711 13114:0.16077743 17412:0.17563088 17413:0.17563088 #
2.8798301520329752101190479152137 90:0.21915646 173:0.19749098 427:0.26925972 1169:0.21534272 14448:0.25421044 15540:0.32050532 #
-2.3466823780036882851618429413065 50:0.13043478 245:0.1506682 541:0.17291731 846:0.17304352 3745:0.31806782 3747:0.24431315 4812:0.3615467 4813:0.25003994 #
-2.8798301520329752101190479152137 50:0.067415729 53:0.12923412 81:0.11563113 172:0.12877493 305:0.10746235 426:0.085475624 445:0.11356424 1358:0.13603982 4832:0.12021992 4833:0.13404907 4834:0.16077743 4835:0.1643946 #
-2.8798301520329752101190479152137 50:0.12 79:0.19151078 273:0.15536369 286:0.21260534 580:0.17659445 2357:0.22921936 3084:0.22409143 4001:0.21859996 #
-2.8798301520329752101190479152137 39:0.13601723 50:0.08219178 549:0.13160726 673:0.14442509 2957:0.15131177 3930:0.17430256 6275:0.18936665 6276:0.19601633 6277:0.22782396 #
1.7483540398623820255608052320895 1578:0.33443809 1741:0.40771604 3140:0.31159219 4680:0.47003666 5955:0.40597031 #
2.8798301520329752101190479152137 171:0.20964551 191:0.17144652 4617:0.28665686 5004:0.28211766 5511:0.26624694 5955:0.24026814 14948:0.3394112 #
1.4970931473578978909699799260125 9:0.33359399 414:0.505238 1716:0.49532658 4837:0.5129506 #
-0.61261411966966738962270255797193 4679:1.0420766 4680:0.90873754 #
-0.85506358663119041985112289694371 27:0.12046885 160:0.11055616 388:0.17294466 426:0.08744058 604:0.19116263 605:0.13128206 606:0.10104785 607:0.12142701 608:0.089665517 609:0.15667889 610:0.15889385 611:0.15472671 #
-1.5907501099671803590496210745187 414:0.28706703 1028:0.21409 2678:0.2891838 3547:0.35525337 3548:0.31417647 #
-2.8338447976356060387104207620723 67:0.22491676 321:0.18292306 422:0.21134965 3058:0.36698014 4680:0.33246496 7354:0.35685658 #
1.7224853208838508678013567987364 999:0.48833469 1322:0.56303644 3390:0.50409055 #
2.8798301520329752101190479152137 445:0.43944421 2788:0.56722176 5643:0.67961514 #
1.9710670486122940925355351282633 305:0.17078838 1200:0.20395605 1800:0.19469872 2723:0.20769146 4663:0.18715698 4692:0.20259652 14431:0.27912766 17878:0.27912766 #
1.4754504940276786939534758857917 81:0.21002389 182:0.21742328 2836:0.29202431 6744:0.28665686 9840:0.27818498 18079:0.3394112 18080:0.30706501 #
-1.1109801412519111352139589143917 282:0.27956739 706:0.27033415 1322:0.30317348 1716:0.31751704 8589:0.37515694 #
-2.6629779305144900547475117491558 55:0.1402044 533:0.1426989 801:0.13871586 1117:0.14507554 1429:0.12716152 1453:0.1321629 2346:0.1503308 5173:0.17039524 5428:0.16672969 6569:0.19045806 6570:0.18112901 #
-2.6265144322783982033797656185925 79:0.56326699 1054:0.51459956 7683:0.86065412 #
-2.8798301520329752101190479152137 9:0.16038173 90:0.17701098 245:0.13328341 360:0.16691308 430:0.16097476 1058:0.22640653 2272:0.2273801 2850:0.23283738 3821:0.22838718 #
-2.1874965421645535812444904877339 9:0.13237858 944:0.16803019 2001:0.1670251 3474:0.18767881 6594:0.24811347 6595:0.2639865 6596:0.2639865 #
0.84061050170779161305745219578966 1028:0.26166555 2071:0.33461392 6498:0.36969978 7354:0.40641999 14433:0.39017183 #
2.8798301520329752101190479152137 2:0.26357579 197:0.26575667 1529:0.30428723 1884:0.2996816 4088:0.31358787 #
2.4919591413972099758211697917432 321:0.11363403 2118:0.19591746 2561:0.18543489 4183:0.18762369 6275:0.20945099 10404:0.17838089 18156:0.2519871 #
1.6967962485672836159267262701178 245:0.16501756 405:0.30295447 1089:0.28031284 2322:0.2201322 2638:0.31062144 15244:0.39597973 15245:0.39597973 #
-0.47629359712673030591290057600418 4016:0.65585387 4087:0.79190451 4088:0.66018504 #
-0.97129577924536913968722728895955 137:0.29463053 1529:0.36883301 1722:0.34055772 1745:0.30870762 2660:0.47367117 #
-1.2810398496905202048168348483159 1465:0.53017032 2638:0.54358751 9442:0.69296455 #
-1.1105173388284970137362961395411 1529:0.29686561 1716:0.30202839 6170:0.33246496 8040:0.29380733 #
-0.4835387344499058603908281384065 137:0.23714165 245:0.16904238 634:0.29380733 814:0.23517199 1254:0.26658532 1896:0.65853661 #
2.8798301520329752101190479152137 282:0.37596995 1239:0.33700481 1244:0.33128726 5236:0.39384618 #
-1.1636996201826788066568951762747 47:0.099407405 49:0.091369301 126:0.092994332 874:0.10563041 1021:0.098731607 3736:0.15222545 9736:0.16628881 10060:0.15222545 10061:0.17692712 10062:0.17692712 10063:0.17692712 10064:0.17692712 10065:0.17692712 #
1.0561080570916094867328638429171 9:0.41699249 50:0.30000001 18631:0.83155745 #
2.8798301520329752101190479152137 9:0.26062033 322:0.27123377 1248:0.39198485 4453:0.28151339 4541:0.38245949 #
-0.52263553162042608590809322777204 2363:0.94038665 4541:0.76491898 #
-2.6242461455609458198523498140275 9:0.33359399 171:0.41090518 267:0.37160075 2836:0.57236767 #
-2.8798301520329752101190479152137 9:0.26902741 198:0.28673366 547:0.30547231 2475:0.36365202 #
2.3896259963418375882326927239774 1647:0.28727952 8040:0.4015367 14219:0.42413625 #
2.8798301520329752101190479152137 1716:0.36421072 3316:0.40658134 5968:0.35996187 12374:0.42085859 #
2.8798301520329752101190479152137 16:0.12434642 137:0.12307351 312:0.1126692 384:0.11899848 751:0.15492029 1737:0.13667926 2478:0.16367789 5484:0.17039524 6196:0.18112901 8589:0.18520406 18459:0.19786264 #
2.8798301520329752101190479152137 149:0.13637906 1021:0.22097073 1722:0.26758108 6224:0.35824254 7397:0.33443299 13791:0.37217021 #
2.8798301520329752101190479152137 360:0.12763941 619:0.1419536 814:0.14179488 844:0.15916717 865:0.13770786 1107:0.20656157 2191:0.16914466 2421:0.20329067 3214:0.20656157 6020:0.20045681 #
-2.5312447222373974931031170854112 50:0.17647059 129:0.38740134 1741:0.34775782 6020:0.40091363 10162:0.45973966 #
-2.8798301520329752101190479152137 312:0.14834778 313:0.22435373 662:0.17913654 1098:0.19706276 3075:0.23848653 3076:0.2341031 4012:0.20905858 #
-2.8798301520329752101190479152137 149:0.057857782 245:0.070007451 307:0.11157333 321:0.075756021 384:0.09495838 453:0.10412464 1309:0.12229843 1741:0.11943197 1844:0.10807649 2504:0.139634 3136:0.13061164 4017:0.14188066 4591:0.13061164 7828:0.15789039 11152:0.1679914 11153:0.11251426 #
-2.8798301520329752101190479152137 50:0.09375 453:0.1610678 807:0.18474634 808:0.13907604 872:0.1640912 1383:0.14328007 1453:0.16313858 1892:0.16682561 2071:0.18822032 3938:0.20384532 #
-2.8798301520329752101190479152137 149:0.1022843 283:0.1972457 662:0.19193202 1175:0.19890913 4586:0.21405828 5756:0.29698479 #
2.64667555305321222647307877196 171:0.24458642 3405:0.29307601 3935:0.2536605 4613:0.21127248 17830:0.39597973 17831:0.37217021 #
1.5932572742756758721327514649602 846:0.097073197 1154:0.17129496 1257:0.14925247 8948:0.16062982 13696:0.19062376 13904:0.18349007 14698:0.18349007 18081:0.18349007 18391:0.20281889 #
2.8798301520329752101190479152137 198:0.11110929 245:0.086634219 301:0.182889 360:0.1084935 665:0.13497077 757:0.098609291 854:0.15214361 1071:0.15788688 1383:0.11462406 2189:0.14845167 2601:0.14181757 15657:0.18807733 15658:0.20788936 #
-1.8108758293573250508501359945512 51:0.16258472 149:0.16134988 241:0.1338287 314:0.12194664 459:0.12268741 541:0.11203093 1115:0.15781087 1940:0.1755102 5723:0.23424153 5724:0.16142207 #
2.0785689715036603786302293883637 267:0.21604694 516:0.16226232 1668:0.27048191 1725:0.23189636 3658:0.25110841 4001:0.254186 16656:0.36351508 #
0.96306160322146561192369063064689 149:0.11689634 337:0.20021574 1098:0.24130133 1268:0.21307896 5974:0.28665686 6096:0.25777447 16982:0.3394112 #
-2.8798301520329752101190479152137 173:0.079755969 183:0.088505492 191:0.08077769 229:0.093845077 333:0.11227729 360:0.083456539 607:0.10157836 1263:0.12665044 1647:0.08286909 3306:0.11183387 5046:0.14467487 5509:0.1599149 5510:0.078460298 5511:0.12544328 5512:0.14467487 5513:0.13505948 #
-2.8798301520329752101190479152137 1839:0.31178504 7397:0.45310277 7398:0.53648865 #
-2.8798301520329752101190479152137 60:0.23705575 183:0.29692164 1200:0.36843675 1733:0.29271424 1793:0.37667221 #
-2.8798301520329752101190479152137 1157:0.10444844 1548:0.1012395 2674:0.12474596 2788:0.12790295 3615:0.15324655 3976:0.10771827 4411:0.11122946 4903:0.11197587 5846:0.12297564 8251:0.1355271 11046:0.15324655 11047:0.16305047 #
2.8798301520329752101190479152137 1175:0.24753137 2274:0.26905653 2439:0.24753137 5763:0.26511928 #
2.0537684786101531031476952193771 182:0.10653741 183:0.092045709 323:0.095018372 552:0.092288189 881:0.084178522 2322:0.092455529 3071:0.1087575 8281:0.15046187 8491:0.12930553 10059:0.12724088 11596:0.1217149 14647:0.14309192 18352:0.16631149 #
1.1893000037450704997610273494502 4541:0.25497299 6664:0.29262888 11249:0.27440929 13749:0.2564415 13832:0.30481499 17058:0.34648228 #
2.8798301520329752101190479152137 161:0.20326966 1004:0.18424276 2475:0.19777566 2687:0.19034044 5146:0.23616181 15441:0.26396817 #
2.8798301520329752101190479152137 64:0.13984871 295:0.11520999 846:0.1121127 1601:0.12549146 1850:0.151383 2475:0.15877764 2841:0.1338287 3286:0.16032626 8776:0.18212046 #
-1.2071406811623555110912775489851 11249:0.62722123 11250:0.79195946 11251:0.79195946 #
-1.1316825122924532021073673604405 245:0.12159188 8205:0.24252219 9197:0.27423069 9833:0.29177454 9834:0.27423069 9835:0.29177454 9836:0.29177454 #
-2.8798301520329752101190479152137 927:0.14518332 1130:0.13421653 1240:0.12298359 1665:0.14625388 2460:0.14067475 2461:0.12326047 2764:0.15472671 3859:0.15139823 5955:0.13532344 10266:0.19116263 #
-0.53852628757861986663613151904428 1578:0.53881693 8154:0.9239527 #
-2.8798301520329752101190479152137 854:0.40571633 10797:0.47697306 11460:0.52103829 #
2.8798301520329752101190479152137 1169:0.21033475 1482:0.25618866 2010:0.29170966 2326:0.32665548 2556:0.23505156 3781:0.32148293 #
2.5471985672393402388991034968058 50:0.075949363 374:0.14183001 6423:0.1610644 6878:0.16232614 12006:0.16514051 13946:0.16514051 13947:0.19786264 13948:0.21052086 13949:0.16367789 #
2.8798301520329752101190479152137 191:0.10501099 203:0.11443523 276:0.138072 350:0.12776984 408:0.10997077 523:0.13594687 796:0.12279209 7157:0.16307627 9889:0.18807733 11817:0.1788649 17584:0.19538936 #
1.6593210346015672129738049989101 541:0.10605595 1383:0.12226567 1544:0.15983018 1841:0.173948 2124:0.13583136 2856:0.15697519 5730:0.14500999 6412:0.14851882 9229:0.19078922 9504:0.16318271 14016:0.20061581 14709:0.19508161 #
2.8798301520329752101190479152137 44:0.1405329 149:0.07071507 408:0.1086131 516:0.086139262 607:0.13042159 879:0.14199799 1239:0.12065604 1260:0.1570875 1556:0.10981257 1557:0.14597242 1578:0.1197371 1733:0.11202644 13295:0.16828473 #
-2.8798301520329752101190479152137 295:0.16359818 879:0.23003675 1850:0.21496385 3286:0.22766328 10440:0.27647531 10441:0.252619 10442:0.30092373 #
-2.8798301520329752101190479152137 43:0.077095971 46:0.10769264 48:0.1072209 228:0.099693149 323:0.1021703 408:0.094598509 1000:0.113593 1407:0.089913376 1737:0.11610389 2072:0.13159896 2927:0.12952797 4088:0.1348765 4145:0.15732387 4146:0.12047926 4147:0.1023828 #
-2.8798301520329752101190479152137 149:0.12728712 452:0.21632688 1593:0.21743633 2335:0.28068778 3643:0.26275033 3644:0.22638561 3645:0.30719477 #
-2.2616735206343245856430712592555 9:0.14631316 516:0.12240842 846:0.13964915 862:0.20835322 1556:0.15604943 2068:0.19378525 5865:0.17872548 6526:0.23349459 7450:0.27423069 #
2.8798301520329752101190479152137 330:0.18949834 547:0.27851889 636:0.29247001 1080:0.3146933 2461:0.31540179 #
2.8798301520329752101190479152137 15:0.079886943 186:0.10639488 191:0.093343101 252:0.11079493 557:0.14787991 1033:0.14137875 1200:0.12690599 1436:0.11737944 2941:0.1171448 4135:0.25559637 4137:0.17367943 5078:0.15145627 10797:0.15899102 #
2.8798301520329752101190479152137 50:0.088235296 314:0.12732664 1926:0.16115519 3121:0.17104003 5846:0.18446346 6654:0.18574926 8008:0.16975757 9322:0.18711893 9760:0.13120355 #
2.8798301520329752101190479152137 50:0.055555556 137:0.090025999 963:0.13005728 1453:0.096674718 1538:0.12621355 1540:0.10343682 2692:0.12464096 3588:0.13931654 6693:0.13931654 7475:0.067627601 8633:0.13547334 8977:0.13005728 10216:0.11046637 #
-2.8798301520329752101190479152137 245:0.064773247 425:0.096179165 491:0.10351539 628:0.096686028 3241:0.12580582 3801:0.12084629 6146:0.1230995 8199:0.12739311 9519:0.12739311 9520:0.14061856 9521:0.13127276 9522:0.14061856 9523:0.1460855 9524:0.1230995 9525:0.1460855 #
-2.5240898704564651566784050373826 67:0.15899289 149:0.098757252 238:0.1425308 798:0.1937656 1318:0.18447539 10551:0.24671021 10552:0.28674394 #
-2.8798301520329752101190479152137 78:0.39628047 79:0.3546496 80:0.40800413 81:0.38115448 #
-2.8798301520329752101190479152137 50:0.068965517 93:0.11042909 126:0.10047663 322:0.099764138 608:0.089665517 636:0.11429862 739:0.090952754 864:0.12411105 1825:0.15889385 2222:0.13916717 3229:0.17966838 3868:0.13128206 7384:0.14625388 11706:0.17966838 #
0.51450828042882612578523549018428 46:0.9104923 48:0.90650398 #
1.0470961456878493667232987718307 183:0.19584194 273:0.16528052 323:0.4043335 6464:0.59771007 12065:0.43009433 17642:0.35385424 #
2.8798301520329752101190479152137 41:0.095438026 149:0.074388579 295:0.10623258 459:0.11312736 627:0.2379842 1159:0.12741002 1220:0.14159907 5158:0.182418 10440:0.17952941 10441:0.1640383 10442:0.19540502 15317:0.19540502 #
2.8798301520329752101190479152137 124:0.20782879 245:0.16117994 580:0.20534238 583:0.29170966 638:0.21307887 1393:0.27618915 7104:0.30631736 #
-2.8798301520329752101190479152137 2:0.27033415 149:0.14686975 196:0.20696057 1453:0.26771459 2439:0.28561312 8033:0.30590686 #
-2.8798301520329752101190479152137 197:0.21694423 330:0.13148864 360:0.17713225 1080:0.21835862 3966:0.25777447 5010:0.29202431 5295:0.2392671 5296:0.30706501 #
-0.63655095145359996688938508668798 1316:0.68139011 2561:0.58279538 3021:0.65827453 #
-0.8042518332893128230054458072118 744:0.23585664 3352:0.24915147 4830:0.28634012 5221:0.32709101 #
1.8942919125192909657329209949239 149:0.086786672 314:0.13118502 342:0.16142032 1332:0.12467907 1427:0.13601939 2394:0.1502406 2677:0.15943305 8261:0.19766819 8520:0.20395793 12228:0.22168364 #
1.425003238083119905255102821684 81:0.29403344 196:0.23061322 453:0.29452398 9230:0.39496472 11157:0.41803202 #
-0.47496683396977618096812534531637 386:0.73939955 6758:0.51611215 9230:0.76798695 #
-1.5086494147563740408912735802005 15:0.2662898 79:0.3546496 2308:0.45589599 10465:0.55726618 10466:0.55726618 #
