SVM-light Version V6.02
0 # kernel type
3 # kernel parameter -d 
1 # kernel parameter -g 
1 # kernel parameter -s 
1 # kernel parameter -r 
empty# kernel parameter -u 
19801 # highest feature index 
8530 # number of training documents 
6811 # number of support vectors plus 1 
0.0032485316 # threshold b, each following line is a SV (starting with alpha*y)
-2.8859844058606722860815807507606 41:0.069987886 67:0.087824643 337:0.093434013 892:0.11120798 1980:0.097348452 3385:0.11867832 4431:0.12029476 4498:0.11591895 7492:0.10491535 8704:0.1316549 10131:0.11165798 12493:0.14886808 12494:0.13377321 12495:0.15839189 #
-2.852617250579023711054560408229 4:0.37798065 5:0.31417647 6:0.27517146 7:0.26872194 8:0.27517146 9:0.18954204 #
-2.8859844058606722860815807507606 10:0.13863742 11:0.12548022 12:0.13066162 13:0.1174293 14:0.1524075 15:0.074894004 16:0.10232674 17:0.11857463 18:0.12899129 19:0.13066162 20:0.14399755 #
-2.8859844058606722860815807507606 21:0.15839189 22:0.15839189 23:0.10770389 24:0.14886808 25:0.10260133 26:0.15839189 27:0.099817052 28:0.14329702 29:0.098346949 30:0.14886808 31:0.10548712 #
-2.8859844058606722860815807507606 32:0.13961615 33:0.16106297 34:0.17665669 35:0.1734097 36:0.14304161 37:0.17066377 38:0.13426851 39:0.12258343 40:0.20532282 #
2.8859844058606722860815807507606 15:0.060930718 252:0.084504604 360:0.073554918 994:0.083686285 1417:0.11903547 1418:0.10158698 1901:0.096467495 2149:0.091944113 2397:0.13246736 3820:0.11407816 4905:0.10783125 5407:0.11056018 7385:0.11715055 9153:0.11551749 13481:0.12751006 13482:0.13246736 13483:0.14094193 #
2.8859844058606722860815807507606 80:0.072954386 295:0.054171585 733:0.077967808 1741:0.078303084 1916:0.080605894 2942:0.096894838 4310:0.093021102 4385:0.096894838 5028:0.079775505 5366:0.087229446 6733:0.070253342 7147:0.096894838 8436:0.084925599 9713:0.093021102 10963:0.094762862 13484:0.10351754 13485:0.099643618 13486:0.11014006 #
0.62389717035571401471116814718698 2439:0.42841968 4567:0.52427167 13487:0.63965958 #
2.8859844058606722860815807507606 124:0.22914456 245:0.17771122 321:0.19230375 337:0.25155312 377:0.25644636 739:0.2028946 8037:0.38579965 #
2.8859844058606722860815807507606 50:0.095238097 245:0.1100117 352:0.16669583 408:0.13964543 1088:0.1606798 1332:0.13061617 1876:0.20049126 2437:0.17630503 13488:0.23882835 13489:0.22295533 #
-2.8859844058606722860815807507606 15:0.057062101 477:0.074761592 548:0.07806389 608:0.061911903 681:0.10453688 798:0.089193687 925:0.083842456 1004:0.083347917 1151:0.088152513 1272:0.095603973 1440:0.10177591 2809:0.089469939 3608:0.11612 3773:0.098898597 3774:0.10262343 3775:0.10818304 3776:0.11147767 3777:0.10262343 #
-2.3915730726497108626915633067256 149:0.28639603 245:0.69307375 3340:0.61915821 7623:0.75230932 #
-2.6668621724887482393739901453955 124:0.89366382 126:0.8741467 #
-2.8859844058606722860815807507606 74:0.086746015 149:0.045459688 487:0.077655829 873:0.097132564 1140:0.11356502 1723:0.10024563 4232:0.10562851 5789:0.096599124 5895:0.099551708 6577:0.11941417 7605:0.098279081 9557:0.10453688 9558:0.11612 9559:0.13199325 #
-1.3897274391705680685049628664274 149:0.22030464 4404:0.47071937 6699:0.60119802 #
-2.4917391043147940621338420896791 63:0.12212591 516:0.072679996 626:0.1198108 957:0.11328906 1525:0.14905408 2236:0.14199024 2394:0.10329041 3643:0.12316422 3868:0.11897437 4477:0.12678635 5107:0.11328906 13018:0.17324114 13019:0.17324114 #
2.2870601864410842196662088099401 34:0.28618383 36:0.23172742 1172:0.21496385 3976:0.21974528 5445:0.23353676 #
1.1456795069807748088663856833591 103:0.20766434 546:0.20766434 697:0.21146767 1130:0.21230616 2353:0.18463306 3674:0.24783751 14491:0.27356702 #
1.3266330066291909250963954036706 183:0.14846082 1458:0.19429195 1647:0.13900621 2000:0.17864755 3644:0.16431212 6106:0.23598582 11482:0.21985586 14300:0.23598582 15175:0.26824433 #
2.8859844058606722860815807507606 51:0.083648659 82:0.065984845 209:0.073585637 442:0.092203535 608:0.056528259 2163:0.08645194 2346:0.086058937 3027:0.11326919 3474:0.085679457 3738:0.068060271 10117:0.097545102 14256:0.098775819 15841:0.11326919 19765:0.12051557 19766:0.11326919 19767:0.12051557 #
-2.8566986124412707681585743557662 9:0.92664999 3177:0.69686198 #
-2.8859844058606722860815807507606 504:0.8959654 5445:0.83405989 #
2.8859844058606722860815807507606 81:0.077377222 149:0.043067072 417:0.069461688 429:0.077785 547:0.071200311 1427:0.067498349 1842:0.098090984 2009:0.15128866 4337:0.097222202 4900:0.09641929 5729:0.11000843 5966:0.093693413 7299:0.09641929 7816:0.11312922 15759:0.11000843 15760:0.12504622 #
-2.484730092960490743791979184607 9:0.46332499 50:0.33333334 1803:0.63899094 #
-0.61109150373415199730686708790017 50:0.26086956 79:0.4163278 377:0.43484384 378:0.51635361 #
2.2152817624867591206339056952856 1544:0.1642091 1678:0.14386079 1679:0.19601633 2088:0.14898287 2170:0.1823177 2693:0.15395075 19653:0.22782396 19654:0.22782396 #
2.8859844058606722860815807507606 2189:0.3393181 2231:0.40883407 2547:0.28966489 2745:0.54112238 7623:0.42989102 9254:0.34775683 #
2.5169437243449106489379119011573 214:0.41794446 643:0.33426532 3340:0.51596516 11349:0.6269244 #
2.5296875276725883097128644294571 126:0.40657985 149:0.13320746 1151:0.25830737 2283:0.26384664 2547:0.47154751 15058:0.2982271 #
0.50997518101176941840435574704316 643:0.15730134 1528:0.20756669 3340:0.48561427 3774:0.25354025 8827:0.28057238 13085:0.27105421 16345:0.32610095 #
-2.8859844058606722860815807507606 149:1.4319801 #
-1.6141351476262997266530874185264 157:0.68396711 2283:0.81038606 2284:0.83076584 #
-2.8859844058606722860815807507606 149:0.21214521 321:0.27777207 509:0.37375686 643:0.29712474 1585:0.39628047 6718:0.32999605 #
-2.8859844058606722860815807507606 1215:0.30941421 2547:0.28161865 2957:0.30682665 7015:0.40641999 7016:0.35918203 #
-1.3937213481221764066475543586421 183:0.11953989 241:0.12340048 245:0.18001916 273:0.10088551 846:0.2067533 1727:0.14833167 2189:0.1542355 2941:0.13692249 3340:0.16082032 3700:0.17482108 3997:0.12860228 3998:0.19540502 #
2.8859844058606722860815807507606 79:2.1278975 #
2.8859844058606722860815807507606 9:0.75816816 50:0.54545456 #
1.9544315074740166160438548104139 518:0.37943882 1057:0.47697306 7691:0.46079218 15070:0.42745885 #
2.8859844058606722860815807507606 50:0.27272728 137:0.44194579 408:0.3998937 860:0.40883425 #
2.8859844058606722860815807507606 9:0.20341098 196:0.19686493 377:0.24393679 378:0.28966179 1316:0.34900469 11125:0.38124752 #
-0.90579198880263889215314065950224 137:0.69448626 558:0.87419307 #
-0.26701192003927276541475066551357 1316:0.68139011 2561:0.58279538 3021:0.65827453 #
-0.20343910178390706144924138243368 50:0.60000002 3261:1.158637 #
-2.8859844058606722860815807507606 50:0.60000002 320:1.0987264 #
2.8859844058606722860815807507606 90:1.5340952 #
1.9280792942174003190558551068534 149:0.13970537 5445:0.28480095 7016:0.31537932 11736:0.34258991 15251:0.40563777 #
2.8859844058606722860815807507606 74:0.068312488 149:0.035799503 191:0.052505497 498:0.065893948 547:0.059185263 1244:0.060045816 1565:0.07358212 1584:0.068850696 1702:0.077882648 1824:0.071384616 3477:0.076491892 4215:0.068850696 4321:0.071384616 4466:0.077394776 5349:0.085194148 5446:0.077882648 17681:0.09769468 19652:0.09769468 #
0.96083095574968635510515468922677 149:0.57279205 2349:1.2724087 #
2.8859844058606722860815807507606 504:0.39198485 1021:0.29002407 1068:0.34156245 2348:0.42066324 3890:0.47019333 #
-2.8859844058606722860815807507606 245:0.050961304 360:0.063819706 408:0.06468869 541:0.11697347 956:0.080577597 994:0.072610155 995:0.094292395 1903:0.075282387 2151:0.066176474 3657:0.076771095 4109:0.11493491 4790:0.098979585 4814:0.11493491 5468:0.10521465 5471:0.10164534 6230:0.11493491 6231:0.091626644 6232:0.12228785 6233:0.10521465 #
-2.5044499511326048235559937893413 9:0.3971357 1733:0.43210196 8064:0.69672 #
-0.25550885722352517648303660280362 196:0.62088174 3670:1.1573989 #
-0.57942284126068510641260900229099 38:0.16478407 1513:0.16926025 3118:0.13820505 3983:0.20945099 6097:0.2519871 6098:0.23683558 6099:0.2519871 6100:0.22797252 #
1.1644231039892301016180908845854 82:0.082780987 98:0.09748783 149:0.052072003 514:0.10796485 1707:0.11126094 3681:0.11126094 5572:0.11126094 12253:0.1276926 13575:0.14210135 14087:0.1276926 15433:0.13678351 15434:0.13678351 19416:0.15119226 19417:0.15119226 #
-0.013771583074263913162860184513647 1031:0.39533639 1649:0.40791586 2136:0.32645875 3387:0.42564201 #
2.8859844058606722860815807507606 152:0.078671545 238:0.070656292 1164:0.10020588 1556:0.076024085 2280:0.12005287 2291:0.09295512 4075:0.11505319 4910:0.10875288 5295:0.10020588 5763:0.10196895 5831:0.10960483 15917:0.14214657 15918:0.14214657 #
2.8859844058606722860815807507606 307:0.2045511 509:0.18687843 710:0.26498502 739:0.14653499 3188:0.24391937 3261:0.21456242 13382:0.28946573 13973:0.28946573 #
-2.5342302548543069740105693199439 355:0.13173132 774:0.10112359 990:0.096162029 1323:0.11237537 1578:0.10897421 1861:0.13675831 2426:0.13068227 4015:0.13675831 4305:0.13534945 7261:0.16077743 11712:0.16905828 11934:0.1643946 #
-1.1938646979116176449764452627278 245:0.16904238 832:0.28714973 833:0.29686561 1783:0.29530594 2348:0.32832253 2349:0.31034359 2350:0.27495641 #
-0.9931260858376443900752406079846 41:0.30619702 991:0.5071454 8825:0.58525777 #
-2.8859844058606722860815807507606 60:0.19861427 90:0.24877219 3340:0.33468011 4724:0.32244238 7509:0.33468011 #
-2.8859844058606722860815807507606 1892:0.10571127 2422:0.12337845 3397:0.11387958 5288:0.13907115 6925:0.12260558 7089:0.12260558 7507:0.14486258 7508:0.16466483 7509:0.12260558 7510:0.14167517 7511:0.14167517 #
2.8859844058606722860815807507606 9:0.46332499 1244:0.53374058 1733:0.50411898 #
2.8859844058606722860815807507606 50:0.05172414 305:0.082449563 430:0.072161101 2839:0.11246639 6981:0.11750916 10085:0.12108781 11814:0.11750916 12900:0.1297085 13978:0.10492663 16317:0.10888749 16395:0.11917039 16396:0.14337197 16397:0.14337197 16398:0.14337197 16399:0.14337197 #
2.8859844058606722860815807507606 50:0.048 149:0.045823365 247:0.1017927 260:0.097909629 999:0.082040228 1578:0.077589639 1986:0.084866039 2276:0.1010476 2862:0.096860349 3140:0.072289392 3195:0.089111291 3332:0.10891768 6171:0.097909629 7016:0.10344442 11441:0.12036949 11720:0.11704896 11862:0.12504919 #
-2.8859844058606722860815807507606 9:0.36260217 135:0.1496584 895:0.15310362 1624:0.19755164 3030:0.1763984 3031:0.21204522 3032:0.17839409 3033:0.16497339 #
-2.8859844058606722860815807507606 9:0.18954204 50:0.13636364 541:0.18077719 796:0.22325835 1244:0.21834841 1322:0.26872194 1841:0.29650229 #
-2.8859844058606722860815807507606 9:0.28758103 757:0.27202561 2360:0.45893764 2556:0.34852472 3935:0.36737037 #
-2.4876191118403219171284490585094 9:0.23828143 1175:0.31825462 1238:0.3107357 2971:0.35603496 #
2.8859844058606722860815807507606 149:0.27275813 832:0.56062567 833:0.57959473 2886:0.31773454 #
2.8859844058606722860815807507606 191:0.21002199 228:0.23178658 377:0.2500352 378:0.29690334 606:0.21977907 1783:0.3026886 7384:0.31810218 #
2.2558669837981195627207853249274 60:0.14697456 124:0.17873275 273:0.15536369 739:0.15825778 3860:0.21974528 6718:0.17819786 16220:0.33262298 16221:0.33262298 #
2.8859844058606722860815807507606 203:0.43594372 245:0.66007024 14043:0.65827453 #
2.2455945373080776761298693600111 101:0.38859895 124:0.27080721 245:0.21002235 321:0.22726806 449:0.30486956 789:0.33121207 #
-0.7206036340823559482871019099548 449:1.1178551 506:1.2525792 #
-2.8859844058606722860815807507606 196:0.17936583 377:0.22225352 378:0.26391408 452:0.21632688 606:0.19535917 888:0.34735885 #
-2.8859844058606722860815807507606 149:0.12728712 452:0.21632688 1593:0.21743633 2335:0.28068778 3643:0.26275033 3644:0.22638561 3645:0.30719477 #
-2.8859844058606722860815807507606 337:0.19236416 832:0.23084587 833:0.23865665 834:0.17100194 835:0.17900555 836:0.22472486 837:0.22036088 838:0.19697568 839:0.24280713 #
1.4201624149911347139152439922327 999:0.48833469 1322:0.56303644 3390:0.50409055 #
2.8859844058606722860815807507606 16:0.25850967 1924:0.23743074 2185:0.29760283 2971:0.32792693 13579:0.41134602 #
2.3972974918820755263482169539202 796:0.61396044 6355:0.86398536 #
-2.3818210814891824789185648114653 198:0.32921273 229:0.36147735 1578:0.3592113 2010:0.46457464 6355:0.51199132 #
-2.8859844058606722860815807507606 60:0.10650331 183:0.066699788 219:0.075800404 742:0.10178396 808:0.064499035 2000:0.080261938 2050:0.083050489 2730:0.080716752 3086:0.084280595 3260:0.09453696 6205:0.092925832 6686:0.097545102 12163:0.12051557 12164:0.12051557 12165:0.11326919 12166:0.11326919 #
-2.7448476871298126411602424923331 149:0.16365486 228:0.52979791 3526:0.38460639 3754:0.38945895 4985:0.30998302 #
2.8859844058606722860815807507606 314:0.1043158 488:0.14184505 628:0.24928688 638:0.11039025 1133:0.1225443 5178:0.14012918 7807:0.14442487 8909:0.14830352 8997:0.18127935 9119:0.18832709 13813:0.14745426 #
2.8859844058606722860815807507606 836:0.8816129 1819:0.82304406 #
2.8859844058606722860815807507606 374:0.15561904 640:0.14828943 846:0.11055558 865:0.13005742 2222:0.16816033 3297:0.15341333 3493:0.17959101 3576:0.15383539 14121:0.21709928 #
1.5069302953472993866768092630082 135:0.18775326 430:0.15219432 720:0.17656012 1647:0.15669791 1650:0.2056165 4215:0.20029294 7511:0.26016712 13264:0.26602036 #
2.8859844058606722860815807507606 2:0.27744821 1725:0.26240903 3033:0.29955694 4088:0.33009252 19110:0.4376618 #
-2.8859844058606722860815807507606 273:0.77681845 2353:1.0154818 #
-1.7578630566603574703066215079161 123:0.33678982 322:0.23458055 739:0.21386187 1663:0.23212743 3236:0.31559023 8528:0.28856319 #
-2.242705185081546037650923608453 160:0.6412257 1819:0.71330482 #
-2.1830316809030492208876239601523 4016:0.65585387 4087:0.79190451 4088:0.66018504 #
-2.8859844058606722860815807507606 83:0.25766218 1270:0.28595334 2353:0.24767849 3967:0.337165 5074:0.337165 #
2.8859844058606722860815807507606 149:0.1975145 198:0.30650839 313:0.46418011 541:0.27428263 2341:0.34487614 #
0.46958814698380690888512845049263 229:0.75076061 13753:1.1254708 #
0.46521410404597202115084542128898 2010:0.52264649 3314:0.47589746 9054:1.0319303 #
-2.8859844058606722860815807507606 541:0.41864192 999:0.53973836 1596:0.48894837 #
-2.8859844058606722860815807507606 149:0.19093068 311:0.36343762 312:0.29669556 313:0.44870746 314:0.28860706 #
-1.3956927444437108309926998117589 360:0.27998322 1265:0.47197163 4768:0.48536083 9054:0.39945692 12031:0.47197163 #
-2.8859844058606722860815807507606 186:0.34198356 998:0.35365626 999:0.36625102 1000:0.37729105 #
2.8859844058606722860815807507606 426:0.12171728 502:0.076172806 814:0.077136412 834:0.069768794 1498:0.10259012 1958:0.12504919 3397:0.0920147 4789:0.097371913 6246:0.11704896 8872:0.10034812 15086:0.13304919 15087:0.12036949 15088:0.12036949 #
2.8859844058606722860815807507606 966:0.19150375 1355:0.20985326 1889:0.20052969 2475:0.19436574 3177:0.2162675 14348:0.23209006 18888:0.26950255 #
2.8859844058606722860815807507606 191:0.46671551 2353:0.56415653 4376:0.67992795 #
2.8859844058606722860815807507606 453:0.29452398 846:0.22742863 2711:0.39496472 3754:0.38945895 4695:0.26016882 15072:0.39496472 #
2.2693179474435392073417006031377 160:0.28289369 273:0.228476 11258:0.36203507 16632:0.45973966 16633:0.48915142 #
-2.621194943121818443643178397906 191:0.56005865 440:0.60547662 739:0.52752596 #
-2.3520679668232826742269025999121 606:0.21977907 1355:0.30428723 2349:0.31810218 3651:0.41577873 3652:0.276144 3653:0.34559414 #
-0.91115865830012954251770906921593 4695:0.75882572 7759:1.3025957 #
-1.3887960711517060019559721695259 49:0.19086033 229:0.2168864 881:0.1870634 1021:0.20623936 1725:0.22158986 4376:0.2719712 5617:0.30291253 7897:0.36958107 #
2.8859844058606722860815807507606 49:0.2260188 149:0.15073475 295:0.21526076 459:0.22923175 541:0.20932096 1578:0.25522906 2283:0.2985633 #
2.8859844058606722860815807507606 50:0.063157894 183:0.096890226 430:0.088112496 608:0.082114734 757:0.16607881 834:0.091801047 1155:0.10574484 2018:0.10079515 3828:0.10909615 4456:0.12558281 5467:0.15838091 5493:0.14169709 15809:0.14551333 15810:0.15838091 #
2.8859844058606722860815807507606 938:0.1874534 991:0.17142943 1223:0.1895947 1839:0.1361315 2687:0.15280852 2992:0.21191812 13323:0.21191812 #
2.8859844058606722860815807507606 29:0.15646106 104:0.18543489 186:0.14508393 314:0.13118502 355:0.17763768 1596:0.14075786 3297:0.16735999 10919:0.23683558 #
2.8859844058606722860815807507606 149:0.27275813 171:0.48917285 541:0.37877125 1852:0.507321 #
-2.3564442430301890674115838919533 149:0.35799503 1852:0.66585881 4763:0.73898536 #
-2.8859844058606722860815807507606 15:0.11983041 149:0.09546534 252:0.1661924 295:0.13633181 459:0.14518011 1850:0.17913654 2677:0.17537636 3774:0.21550921 12413:0.21952744 12414:0.26051915 #
-2.8859844058606722860815807507606 596:0.41022769 2437:0.41137841 3297:0.4091022 8598:0.5048542 #
-2.8859844058606722860815807507606 111:0.2124459 148:0.19631435 295:0.13193402 408:0.14189777 459:0.14049688 834:0.14066289 846:0.12838712 6051:0.19739844 6196:0.23079342 #
2.8859844058606722860815807507606 682:0.67381448 739:0.52752596 1254:0.72866654 #
0.063525490686511823512638841293665 4456:0.205696 5809:0.25226068 6275:0.23834078 6446:0.20213944 6824:0.25226068 9343:0.2076914 13786:0.28674394 #
0.93601970031637726776807539863512 229:0.60999304 5573:0.69819856 7446:0.89432448 #
2.2219798161256374413596859085374 496:0.42994535 1643:0.49169165 1858:0.44222507 2353:0.44151384 #
-2.7231129256184960496511848759837 1299:0.84132648 2353:0.63467616 #
-2.8859844058606722860815807507606 739:0.35967678 1254:0.4968181 4404:0.55630469 #
-2.8859844058606722860815807507606 476:0.1416306 477:0.10128989 1296:0.14474434 1332:0.088481918 1617:0.13788995 2415:0.13581666 5685:0.16807687 8281:0.16178694 8282:0.17882955 #
2.8859844058606722860815807507606 15:0.18435447 41:0.18842892 757:0.20227547 1270:0.30061764 1718:0.33773452 16950:0.4264397 #
2.8859844058606722860815807507606 190:0.081781931 535:0.0768364 582:0.09626954 814:0.090962753 2144:0.076296821 2582:0.087641686 3309:0.10890108 3353:0.12198634 4269:0.1168223 5559:0.10478507 6027:0.12426081 11653:0.13499238 14176:0.12699267 19600:0.15689763 #
1.2071935985871111718381598620908 179:0.38088825 881:0.29027078 1596:0.32034549 12462:0.5390051 16517:0.57348788 #
-2.8859844058606722860815807507606 245:0.46204916 430:0.5580458 836:0.76406449 #
-1.3561077203442946093048249167623 179:1.0041599 2162:1.1126094 #
-2.8859844058606722860815807507606 124:0.1224197 430:0.11466695 453:0.14121012 496:0.13546224 2064:0.14002174 2336:0.17302671 2587:0.14097494 5068:0.16765347 5069:0.16060394 7445:0.22782396 7446:0.19601633 7447:0.18043351 #
-2.8859844058606722860815807507606 49:0.069263831 186:0.077222094 238:0.066667631 724:0.12134021 1205:0.07605204 1429:0.081014194 1818:0.10733219 3789:0.092427157 5362:0.10855825 5363:0.13412216 5364:0.12605765 5365:0.13412216 5366:0.10622295 5367:0.13412216 5368:0.13412216 #
-2.8859844058606722860815807507606 149:0.1022843 314:0.15461092 496:0.17658471 640:0.19065784 2468:0.25082475 2469:0.29698479 2470:0.29698479 2471:0.18903396 #
2.747273411452861857640073139919 60:0.10350321 171:0.14468493 707:0.15557408 801:0.15434581 4787:0.21191812 5802:0.16653191 13682:0.20153792 15648:0.23424153 #
2.8859844058606722860815807507606 198:0.24690953 273:0.2157829 739:0.21980248 2862:0.33632067 3140:0.25100482 4267:0.31726497 14050:0.43419856 #
2.0941570905215813880317909934092 739:0.60868382 1028:0.7246123 #
2.8859844058606722860815807507606 186:0.11821654 203:0.11302245 453:0.12726344 1496:0.14251253 2575:0.15109511 2595:0.18063112 2858:0.13961615 3972:0.15109511 4026:0.15963645 9635:0.1734097 11513:0.18063112 #
-1.6125082025116779238516073746723 739:0.39564446 1840:0.69118828 4156:0.83155745 #
-2.8859844058606722860815807507606 49:0.2260188 50:0.31578946 739:0.41646785 5559:0.29229519 7609:0.38502946 #
-1.8117993648355144031825147976633 190:0.39404023 739:0.35967678 3476:0.62835294 4928:0.71050674 #
-2.0189568425710717747278977185488 370:0.47735623 739:0.35967678 9409:0.68391752 #
-2.8859844058606722860815807507606 193:0.052391369 295:0.049276561 518:0.068573281 662:0.064748153 1383:0.055240512 1465:0.076651126 1850:0.064748153 2589:0.061777279 2590:0.090639673 2591:0.10018764 2592:0.084615581 2593:0.094163544 2594:0.084615581 2595:0.088139281 2596:0.083275698 2597:0.083275698 2598:0.078590967 2599:0.10018764 2600:0.064748153 2601:0.068345815 2602:0.077251598 2603:0.090639673 #
2.8859844058606722860815807507606 608:0.1659766 2353:0.21605995 4346:0.27284607 5068:0.26039794 5069:0.24944867 14737:0.32013163 14738:0.3044509 #
2.8859844058606722860815807507606 51:0.13117631 440:0.10320624 606:0.099899575 1004:0.11933906 1305:0.15124083 1391:0.1496778 2582:0.10556839 2824:0.14825115 3653:0.15708824 5096:0.1496778 10730:0.15489845 #
2.8859844058606722860815807507606 955:0.3927384 2164:0.52866918 3935:0.48426095 #
2.8859844058606722860815807507606 50:0.13636364 90:0.20919479 430:0.1902429 3643:0.26872194 6925:0.28143555 9504:0.27815235 16252:0.34195876 #
-1.130968106526661465238703385694 197:0.093247958 606:0.077115461 846:0.069824576 1323:0.087731652 1653:0.10620653 1724:0.088120699 1972:0.091758385 2003:0.083349451 2547:0.088932209 2850:0.10620653 4168:0.10018894 4472:0.1167473 6693:0.13198408 12103:0.14588727 12104:0.14588727 12105:0.13198408 #
-2.8859844058606722860815807507606 643:0.4011184 1028:0.47099802 2071:0.60230505 #
-2.5900192531861363498535411054036 418:0.10316256 2273:0.11998729 2860:0.14344235 3342:0.12474596 4850:0.12383284 5068:0.11998729 5069:0.11494204 5362:0.13197277 7591:0.12140357 8499:0.13770771 9034:0.097214505 13259:0.16305047 13260:0.16305047 #
0.41361778459212533709532522152585 794:0.15485822 846:0.098271631 2404:0.12726344 3656:0.1198865 4760:0.1570875 6635:0.19297715 8573:0.16828473 10085:0.1734097 10404:0.1453474 17909:0.19297715 #
-2.8859844058606722860815807507606 548:0.18915482 789:0.21019226 834:0.16771345 1252:0.18024741 2164:0.22366774 3947:0.20717575 4811:0.27517676 #
2.8859844058606722860815807507606 49:0.33033517 149:0.22030464 322:0.33382615 1601:0.3426882 5559:0.42720065 #
2.8859844058606722860815807507606 50:0.23999999 546:0.45686156 682:0.40428868 2450:0.49844894 #
-0.48648417180861891484511261296575 241:0.21115194 304:0.2719712 1079:0.27353761 3240:0.32513601 3241:0.29913831 6363:0.32513601 7463:0.32513601 7464:0.36958107 #
2.8859844058606722860815807507606 39:0.070923276 60:0.052490916 541:0.056815688 1112:0.081864059 1524:0.10220852 1528:0.075613581 1555:0.094083183 1705:0.086043574 4989:0.095065661 7228:0.10450801 7468:0.093186438 12130:0.10747276 13149:0.11165106 14017:0.10747276 14018:0.11165106 14019:0.11879392 #
-1.124593086061765223604425045778 546:0.87857991 2786:0.97877598 #
-2.1170102369736976122283067525132 2003:0.79181975 3479:0.95848644 #
2.8859844058606722860815807507606 126:0.18598866 567:0.21039879 2601:0.2413916 3129:0.2526837 8372:0.3044509 14445:0.35385424 #
-2.8859844058606722860815807507606 16:0.13097823 360:0.1157264 1235:0.15834844 2547:0.13517696 2959:0.15391354 3902:0.16724686 3972:0.16318271 8576:0.22174865 8577:0.22174865 #
-2.8859844058606722860815807507606 493:0.11360701 606:0.08065287 739:0.072595313 799:0.11673475 1502:0.10248786 2503:0.092162929 3816:0.12505563 4513:0.12210268 4616:0.11432315 5662:0.11507812 6240:0.12505563 6241:0.12505563 6242:0.15257935 6243:0.11166504 #
0.41466883435457901896370458416641 1028:0.26166555 2071:0.33461392 6498:0.36969978 7354:0.40641999 14433:0.39017183 #
2.8859844058606722860815807507606 50:0.15789473 193:0.22886756 1437:0.25586337 1607:0.26356354 4252:0.36963648 4811:0.37655768 #
2.8859844058606722860815807507606 582:0.14372635 619:0.13595556 643:0.11299109 866:0.1688347 1911:0.20153792 2337:0.14677483 6412:0.15688609 7609:0.20607212 13802:0.23424153 13803:0.23424153 #
-2.8859844058606722860815807507606 90:0.317399 92:0.33248454 846:0.27448282 5134:0.47003666 #
-1.1648891453172276477801005967194 846:0.49750012 5938:0.85194147 12769:1.0394468 #
-2.8859844058606722860815807507606 608:0.21669166 846:0.22111116 1858:0.28253269 5686:0.41794962 13167:0.40641999 #
2.8859844058606722860815807507606 322:0.78904366 2693:1.0216732 #
2.8859844058606722860815807507606 282:0.31151795 1238:0.3107357 2289:0.34592983 15828:0.41803202 #
2.527429645565032245713155134581 535:0.16621752 860:0.18355824 1382:0.18734509 2136:0.21985999 2786:0.25967526 3071:0.22195406 7060:0.28665686 #
1.5030746318255736593272331447224 1141:0.35868779 3652:0.38088825 16511:0.47003666 17135:0.51883399 #
2.8859844058606722860815807507606 252:0.31161073 273:0.24275576 1973:0.41591224 3340:0.38697389 6020:0.42597073 #
-2.8859844058606722860815807507606 282:0.24779838 321:0.17045105 449:0.22865218 516:0.15857454 11885:0.37798065 11886:0.34195876 11887:0.2850799 #
-2.8859844058606722860815807507606 49:0.30673981 997:0.53736377 1972:0.3735877 2341:0.35719314 #
-2.8859844058606722860815807507606 149:0.17899752 197:0.6643917 3140:0.56476086 #
-2.8859844058606722860815807507606 120:0.24685295 149:0.1022843 453:0.18407749 1578:0.17319116 1601:0.31821045 2573:0.181917 5006:0.24037899 8017:0.1503188 8824:0.29698479 #
-2.8859844058606722860815807507606 126:0.19425482 860:0.19987452 2185:0.25130907 2976:0.2160624 3286:0.25295919 5451:0.28275749 6757:0.34735885 6758:0.20644486 #
2.4376222382784735742689008475281 549:0.12982878 956:0.14808854 2086:0.18190843 2990:0.16634044 6835:0.16447958 6836:0.17629866 14418:0.21123174 19387:0.22474526 19388:0.22474526 #
2.8859844058606722860815807507606 92:0.26059598 3476:0.37361526 4497:0.33468011 13498:0.38673493 #
-2.5871658451627337349520985299023 60:0.11482388 769:0.21599634 3178:0.20203988 3179:0.25986171 3180:0.23509666 3181:0.16871347 3182:0.21298537 3183:0.21599634 #
-1.8261208015241743307655042372062 4497:0.6517455 5763:0.62791407 #
-2.8859844058606722860815807507606 90:0.28764284 91:0.47019333 92:0.30131412 846:0.24875006 #
-2.8859844058606722860815807507606 50:0.10344828 90:0.1586995 196:0.13916315 410:0.2162675 846:0.13724141 1578:0.16721904 2450:0.21484868 4283:0.24217562 #
-0.7587716680360273580063790177519 46:0.47692454 90:0.43831292 7017:0.62124288 #
-2.8859844058606722860815807507606 662:0.39808121 3825:0.45863572 4497:0.45863572 #
2.3900345187239668831580274854787 430:0.14947656 510:0.23090273 595:0.26868188 596:0.19778834 608:0.13930178 1733:0.16203824 2874:0.23090273 3140:0.16136025 5617:0.24341184 6421:0.24037899 #
2.8859844058606722860815807507606 126:0.15609762 149:0.1022843 1215:0.19890913 1741:0.21113867 1821:0.17319116 3084:0.20008163 4642:0.21023463 5419:0.22899581 13950:0.27912766 #
2.8859844058606722860815807507606 15:0.10573272 126:0.12855099 228:0.13634504 307:0.16243765 311:0.16034013 1901:0.16739948 2575:0.17998093 4026:0.19015518 7998:0.2104293 11186:0.20329067 #
0.77143692184309176074208380669006 1869:0.76741767 3286:0.66959792 #
-0.7557640151408091533369315584423 50:0.045112781 160:0.072318688 245:0.052110806 273:0.0584074 378:0.089294232 418:0.079117157 1238:0.081772551 1774:0.079593241 2150:0.10758791 2722:0.071516939 2841:0.071442388 3092:0.077785 4499:0.091034167 5788:0.098090984 6089:0.10121221 9249:0.12504622 9250:0.097222202 9251:0.11752743 9252:0.12504622 9253:0.12504622 #
-2.8859844058606722860815807507606 126:0.22414018 1741:0.30317348 3403:0.34951445 3518:0.3216286 4267:0.29285997 6609:0.30451623 #
-0.99498681694781143658445898836362 535:0.54297721 13233:1.1087432 #
-2.340938595552649381659193750238 2003:0.35191989 4149:0.45863572 6200:0.61596847 #
-2.8859844058606722860815807507606 535:0.1986502 612:0.25513306 2693:0.27410743 3844:0.34900469 8660:0.38124752 #
-2.8859844058606722860815807507606 15:0.092177235 126:0.11207009 193:0.11149959 203:0.11736947 228:0.11886491 411:0.1608143 695:0.11086485 739:0.1014473 860:0.11531223 1041:0.15295343 1901:0.14593801 3868:0.14642999 4686:0.1725798 #
2.8859844058606722860815807507606 106:0.13137516 487:0.10871816 529:0.15606873 860:0.09993726 1510:0.14248627 2560:0.12873745 4402:0.094618887 4403:0.16717985 6678:0.15145627 10483:0.16717985 #
2.8859844058606722860815807507606 149:0.088121854 1546:0.17964368 1798:0.16774043 2282:0.1739832 4497:0.19051021 5763:0.18354411 7366:0.18626991 #
-2.8859844058606722860815807507606 162:0.074855722 364:0.092994206 1397:0.10045689 5102:0.10045689 5171:0.10918746 11520:0.11665037 12415:0.12411305 12416:0.11228497 12417:0.12411305 12418:0.12411305 12419:0.12411305 12420:0.11665037 12421:0.11228497 12422:0.12411305 #
2.8859844058606722860815807507606 92:0.48210257 204:0.58865696 #
-2.8859844058606722860815807507606 43:0.29874688 204:0.49054748 541:0.33142483 3154:0.43260932 #
-2.8859844058606722860815807507606 149:0.13018002 204:0.26757136 214:0.22796971 541:0.18077719 612:0.23773764 9210:0.37798065 9211:0.27975437 #
2.8859844058606722860815807507606 203:0.12371376 245:0.093658611 321:0.10134927 325:0.17799522 342:0.14396948 2821:0.18190843 3700:0.18190843 8038:0.15978061 8774:0.1747372 11179:0.20332684 15581:0.18981333 #
-2.8859844058606722860815807507606 41:0.15975496 204:0.25593781 1239:0.21245955 3656:0.21110448 3949:0.29632747 5932:0.27089617 #
-2.8859844058606722860815807507606 92:0.32140172 1365:0.44363973 3595:0.34484684 #
2.8859844058606722860815807507606 50:0.60000002 612:1.0460455 #
2.1366007217715456967255249765003 506:0.40261474 3297:0.3944914 6609:0.42414761 14426:0.59396958 #
0.50749569332975463797907877960824 283:0.4091022 1354:0.5048542 2354:0.5048542 #
2.8859844058606722860815807507606 50:0.66666669 853:0.63672042 #
2.8859844058606722860815807507606 50:0.29268292 427:0.27582702 914:0.32461444 2957:0.26940876 8782:0.337165 #
2.8859844058606722860815807507606 602:0.11157333 843:0.10586657 954:0.13177879 1650:0.11423139 7123:0.14188066 13997:0.14778909 15616:0.1679914 15617:0.1679914 15618:0.15789039 15619:0.1679914 #
2.7625544191495587931228783418192 123:0.1707017 852:0.15755941 2862:0.16585676 3628:0.15932496 3991:0.21412532 6654:0.17302671 7719:0.19601633 7819:0.19241351 11992:0.17713086 #
-2.8859844058606722860815807507606 93:0.085779734 149:0.051142149 1015:0.098358139 1659:0.10867401 1855:0.10384573 1888:0.11648304 1889:0.10384573 1890:0.12776065 1891:0.13956383 1892:0.09532892 1893:0.10511731 1894:0.12342647 1895:0.11760398 #
2.7824304702961284441187217453262 41:0.21613906 94:0.29415905 2162:0.35996187 3595:0.30427662 #
2.8859844058606722860815807507606 149:0.17357334 191:0.25457209 1453:0.31638998 4149:0.37524739 13377:0.40330884 #
0.025070670697538734866816056978678 1987:0.14799091 2165:0.1453474 2693:0.13874574 3388:0.18063112 10658:0.16828473 14348:0.16618794 14349:0.20532282 14350:0.20532282 14351:0.20532282 #
2.8859844058606722860815807507606 8:0.40358481 43:0.2389975 580:0.2943241 17549:0.5543716 #
1.7384226826741480120830374289653 102:0.17104003 196:0.11869798 511:0.14408326 535:0.11977439 1881:0.18210536 1893:0.1731344 5511:0.19185442 8064:0.21516353 13729:0.20045681 #
-2.8859844058606722860815807507606 57:0.36089471 3773:0.49844894 8782:0.55295062 #
-2.8859844058606722860815807507606 739:0.71935356 2957:1.0041599 #
-2.8859844058606722860815807507606 796:0.39293468 3071:0.43502998 4443:0.60184747 #
-1.7195467411294131920840300153941 16:0.27287132 90:0.25568253 4167:0.39747757 4308:0.29113308 9531:0.43419856 #
-2.5656358798575871205116527562495 9:0.18954204 169:0.24058867 171:0.23346886 1667:0.2850799 3033:0.25870827 9054:0.28143555 12768:0.37798065 #
2.8859844058606722860815807507606 50:0.31578946 88:0.27916461 273:0.2044259 2296:0.30728522 15362:0.34331843 #
2.8859844058606722860815807507606 50:0.22222222 487:0.36239389 2677:0.38972524 2791:0.41498411 #
2.8859844058606722860815807507606 2:0.2849468 9:0.22540136 50:0.16216215 487:0.2644496 662:0.2904917 #
2.8859844058606722860815807507606 50:0.23999999 88:0.4243302 186:0.38302156 245:0.27722949 #
2.8859844058606722860815807507606 15:0.23966081 50:0.2 126:0.29138222 323:0.31672791 5913:0.37348571 17247:0.52103829 #
-0.75739172591724923666589575077523 50:0.15789473 88:0.27916461 229:0.25683916 791:0.24111556 2296:0.30728522 10782:0.3637833 #
-2.8859844058606722860815807507606 393:0.1891263 541:0.14462174 990:0.15560766 3558:0.24783751 6091:0.30238453 6092:0.23510095 6093:0.22013716 6094:0.27356702 #
-2.8859844058606722860815807507606 15:0.21787347 88:0.32146227 149:0.17357334 233:0.32012573 4506:0.47367117 #
-2.8859844058606722860815807507606 149:0.053036302 232:0.1040593 353:0.12079723 1647:0.079799868 1816:0.1043816 1817:0.11873857 1818:0.12323326 1819:0.099070117 1820:0.15399212 1821:0.089802824 1822:0.15399212 1823:0.14473286 1824:0.10575499 1825:0.12799783 #
-2.8859844058606722860815807507606 50:0.23076923 453:0.39647457 1141:0.40007484 4042:0.51189202 #
2.8859844058606722860815807507606 124:0.47034937 2924:0.60755342 3773:0.65585387 #
2.8859844058606722860815807507606 170:1.048079 4308:1.048079 #
-0.12118544755639648613509962160606 149:0.22911681 2274:0.48430178 2275:0.50174063 #
2.8859844058606722860815807507606 169:0.18571757 320:0.19275902 342:0.18690774 796:0.17233978 5802:0.20743448 9322:0.2232296 17426:0.27423069 #
-0.82635963739013273965383632457815 124:0.31916565 157:0.34198356 1724:0.35877714 1733:0.32407647 7070:0.59396958 #
-0.092332077683734997686215706380608 606:0.25117609 5258:0.44660425 8413:0.44660425 8414:0.44660425 #
-2.8859844058606722860815807507606 48:0.14044428 191:0.11832225 487:0.13781177 608:0.10987183 1978:0.19470093 2927:0.1696634 4727:0.21191812 5694:0.23424153 5695:0.22015703 #
-2.7222093663910049698984039423522 245:0.10662673 273:0.11951053 2562:0.19171113 2572:0.18725368 3349:0.21609516 6559:0.22509415 6560:0.24047922 #
2.2985897074293477615469782904256 149:0.13018002 739:0.17983839 4087:0.34195876 6239:0.2850799 8484:0.35525337 14603:0.31923151 #
2.8859844058606722860815807507606 245:0.11949547 379:0.23209006 484:0.15973178 516:0.12029793 1407:0.14417145 1667:0.2162675 1803:0.19830754 3636:0.19044413 4627:0.259417 6805:0.26950255 #
2.8859844058606722860815807507606 90:0.10342215 245:0.077873453 1259:0.29599205 1601:0.10011116 2187:0.12706637 2278:0.14001375 2581:0.31064641 3261:0.26036787 6295:0.15532321 7558:0.15782231 7759:0.17563088 19421:0.18686683 #
-0.081703736549662592247855741334206 7683:0.731556 7684:0.78155744 #
2.8859844058606722860815807507606 50:0.125 516:0.14535999 947:0.21751811 1130:0.24326748 1424:0.24973467 10782:0.2879951 #
-2.8859844058606722860815807507606 149:0.089498758 816:0.19348694 1632:0.21298537 2547:0.15841049 2574:0.20795612 12176:0.24423669 12177:0.25986171 12178:0.22358112 12179:0.25986171 #
-0.36770850279604772037345128410379 1437:0.16479334 1765:0.19791251 1892:0.18096337 2475:0.19107141 8444:0.28188387 8445:0.28188387 8446:0.28188387 #
-2.1135653666605542788659022335196 245:0.094941609 1068:0.149726 1254:0.149726 2975:0.1867269 3314:0.15645944 3315:0.15932496 3316:0.18936665 3317:0.20042631 3318:0.22782396 3319:0.21412532 #
-2.8859844058606722860815807507606 50:0.10344828 612:0.36070538 674:0.16416553 2185:0.19498117 2726:0.21350284 6825:0.28674394 6826:0.20985326 #
0.57484173868484467195827392060892 124:0.23517469 548:0.25884342 2572:0.32030237 7150:0.35424271 10502:0.31252983 11811:0.31252983 #
0.16247776806798575055523770060972 124:0.19859195 146:0.19342008 157:0.21278976 640:0.23726308 2445:0.23622815 3887:0.28991336 #
0.20065080571463606018411951481539 15:0.28759298 124:0.35746551 2531:0.41164681 13836:0.53844893 #
2.8859844058606722860815807507606 129:0.1416306 146:0.093590364 149:0.061590541 198:0.095577881 229:0.10494503 273:0.083528861 322:0.093327746 561:0.12506153 1211:0.11557197 1733:0.09757141 1953:0.12458463 2541:0.13315231 2941:0.11336593 2944:0.12606546 5981:0.1416306 #
0.94914996596332434908305231147096 608:0.41057369 695:0.45512938 1734:0.60535985 4177:0.68663687 #
-2.8859844058606722860815807507606 50:0.13043478 487:0.21270946 1049:0.30535188 1880:0.28109896 2445:0.23109277 2508:0.2528418 #
-2.8859844058606722860815807507606 408:0.12218975 846:0.11055558 896:0.15068617 898:0.15105207 899:0.17307255 1216:0.18484989 6285:0.19873878 9319:0.20897481 13191:0.23098817 #
-2.8859844058606722860815807507606 15:0.15630053 739:0.17201933 994:0.2146735 1407:0.18178138 2395:0.3110694 2396:0.3615467 2397:0.33980757 #
-0.35021405802369837134691010760434 90:0.30681905 124:0.29788792 177:0.42745885 2727:0.35665241 5990:0.52103829 #
1.7256029362375961966336035402492 420:0.76491898 836:0.7163105 5718:0.86398536 #
0.97460079519661158009569135174388 229:0.60999304 245:0.43317109 11319:0.74920398 #
1.2459829938957913686436995703843 547:0.35072747 2686:0.40481475 3964:0.38525727 9383:0.51199132 #
-2.8859844058606722860815807507606 612:0.43585232 718:0.42951414 1819:0.44581553 #
2.8859844058606722860815807507606 57:0.11277959 1000:0.26410374 1026:0.1498408 1733:0.11342677 2722:0.11889691 3181:0.13497077 5056:0.16307627 19619:0.20788936 #
2.8859844058606722860815807507606 1182:0.15230703 1556:0.13275847 1868:0.23330073 2048:0.20964457 2439:0.16625242 4504:0.17725572 13562:0.19864465 18041:0.23330073 #
0.6254710800468308296018449254916 82:0.10466561 344:0.10318713 898:0.12500861 2244:0.11787389 7140:0.14233522 8540:0.16447347 9932:0.17966838 12723:0.14995518 13601:0.15667889 16301:0.16447347 #
2.0260237532488587497425669425866 408:0.19994685 541:0.36155438 1839:0.21966672 4431:0.28706703 13827:0.37798065 #
-2.8859844058606722860815807507606 124:0.3723599 229:0.40666202 443:0.44581553 1800:0.45429704 #
2.8859844058606722860815807507606 718:0.93712175 #
1.5683139728918729094431228077156 13:0.25620937 39:0.22566496 718:0.23428044 2137:0.25103998 11156:0.3252089 14670:0.37798065 #
2.8859844058606722860815807507606 46:0.10219812 49:0.087639943 183:0.093924195 238:0.084354967 612:0.10673934 718:0.10518713 1074:0.12635882 1237:0.078716792 1578:0.29689911 1781:0.12508741 2424:0.1139916 3308:0.12419888 8319:0.14601216 13980:0.15950152 #
1.1206478901833498706963609947707 718:0.42951414 1839:0.40272233 #
1.472544616701012776260881764756 50:0.20689656 559:0.41335392 1049:0.48435125 2009:0.34692055 #
-2.8859844058606722860815807507606 191:0.1866862 322:0.096438669 561:0.12923025 1220:0.12114587 1437:0.1080312 1734:0.12779818 1858:0.11301307 1969:0.15145627 2150:0.15899102 2722:0.10568614 4349:0.12606005 7554:0.15606873 11980:0.17367943 #
-2.3620629366207124277821094437968 9:0.13237858 944:0.16803019 2001:0.1670251 3474:0.18767881 6594:0.24811347 6595:0.2639865 6596:0.2639865 #
-2.8309109408063029000857113715028 2009:0.52951032 7055:0.75311536 #
-2.8859844058606722860815807507606 1839:0.210116 2289:0.26320747 3234:0.3615467 3235:0.3615467 #
-2.8859844058606722860815807507606 50:0.23999999 1237:0.30856982 3181:0.43190646 6029:0.53844893 #
2.8859844058606722860815807507606 370:0.30005249 1800:0.31151795 2271:0.27885395 2272:0.33782187 8329:0.36088428 9465:0.38026264 #
2.8859844058606722860815807507606 82:0.17854722 149:0.11231217 315:0.23740283 425:0.20178767 443:0.20979553 785:0.19787128 1841:0.25580591 #
2.8859844058606722860815807507606 50:0.10169491 196:0.13680445 430:0.14187606 2364:0.17980093 2399:0.21566249 3243:0.19713089 3261:0.19637917 5254:0.2004028 12852:0.19871335 15120:0.22557953 #
0.48892532136482075300065730516508 608:0.30003461 1793:0.44910917 1800:0.4193511 1995:0.47343045 #
-1.7963650260133994240874244496808 330:0.10920243 615:0.20521261 1647:0.14607432 2281:0.2012904 2291:0.18433474 2967:0.23430111 4852:0.21735196 5875:0.28188387 #
-2.8859844058606722860815807507606 295:0.27266362 315:0.40358481 580:0.2943241 695:0.28824863 1578:0.32329017 #
-1.4341576468590637727373859888758 1578:0.4408502 2105:0.58289844 2580:0.57836759 2581:0.62835294 #
-2.8859844058606722860815807507606 149:0.11015232 307:0.21241845 323:0.18272763 350:0.19656898 352:0.2019584 608:0.15001731 1725:0.19176045 13407:0.30059901 #
-2.8859844058606722860815807507606 1337:0.33564085 2364:0.64292455 6429:0.44336727 9945:0.37761283 #
-0.46771582320244659003449783085671 706:0.17283659 802:0.18660925 1407:0.13708104 2064:0.167567 4141:0.18260512 6287:0.27264178 6288:0.2085916 6289:0.27264178 6290:0.24665879 #
2.8859844058606722860815807507606 229:0.25683916 990:0.2252216 2428:0.31115171 2686:0.28763154 19289:0.4376618 #
2.8859844058606722860815807507606 273:0.16183718 560:0.28398049 835:0.1901934 1972:0.21792616 4778:0.29810816 5734:0.27440929 5865:0.21223651 7062:0.29262888 #
2.8859844058606722860815807507606 273:0.080918588 426:0.15848605 707:0.11505999 1141:0.10835361 1644:0.12548022 1733:0.094522305 2161:0.12612025 3261:0.12069136 4042:0.13863742 6763:0.11026981 7019:0.16282447 9114:0.1315724 #
-2.8859844058606722860815807507606 720:0.23120968 853:0.2728802 990:0.20377192 7360:0.32913727 12510:0.39597973 #
-2.8859844058606722860815807507606 44:0.32523325 1038:0.26723278 1528:0.30245432 2886:0.19064072 3261:0.33103916 9891:0.47517568 #
-2.8859844058606722860815807507606 233:0.093488045 360:0.076809555 425:0.091072306 1000:0.093488045 1081:0.06204626 2630:0.1223342 6344:0.09829396 7208:0.12663002 7286:0.13315208 7287:0.14717831 7288:0.14717831 7289:0.13315208 7290:0.086267196 7291:0.13832875 7292:0.14717831 7293:0.1223342 #
-1.7174784550333503929664402676281 1722:0.53516215 3102:0.68139011 6020:0.64909828 #
-2.5733491553291014675153292046161 203:0.16061084 306:0.20835322 757:0.138399 798:0.197165 1255:0.20404775 3164:0.21030287 3954:0.19275902 4023:0.29177454 #
2.8859844058606722860815807507606 1015:0.91800934 1026:0.99893868 #
0.17107041085512555977921067551506 16102:0.79190451 16103:0.75311536 #
1.4010949524514388908613682360738 50:0.18181819 13407:0.47367117 15821:0.94734234 #
2.3680300255547512833231849072035 852:0.7188648 1725:0.62322146 2655:0.80148536 #
2.8859844058606722860815807507606 245:0.17326844 1724:0.25114399 1725:0.24928859 15466:0.34559414 15865:0.41577873 15866:0.41577873 #
-2.2545774288068374247018255118746 50:0.17142858 1450:0.31646135 1725:0.28490123 2242:0.39496472 2655:0.3663933 8764:0.44660425 #
-0.030439056709015442636623305361354 1257:0.24477406 1725:0.19943087 2120:0.18652859 3243:0.23261444 3820:0.26922446 4246:0.30092373 #
-2.8859844058606722860815807507606 1026:0.27877358 1816:0.26216775 3578:0.29170966 5727:0.32665548 5728:0.3402586 #
-2.8859844058606722860815807507606 1021:0.1819759 1022:0.25826758 1023:0.32610095 1024:0.27105421 1025:0.32610095 1026:0.23504439 #
-2.8859844058606722860815807507606 193:0.16105495 487:0.18119694 1725:0.18465821 2144:0.14976783 2582:0.17203739 4498:0.22539796 13323:0.27863309 #
-1.3703967561706580369218499981798 41:0.096693791 81:0.13541014 137:0.12793168 241:0.12502417 245:0.091193914 927:0.1661967 1438:0.16196306 2885:0.18481824 3972:0.16103557 5465:0.19797613 5466:0.17712136 #
2.8859844058606722860815807507606 191:0.10501099 295:0.10224886 360:0.1084935 658:0.16307627 846:0.099500023 1578:0.12123381 3181:0.13497077 3205:0.14482963 4411:0.14181757 11363:0.19538936 16847:0.20788936 #
2.8859844058606722860815807507606 186:0.13299359 706:0.146431 791:0.12725544 881:0.11691462 1337:0.15383539 1647:0.1196998 2079:0.16998199 2426:0.16153781 2886:0.092672572 5047:0.14860517 6575:0.18696144 9765:0.19199674 #
1.0316223423824686378225123917218 149:0.069852687 233:0.12883109 619:0.11771762 1327:0.15909879 4167:0.17450234 9945:0.15196614 10654:0.16623248 13966:0.17842829 14427:0.17450234 14786:0.14765297 19704:0.20281889 #
-0.638515952986137058644544595154 9:0.29785177 170:0.37431395 682:0.36097205 2253:0.42046925 #
-2.8859844058606722860815807507606 2692:0.37392288 2693:0.3121779 2694:0.35344687 2695:0.30600309 #
-2.8859844058606722860815807507606 189:0.29113308 191:0.46671551 1550:0.26059842 2137:0.30682665 #
-2.8859844058606722860815807507606 149:0.1060726 707:0.2045511 2492:0.23390648 3390:0.19603521 3814:0.26011455 4050:0.27863309 4051:0.30798423 #
-2.8859844058606722860815807507606 245:0.19802107 665:0.30850461 852:0.32862392 1074:0.35380471 1903:0.29252586 4412:0.30639032 11900:0.25994378 #
2.8859844058606722860815807507606 252:0.15580536 860:0.14053677 1175:0.17404549 1323:0.15627201 3868:0.17846155 4412:0.16755719 5728:0.22861125 7810:0.24423669 #
2.8859844058606722860815807507606 879:0.44237834 1024:0.53168327 2656:0.57869947 #
-1.9330111341012174985820593065 765:0.15907156 1072:0.18728249 1837:0.10825255 2068:0.14727679 2210:0.12485513 2436:0.115155 3081:0.19078922 4642:0.15697519 4699:0.13080762 9310:0.20841531 9311:0.19508161 9312:0.17240737 #
1.4988367474627173336898522393312 898:0.29393917 962:0.32557029 1038:0.25278774 2004:0.31559023 6865:0.36840713 #
2.8859844058606722860815807507606 50:0.1875 286:0.33219585 1945:0.43894333 2726:0.38697389 #
-2.8859844058606722860815807507606 612:0.28271502 860:0.24309063 898:0.29393917 1687:0.33468011 2244:0.27716294 3753:0.31086046 #
-2.8859844058606722860815807507606 898:0.30210415 2003:0.26393992 3732:0.39017183 7399:0.39747757 #
-0.087283898352710873047577422312315 49:0.20948085 252:0.24320838 286:0.25927481 2448:0.26728177 7507:0.35685658 7544:0.35685658 #
-2.8859844058606722860815807507606 879:0.52281076 5497:0.61187381 #
-2.8859844058606722860815807507606 65:0.35676178 90:0.2789264 196:0.24458978 545:0.32146227 1407:0.5067845 #
2.8859844058606722860815807507606 9:0.20849624 149:0.14319801 191:0.21002199 580:0.22074308 807:0.29559413 4686:0.3365306 #
0.038752985580262043485699763323282 9:0.52124065 170:0.65504938 1429:0.62785995 #
2.8859844058606722860815807507606 41:0.054435022 328:0.087208435 846:0.058962978 2501:0.10239826 6518:0.089685515 8058:0.092914924 10328:0.11145323 11661:0.10097084 13968:0.11145323 14791:0.11578628 19315:0.1231937 19316:0.1231937 19317:0.1231937 19318:0.10837867 #
-2.8859844058606722860815807507606 149:0.20456859 739:0.2826032 807:0.42227733 808:0.31788811 990:0.30565789 #
-2.8859844058606722860815807507606 103:0.27194139 1322:0.28151822 1429:0.23918475 3549:0.25532526 3550:0.31688553 3551:0.35824254 #
-2.8859844058606722860815807507606 50:0.12 79:0.19151078 273:0.15536369 286:0.21260534 580:0.17659445 2357:0.22921936 3084:0.22409143 4001:0.21859996 #
-0.99778650914206012956242375366855 50:0.14285715 149:0.13637906 170:0.24954262 3348:0.32913727 7409:0.65827453 7827:0.24255601 #
0.97621130006913947596558500663377 682:0.33690724 898:0.36252499 1506:0.38478383 6195:0.35286337 #
2.8859844058606722860815807507606 90:0.26298773 566:0.33230636 6458:0.38026264 7772:0.40883407 7773:0.40131959 #
2.8859844058606722860815807507606 3954:0.23377158 5497:0.28640902 7638:0.32013163 10416:0.32013163 17176:0.33257762 #
2.8859844058606722860815807507606 228:0.23178658 273:0.19420461 422:0.21663339 695:0.21618646 1318:0.26748931 12106:0.35772979 19111:0.37615466 #
-2.8859844058606722860815807507606 1237:0.38571227 2823:0.52612907 6195:0.52929509 12325:0.731556 #
-2.8859844058606722860815807507606 60:0.10206567 90:0.12784126 229:0.135554 580:0.12263504 2823:0.14614697 6002:0.17959101 6458:0.18484989 7192:0.18696144 7771:0.23098817 7772:0.19873878 7773:0.19508591 #
-0.65629114850160985561444704217138 46:0.38520828 169:0.40715006 422:0.33328214 12451:0.60119802 #
-2.3826472771196822719730334938504 835:0.14045051 1238:0.16731922 2098:0.19728869 2274:0.5588097 2338:0.16815382 3954:0.6761393 #
-2.8859844058606722860815807507606 50:0.14285715 422:0.20631753 2722:0.22647031 5715:0.39597973 5716:0.32454914 5717:0.39597973 5718:0.32913727 #
0.62803046637455473000244410286541 488:0.14716424 491:0.13845184 917:0.15905109 3073:0.1682653 3595:0.12931757 14084:0.18807733 15966:0.182889 16925:0.1682653 #
2.8859844058606722860815807507606 50:0.25 171:0.42802623 191:0.35003665 739:0.32970372 #
2.8859844058606722860815807507606 320:0.21974528 990:0.17116842 2071:0.24092202 5895:0.25087032 13695:0.27647531 14605:0.33262298 #
-2.8859844058606722860815807507606 171:0.38046777 796:0.36382842 1556:0.3294377 6835:0.45079592 #
2.3385686208965790200409173849039 238:0.081046924 541:0.077982314 739:0.077577345 1174:0.12913379 1326:0.11122946 1607:0.098190345 2582:0.091078617 3493:0.12677012 7349:0.06806387 7922:0.13770771 13122:0.14751163 14878:0.16305047 14879:0.16305047 #
-2.8859844058606722860815807507606 46:0.13534345 50:0.081081077 171:0.13881932 420:0.16538788 2054:0.14458881 2161:0.16361547 4181:0.093658611 4849:0.15779512 4905:0.17194712 6411:0.21123174 6412:0.15052584 6413:0.16122119 #
-2.8859844058606722860815807507606 50:0.12 191:0.1680176 252:0.19943087 323:0.19003674 561:0.23261444 1273:0.21806258 1308:0.22152296 9272:0.29262242 #
2.8155533718418022104401643446181 580:0.30447319 1186:0.34959558 1237:0.26600847 2303:0.46418011 4307:0.34692055 4539:0.29170454 #
2.8859844058606722860815807507606 198:0.16460636 580:0.16351338 791:0.16967392 1074:0.22931786 1375:0.20749205 1894:0.25599566 9014:0.25599566 17389:0.30798423 #
2.8859844058606722860815807507606 350:0.56786597 422:0.48140755 484:0.51469123 #
2.8859844058606722860815807507606 1175:0.24753137 2274:0.26905653 2439:0.24753137 5763:0.26511928 #
2.8859844058606722860815807507606 103:0.25958043 262:0.25243676 305:0.21736704 3368:0.30248165 3753:0.26140538 8585:0.35525337 #
-2.8859844058606722860815807507606 350:0.24930701 354:0.29237229 484:0.22596201 711:0.27495641 934:0.26526219 1506:0.28154916 #
-2.7217969392937764183670878992416 484:0.30881476 4308:0.34935966 7748:0.5543716 7749:0.5543716 #
-0.58021904076049390930336357996566 2235:0.58625853 2236:0.71742439 2237:0.57979536 #
-1.7154248171812698231519789260346 198:0.37036431 484:0.38601846 713:0.52628958 2276:0.52628958 #
-2.8859844058606722860815807507606 38:0.23642933 1175:0.24215026 1437:0.21136539 4252:0.30535188 7366:0.26320747 #
2.8859844058606722860815807507606 41:0.051751606 160:0.067735106 887:0.072593935 1502:0.078670256 1647:0.060692854 1892:0.075189002 2124:0.071741916 2560:0.081594162 2773:0.097350463 3871:0.091060229 4024:0.092758067 4646:0.10303606 6024:0.093726702 6195:0.074548602 6835:0.085714713 6836:0.091873951 6925:0.08720538 9207:0.095993407 10342:0.092758067 #
2.8859844058606722860815807507606 50:0.17142858 60:0.10498183 124:0.12766625 190:0.12384121 252:0.14245062 459:0.12444009 695:0.12353512 758:0.091562726 834:0.12458713 1005:0.18816637 1255:0.16615318 2858:0.16155583 14228:0.18044214 #
2.8859844058606722860815807507606 41:0.11219432 60:0.056097161 204:0.089871295 238:0.06310524 245:0.05290639 722:0.086327538 1578:0.074035913 1806:0.088118434 1816:0.17211013 2084:0.086606145 2629:0.077517696 3737:0.1072228 4877:0.09713044 6835:0.092912138 6836:0.099588558 17831:0.11932175 #
2.8859844058606722860815807507606 182:0.29593724 1000:0.2934486 9056:0.37864065 9272:0.40641999 #
2.8859844058606722860815807507606 50:0.088235296 157:0.14081675 169:0.15567502 547:0.13925944 1069:0.16477311 1267:0.19015518 2161:0.17805211 2547:0.14909223 14836:0.2104293 18848:0.22986983 #
-2.8859844058606722860815807507606 547:1.1837052 #
-2.8859844058606722860815807507606 50:0.084507041 739:0.11144914 744:0.15280852 1478:0.1837479 2726:0.17441076 3276:0.15434581 4798:0.1696634 12106:0.20153792 12107:0.22015703 #
-2.8859844058606722860815807507606 50:0.06185567 146:0.089730963 302:0.12418661 1874:0.12547928 2490:0.12547928 2561:0.1261722 2726:0.12766148 5178:0.11990435 6865:0.14052643 7149:0.16114587 7150:0.1387755 7151:0.16114587 7152:0.13720816 #
-1.6492333534785825754909183160635 186:0.38302156 305:0.38256598 909:0.35863137 7024:0.66524595 #
1.3033229334056515291706546122441 934:0.90631247 3657:0.87007242 #
2.0546806485311437384666533034761 354:0.54487562 453:0.46856087 601:0.4968181 14830:0.71050674 #
1.2888357841565227790425751663861 796:0.54574263 7366:0.67264134 #
1.8234378597592548754136032584938 16:0.2338897 484:0.44116393 2291:0.25894642 5235:0.31062144 14363:0.35824254 #
-2.8729112897630435519147340528434 170:0.11517352 739:0.17390965 915:0.11451662 1581:0.14474337 1582:0.10278183 1606:0.12551142 2223:0.14336374 3186:0.12937516 3283:0.12685181 3867:0.15724386 6148:0.13449125 6222:0.28672749 6223:0.17177087 #
-2.8859844058606722860815807507606 15:0.11983041 459:0.14518011 484:0.15440738 516:0.116288 584:0.23039609 588:0.19239192 1603:0.18360187 1878:0.23039609 5235:0.21743502 5824:0.22435373 #
-2.1997619587498524751367767748889 67:0.22491676 321:0.18292306 422:0.21134965 3058:0.36698014 4680:0.33246496 7354:0.35685658 #
-2.8859844058606722860815807507606 233:0.2400943 422:0.19693945 423:0.28320962 424:0.37798065 425:0.23389025 426:0.17289387 #
-0.4788059452745399569018047714053 193:0.14494947 296:0.19540146 411:0.20905858 2163:0.19883946 2460:0.20397839 6807:0.20905858 7239:0.26051915 #
0.9968509906066594927764867861697 1437:0.28596494 1556:0.2616123 2618:0.32856402 4788:0.43032706 16032:0.40658134 #
2.8859844058606722860815807507606 487:0.25088808 1624:0.34951445 2722:0.24389109 3662:0.28816423 13497:0.4264397 #
2.8859844058606722860815807507606 38:0.14500999 146:0.11605205 842:0.15569118 1556:0.11859757 3121:0.1550763 6681:0.19508161 19288:0.22174865 #
2.8859844058606722860815807507606 198:0.12698205 558:0.17483862 1480:0.14726199 1852:0.1521963 2611:0.15867452 2687:0.15499151 5111:0.20441703 7506:0.20441703 16948:0.23758784 #
-0.80500001476873661587774222425651 5110:1.0280825 5111:1.3008356 #
-2.0116486835882430028732414939441 60:0.089618638 558:0.14925247 796:0.11979716 1074:0.15101419 1323:0.1219684 1821:0.11827689 4695:0.11104766 5788:0.15909879 6273:0.13791351 6741:0.19062376 8156:0.15768966 8157:0.17450234 #
-2.8859844058606722860815807507606 1237:0.26600847 2300:0.5390051 2301:0.57348788 2302:0.42202425 2303:0.46418011 #
-2.8859844058606722860815807507606 41:0.11134437 53:0.17427026 774:0.13636364 775:0.13820505 1650:0.17134708 2231:0.21680593 2232:0.20165442 2233:0.35244614 2234:0.23683558 #
0.1806951273688074954826277007669 643:0.25069898 3619:0.31835476 9978:0.43199268 11087:0.41161394 19170:0.51972342 #
1.3973449923916239079346723883646 233:0.18214051 312:0.15346321 923:0.14024873 5692:0.26950255 6653:0.24671021 7255:0.23209006 7915:0.24217562 11833:0.22946882 #
2.6555897880446517334007694444153 430:0.083706871 511:0.097976618 741:0.10773139 4248:0.14046186 4404:0.12238703 5824:0.13461223 7117:0.11308908 12429:0.13631064 16972:0.14631121 18978:0.16631149 18979:0.16631149 #
1.0174337683250465058648615013226 60:0.2721751 547:0.35072747 3881:0.47126248 13730:0.45589599 #
1.0727498924318104034369980581687 50:0.17142858 1067:0.36354536 2364:0.30309299 2556:0.28877762 13566:0.39496472 #
-2.8859844058606722860815807507606 36:0.13166331 1172:0.12213855 1268:0.11864624 2088:0.12358806 2279:0.1496778 2384:0.15124083 3121:0.13216729 5895:0.14253995 8902:0.17097938 #
-2.8859844058606722860815807507606 881:0.18299679 1244:0.208855 3964:0.22612926 4096:0.31806782 4325:0.31806782 4457:0.23585664 #
-0.93316212941331733166094863918261 1069:0.70028567 1383:0.5731203 4765:0.89432448 #
2.8859844058606722860815807507606 476:0.1386489 492:0.12558281 2169:0.10759565 3612:0.11054566 3887:0.13732737 5932:0.13117078 9153:0.14348488 12568:0.16453841 13690:0.15062307 18800:0.16453841 #
2.8859844058606722860815807507606 139:0.2952852 149:0.15910891 196:0.22420728 3256:0.39017183 14352:0.36587906 #
2.5759534364664973260516944719711 1133:0.17239283 2088:0.18433474 2233:0.19713089 4714:0.25502011 5423:0.21120718 12325:0.24798509 13972:0.23430111 15263:0.25502011 #
1.4598565070221483086498892589589 193:0.16105495 1903:0.1896001 1905:0.227948 1967:0.20511384 2233:0.21538374 4019:0.22093274 11266:0.26498502 13761:0.24391937 17342:0.24159446 #
-2.8859844058606722860815807507606 2:0.27033415 149:0.14686975 196:0.20696057 1453:0.26771459 2439:0.28561312 8033:0.30590686 #
-0.90810272015929616173934846301563 1133:0.78239822 4699:0.75465935 #
-0.16990835127876735555219056550413 695:0.22756469 1005:0.34662226 1021:0.24423081 1151:0.29229519 1461:1.0507257 #
-2.8859844058606722860815807507606 196:0.10620345 452:0.12808828 453:0.13563605 465:0.19797613 1601:0.11723544 1713:0.18827884 1798:0.14346223 4202:0.12908646 4794:0.19251473 11238:0.18481824 #
2.8859844058606722860815807507606 90:0.317399 118:0.44588113 146:0.3001346 1028:0.32482621 #
1.0066213535385761801421722339001 643:0.45842102 881:0.24051008 2558:0.38026264 2927:0.3441743 15570:0.44660425 15571:0.41803202 #
2.0397218760718391905584212508984 90:0.3287347 191:0.30003139 10441:0.45110536 17528:0.59396958 #
-2.8859844058606722860815807507606 191:0.13549806 430:0.13501109 789:0.17629029 1028:0.15193485 1480:0.16626354 3297:0.17815742 3659:0.20683493 5584:0.19631435 #
-0.45416715047007200078965638567752 197:0.1687344 739:0.12560141 1733:0.144034 2064:0.16224742 2203:0.22713004 3634:0.2639865 3635:0.24811347 #
-2.8859844058606722860815807507606 5:0.088613883 41:0.047107231 149:0.073434874 152:0.059003662 295:0.052435316 337:0.06288828 1142:0.077218592 1143:0.093789235 1980:0.065522991 2786:0.081564665 2866:0.090039656 3105:0.07043118 3390:0.067858346 3852:0.13688254 8148:0.078905076 12249:0.08443363 12264:0.087378614 12265:0.10019967 #
-2.8859844058606722860815807507606 487:0.25088808 1028:0.24153744 1117:0.29387096 9009:0.35445553 #
-2.1190058233777033791511712479405 79:0.56326699 1054:0.51459956 7683:0.86065412 #
2.8859844058606722860815807507606 2:0.26357579 197:0.26575667 1529:0.30428723 1884:0.2996816 4088:0.31358787 #
2.8859844058606722860815807507606 2:0.24518679 50:0.13953489 430:0.19466715 4203:0.32665548 4318:0.30339769 5445:0.27155438 #
-1.1367641918387598742867794499034 43:0.073162504 55:0.11302191 445:0.10313487 2001:0.10737328 2788:0.13312347 3216:0.13580808 3875:0.13085474 9328:0.1697056 9329:0.1697056 9330:0.15950152 #
2.8859844058606722860815807507606 486:0.24012521 939:0.26605877 9497:0.32709101 16127:0.3615467 #
-2.8859844058606722860815807507606 1267:0.14367281 2556:0.11230242 2625:0.15145627 3639:0.14248627 4088:0.27874479 5709:0.16717985 7235:0.18479054 7236:0.18479054 7237:0.13759072 7238:0.14787991 7239:0.17367943 #
-2.6328272896602715746894318726845 149:0.23866335 939:0.50994599 11842:0.65129787 #
-1.3267202614056259335484355688095 3505:0.69859606 12272:0.97830284 #
-2.0531391782169747806108262011549 618:0.24583879 1529:0.24839775 3687:0.25599012 3861:0.27471885 4958:0.31900305 6270:0.28665686 8172:0.29202431 #
-2.8859844058606722860815807507606 149:0.071599007 636:0.12429975 902:0.1703883 999:0.12818785 1781:0.076616041 2687:0.13561757 3868:0.14276923 9497:0.18807733 9498:0.18807733 9499:0.20788936 #
1.4106739351616577327064305791282 563:0.3778218 1557:0.45476019 10117:0.51773936 #
2.8859844058606722860815807507606 50:0.12765957 273:0.16528052 774:0.19148937 1602:0.24301146 1980:0.21748057 9009:0.29412267 #
2.8859844058606722860815807507606 321:0.15305808 1054:0.17853455 1133:0.20757504 2169:0.20860381 2360:0.27161616 2417:0.18887813 15265:0.29202431 #
2.8859844058606722860815807507606 241:0.14396723 245:0.10501117 487:0.14825204 9009:0.20945099 14516:0.20945099 15147:0.2519871 15148:0.2519871 15149:0.22797252 #
-2.2900090631674245855720073450357 2169:0.53797829 3737:0.73927295 #
-1.135778663249199738061179232318 79:0.59847122 273:0.48551151 8158:0.82322788 #
-2.1562267627886515519719523581443 9:0.26902741 198:0.28673366 273:0.2505866 814:0.31103393 1980:0.3297286 #
-0.39506687690882558161575843769242 50:0.1875 245:0.21658555 273:0.24275576 511:0.30617693 607:0.33012968 4031:0.37644064 #
-2.8859844058606722860815807507606 197:0.24721551 203:0.21290274 273:0.18065545 2428:0.27497128 3140:0.21014357 3227:0.3095161 3448:0.28798056 #
2.8859844058606722860815807507606 27:0.20155366 149:0.11015232 509:0.19406606 618:0.23165579 896:0.20864241 1734:0.22118917 2244:0.19721209 17602:0.27011895 #
2.8859844058606722860815807507606 55:0.19096807 149:0.098757252 314:0.14927951 677:0.16545154 1117:0.1976029 1270:0.20213944 7397:0.24217562 18010:0.26950255 #
2.8859844058606722860815807507606 149:0.11455841 2694:0.25448176 3219:0.2169881 3920:0.30092373 17501:0.33262298 #
-2.8859844058606722860815807507606 1839:0.31178504 7397:0.45310277 7398:0.53648865 #
-1.641471638143178202184913061501 846:0.34608704 1734:0.50007987 2546:0.50007987 4123:0.50768864 #
-2.8859844058606722860815807507606 149:0.10807397 191:0.15850715 739:0.1492998 836:0.21624467 4318:0.24615285 7401:0.26502237 7402:0.22728492 7403:0.28389031 #
-0.54397075033004638200395675085019 89:0.3508597 90:0.25568253 149:0.15910891 643:0.22284356 1630:0.28586584 7570:0.38399348 #
-1.0754439529879886716656756107113 600:0.18743618 1734:0.25559637 1903:0.22752011 2618:0.24824837 2944:0.26053527 5468:0.31798205 5471:0.30719477 #
2.8859844058606722860815807507606 15:0.087680787 93:0.11716256 814:0.11758599 816:0.15101419 1039:0.1397679 1184:0.15638739 1318:0.13048258 1505:0.12781452 15058:0.15638739 15059:0.20281889 #
0.8590874095395418796883291179256 9:0.30888334 273:0.28771052 999:0.37981588 4365:0.48318893 #
2.8859844058606722860815807507606 190:0.28896284 607:0.35213831 608:0.26003 3166:0.48770401 17189:0.52103829 #
2.8859844058606722860815807507606 50:0.10169491 198:0.30131334 273:0.13166414 1482:0.18671376 2338:0.1852542 2534:0.25502011 4094:0.19637917 10404:0.19954473 #
1.4197994304364296436204995188746 273:0.2505866 547:0.30547231 10634:0.43423301 11653:0.46158683 #
-2.8859844058606722860815807507606 149:0.11689634 350:0.20860381 351:0.25599012 352:0.21432321 353:0.26624694 354:0.24463804 355:0.2392671 #
-2.8859844058606722860815807507606 50:0.21428572 183:0.3287347 999:0.36625102 1309:0.4324123 #
-2.8859844058606722860815807507606 198:0.20671496 535:0.18941066 547:0.22022423 2774:0.32148293 2775:0.30631736 4365:0.30339769 #
-2.4366999130682196472719169832999 677:0.47980949 1239:0.48865697 1552:0.53740966 1647:0.43091929 #
0.018770175785284629044191717639478 149:0.16365486 2502:0.30064517 3777:0.36944437 14403:0.38945895 14880:0.44660425 #
2.8859844058606722860815807507606 273:0.2157829 580:0.24527007 990:0.23773392 1630:0.28586584 4215:0.30600309 9223:0.32843792 #
2.8859844058606722860815807507606 50:0.16666667 89:0.3508597 538:0.28535083 835:0.25359121 3738:0.2608977 19553:0.46197635 #
2.8859844058606722860815807507606 126:0.10047663 273:0.089289472 309:0.14323245 957:0.12500861 1508:0.11912798 1630:0.11828932 2016:0.13421653 2236:0.15667889 3311:0.14148496 3474:0.13590536 10075:0.12878817 12585:0.17294466 18890:0.19116263 #
-0.19205774281234888611891165055567 79:0.20373487 149:0.12187064 314:0.18421726 427:0.24061505 956:0.23316069 1169:0.19243392 1605:0.28317431 #
-0.75970363297224363652304646166158 229:0.542216 538:0.57070166 5927:0.86839712 #
2.8859844058606722860815807507606 344:0.10687238 772:0.17418 1556:0.10589069 1973:0.15844277 2291:0.12947321 2886:0.079433635 3071:0.12947321 4541:0.14569885 5972:0.16456863 6315:0.15147723 6319:0.16227457 9992:0.16456863 #
-2.8859844058606722860815807507606 515:0.19783361 535:0.1147135 1290:0.14941204 1817:0.18061641 1985:0.19198681 1986:0.14941204 3802:0.20607212 4832:0.1506982 5677:0.22015703 12705:0.23424153 #
-2.8571770248027914540500660223188 2880:0.3494744 4683:0.37361526 6083:0.37361526 13377:0.35970789 #
2.8859844058606722860815807507606 198:0.2402363 370:0.14191672 668:0.17985395 756:0.15187034 1215:0.15052584 1309:0.16361547 1427:0.12131459 2560:0.15657258 8724:0.19771785 #
-1.6243378142692821430870253607281 295:0.13193402 1548:0.16655532 1750:0.2171165 1949:0.21466438 3879:0.19429195 5632:0.23598582 5633:0.23598582 5634:0.19429195 #
2.8859844058606722860815807507606 198:0.11110929 245:0.086634219 301:0.182889 360:0.1084935 665:0.13497077 757:0.098609291 854:0.15214361 1071:0.15788688 1383:0.11462406 2189:0.14845167 2601:0.14181757 15657:0.18807733 15658:0.20788936 #
2.8859844058606722860815807507606 808:0.11711667 895:0.13900197 1309:0.15930979 2357:0.15080221 4431:0.1661967 5314:0.18481824 11800:0.18189165 17533:0.20567301 18291:0.19797613 #
2.8859844058606722860815807507606 149:0.13637906 1021:0.22097073 1722:0.26758108 6224:0.35824254 7397:0.33443299 13791:0.37217021 #
1.3935613067195642411633116353187 245:0.081538089 396:0.14244169 1071:0.1485994 1710:0.13631025 1995:0.14481403 2547:0.11927379 2912:0.15657873 4620:0.17213082 4745:0.15836734 6645:0.16036545 8300:0.16524924 #
-2.8859844058606722860815807507606 146:0.21229033 203:0.22328825 1211:0.26215103 1463:0.24971719 3860:0.26798204 12991:0.38124752 #
-1.9095668458345416151900053591817 146:0.36266264 2616:0.51596516 6504:0.56796098 #
-2.8859844058606722860815807507606 94:0.13159747 314:0.11392383 484:0.12190056 696:0.16396347 1539:0.14456926 2693:0.14787374 2800:0.18189165 5264:0.17512095 8324:0.20567301 #
-2.8859844058606722860815807507606 203:0.10522779 282:0.12532333 487:0.11246707 758:0.073671162 1410:0.16447347 2245:0.15297922 3483:0.12326047 5869:0.13421653 7382:0.14862704 7383:0.15667889 7384:0.14625388 7385:0.15889385 #
2.8859844058606722860815807507606 273:0.11594305 335:0.14586775 393:0.15525293 613:0.20091379 1152:0.14529417 1273:0.16273326 4230:0.18991175 6835:0.18166402 9207:0.20344871 #
1.7636251152121209528900180885103 229:0.271108 1237:0.2142846 3595:0.28737238 4103:0.38399348 8175:0.43419856 #
2.8859844058606722860815807507606 273:0.13166414 1650:0.19167641 2100:0.22324824 4497:0.20988414 8063:0.21916191 15848:0.28188387 15849:0.28188387 #
1.9260352315625104413499002475874 353:0.44986555 514:0.40952185 15519:0.57348788 #
2.8859844058606722860815807507606 238:0.12157039 273:0.114238 1550:0.13796386 2098:0.18858479 3825:0.18210536 5749:0.17241305 16776:0.22986983 19331:0.24457571 #
-0.46640934797567701330933687131619 968:0.24829432 3315:0.2528418 3479:0.25003994 7617:0.26187176 7818:0.27877751 13141:0.3615467 #
-2.8859844058606722860815807507606 393:0.27373543 608:0.20528685 2974:0.34662226 3474:0.31115171 12359:0.41134602 12360:0.39595225 #
-2.8859844058606722860815807507606 41:0.24495761 238:0.27555954 9034:0.3305293 9274:0.4015367 #
0.056779184625832063160189022710256 881:0.17179291 2886:0.13617195 5883:0.22306119 8948:0.26880911 16088:0.2985943 17516:0.3394112 #
-2.8859844058606722860815807507606 50:0.065934069 79:0.1052257 168:0.14336374 173:0.09114968 1237:0.084771931 1482:0.12105618 1607:0.11005951 2654:0.10268457 2655:0.1409205 2801:0.13693653 3124:0.13110295 4140:0.12639381 8735:0.16078155 #
2.8859844058606722860815807507606 196:0.093854211 426:0.088457331 452:0.11319429 741:0.12526906 789:0.127093 1028:0.10953442 1869:0.15169884 16250:0.19338545 16251:0.19338545 #
0.80516925021150054231355852607521 203:0.4161281 720:0.44140029 2119:0.59300458 17131:0.6049633 #
2.8859844058606722860815807507606 173:0.24395943 696:0.36650658 1552:0.31612331 2925:0.3525666 #
2.8859844058606722860815807507606 182:0.21742328 308:0.18907025 638:0.18698758 1250:0.25599012 1410:0.29202431 1523:0.2434769 3629:0.28665686 #
1.9215701789982420066849044815172 443:0.25475171 1055:0.2966958 1169:0.21534272 3837:0.29483724 5383:0.32913727 #
-1.0873044502472979377927231325884 602:0.3944914 2119:0.46593216 4656:0.39557669 12669:0.59396958 #
-2.8859844058606722860815807507606 229:0.22697414 952:0.27497128 1653:0.28157079 1995:0.28626028 4413:0.32665548 #
-2.0920358183038723076663245592499 157:0.33019102 221:0.47668156 2119:0.44986555 4552:0.44986555 8364:0.26206595 #
-2.8859844058606722860815807507606 203:0.17605419 229:0.37538031 1453:0.20078595 1663:0.16516759 2010:0.24122144 3449:0.21420984 8965:0.31982979 #
1.4393086768470144676257405080833 60:0.068043776 1283:0.086355828 1617:0.11873857 3810:0.11695324 4687:0.12079723 5216:0.12799783 7565:0.088071786 10956:0.1068844 12161:0.13547334 13793:0.113974 15121:0.15399212 15122:0.15399212 15123:0.15399212 #
2.8859844058606722860815807507606 228:0.23178658 1663:0.21471786 1741:0.29559413 6002:0.32326382 7192:0.3365306 14296:0.41577873 #
2.8859844058606722860815807507606 50:0.11111111 171:0.19023389 405:0.23563124 459:0.16131122 853:0.21224014 1211:0.19904061 2795:0.23076341 4334:0.23076341 #
-2.8859844058606722860815807507606 477:0.14492247 835:0.14045051 1130:0.17964368 1141:0.16002995 3195:0.17136787 4204:0.17343405 4334:0.19171113 4494:0.18937218 #
-0.87453943716672977171100455962005 322:0.12578957 459:0.12624358 796:0.14236765 896:0.15723775 1038:0.13555285 2386:0.19288684 3852:0.15473679 3874:0.16991431 5823:0.21204522 6168:0.18179007 #
-2.8859844058606722860815807507606 1130:0.20132481 1741:0.20385802 2299:0.145568 2436:0.14890732 2677:0.18142381 8611:0.25226068 8839:0.259417 9691:0.22294056 9692:0.23209006 #
-1.2210834516421471551694821755518 2:0.21516392 203:0.18683302 645:0.30706501 853:0.2338973 2409:0.30706501 3377:0.43671724 4955:0.25599012 #
-2.6703922634846835038047174748499 9:0.085100509 191:0.085723259 619:0.098498419 876:0.13440455 896:0.11070821 3108:0.080056019 4103:0.14105883 4104:0.14105883 6002:0.13194442 7190:0.1697056 7191:0.12118503 7192:0.13735943 7193:0.15950152 #
0.28086675914152980926274949524668 3449:2.2277822 #
2.8859844058606722860815807507606 149:0.11933167 229:0.20333101 245:0.14439036 1244:0.20015271 3283:0.2404899 3300:0.27179375 6518:0.25224051 #
2.8859844058606722860815807507606 60:0.055253595 245:0.052110806 602:0.083050825 1709:0.09641929 2774:0.10393809 2775:0.099034935 2973:0.10561042 2974:0.099034935 5200:0.11752743 10539:0.11000843 10654:0.1024892 11237:0.11752743 13323:0.11312922 16429:0.12504622 16430:0.12504622 16431:0.12504622 #
2.8859844058606722860815807507606 921:0.36947876 2092:0.39781827 3275:0.48075798 5110:0.40388957 #
2.8859844058606722860815807507606 282:0.37596995 1239:0.33700481 1244:0.33128726 5236:0.39384618 #
-2.8859844058606722860815807507606 92:0.25373819 1244:0.25282449 2074:0.34662226 3065:0.31115171 #
-2.8859844058606722860815807507606 50:0.12 245:0.13861474 314:0.17316423 323:0.19003674 1021:0.18561542 1244:0.1921466 3283:0.23087031 7294:0.31262296 #
-1.5765532077842789870913975391886 41:0.10206567 50:0.083333336 439:0.16351582 1139:0.18696144 2307:0.16730696 9808:0.23098817 9809:0.21709928 9810:0.18932033 9811:0.23098817 #
-1.0091269443267008032449894017191 2:0.15735869 245:0.10344384 799:0.18991175 846:0.118806 1244:0.14339299 1318:0.15969512 1660:0.18852164 2433:0.18991175 2640:0.17293091 2745:0.14133793 2922:0.15061843 #
-0.095366930995148493921398369366216 3354:0.45886031 6518:0.46567476 9632:0.57869947 #
2.7459442894937677870359493681462 323:0.28793445 637:0.37524739 1130:0.3538436 2686:0.33121207 11207:0.47367117 #
2.8859844058606722860815807507606 157:0.15959232 369:0.2341031 784:0.21206813 3588:0.25076976 4494:0.2051532 4552:0.21743502 8364:0.12666522 #
2.8859844058606722860815807507606 196:0.215239 344:0.11969706 384:0.12534507 500:0.11664257 771:0.16143392 838:0.13394347 3377:0.14266096 5423:0.16614965 5656:0.18431687 13958:0.1503095 13959:0.20841531 #
2.8859844058606722860815807507606 191:0.1135254 600:0.11398146 915:0.1408245 1130:0.15779512 2885:0.18981333 3645:0.18680763 3758:0.12771907 6064:0.1442816 8975:0.21123174 14279:0.22474526 14280:0.18981333 #
2.8859844058606722860815807507606 532:0.21670721 1215:0.23206066 2573:0.21223651 6599:0.2879951 8038:0.24632844 13715:0.32564893 13716:0.34648228 #
-2.055810163528845269098610515357 671:0.42600566 2885:0.5402379 2886:0.25663173 2887:0.47627556 #
-1.1410866412287432591909919210593 915:0.40080819 1088:0.38933954 7914:0.55035353 12046:0.40391681 12047:0.63965958 #
-2.8859844058606722860815807507606 60:0.087484859 739:0.094201066 1080:0.12737586 1332:0.097962126 1838:0.16227457 1919:0.1311442 3629:0.16721649 5096:0.15680531 6171:0.14569885 13163:0.19798987 13164:0.1860851 #
-2.8859844058606722860815807507606 79:0.1994904 321:0.1562468 453:0.21475707 1427:0.18702666 4885:0.32564893 12557:0.34648228 12558:0.34648228 #
0.85423253580221503167280161505914 9:0.19395 1429:0.23362231 4081:0.3402586 12439:0.30339769 12503:0.30631736 18844:0.3867709 #
1.6115662737141831506448852451285 1182:0.24296598 3065:0.28151822 3948:0.34836 3949:0.32454914 4994:0.34836 #
0.71605334926899089076357540761819 57:0.09497229 811:0.1172517 881:0.088608973 1550:0.098753087 1754:0.1478546 2428:0.12446069 2839:0.13732737 3139:0.13393776 8017:0.088608973 8929:0.1386489 10345:0.14348488 14264:0.086466514 14680:0.16453841 14681:0.15838091 #
0.04247336462325498190883976690202 18:0.19972846 846:0.12838712 3065:0.1907059 3909:0.19853535 5422:0.19242528 9245:0.25211531 14852:0.22296396 #
-0.93800582919515784752206855046097 853:0.28652421 4175:0.32615253 6284:0.41577873 6285:0.35772979 6286:0.31358787 #
-0.25534704767401789071712414624926 50:0.18181819 193:0.26354447 385:0.19957039 386:0.20165442 387:0.18880641 784:0.1927892 2338:0.33121207 9356:0.23683558 #
-2.8859844058606722860815807507606 50:0.11538462 64:0.19094728 1663:0.16516759 1781:0.23574166 2092:0.21420984 2832:0.25088656 2833:0.22199067 2854:0.27517676 #
-2.8859844058606722860815807507606 718:0.26431638 2088:0.27886537 4135:0.29491889 8038:0.30317348 8647:0.33155262 #
-0.9921454053270948314491306518903 796:0.61396044 797:0.87788665 #
2.8859844058606722860815807507606 238:0.12525435 860:0.13627808 2074:0.19957039 3071:0.16478407 6268:0.22168364 7683:0.22168364 10073:0.20653126 17445:0.23683558 #
2.8859844058606722860815807507606 77:0.1439023 321:0.10869342 422:0.12558457 548:0.14255145 739:0.11467955 1463:0.14838268 3458:0.19288684 7401:0.20356792 9610:0.17062521 19495:0.24103114 #
2.8859844058606722860815807507606 214:0.11529502 305:0.10993275 739:0.090952754 1906:0.15139823 3108:0.09017805 3140:0.10386407 3380:0.13532344 3713:0.16145042 3789:0.13173527 5706:0.15472671 7167:0.15472671 9409:0.17294466 #
2.8859844058606722860815807507606 5:0.24685295 504:0.22399135 905:0.21113867 915:0.18608952 1584:0.19671628 7061:0.27912766 7454:0.25082475 #
2.8859844058606722860815807507606 57:0.31111613 561:0.40105939 1989:0.49342042 3918:0.42969736 #
-2.8859844058606722860815807507606 472:0.16603898 1490:0.22713004 1584:0.17485891 4146:0.17785034 5144:0.21367021 5966:0.19779719 7638:0.23882835 7639:0.23224001 #
-2.8859844058606722860815807507606 254:0.21599634 561:0.18173003 695:0.13511653 860:0.14053677 1283:0.14572546 3352:0.17907763 4026:0.20203988 7329:0.20203988 9457:0.25986171 #
-2.8859844058606722860815807507606 3:0.38071796 214:0.33435556 321:0.24999486 2349:0.42413625 3789:0.38203225 #
-2.8859844058606722860815807507606 77:0.17419751 408:0.15434495 608:0.1368579 619:0.16934815 774:0.15789473 2730:0.19541951 8477:0.2310815 9274:0.21133511 #
-2.8859844058606722860815807507606 149:0.078464665 284:0.15090564 318:0.16342969 673:0.14442509 1742:0.15442757 2232:0.1823177 3069:0.16196939 3070:0.18936665 3071:0.14898287 3072:0.19241351 #
2.8859844058606722860815807507606 50:0.12765957 252:0.2121605 386:0.28317431 387:0.26513243 1021:0.19746321 1091:0.28640902 2012:0.23839512 4273:0.27284607 #
-0.38895317382575084197426917853591 27:0.079399928 44:0.086236089 57:0.13670254 124:0.1354036 350:0.077436268 582:0.077307358 601:0.082803018 617:0.079097494 636:0.075333178 762:0.092208251 1757:0.086825512 2092:0.084385693 4405:0.10082721 12115:0.10840297 12116:0.12599355 12117:0.12599355 #
2.8859844058606722860815807507606 50:0.12244898 2832:0.26624694 2833:0.23558195 2856:0.24026814 3526:0.27471885 4082:0.22422987 4470:0.28665686 #
-2.1065445206474975314847597473999 321:0.44116741 1091:0.79183668 1772:0.91947931 #
2.2261360060694124207714139629388 336:0.17979532 516:0.12685964 2776:0.19632111 2957:0.20083199 4146:0.20371948 9034:0.18028872 14114:0.23948447 14115:0.30238453 #
-2.8859844058606722860815807507606 16:0.099225931 149:0.057857782 241:0.095978156 245:0.070007451 477:0.19030222 1182:0.10307647 2027:0.12670217 2348:0.13597195 2419:0.11040402 2941:0.10649527 3683:0.10586657 3972:0.12362327 5682:0.15198168 #
2.7533231265595081715957803680794 336:0.099886298 430:0.0845524 881:0.085028812 1438:0.12433527 1647:0.087054402 2787:0.12953298 3481:0.10807649 3482:0.15789039 3833:0.11794786 3977:0.12670217 4447:0.10177252 6228:0.076539688 8400:0.15198168 16176:0.15198168 #
-2.3685522672994530068990570725873 149:0.14686975 252:0.51136118 273:0.19918421 321:0.19230375 1270:0.30061764 9393:0.38579965 #
-1.5776253233263921593731993198162 9:0.062705636 124:0.067192763 214:0.075418547 1177:0.078650042 1379:0.098090984 1380:0.09641929 1620:0.11752743 2068:0.083050825 2440:0.10758791 3139:0.095669828 3738:0.14123785 4121:0.090572186 7401:0.10561042 8816:0.10393809 9614:0.10393809 10073:0.1024892 13297:0.12504622 #
-2.8859844058606722860815807507606 50:0.096774191 606:0.14179295 677:0.15477726 739:0.12762725 1250:0.20231476 2656:0.24268042 2657:0.23598582 2658:0.142106 2659:0.26824433 #
2.8859844058606722860815807507606 321:0.13636084 638:0.16658893 996:0.23720184 1038:0.17005722 1332:0.14961489 2135:0.22380349 5779:0.26016712 9490:0.26602036 #
1.1002304590121039229444477314246 360:0.24109668 545:0.29467374 1091:0.37392288 1839:0.26848155 10421:0.33996397 #
-2.8859844058606722860815807507606 163:0.15490973 532:0.13686772 2064:0.13449457 2187:0.14880142 2193:0.15850133 2383:0.1661967 3129:0.15626492 5312:0.18189165 6019:0.18827884 6020:0.1793561 #
2.8859844058606722860815807507606 321:0.061474148 1260:0.1042958 1898:0.10909174 1899:0.10214118 2144:0.066290677 2383:0.10353237 3164:0.09825626 3282:0.10031724 3370:0.11330955 4139:0.10150135 5097:0.1042958 5110:0.092695966 8606:0.11728846 15137:0.13632089 15138:0.13632089 15139:0.12812416 #
2.8859844058606722860815807507606 15:0.10271178 295:0.11685584 408:0.12568088 509:0.14416336 688:0.19748236 801:0.15655075 2169:0.14602268 16943:0.22330213 #
-2.8859844058606722860815807507606 207:0.1264209 1869:0.14180544 1987:0.13029635 5514:0.14180544 5654:0.13459961 6638:0.15025832 7687:0.13029635 8038:0.12851919 9009:0.15025832 9010:0.18077335 #
-2.8859844058606722860815807507606 41:0.094214462 60:0.094214462 82:0.11674242 132:0.15030882 990:0.10972334 2407:0.20039934 5319:0.19289982 6708:0.13600327 7689:0.1326334 7816:0.19289982 #
-2.8859844058606722860815807507606 41:0.12047096 532:0.1705237 545:0.17390582 1177:0.17148289 4993:0.24665879 4994:0.23985443 4995:0.21387051 4996:0.21592863 #
-2.168479821515781225116370478645 57:0.10370538 88:0.12193397 238:0.095020533 1169:0.10395855 1323:0.11495872 1725:0.11461544 2274:0.13916717 4033:0.17966838 4350:0.15667889 4376:0.14067475 6065:0.15139823 #
2.8859844058606722860815807507606 49:0.20948085 314:0.21117589 2658:0.21489199 10350:0.38124752 14236:0.337165 #
2.8859844058606722860815807507606 191:0.2048995 286:0.25927481 796:0.23959433 3124:0.29098457 4604:0.24847201 8725:0.34900469 #
2.8859844058606722860815807507606 60:0.065032996 149:0.050689563 214:0.088766962 484:0.081986219 677:0.084922031 739:0.070025571 2107:0.22885934 2222:0.1071464 5284:0.1223342 6758:0.08221256 7457:0.12430253 7922:0.12430253 8033:0.21115695 8814:0.10463509 9181:0.13832875 #
2.8859844058606722860815807507606 64:0.11962962 238:0.099599838 606:0.10591763 776:0.14373937 2654:0.11258188 4683:0.1665514 10067:0.18127935 14333:0.17239991 15484:0.20037529 15485:0.20037529 #
2.7319743030804359840146844362607 50:0.11764706 242:0.24280713 311:0.21378684 453:0.2021243 629:0.25580591 4197:0.23865665 8608:0.27105421 15524:0.29502326 #
-2.8859844058606722860815807507606 191:0.14484274 360:0.14964621 572:0.23209006 580:0.1522366 1186:0.17479779 1972:0.18035269 4307:0.17346027 4308:0.18070328 4309:0.24217562 #
-2.8859844058606722860815807507606 149:0.083013341 245:0.10044547 379:0.1950902 629:0.18907392 4227:0.16337989 4461:0.20356792 4627:0.21806067 4628:0.39510328 4629:0.21806067 #
-0.62343374361107173342588794184849 1070:0.57959473 1205:0.44906917 1403:0.48511201 5605:0.59731025 #
-2.0123068991003854044663512468105 2004:0.30728522 6832:0.39595225 7942:0.3637833 8103:0.38502946 8957:0.39595225 #
-2.8643917209448632732460282568354 2012:0.40016326 4758:0.41538292 7498:0.52254003 7499:0.53736377 #
2.8859844058606722860815807507606 41:0.22268873 94:0.15153649 547:0.14347942 608:0.2363909 1272:0.18251668 1663:0.13013203 2957:0.33471999 14855:0.2519871 #
2.8859844058606722860815807507606 15:0.11596491 41:0.11852787 124:0.14413932 149:0.092385814 190:0.13982072 627:0.14778051 1244:0.15495694 2126:0.17965987 2144:0.13044295 12107:0.25211531 #
2.8859844058606722860815807507606 190:0.096320942 193:0.096632972 229:0.1084432 307:0.12273066 1028:0.10466623 1584:0.12240124 1869:0.14495668 2010:0.13937239 2640:0.12873745 4002:0.14248627 4489:0.11065058 7104:0.14635162 14843:0.18479054 #
2.8859844058606722860815807507606 1453:0.49718425 1725:0.4748354 2674:0.60590893 #
2.8859844058606722860815807507606 41:0.13865525 176:0.21780217 190:0.16356386 193:0.16409373 367:0.19736709 868:0.19973399 1630:0.19417304 8409:0.26502237 #
-2.8859844058606722860815807507606 149:0.1060726 190:0.32106981 336:0.36624974 345:0.20942421 739:0.14653499 1318:0.19814023 7520:0.27863309 #
-2.8859844058606722860815807507606 149:0.18477163 190:0.27964145 214:0.32356989 1205:0.30420816 1272:0.3885839 1548:0.33311063 #
-2.8859844058606722860815807507606 93:0.18837902 176:0.22634344 408:0.17250317 547:0.18567926 3506:0.26394555 4082:0.21543655 #
-2.8859844058606722860815807507606 190:0.13545133 314:0.13528456 1502:0.17454964 1656:0.1664647 1912:0.22861125 1913:0.19881387 1914:0.25986171 1915:0.23509666 1916:0.19017953 #
2.8859844058606722860815807507606 408:0.16291966 2722:0.17614357 2833:0.2137688 4309:0.26011455 7402:0.22307594 16554:0.30798423 16555:0.30798423 #
1.8165653064691933415986113686813 1990:0.25310159 7498:0.34836 13649:0.35824254 19246:0.28979737 19247:0.37217021 #
1.2616938300804927397535948330187 561:0.40105939 835:0.31480286 4308:0.36140656 5967:0.48435125 16106:0.57348788 #
2.8859844058606722860815807507606 191:0.15850715 245:0.13076863 430:0.1579375 1917:0.25718987 11443:0.26502237 11593:0.28389031 19125:0.31379527 #
2.8859844058606722860815807507606 241:0.16104808 245:0.11747012 643:0.13597234 802:0.19293499 877:0.13653021 2276:0.2140839 2610:0.19637917 5280:0.23103498 6537:0.23807095 11616:0.25502011 #
-2.345402428085443968797108027502 802:0.75887764 1806:0.76956767 #
-2.8859844058606722860815807507606 16:0.1275762 186:0.12435766 3452:0.19540502 4695:0.11825855 6655:0.182418 7074:0.19001454 8377:0.182418 8378:0.21598895 8379:0.17702679 8380:0.19540502 8381:0.17482108 #
-2.8859844058606722860815807507606 126:0.14569111 139:0.088585563 148:0.10142908 149:0.04773267 166:0.10384353 541:0.066284969 910:0.09770073 1157:0.088781171 1596:0.077416822 2270:0.11924326 3337:0.097306989 5531:0.11924326 5532:0.1385929 5533:0.13025957 5534:0.1385929 5535:0.13025957 #
-2.8859844058606722860815807507606 60:0.16330507 107:0.28275749 311:0.24229175 422:0.19256303 600:0.18743618 638:0.20360869 2722:0.21137229 3188:0.29270324 4321:0.25381199 #
-2.8859844058606722860815807507606 15:0.087680787 245:0.084521189 307:0.13470438 308:0.11298101 1071:0.15403597 2377:0.17842829 3509:0.15909879 4101:0.18349007 5280:0.16623248 6925:0.15101419 7931:0.18349007 7932:0.19062376 7933:0.17842829 7934:0.13835861 #
2.8859844058606722860815807507606 711:0.32209179 881:0.24051008 1205:0.26944152 1993:0.30122948 2362:0.39496472 3993:0.41803202 #
-0.41308808837442884120960684413149 50:0.1875 702:0.37644064 791:0.28632474 872:0.3281824 5008:0.44716224 #
2.8859844058606722860815807507606 60:0.16330507 190:0.19264188 219:0.23245457 229:0.2168864 336:0.21974985 12195:0.30719477 12226:0.32513601 #
2.8859844058606722860815807507606 60:0.24495761 190:0.28896284 2941:0.35143438 4284:0.32916605 6384:0.47697306 #
-2.3563573513093452049815823556855 13:0.45092851 834:0.34884396 1892:0.42707354 2816:0.47295061 #
-2.8859844058606722860815807507606 241:0.17595994 1009:0.18119694 1630:0.19057724 1776:0.2009149 2547:0.18774578 5160:0.26498502 6516:0.24928191 12226:0.27094668 #
-2.8859844058606722860815807507606 232:0.2554183 1028:0.21409 3588:0.34195876 3589:0.34195876 #
-2.8859844058606722860815807507606 334:0.19973399 337:0.18510513 834:0.16454904 835:0.17225063 1499:0.21270213 1937:0.21204537 5208:0.29492733 5209:0.26502237 5210:0.19070221 #
-2.8859844058606722860815807507606 41:0.059745759 430:0.068054371 1028:0.076585039 1884:0.097457431 2031:0.10944084 2166:0.096553929 3694:0.11238834 4324:0.11633489 4706:0.097457431 4900:0.10425825 9054:0.10067613 9055:0.13521259 9056:0.11082166 #
1.5031547665317364081971618361422 1806:0.5496912 11278:0.64101064 #
2.8859844058606722860815807507606 50:0.14814815 128:0.11932513 273:0.095903508 516:0.086139262 739:0.19537999 1332:0.60954213 1709:0.15831809 4890:0.12310547 5968:0.15109511 17359:0.20532282 #
2.7601728731548091921865761833033 846:0.11371431 2272:0.16891094 2576:0.20441703 2582:0.13271455 3661:0.17043382 4321:0.16316484 6051:0.17483862 13708:0.23758784 13709:0.2006598 13710:0.23758784 #
1.3248759562880456641664750350174 149:0.13018002 320:0.24971054 1407:0.19004418 1548:0.23469158 2471:0.24058867 4466:0.28143555 13609:0.31923151 #
2.8859844058606722860815807507606 252:0.1278403 345:0.144986 739:0.1014473 1733:0.11633515 1870:0.15158674 2244:0.13147472 2820:0.14970306 3965:0.14545391 4348:0.18007931 8066:0.18757847 17242:0.21321985 #
-2.6141510655616801983569530420937 321:0.076529041 606:0.089705743 998:0.10104465 1241:0.12065066 5192:0.14601216 8735:0.14929715 9742:0.1697056 9743:0.1697056 9744:0.1697056 9745:0.1697056 9746:0.1697056 9747:0.15950152 #
-0.60399462900731293313327796568046 1226:0.57223052 1297:0.63447452 2820:0.83405989 #
-2.6168478295881145712087345600594 128:0.55230492 152:0.26298773 344:0.25649372 1383:0.26199785 4020:0.36088428 4268:0.32981473 #
-2.8859844058606722860815807507606 50:0.071428575 228:0.11037456 516:0.083062857 758:0.076302275 781:0.13045897 1427:0.10687238 1986:0.12628874 2841:0.11311711 4121:0.14340596 5236:0.1359707 12229:0.19798987 12230:0.19798987 12231:0.16025266 #
-0.20392013232846223358407655723568 245:0.12834699 282:0.2019098 449:0.18630919 516:0.12920889 756:0.2081186 4581:0.28946573 4582:0.2524271 4583:0.30798423 4584:0.23747714 #
2.8859844058606722860815807507606 126:0.12140927 198:0.12345476 408:0.12218975 682:0.14037801 744:0.15068617 966:0.15426691 2077:0.15757507 5210:0.14037801 5734:0.18293953 7570:0.19199674 16440:0.17307255 #
2.8859844058606722860815807507606 183:0.13636401 774:0.06666667 1401:0.098586611 1987:0.088794552 2450:0.092305362 2475:0.16701056 2957:0.081820443 3250:0.076908328 5584:0.18031837 10309:0.10239826 13598:0.10404582 14283:0.1231937 14284:0.1231937 #
2.8859844058606722860815807507606 46:0.12519269 77:0.12411573 484:0.11580553 802:0.14228955 1308:0.13845184 1463:0.12798005 3828:0.12955168 7554:0.17557733 13800:0.16029707 16846:0.20788936 #
2.8859844058606722860815807507606 314:0.16336249 1409:0.24615285 1892:0.20144978 3140:0.17049384 3830:0.19449696 8158:0.24852163 14174:0.27605888 17461:0.29492733 #
-2.8859844058606722860815807507606 149:0.23866335 335:0.40721413 881:0.35074386 1600:0.47589746 #
-2.8859844058606722860815807507606 41:0.076549254 427:0.11780112 428:0.17324114 429:0.10776464 430:0.087194659 431:0.077092491 432:0.17324114 433:0.17324114 434:0.14399755 435:0.17324114 436:0.1567311 #
-2.8859844058606722860815807507606 77:0.22065018 173:0.18432491 607:0.23475888 696:0.27691609 1463:0.22752011 3140:0.20080386 #
-2.6716097534015683656605233409209 551:0.19218324 846:0.12634924 1450:0.17581187 2572:0.19319825 3288:0.23224001 3314:0.18129426 3661:0.18937092 4117:0.22713004 5126:0.18851005 7505:0.21367021 13437:0.21125701 #
-2.8859844058606722860815807507606 15:0.070488475 90:0.090240896 680:0.10771827 1806:0.22634344 2723:0.11402669 3075:0.14028619 3076:0.13770771 5849:0.11998729 7059:0.13048227 7060:0.13770771 7061:0.15324655 7062:0.13770771 #
2.5410577065420891784697232651524 781:0.26728177 4135:0.28053263 9434:0.24930701 10647:0.35685658 11576:0.34258991 13712:0.29530594 13713:0.31819758 #
2.8859844058606722860815807507606 152:0.11800732 608:0.10001153 739:0.1014473 811:0.14280656 1272:0.15443718 1383:0.11756314 2166:0.15225811 2816:0.15158674 2823:0.13490489 5465:0.19289982 11258:0.15781015 12148:0.17475723 14264:0.10531178 #
2.8859844058606722860815807507606 50:0.12765957 1226:0.17045164 1297:0.18899241 3164:0.25504816 5747:0.29885504 15717:0.35385424 15718:0.35385424 #
2.8859844058606722860815807507606 50:0.070588239 126:0.10284079 128:0.11370984 252:0.11731227 1331:0.14102663 1756:0.13067314 1800:0.1282721 4121:0.14171883 7316:0.16834344 7733:0.16524924 13992:0.12355103 16217:0.17701395 #
1.8931746724391065317405491441605 152:0.11363668 739:0.097689994 1578:0.1197371 2235:0.13751742 2424:0.13791576 4759:0.12294509 7089:0.15287857 9676:0.14799091 11317:0.17665669 15460:0.18575539 19325:0.18575539 #
1.1165697276158301765036640063045 306:0.16048829 3504:0.16634044 3573:0.17985395 4159:0.18680763 4465:0.16634044 4910:0.17194712 7572:0.19771785 16519:0.22474526 16520:0.22474526 #
-2.8859844058606722860815807507606 608:0.13449827 1733:0.15645072 3662:0.1937656 3738:0.16193651 5056:0.22493277 12488:0.28674394 12489:0.28674394 #
-2.8859844058606722860815807507606 47:0.12295126 60:0.096693791 126:0.1150193 548:0.12942171 608:0.10264342 852:0.15133996 1332:0.10827393 2740:0.18827884 2742:0.17712136 2769:0.16015118 5637:0.20567301 8158:0.17331113 #
-2.8859844058606722860815807507606 1093:0.22104339 1821:0.19017068 1835:0.22895762 3662:0.22036088 8065:0.32610095 8066:0.2868847 #
2.8859844058606722860815807507606 9:0.32076347 81:0.39581427 607:0.40631345 757:0.30341321 876:0.50660175 #
2.8859844058606722860815807507606 149:0.21214521 210:0.32413125 241:0.35191989 1980:0.37857729 6686:0.49856383 #
2.8859844058606722860815807507606 77:0.13790637 92:0.13391739 149:0.079554453 273:0.10789145 328:0.16351582 1540:0.15515523 3098:0.17959101 3177:0.1742155 4662:0.25931638 #
1.059617561322426126935170032084 77:0.19858517 149:0.11455841 336:0.19777487 422:0.17330672 719:0.25861105 1200:0.22843078 2009:0.20121393 #
2.6626833311661206593612405413296 90:0.17045502 607:0.1956324 4462:0.27094668 4563:0.22307594 9385:0.24159446 10996:0.27094668 15432:0.27863309 17220:0.20627615 #
-2.8859844058606722860815807507606 149:0.12187064 526:0.29412267 1546:0.24844338 1980:0.21748057 2341:0.21279591 6542:0.27284607 #
-2.8859844058606722860815807507606 149:0.14686975 2076:0.4264397 2077:0.29090783 2078:0.33451539 2079:0.31381291 #
2.8859844058606722860815807507606 146:0.12434148 160:0.1374055 516:0.099675424 808:0.12715524 1313:0.14033382 1332:0.11755455 1803:0.16431196 2769:0.17387842 3236:0.16681197 4605:0.15912731 7481:0.2006598 17208:0.23758784 17209:0.14887162 #
2.8859844058606722860815807507606 128:0.13240187 551:0.16585676 657:0.16861907 807:0.16196939 1631:0.1707017 6231:0.1707017 7132:0.17302671 19193:0.22782396 19194:0.22782396 #
2.8859844058606722860815807507606 93:0.11302742 351:0.14757077 841:0.13793044 1466:0.14398475 2004:0.13737457 2616:0.14568429 6390:0.15836734 16563:0.17701395 18879:0.17701395 18880:0.17213082 #
0.3838895172081291384813539480092 2253:0.42046925 5849:0.43709654 13100:0.5016495 #
-1.1259899003598061728581569695962 38:0.13594687 1649:0.1682653 1725:0.12464429 2107:0.16163191 2926:0.17557733 4806:0.16163191 5463:0.20788936 5464:0.182889 #
-2.8859844058606722860815807507606 183:0.10579967 273:0.089289472 417:0.10618856 1021:0.10667553 1289:0.14995518 1332:0.094584122 2231:0.16447347 2265:0.1473996 2924:0.13268408 2925:0.13778464 2926:0.16145042 #
-2.8859844058606722860815807507606 5458:0.47019333 9223:0.36949268 9384:0.47019333 #
-2.8859844058606722860815807507606 157:0.12939918 842:0.15779512 1015:0.14886637 1296:0.18190843 2169:0.13812956 4923:0.15282308 8329:0.17068851 9465:0.17985395 9466:0.21123174 #
-2.6724389925880425167292742116842 90:0.24877219 96:0.29116592 191:0.2270508 518:0.3076531 1313:0.2654964 2362:0.37361526 #
-2.8859844058606722860815807507606 81:0.083668053 102:0.094558716 149:0.046568461 245:0.05634746 314:0.07039196 535:0.066216737 580:0.071786366 966:0.090302579 1186:0.082424976 1187:0.10425825 1188:0.097457431 1407:0.067983285 5107:0.088420726 5189:0.10944084 5307:0.10944084 5308:0.12708251 5309:0.1189522 5310:0.13521259 #
2.8859844058606722860815807507606 16:0.12434642 149:0.072505325 238:0.10464287 311:0.13801429 608:0.09874557 677:0.12147076 1169:0.114486 1351:0.13266823 3648:0.1229216 4058:0.15326005 7552:0.157737 13975:0.18520406 #
2.8859844058606722860815807507606 43:0.14937344 545:0.22100531 2341:0.20836267 3154:0.21630466 4427:0.3134622 14712:0.34648228 #
0.93117083813195378194649265424232 1570:0.1779007 1733:0.12780482 1972:0.14733036 4910:0.1792125 8158:0.18551613 9024:0.1837479 14173:0.21191812 14174:0.20607212 14175:0.22015703 #
2.8859844058606722860815807507606 124:0.12076538 245:0.093658611 541:0.10748914 636:0.13437811 935:0.17329413 1071:0.17068851 1335:0.15599345 1662:0.15909648 1821:0.13106358 2528:0.16278514 2547:0.13700368 4959:0.34137702 6758:0.12554079 #
-0.23189923751855598399451707791741 4013:0.50174063 4959:0.505238 7602:0.60184747 7603:0.51722211 #
-2.8859844058606722860815807507606 13:0.17080626 82:0.13796832 162:0.1519798 293:0.16560604 1528:0.16039245 1544:0.18162522 2246:0.19591746 4659:0.18344764 #
-2.8859844058606722860815807507606 229:0.36147735 959:0.38669887 4058:0.44842756 4700:0.54189336 #
-0.051988876588203308815039349610743 50:0.09375 317:0.16441533 318:0.18641199 636:0.15537469 1437:0.15191887 1961:0.18103704 6708:0.16575398 12446:0.24423669 #
-2.6423722006583822974334907485172 241:0.17927995 852:0.2170158 1000:0.19932358 1335:0.21780217 7801:0.28389031 11978:0.31379527 #
2.8859844058606722860815807507606 15:0.14978801 580:0.18395256 915:0.21710443 959:0.21751811 1078:0.24632844 1186:0.21121399 1450:0.23075308 2338:0.22770829 3261:0.24138272 #
2.8859844058606722860815807507606 149:0.044402484 157:0.074228987 198:0.13780998 289:0.10566716 547:0.073408075 744:0.084103912 990:0.066344343 1502:0.08659827 1816:0.087389246 2003:0.073657654 2265:0.099409036 2556:0.078350522 4776:0.064405732 7545:0.10113256 9902:0.10888516 10719:0.10716097 10720:0.10566716 16938:0.12892364 16939:0.12892364 #
2.8859844058606722860815807507606 176:0.17229128 197:0.15866071 1093:0.16825691 1313:0.14661743 2025:0.19864465 3474:0.17647411 3490:0.18482335 14256:0.20344871 15716:0.22456995 #
2.8859844058606722860815807507606 126:0.19425482 196:0.17936583 580:0.19621606 990:0.19018713 1205:0.20956561 2011:0.25559637 9900:0.34735885 13711:0.29270324 #
2.8859844058606722860815807507606 344:0.080154285 798:0.1003429 952:0.10556933 998:0.088414066 1313:0.087708637 1326:0.10129826 2223:0.11648304 3124:0.10652114 3352:0.10233007 4563:0.10755447 4955:0.11199567 6133:0.12541237 6636:0.11648304 7313:0.13434094 15031:0.1484924 #
-2.0995330035463899420733469014522 915:0.41684052 3128:0.52686584 3129:0.47504532 #
-2.8859844058606722860815807507606 50:0.03846154 135:0.066195063 139:0.068142734 273:0.049796052 1475:0.090039656 1896:0.057692308 2115:0.074271604 2136:0.069058582 2137:0.070806153 2138:0.081564665 2139:0.074271604 2140:0.083628848 2141:0.08443363 2142:0.08443363 2143:0.066928647 2144:0.051842712 2145:0.093789235 2146:0.07761246 2147:0.10660993 #
-0.27803155423961728454074204819335 781:0.26728177 4121:0.29380733 12532:0.40563777 12533:0.29850495 12534:0.40563777 #
-2.8859844058606722860815807507606 137:0.15681948 484:0.29885298 509:0.16276509 1068:0.17629029 1215:0.17965987 2220:0.22655138 2221:0.26824433 2222:0.19528297 2223:0.21042098 #
0.27477459225099581940909843069676 935:0.80148536 1737:0.67485386 13722:0.81538129 #
2.8859844058606722860815807507606 152:0.11800732 214:0.1285983 548:0.12610321 612:0.13410841 744:0.13909493 1237:0.098900586 1839:0.12391456 1990:0.13628547 3476:0.17722777 4321:0.14642999 4659:0.15522492 #
2.1503937226375628988250809925376 1401:0.16035171 1441:0.15869454 4058:0.14587402 4467:0.15578979 5605:0.30225337 9479:0.16422968 9915:0.1260296 13373:0.17627856 14841:0.14745426 15089:0.1665514 19728:0.20037529 19729:0.20037529 #
2.8859844058606722860815807507606 50:0.11764706 518:0.44639859 4008:0.22104339 9309:0.28057238 17248:0.32610095 #
2.8859844058606722860815807507606 229:0.082015865 990:0.071919501 1653:0.10174407 2169:0.085895687 2245:0.11184195 8647:0.1086601 9595:0.11311953 9871:0.093604296 10896:0.11616609 11720:0.12295059 14555:0.13975756 14556:0.13975756 14557:0.12643854 #
-2.8859844058606722860815807507606 426:0.082688376 744:0.11792832 1407:0.090890691 1653:0.13160373 2374:0.12967791 4284:0.10733675 4567:0.14816374 7986:0.1555347 9945:0.13544808 12904:0.1555347 #
-2.8859844058606722860815807507606 321:0.17856775 422:0.20631753 744:0.25831917 3910:0.31688553 4431:0.3007369 9401:0.31688553 #
-2.8859844058606722860815807507606 9:0.20849624 1733:0.22685353 4459:0.28652421 9308:0.35115466 9309:0.35772979 #
-2.8859844058606722860815807507606 88:0.10715409 238:0.083502896 324:0.12050877 580:0.08918912 608:0.078796968 2560:0.11703405 4419:0.12167779 4563:0.12167779 4692:0.11460005 6188:0.1679914 6189:0.13061164 6190:0.1679914 6191:0.093389422 6192:0.1679914 #
1.694558938337066500423588877311 3129:0.34929803 13845:0.44253489 14964:0.48915142 #
2.7212818435585064413828604301671 547:0.23096688 946:0.31819758 3129:0.28966179 5849:0.29850495 15689:0.40563777 #
2.8859844058606722860815807507606 152:0.24877219 191:0.2270508 422:0.23419827 3129:0.32097659 16024:0.38673493 #
-2.8859844058606722860815807507606 3129:1.3195703 #
2.8859844058606722860815807507606 295:0.061969008 906:0.095689014 1647:0.065290801 2698:0.10472549 2722:0.07205873 3195:0.084385693 3468:0.090812609 4624:0.072613351 5710:0.10326563 6281:0.11084182 11219:0.11398626 11887:0.095026627 15344:0.10197897 16277:0.12599355 16278:0.12599355 16279:0.11398626 16280:0.11398626 16281:0.083910212 #
-1.8985208416027665734304719080683 41:0.13865525 2162:0.23091893 3129:0.22407798 3510:0.27605888 3957:0.31379527 3958:0.28389031 3959:0.31379527 #
-2.8859844058606722860815807507606 152:0.16436735 1418:0.21405828 3236:0.20851497 3657:0.18644409 3979:0.24685295 9467:0.26127002 9468:0.26868188 9469:0.29698479 #
0.075178679608534026979071995810955 324:2.3860736 #
0.77536338384529668310563010891201 608:0.066109322 2171:0.094670989 2658:0.074665859 5236:0.096792705 5361:0.13246736 6075:0.10958096 10120:0.37197763 11324:0.12399255 17347:0.14094193 17348:0.28188387 17349:0.14094193 #
2.5880816449152197478156267607119 860:0.31015012 1806:0.39805225 2629:0.35016614 3961:0.37689647 #
1.0276669508216562665126048159436 50:0.2 5508:0.41277215 6398:0.43101841 12250:0.46079218 #
-1.2288002807770135316189907825901 2629:0.72534412 7039:1.1165106 #
-2.8859844058606722860815807507606 502:0.21640001 860:0.20441712 1733:0.20623049 4760:0.2891838 5849:0.27815235 6950:0.37798065 #
-0.18832339495440944543425132451375 617:0.90790164 1237:0.67080396 #
-1.1708089373996755089279986350448 2629:0.56415653 4327:0.9239527 #
-2.8859844058606722860815807507606 94:0.35719314 1156:0.38298789 2629:0.36267206 #
1.9956895053890901792215117893647 3129:1.3195703 #
2.8859844058606722860815807507606 149:0.07071507 182:0.13152766 323:0.11730663 608:0.096307404 666:0.19297715 1117:0.14149342 1132:0.1570875 1215:0.13751742 1528:0.13069014 1903:0.12640005 2638:0.16106297 4478:0.1156066 #
2.6033206472009418064317287644371 57:0.23743074 149:0.15073475 915:0.27423719 16676:0.39595225 16677:0.4376618 16678:0.25402224 #
2.8859844058606722860815807507606 126:0.13658541 484:0.14475691 668:0.20795612 1407:0.13065538 1606:0.17846155 2071:0.18822032 2169:0.1597123 7475:0.11412157 8226:0.1839553 #
2.8859844058606722860815807507606 149:0.15073475 197:0.27974388 959:0.27475971 1258:0.28989768 9956:0.39595225 #
-2.8859844058606722860815807507606 50:0.11764706 60:0.14409271 323:0.18631053 429:0.20285109 669:0.21717936 1556:0.1744082 1990:0.20843661 3471:0.27105421 5186:0.29502326 #
-2.8859844058606722860815807507606 149:0.092385814 563:0.15844141 1587:0.1875923 2253:0.18988934 2424:0.18018027 7255:0.2171165 9346:0.25211531 9347:0.19429195 #
-2.8859844058606722860815807507606 50:0.12244898 273:0.15853438 320:0.22422987 321:0.15305808 322:0.17713225 323:0.19391504 324:0.2434769 325:0.26880911 326:0.26880911 #
-2.8859844058606722860815807507606 321:0.11718509 1129:0.43894333 1130:0.18245061 1131:0.21298537 1132:0.19881387 1133:0.15892464 1134:0.25986171 #
2.8859844058606722860815807507606 617:0.34802896 2394:0.3305293 8060:0.43487003 8876:0.43487003 #
2.8859844058606722860815807507606 1510:0.41366985 2629:0.32757479 6075:0.41711459 #
2.8859844058606722860815807507606 2:0.12857355 196:0.098432466 1180:0.10181376 2164:0.14183807 2629:0.12383924 2910:0.16230722 3621:0.13928705 3821:0.1448309 4368:0.14843281 7053:0.16416126 8172:0.17450234 #
