SVM-light Version V6.02
0 # kernel type
3 # kernel parameter -d 
1 # kernel parameter -g 
1 # kernel parameter -s 
1 # kernel parameter -r 
empty# kernel parameter -u 
18768 # highest feature index 
8526 # number of training documents 
6621 # number of support vectors plus 1 
0.021960924 # threshold b, each following line is a SV (starting with alpha*y)
247.76803886791060449468204751611 452:0.0093457941 1028:0.0093457941 1157:0.0093457941 1615:0.0093457941 1726:0.0093457941 6446:0.0093457941 7769:0.0093457941 9548:0.0093457941 12018:0.0093457941 13743:0.0093457941 14342:0.0093457941 14343:0.0093457941 14344:0.0093457941 14345:0.0093457941 #
-412.02503347688752910471521317959 4:0.022727273 5:0.022727273 6:0.022727273 7:0.022727273 8:0.022727273 9:0.022727273 #
-339.27196614035506172513123601675 10:0.010416667 11:0.010416667 12:0.010416667 13:0.010416667 14:0.010416667 15:0.010416667 16:0.010416667 17:0.010416667 18:0.010416667 19:0.010416667 20:0.010416667 #
-412.02503347688752910471521317959 21:0.0095238099 22:0.0095238099 23:0.0095238099 24:0.0095238099 25:0.0095238099 26:0.0095238099 27:0.0095238099 28:0.0095238099 29:0.0095238099 30:0.0095238099 31:0.0095238099 #
-412.02503347688752910471521317959 32:0.012345679 33:0.012345679 34:0.012345679 35:0.012345679 36:0.012345679 37:0.012345679 38:0.012345679 39:0.012345679 40:0.012345679 #
412.02503347688752910471521317959 15:0.0084745763 252:0.0084745763 360:0.0084745763 994:0.0084745763 1417:0.0084745763 1418:0.0084745763 1901:0.0084745763 2149:0.0084745763 2397:0.0084745763 3820:0.0084745763 4905:0.0084745763 5407:0.0084745763 7385:0.0084745763 9153:0.0084745763 13481:0.0084745763 13482:0.0084745763 13483:0.0084745763 #
412.02503347688752910471521317959 80:0.0066225166 295:0.0066225166 733:0.0066225166 1741:0.0066225166 1916:0.0066225166 2942:0.0066225166 4310:0.0066225166 4385:0.0066225166 5028:0.0066225166 5366:0.0066225166 6733:0.0066225166 7147:0.0066225166 8436:0.0066225166 9713:0.0066225166 10963:0.0066225166 13484:0.0066225166 13485:0.0066225166 13486:0.0066225166 #
412.02503347688752910471521317959 41:0.0089285718 549:0.0089285718 872:0.0089285718 1725:0.0089285718 2941:0.0089285718 3397:0.0089285718 3981:0.0089285718 6676:0.0089285718 8255:0.0089285718 8295:0.0089285718 10054:0.0089285718 13769:0.0089285718 13770:0.0089285718 #
412.02503347688752910471521317959 124:0.025641026 245:0.025641026 321:0.025641026 337:0.025641026 377:0.025641026 739:0.025641026 8037:0.025641026 #
412.02503347688752910471521317959 50:0.015873017 245:0.015873017 352:0.015873017 408:0.015873017 1088:0.015873017 1332:0.015873017 1876:0.015873017 2437:0.015873017 13488:0.015873017 13489:0.015873017 #
-412.02503347688752910471521317959 46:0.010638298 487:0.010638298 955:0.010638298 1529:0.010638298 2322:0.010638298 2723:0.010638298 7069:0.010638298 7477:0.010638298 9009:0.010638298 11722:0.010638298 11723:0.010638298 #
-412.02503347688752910471521317959 50:0.032258064 408:0.032258064 739:0.064516127 1332:0.064516127 1709:0.032258064 #
-305.71936060501047904836013913155 149:0.050000001 245:0.1 3340:0.050000001 7623:0.050000001 #
412.02503347688752910471521317959 608:0.010989011 673:0.010989011 758:0.010989011 1584:0.010989011 3753:0.010989011 4108:0.010989011 6668:0.010989011 6844:0.010989011 7565:0.010989011 14413:0.010989011 15945:0.010989011 15946:0.010989011 15947:0.010989011 15948:0.010989011 #
-412.02503347688752910471521317959 245:0.06666667 430:0.06666667 836:0.06666667 #
412.02503347688752910471521317959 125:0.024390243 1855:0.024390243 6195:0.024390243 6783:0.024390243 13681:0.024390243 #
412.02503347688752910471521317959 9:0.015873017 149:0.015873017 1115:0.015873017 1244:0.015873017 5871:0.015873017 6497:0.015873017 8493:0.015873017 9977:0.015873017 #
412.02503347688752910471521317959 9:0.0088495575 41:0.0088495575 50:0.0088495575 146:0.0088495575 607:0.0088495575 1067:0.0088495575 1393:0.0088495575 2068:0.0088495575 2508:0.0088495575 2547:0.0088495575 2611:0.0088495575 2959:0.0088495575 4605:0.0088495575 6542:0.0088495575 8909:0.0088495575 11551:0.0088495575 #
412.02503347688752910471521317959 6:0.043478262 7:0.021739131 234:0.021739131 459:0.021739131 1407:0.021739131 1619:0.021739131 3161:0.021739131 #
-209.55705482039212483869050629437 29:0.010869565 682:0.010869565 848:0.010869565 1512:0.010869565 2182:0.010869565 7269:0.010869565 7270:0.010869565 7271:0.010869565 7272:0.010869565 #
-412.02503347688752910471521317959 124:0.1 126:0.1 #
-412.02503347688752910471521317959 9:0.055555556 50:0.055555556 1803:0.055555556 #
-229.9403641090049461581656942144 418:0.0099009899 878:0.0099009899 1238:0.0099009899 1696:0.0099009899 3935:0.0099009899 4131:0.0099009899 4135:0.0099009899 7903:0.0099009899 7904:0.0099009899 7905:0.0099009899 7906:0.0099009899 7907:0.0099009899 #
-225.44958996479144275326689239591 50:0.012987013 193:0.012987013 245:0.012987013 1374:0.012987013 4922:0.012987013 5947:0.012987013 6909:0.025974026 7580:0.012987013 #
-361.44993673507241283004987053573 9:0.047619049 1733:0.047619049 8064:0.047619049 #
412.02503347688752910471521317959 50:0.029411765 169:0.029411765 739:0.05882353 1332:0.05882353 1709:0.029411765 #
412.02503347688752910471521317959 203:0.047619049 245:0.095238097 14043:0.047619049 #
412.02503347688752910471521317959 50:0.024691358 128:0.012345679 273:0.012345679 516:0.012345679 739:0.024691358 1332:0.074074075 1709:0.012345679 4890:0.012345679 5968:0.012345679 17359:0.012345679 #
412.02503347688752910471521317959 245:0.083333336 5089:0.041666668 8610:0.041666668 #
120.70323979101962663662561681122 124:0.0081967209 245:0.0081967209 295:0.0081967209 860:0.0081967209 881:0.0081967209 1141:0.0081967209 1709:0.0081967209 3512:0.0081967209 3997:0.0081967209 4315:0.0081967209 6234:0.0081967209 7411:0.0081967209 13859:0.0081967209 14514:0.0081967209 14515:0.0081967209 14516:0.0081967209 14517:0.0081967209 #
-412.02503347688752910471521317959 193:0.0089285718 426:0.0089285718 2347:0.0089285718 2760:0.0089285718 3124:0.0089285718 3581:0.0089285718 5028:0.0089285718 5070:0.0089285718 5071:0.0089285718 5072:0.0089285718 5073:0.0089285718 5074:0.0089285718 #
-412.02503347688752910471521317959 739:0.090909094 2957:0.090909094 #
-291.39658531790252027349197305739 273:0.013513514 1216:0.013513514 2507:0.013513514 4125:0.013513514 4644:0.013513514 5730:0.013513514 8672:0.013513514 9226:0.013513514 9227:0.013513514 9228:0.013513514 9229:0.013513514 #
-293.15942505217481084400787949562 245:0.06666667 881:0.06666667 8489:0.06666667 #
-299.50742362780363237106939777732 60:0.011904762 429:0.011904762 1574:0.023809524 1575:0.011904762 2136:0.011904762 3091:0.011904762 3094:0.023809524 10287:0.011904762 #
274.39646109016234731825534254313 9:0.050000001 50:0.050000001 18631:0.050000001 #
-412.02503347688752910471521317959 314:0.009708738 615:0.009708738 807:0.009708738 865:0.009708738 866:0.009708738 867:0.009708738 868:0.009708738 869:0.009708738 870:0.009708738 871:0.009708738 872:0.009708738 873:0.009708738 874:0.009708738 875:0.009708738 #
412.02503347688752910471521317959 9:0.045454547 50:0.045454547 1244:0.045454547 1742:0.045454547 #
412.02503347688752910471521317959 9:0.012820513 149:0.025641026 169:0.012820513 203:0.012820513 528:0.012820513 4279:0.012820513 13495:0.012820513 14953:0.012820513 18408:0.012820513 18409:0.012820513 #
412.02503347688752910471521317959 43:0.027027028 60:0.027027028 203:0.027027028 1244:0.027027028 1593:0.027027028 2067:0.027027028 #
412.02503347688752910471521317959 273:0.011764706 570:0.011764706 1054:0.011764706 1383:0.011764706 1539:0.011764706 1972:0.011764706 2021:0.011764706 2103:0.011764706 6154:0.011764706 6636:0.011764706 6865:0.011764706 #
-96.073488742628128989053948316723 1070:0.047619049 1205:0.047619049 1403:0.047619049 5605:0.047619049 #
-412.02503347688752910471521317959 50:0.090909094 2341:0.090909094 #
412.02503347688752910471521317959 126:0.032258064 245:0.032258064 430:0.032258064 752:0.032258064 2390:0.032258064 4282:0.032258064 #
315.15168571171693656651768833399 126:0.064516127 308:0.032258064 14548:0.032258064 18296:0.064516127 #
-412.02503347688752910471521317959 64:0.0067567569 191:0.0067567569 313:0.0067567569 362:0.0067567569 374:0.0067567569 789:0.0067567569 865:0.0067567569 1755:0.0067567569 2791:0.0067567569 4276:0.0067567569 5415:0.0067567569 6071:0.0067567569 7704:0.0067567569 7999:0.0067567569 8000:0.0067567569 8001:0.0067567569 8002:0.0067567569 8003:0.0067567569 #
412.02503347688752910471521317959 682:0.06666667 739:0.06666667 1254:0.06666667 #
412.02503347688752910471521317959 92:0.018181818 162:0.018181818 408:0.036363635 1092:0.018181818 2722:0.018181818 10838:0.018181818 13627:0.018181818 #
-412.02503347688752910471521317959 9:0.043478262 135:0.014492754 895:0.014492754 1624:0.014492754 3030:0.014492754 3031:0.014492754 3032:0.014492754 3033:0.014492754 #
-157.88829445436843457173381466419 197:0.016393442 1117:0.016393442 1258:0.016393442 1393:0.016393442 1807:0.016393442 1808:0.016393442 1809:0.016393442 #
-412.02503347688752910471521317959 9:0.034482758 757:0.034482758 2360:0.034482758 2556:0.034482758 3935:0.034482758 #
-412.02503347688752910471521317959 65:0.030303031 90:0.030303031 196:0.030303031 545:0.030303031 1407:0.060606062 #
-412.02503347688752910471521317959 9:0.028571429 1175:0.028571429 1238:0.028571429 2971:0.028571429 #
412.02503347688752910471521317959 50:0.11111111 853:0.055555556 #
-140.18873275531703370688774157315 137:0.030303031 1529:0.030303031 1722:0.030303031 1745:0.030303031 2660:0.030303031 #
-378.97928182000930519279791042209 149:0.017857144 185:0.017857144 400:0.017857144 714:0.017857144 1393:0.017857144 1926:0.017857144 2831:0.017857144 8268:0.017857144 #
412.02503347688752910471521317959 50:0.1 612:0.1 #
412.02503347688752910471521317959 50:0.045454547 137:0.045454547 408:0.045454547 860:0.045454547 #
-412.02503347688752910471521317959 95:0.010526316 173:0.010526316 516:0.010526316 541:0.010526316 656:0.010526316 1021:0.010526316 1054:0.010526316 1177:0.010526316 3961:0.010526316 5890:0.010526316 5891:0.010526316 5892:0.010526316 5893:0.010526316 #
-176.87900953221526378911221399903 198:0.022727273 209:0.022727273 1383:0.022727273 6544:0.022727273 6545:0.022727273 6546:0.022727273 #
-412.02503347688752910471521317959 41:0.012658228 282:0.012658228 335:0.012658228 516:0.012658228 541:0.012658228 739:0.012658228 1052:0.012658228 2026:0.012658228 2289:0.012658228 6981:0.012658228 7396:0.012658228 #
-218.63705179168468362149724271148 50:0.06666667 3140:0.06666667 4141:0.06666667 #
97.028567422903662986755080055445 502:0.021739131 4766:0.021739131 6471:0.021739131 9594:0.021739131 10304:0.021739131 15140:0.021739131 #
251.50675303943654625982162542641 149:0.1 2349:0.1 #
212.85252107219130834891984704882 149:0.071428575 643:0.071428575 3340:0.071428575 #
412.02503347688752910471521317959 149:0.018181818 245:0.018181818 3170:0.018181818 3311:0.018181818 4934:0.018181818 7504:0.018181818 15070:0.018181818 15761:0.018181818 #
412.02503347688752910471521317959 149:0.0071428572 360:0.0071428572 674:0.0071428572 843:0.0071428572 1058:0.0071428572 1427:0.0071428572 1855:0.0071428572 2077:0.0071428572 4328:0.0071428572 4563:0.0071428572 5302:0.0071428572 5520:0.0071428572 9182:0.0071428572 12466:0.0071428572 17075:0.0071428572 17446:0.0071428572 17447:0.0071428572 #
412.02503347688752910471521317959 50:0.012820513 190:0.012820513 378:0.012820513 548:0.012820513 627:0.012820513 739:0.012820513 1668:0.012820513 1828:0.012820513 3092:0.012820513 3658:0.012820513 4229:0.012820513 9034:0.012820513 17225:0.012820513 #
-412.02503347688752910471521317959 149:0.011111111 193:0.011111111 1388:0.011111111 2834:0.011111111 3100:0.011111111 3581:0.011111111 5156:0.011111111 9761:0.011111111 11476:0.011111111 11477:0.022222223 11478:0.011111111 #
-405.96467781154768772466923110187 149:0.037037037 321:0.037037037 509:0.037037037 643:0.037037037 1585:0.037037037 6718:0.037037037 #
412.02503347688752910471521317959 50:0.041666668 171:0.041666668 191:0.041666668 739:0.041666668 #
-412.02503347688752910471521317959 124:0.014705882 245:0.014705882 385:0.014705882 386:0.014705882 387:0.014705882 580:0.014705882 990:0.044117648 2054:0.014705882 10068:0.014705882 #
412.02503347688752910471521317959 314:0.014925373 1100:0.014925373 1907:0.014925373 3644:0.014925373 3919:0.014925373 5156:0.014925373 5713:0.014925373 13901:0.014925373 14420:0.014925373 #
412.02503347688752910471521317959 836:0.07692308 1819:0.07692308 #
-51.099920440492944351262849522755 137:0.071428575 558:0.071428575 #
-412.02503347688752910471521317959 49:0.025 50:0.025 459:0.025 860:0.025 1819:0.025 10372:0.025 #
-412.02503347688752910471521317959 49:0.02631579 50:0.052631579 739:0.052631579 5559:0.02631579 7609:0.02631579 #
412.02503347688752910471521317959 606:0.016666668 834:0.016666668 1536:0.016666668 1774:0.016666668 2062:0.016666668 2193:0.016666668 3683:0.016666668 4755:0.016666668 #
165.04835241257319466967601329088 5013:0.1 7162:0.1 #
83.178209629650140755074971821159 321:0.071428575 643:0.071428575 1322:0.071428575 #
-257.23124205361477834230754524469 1298:0.03125 3806:0.03125 3807:0.03125 #
-284.04490603827707673190161585808 149:0.06666667 10696:0.06666667 #
-412.02503347688752910471521317959 126:0.0069930069 238:0.0069930069 606:0.0069930069 711:0.0069930069 912:0.0069930069 1332:0.0069930069 2627:0.0069930069 3154:0.0069930069 3605:0.0069930069 5049:0.0069930069 5813:0.0069930069 6790:0.0069930069 7373:0.0069930069 10505:0.0069930069 10506:0.0069930069 10507:0.0069930069 10508:0.0069930069 10509:0.0069930069 10510:0.0069930069 10511:0.0069930069 #
101.41810393258323585996549809352 213:0.090909094 3140:0.090909094 #
412.02503347688752910471521317959 2:0.023255814 50:0.023255814 430:0.023255814 4203:0.023255814 4318:0.023255814 5445:0.023255814 #
122.33246252148498456335801165551 2296:0.090909094 3109:0.090909094 #
198.4271902867640164913609623909 50:0.0625 14515:0.0625 18761:0.0625 #
-412.02503347688752910471521317959 321:0.034482758 422:0.034482758 617:0.034482758 915:0.034482758 1252:0.034482758 #
-412.02503347688752910471521317959 63:0.029411765 94:0.029411765 321:0.029411765 1904:0.029411765 #
-412.02503347688752910471521317959 321:0.033333335 1207:0.033333335 4890:0.033333335 5286:0.033333335 5555:0.033333335 #
-240.80679898752006806716963183135 50:0.043478262 79:0.043478262 377:0.043478262 378:0.043478262 #
-412.02503347688752910471521317959 196:0.013513514 210:0.013513514 374:0.013513514 606:0.013513514 1290:0.013513514 2390:0.013513514 4001:0.013513514 4914:0.013513514 5295:0.013513514 9413:0.013513514 #
412.02503347688752910471521317959 49:0.03846154 149:0.03846154 322:0.03846154 1601:0.03846154 5559:0.03846154 #
412.02503347688752910471521317959 23:0.010204081 149:0.010204081 232:0.010204081 737:0.010204081 959:0.010204081 1164:0.010204081 2823:0.010204081 3140:0.010204081 3464:0.010204081 6645:0.010204081 6991:0.010204081 8417:0.010204081 15692:0.010204081 #
412.02503347688752910471521317959 50:0.017857144 149:0.035714287 203:0.017857144 245:0.017857144 315:0.017857144 842:0.035714287 17824:0.017857144 #
-82.400398133007641376934770960361 241:0.012658228 245:0.025316456 360:0.012658228 551:0.012658228 934:0.012658228 1004:0.012658228 1042:0.012658228 1058:0.012658228 6088:0.012658228 6089:0.012658228 6090:0.012658228 #
-397.55561851489784430668805725873 608:0.05882353 2244:0.05882353 11287:0.05882353 #
412.02503347688752910471521317959 79:0.22222222 #
412.02503347688752910471521317959 915:0.090909094 1237:0.090909094 #
190.90037262763081571392831392586 148:0.010526316 872:0.010526316 914:0.010526316 947:0.010526316 2232:0.010526316 2856:0.010526316 3124:0.010526316 3660:0.010526316 4642:0.010526316 5802:0.010526316 10755:0.010526316 12921:0.010526316 18728:0.010526316 #
286.27921959270167917566141113639 50:0.035714287 198:0.035714287 321:0.035714287 1949:0.035714287 4758:0.035714287 11926:0.035714287 #
-412.02503347688752910471521317959 408:0.023809524 426:0.023809524 484:0.023809524 1078:0.023809524 4267:0.023809524 5302:0.023809524 #
412.02503347688752910471521317959 9:0.011764706 41:0.011764706 479:0.011764706 608:0.011764706 2162:0.011764706 2325:0.011764706 7157:0.011764706 17172:0.011764706 17802:0.011764706 17803:0.011764706 #
97.429690725711836307709745597094 16:0.011904762 60:0.011904762 384:0.011904762 532:0.011904762 588:0.011904762 741:0.011904762 758:0.011904762 892:0.011904762 1055:0.011904762 1179:0.011904762 1705:0.011904762 6202:0.011904762 #
-412.02503347688752910471521317959 92:0.033333335 1365:0.033333335 3595:0.033333335 #
-39.11144664941387105727699236013 50:0.023809524 608:0.023809524 1601:0.023809524 2816:0.023809524 3109:0.023809524 3280:0.023809524 #
285.33478703678417787159560248256 229:0.0625 245:0.0625 11319:0.0625 #
412.02503347688752910471521317959 149:0.023809524 241:0.023809524 245:0.023809524 608:0.023809524 785:0.023809524 1239:0.023809524 2658:0.023809524 9806:0.023809524 #
-303.31836654735946012806380167603 1239:0.2 #
-412.02503347688752910471521317959 149:0.035714287 203:0.017857144 245:0.017857144 3529:0.017857144 4308:0.017857144 6404:0.017857144 11424:0.017857144 11425:0.017857144 #
412.02503347688752910471521317959 322:0.090909094 2693:0.090909094 #
412.02503347688752910471521317959 77:0.037037037 1733:0.037037037 2026:0.037037037 13672:0.037037037 #
412.02503347688752910471521317959 1252:0.020408163 1317:0.020408163 3250:0.020408163 7255:0.020408163 11077:0.020408163 11078:0.020408163 13592:0.020408163 #
412.02503347688752910471521317959 92:0.050000001 204:0.050000001 #
412.02503347688752910471521317959 23:0.0090090092 1858:0.0090090092 3598:0.0090090092 3656:0.0090090092 3830:0.0090090092 4731:0.0090090092 7616:0.0090090092 7629:0.0090090092 15105:0.0090090092 15445:0.0090090092 15561:0.0090090092 15562:0.0090090092 15563:0.0090090092 #
-412.02503347688752910471521317959 50:0.022222223 152:0.022222223 314:0.022222223 1733:0.022222223 4058:0.022222223 5143:0.022222223 #
254.73765808281876843466307036579 3105:0.033333335 3528:0.033333335 15427:0.033333335 #
-412.02503347688752910471521317959 60:0.0084033618 323:0.0084033618 492:0.0084033618 677:0.0084033618 707:0.0084033618 739:0.0084033618 2001:0.0084033618 2144:0.0084033618 2170:0.0084033618 2907:0.0084033618 6037:0.0084033618 8158:0.0084033618 9170:0.0084033618 9171:0.0084033618 9172:0.0084033618 9173:0.0084033618 #
-412.02503347688752910471521317959 77:0.016393442 200:0.032786883 1237:0.049180329 3000:0.016393442 4458:0.016393442 5923:0.016393442 7123:0.016393442 #
-412.02503347688752910471521317959 612:0.027027028 860:0.027027028 898:0.027027028 1687:0.027027028 2244:0.027027028 3753:0.027027028 #
412.02503347688752910471521317959 50:0.03846154 190:0.03846154 228:0.03846154 739:0.03846154 1428:0.03846154 #
-412.02503347688752910471521317959 90:0.015873017 605:0.015873017 1038:0.015873017 1567:0.015873017 2341:0.015873017 5957:0.015873017 8993:0.015873017 10211:0.015873017 10351:0.015873017 10584:0.015873017 #
-287.71934868438637522558565251529 190:0.045454547 739:0.045454547 3476:0.045454547 4928:0.045454547 #
-412.02503347688752910471521317959 149:0.0125 219:0.0125 1733:0.0125 2281:0.0125 2355:0.0125 2388:0.0125 2638:0.0125 3033:0.0125 5983:0.0125 5984:0.0125 5985:0.0125 #
412.02503347688752910471521317959 27:0.01923077 149:0.01923077 509:0.01923077 618:0.01923077 896:0.01923077 1734:0.01923077 2244:0.01923077 17602:0.01923077 #
396.3634375082251608546357601881 29:0.05882353 673:0.05882353 #
-412.02503347688752910471521317959 149:0.028571429 228:0.057142857 3526:0.028571429 3754:0.028571429 4985:0.028571429 #
-412.02503347688752910471521317959 636:0.012658228 785:0.012658228 791:0.012658228 1100:0.012658228 1700:0.012658228 4489:0.012658228 6267:0.012658228 7354:0.012658228 10033:0.012658228 10034:0.012658228 #
-412.02503347688752910471521317959 149:0.044117648 203:0.029411765 384:0.014705882 834:0.014705882 865:0.014705882 1015:0.014705882 1383:0.014705882 1774:0.014705882 2928:0.014705882 10912:0.014705882 #
-412.02503347688752910471521317959 149:0.023809524 393:0.023809524 584:0.023809524 1244:0.023809524 1876:0.023809524 1877:0.023809524 1878:0.023809524 #
412.02503347688752910471521317959 50:0.030769231 175:0.015384615 245:0.015384615 739:0.046153847 1068:0.030769231 1074:0.015384615 4188:0.015384615 13900:0.015384615 #
412.02503347688752910471521317959 50:0.030303031 190:0.030303031 370:0.030303031 581:0.030303031 582:0.030303031 #
139.67515972945119528958457522094 2131:0.0625 3261:0.0625 7237:0.0625 #
412.02503347688752910471521317959 50:0.035714287 322:0.035714287 547:0.035714287 739:0.035714287 9034:0.035714287 #
412.02503347688752910471521317959 198:0.027777778 273:0.027777778 739:0.027777778 2862:0.027777778 3140:0.027777778 4267:0.027777778 14050:0.027777778 #
-412.02503347688752910471521317959 50:0.03846154 677:0.03846154 3140:0.07692308 8485:0.03846154 #
412.02503347688752910471521317959 477:0.015625 925:0.015625 4895:0.015625 5159:0.015625 5962:0.015625 6390:0.015625 15315:0.015625 17799:0.015625 #
15.610182239824318628507171524689 1169:0.090909094 14786:0.090909094 #
412.02503347688752910471521317959 149:0.03846154 502:0.03846154 756:0.03846154 1021:0.03846154 1169:0.03846154 #
-412.02503347688752910471521317959 370:0.045454547 739:0.045454547 9409:0.045454547 #
-412.02503347688752910471521317959 149:0.013513514 191:0.013513514 273:0.013513514 750:0.013513514 1189:0.013513514 2349:0.013513514 2745:0.013513514 3823:0.013513514 5644:0.013513514 7475:0.013513514 7573:0.013513514 10336:0.013513514 #
179.56084496206486278424563352019 60:0.013888889 90:0.013888889 245:0.013888889 739:0.013888889 1550:0.013888889 1647:0.013888889 5975:0.013888889 8169:0.013888889 9061:0.013888889 12714:0.013888889 #
412.02503347688752910471521317959 50:0.037037037 422:0.037037037 7090:0.037037037 9552:0.037037037 #
412.02503347688752910471521317959 50:0.048780486 427:0.024390243 914:0.024390243 2957:0.024390243 8782:0.024390243 #
363.82567221156278947091777808964 50:0.052631579 1678:0.052631579 6878:0.052631579 #
191.01160349715155462035909295082 50:0.0098039219 151:0.0098039219 183:0.0098039219 284:0.0098039219 918:0.019607844 1783:0.0098039219 4411:0.0098039219 6116:0.0098039219 10216:0.0098039219 11692:0.0098039219 12970:0.0098039219 15588:0.0098039219 #
-57.076803053835853063446847954765 50:0.055555556 330:0.055555556 4075:0.055555556 #
412.02503347688752910471521317959 149:0.029411765 393:0.029411765 541:0.029411765 1290:0.029411765 1892:0.029411765 4227:0.029411765 #
412.02503347688752910471521317959 77:0.0086206896 149:0.0086206896 719:0.0086206896 829:0.0086206896 1798:0.0086206896 2625:0.0086206896 3464:0.0086206896 3480:0.0086206896 4456:0.0086206896 10530:0.0086206896 11204:0.0086206896 15525:0.0086206896 15526:0.0086206896 #
412.02503347688752910471521317959 682:0.033333335 898:0.033333335 1506:0.033333335 6195:0.033333335 #
-230.83982663014782588106754701585 6195:0.25 #
-412.02503347688752910471521317959 408:0.0099009899 581:0.0099009899 582:0.0099009899 881:0.0099009899 2563:0.0099009899 4833:0.0099009899 4899:0.0099009899 4966:0.0099009899 5115:0.0099009899 7454:0.0099009899 7743:0.0099009899 9789:0.0099009899 10142:0.0099009899 11077:0.0099009899 11078:0.0099009899 #
-412.02503347688752910471521317959 273:0.1 2353:0.1 #
412.02503347688752910471521317959 50:0.014705882 57:0.0073529412 149:0.0073529412 209:0.0073529412 245:0.0073529412 314:0.0073529412 1013:0.0073529412 1332:0.0073529412 1546:0.0073529412 1578:0.0073529412 1818:0.0073529412 2161:0.0073529412 2560:0.0073529412 4431:0.0073529412 4452:0.0073529412 9107:0.0073529412 16271:0.0073529412 #
-412.02503347688752910471521317959 1543:0.013888889 1656:0.013888889 2302:0.013888889 3620:0.013888889 3621:0.013888889 3622:0.013888889 3623:0.013888889 3624:0.013888889 3625:0.013888889 3626:0.013888889 #
73.307150230337697394134011119604 50:0.052631579 323:0.052631579 1903:0.052631579 18433:0.052631579 #
-65.265396801049547548245755024254 50:0.028571429 418:0.028571429 1021:0.028571429 2658:0.028571429 3540:0.028571429 #
-412.02503347688752910471521317959 50:0.039999999 1237:0.039999999 3181:0.039999999 6029:0.039999999 #
-41.035119835927588383128750137985 50:0.052631579 2298:0.052631579 2299:0.052631579 #
-412.02503347688752910471521317959 15:0.009708738 196:0.009708738 276:0.009708738 2417:0.009708738 4825:0.009708738 5702:0.009708738 5895:0.009708738 7297:0.009708738 7754:0.009708738 7881:0.009708738 8513:0.009708738 10849:0.009708738 10850:0.009708738 10851:0.009708738 #
412.02503347688752910471521317959 41:0.02631579 330:0.052631579 947:0.02631579 3041:0.02631579 7923:0.02631579 17151:0.02631579 #
133.03396748819366735006042290479 149:0.019607844 330:0.039215688 947:0.019607844 1351:0.019607844 1800:0.019607844 3464:0.019607844 4456:0.019607844 14914:0.019607844 #
412.02503347688752910471521317959 1015:0.083333336 1026:0.083333336 #
412.02503347688752910471521317959 124:0.040816326 157:0.020408163 228:0.020408163 252:0.020408163 607:0.020408163 669:0.020408163 3738:0.020408163 15843:0.020408163 #
412.02503347688752910471521317959 60:0.02 124:0.02 273:0.02 739:0.02 3860:0.02 6718:0.02 16220:0.02 16221:0.02 #
412.02503347688752910471521317959 126:0.022222223 196:0.022222223 580:0.022222223 990:0.022222223 1205:0.022222223 2011:0.022222223 9900:0.022222223 13711:0.022222223 #
-412.02503347688752910471521317959 124:0.041666668 229:0.041666668 443:0.041666668 1800:0.041666668 #
-412.02503347688752910471521317959 124:0.037037037 323:0.037037037 422:0.037037037 3795:0.037037037 6558:0.037037037 #
-412.02503347688752910471521317959 50:0.017241379 612:0.034482758 674:0.017241379 2185:0.017241379 2726:0.017241379 6825:0.017241379 6826:0.017241379 #
-239.01470217566841824918810743839 78:0.011494253 801:0.011494253 2023:0.011494253 2268:0.011494253 2758:0.011494253 9346:0.011494253 11814:0.011494253 11815:0.011494253 #
-412.02503347688752910471521317959 58:0.0079365084 430:0.0079365084 1019:0.0079365084 2719:0.0079365084 3738:0.0079365084 4811:0.0079365084 4998:0.0079365084 6495:0.0079365084 8943:0.0079365084 10003:0.0079365084 11011:0.0079365084 11012:0.0079365084 11013:0.0079365084 11014:0.0079365084 11015:0.0079365084 11016:0.0079365084 #
-72.753893754121577330806758254766 1185:0.041666668 5108:0.041666668 5529:0.041666668 5530:0.041666668 #
-412.02503347688752910471521317959 50:0.037037037 126:0.037037037 186:0.037037037 947:0.037037037 2232:0.037037037 #
93.022268169499383816400950308889 808:0.029411765 2658:0.029411765 3540:0.029411765 6171:0.029411765 6175:0.029411765 #
412.02503347688752910471521317959 1244:0.041666668 4334:0.041666668 5555:0.041666668 #
412.02503347688752910471521317959 739:0.052631579 1774:0.052631579 1824:0.052631579 #
412.02503347688752910471521317959 63:0.016666668 67:0.016666668 173:0.016666668 695:0.033333335 1400:0.016666668 2341:0.016666668 4585:0.016666668 #
-412.02503347688752910471521317959 41:0.0087719299 191:0.0087719299 200:0.0087719299 273:0.0087719299 477:0.0087719299 925:0.0087719299 2622:0.0087719299 3698:0.0087719299 4258:0.0087719299 4269:0.0087719299 4360:0.0087719299 6235:0.0087719299 6236:0.0087719299 6237:0.0087719299 6238:0.0087719299 6239:0.0087719299 #
-202.16361940154243370670883450657 295:0.033333335 315:0.033333335 580:0.033333335 695:0.033333335 1578:0.033333335 #
-412.02503347688752910471521317959 149:0.035714287 739:0.035714287 807:0.035714287 808:0.035714287 990:0.035714287 #
-412.02503347688752910471521317959 337:0.029411765 834:0.029411765 835:0.029411765 1903:0.029411765 7607:0.029411765 7608:0.029411765 #
-412.02503347688752910471521317959 137:0.017857144 853:0.017857144 1596:0.017857144 2678:0.017857144 5968:0.017857144 11595:0.017857144 11596:0.017857144 #
412.02503347688752910471521317959 50:0.051282052 3830:0.025641026 10634:0.025641026 17869:0.025641026 #
-412.02503347688752910471521317959 50:0.03846154 1177:0.03846154 1244:0.03846154 5923:0.03846154 #
373.91068433039652063598623499274 33:0.034482758 149:0.034482758 835:0.068965517 2424:0.034482758 4029:0.034482758 #
15.022370092650874084938550367951 149:0.045454547 273:0.045454547 4695:0.045454547 9254:0.045454547 #
412.02503347688752910471521317959 186:0.01923077 273:0.01923077 807:0.01923077 1585:0.01923077 3140:0.01923077 4478:0.01923077 16027:0.01923077 17395:0.01923077 #
-393.9299349419570148711500223726 669:0.055555556 782:0.055555556 1678:0.055555556 #
-142.59092056284040950231428723782 149:0.028571429 171:0.028571429 318:0.028571429 511:0.028571429 1824:0.028571429 #
-412.02503347688752910471521317959 9:0.022222223 796:0.022222223 955:0.022222223 1332:0.022222223 2894:0.022222223 3834:0.022222223 9667:0.022222223 #
412.02503347688752910471521317959 1177:0.0625 3283:0.0625 #
249.01178923886715210755937732756 50:0.050000001 11899:0.050000001 17627:0.050000001 #
-412.02503347688752910471521317959 2687:0.032258064 3283:0.032258064 5937:0.032258064 #
143.52691904846113857274758629501 179:0.0093457941 640:0.0093457941 796:0.0093457941 890:0.0093457941 999:0.0093457941 2003:0.0093457941 2614:0.0093457941 4376:0.0093457941 5226:0.0093457941 9054:0.0093457941 16304:0.0093457941 17360:0.0093457941 17361:0.0093457941 #
-412.02503347688752910471521317959 149:0.024390243 608:0.024390243 841:0.024390243 2245:0.024390243 3283:0.024390243 5488:0.024390243 #
-412.02503347688752910471521317959 50:0.02 360:0.02 695:0.02 944:0.02 4176:0.02 4177:0.02 4178:0.02 4179:0.02 #
329.60330361933125686846324242651 50:0.016129032 77:0.016129032 146:0.016129032 286:0.016129032 539:0.016129032 608:0.016129032 1237:0.016129032 3281:0.016129032 13759:0.016129032 #
412.02503347688752910471521317959 486:0.021739131 939:0.021739131 9497:0.021739131 16127:0.021739131 #
185.19709739800953229860169813037 1244:0.06666667 2734:0.06666667 #
-67.761029057097175609669648110867 41:0.029411765 238:0.029411765 4366:0.029411765 11563:0.029411765 #
391.09266623528321815683739259839 282:0.034482758 1239:0.034482758 1244:0.034482758 5236:0.034482758 #
412.02503347688752910471521317959 1251:0.010416667 1427:0.010416667 2320:0.010416667 3311:0.010416667 3353:0.010416667 4308:0.010416667 4477:0.010416667 5575:0.010416667 14666:0.010416667 17089:0.010416667 17090:0.010416667 #
-412.02503347688752910471521317959 149:0.25 #
-286.40860204171639225023682229221 1244:0.050000001 2563:0.050000001 2936:0.050000001 #
-128.25099529283360766385158058256 50:0.017857144 322:0.017857144 497:0.017857144 1347:0.017857144 1348:0.017857144 1349:0.017857144 1350:0.017857144 1351:0.017857144 #
-412.02503347688752910471521317959 92:0.02631579 1244:0.02631579 2074:0.02631579 3065:0.02631579 #
94.916947902886832366675662342459 6063:0.034482758 13037:0.034482758 17398:0.034482758 #
412.02503347688752910471521317959 16:0.02631579 1924:0.02631579 2185:0.02631579 2971:0.02631579 13579:0.02631579 #
412.02503347688752910471521317959 43:0.020833334 545:0.020833334 2341:0.020833334 3154:0.020833334 4427:0.020833334 14712:0.020833334 #
412.02503347688752910471521317959 191:0.055555556 2353:0.055555556 4376:0.055555556 #
-412.02503347688752910471521317959 43:0.041666668 204:0.041666668 541:0.041666668 3154:0.041666668 #
-147.84492516634330172564659733325 55:0.0078125 317:0.0078125 554:0.0078125 1201:0.0078125 1400:0.0078125 1733:0.0078125 1819:0.0078125 6222:0.0078125 7754:0.0078125 8671:0.0078125 8672:0.0078125 8673:0.0078125 8674:0.0078125 8675:0.0078125 8676:0.0078125 8677:0.0078125 #
-412.02503347688752910471521317959 124:0.012987013 193:0.012987013 511:0.012987013 606:0.012987013 774:0.012987013 1054:0.012987013 1237:0.038961038 1502:0.012987013 1889:0.012987013 3795:0.012987013 4366:0.012987013 #
412.02503347688752910471521317959 18:0.0098039219 453:0.0098039219 1171:0.0098039219 1179:0.0098039219 1480:0.0098039219 1603:0.0098039219 1690:0.0098039219 2526:0.0098039219 3605:0.0098039219 6448:0.0098039219 12763:0.0098039219 12764:0.0098039219 16369:0.0098039219 16370:0.0098039219 #
146.88872909412833678288734517992 1313:0.043478262 3795:0.043478262 7109:0.043478262 7110:0.043478262 #
412.02503347688752910471521317959 92:0.027027028 3476:0.027027028 4497:0.027027028 13498:0.027027028 #
100.5307350286456085086683742702 842:0.013888889 1237:0.013888889 1480:0.013888889 2341:0.013888889 3656:0.013888889 4988:0.013888889 13757:0.013888889 17947:0.013888889 17948:0.013888889 17949:0.013888889 #
-412.02503347688752910471521317959 662:0.037037037 3825:0.037037037 4497:0.037037037 #
-412.02503347688752910471521317959 4497:0.052631579 5763:0.052631579 #
-412.02503347688752910471521317959 149:0.012345679 247:0.012345679 511:0.012345679 756:0.012345679 2354:0.012345679 4037:0.012345679 5145:0.012345679 5235:0.012345679 5236:0.012345679 #
412.02503347688752910471521317959 580:0.034482758 1186:0.034482758 1237:0.034482758 2303:0.034482758 4307:0.034482758 4539:0.034482758 #
412.02503347688752910471521317959 657:0.0074626864 1427:0.0074626864 2622:0.0074626864 3105:0.0074626864 3576:0.0074626864 5100:0.0074626864 5556:0.0074626864 9223:0.0074626864 11247:0.0074626864 14856:0.0074626864 16032:0.0074626864 16132:0.0074626864 16133:0.0074626864 16134:0.0074626864 16135:0.0074626864 16136:0.0074626864 16137:0.0074626864 16138:0.0074626864 16139:0.0074626864 #
412.02503347688752910471521317959 408:0.022727273 541:0.045454547 1839:0.022727273 4431:0.022727273 13827:0.022727273 #
412.02503347688752910471521317959 8:0.033333335 43:0.033333335 580:0.033333335 17549:0.033333335 #
-162.39488531916185820591636002064 580:0.083333336 1186:0.083333336 1682:0.083333336 #
-97.091184205753862102028506342322 541:0.083333336 7206:0.083333336 #
-67.496520688523631292810023296624 308:0.03846154 580:0.03846154 643:0.03846154 1722:0.03846154 5842:0.03846154 #
-412.02503347688752910471521317959 580:0.052631579 934:0.052631579 6614:0.052631579 #
412.02503347688752910471521317959 41:0.022222223 47:0.022222223 50:0.022222223 193:0.022222223 204:0.022222223 269:0.022222223 306:0.022222223 #
412.02503347688752910471521317959 245:0.020833334 477:0.020833334 1593:0.020833334 2164:0.020833334 3195:0.020833334 4075:0.020833334 #
412.02503347688752910471521317959 245:0.017241379 379:0.017241379 484:0.017241379 516:0.017241379 1407:0.017241379 1667:0.017241379 1803:0.017241379 3636:0.017241379 4627:0.017241379 6805:0.017241379 #
-412.02503347688752910471521317959 360:0.0625 1839:0.0625 #
-412.02503347688752910471521317959 149:0.023809524 371:0.023809524 853:0.023809524 1839:0.023809524 3967:0.023809524 #
-174.91667159110036777747154701501 4695:0.083333336 7759:0.083333336 #
-412.02503347688752910471521317959 9:0.020408163 43:0.020408163 50:0.020408163 198:0.040816326 286:0.020408163 1237:0.020408163 1270:0.020408163 4267:0.020408163 #
412.02503347688752910471521317959 643:0.057142857 881:0.028571429 2558:0.028571429 2927:0.028571429 15570:0.028571429 15571:0.028571429 #
390.31598009498742385403602384031 580:0.02631579 739:0.02631579 990:0.02631579 1556:0.02631579 4837:0.02631579 11110:0.02631579 18507:0.02631579 #
412.02503347688752910471521317959 124:0.023255814 245:0.023255814 580:0.023255814 583:0.023255814 638:0.023255814 1393:0.023255814 7104:0.023255814 #
-120.22902433137520006312115583569 245:0.041666668 947:0.041666668 3736:0.041666668 6380:0.041666668 #
-412.02503347688752910471521317959 245:0.025641026 1556:0.025641026 3860:0.025641026 3865:0.025641026 11724:0.025641026 11725:0.025641026 #
412.02503347688752910471521317959 50:0.016949153 198:0.033898305 273:0.016949153 1482:0.016949153 2338:0.016949153 2534:0.016949153 4094:0.016949153 10404:0.016949153 #
215.43121441329981280432548373938 110:0.041666668 360:0.041666668 541:0.041666668 605:0.041666668 834:0.041666668 #
238.52564892975527754970244131982 9:0.041666668 50:0.041666668 2687:0.041666668 #
-412.02503347688752910471521317959 67:0.010752688 3049:0.010752688 3050:0.010752688 3051:0.010752688 3052:0.010752688 3053:0.010752688 3054:0.010752688 3055:0.010752688 3056:0.010752688 3057:0.010752688 #
412.02503347688752910471521317959 707:0.015873017 842:0.015873017 1705:0.015873017 1774:0.015873017 2535:0.015873017 3121:0.015873017 13891:0.015873017 #
-412.02503347688752910471521317959 484:0.03125 485:0.03125 1252:0.03125 1393:0.03125 5899:0.03125 #
-412.02503347688752910471521317959 643:0.023809524 720:0.023809524 1607:0.023809524 5096:0.023809524 5299:0.023809524 8223:0.023809524 10122:0.023809524 #
-137.34370396055453511507948860526 50:0.021739131 643:0.021739131 929:0.021739131 1482:0.021739131 2618:0.021739131 3177:0.021739131 4181:0.043478262 #
412.02503347688752910471521317959 149:0.023809524 1021:0.023809524 1722:0.023809524 6224:0.023809524 7397:0.023809524 13791:0.023809524 #
412.02503347688752910471521317959 149:0.041666668 561:0.020833334 1505:0.020833334 2354:0.020833334 3033:0.020833334 3976:0.020833334 #
412.02503347688752910471521317959 149:0.018867925 677:0.018867925 1800:0.018867925 1839:0.018867925 2802:0.018867925 4284:0.018867925 8909:0.018867925 #
412.02503347688752910471521317959 41:0.010638298 149:0.010638298 182:0.010638298 335:0.010638298 1172:0.010638298 1839:0.010638298 2233:0.010638298 2234:0.010638298 2302:0.010638298 3205:0.010638298 4411:0.010638298 13891:0.010638298 #
-155.60568537455196747032459825277 41:0.045454547 149:0.045454547 2346:0.045454547 2347:0.045454547 #
393.7739022773154715650889556855 50:0.016393442 737:0.016393442 796:0.016393442 834:0.016393442 1733:0.016393442 2916:0.016393442 3708:0.016393442 18463:0.016393442 #
412.02503347688752910471521317959 16:0.010309278 41:0.020618556 228:0.010309278 616:0.010309278 740:0.010309278 2120:0.010309278 2448:0.010309278 2989:0.010309278 3692:0.010309278 4411:0.010309278 5709:0.010309278 8317:0.010309278 14852:0.010309278 #
412.02503347688752910471521317959 50:0.045454547 580:0.045454547 1565:0.045454547 2054:0.045454547 #
412.02503347688752910471521317959 15:0.034482758 50:0.034482758 308:0.034482758 1155:0.034482758 8085:0.034482758 #
108.95738627070660697881976375356 8223:0.0625 9651:0.0625 16642:0.0625 #
-412.02503347688752910471521317959 47:0.03125 307:0.03125 1477:0.03125 1601:0.03125 2131:0.03125 4613:0.03125 #
-11.445352395572987447280866035726 1800:0.07692308 4773:0.07692308 #
-295.02253905040794279557303525507 77:0.02631579 92:0.02631579 273:0.02631579 2468:0.02631579 7437:0.02631579 #
-412.02503347688752910471521317959 16:0.025 1903:0.025 6224:0.025 6225:0.025 6226:0.025 #
-412.02503347688752910471521317959 15:0.012195121 77:0.012195121 92:0.012195121 902:0.012195121 4427:0.012195121 4428:0.012195121 4429:0.012195121 4430:0.012195121 4431:0.012195121 #
-44.971214397835254317215003538877 124:0.012048192 300:0.012048192 313:0.012048192 426:0.012048192 937:0.012048192 3073:0.012048192 5210:0.012048192 7465:0.012048192 7466:0.012048192 #
412.02503347688752910471521317959 41:0.045454547 1663:0.045454547 2175:0.045454547 18201:0.045454547 #
280.80873318021781415154691785574 149:0.025 185:0.025 2346:0.025 4656:0.025 14005:0.025 17875:0.025 #
412.02503347688752910471521317959 50:0.028571429 245:0.028571429 713:0.028571429 881:0.028571429 934:0.028571429 2283:0.057142857 #
-72.557713640929733855955419130623 157:0.071428575 2283:0.071428575 2284:0.071428575 #
-412.02503347688752910471521317959 149:0.010752688 238:0.010752688 937:0.010752688 1504:0.010752688 2088:0.010752688 2437:0.010752688 2629:0.010752688 3140:0.010752688 3386:0.010752688 3921:0.010752688 7972:0.010752688 11088:0.010752688 #
-412.02503347688752910471521317959 149:0.041666668 335:0.041666668 881:0.041666668 1600:0.041666668 #
412.02503347688752910471521317959 93:0.0125 238:0.0125 662:0.0125 1382:0.0125 1647:0.0125 1776:0.0125 2668:0.0125 11258:0.0125 17314:0.0125 #
412.02503347688752910471521317959 796:0.023809524 990:0.023809524 9038:0.023809524 13800:0.023809524 13801:0.023809524 #
280.07433051721648098464356735349 1472:0.06666667 17890:0.06666667 #
412.02503347688752910471521317959 228:0.018518519 420:0.018518519 1903:0.018518519 3781:0.018518519 4899:0.018518519 5923:0.018518519 10667:0.018518519 18517:0.018518519 #
412.02503347688752910471521317959 1716:0.029411765 3316:0.029411765 5968:0.029411765 12374:0.029411765 #
115.34208633319300929542805533856 796:0.0625 6355:0.0625 #
-412.02503347688752910471521317959 128:0.033333335 228:0.033333335 459:0.033333335 6152:0.033333335 7682:0.033333335 #
-73.478199746417161009048868436366 198:0.041666668 484:0.041666668 713:0.041666668 2276:0.041666668 #
-412.02503347688752910471521317959 896:0.032258064 1340:0.032258064 1342:0.032258064 9038:0.032258064 #
-412.02503347688752910471521317959 6:0.024390243 1021:0.024390243 1403:0.024390243 1601:0.024390243 2169:0.024390243 2558:0.024390243 #
412.02503347688752910471521317959 41:0.033333335 1313:0.033333335 1630:0.033333335 3140:0.033333335 5050:0.033333335 #
-412.02503347688752910471521317959 1115:0.0094339624 2629:0.0094339624 2824:0.0094339624 2943:0.0094339624 2944:0.0094339624 3181:0.0094339624 3217:0.0094339624 5629:0.0094339624 6981:0.0094339624 9070:0.0094339624 9377:0.0094339624 9378:0.0094339624 #
-412.02503347688752910471521317959 535:0.024390243 612:0.024390243 2693:0.024390243 3844:0.024390243 8660:0.024390243 #
-412.02503347688752910471521317959 79:0.015873017 273:0.015873017 360:0.015873017 1058:0.015873017 1897:0.015873017 2120:0.015873017 2791:0.015873017 4914:0.015873017 9610:0.015873017 9611:0.015873017 #
-112.34331772939390248211566358805 245:0.015873017 877:0.015873017 1133:0.015873017 1762:0.015873017 2395:0.015873017 10334:0.015873017 10493:0.015873017 10494:0.015873017 10495:0.015873017 #
-191.39708787802763367835723329335 74:0.029411765 1159:0.029411765 1630:0.029411765 8914:0.029411765 11459:0.029411765 #
412.02503347688752910471521317959 25:0.018181818 283:0.018181818 335:0.018181818 606:0.018181818 1257:0.018181818 9682:0.018181818 10067:0.018181818 15283:0.018181818 #
412.02503347688752910471521317959 77:0.02 149:0.02 336:0.02 422:0.02 719:0.02 1200:0.02 2009:0.02 #
412.02503347688752910471521317959 46:0.018867925 149:0.018867925 408:0.018867925 523:0.018867925 896:0.018867925 2341:0.018867925 4519:0.018867925 13700:0.018867925 #
319.6381853061262177106982562691 149:0.015384615 1546:0.015384615 1798:0.015384615 2282:0.015384615 4497:0.015384615 5763:0.015384615 7366:0.015384615 #
-412.02503347688752910471521317959 149:0.03125 197:0.0625 3140:0.0625 #
-380.53572153352530449410551227629 149:0.045454547 796:0.045454547 1556:0.045454547 11237:0.045454547 #
-412.02503347688752910471521317959 149:0.018518519 321:0.018518519 422:0.018518519 2023:0.018518519 3118:0.018518519 3140:0.018518519 4334:0.018518519 4874:0.018518519 #
-412.02503347688752910471521317959 149:0.022222223 452:0.022222223 1593:0.022222223 2335:0.022222223 3643:0.022222223 3644:0.022222223 3645:0.022222223 #
360.90511916748317844394478015602 173:0.012345679 535:0.012345679 1767:0.012345679 1768:0.012345679 2244:0.012345679 2819:0.012345679 5121:0.012345679 5779:0.012345679 15668:0.012345679 17760:0.012345679 #
412.02503347688752910471521317959 74:0.027027028 127:0.027027028 321:0.027027028 739:0.027027028 2764:0.027027028 15267:0.027027028 #
412.02503347688752910471521317959 245:0.018181818 360:0.018181818 1550:0.018181818 1733:0.018181818 3576:0.018181818 4662:0.018181818 5299:0.018181818 9721:0.018181818 15962:0.018181818 #
412.02503347688752910471521317959 126:0.010416667 190:0.010416667 238:0.010416667 677:0.010416667 807:0.010416667 1313:0.010416667 1437:0.010416667 1550:0.010416667 4898:0.010416667 7396:0.010416667 7444:0.010416667 9657:0.010416667 15256:0.010416667 #
-284.56868447810552424925845116377 149:0.017857144 228:0.017857144 245:0.017857144 307:0.017857144 1477:0.017857144 2104:0.017857144 2582:0.017857144 5379:0.017857144 7099:0.017857144 #
-412.02503347688752910471521317959 41:0.033333335 238:0.033333335 9034:0.033333335 9274:0.033333335 #
-233.90016721671941013482864946127 191:0.06666667 440:0.06666667 739:0.06666667 #
-362.34158076664630243612919002771 196:0.0099009899 273:0.0099009899 768:0.0099009899 1218:0.0099009899 1234:0.0099009899 1343:0.0099009899 1739:0.0099009899 1875:0.0099009899 1972:0.0099009899 4434:0.0099009899 5235:0.0099009899 5966:0.0099009899 6180:0.0099009899 #
-412.02503347688752910471521317959 15:0.021739131 739:0.021739131 994:0.021739131 1407:0.021739131 2395:0.021739131 2396:0.021739131 2397:0.021739131 #
-412.02503347688752910471521317959 41:0.046511628 126:0.023255814 430:0.023255814 1650:0.023255814 2471:0.023255814 2727:0.023255814 5237:0.023255814 #
264.83304637409287352056708186865 464:0.010309278 1996:0.010309278 2291:0.010309278 2947:0.010309278 3795:0.020618556 5328:0.010309278 12774:0.010309278 16319:0.010309278 16320:0.010309278 16321:0.010309278 16322:0.010309278 16323:0.010309278 16324:0.010309278 #
412.02503347688752910471521317959 149:0.0081967209 314:0.0081967209 354:0.0081967209 358:0.0081967209 535:0.0081967209 547:0.0081967209 577:0.0081967209 588:0.0081967209 1678:0.0081967209 1710:0.0081967209 1839:0.0081967209 4083:0.0081967209 5004:0.0081967209 5955:0.0081967209 8010:0.0081967209 17991:0.0081967209 17992:0.0081967209 #
-412.02503347688752910471521317959 139:0.0094339624 535:0.0094339624 627:0.0094339624 713:0.0094339624 3251:0.0094339624 3252:0.0094339624 3253:0.0094339624 3254:0.0094339624 3255:0.0094339624 3256:0.0094339624 3257:0.0094339624 3258:0.0094339624 3259:0.0094339624 #
412.02503347688752910471521317959 149:0.012195121 203:0.0060975607 229:0.0060975607 794:0.0060975607 868:0.0060975607 881:0.0060975607 1044:0.0060975607 2171:0.0060975607 2290:0.0060975607 2673:0.0060975607 2989:0.0060975607 3548:0.0060975607 3964:0.0060975607 4394:0.0060975607 4734:0.0060975607 4995:0.0060975607 5075:0.0060975607 6445:0.0060975607 6451:0.0060975607 7349:0.012195121 17608:0.0060975607 #
-412.02503347688752910471521317959 430:0.008547009 485:0.008547009 491:0.008547009 496:0.008547009 753:0.008547009 778:0.008547009 2337:0.008547009 2502:0.008547009 3496:0.008547009 3892:0.008547009 4358:0.008547009 7333:0.008547009 7659:0.008547009 7660:0.008547009 7661:0.008547009 7662:0.008547009 #
-121.87836841318323877203511074185 196:0.07692308 3670:0.07692308 #
-412.02503347688752910471521317959 74:0.0098039219 93:0.0098039219 255:0.0098039219 538:0.0098039219 873:0.0098039219 1777:0.0098039219 1778:0.0098039219 1779:0.0098039219 1780:0.0098039219 1781:0.0098039219 1782:0.0098039219 1783:0.0098039219 #
-412.02503347688752910471521317959 149:0.033333335 1593:0.033333335 2412:0.033333335 5631:0.033333335 #
-99.858678762343444645921408664435 1412:0.055555556 10872:0.055555556 #
412.02503347688752910471521317959 15:0.025641026 41:0.025641026 757:0.025641026 1270:0.025641026 1718:0.025641026 16950:0.025641026 #
412.02503347688752910471521317959 360:0.047619049 422:0.047619049 1058:0.047619049 4695:0.047619049 #
412.02503347688752910471521317959 50:0.029411765 175:0.029411765 1933:0.029411765 3118:0.029411765 15752:0.029411765 #
337.57893759044719672601786442101 15:0.022222223 167:0.022222223 295:0.022222223 3140:0.022222223 5060:0.022222223 14421:0.022222223 14422:0.022222223 #
-412.02503347688752910471521317959 1299:0.0625 2353:0.0625 #
-148.81024065577690862482995726168 1316:0.047619049 2561:0.047619049 3021:0.047619049 #
-189.3109080528072922788851428777 846:0.043478262 1734:0.043478262 2546:0.043478262 4123:0.043478262 #
-412.02503347688752910471521317959 636:0.013888889 853:0.013888889 1313:0.013888889 2053:0.013888889 3378:0.013888889 4368:0.013888889 7628:0.013888889 7629:0.013888889 7630:0.013888889 7631:0.013888889 #
412.02503347688752910471521317959 196:0.025641026 1080:0.025641026 3643:0.025641026 14512:0.025641026 14513:0.025641026 #
-179.55116612049363311598426662385 238:0.011627907 418:0.011627907 826:0.011627907 872:0.011627907 1924:0.011627907 2299:0.011627907 2845:0.011627907 2846:0.011627907 2847:0.011627907 2848:0.011627907 2849:0.011627907 #
412.02503347688752910471521317959 50:0.01754386 896:0.01754386 2406:0.01754386 2610:0.01754386 3186:0.01754386 4693:0.01754386 14698:0.01754386 #
412.02503347688752910471521317959 149:0.02631579 197:0.02631579 959:0.02631579 1258:0.02631579 9956:0.02631579 #
-412.02503347688752910471521317959 46:0.0099999998 162:0.0099999998 245:0.0099999998 476:0.0099999998 477:0.0099999998 553:0.0099999998 860:0.0099999998 4827:0.0099999998 4828:0.0099999998 4829:0.0099999998 4830:0.0099999998 4831:0.0099999998 #
-412.02503347688752910471521317959 196:0.017241379 452:0.017241379 1294:0.017241379 1737:0.017241379 2722:0.017241379 2723:0.017241379 2724:0.017241379 2725:0.017241379 #
169.78407866734139020081784110516 15:0.010638298 109:0.010638298 881:0.010638298 1272:0.010638298 2105:0.010638298 2357:0.010638298 3293:0.010638298 4500:0.010638298 4751:0.010638298 5556:0.010638298 6807:0.010638298 7299:0.010638298 18390:0.010638298 #
-192.60712497913465313104097731411 449:0.11111111 506:0.11111111 #
-412.02503347688752910471521317959 50:0.013513514 198:0.013513514 1274:0.013513514 1722:0.013513514 2131:0.013513514 2482:0.013513514 3122:0.013513514 3400:0.013513514 3401:0.013513514 3402:0.013513514 #
-412.02503347688752910471521317959 170:0.020833334 1117:0.020833334 5602:0.020833334 5603:0.020833334 5604:0.020833334 #
412.02503347688752910471521317959 67:0.050000001 1448:0.050000001 2353:0.050000001 #
269.27943423289480051607824862003 496:0.043478262 1643:0.043478262 1858:0.043478262 2353:0.043478262 #
-412.02503347688752910471521317959 631:0.0078740157 757:0.0078740157 1207:0.0078740157 2380:0.0078740157 2862:0.0078740157 3154:0.0078740157 4577:0.0078740157 4578:0.0078740157 5919:0.0078740157 6960:0.0078740157 6961:0.0078740157 6962:0.0078740157 6963:0.0078740157 6964:0.0078740157 6965:0.0078740157 6966:0.0078740157 6967:0.0078740157 #
-412.02503347688752910471521317959 9:0.020833334 198:0.020833334 370:0.020833334 1550:0.020833334 1630:0.020833334 2353:0.020833334 3177:0.020833334 3219:0.020833334 #
-412.02503347688752910471521317959 93:0.0089285718 149:0.0089285718 1015:0.0089285718 1659:0.0089285718 1855:0.0089285718 1888:0.0089285718 1889:0.0089285718 1890:0.0089285718 1891:0.0089285718 1892:0.0089285718 1893:0.0089285718 1894:0.0089285718 1895:0.0089285718 #
-412.02503347688752910471521317959 245:0.022727273 553:0.022727273 815:0.022727273 2282:0.022727273 7806:0.022727273 #
412.02503347688752910471521317959 9:0.024390243 196:0.024390243 377:0.024390243 378:0.024390243 1316:0.024390243 11125:0.024390243 #
381.41514716105848492588847875595 149:0.009708738 681:0.009708738 1175:0.009708738 4183:0.009708738 6625:0.009708738 7237:0.009708738 9061:0.009708738 13882:0.009708738 14015:0.009708738 16894:0.009708738 16895:0.009708738 16896:0.009708738 16897:0.009708738 #
231.69389151221713518680189736187 3598:0.015873017 3599:0.015873017 3763:0.015873017 5420:0.015873017 7249:0.015873017 8017:0.015873017 10150:0.015873017 11343:0.015873017 #
-145.75515573603328789431543555111 1725:0.025641026 5136:0.025641026 6030:0.025641026 6031:0.025641026 6032:0.025641026 6033:0.025641026 #
220.69931355535391048761084675789 18:0.016129032 846:0.016129032 3065:0.016129032 3909:0.016129032 5422:0.016129032 9245:0.016129032 14852:0.016129032 #
-304.64865555603995517230941914022 66:0.03125 377:0.03125 378:0.03125 846:0.03125 3167:0.03125 3168:0.03125 #
-135.51645051341793646315636578947 126:0.05882353 846:0.05882353 897:0.05882353 #
-412.02503347688752910471521317959 377:0.022222223 378:0.022222223 3195:0.022222223 5791:0.022222223 5792:0.022222223 #
-412.02503347688752910471521317959 459:0.023255814 846:0.023255814 3128:0.023255814 4029:0.023255814 6538:0.023255814 6539:0.023255814 6540:0.023255814 #
-412.02503347688752910471521317959 60:0.012195121 149:0.012195121 160:0.012195121 190:0.012195121 323:0.012195121 418:0.012195121 443:0.012195121 1774:0.012195121 1953:0.012195121 4954:0.012195121 4955:0.012195121 4956:0.012195121 #
232.72497675380560622215853072703 273:0.047619049 4082:0.047619049 16034:0.047619049 #
329.98360095197131158784031867981 184:0.035714287 273:0.035714287 758:0.035714287 1313:0.035714287 5572:0.035714287 8634:0.035714287 #
412.02503347688752910471521317959 50:0.015151516 245:0.015151516 273:0.030303031 627:0.015151516 2018:0.015151516 2445:0.015151516 3874:0.015151516 4119:0.015151516 15930:0.015151516 15931:0.015151516 #
412.02503347688752910471521317959 273:0.032258064 286:0.032258064 3764:0.032258064 18211:0.032258064 #
-412.02503347688752910471521317959 15:0.0082644625 41:0.0082644625 43:0.0082644625 50:0.0082644625 60:0.016528925 452:0.0082644625 460:0.0082644625 643:0.016528925 1774:0.0082644625 1844:0.0082644625 2064:0.0082644625 4763:0.0082644625 5260:0.0082644625 6508:0.0082644625 9866:0.0082644625 9867:0.0082644625 9868:0.0082644625 #
-412.02503347688752910471521317959 106:0.018518519 860:0.018518519 887:0.018518519 3140:0.018518519 4538:0.018518519 4829:0.018518519 7140:0.018518519 #
412.02503347688752910471521317959 198:0.027027028 370:0.013513514 668:0.013513514 756:0.013513514 1215:0.013513514 1309:0.013513514 1427:0.013513514 2560:0.013513514 8724:0.013513514 #
412.02503347688752910471521317959 238:0.021276595 245:0.021276595 374:0.021276595 3005:0.021276595 9671:0.021276595 #
412.02503347688752910471521317959 67:0.018181818 640:0.018181818 2338:0.036363635 3769:0.018181818 6661:0.018181818 8132:0.018181818 #
412.02503347688752910471521317959 238:0.023255814 796:0.023255814 1029:0.023255814 3128:0.023255814 4002:0.023255814 #
-412.02503347688752910471521317959 2:0.025641026 149:0.025641026 196:0.025641026 1453:0.025641026 2439:0.025641026 8033:0.025641026 #
-215.22094760829310189365060068667 1718:0.07692308 10585:0.07692308 #
-412.02503347688752910471521317959 229:0.037037037 959:0.037037037 4058:0.037037037 4700:0.037037037 #
-412.02503347688752910471521317959 15:0.02 50:0.02 336:0.02 758:0.02 1858:0.02 2427:0.02 6798:0.02 7299:0.02 #
-360.95862124565695694400346837938 605:0.03125 894:0.03125 895:0.03125 896:0.03125 #
412.02503347688752910471521317959 844:0.025 3771:0.025 4975:0.025 14308:0.025 14309:0.025 #
412.02503347688752910471521317959 41:0.020833334 273:0.020833334 588:0.020833334 2406:0.020833334 4693:0.020833334 6911:0.020833334 #
412.02503347688752910471521317959 160:0.029411765 273:0.029411765 11258:0.029411765 16632:0.029411765 16633:0.029411765 #
307.22190917922068820189451798797 50:0.016666668 295:0.016666668 739:0.016666668 2054:0.016666668 5101:0.016666668 10441:0.016666668 15198:0.016666668 15214:0.016666668 #
-412.02503347688752910471521317959 16:0.0090909088 57:0.0090909088 149:0.0090909088 563:0.0090909088 786:0.0090909088 1317:0.0090909088 1619:0.0090909088 2552:0.0090909088 3314:0.0090909088 4734:0.0090909088 10414:0.0090909088 10415:0.0090909088 10416:0.0090909088 #
412.02503347688752910471521317959 15:0.033333335 50:0.033333335 126:0.033333335 323:0.033333335 5913:0.033333335 17247:0.033333335 #
171.41861663674023930070688948035 50:0.037037037 459:0.037037037 1502:0.037037037 3326:0.037037037 10183:0.037037037 #
412.02503347688752910471521317959 50:0.021276595 252:0.021276595 386:0.021276595 387:0.021276595 1021:0.021276595 1091:0.021276595 2012:0.021276595 4273:0.021276595 #
412.02503347688752910471521317959 2:0.021276595 13:0.021276595 60:0.021276595 739:0.021276595 955:0.021276595 4505:0.021276595 14464:0.021276595 #
-412.02503347688752910471521317959 41:0.01369863 50:0.01369863 633:0.01369863 1117:0.01369863 1252:0.01369863 1400:0.01369863 3953:0.01369863 4585:0.01369863 4586:0.01369863 4587:0.01369863 #
341.84569112385702283063437789679 41:0.017857144 214:0.017857144 720:0.017857144 2341:0.017857144 5474:0.017857144 5802:0.017857144 6661:0.017857144 16548:0.017857144 #
-412.02503347688752910471521317959 50:0.02 245:0.02 314:0.02 323:0.02 1021:0.02 1244:0.02 3283:0.02 7294:0.02 #
-155.21662428639373842997883912176 41:0.037037037 103:0.037037037 607:0.037037037 1801:0.037037037 #
-27.430339296503102985980149242096 41:0.023809524 739:0.023809524 1437:0.023809524 1587:0.023809524 2598:0.023809524 9000:0.023809524 #
119.53352391276506239137233933434 15:0.016129032 149:0.016129032 273:0.016129032 956:0.016129032 1453:0.016129032 1556:0.016129032 1647:0.016129032 2088:0.016129032 2165:0.016129032 2193:0.016129032 #
412.02503347688752910471521317959 93:0.023255814 196:0.023255814 1550:0.023255814 1819:0.023255814 15731:0.023255814 #
412.02503347688752910471521317959 129:0.010752688 146:0.010752688 149:0.010752688 198:0.010752688 229:0.010752688 273:0.010752688 322:0.010752688 561:0.010752688 1211:0.010752688 1733:0.010752688 1953:0.010752688 2541:0.010752688 2941:0.010752688 2944:0.010752688 5981:0.010752688 #
-412.02503347688752910471521317959 93:0.045454547 94:0.045454547 #
412.02503347688752910471521317959 50:0.0092592593 137:0.0092592593 963:0.0092592593 1453:0.0092592593 1538:0.0092592593 1540:0.0092592593 2692:0.0092592593 3588:0.0092592593 6693:0.0092592593 7475:0.0092592593 8633:0.0092592593 8977:0.0092592593 10216:0.0092592593 #
-412.02503347688752910471521317959 149:0.050000001 838:0.050000001 1556:0.050000001 1987:0.050000001 #
-330.59938397331887927066418342292 79:0.021276595 149:0.021276595 314:0.021276595 427:0.021276595 956:0.021276595 1169:0.021276595 1605:0.021276595 #
-95.563503135770815788418985903263 149:0.037037037 2096:0.037037037 4003:0.037037037 4004:0.037037037 #
412.02503347688752910471521317959 50:0.010989011 829:0.010989011 1615:0.010989011 3984:0.010989011 5020:0.010989011 8116:0.010989011 11536:0.010989011 13272:0.010989011 13695:0.010989011 14427:0.010989011 14428:0.010989011 14429:0.010989011 #
286.22817799731836885257507674396 41:0.034482758 1650:0.034482758 1974:0.034482758 2049:0.034482758 #
397.86460120107921056842315010726 741:0.011363637 2938:0.011363637 6509:0.011363637 10841:0.011363637 12654:0.011363637 13198:0.011363637 13250:0.011363637 14365:0.011363637 15943:0.011363637 15944:0.011363637 #
-412.02503347688752910471521317959 1115:0.02 1647:0.02 1650:0.039999999 3870:0.02 3871:0.02 3872:0.02 3873:0.02 3874:0.02 #
-412.02503347688752910471521317959 50:0.02631579 2009:0.02631579 2088:0.02631579 11091:0.02631579 #
-412.02503347688752910471521317959 50:0.027027028 752:0.027027028 1130:0.027027028 1453:0.027027028 6332:0.027027028 #
-246.21455290777083746434072963893 50:0.014925373 60:0.014925373 273:0.029850746 1112:0.014925373 1733:0.014925373 4691:0.014925373 4692:0.014925373 4693:0.014925373 4694:0.014925373 4695:0.014925373 #
412.02503347688752910471521317959 149:0.012345679 182:0.012345679 323:0.012345679 608:0.012345679 666:0.012345679 1117:0.012345679 1132:0.012345679 1215:0.012345679 1528:0.012345679 1903:0.012345679 2638:0.012345679 4478:0.012345679 #
412.02503347688752910471521317959 47:0.019607844 77:0.019607844 314:0.019607844 887:0.019607844 955:0.019607844 1159:0.019607844 3300:0.019607844 18164:0.019607844 #
183.60716066202101615090214181691 94:0.034482758 1244:0.034482758 1567:0.034482758 7459:0.034482758 #
412.02503347688752910471521317959 149:0.015384615 160:0.030769231 169:0.015384615 245:0.015384615 459:0.015384615 1244:0.015384615 1839:0.015384615 5208:0.015384615 #
-412.02503347688752910471521317959 196:0.035714287 535:0.035714287 815:0.035714287 1696:0.035714287 #
-412.02503347688752910471521317959 1839:0.032258064 7397:0.032258064 7398:0.032258064 #
412.02503347688752910471521317959 9:0.090909094 50:0.090909094 #
-412.02503347688752910471521317959 50:0.029411765 129:0.029411765 1741:0.029411765 6020:0.029411765 10162:0.029411765 #
-412.02503347688752910471521317959 9:0.019607844 50:0.019607844 193:0.019607844 196:0.019607844 1029:0.019607844 3379:0.019607844 7823:0.019607844 #
412.02503347688752910471521317959 370:0.028571429 1800:0.028571429 2271:0.028571429 2272:0.028571429 8329:0.028571429 9465:0.028571429 #
412.02503347688752910471521317959 191:0.025 228:0.025 377:0.025 378:0.025 606:0.025 1783:0.025 7384:0.025 #
412.02503347688752910471521317959 895:0.03846154 1732:0.03846154 3875:0.03846154 12438:0.03846154 #
118.52624406786337374342110706493 179:0.034482758 881:0.034482758 1596:0.034482758 12462:0.034482758 16517:0.034482758 #
-201.5553954327324959194811526686 179:0.090909094 2162:0.090909094 #
-412.02503347688752910471521317959 94:0.035714287 1156:0.035714287 2629:0.035714287 #
-412.02503347688752910471521317959 41:0.018518519 228:0.018518519 296:0.018518519 459:0.018518519 1000:0.018518519 1663:0.018518519 2976:0.018518519 10641:0.018518519 #
-412.02503347688752910471521317959 541:0.052631579 999:0.052631579 1596:0.052631579 #
219.52593029918068623373983427882 1578:0.034482758 1741:0.034482758 3140:0.034482758 4680:0.034482758 5955:0.034482758 #
412.02503347688752910471521317959 50:0.028571429 393:0.028571429 2161:0.028571429 2283:0.028571429 13612:0.028571429 #
412.02503347688752910471521317959 193:0.020408163 229:0.020408163 921:0.020408163 1115:0.020408163 3526:0.020408163 12401:0.020408163 18267:0.020408163 #
-292.7253156966322080734244082123 238:0.03125 4045:0.03125 9037:0.03125 #
412.02503347688752910471521317959 346:0.039999999 2629:0.039999999 3380:0.039999999 5069:0.039999999 #
412.02503347688752910471521317959 60:0.016129032 139:0.016129032 196:0.016129032 245:0.016129032 553:0.016129032 1021:0.016129032 16631:0.016129032 18402:0.016129032 18403:0.016129032 18404:0.016129032 #
412.02503347688752910471521317959 38:0.011111111 1596:0.011111111 2088:0.011111111 2629:0.022222223 4025:0.011111111 6140:0.011111111 17519:0.011111111 17520:0.011111111 #
-119.13068291426856148973456583917 4679:0.06666667 4680:0.06666667 #
-92.545710168081015467578254174441 1566:0.052631579 1567:0.052631579 #
-412.02503347688752910471521317959 739:0.035714287 2223:0.035714287 3121:0.035714287 5955:0.035714287 #
-207.40712544887111334901419468224 887:0.055555556 1293:0.055555556 #
-203.74215026212294787910650484264 198:0.037037037 229:0.037037037 1578:0.037037037 2010:0.037037037 6355:0.037037037 #
357.2549715034575683603179641068 273:0.030303031 484:0.030303031 485:0.030303031 14781:0.030303031 15241:0.030303031 #
-412.02503347688752910471521317959 9:0.039999999 171:0.039999999 267:0.039999999 2836:0.039999999 #
-412.02503347688752910471521317959 9:0.016393442 64:0.016393442 273:0.016393442 547:0.016393442 739:0.016393442 2360:0.016393442 3278:0.016393442 4837:0.016393442 5440:0.016393442 #
85.765849651943000253595528192818 43:0.0082644625 360:0.0082644625 538:0.016528925 1332:0.0082644625 1427:0.0082644625 1593:0.016528925 1647:0.0082644625 1727:0.0082644625 1799:0.0082644625 2944:0.0082644625 3738:0.0082644625 4058:0.0082644625 4284:0.0082644625 5493:0.0082644625 6624:0.0082644625 9421:0.0082644625 14923:0.0082644625 #
412.02503347688752910471521317959 190:0.033333335 607:0.033333335 608:0.033333335 3166:0.033333335 17189:0.033333335 #
412.02503347688752910471521317959 146:0.013888889 190:0.013888889 722:0.013888889 2244:0.013888889 2886:0.013888889 3397:0.013888889 3621:0.013888889 4181:0.027777778 8409:0.013888889 8412:0.013888889 13300:0.013888889 #
367.32708993506651040661381557584 541:0.017857144 2341:0.017857144 2563:0.017857144 2723:0.017857144 5572:0.017857144 5644:0.017857144 17468:0.017857144 17469:0.017857144 #
-412.02503347688752910471521317959 15:0.029411765 580:0.029411765 796:0.029411765 847:0.029411765 5407:0.029411765 8580:0.029411765 #
-412.02503347688752910471521317959 149:0.032258064 370:0.032258064 608:0.032258064 1800:0.032258064 2146:0.032258064 #
-156.68026809051548298157285898924 796:0.0625 797:0.0625 #
-412.02503347688752910471521317959 77:0.020833334 191:0.020833334 737:0.020833334 1256:0.020833334 1257:0.020833334 1258:0.020833334 #
412.02503347688752910471521317959 9:0.03125 322:0.03125 1248:0.03125 4453:0.03125 4541:0.03125 #
208.35736003893634915584698319435 320:0.02 990:0.02 2071:0.02 5895:0.02 13695:0.02 14605:0.02 #
-186.48627605958489539261790923774 2003:0.083333336 3479:0.083333336 #
-95.879331767421817289687169250101 2363:0.0625 4541:0.0625 #
195.35887506159750159895338583738 196:0.020833334 1301:0.020833334 5236:0.020833334 6665:0.020833334 7536:0.020833334 10539:0.020833334 #
262.30656814804507348526385612786 267:0.022222223 430:0.022222223 2064:0.022222223 4989:0.022222223 7377:0.022222223 9794:0.022222223 11724:0.022222223 #
305.19942463404572663421276956797 149:0.047619049 3283:0.047619049 3308:0.047619049 #
-86.780566609699008040479384362698 832:0.025641026 833:0.025641026 5049:0.025641026 8573:0.025641026 8574:0.025641026 8575:0.025641026 #
412.02503347688752910471521317959 92:0.0072463769 198:0.0072463769 796:0.0072463769 2853:0.0072463769 2925:0.0072463769 2975:0.0072463769 3357:0.0072463769 4318:0.0072463769 6446:0.0072463769 8014:0.0072463769 8337:0.0072463769 8670:0.0072463769 9657:0.0072463769 17884:0.0072463769 17885:0.0072463769 #
181.83212789667638276114303153008 403:0.011904762 409:0.011904762 739:0.011904762 816:0.011904762 1155:0.011904762 2572:0.011904762 2806:0.011904762 3266:0.011904762 3880:0.011904762 5559:0.011904762 7051:0.011904762 #
412.02503347688752910471521317959 64:0.022222223 67:0.022222223 78:0.022222223 315:0.022222223 5369:0.022222223 5588:0.022222223 #
200.83651027755792028983705677092 957:0.022222223 999:0.022222223 1156:0.022222223 6978:0.022222223 7715:0.022222223 15568:0.022222223 #
-124.20871509823039957609580596909 486:0.011764706 535:0.011764706 1804:0.011764706 2000:0.011764706 2196:0.011764706 4750:0.011764706 7227:0.011764706 7228:0.011764706 7229:0.011764706 #
266.55453197922571462186169810593 81:0.020408163 182:0.020408163 2836:0.020408163 6744:0.020408163 9840:0.020408163 18079:0.020408163 18080:0.020408163 #
105.3600435914310082807787694037 219:0.01923077 1561:0.01923077 14294:0.01923077 17060:0.01923077 17061:0.01923077 17062:0.01923077 #
-412.02503347688752910471521317959 78:0.037037037 79:0.037037037 80:0.037037037 81:0.037037037 #
-301.33617511520293419380323030055 518:0.02631579 955:0.02631579 1428:0.02631579 1774:0.02631579 3980:0.02631579 7297:0.02631579 #
-103.54362540244270007860905025154 41:0.05882353 4763:0.05882353 9034:0.05882353 #
412.02503347688752910471521317959 146:0.014285714 160:0.014285714 516:0.014285714 808:0.014285714 1313:0.014285714 1332:0.014285714 1803:0.014285714 2769:0.014285714 3236:0.014285714 4605:0.014285714 7481:0.014285714 17208:0.014285714 17209:0.014285714 #
179.23940245021211126186244655401 149:0.052631579 2003:0.052631579 7753:0.052631579 #
224.94192474356106004051980562508 149:0.027027028 430:0.027027028 1261:0.027027028 1332:0.027027028 6689:0.027027028 12006:0.027027028 #
-412.02503347688752910471521317959 41:0.018518519 149:0.018518519 430:0.018518519 547:0.018518519 1296:0.018518519 1297:0.018518519 1298:0.018518519 #
412.02503347688752910471521317959 183:0.010204081 669:0.010204081 1407:0.010204081 2126:0.010204081 5834:0.010204081 5956:0.010204081 6982:0.010204081 8740:0.010204081 11406:0.010204081 13876:0.010204081 13877:0.010204081 13878:0.010204081 #
412.02503347688752910471521317959 238:0.015873017 328:0.015873017 1754:0.015873017 6645:0.015873017 7089:0.015873017 7312:0.015873017 17639:0.015873017 #
412.02503347688752910471521317959 41:0.015625 191:0.015625 1631:0.015625 1658:0.015625 2162:0.015625 2450:0.015625 4628:0.015625 5966:0.015625 14274:0.015625 #
412.02503347688752910471521317959 1437:0.029411765 1556:0.029411765 2618:0.029411765 4788:0.029411765 16032:0.029411765 #
412.02503347688752910471521317959 273:0.010309278 1211:0.010309278 2161:0.010309278 5786:0.010309278 8639:0.010309278 8872:0.010309278 9199:0.010309278 9789:0.010309278 9856:0.010309278 13981:0.010309278 13982:0.010309278 13983:0.010309278 13984:0.010309278 #
-412.02503347688752910471521317959 78:0.0099009899 124:0.0099009899 1021:0.0099009899 2606:0.0099009899 2786:0.0099009899 3852:0.0099009899 6665:0.0099009899 8088:0.0099009899 8816:0.0099009899 9200:0.0099009899 9201:0.0099009899 9202:0.0099009899 #
-412.02503347688752910471521317959 126:0.014084507 549:0.014084507 774:0.014084507 1601:0.014084507 3656:0.014084507 4202:0.014084507 4291:0.014084507 5980:0.014084507 5981:0.014084507 5982:0.014084507 #
-412.02503347688752910471521317959 843:0.033333335 1332:0.033333335 6698:0.033333335 7497:0.033333335 #
-412.02503347688752910471521317959 254:0.015625 561:0.015625 695:0.015625 860:0.015625 1283:0.015625 3352:0.015625 4026:0.015625 7329:0.015625 9457:0.015625 #
-121.36052676756033008587110089138 182:0.047619049 608:0.047619049 4748:0.047619049 5451:0.047619049 #
412.02503347688752910471521317959 41:0.022222223 149:0.022222223 323:0.022222223 582:0.022222223 9770:0.022222223 16444:0.022222223 #
412.02503347688752910471521317959 50:0.019607844 518:0.039215688 4008:0.019607844 9309:0.019607844 17248:0.019607844 #
412.02503347688752910471521317959 3:0.015151516 50:0.015151516 149:0.015151516 228:0.015151516 245:0.015151516 295:0.015151516 497:0.015151516 707:0.015151516 752:0.015151516 6907:0.015151516 #
-147.20139252115166073053842410445 50:0.025641026 90:0.025641026 149:0.025641026 295:0.025641026 7689:0.025641026 8283:0.025641026 #
-412.02503347688752910471521317959 149:0.020833334 183:0.020833334 228:0.020833334 2886:0.020833334 4866:0.020833334 7459:0.020833334 7460:0.020833334 #
-412.02503347688752910471521317959 50:0.021739131 149:0.021739131 231:0.021739131 245:0.021739131 846:0.021739131 852:0.021739131 4686:0.021739131 #
150.7051828894827281146717723459 608:0.052631579 695:0.052631579 1734:0.052631579 4177:0.052631579 #
412.02503347688752910471521317959 9:0.022727273 49:0.022727273 307:0.022727273 384:0.022727273 1054:0.022727273 3352:0.022727273 5555:0.022727273 #
412.02503347688752910471521317959 23:0.011627907 57:0.011627907 198:0.011627907 1177:0.011627907 1774:0.011627907 6575:0.011627907 8797:0.011627907 14387:0.011627907 16576:0.011627907 16577:0.011627907 16578:0.011627907 #
412.02503347688752910471521317959 2:0.03125 196:0.03125 459:0.03125 607:0.03125 608:0.03125 4071:0.03125 #
353.12962748711856875161174684763 860:0.024390243 1156:0.024390243 1342:0.024390243 1857:0.024390243 10365:0.024390243 #
-412.02503347688752910471521317959 49:0.011235955 330:0.011235955 726:0.011235955 990:0.011235955 1358:0.011235955 1907:0.011235955 2240:0.011235955 3760:0.011235955 3761:0.011235955 3762:0.011235955 3763:0.011235955 3764:0.011235955 #
-412.02503347688752910471521317959 9:0.018181818 41:0.018181818 1175:0.018181818 1824:0.018181818 1935:0.018181818 6911:0.018181818 #
-219.51477113259429074787476565689 497:0.06666667 1413:0.06666667 #
-194.3524736691814780442655319348 67:0.027777778 152:0.027777778 608:0.055555556 2196:0.027777778 7558:0.027777778 #
-412.02503347688752910471521317959 203:0.013888889 496:0.027777778 3044:0.013888889 4008:0.027777778 7546:0.013888889 7547:0.013888889 7548:0.013888889 7549:0.013888889 #
412.02503347688752910471521317959 92:0.010526316 575:0.010526316 1523:0.010526316 1949:0.010526316 2358:0.010526316 2359:0.010526316 2560:0.010526316 3286:0.010526316 8876:0.010526316 13477:0.010526316 13888:0.010526316 15995:0.010526316 #
412.02503347688752910471521317959 50:0.01923077 183:0.01923077 245:0.03846154 321:0.01923077 643:0.01923077 865:0.01923077 1401:0.01923077 6123:0.01923077 #
412.02503347688752910471521317959 90:0.028571429 566:0.028571429 6458:0.028571429 7772:0.028571429 7773:0.028571429 #
-412.02503347688752910471521317959 50:0.020408163 273:0.020408163 320:0.020408163 321:0.020408163 322:0.020408163 323:0.020408163 324:0.020408163 325:0.020408163 326:0.020408163 #
381.2473567511941610064241103828 377:0.0099009899 1375:0.0099009899 2831:0.0099009899 3405:0.0099009899 4168:0.0099009899 4477:0.0099009899 6156:0.0099009899 6865:0.0099009899 10000:0.0099009899 11852:0.0099009899 16746:0.0099009899 16747:0.0099009899 #
-412.02503347688752910471521317959 60:0.013888889 90:0.013888889 229:0.013888889 580:0.013888889 2823:0.013888889 6002:0.013888889 6458:0.013888889 7192:0.013888889 7771:0.013888889 7772:0.013888889 7773:0.013888889 #
368.63058083391649688564939424396 852:0.0625 1725:0.0625 2655:0.0625 #
48.75065984138529984193155542016 203:0.045454547 720:0.045454547 2119:0.045454547 17131:0.045454547 #
211.25655544231213411876524332911 244:0.047619049 2886:0.095238097 7865:0.047619049 #
412.02503347688752910471521317959 355:0.05882353 3044:0.05882353 #
412.02503347688752910471521317959 110:0.015625 198:0.015625 846:0.015625 921:0.015625 1647:0.015625 2003:0.015625 2594:0.015625 4256:0.015625 16714:0.015625 17114:0.015625 #
-412.02503347688752910471521317959 50:0.028571429 1450:0.028571429 1725:0.028571429 2242:0.028571429 2655:0.028571429 8764:0.028571429 #
-349.43928997233319933002348989248 190:0.0625 2858:0.0625 8085:0.0625 #
-412.02503347688752910471521317959 50:0.022727273 191:0.022727273 2886:0.045454547 4806:0.022727273 10449:0.022727273 #
-287.80097316809991525587975047529 149:0.017241379 548:0.017241379 4404:0.017241379 11043:0.017241379 11044:0.017241379 11045:0.017241379 #
80.574059205412325468387280125171 324:0.2 #
412.02503347688752910471521317959 9:0.025 149:0.025 191:0.025 580:0.025 807:0.025 4686:0.025 #
224.5000856997065739051322452724 321:0.083333336 5937:0.083333336 #
291.16788350598255874501774087548 149:0.021739131 152:0.021739131 324:0.021739131 546:0.021739131 1383:0.021739131 14251:0.021739131 14252:0.021739131 #
412.02503347688752910471521317959 50:0.039999999 1762:0.039999999 4008:0.039999999 15656:0.039999999 #
412.02503347688752910471521317959 1692:0.03846154 1745:0.03846154 2858:0.07692308 9173:0.03846154 #
412.02503347688752910471521317959 50:0.018518519 345:0.018518519 1903:0.018518519 2064:0.018518519 2347:0.018518519 5006:0.018518519 5047:0.018518519 11762:0.018518519 #
412.02503347688752910471521317959 50:0.023255814 326:0.023255814 835:0.023255814 1021:0.023255814 2531:0.023255814 2985:0.023255814 4308:0.023255814 #
-270.86330386487924215543898753822 546:0.07692308 2786:0.07692308 #
-412.02503347688752910471521317959 2003:0.037037037 4149:0.037037037 6200:0.037037037 #
-412.02503347688752910471521317959 9:0.032258064 198:0.032258064 547:0.032258064 2475:0.032258064 #
267.5840105331596987525699660182 149:0.01369863 464:0.01369863 737:0.01369863 1585:0.01369863 3140:0.01369863 4786:0.01369863 8956:0.01369863 10133:0.01369863 13490:0.01369863 13491:0.01369863 #
133.79312619539535944568342529237 149:0.018867925 496:0.018867925 758:0.018867925 2611:0.018867925 4141:0.018867925 5846:0.018867925 10875:0.018867925 15298:0.018867925 #
-412.02503347688752910471521317959 149:0.020408163 350:0.020408163 351:0.020408163 352:0.020408163 353:0.020408163 354:0.020408163 355:0.020408163 #
-412.02503347688752910471521317959 149:0.025641026 1308:0.025641026 6708:0.025641026 6878:0.025641026 7338:0.025641026 #
412.02503347688752910471521317959 39:0.028571429 90:0.028571429 128:0.028571429 1038:0.028571429 9917:0.028571429 15315:0.028571429 #
384.95181028387929700329550541937 1453:0.047619049 1725:0.047619049 2674:0.047619049 #
412.02503347688752910471521317959 50:0.014084507 245:0.014084507 273:0.014084507 443:0.014084507 541:0.014084507 547:0.014084507 1094:0.014084507 1889:0.014084507 2357:0.014084507 4998:0.014084507 #
412.02503347688752910471521317959 81:0.011363637 245:0.011363637 273:0.011363637 317:0.011363637 443:0.011363637 1733:0.011363637 3000:0.011363637 3758:0.011363637 5749:0.011363637 8876:0.011363637 10108:0.011363637 10510:0.011363637 18265:0.011363637 #
412.02503347688752910471521317959 1980:0.022222223 2475:0.022222223 4607:0.022222223 6226:0.022222223 13799:0.022222223 #
-412.02503347688752910471521317959 4141:0.027777778 5047:0.027777778 5048:0.027777778 5049:0.027777778 5050:0.027777778 5051:0.027777778 #
-386.0624899760018706729169934988 84:0.035714287 1205:0.035714287 2291:0.035714287 10922:0.035714287 10923:0.035714287 #
-412.02503347688752910471521317959 1124:0.03125 2291:0.03125 4832:0.03125 11470:0.03125 #
-412.02503347688752910471521317959 50:0.0125 152:0.0125 173:0.0125 546:0.0125 1323:0.0125 1980:0.0125 2131:0.0125 4760:0.0125 5236:0.0125 5333:0.0125 6948:0.0125 #
-412.02503347688752910471521317959 245:0.012048192 834:0.012048192 2584:0.012048192 3830:0.012048192 4987:0.012048192 6245:0.012048192 10125:0.012048192 10126:0.012048192 10127:0.012048192 10128:0.012048192 10129:0.012048192 #
412.02503347688752910471521317959 137:0.047619049 149:0.047619049 354:0.047619049 808:0.047619049 #
412.02503347688752910471521317959 149:0.030303031 191:0.030303031 1453:0.030303031 4149:0.030303031 13377:0.030303031 #
332.98844618348118729045381769538 354:0.045454547 453:0.045454547 601:0.045454547 14830:0.045454547 #
297.26660463271832668397109955549 1088:0.010989011 1133:0.010989011 1268:0.010989011 1502:0.010989011 6361:0.010989011 6501:0.010989011 9579:0.010989011 11535:0.010989011 13730:0.010989011 14159:0.010989011 14160:0.010989011 #
-412.02503347688752910471521317959 149:0.019607844 191:0.039215688 1252:0.019607844 2582:0.019607844 6006:0.019607844 6076:0.019607844 7309:0.019607844 #
-412.02503347688752910471521317959 149:0.018867925 191:0.018867925 739:0.018867925 836:0.018867925 4318:0.018867925 7401:0.018867925 7402:0.018867925 7403:0.018867925 #
-412.02503347688752910471521317959 41:0.011235955 1424:0.011235955 2175:0.011235955 3030:0.011235955 3276:0.011235955 3389:0.011235955 3883:0.011235955 4763:0.011235955 9552:0.011235955 9553:0.011235955 9554:0.011235955 #
-412.02503347688752910471521317959 50:0.018518519 4404:0.018518519 5069:0.018518519 5549:0.018518519 11790:0.018518519 11791:0.018518519 #
412.02503347688752910471521317959 737:0.010526316 968:0.010526316 1438:0.010526316 2291:0.010526316 2412:0.010526316 3405:0.010526316 4176:0.010526316 4890:0.010526316 9070:0.010526316 12566:0.010526316 14408:0.010526316 14409:0.010526316 #
412.02503347688752910471521317959 744:0.012658228 844:0.012658228 1000:0.012658228 1514:0.012658228 2976:0.012658228 3656:0.025316456 4419:0.012658228 4987:0.012658228 4988:0.012658228 6430:0.012658228 13985:0.012658228 #
412.02503347688752910471521317959 15:0.014285714 295:0.014285714 408:0.014285714 509:0.014285714 688:0.014285714 801:0.014285714 2169:0.014285714 16943:0.014285714 #
-412.02503347688752910471521317959 50:0.03846154 453:0.03846154 1141:0.03846154 4042:0.03846154 #
-412.02503347688752910471521317959 43:0.014925373 50:0.014925373 245:0.014925373 330:0.014925373 453:0.014925373 1080:0.014925373 2064:0.014925373 2419:0.014925373 3300:0.014925373 3576:0.014925373 4489:0.014925373 7808:0.014925373 #
-412.02503347688752910471521317959 50:0.015625 453:0.015625 807:0.015625 808:0.015625 872:0.015625 1383:0.015625 1453:0.015625 1892:0.015625 2071:0.015625 3938:0.015625 #
412.02503347688752910471521317959 32:0.013157895 157:0.013157895 191:0.039473683 934:0.013157895 3773:0.013157895 8739:0.013157895 13859:0.013157895 14213:0.013157895 14214:0.013157895 #
412.02503347688752910471521317959 191:0.033333335 739:0.033333335 832:0.033333335 833:0.033333335 8208:0.033333335 #
412.02503347688752910471521317959 90:0.035714287 191:0.035714287 10441:0.035714287 17528:0.035714287 #
-412.02503347688752910471521317959 50:0.012345679 336:0.012345679 566:0.012345679 953:0.012345679 1021:0.012345679 1215:0.012345679 1453:0.012345679 2137:0.012345679 2466:0.012345679 2890:0.012345679 3964:0.012345679 4193:0.012345679 #
412.02503347688752910471521317959 78:0.0089285718 317:0.0089285718 464:0.0089285718 515:0.0089285718 614:0.0089285718 2088:0.0089285718 2136:0.0089285718 3399:0.0089285718 7444:0.0089285718 8817:0.0089285718 11720:0.0089285718 15830:0.0089285718 17093:0.0089285718 #
-67.868940464127291534168762154877 90:0.021276595 148:0.021276595 186:0.04255319 228:0.021276595 1982:0.021276595 5976:0.021276595 9884:0.021276595 #
-412.02503347688752910471521317959 191:0.029411765 1268:0.029411765 3696:0.029411765 11146:0.029411765 #
412.02503347688752910471521317959 50:0.03508772 126:0.01754386 245:0.01754386 2722:0.01754386 5559:0.01754386 5810:0.01754386 18219:0.01754386 18220:0.01754386 #
412.02503347688752910471521317959 50:0.029411765 245:0.029411765 430:0.029411765 2244:0.029411765 18585:0.029411765 18586:0.029411765 #
-200.18548284155176020249200519174 50:0.041666668 334:0.041666668 5299:0.041666668 6907:0.041666668 #
-203.64432095792122368038690183312 245:0.024390243 832:0.024390243 833:0.024390243 1783:0.024390243 2348:0.024390243 2349:0.024390243 2350:0.024390243 #
-59.39196522984170201198139693588 50:0.025641026 601:0.025641026 637:0.025641026 739:0.025641026 1917:0.025641026 1918:0.025641026 1919:0.025641026 1920:0.025641026 #
412.02503347688752910471521317959 350:0.02631579 739:0.02631579 1733:0.02631579 2337:0.02631579 2419:0.02631579 2492:0.02631579 #
412.02503347688752910471521317959 426:0.021276595 1308:0.021276595 1578:0.021276595 3474:0.021276595 3828:0.021276595 13921:0.021276595 #
412.02503347688752910471521317959 51:0.011363637 440:0.011363637 606:0.011363637 1004:0.011363637 1305:0.011363637 1391:0.011363637 2582:0.011363637 2824:0.011363637 3653:0.011363637 5096:0.011363637 10730:0.011363637 #
412.02503347688752910471521317959 190:0.010638298 416:0.010638298 608:0.010638298 876:0.010638298 1578:0.021276595 3171:0.010638298 8350:0.010638298 8914:0.010638298 10125:0.010638298 10126:0.010638298 15871:0.010638298 15872:0.010638298 #
-412.02503347688752910471521317959 408:0.018518519 548:0.018518519 860:0.018518519 2337:0.018518519 3909:0.018518519 5362:0.018518519 11297:0.018518519 #
-412.02503347688752910471521317959 430:0.023809524 1678:0.023809524 1679:0.023809524 1680:0.023809524 1681:0.023809524 #
412.02503347688752910471521317959 50:0.015625 60:0.03125 739:0.015625 3121:0.015625 4706:0.015625 6826:0.015625 11116:0.015625 14367:0.015625 #
245.85998396903076468333892989904 50:0.023809524 334:0.023809524 1237:0.023809524 6064:0.023809524 9401:0.047619049 14074:0.023809524 #
74.741983063813478338488494046032 50:0.034482758 559:0.034482758 1049:0.034482758 2009:0.034482758 #
283.67264961029815140136633999646 50:0.039999999 1237:0.039999999 2138:0.039999999 6496:0.039999999 #
-148.01505128874981664921506308019 50:0.021739131 487:0.021739131 1049:0.021739131 1880:0.021739131 2445:0.021739131 2508:0.021739131 #
-412.02503347688752910471521317959 50:0.025316456 1244:0.012658228 1505:0.012658228 1565:0.012658228 1734:0.012658228 1824:0.012658228 2732:0.012658228 4225:0.012658228 5203:0.012658228 10021:0.012658228 #
-412.02503347688752910471521317959 50:0.017241379 110:0.017241379 137:0.017241379 228:0.017241379 360:0.017241379 566:0.017241379 3715:0.017241379 6465:0.017241379 9297:0.017241379 #
412.02503347688752910471521317959 833:0.027027028 1783:0.027027028 2230:0.027027028 2348:0.027027028 3113:0.027027028 #
263.1452454972207419814367312938 124:0.02631579 548:0.02631579 2572:0.02631579 7150:0.02631579 10502:0.02631579 11811:0.02631579 #
412.02503347688752910471521317959 124:0.016666668 245:0.033333335 872:0.016666668 2730:0.016666668 8226:0.016666668 17927:0.016666668 17928:0.016666668 17929:0.016666668 #
405.82436383117476452753180637956 101:0.030303031 124:0.030303031 245:0.030303031 321:0.030303031 449:0.030303031 789:0.030303031 #
-412.02503347688752910471521317959 124:0.02631579 245:0.02631579 1762:0.02631579 1984:0.02631579 9937:0.02631579 9938:0.02631579 #
-298.94988375441675998445134609938 124:0.030303031 322:0.030303031 608:0.030303031 1744:0.030303031 1745:0.030303031 2572:0.030303031 #
412.02503347688752910471521317959 41:0.02631579 336:0.02631579 487:0.02631579 1169:0.02631579 1852:0.02631579 16748:0.02631579 #
-412.02503347688752910471521317959 1892:0.0099009899 2422:0.0099009899 3397:0.0099009899 5288:0.0099009899 6925:0.0099009899 7089:0.0099009899 7507:0.0099009899 7508:0.0099009899 7509:0.0099009899 7510:0.0099009899 7511:0.0099009899 #
-310.17351866281978800543583929539 9:0.037037037 336:0.037037037 1733:0.037037037 7230:0.037037037 #
-412.02503347688752910471521317959 321:0.023809524 422:0.023809524 744:0.023809524 3910:0.023809524 4431:0.023809524 9401:0.023809524 #
-412.02503347688752910471521317959 1237:0.034482758 2300:0.034482758 2301:0.034482758 2302:0.034482758 2303:0.034482758 #
412.02503347688752910471521317959 43:0.030303031 149:0.030303031 2574:0.030303031 6907:0.030303031 10217:0.030303031 #
142.2117563944721041480079293251 82:0.023255814 149:0.023255814 637:0.023255814 2856:0.046511628 15078:0.023255814 #
412.02503347688752910471521317959 228:0.025 1663:0.025 1741:0.025 6002:0.025 7192:0.025 14296:0.025 #
-412.02503347688752910471521317959 245:0.010869565 295:0.010869565 575:0.010869565 774:0.010869565 4124:0.010869565 4482:0.010869565 8098:0.010869565 8368:0.010869565 8369:0.010869565 8370:0.010869565 8371:0.010869565 8372:0.010869565 #
-412.02503347688752910471521317959 149:0.025 228:0.025 420:0.025 445:0.025 1215:0.025 2982:0.025 5749:0.025 #
412.02503347688752910471521317959 149:0.0066225166 295:0.0066225166 671:0.0066225166 1565:0.0066225166 1584:0.0066225166 2003:0.0066225166 2172:0.0066225166 5575:0.0066225166 5718:0.0066225166 5732:0.0066225166 6488:0.0066225166 7385:0.0066225166 9659:0.0066225166 14213:0.0066225166 16330:0.0066225166 16331:0.0066225166 16332:0.0066225166 16333:0.0066225166 #
412.02503347688752910471521317959 152:0.027027028 191:0.027027028 422:0.027027028 3129:0.027027028 16024:0.027027028 #
412.02503347688752910471521317959 126:0.013888889 198:0.013888889 408:0.013888889 682:0.013888889 744:0.013888889 966:0.013888889 2077:0.013888889 5210:0.013888889 5734:0.013888889 7570:0.013888889 16440:0.013888889 #
-412.02503347688752910471521317959 915:0.039999999 3128:0.039999999 3129:0.039999999 #
-412.02503347688752910471521317959 60:0.022222223 107:0.022222223 311:0.022222223 422:0.022222223 600:0.022222223 638:0.022222223 2722:0.022222223 3188:0.022222223 4321:0.022222223 #
-412.02503347688752910471521317959 833:0.035714287 1155:0.035714287 5992:0.035714287 10761:0.035714287 #
-79.053681578199814339313888922334 126:0.030303031 152:0.030303031 643:0.030303031 800:0.030303031 1821:0.030303031 2477:0.030303031 2883:0.030303031 #
412.02503347688752910471521317959 445:0.043478262 2788:0.043478262 5643:0.043478262 #
412.02503347688752910471521317959 41:0.010204081 46:0.010204081 149:0.010204081 200:0.010204081 273:0.010204081 608:0.010204081 774:0.010204081 1617:0.010204081 2445:0.010204081 3794:0.010204081 3984:0.020408163 6315:0.010204081 6372:0.010204081 7609:0.010204081 12674:0.010204081 #
-112.88697795441798632509744493291 149:0.011627907 317:0.011627907 322:0.011627907 1483:0.011627907 1972:0.011627907 3208:0.023255814 3209:0.011627907 3210:0.011627907 3211:0.011627907 3212:0.011627907 #
412.02503347688752910471521317959 149:0.020833334 160:0.020833334 190:0.020833334 6334:0.020833334 11159:0.020833334 12127:0.020833334 #
-412.02503347688752910471521317959 149:0.025641026 252:0.051282052 273:0.025641026 321:0.025641026 1270:0.025641026 9393:0.025641026 #
-412.02503347688752910471521317959 149:0.015873017 523:0.015873017 827:0.015873017 834:0.015873017 1131:0.015873017 1647:0.015873017 2994:0.015873017 3146:0.015873017 6034:0.015873017 9342:0.015873017 #
-412.02503347688752910471521317959 149:0.023255814 321:0.023255814 2077:0.023255814 4168:0.023255814 7531:0.023255814 10786:0.023255814 #
-412.02503347688752910471521317959 149:0.014492754 245:0.014492754 379:0.014492754 629:0.014492754 4227:0.014492754 4461:0.014492754 4627:0.014492754 4628:0.028985508 4629:0.014492754 #
412.02503347688752910471521317959 126:0.016393442 183:0.016393442 228:0.016393442 323:0.016393442 1407:0.016393442 1733:0.016393442 2131:0.016393442 2285:0.016393442 3154:0.016393442 5246:0.016393442 #
412.02503347688752910471521317959 15:0.020833334 580:0.020833334 915:0.020833334 959:0.020833334 1078:0.020833334 1186:0.020833334 1450:0.020833334 2338:0.020833334 3261:0.020833334 #
139.31855721691181315691210329533 843:0.01923077 990:0.01923077 1155:0.01923077 1816:0.01923077 9223:0.01923077 15142:0.01923077 15995:0.01923077 #
-412.02503347688752910471521317959 1026:0.023255814 1816:0.023255814 3578:0.023255814 5727:0.023255814 5728:0.023255814 #
412.02503347688752910471521317959 193:0.021739131 2003:0.021739131 5245:0.021739131 14929:0.021739131 14930:0.021739131 #
-412.02503347688752910471521317959 41:0.009708738 191:0.009708738 384:0.009708738 720:0.009708738 721:0.009708738 722:0.009708738 723:0.009708738 724:0.009708738 725:0.009708738 726:0.009708738 727:0.009708738 728:0.009708738 729:0.009708738 730:0.009708738 731:0.009708738 #
-412.02503347688752910471521317959 157:0.019607844 321:0.019607844 345:0.019607844 643:0.019607844 2166:0.019607844 4537:0.019607844 5006:0.019607844 7827:0.019607844 #
-412.02503347688752910471521317959 15:0.030303031 88:0.030303031 149:0.030303031 233:0.030303031 4506:0.030303031 #
412.02503347688752910471521317959 252:0.015625 860:0.015625 1175:0.015625 1323:0.015625 3868:0.015625 4412:0.015625 5728:0.015625 7810:0.015625 #
412.02503347688752910471521317959 16:0.01923077 245:0.01923077 1343:0.01923077 1376:0.01923077 9342:0.01923077 10536:0.01923077 16831:0.01923077 #
412.02503347688752910471521317959 956:0.012345679 1015:0.012345679 1241:0.012345679 1413:0.012345679 2144:0.012345679 4985:0.012345679 5755:0.012345679 6341:0.012345679 7450:0.012345679 18301:0.012345679 #
284.58408082422647567000240087509 420:0.0625 836:0.0625 5718:0.0625 #
-365.32124396970868929201969876885 739:0.050000001 1840:0.050000001 4156:0.050000001 #
-412.02503347688752910471521317959 139:0.021276595 183:0.021276595 739:0.021276595 1725:0.021276595 1896:0.021276595 2140:0.021276595 2141:0.021276595 5771:0.021276595 5772:0.021276595 #
196.56629262836173666073591448367 149:0.01754386 443:0.03508772 1155:0.01754386 1552:0.01754386 12253:0.01754386 14087:0.01754386 15433:0.01754386 15434:0.01754386 #
-412.02503347688752910471521317959 273:0.017857144 360:0.017857144 1220:0.017857144 1765:0.017857144 2139:0.017857144 4460:0.017857144 5027:0.017857144 #
-412.02503347688752910471521317959 50:0.011363637 510:0.011363637 739:0.011363637 781:0.011363637 906:0.011363637 1318:0.011363637 1740:0.011363637 2894:0.011363637 3141:0.011363637 3182:0.011363637 4304:0.011363637 4934:0.011363637 8778:0.011363637 #
412.02503347688752910471521317959 50:0.029850746 88:0.014925373 233:0.014925373 422:0.014925373 673:0.014925373 1078:0.014925373 2337:0.014925373 9254:0.014925373 17253:0.014925373 #
-412.02503347688752910471521317959 50:0.016666668 354:0.016666668 647:0.016666668 1342:0.016666668 2004:0.016666668 2163:0.016666668 2164:0.016666668 2165:0.016666668 #
-412.02503347688752910471521317959 50:0.020408163 673:0.020408163 681:0.020408163 3769:0.020408163 8825:0.020408163 9824:0.020408163 #
-412.02503347688752910471521317959 50:0.019607844 60:0.019607844 323:0.019607844 429:0.019607844 669:0.019607844 1556:0.019607844 1990:0.019607844 3471:0.019607844 5186:0.019607844 #
412.02503347688752910471521317959 60:0.052631579 739:0.052631579 1139:0.052631579 #
231.82932638647992007463471964002 354:0.025641026 739:0.025641026 1437:0.025641026 12433:0.025641026 12434:0.025641026 15024:0.025641026 #
412.02503347688752910471521317959 295:0.023255814 739:0.023255814 838:0.023255814 1821:0.023255814 5375:0.023255814 8200:0.023255814 10420:0.023255814 #
-412.02503347688752910471521317959 295:0.02 739:0.02 1142:0.02 1237:0.02 2518:0.02 5146:0.02 9374:0.02 #
-412.02503347688752910471521317959 50:0.022727273 516:0.022727273 739:0.022727273 2471:0.022727273 3124:0.022727273 3595:0.022727273 5965:0.022727273 #
412.02503347688752910471521317959 50:0.013888889 191:0.013888889 198:0.013888889 336:0.013888889 369:0.013888889 1038:0.027777778 1215:0.013888889 3925:0.013888889 9274:0.013888889 11852:0.013888889 15614:0.013888889 #
412.02503347688752910471521317959 50:0.019607844 242:0.019607844 311:0.019607844 453:0.019607844 629:0.019607844 4197:0.019607844 8608:0.019607844 15524:0.019607844 #
412.02503347688752910471521317959 617:0.033333335 2394:0.033333335 8060:0.033333335 8876:0.033333335 #
-412.02503347688752910471521317959 580:0.021276595 860:0.021276595 2601:0.021276595 3405:0.021276595 5375:0.021276595 6422:0.021276595 6599:0.021276595 #
-347.35255295566679478724836371839 44:0.028571429 1038:0.028571429 1528:0.028571429 2886:0.028571429 3261:0.028571429 9891:0.028571429 #
-370.80182714511340691387886181474 51:0.020833334 245:0.020833334 881:0.020833334 905:0.020833334 1038:0.020833334 2073:0.020833334 5600:0.020833334 #
-258.45064192453088480760925449431 774:0.023255814 2244:0.023255814 2419:0.023255814 7317:0.023255814 8875:0.023255814 8876:0.023255814 8877:0.023255814 #
-99.620526358678546330338576808572 149:0.020408163 245:0.020408163 808:0.020408163 844:0.020408163 1038:0.020408163 1254:0.020408163 3852:0.020408163 8964:0.020408163 #
336.01761674517774736159481108189 418:0.020833334 737:0.020833334 827:0.020833334 1268:0.020833334 3595:0.020833334 4384:0.020833334 #
412.02503347688752910471521317959 127:0.016129032 2163:0.016129032 2341:0.016129032 2601:0.016129032 7255:0.016129032 14682:0.016129032 14683:0.016129032 14684:0.016129032 #
214.20061161301356378316995687783 336:0.018181818 516:0.018181818 2776:0.018181818 2957:0.018181818 4146:0.018181818 9034:0.018181818 14114:0.018181818 14115:0.018181818 #
412.02503347688752910471521317959 44:0.012345679 149:0.012345679 408:0.012345679 516:0.012345679 607:0.012345679 879:0.012345679 1239:0.012345679 1260:0.012345679 1556:0.012345679 1557:0.012345679 1578:0.012345679 1733:0.012345679 13295:0.012345679 #
-152.98404090721209058756357990205 1903:0.0625 4463:0.0625 4464:0.0625 #
-116.91233481103601832273852778599 1578:0.055555556 8154:0.055555556 #
-86.963604009606541467292117886245 60:0.027777778 190:0.027777778 336:0.027777778 1980:0.027777778 6521:0.027777778 #
-412.02503347688752910471521317959 846:0.016129032 1156:0.016129032 1268:0.016129032 1343:0.016129032 3593:0.016129032 3594:0.016129032 3595:0.016129032 3596:0.016129032 #
-278.38361780476435569653403945267 50:0.012658228 130:0.012658228 295:0.012658228 459:0.012658228 516:0.012658228 548:0.012658228 6925:0.012658228 7207:0.012658228 7208:0.012658228 7209:0.012658228 7210:0.012658228 #
-412.02503347688752910471521317959 50:0.018867925 245:0.018867925 411:0.018867925 608:0.018867925 1254:0.018867925 3170:0.018867925 9120:0.018867925 10158:0.018867925 10159:0.018867925 #
-358.70782456189454023842699825764 245:0.01369863 1068:0.01369863 1254:0.01369863 2975:0.01369863 3314:0.01369863 3315:0.01369863 3316:0.01369863 3317:0.01369863 3318:0.01369863 3319:0.01369863 #
-52.714260075159721452564554056153 498:0.012987013 711:0.012987013 801:0.012987013 1393:0.012987013 2164:0.012987013 2336:0.012987013 4563:0.012987013 4564:0.012987013 4565:0.012987013 #
412.02503347688752910471521317959 711:0.028571429 881:0.028571429 1205:0.028571429 1993:0.028571429 2362:0.028571429 3993:0.028571429 #
412.02503347688752910471521317959 15:0.025641026 19:0.012820513 124:0.012820513 322:0.012820513 342:0.012820513 561:0.012820513 1038:0.012820513 4642:0.012820513 7333:0.012820513 9415:0.012820513 16033:0.012820513 #
412.02503347688752910471521317959 29:0.0081967209 477:0.0081967209 791:0.0081967209 879:0.0081967209 1159:0.0081967209 1733:0.0081967209 1817:0.0081967209 1826:0.0081967209 2389:0.0081967209 4798:0.0081967209 7536:0.0081967209 11046:0.0081967209 16147:0.0081967209 16148:0.0081967209 16149:0.0081967209 #
341.03630995516300572489853948355 196:0.015873017 789:0.015873017 815:0.015873017 1839:0.015873017 1869:0.015873017 2071:0.015873017 2490:0.015873017 4837:0.015873017 #
-412.02503347688752910471521317959 459:0.037037037 3109:0.037037037 3110:0.037037037 3111:0.037037037 #
-412.02503347688752910471521317959 15:0.027777778 47:0.013888889 57:0.013888889 148:0.013888889 507:0.013888889 1733:0.013888889 3656:0.013888889 3822:0.013888889 7090:0.013888889 9345:0.013888889 #
-349.61697979414526571417809464037 15:0.0125 41:0.0125 605:0.0125 838:0.0125 1774:0.0125 2678:0.0125 3159:0.0125 4375:0.0125 4376:0.0125 4377:0.0125 4378:0.0125 4379:0.0125 #
-412.02503347688752910471521317959 350:0.024390243 354:0.024390243 484:0.024390243 711:0.024390243 934:0.024390243 1506:0.024390243 #
-412.02503347688752910471521317959 50:0.0088495575 148:0.0088495575 430:0.0088495575 1238:0.0088495575 1248:0.0088495575 1418:0.0088495575 2445:0.0088495575 2852:0.0088495575 2854:0.0088495575 3701:0.0088495575 3830:0.0088495575 4634:0.0088495575 7861:0.0088495575 9289:0.0088495575 9290:0.0088495575 #
361.65614368599102590451366268098 124:0.010526316 305:0.010526316 547:0.010526316 1252:0.010526316 1678:0.010526316 2084:0.010526316 3656:0.010526316 5274:0.010526316 15358:0.010526316 15359:0.010526316 15360:0.010526316 #
140.40769933375759137561544775963 50:0.037037037 1068:0.037037037 4582:0.037037037 7837:0.037037037 #
-412.02503347688752910471521317959 50:0.014084507 137:0.014084507 203:0.014084507 210:0.014084507 244:0.014084507 264:0.014084507 346:0.014084507 408:0.014084507 459:0.014084507 739:0.014084507 11747:0.014084507 11748:0.014084507 #
-412.02503347688752910471521317959 16:0.017857144 50:0.017857144 314:0.017857144 481:0.017857144 482:0.017857144 483:0.017857144 484:0.017857144 485:0.017857144 #
-412.02503347688752910471521317959 50:0.013333334 82:0.013333334 739:0.026666667 1242:0.013333334 1854:0.013333334 7990:0.013333334 7991:0.013333334 7992:0.013333334 #
-412.02503347688752910471521317959 60:0.016666668 124:0.016666668 196:0.016666668 305:0.016666668 358:0.016666668 739:0.016666668 1004:0.016666668 3140:0.016666668 3340:0.016666668 #
207.62260029218231238701264373958 15:0.023809524 126:0.023809524 245:0.023809524 1436:0.023809524 4477:0.023809524 14602:0.023809524 14603:0.023809524 #
412.02503347688752910471521317959 15:0.032608695 88:0.010869565 245:0.021739131 273:0.010869565 408:0.010869565 542:0.010869565 543:0.010869565 608:0.010869565 872:0.010869565 1332:0.010869565 1840:0.010869565 4448:0.010869565 9545:0.010869565 #
412.02503347688752910471521317959 360:0.014705882 619:0.014705882 814:0.014705882 844:0.014705882 865:0.014705882 1107:0.014705882 2191:0.014705882 2421:0.014705882 3214:0.014705882 6020:0.014705882 #
-149.68565422238555129297310486436 15:0.037037037 79:0.037037037 2308:0.037037037 10465:0.037037037 10466:0.037037037 #
-412.02503347688752910471521317959 38:0.0051020407 92:0.0051020407 410:0.0051020407 1543:0.0051020407 1733:0.0051020407 1742:0.0051020407 3377:0.0051020407 3512:0.0051020407 3659:0.0051020407 4460:0.0051020407 5033:0.0051020407 5584:0.0051020407 6982:0.0051020407 9057:0.0051020407 9058:0.0051020407 9059:0.0051020407 9060:0.0051020407 9061:0.0051020407 9062:0.0051020407 9063:0.0051020407 #
-202.45667631366799810166412498802 245:0.025 344:0.025 360:0.025 408:0.025 1058:0.025 1407:0.025 11591:0.025 11592:0.025 #
412.02503347688752910471521317959 350:0.055555556 422:0.055555556 484:0.055555556 #
412.02503347688752910471521317959 50:0.025641026 305:0.025641026 459:0.025641026 3639:0.025641026 7895:0.025641026 10031:0.025641026 #
239.19178774413822452515887562186 50:0.039999999 1990:0.039999999 13649:0.039999999 #
412.02503347688752910471521317959 50:0.016949153 196:0.016949153 430:0.016949153 2364:0.016949153 2399:0.016949153 3243:0.016949153 3261:0.016949153 5254:0.016949153 12852:0.016949153 15120:0.016949153 #
-56.312146516948992314155475469306 50:0.03125 702:0.03125 791:0.03125 872:0.03125 5008:0.03125 #
-412.02503347688752910471521317959 41:0.021276595 157:0.021276595 196:0.021276595 580:0.021276595 607:0.021276595 608:0.021276595 1556:0.021276595 2394:0.04255319 7359:0.021276595 #
-412.02503347688752910471521317959 160:0.009708738 191:0.009708738 273:0.009708738 370:0.009708738 1237:0.009708738 2064:0.009708738 2293:0.009708738 2502:0.009708738 2547:0.009708738 2823:0.009708738 3954:0.009708738 5937:0.009708738 6064:0.009708738 8371:0.009708738 9102:0.009708738 9103:0.009708738 9104:0.009708738 #
292.7977381687930460429925005883 245:0.028571429 321:0.028571429 853:0.028571429 1528:0.028571429 2588:0.028571429 5406:0.028571429 #
412.02503347688752910471521317959 57:0.019607844 77:0.019607844 245:0.019607844 541:0.019607844 1273:0.019607844 3848:0.019607844 10126:0.019607844 #
