SVM-light Version V6.02
0 # kernel type
3 # kernel parameter -d 
1 # kernel parameter -g 
1 # kernel parameter -s 
1 # kernel parameter -r 
empty# kernel parameter -u 
19801 # highest feature index 
8527 # number of training documents 
6644 # number of support vectors plus 1 
0.014292075 # threshold b, each following line is a SV (starting with alpha*y)
416.31476097963854954286944121122 191:0.012820513 643:0.012820513 739:0.012820513 1596:0.012820513 3918:0.012820513 4029:0.012820513 4218:0.012820513 4412:0.012820513 5710:0.012820513 8957:0.012820513 11585:0.012820513 14888:0.012820513 #
-416.31476097963854954286944121122 4:0.022727273 5:0.022727273 6:0.022727273 7:0.022727273 8:0.022727273 9:0.022727273 #
-28.975465379718695402289085905068 10:0.010416667 11:0.010416667 12:0.010416667 13:0.010416667 14:0.010416667 15:0.010416667 16:0.010416667 17:0.010416667 18:0.010416667 19:0.010416667 20:0.010416667 #
-416.31476097963854954286944121122 21:0.0095238099 22:0.0095238099 23:0.0095238099 24:0.0095238099 25:0.0095238099 26:0.0095238099 27:0.0095238099 28:0.0095238099 29:0.0095238099 30:0.0095238099 31:0.0095238099 #
-416.31476097963854954286944121122 32:0.012345679 33:0.012345679 34:0.012345679 35:0.012345679 36:0.012345679 37:0.012345679 38:0.012345679 39:0.012345679 40:0.012345679 #
416.31476097963854954286944121122 15:0.0084745763 252:0.0084745763 360:0.0084745763 994:0.0084745763 1417:0.0084745763 1418:0.0084745763 1901:0.0084745763 2149:0.0084745763 2397:0.0084745763 3820:0.0084745763 4905:0.0084745763 5407:0.0084745763 7385:0.0084745763 9153:0.0084745763 13481:0.0084745763 13482:0.0084745763 13483:0.0084745763 #
416.31476097963854954286944121122 80:0.0066225166 295:0.0066225166 733:0.0066225166 1741:0.0066225166 1916:0.0066225166 2942:0.0066225166 4310:0.0066225166 4385:0.0066225166 5028:0.0066225166 5366:0.0066225166 6733:0.0066225166 7147:0.0066225166 8436:0.0066225166 9713:0.0066225166 10963:0.0066225166 13484:0.0066225166 13485:0.0066225166 13486:0.0066225166 #
43.703124887758797001424682093784 6063:0.034482758 13037:0.034482758 17398:0.034482758 #
416.31476097963854954286944121122 124:0.025641026 245:0.025641026 321:0.025641026 337:0.025641026 377:0.025641026 739:0.025641026 8037:0.025641026 #
416.31476097963854954286944121122 50:0.015873017 245:0.015873017 352:0.015873017 408:0.015873017 1088:0.015873017 1332:0.015873017 1876:0.015873017 2437:0.015873017 13488:0.015873017 13489:0.015873017 #
-416.31476097963854954286944121122 2004:0.02631579 6832:0.02631579 7942:0.02631579 8103:0.02631579 8957:0.02631579 #
-416.31476097963854954286944121122 50:0.032258064 408:0.032258064 739:0.064516127 1332:0.064516127 1709:0.032258064 #
384.07471255523842046386562287807 426:0.0088495575 1305:0.0088495575 1480:0.0088495575 3097:0.0088495575 3964:0.0088495575 6007:0.0088495575 6985:0.0088495575 7093:0.0088495575 7881:0.0088495575 9657:0.0088495575 10869:0.0088495575 11795:0.0088495575 14910:0.0088495575 #
-290.40653624116094988494296558201 245:0.06666667 881:0.06666667 8489:0.06666667 #
416.31476097963854954286944121122 314:0.017857144 1491:0.017857144 1892:0.017857144 6518:0.017857144 9628:0.017857144 14419:0.017857144 #
416.31476097963854954286944121122 15:0.011235955 77:0.011235955 92:0.011235955 93:0.011235955 563:0.011235955 726:0.011235955 739:0.011235955 756:0.011235955 774:0.011235955 1844:0.011235955 7461:0.011235955 13623:0.011235955 13672:0.011235955 #
38.629638095289308807878114748746 9:0.027777778 50:0.027777778 2561:0.027777778 11603:0.027777778 13875:0.027777778 #
416.31476097963854954286944121122 6:0.043478262 7:0.021739131 234:0.021739131 459:0.021739131 1407:0.021739131 1619:0.021739131 3161:0.021739131 #
416.31476097963854954286944121122 94:0.0087719299 802:0.0087719299 808:0.0087719299 1427:0.0087719299 2003:0.0087719299 2322:0.0087719299 5481:0.0087719299 5831:0.0087719299 13006:0.0087719299 14392:0.0087719299 18972:0.0087719299 18973:0.0087719299 18974:0.0087719299 #
416.31476097963854954286944121122 9:0.055555556 1244:0.055555556 1733:0.055555556 #
-416.31476097963854954286944121122 9:0.11111111 3177:0.055555556 #
277.19966900846173984973574988544 314:0.0088495575 1182:0.0088495575 1188:0.0088495575 1850:0.0088495575 2542:0.0088495575 6696:0.0088495575 11025:0.0088495575 11661:0.0088495575 13734:0.0088495575 16474:0.0088495575 16475:0.0088495575 16476:0.0088495575 16477:0.0088495575 16478:0.0088495575 #
-270.29595516411154676461592316628 9:0.047619049 1733:0.047619049 8064:0.047619049 #
-416.31476097963854954286944121122 9:0.037037037 336:0.037037037 1733:0.037037037 7230:0.037037037 #
-416.31476097963854954286944121122 9:0.027027028 1175:0.027027028 1733:0.054054055 2338:0.027027028 #
416.31476097963854954286944121122 50:0.029411765 169:0.029411765 739:0.05882353 1332:0.05882353 1709:0.029411765 #
416.31476097963854954286944121122 50:0.024691358 128:0.012345679 273:0.012345679 516:0.012345679 739:0.024691358 1332:0.074074075 1709:0.012345679 4890:0.012345679 5968:0.012345679 17359:0.012345679 #
133.50281143183309495725552551448 739:0.07692308 1028:0.07692308 #
416.31476097963854954286944121122 682:0.06666667 739:0.06666667 1254:0.06666667 #
416.31476097963854954286944121122 203:0.047619049 245:0.095238097 14043:0.047619049 #
-105.57219077418305630544637097046 739:0.1 1640:0.1 #
-416.31476097963854954286944121122 739:0.090909094 2957:0.090909094 #
-416.31476097963854954286944121122 41:0.011111111 125:0.011111111 126:0.011111111 252:0.011111111 323:0.011111111 2130:0.011111111 2850:0.011111111 3098:0.011111111 3575:0.011111111 4973:0.011111111 7866:0.011111111 7867:0.011111111 #
-416.31476097963854954286944121122 50:0.1 320:0.1 #
-416.31476097963854954286944121122 90:0.015151516 2776:0.015151516 3969:0.015151516 12123:0.015151516 13016:0.015151516 13017:0.015151516 #
416.31476097963854954286944121122 92:0.014084507 1407:0.014084507 2419:0.014084507 2678:0.014084507 4230:0.014084507 7461:0.014084507 8982:0.014084507 18797:0.014084507 #
416.31476097963854954286944121122 354:0.00729927 1855:0.00729927 3976:0.00729927 5302:0.00729927 6339:0.00729927 6638:0.00729927 6733:0.00729927 6780:0.00729927 12496:0.00729927 12626:0.00729927 14237:0.00729927 18334:0.00729927 18700:0.00729927 18701:0.00729927 #
41.791937274688486070317594567314 418:0.018181818 592:0.018181818 638:0.018181818 726:0.018181818 8228:0.018181818 10123:0.018181818 13975:0.018181818 15680:0.018181818 #
-380.53846437364364874156308360398 1244:0.050000001 2563:0.050000001 2936:0.050000001 #
-416.31476097963854954286944121122 65:0.030303031 90:0.030303031 196:0.030303031 545:0.030303031 1407:0.060606062 #
-20.818119647444110142942008678801 344:0.018181818 554:0.018181818 1647:0.018181818 2776:0.018181818 4680:0.018181818 4813:0.018181818 8853:0.018181818 8854:0.018181818 #
-416.31476097963854954286944121122 149:0.023809524 393:0.023809524 584:0.023809524 1244:0.023809524 1876:0.023809524 1877:0.023809524 1878:0.023809524 #
-416.31476097963854954286944121122 196:0.0080000004 358:0.0080000004 409:0.0080000004 452:0.0080000004 1015:0.0080000004 2394:0.0080000004 4620:0.0080000004 4621:0.0080000004 4622:0.0080000004 4623:0.0080000004 4624:0.0080000004 4625:0.0080000004 4626:0.0080000004 #
29.1177385876596481750766542973 50:0.1 1607:0.1 #
416.31476097963854954286944121122 50:0.045454547 137:0.045454547 408:0.045454547 860:0.045454547 #
416.31476097963854954286944121122 50:0.03846154 190:0.03846154 228:0.03846154 739:0.03846154 1428:0.03846154 #
-416.31476097963854954286944121122 29:0.012820513 538:0.012820513 741:0.012820513 3065:0.012820513 3892:0.012820513 4451:0.012820513 5629:0.012820513 11024:0.012820513 12672:0.012820513 #
-416.31476097963854954286944121122 149:0.0125 636:0.0125 902:0.0125 999:0.0125 1781:0.0125 2687:0.0125 3868:0.0125 9497:0.0125 9498:0.0125 9499:0.0125 #
-416.31476097963854954286944121122 50:0.090909094 2341:0.090909094 #
-286.09298826092413037258666008711 50:0.083333336 443:0.083333336 #
416.31476097963854954286944121122 90:0.16666667 #
56.218815795652893996248167240992 2131:0.0625 3261:0.0625 7237:0.0625 #
246.04322873225117973561282269657 149:0.033898305 633:0.016949153 931:0.016949153 3164:0.016949153 4426:0.016949153 4846:0.016949153 7680:0.016949153 16473:0.016949153 #
30.035483092805137061986897606403 149:0.1 2349:0.1 #
416.31476097963854954286944121122 41:0.022222223 149:0.022222223 323:0.022222223 582:0.022222223 9770:0.022222223 16444:0.022222223 #
-271.54196693123890327115077525377 41:0.019607844 337:0.019607844 1733:0.019607844 1889:0.019607844 4384:0.019607844 7851:0.019607844 7852:0.019607844 #
-176.52673987071599981391045730561 149:0.07692308 2281:0.07692308 5013:0.07692308 #
-154.01305983005417488129751291126 29:0.013888889 333:0.013888889 656:0.013888889 734:0.013888889 880:0.013888889 5614:0.013888889 9073:0.013888889 9074:0.013888889 #
204.35926671424769551776989828795 50:0.0625 14515:0.0625 18761:0.0625 #
416.31476097963854954286944121122 29:0.021739131 50:0.021739131 320:0.021739131 608:0.021739131 2769:0.021739131 4037:0.021739131 16465:0.021739131 #
416.31476097963854954286944121122 2:0.023255814 50:0.023255814 430:0.023255814 4203:0.023255814 4318:0.023255814 5445:0.023255814 #
-416.31476097963854954286944121122 49:0.025 50:0.025 459:0.025 860:0.025 1819:0.025 10372:0.025 #
-35.708040196403885602194350212812 50:0.043478262 79:0.043478262 377:0.043478262 378:0.043478262 #
-416.31476097963854954286944121122 128:0.033333335 228:0.033333335 459:0.033333335 6152:0.033333335 7682:0.033333335 #
23.04420549954383901081200747285 149:0.07692308 6282:0.07692308 #
177.38069065536552670891978777945 367:0.012195121 881:0.012195121 1634:0.012195121 2450:0.012195121 2927:0.012195121 3071:0.012195121 3468:0.012195121 3961:0.012195121 5239:0.012195121 14053:0.012195121 #
416.31476097963854954286944121122 176:0.0073529412 191:0.0073529412 245:0.0073529412 580:0.0073529412 674:0.0073529412 1237:0.0073529412 1407:0.0073529412 1819:0.0073529412 2004:0.0073529412 2823:0.0073529412 2934:0.0073529412 5268:0.0073529412 9379:0.0073529412 13730:0.0073529412 14141:0.0073529412 14146:0.0073529412 14813:0.0073529412 14814:0.0073529412 14815:0.0073529412 #
-416.31476097963854954286944121122 739:0.045454547 1254:0.045454547 4404:0.045454547 #
-356.99745851718341782543575391173 149:0.06666667 10696:0.06666667 #
-416.31476097963854954286944121122 149:0.035714287 739:0.035714287 807:0.035714287 808:0.035714287 990:0.035714287 #
416.31476097963854954286944121122 79:0.22222222 #
416.31476097963854954286944121122 46:0.016129032 50:0.016129032 1567:0.016129032 3140:0.016129032 4089:0.016129032 4724:0.016129032 6063:0.016129032 13539:0.016129032 13540:0.016129032 #
213.61428736741899570006353314966 5013:0.1 7162:0.1 #
286.25025888315286692886729724705 137:0.012820513 149:0.012820513 305:0.012820513 739:0.012820513 879:0.012820513 881:0.012820513 1180:0.012820513 1181:0.012820513 2737:0.012820513 6315:0.012820513 15146:0.012820513 #
416.31476097963854954286944121122 43:0.024691358 196:0.012345679 602:0.012345679 1623:0.012345679 2353:0.012345679 3860:0.012345679 5730:0.012345679 19631:0.012345679 19632:0.012345679 19633:0.012345679 #
281.0954125471673137326433788985 452:0.018867925 640:0.018867925 1021:0.018867925 1028:0.018867925 2560:0.018867925 14369:0.018867925 #
-416.31476097963854954286944121122 82:0.018518519 497:0.018518519 518:0.018518519 756:0.018518519 4502:0.018518519 13327:0.018518519 #
-416.31476097963854954286944121122 92:0.0089285718 344:0.0089285718 377:0.0089285718 545:0.0089285718 739:0.0089285718 1758:0.0089285718 1919:0.0089285718 2994:0.0089285718 3526:0.0089285718 5883:0.0089285718 7420:0.0089285718 10823:0.0089285718 12622:0.0089285718 12623:0.0089285718 #
416.31476097963854954286944121122 49:0.03846154 149:0.03846154 322:0.03846154 1601:0.03846154 5559:0.03846154 #
271.13851205762813378896680660546 196:0.029411765 361:0.029411765 719:0.029411765 881:0.029411765 16811:0.029411765 #
416.31476097963854954286944121122 559:0.011363637 706:0.011363637 1570:0.011363637 1814:0.011363637 2582:0.011363637 2995:0.011363637 3034:0.011363637 3077:0.011363637 6392:0.011363637 9602:0.011363637 14541:0.011363637 14619:0.011363637 #
-416.31476097963854954286944121122 295:0.0076923077 1205:0.015384615 1799:0.0076923077 2589:0.0076923077 4520:0.0076923077 4702:0.0076923077 4890:0.0076923077 6319:0.0076923077 7593:0.0076923077 7594:0.0076923077 8227:0.0076923077 12351:0.0076923077 13354:0.0076923077 13355:0.0076923077 13356:0.0076923077 13357:0.0076923077 #
-416.31476097963854954286944121122 190:0.025641026 459:0.025641026 1070:0.025641026 2556:0.025641026 2941:0.025641026 4508:0.025641026 #
-248.72218780090381073932803701609 190:0.0625 2858:0.0625 8085:0.0625 #
-202.36412653934269201272400096059 46:0.010204081 229:0.010204081 295:0.010204081 854:0.010204081 1079:0.010204081 1376:0.010204081 1383:0.010204081 1556:0.010204081 2010:0.010204081 3108:0.010204081 3553:0.010204081 4955:0.010204081 12577:0.010204081 12578:0.010204081 #
-416.31476097963854954286944121122 9:0.01923077 90:0.01923077 245:0.01923077 360:0.01923077 430:0.01923077 1058:0.01923077 2272:0.01923077 2850:0.01923077 3821:0.01923077 #
416.31476097963854954286944121122 50:0.052631579 88:0.02631579 273:0.02631579 2296:0.02631579 15362:0.02631579 #
-416.31476097963854954286944121122 6:0.024390243 1021:0.024390243 1403:0.024390243 1601:0.024390243 2169:0.024390243 2558:0.024390243 #
112.92085191566428648002329282463 79:0.07692308 15070:0.07692308 #
107.28484983908360561599693028256 453:0.012987013 529:0.012987013 834:0.012987013 1407:0.012987013 1774:0.012987013 1968:0.012987013 2277:0.012987013 3683:0.012987013 7110:0.012987013 8204:0.012987013 11319:0.012987013 16133:0.012987013 #
416.31476097963854954286944121122 245:0.083333336 5089:0.041666668 8610:0.041666668 #
416.31476097963854954286944121122 48:0.052631579 245:0.052631579 758:0.052631579 2559:0.052631579 #
416.31476097963854954286944121122 322:0.090909094 2693:0.090909094 #
416.31476097963854954286944121122 1692:0.03846154 1745:0.03846154 2858:0.07692308 9173:0.03846154 #
416.31476097963854954286944121122 245:0.027777778 2384:0.027777778 2850:0.027777778 5710:0.027777778 17402:0.027777778 #
-416.31476097963854954286944121122 41:0.011904762 1177:0.011904762 1875:0.011904762 3785:0.011904762 3786:0.011904762 3787:0.011904762 3788:0.011904762 3789:0.011904762 3790:0.011904762 3791:0.011904762 3792:0.011904762 #
-234.84754369381602145949727855623 79:0.05882353 1054:0.05882353 7683:0.05882353 #
-374.90118013974796440379577688873 504:0.071428575 5445:0.071428575 #
-416.31476097963854954286944121122 78:0.037037037 79:0.037037037 80:0.037037037 81:0.037037037 #
416.31476097963854954286944121122 77:0.011111111 149:0.011111111 1180:0.011111111 1429:0.011111111 1463:0.011111111 1941:0.011111111 2337:0.011111111 4013:0.011111111 4656:0.011111111 5420:0.011111111 6808:0.011111111 9945:0.011111111 16582:0.011111111 #
416.31476097963854954286944121122 149:0.008547009 358:0.008547009 3031:0.008547009 3855:0.008547009 8007:0.008547009 8606:0.008547009 9118:0.008547009 9453:0.008547009 9504:0.008547009 13963:0.008547009 16800:0.008547009 16801:0.008547009 16802:0.008547009 16803:0.008547009 #
234.52787593491072470897051971406 1036:0.012195121 1182:0.012195121 1527:0.012195121 1850:0.012195121 2439:0.012195121 3242:0.012195121 3981:0.012195121 10131:0.012195121 15376:0.012195121 15623:0.012195121 #
48.279542170505621356824121903628 50:0.025641026 608:0.025641026 1606:0.025641026 2341:0.025641026 3922:0.025641026 13068:0.025641026 #
212.58716384973848789741168729961 596:0.018867925 684:0.018867925 1318:0.018867925 4134:0.018867925 14114:0.018867925 17365:0.018867925 #
-416.31476097963854954286944121122 149:0.01923077 307:0.01923077 323:0.01923077 350:0.01923077 352:0.01923077 608:0.01923077 1725:0.01923077 13407:0.01923077 #
-332.90975750432181712312740273774 608:0.05882353 2244:0.05882353 11287:0.05882353 #
356.83908480682009667361853644252 25:0.012345679 529:0.012345679 2739:0.012345679 4001:0.012345679 4566:0.012345679 5226:0.012345679 11392:0.012345679 13354:0.012345679 18617:0.012345679 #
99.161954904886073336456320248544 81:0.020408163 182:0.020408163 2836:0.020408163 6744:0.020408163 9840:0.020408163 18079:0.020408163 18080:0.020408163 #
416.31476097963854954286944121122 504:0.03125 1021:0.03125 1068:0.03125 2348:0.03125 3890:0.03125 #
416.31476097963854954286944121122 15:0.020833334 580:0.020833334 915:0.020833334 959:0.020833334 1078:0.020833334 1186:0.020833334 1450:0.020833334 2338:0.020833334 3261:0.020833334 #
-208.98612174437141675298335030675 580:0.083333336 1186:0.083333336 1682:0.083333336 #
-416.31476097963854954286944121122 321:0.034482758 422:0.034482758 617:0.034482758 915:0.034482758 1252:0.034482758 #
-277.35604670289211526323924772441 915:0.03846154 1088:0.03846154 7914:0.03846154 12046:0.03846154 12047:0.03846154 #
-416.31476097963854954286944121122 15:0.029411765 580:0.029411765 796:0.029411765 847:0.029411765 5407:0.029411765 8580:0.029411765 #
-416.31476097963854954286944121122 50:0.015151516 189:0.015151516 1901:0.015151516 1902:0.015151516 2333:0.015151516 2334:0.015151516 3740:0.015151516 6887:0.015151516 #
288.9868293255319144918757956475 9:0.050000001 50:0.050000001 18631:0.050000001 #
416.31476097963854954286944121122 9:0.045454547 50:0.045454547 1244:0.045454547 1742:0.045454547 #
-356.89107506698036331727053038776 9:0.039999999 171:0.039999999 267:0.039999999 2836:0.039999999 #
-416.31476097963854954286944121122 9:0.043478262 135:0.014492754 895:0.014492754 1624:0.014492754 3030:0.014492754 3031:0.014492754 3032:0.014492754 3033:0.014492754 #
-416.31476097963854954286944121122 9:0.022727273 169:0.022727273 171:0.022727273 1667:0.022727273 3033:0.022727273 9054:0.022727273 12768:0.022727273 #
124.26486694912505015508941141888 229:0.07692308 13753:0.07692308 #
-416.31476097963854954286944121122 149:0.0093457941 241:0.0093457941 245:0.0093457941 535:0.0093457941 3844:0.0093457941 4800:0.0093457941 6129:0.0093457941 6296:0.0093457941 7232:0.0093457941 10724:0.0093457941 10725:0.0093457941 10726:0.0093457941 10727:0.0093457941 #
180.21105708931702338304603472352 229:0.0625 5573:0.0625 7446:0.0625 #
129.69607599732333369502157438546 2296:0.090909094 3109:0.090909094 #
416.31476097963854954286944121122 360:0.047619049 422:0.047619049 1058:0.047619049 4695:0.047619049 #
-416.31476097963854954286944121122 124:0.037037037 323:0.037037037 422:0.037037037 3795:0.037037037 6558:0.037037037 #
-416.31476097963854954286944121122 459:0.037037037 3109:0.037037037 3110:0.037037037 3111:0.037037037 #
-223.26082651598636630296823568642 4695:0.083333336 7759:0.083333336 #
-384.45775084010830369152245111763 46:0.03846154 169:0.03846154 422:0.03846154 12451:0.03846154 #
416.31476097963854954286944121122 2:0.02631579 1725:0.02631579 3033:0.02631579 4088:0.02631579 19110:0.02631579 #
79.705104746277285698852210771292 608:0.052631579 695:0.052631579 1734:0.052631579 4177:0.052631579 #
360.20378325202312908004387281835 9:0.037037037 342:0.037037037 489:0.037037037 608:0.037037037 9801:0.037037037 #
175.84394477802217693351849447936 2010:0.041666668 3314:0.041666668 9054:0.083333336 #
416.31476097963854954286944121122 50:0.013513514 758:0.013513514 1021:0.013513514 2131:0.013513514 3682:0.013513514 7243:0.013513514 7244:0.013513514 14364:0.013513514 18811:0.013513514 19696:0.013513514 19697:0.013513514 #
-416.31476097963854954286944121122 139:0.016129032 173:0.016129032 445:0.016129032 1113:0.016129032 1607:0.016129032 2564:0.016129032 8775:0.016129032 8776:0.016129032 11033:0.016129032 #
-416.31476097963854954286944121122 162:0.0074626864 364:0.0074626864 1397:0.0074626864 5102:0.0074626864 5171:0.0074626864 11520:0.0074626864 12415:0.0074626864 12416:0.0074626864 12417:0.0074626864 12418:0.0074626864 12419:0.0074626864 12420:0.0074626864 12421:0.0074626864 12422:0.0074626864 #
-416.31476097963854954286944121122 47:0.0091743115 137:0.0091743115 144:0.0091743115 278:0.0091743115 307:0.0091743115 617:0.0091743115 881:0.0091743115 1705:0.0091743115 2341:0.0091743115 2502:0.0091743115 2582:0.0091743115 2856:0.0091743115 4417:0.0091743115 4418:0.0091743115 4419:0.0091743115 4420:0.0091743115 4421:0.0091743115 #
-209.63795876737003709422424435616 1237:0.090909094 8074:0.090909094 #
416.31476097963854954286944121122 57:0.013157895 179:0.013157895 673:0.013157895 838:0.013157895 3656:0.013157895 7393:0.013157895 13377:0.013157895 18081:0.013157895 18521:0.013157895 #
173.72030342361011889806832186878 323:0.05882353 2877:0.05882353 3118:0.05882353 #
348.05343624992877948898239992559 50:0.039999999 323:0.039999999 638:0.039999999 2394:0.039999999 8205:0.039999999 #
416.31476097963854954286944121122 110:0.0074074073 308:0.0074074073 360:0.0074074073 563:0.0074074073 758:0.0074074073 953:0.0074074073 2131:0.0074074073 2186:0.0074074073 2502:0.0074074073 3314:0.0074074073 3560:0.0074074073 3925:0.0074074073 6304:0.0074074073 6879:0.0074074073 14546:0.0074074073 18764:0.0074074073 19555:0.0074074073 19556:0.0074074073 19557:0.0074074073 19558:0.0074074073 #
416.31476097963854954286944121122 41:0.011111111 47:0.011111111 516:0.011111111 768:0.011111111 1075:0.011111111 1546:0.011111111 3770:0.011111111 4499:0.011111111 7918:0.011111111 8088:0.011111111 9608:0.011111111 10271:0.011111111 #
-313.23497183108423769226646982133 4016:0.052631579 4087:0.052631579 4088:0.052631579 #
-416.31476097963854954286944121122 137:0.016129032 484:0.032258064 509:0.016129032 1068:0.016129032 1215:0.016129032 2220:0.016129032 2221:0.016129032 2222:0.016129032 2223:0.016129032 #
-416.31476097963854954286944121122 229:0.037037037 959:0.037037037 4058:0.037037037 4700:0.037037037 #
-416.31476097963854954286944121122 203:0.01923077 229:0.03846154 1453:0.01923077 1663:0.01923077 2010:0.01923077 3449:0.01923077 8965:0.01923077 #
-416.31476097963854954286944121122 228:0.013157895 321:0.013157895 408:0.013157895 410:0.013157895 653:0.013157895 881:0.013157895 3390:0.013157895 3560:0.013157895 7509:0.013157895 8769:0.013157895 8770:0.013157895 #
416.31476097963854954286944121122 74:0.0062500001 149:0.0062500001 191:0.0062500001 498:0.0062500001 547:0.0062500001 1244:0.0062500001 1565:0.0062500001 1584:0.0062500001 1702:0.0062500001 1824:0.0062500001 3477:0.0062500001 4215:0.0062500001 4321:0.0062500001 4466:0.0062500001 5349:0.0062500001 5446:0.0062500001 17681:0.0062500001 19652:0.0062500001 #
416.31476097963854954286944121122 915:0.090909094 1237:0.090909094 #
416.31476097963854954286944121122 149:0.034482758 198:0.034482758 313:0.034482758 541:0.034482758 2341:0.034482758 #
416.31476097963854954286944121122 2:0.021276595 13:0.021276595 60:0.021276595 739:0.021276595 955:0.021276595 4505:0.021276595 14464:0.021276595 #
-416.31476097963854954286944121122 319:0.0083333338 567:0.0083333338 718:0.0083333338 843:0.0083333338 921:0.0083333338 1226:0.0083333338 1585:0.0083333338 1689:0.0083333338 6314:0.0083333338 8333:0.0083333338 8334:0.0083333338 10801:0.0083333338 10802:0.0083333338 #
-381.04197668739368509704945608974 321:0.05882353 1091:0.05882353 1772:0.05882353 #
-416.31476097963854954286944121122 273:0.012048192 305:0.012048192 1237:0.012048192 1739:0.012048192 1819:0.012048192 3056:0.012048192 3296:0.012048192 4153:0.012048192 5274:0.012048192 6239:0.012048192 9732:0.012048192 #
-290.48113688377048902111710049212 41:0.045454547 149:0.045454547 2346:0.045454547 2347:0.045454547 #
-416.31476097963854954286944121122 38:0.0082644625 93:0.0082644625 535:0.0082644625 1128:0.0082644625 1172:0.0082644625 1578:0.0082644625 2727:0.0082644625 2863:0.0082644625 2864:0.0082644625 2865:0.0082644625 2866:0.0082644625 2867:0.0082644625 2868:0.0082644625 #
16.080137979427988170755270402879 484:0.035714287 1437:0.035714287 2222:0.035714287 5284:0.035714287 #
416.31476097963854954286944121122 307:0.016666668 796:0.016666668 4016:0.016666668 4513:0.016666668 5111:0.016666668 10458:0.016666668 14818:0.016666668 18300:0.016666668 #
416.31476097963854954286944121122 252:0.03125 273:0.03125 1973:0.03125 3340:0.03125 6020:0.03125 #
416.31476097963854954286944121122 50:0.021739131 191:0.043478262 229:0.021739131 459:0.021739131 1453:0.021739131 2556:0.021739131 2976:0.021739131 #
-151.47233369340955277948523871601 191:0.06666667 440:0.06666667 739:0.06666667 #
-416.31476097963854954286944121122 189:0.027777778 191:0.055555556 1550:0.027777778 2137:0.027777778 #
-214.05215948357724187189887743443 190:0.03125 191:0.03125 608:0.03125 2858:0.03125 11775:0.03125 #
-416.31476097963854954286944121122 41:0.0098039219 50:0.0098039219 162:0.0098039219 214:0.0098039219 739:0.0098039219 881:0.0098039219 887:0.0098039219 1861:0.0098039219 1940:0.0098039219 7691:0.0098039219 8957:0.0098039219 11225:0.0098039219 11226:0.0098039219 11227:0.0098039219 #
-416.31476097963854954286944121122 60:0.027027028 90:0.027027028 3340:0.027027028 4724:0.027027028 7509:0.027027028 #
-416.31476097963854954286944121122 77:0.01369863 92:0.01369863 1238:0.01369863 1377:0.01369863 1463:0.01369863 2026:0.01369863 2769:0.01369863 3908:0.01369863 8040:0.01369863 #
221.43863024398152106186898890883 50:0.035714287 198:0.035714287 321:0.035714287 1949:0.035714287 4758:0.035714287 11926:0.035714287 #
416.31476097963854954286944121122 50:0.051282052 3830:0.025641026 10634:0.025641026 17869:0.025641026 #
-151.70297701435126214164483826607 193:0.014084507 1388:0.014084507 1479:0.014084507 1582:0.014084507 2247:0.014084507 2818:0.014084507 3648:0.014084507 3863:0.014084507 8672:0.014084507 10500:0.014084507 #
-344.72303115513136617664713412523 50:0.06666667 3140:0.06666667 4141:0.06666667 #
416.31476097963854954286944121122 41:0.045454547 1663:0.045454547 2175:0.045454547 18201:0.045454547 #
416.31476097963854954286944121122 501:0.015151516 502:0.015151516 1004:0.015151516 2787:0.015151516 5508:0.015151516 10898:0.015151516 17207:0.015151516 #
416.31476097963854954286944121122 149:0.025 185:0.025 2346:0.025 4656:0.025 14005:0.025 17875:0.025 #
-218.80923057005912824024562723935 662:0.03846154 682:0.03846154 1753:0.03846154 2630:0.03846154 #
-416.31476097963854954286944121122 13:0.039999999 834:0.039999999 1892:0.039999999 2816:0.039999999 #
-416.31476097963854954286944121122 321:0.033333335 1207:0.033333335 4890:0.033333335 5286:0.033333335 5555:0.033333335 #
-416.31476097963854954286944121122 360:0.032258064 1265:0.032258064 4768:0.032258064 9054:0.032258064 12031:0.032258064 #
416.31476097963854954286944121122 50:0.030303031 190:0.030303031 370:0.030303031 581:0.030303031 582:0.030303031 #
416.31476097963854954286944121122 50:0.045454547 580:0.045454547 1565:0.045454547 2054:0.045454547 #
307.52837660633008454169612377882 50:0.050000001 11899:0.050000001 17627:0.050000001 #
-416.31476097963854954286944121122 323:0.011494253 430:0.011494253 1337:0.011494253 1393:0.011494253 1769:0.011494253 1803:0.011494253 3656:0.011494253 3886:0.011494253 4094:0.011494253 8307:0.011494253 8308:0.011494253 12369:0.011494253 #
-173.31721683588602900272235274315 149:0.037037037 581:0.037037037 582:0.037037037 915:0.037037037 #
416.31476097963854954286944121122 82:0.016949153 896:0.016949153 1375:0.016949153 3953:0.016949153 4374:0.016949153 4474:0.016949153 #
293.29812728375719643736374564469 213:0.090909094 3140:0.090909094 #
416.31476097963854954286944121122 152:0.027027028 191:0.027027028 422:0.027027028 3129:0.027027028 16024:0.027027028 #
416.31476097963854954286944121122 191:0.055555556 2353:0.055555556 4376:0.055555556 #
416.31476097963854954286944121122 606:0.0078125 629:0.0078125 841:0.0078125 1028:0.0078125 1258:0.0078125 1995:0.0078125 4373:0.0078125 7889:0.0078125 10966:0.0078125 12041:0.0078125 14352:0.0078125 14398:0.0078125 14677:0.0078125 14678:0.0078125 14679:0.0078125 #
-416.31476097963854954286944121122 370:0.045454547 739:0.045454547 9409:0.045454547 #
-416.31476097963854954286944121122 3129:0.11111111 #
-416.31476097963854954286944121122 273:0.1 2353:0.1 #
-416.31476097963854954286944121122 191:0.010869565 651:0.010869565 1250:0.010869565 1726:0.010869565 2175:0.010869565 3100:0.010869565 5768:0.010869565 9509:0.010869565 11482:0.010869565 11483:0.010869565 11484:0.010869565 11485:0.010869565 #
416.31476097963854954286944121122 627:0.015151516 921:0.015151516 1177:0.015151516 1313:0.015151516 1386:0.015151516 1775:0.015151516 2674:0.015151516 8634:0.015151516 15026:0.015151516 #
-305.250189336275752793881110847 19:0.012345679 124:0.012345679 245:0.012345679 286:0.012345679 360:0.012345679 539:0.012345679 895:0.012345679 1038:0.012345679 1131:0.012345679 1774:0.012345679 13350:0.012345679 13351:0.012345679 #
416.31476097963854954286944121122 305:0.011904762 429:0.011904762 2345:0.011904762 2547:0.011904762 4480:0.011904762 5730:0.011904762 13392:0.011904762 14685:0.011904762 14686:0.011904762 14687:0.011904762 #
-249.73096086637454504852939862758 149:0.0625 1852:0.0625 4763:0.0625 #
-341.28706514466580301814246922731 149:0.05882353 1548:0.05882353 8452:0.05882353 #
-416.31476097963854954286944121122 149:0.011111111 453:0.011111111 511:0.011111111 638:0.011111111 865:0.011111111 877:0.011111111 878:0.022222223 887:0.011111111 1291:0.011111111 1292:0.011111111 1293:0.011111111 1294:0.011111111 1295:0.011111111 #
416.31476097963854954286944121122 50:0.039999999 546:0.039999999 682:0.039999999 2450:0.039999999 #
416.31476097963854954286944121122 307:0.018518519 509:0.018518519 710:0.018518519 739:0.018518519 3188:0.018518519 3261:0.018518519 13382:0.018518519 13973:0.018518519 #
-416.31476097963854954286944121122 93:0.045454547 94:0.045454547 #
-416.31476097963854954286944121122 9:0.022727273 50:0.022727273 541:0.022727273 796:0.022727273 1244:0.022727273 1322:0.022727273 1841:0.022727273 #
-416.31476097963854954286944121122 94:0.035714287 1156:0.035714287 2629:0.035714287 #
-312.64860946086650983488652855158 9:0.022222223 796:0.022222223 955:0.022222223 1332:0.022222223 2894:0.022222223 3834:0.022222223 9667:0.022222223 #
-416.31476097963854954286944121122 63:0.029411765 94:0.029411765 321:0.029411765 1904:0.029411765 #
-416.31476097963854954286944121122 657:0.007751938 658:0.007751938 659:0.007751938 660:0.007751938 661:0.007751938 662:0.007751938 663:0.007751938 664:0.007751938 665:0.007751938 666:0.007751938 667:0.007751938 668:0.007751938 669:0.007751938 670:0.007751938 671:0.007751938 #
193.62461144446766070359444711357 149:0.0625 1135:0.0625 6469:0.0625 #
-138.85072149870714497410517651588 1283:0.1 13448:0.1 #
-321.67170929435519610706251114607 149:0.050000001 838:0.050000001 1556:0.050000001 1987:0.050000001 #
-256.36280836682425388062256388366 149:0.050000001 214:0.050000001 720:0.050000001 2388:0.050000001 #
-416.31476097963854954286944121122 149:0.033333335 311:0.033333335 312:0.033333335 313:0.033333335 314:0.033333335 #
56.605423334279755920306342886761 1548:0.043478262 5975:0.043478262 17427:0.043478262 #
416.31476097963854954286944121122 41:0.02631579 336:0.02631579 487:0.02631579 1169:0.02631579 1852:0.02631579 16748:0.02631579 #
222.93297097123067374013771768659 196:0.02 452:0.02 643:0.02 915:0.02 1593:0.02 1601:0.02 2957:0.02 4071:0.02 #
198.23269598080025843955809250474 41:0.0071428572 149:0.0071428572 183:0.0071428572 430:0.014285714 865:0.0071428572 1283:0.0071428572 1335:0.0071428572 1453:0.0071428572 1551:0.0071428572 5047:0.0071428572 6025:0.0071428572 8168:0.0071428572 8909:0.0071428572 11647:0.0071428572 14467:0.0071428572 18799:0.0071428572 19339:0.0071428572 19340:0.0071428572 #
125.43807063687660274808877147734 2088:0.047619049 2096:0.047619049 19205:0.047619049 #
416.31476097963854954286944121122 50:0.011494253 152:0.011494253 378:0.011494253 1383:0.011494253 4942:0.011494253 5497:0.011494253 8186:0.011494253 8506:0.011494253 11263:0.011494253 12195:0.011494253 #
-416.31476097963854954286944121122 90:0.0078740157 566:0.0078740157 3017:0.0078740157 3449:0.0078740157 3450:0.0078740157 3451:0.0078740157 3452:0.0078740157 3453:0.0078740157 3454:0.0078740157 3455:0.0078740157 3456:0.0078740157 3457:0.0078740157 3458:0.0078740157 3459:0.0078740157 #
-416.31476097963854954286944121122 232:0.022727273 1028:0.022727273 3588:0.022727273 3589:0.022727273 #
416.31476097963854954286944121122 60:0.008547009 149:0.008547009 350:0.008547009 887:0.008547009 1164:0.008547009 1184:0.008547009 1332:0.008547009 2111:0.008547009 4157:0.008547009 6068:0.008547009 7857:0.008547009 7941:0.008547009 17069:0.008547009 18948:0.008547009 #
416.31476097963854954286944121122 137:0.047619049 149:0.047619049 354:0.047619049 808:0.047619049 #
324.78437055743654582329327240586 314:0.037037037 834:0.037037037 880:0.037037037 1892:0.037037037 #
262.90198635326993326088995672762 13:0.033333335 314:0.033333335 834:0.033333335 1892:0.033333335 3004:0.033333335 #
-416.31476097963854954286944121122 15:0.009615385 149:0.009615385 295:0.009615385 1687:0.009615385 1850:0.009615385 1879:0.009615385 3140:0.009615385 4140:0.009615385 4709:0.009615385 5375:0.009615385 7677:0.009615385 7678:0.009615385 8251:0.009615385 13213:0.009615385 #
-353.79294844223221616630326025188 643:0.050000001 1028:0.050000001 2071:0.050000001 #
-225.9200256215743820575880818069 1135:0.041666668 1136:0.041666668 1137:0.041666668 #
-416.31476097963854954286944121122 245:0.012048192 834:0.012048192 2584:0.012048192 3830:0.012048192 4987:0.012048192 6245:0.012048192 10125:0.012048192 10126:0.012048192 10127:0.012048192 10128:0.012048192 10129:0.012048192 #
66.828148841017750214632542338222 1169:0.090909094 14786:0.090909094 #
416.31476097963854954286944121122 39:0.028571429 90:0.028571429 128:0.028571429 1038:0.028571429 9917:0.028571429 15315:0.028571429 #
416.31476097963854954286944121122 16:0.012658228 149:0.012658228 238:0.012658228 311:0.012658228 608:0.012658228 677:0.012658228 1169:0.012658228 1351:0.012658228 3648:0.012658228 4058:0.012658228 7552:0.012658228 13975:0.012658228 #
-416.31476097963854954286944121122 149:0.032258064 370:0.032258064 608:0.032258064 1800:0.032258064 2146:0.032258064 #
416.31476097963854954286944121122 214:0.041666668 643:0.041666668 3340:0.041666668 11349:0.041666668 #
-416.31476097963854954286944121122 16:0.013333334 360:0.013333334 1235:0.013333334 2547:0.013333334 2959:0.013333334 3902:0.013333334 3972:0.013333334 8576:0.013333334 8577:0.013333334 #
-416.31476097963854954286944121122 81:0.010526316 445:0.010526316 545:0.010526316 864:0.010526316 1004:0.010526316 1861:0.010526316 2288:0.010526316 2730:0.010526316 3598:0.010526316 7077:0.010526316 7428:0.010526316 13403:0.010526316 #
-139.60828687428303851447708439082 128:0.057142857 152:0.028571429 344:0.028571429 1383:0.028571429 4020:0.028571429 4268:0.028571429 #
-172.29906176333136613720853347331 643:0.043478262 2276:0.043478262 4780:0.043478262 12085:0.043478262 #
-32.961981909748573116303305141628 669:0.055555556 782:0.055555556 1678:0.055555556 #
416.31476097963854954286944121122 370:0.028571429 1800:0.028571429 2271:0.028571429 2272:0.028571429 8329:0.028571429 9465:0.028571429 #
260.30099114969806350927683524787 149:0.01754386 545:0.01754386 1407:0.03508772 2353:0.01754386 3531:0.03508772 5056:0.01754386 11833:0.01754386 17926:0.01754386 #
65.583051960837693172834406141192 684:0.02 1602:0.02 3219:0.02 9334:0.02 14006:0.02 #
416.31476097963854954286944121122 320:0.02 990:0.02 2071:0.02 5895:0.02 13695:0.02 14605:0.02 #
416.31476097963854954286944121122 64:0.009615385 149:0.009615385 262:0.009615385 484:0.009615385 612:0.01923077 860:0.009615385 878:0.009615385 1724:0.009615385 2314:0.009615385 2620:0.009615385 2680:0.009615385 7435:0.009615385 8907:0.009615385 13653:0.009615385 18072:0.009615385 19571:0.009615385 #
-406.66321594423436636134283617139 79:0.021276595 149:0.021276595 314:0.021276595 427:0.021276595 956:0.021276595 1169:0.021276595 1605:0.021276595 #
-33.971984177727001963376096682623 149:0.027777778 335:0.027777778 580:0.027777778 677:0.027777778 2054:0.027777778 13366:0.027777778 #
-416.31476097963854954286944121122 39:0.028571429 41:0.028571429 149:0.028571429 273:0.028571429 322:0.028571429 541:0.028571429 3795:0.028571429 #
-416.31476097963854954286944121122 79:0.020833334 321:0.020833334 453:0.020833334 1427:0.020833334 4885:0.020833334 12557:0.020833334 12558:0.020833334 #
75.296120437341826914234843570739 321:0.071428575 643:0.071428575 1322:0.071428575 #
416.31476097963854954286944121122 46:0.018867925 149:0.018867925 408:0.018867925 523:0.018867925 896:0.018867925 2341:0.018867925 4519:0.018867925 13700:0.018867925 #
416.31476097963854954286944121122 241:0.016949153 245:0.016949153 643:0.016949153 802:0.016949153 877:0.016949153 2276:0.016949153 2610:0.016949153 5280:0.016949153 6537:0.016949153 11616:0.016949153 #
-416.31476097963854954286944121122 802:0.06666667 1806:0.06666667 #
-416.31476097963854954286944121122 36:0.014492754 682:0.014492754 831:0.014492754 1627:0.014492754 2003:0.014492754 3255:0.014492754 11392:0.014492754 11393:0.014492754 11394:0.014492754 11395:0.014492754 #
-328.47174611723335146962199360132 245:0.024390243 832:0.024390243 833:0.024390243 1783:0.024390243 2348:0.024390243 2349:0.024390243 2350:0.024390243 #
-416.31476097963854954286944121122 245:0.018181818 1332:0.018181818 2050:0.018181818 3315:0.018181818 6537:0.018181818 7294:0.018181818 7757:0.018181818 11616:0.018181818 #
416.31476097963854954286944121122 129:0.010752688 146:0.010752688 149:0.010752688 198:0.010752688 229:0.010752688 273:0.010752688 322:0.010752688 561:0.010752688 1211:0.010752688 1733:0.010752688 1953:0.010752688 2541:0.010752688 2941:0.010752688 2944:0.010752688 5981:0.010752688 #
-39.477556511196866040336317382753 455:0.014084507 606:0.014084507 711:0.014084507 774:0.014084507 810:0.014084507 811:0.014084507 812:0.014084507 813:0.014084507 814:0.014084507 815:0.014084507 #
416.31476097963854954286944121122 149:0.0090909088 152:0.0090909088 232:0.0090909088 739:0.0090909088 1141:0.0090909088 3400:0.0090909088 4586:0.0090909088 6128:0.0090909088 8040:0.0090909088 13834:0.0090909088 17054:0.0090909088 17055:0.0090909088 #
-416.31476097963854954286944121122 149:0.044117648 203:0.029411765 384:0.014705882 834:0.014705882 865:0.014705882 1015:0.014705882 1383:0.014705882 1774:0.014705882 2928:0.014705882 10912:0.014705882 #
-280.34833240042507895850576460361 71:0.025 203:0.025 272:0.025 10554:0.025 10555:0.025 10556:0.025 #
-416.31476097963854954286944121122 452:0.0076335878 602:0.0076335878 718:0.0076335878 1448:0.0076335878 2039:0.0076335878 2163:0.0076335878 2370:0.0076335878 2374:0.0076335878 2525:0.0076335878 3170:0.0076335878 4780:0.0076335878 5060:0.0076335878 6113:0.0076335878 9908:0.0076335878 10909:0.0076335878 10910:0.0076335878 10911:0.0076335878 #
-329.31682783220873034224496223032 149:0.032258064 190:0.032258064 214:0.032258064 1205:0.032258064 1272:0.032258064 1548:0.032258064 #
416.31476097963854954286944121122 50:0.029411765 245:0.029411765 430:0.029411765 2244:0.029411765 18585:0.029411765 18586:0.029411765 #
416.31476097963854954286944121122 128:0.019607844 169:0.019607844 203:0.019607844 245:0.019607844 416:0.019607844 430:0.019607844 516:0.019607844 11443:0.019607844 #
-322.9324762700256314928992651403 245:0.039999999 430:0.039999999 1450:0.039999999 3261:0.039999999 3262:0.039999999 #
7.7161752157461398482496406359132 3595:0.012658228 6303:0.012658228 7242:0.025316456 9946:0.012658228 11887:0.012658228 13580:0.012658228 13581:0.012658228 13582:0.012658228 #
-416.31476097963854954286944121122 50:0.029411765 129:0.029411765 1741:0.029411765 6020:0.029411765 10162:0.029411765 #
416.31476097963854954286944121122 149:0.047619049 832:0.047619049 833:0.047619049 2886:0.047619049 #
416.31476097963854954286944121122 959:0.015873017 1817:0.015873017 1854:0.015873017 2169:0.015873017 2461:0.015873017 3618:0.015873017 18875:0.015873017 #
-266.98392848096040097516379319131 149:0.045454547 3888:0.045454547 4584:0.045454547 5448:0.045454547 #
-416.31476097963854954286944121122 149:0.035714287 203:0.017857144 245:0.017857144 3529:0.017857144 4308:0.017857144 6404:0.017857144 11424:0.017857144 11425:0.017857144 #
-416.31476097963854954286944121122 149:0.041666668 939:0.041666668 11842:0.041666668 #
416.31476097963854954286944121122 196:0.026666667 344:0.013333334 384:0.013333334 500:0.013333334 771:0.013333334 838:0.013333334 3377:0.013333334 5423:0.013333334 5656:0.013333334 13958:0.013333334 13959:0.013333334 #
416.31476097963854954286944121122 50:0.015384615 152:0.015384615 453:0.015384615 1091:0.015384615 1098:0.015384615 2352:0.015384615 4089:0.015384615 7432:0.015384615 10079:0.015384615 #
416.31476097963854954286944121122 50:0.015625 453:0.015625 1091:0.015625 1156:0.015625 1584:0.015625 2561:0.015625 3504:0.015625 17136:0.015625 #
333.80941032673001700459280982614 1354:0.039999999 3301:0.039999999 13768:0.039999999 #
416.31476097963854954286944121122 1015:0.083333336 1026:0.083333336 #
-416.31476097963854954286944121122 50:0.022727273 191:0.022727273 2886:0.045454547 4806:0.022727273 10449:0.022727273 #
-416.31476097963854954286944121122 41:0.033333335 238:0.033333335 9034:0.033333335 9274:0.033333335 #
-8.9469448824533657216306892223656 41:0.052631579 3250:0.052631579 8607:0.052631579 #
-176.24970817846502768588834442198 671:0.03846154 2885:0.03846154 2886:0.03846154 2887:0.03846154 #
-416.31476097963854954286944121122 234:0.013157895 511:0.013157895 1725:0.013157895 2131:0.013157895 2680:0.013157895 3639:0.013157895 4855:0.013157895 5078:0.013157895 8214:0.013157895 11349:0.013157895 11350:0.013157895 #
224.81897729164253973976883571595 149:0.0089285718 890:0.0089285718 946:0.0089285718 5572:0.017857144 5662:0.0089285718 6314:0.0089285718 6542:0.0089285718 8700:0.0089285718 8910:0.017857144 9761:0.0089285718 13609:0.0089285718 17733:0.0089285718 #
-416.31476097963854954286944121122 321:0.010204081 606:0.010204081 998:0.010204081 1241:0.010204081 5192:0.010204081 8735:0.010204081 9742:0.010204081 9743:0.010204081 9744:0.010204081 9745:0.010204081 9746:0.010204081 9747:0.010204081 #
-272.16046117398940396014950238168 50:0.025641026 90:0.025641026 149:0.025641026 295:0.025641026 7689:0.025641026 8283:0.025641026 #
-416.31476097963854954286944121122 90:0.022222223 149:0.022222223 607:0.022222223 3901:0.022222223 4406:0.022222223 4758:0.022222223 4759:0.022222223 #
-416.31476097963854954286944121122 2:0.025641026 149:0.025641026 196:0.025641026 1453:0.025641026 2439:0.025641026 8033:0.025641026 #
377.27654143495482230719062499702 170:0.1 4308:0.1 #
249.822056250446962621936108917 203:0.045454547 720:0.045454547 2119:0.045454547 17131:0.045454547 #
416.31476097963854954286944121122 196:0.013157895 214:0.013157895 739:0.013157895 786:0.013157895 860:0.013157895 915:0.013157895 2364:0.013157895 2564:0.013157895 3140:0.013157895 5107:0.013157895 9946:0.013157895 13744:0.013157895 13745:0.013157895 #
416.31476097963854954286944121122 939:0.043478262 5537:0.043478262 #
-416.31476097963854954286944121122 273:0.016129032 953:0.016129032 1584:0.016129032 1972:0.016129032 3151:0.016129032 3152:0.016129032 3283:0.016129032 4819:0.016129032 5089:0.016129032 #
-416.31476097963854954286944121122 157:0.034482758 221:0.034482758 2119:0.034482758 4552:0.034482758 8364:0.034482758 #
-250.1222551862124987565039191395 602:0.035714287 2119:0.035714287 4656:0.035714287 12669:0.035714287 #
-168.14086109602999385970178991556 157:0.071428575 2283:0.071428575 2284:0.071428575 #
416.31476097963854954286944121122 149:0.030303031 191:0.030303031 1453:0.030303031 4149:0.030303031 13377:0.030303031 #
139.99980007614482246935949660838 41:0.011111111 535:0.011111111 1028:0.011111111 2739:0.011111111 5776:0.011111111 6240:0.011111111 8019:0.011111111 13183:0.011111111 19685:0.011111111 #
380.84338672767233902050065807998 41:0.009615385 149:0.01923077 282:0.009615385 656:0.009615385 2003:0.009615385 2263:0.009615385 3071:0.009615385 3976:0.009615385 4170:0.009615385 4208:0.009615385 4210:0.009615385 4556:0.009615385 6280:0.009615385 #
416.31476097963854954286944121122 149:0.037037037 210:0.037037037 241:0.037037037 1980:0.037037037 6686:0.037037037 #
4.8109726224159601315477630123496 44:0.022727273 149:0.045454547 321:0.022727273 1335:0.022727273 3656:0.022727273 3912:0.022727273 3913:0.022727273 #
-416.31476097963854954286944121122 484:0.033333335 4308:0.033333335 7748:0.033333335 7749:0.033333335 #
-416.31476097963854954286944121122 149:0.019607844 191:0.039215688 1252:0.019607844 2582:0.019607844 6006:0.019607844 6076:0.019607844 7309:0.019607844 #
-416.31476097963854954286944121122 308:0.019607844 323:0.019607844 459:0.019607844 484:0.019607844 485:0.019607844 2460:0.019607844 2461:0.019607844 4850:0.019607844 #
-416.31476097963854954286944121122 149:0.02 484:0.02 739:0.02 2629:0.02 11064:0.02 12022:0.02 12875:0.02 #
234.37243757565693158539943397045 273:0.027777778 580:0.027777778 990:0.027777778 1630:0.027777778 4215:0.027777778 9223:0.027777778 #
416.31476097963854954286944121122 443:0.02631579 600:0.02631579 953:0.02631579 1665:0.02631579 1972:0.02631579 2131:0.02631579 #
416.31476097963854954286944121122 50:0.0125 273:0.0125 500:0.0125 802:0.0125 1739:0.0125 1972:0.0125 3964:0.0125 10942:0.0125 16715:0.0125 16716:0.0125 #
416.31476097963854954286944121122 50:0.020833334 701:0.020833334 2064:0.020833334 3151:0.020833334 3152:0.020833334 3860:0.020833334 5558:0.020833334 13171:0.020833334 #
-416.31476097963854954286944121122 50:0.035714287 183:0.035714287 999:0.035714287 1309:0.035714287 #
416.31476097963854954286944121122 50:0.014084507 2135:0.014084507 3833:0.014084507 6313:0.014084507 7437:0.014084507 11559:0.014084507 13499:0.014084507 13500:0.014084507 13501:0.014084507 #
13.836697587952089705254365981091 484:0.039999999 485:0.039999999 1254:0.039999999 3105:0.039999999 #
416.31476097963854954286944121122 203:0.0073529412 273:0.0073529412 1021:0.0073529412 1737:0.0073529412 1831:0.0073529412 2547:0.0073529412 2556:0.014705882 3818:0.0073529412 4358:0.0073529412 5080:0.0073529412 5281:0.0073529412 8113:0.0073529412 9216:0.0073529412 10702:0.0073529412 13895:0.0073529412 16082:0.0073529412 17841:0.0073529412 19253:0.0073529412 #
-416.31476097963854954286944121122 295:0.010526316 567:0.010526316 1854:0.010526316 2143:0.010526316 2258:0.010526316 3270:0.010526316 4354:0.010526316 6311:0.010526316 7704:0.010526316 7832:0.010526316 12740:0.010526316 12741:0.010526316 #
-49.124312685773780629006068920717 149:0.020408163 245:0.020408163 808:0.020408163 844:0.020408163 1038:0.020408163 1254:0.020408163 3852:0.020408163 8964:0.020408163 #
-28.092180623052481536205959855579 485:0.027777778 1332:0.027777778 2064:0.027777778 2875:0.027777778 2934:0.027777778 2939:0.027777778 #
416.31476097963854954286944121122 15:0.034482758 50:0.034482758 308:0.034482758 1155:0.034482758 8085:0.034482758 #
416.31476097963854954286944121122 2:0.03125 196:0.03125 459:0.03125 607:0.03125 608:0.03125 4071:0.03125 #
416.31476097963854954286944121122 50:0.028571429 393:0.028571429 2161:0.028571429 2283:0.028571429 13612:0.028571429 #
-416.31476097963854954286944121122 50:0.02 580:0.02 758:0.02 877:0.02 1021:0.02 2244:0.02 3738:0.02 4312:0.02 12295:0.02 12296:0.02 #
-130.04842989108246342766506131738 15:0.037037037 79:0.037037037 2308:0.037037037 10465:0.037037037 10466:0.037037037 #
-416.31476097963854954286944121122 50:0.028571429 487:0.028571429 617:0.028571429 1437:0.028571429 1607:0.028571429 #
366.90132394296711026981938630342 50:0.016393442 737:0.016393442 796:0.016393442 834:0.016393442 1733:0.016393442 2916:0.016393442 3708:0.016393442 18463:0.016393442 #
416.31476097963854954286944121122 149:0.016666668 193:0.016666668 636:0.016666668 999:0.016666668 1819:0.016666668 2124:0.016666668 2773:0.016666668 8663:0.016666668 17878:0.016666668 #
416.31476097963854954286944121122 183:0.021276595 273:0.021276595 323:0.04255319 6464:0.04255319 12065:0.04255319 17642:0.021276595 #
416.31476097963854954286944121122 245:0.029850746 330:0.014925373 872:0.014925373 1783:0.014925373 2104:0.014925373 2131:0.014925373 2978:0.014925373 2999:0.014925373 5646:0.014925373 7947:0.014925373 17901:0.014925373 #
-416.31476097963854954286944121122 337:0.019607844 832:0.019607844 833:0.019607844 834:0.019607844 835:0.019607844 836:0.019607844 837:0.019607844 838:0.019607844 839:0.019607844 #
-248.22765868478589368351094890386 66:0.071428575 1326:0.071428575 2773:0.071428575 #
-416.31476097963854954286944121122 67:0.027777778 152:0.027777778 608:0.055555556 2196:0.027777778 7558:0.027777778 #
-395.34873725353077134059276431799 833:0.035714287 1155:0.035714287 5992:0.035714287 10761:0.035714287 #
-292.2773200670084179364494048059 608:0.034482758 833:0.034482758 1112:0.034482758 13187:0.034482758 #
416.31476097963854954286944121122 50:0.037037037 487:0.037037037 2677:0.037037037 2791:0.037037037 #
416.31476097963854954286944121122 50:0.02631579 193:0.02631579 1437:0.02631579 1607:0.02631579 4252:0.02631579 4811:0.02631579 #
-416.31476097963854954286944121122 16:0.0052083335 43:0.0052083335 50:0.0052083335 485:0.0052083335 581:0.0052083335 668:0.0052083335 723:0.0052083335 1216:0.0052083335 1791:0.0052083335 3205:0.0052083335 4381:0.0052083335 4685:0.0052083335 6388:0.0052083335 7336:0.0052083335 7617:0.0052083335 9325:0.0052083335 12631:0.0052083335 12632:0.0052083335 12633:0.0052083335 12634:0.0052083335 12635:0.0052083335 12636:0.0052083335 12637:0.0052083335 12638:0.0052083335 12639:0.0052083335 #
-416.31476097963854954286944121122 50:0.014084507 137:0.014084507 203:0.014084507 210:0.014084507 244:0.014084507 264:0.014084507 346:0.014084507 408:0.014084507 459:0.014084507 739:0.014084507 11747:0.014084507 11748:0.014084507 #
-416.31476097963854954286944121122 50:0.030303031 191:0.030303031 1086:0.030303031 1654:0.030303031 4692:0.030303031 #
416.31476097963854954286944121122 172:0.025641026 617:0.025641026 1844:0.025641026 8702:0.025641026 14958:0.025641026 #
416.31476097963854954286944121122 8:0.033333335 43:0.033333335 580:0.033333335 17549:0.033333335 #
296.28600628048621956622810102999 860:0.034482758 1806:0.034482758 2629:0.034482758 3961:0.034482758 #
262.5880224729173733067000284791 420:0.0625 836:0.0625 5718:0.0625 #
416.31476097963854954286944121122 198:0.018518519 580:0.018518519 791:0.018518519 1074:0.018518519 1375:0.018518519 1894:0.018518519 9014:0.018518519 17389:0.018518519 #
-416.31476097963854954286944121122 149:0.022222223 452:0.022222223 1593:0.022222223 2335:0.022222223 3643:0.022222223 3644:0.022222223 3645:0.022222223 #
-416.31476097963854954286944121122 41:0.018518519 42:0.018518519 43:0.018518519 44:0.018518519 45:0.018518519 46:0.018518519 47:0.018518519 48:0.018518519 #
-25.25266981315867198532032489311 89:0.027777778 90:0.027777778 149:0.027777778 643:0.027777778 1630:0.027777778 7570:0.027777778 #
-416.31476097963854954286944121122 152:0.0093457941 245:0.0093457941 282:0.0093457941 322:0.0093457941 427:0.0093457941 968:0.0093457941 1383:0.0093457941 1400:0.0093457941 1401:0.0093457941 1402:0.0093457941 1403:0.0093457941 1404:0.0093457941 1405:0.0093457941 1406:0.0093457941 1407:0.0093457941 1408:0.0093457941 #
416.31476097963854954286944121122 50:0.035714287 322:0.035714287 547:0.035714287 739:0.035714287 9034:0.035714287 #
416.31476097963854954286944121122 50:0.039999999 88:0.039999999 186:0.039999999 245:0.039999999 #
-416.31476097963854954286944121122 547:0.125 #
-366.19667210304436366641311906278 90:0.021276595 148:0.021276595 186:0.04255319 228:0.021276595 1982:0.021276595 5976:0.021276595 9884:0.021276595 #
416.31476097963854954286944121122 335:0.017241379 408:0.017241379 551:0.017241379 681:0.017241379 1130:0.017241379 3208:0.017241379 3669:0.017241379 #
61.788434371416663282161607639864 1086:0.039999999 1313:0.039999999 1326:0.039999999 14352:0.039999999 #
416.31476097963854954286944121122 32:0.013157895 157:0.013157895 191:0.039473683 934:0.013157895 3773:0.013157895 8739:0.013157895 13859:0.013157895 14213:0.013157895 14214:0.013157895 #
416.31476097963854954286944121122 92:0.018181818 162:0.018181818 408:0.036363635 1092:0.018181818 2722:0.018181818 10838:0.018181818 13627:0.018181818 #
416.31476097963854954286944121122 149:0.012195121 193:0.012195121 337:0.012195121 473:0.012195121 834:0.012195121 835:0.012195121 1483:0.012195121 9942:0.012195121 14310:0.012195121 16303:0.012195121 19197:0.012195121 #
-416.31476097963854954286944121122 9:0.018181818 128:0.018181818 129:0.018181818 130:0.018181818 131:0.018181818 132:0.018181818 133:0.018181818 134:0.018181818 #
-416.31476097963854954286944121122 124:0.014705882 245:0.014705882 385:0.014705882 386:0.014705882 387:0.014705882 580:0.014705882 990:0.044117648 2054:0.014705882 10068:0.014705882 #
-54.35199012718315003667157725431 3773:0.14285715 #
-395.33705933491154382863896898925 814:0.039999999 1920:0.039999999 2658:0.039999999 12065:0.039999999 #
416.31476097963854954286944121122 90:0.034482758 346:0.034482758 739:0.034482758 2012:0.034482758 2502:0.034482758 #
-334.65051201091517896202276460826 739:0.050000001 1840:0.050000001 4156:0.050000001 #
416.31476097963854954286944121122 124:0.040816326 157:0.020408163 228:0.020408163 252:0.020408163 607:0.020408163 669:0.020408163 3738:0.020408163 15843:0.020408163 #
371.09523325700268969740136526525 41:0.030303031 94:0.015151516 547:0.015151516 608:0.030303031 1272:0.015151516 1663:0.015151516 2957:0.030303031 14855:0.015151516 #
416.31476097963854954286944121122 50:0.027777778 89:0.027777778 538:0.027777778 835:0.027777778 3738:0.027777778 19553:0.027777778 #
416.31476097963854954286944121122 53:0.017857144 228:0.017857144 252:0.017857144 273:0.017857144 541:0.017857144 740:0.017857144 1309:0.017857144 16571:0.017857144 #
279.21889249357053586209076456726 228:0.015151516 608:0.015151516 2035:0.015151516 2582:0.015151516 2584:0.015151516 3335:0.015151516 4865:0.015151516 5596:0.015151516 8558:0.015151516 18906:0.015151516 #
-354.99725433938846208548056893051 551:0.041666668 835:0.041666668 934:0.041666668 3033:0.041666668 #
-416.31476097963854954286944121122 90:0.03125 91:0.03125 92:0.03125 846:0.03125 #
-416.31476097963854954286944121122 9:0.013888889 326:0.013888889 484:0.013888889 487:0.013888889 541:0.013888889 1596:0.013888889 4693:0.013888889 5284:0.013888889 9770:0.013888889 #
416.31476097963854954286944121122 191:0.033333335 739:0.033333335 832:0.033333335 833:0.033333335 8208:0.033333335 #
416.31476097963854954286944121122 60:0.052631579 739:0.052631579 1139:0.052631579 #
-416.31476097963854954286944121122 191:0.0125 758:0.0125 947:0.0125 1435:0.0125 3219:0.0125 3464:0.0125 4452:0.0125 4453:0.0125 4454:0.0125 4455:0.0125 4456:0.0125 #
-416.31476097963854954286944121122 60:0.017857144 88:0.017857144 124:0.017857144 739:0.017857144 2405:0.017857144 3919:0.017857144 6258:0.017857144 12691:0.017857144 #
-174.35367882453101628925651311874 41:0.023809524 739:0.023809524 1437:0.023809524 1587:0.023809524 2598:0.023809524 9000:0.023809524 #
416.31476097963854954286944121122 64:0.022222223 67:0.022222223 78:0.022222223 315:0.022222223 5369:0.022222223 5588:0.022222223 #
364.81399478185448970180004835129 1403:0.025 3164:0.025 10859:0.025 14226:0.025 19776:0.025 19777:0.025 #
416.31476097963854954286944121122 50:0.023255814 326:0.023255814 835:0.023255814 1021:0.023255814 2531:0.023255814 2985:0.023255814 4308:0.023255814 #
29.833225487439200662720395484939 149:0.022727273 320:0.022727273 1407:0.022727273 1548:0.022727273 2471:0.022727273 4466:0.022727273 13609:0.022727273 #
416.31476097963854954286944121122 149:0.011904762 186:0.023809524 295:0.011904762 782:0.011904762 1434:0.011904762 1850:0.011904762 9888:0.011904762 11336:0.011904762 16027:0.011904762 17394:0.011904762 17395:0.011904762 #
-341.5440139362224272190360352397 92:0.018867925 682:0.018867925 6135:0.018867925 8071:0.018867925 8072:0.018867925 8073:0.018867925 #
-113.01878968297882011029287241399 229:0.055555556 538:0.055555556 5927:0.055555556 #
-199.75429563060998816581559367478 1670:0.020408163 3342:0.020408163 4506:0.020408163 8625:0.020408163 11517:0.020408163 #
416.31476097963854954286944121122 61:0.015873017 440:0.015873017 673:0.015873017 739:0.015873017 887:0.015873017 1852:0.015873017 2050:0.015873017 4334:0.015873017 5328:0.015873017 #
276.21806269175704073859378695488 124:0.052631579 2924:0.052631579 3773:0.052631579 #
416.31476097963854954286944121122 547:0.023809524 739:0.023809524 1239:0.023809524 4008:0.023809524 9048:0.023809524 15392:0.023809524 #
-301.79010323836831730659469030797 1239:0.2 #
-185.29906222366435031290166079998 643:0.02 2189:0.02 3310:0.02 3625:0.02 4209:0.02 4254:0.02 7490:0.02 #
-416.31476097963854954286944121122 149:0.018518519 321:0.018518519 422:0.018518519 2023:0.018518519 3118:0.018518519 3140:0.018518519 4334:0.018518519 4874:0.018518519 #
416.31476097963854954286944121122 90:0.011235955 245:0.011235955 1259:0.02247191 1601:0.011235955 2187:0.011235955 2278:0.011235955 2581:0.02247191 3261:0.02247191 6295:0.011235955 7558:0.011235955 7759:0.011235955 19421:0.011235955 #
416.31476097963854954286944121122 67:0.050000001 1448:0.050000001 2353:0.050000001 #
416.31476097963854954286944121122 796:0.017857144 1317:0.017857144 1654:0.017857144 2405:0.017857144 6258:0.017857144 8546:0.017857144 15405:0.017857144 18986:0.017857144 #
-416.31476097963854954286944121122 1299:0.0625 2353:0.0625 #
-416.31476097963854954286944121122 124:0.012987013 193:0.012987013 511:0.012987013 606:0.012987013 774:0.012987013 1054:0.012987013 1237:0.038961038 1502:0.012987013 1889:0.012987013 3795:0.012987013 4366:0.012987013 #
-339.25969437208607359934831038117 739:0.017241379 1052:0.017241379 1850:0.017241379 1858:0.017241379 4376:0.017241379 7814:0.017241379 7815:0.017241379 #
-416.31476097963854954286944121122 548:0.01923077 789:0.01923077 834:0.01923077 1252:0.01923077 2164:0.01923077 3947:0.01923077 4811:0.01923077 #
412.02442239992626582534285262227 92:0.033333335 838:0.033333335 2769:0.033333335 3140:0.033333335 #
267.90984516150075478435610421002 515:0.00729927 834:0.00729927 1273:0.00729927 2424:0.00729927 3468:0.00729927 6133:0.00729927 7240:0.00729927 7915:0.00729927 8784:0.00729927 9143:0.00729927 9800:0.00729927 10225:0.00729927 14236:0.00729927 16054:0.00729927 19360:0.00729927 19361:0.00729927 19362:0.00729927 #
416.31476097963854954286944121122 321:0.0125 1207:0.0125 1323:0.0125 1727:0.0125 2390:0.0125 3140:0.0125 3323:0.0125 4934:0.0125 6704:0.0125 6802:0.0125 7322:0.0125 7463:0.0125 #
416.31476097963854954286944121122 64:0.016129032 238:0.016129032 498:0.016129032 739:0.016129032 989:0.016129032 1596:0.016129032 7525:0.016129032 8276:0.016129032 16470:0.016129032 #
314.75206081289348958307527936995 124:0.02631579 548:0.02631579 2572:0.02631579 7150:0.02631579 10502:0.02631579 11811:0.02631579 #
-248.15250119354607249988475814462 149:0.03125 197:0.0625 3140:0.0625 #
-416.31476097963854954286944121122 92:0.022222223 162:0.022222223 865:0.022222223 5903:0.022222223 8204:0.022222223 8205:0.022222223 #
-416.31476097963854954286944121122 81:0.018867925 578:0.018867925 704:0.018867925 1696:0.018867925 1999:0.018867925 4071:0.018867925 5048:0.018867925 6113:0.018867925 #
416.31476097963854954286944121122 9:0.041666668 50:0.041666668 2687:0.041666668 #
-317.34893082238596662136842496693 29:0.017241379 41:0.017241379 191:0.017241379 603:0.017241379 6147:0.017241379 9418:0.017241379 9419:0.017241379 #
348.04992685934047358387033455074 77:0.037037037 1733:0.037037037 2026:0.037037037 13672:0.037037037 #
225.79968300037458561746461782604 408:0.022727273 541:0.045454547 1839:0.022727273 4431:0.022727273 13827:0.022727273 #
416.31476097963854954286944121122 429:0.018867925 757:0.018867925 2096:0.018867925 2862:0.018867925 3070:0.018867925 3773:0.018867925 4228:0.018867925 5998:0.018867925 #
416.31476097963854954286944121122 162:0.018181818 541:0.018181818 853:0.018181818 1858:0.018181818 3596:0.018181818 13521:0.018181818 16230:0.018181818 #
416.31476097963854954286944121122 516:0.014285714 545:0.014285714 796:0.014285714 925:0.014285714 1480:0.014285714 1819:0.014285714 2023:0.014285714 2563:0.014285714 5572:0.014285714 14015:0.014285714 #
-416.31476097963854954286944121122 580:0.021276595 860:0.021276595 2601:0.021276595 3405:0.021276595 5375:0.021276595 6422:0.021276595 6599:0.021276595 #
-416.31476097963854954286944121122 149:0.01369863 284:0.01369863 318:0.01369863 673:0.01369863 1742:0.01369863 2232:0.01369863 3069:0.01369863 3070:0.01369863 3071:0.01369863 3072:0.01369863 #
-406.78068614198991781449876725674 64:0.022727273 161:0.022727273 580:0.022727273 3818:0.022727273 8109:0.022727273 8110:0.022727273 #
-416.31476097963854954286944121122 718:0.02631579 2687:0.02631579 5481:0.02631579 #
-213.16408432235078862504451535642 325:0.035714287 580:0.035714287 2821:0.035714287 2822:0.035714287 2823:0.035714287 #
416.31476097963854954286944121122 9:0.090909094 50:0.090909094 #
416.31476097963854954286944121122 197:0.021276595 336:0.021276595 2957:0.021276595 4607:0.021276595 5831:0.021276595 11913:0.021276595 #
-416.31476097963854954286944121122 662:0.037037037 3825:0.037037037 4497:0.037037037 #
-416.31476097963854954286944121122 50:0.018867925 1021:0.018867925 1244:0.018867925 3283:0.018867925 3657:0.018867925 8893:0.018867925 9270:0.018867925 9271:0.018867925 #
-416.31476097963854954286944121122 1244:0.01754386 2271:0.01754386 3014:0.01754386 6083:0.01754386 7162:0.01754386 8220:0.01754386 9046:0.01754386 11702:0.01754386 #
-416.31476097963854954286944121122 9:0.034482758 757:0.034482758 2360:0.034482758 2556:0.034482758 3935:0.034482758 #
416.31476097963854954286944121122 718:0.090909094 #
416.31476097963854954286944121122 345:0.016666668 459:0.016666668 796:0.016666668 1662:0.016666668 1733:0.016666668 2522:0.016666668 2928:0.016666668 4552:0.016666668 10066:0.016666668 #
416.31476097963854954286944121122 273:0.010416667 426:0.020833334 707:0.010416667 1141:0.010416667 1644:0.010416667 1733:0.010416667 2161:0.010416667 3261:0.010416667 4042:0.010416667 6763:0.010416667 7019:0.010416667 9114:0.010416667 #
416.31476097963854954286944121122 308:0.020408163 852:0.020408163 1733:0.020408163 1783:0.020408163 2723:0.020408163 11541:0.020408163 13269:0.020408163 #
416.31476097963854954286944121122 413:0.011235955 718:0.011235955 835:0.011235955 905:0.011235955 1556:0.011235955 2068:0.011235955 2338:0.011235955 2573:0.011235955 3773:0.011235955 4119:0.011235955 4825:0.011235955 5574:0.011235955 8007:0.011235955 #
-189.68274253618994862335966899991 149:0.045454547 796:0.045454547 1556:0.045454547 11237:0.045454547 #
-416.31476097963854954286944121122 245:0.028571429 665:0.028571429 852:0.028571429 1074:0.028571429 1903:0.028571429 4412:0.028571429 11900:0.028571429 #
-416.31476097963854954286944121122 835:0.029411765 957:0.029411765 2502:0.029411765 2604:0.029411765 2605:0.029411765 2606:0.029411765 #
-416.31476097963854954286944121122 345:0.015625 739:0.015625 1308:0.015625 1313:0.015625 1314:0.015625 1315:0.015625 1316:0.015625 1317:0.015625 1318:0.015625 #
-416.31476097963854954286944121122 171:0.037037037 796:0.037037037 1556:0.037037037 6835:0.037037037 #
32.042795498453166658237023511901 934:0.083333336 3657:0.083333336 #
416.31476097963854954286944121122 15:0.012195121 92:0.012195121 284:0.012195121 541:0.012195121 560:0.012195121 1733:0.012195121 1844:0.012195121 2144:0.012195121 4411:0.012195121 5307:0.012195121 10743:0.012195121 #
416.31476097963854954286944121122 955:0.045454547 2164:0.045454547 3935:0.045454547 #
398.0724228214485833632352296263 43:0.022222223 193:0.022222223 203:0.022222223 204:0.022222223 956:0.022222223 2556:0.022222223 7680:0.022222223 #
-416.31476097963854954286944121122 49:0.0075187972 64:0.0075187972 191:0.0075187972 344:0.0075187972 430:0.0075187972 608:0.0075187972 872:0.0075187972 899:0.0075187972 1327:0.0075187972 1903:0.0075187972 2152:0.0075187972 2276:0.0075187972 3251:0.0075187972 5742:0.0075187972 6060:0.0075187972 6663:0.0075187972 7966:0.0075187972 9594:0.0075187972 10993:0.0075187972 10994:0.0075187972 #
-416.31476097963854954286944121122 1816:0.023255814 2175:0.023255814 2556:0.046511628 3095:0.023255814 3096:0.023255814 #
243.58890320901116410823306068778 92:0.027027028 3476:0.027027028 4497:0.027027028 13498:0.027027028 #
-416.31476097963854954286944121122 50:0.011235955 53:0.011235955 81:0.011235955 172:0.011235955 305:0.011235955 426:0.011235955 445:0.011235955 1358:0.011235955 4832:0.011235955 4833:0.011235955 4834:0.011235955 4835:0.011235955 #
-196.10410846582522026437800377607 191:0.025 718:0.025 1665:0.025 2342:0.025 #
-151.84588120254414889132021926343 90:0.013157895 241:0.013157895 245:0.013157895 430:0.013157895 477:0.013157895 1254:0.013157895 3883:0.013157895 7451:0.013157895 7861:0.013157895 10544:0.013157895 10545:0.013157895 #
-398.69383606356069549292442388833 1141:0.024390243 3369:0.024390243 3961:0.024390243 5588:0.024390243 9981:0.024390243 #
-416.31476097963854954286944121122 535:0.0078125 636:0.0078125 847:0.0078125 1237:0.0078125 1564:0.0078125 1769:0.0078125 2308:0.0078125 2730:0.0078125 3219:0.0078125 4141:0.0078125 4247:0.0078125 6991:0.0078125 9684:0.0078125 10453:0.0078125 13364:0.0078125 13365:0.0078125 #
416.31476097963854954286944121122 41:0.016666668 245:0.016666668 2004:0.016666668 6755:0.016666668 16333:0.016666668 16744:0.016666668 16745:0.016666668 #
229.47091272695428187944344244897 796:0.0625 6355:0.0625 #
416.31476097963854954286944121122 580:0.02631579 739:0.02631579 990:0.02631579 1556:0.02631579 4837:0.02631579 11110:0.02631579 18507:0.02631579 #
416.31476097963854954286944121122 137:0.0099999998 149:0.0099999998 322:0.0099999998 449:0.0099999998 1021:0.0099999998 2190:0.0099999998 2281:0.0099999998 2388:0.0099999998 3947:0.0099999998 5612:0.0099999998 8440:0.0099999998 9095:0.0099999998 11393:0.0099999998 16711:0.0099999998 16723:0.0099999998 #
-331.98219183941523624525871127844 2003:0.083333336 3479:0.083333336 #
-416.31476097963854954286944121122 46:0.022727273 50:0.022727273 408:0.022727273 739:0.022727273 846:0.022727273 4411:0.022727273 9573:0.022727273 #
-416.31476097963854954286944121122 9:0.017857144 149:0.017857144 193:0.017857144 796:0.017857144 2374:0.017857144 2375:0.017857144 2376:0.017857144 2377:0.017857144 #
416.31476097963854954286944121122 1244:0.041666668 4334:0.041666668 5555:0.041666668 #
416.31476097963854954286944121122 445:0.024390243 1054:0.024390243 1612:0.024390243 3748:0.024390243 5404:0.024390243 6064:0.024390243 #
416.31476097963854954286944121122 1502:0.022222223 1816:0.022222223 16094:0.022222223 16780:0.022222223 16781:0.022222223 #
416.31476097963854954286944121122 39:0.021276595 191:0.021276595 1237:0.021276595 1319:0.021276595 2244:0.021276595 5209:0.021276595 7140:0.021276595 #
-416.31476097963854954286944121122 77:0.016393442 200:0.032786883 1237:0.049180329 3000:0.016393442 4458:0.016393442 5923:0.016393442 7123:0.016393442 #
-176.6807119150611242730519734323 449:0.11111111 506:0.11111111 #
-416.31476097963854954286944121122 92:0.02631579 1244:0.02631579 2074:0.02631579 3065:0.02631579 #
-67.796680865828079731727484613657 191:0.020833334 580:0.020833334 726:0.020833334 990:0.020833334 2498:0.020833334 4905:0.020833334 5595:0.020833334 7743:0.020833334 #
-92.975810001944566351994581054896 245:0.010416667 408:0.010416667 786:0.010416667 836:0.010416667 846:0.010416667 1039:0.010416667 1332:0.010416667 2684:0.010416667 3017:0.010416667 3032:0.010416667 3549:0.010416667 3877:0.010416667 8559:0.010416667 12696:0.010416667 #
416.31476097963854954286944121122 50:0.030769231 175:0.015384615 245:0.015384615 739:0.046153847 1068:0.030769231 1074:0.015384615 4188:0.015384615 13900:0.015384615 #
416.31476097963854954286944121122 50:0.041666668 171:0.041666668 191:0.041666668 739:0.041666668 #
-79.758726684283260510710533708334 50:0.029411765 739:0.029411765 744:0.029411765 3136:0.029411765 3146:0.029411765 #
223.90973433237923018168658018112 149:0.0078125 284:0.0078125 548:0.0078125 1564:0.0078125 1668:0.0078125 3658:0.0078125 3964:0.0078125 5541:0.0078125 12132:0.0078125 13658:0.0078125 16049:0.0078125 18272:0.0078125 18273:0.0078125 18274:0.0078125 18275:0.0078125 #
416.31476097963854954286944121122 535:0.018867925 796:0.018867925 1839:0.018867925 3479:0.018867925 3910:0.018867925 4835:0.018867925 15065:0.018867925 #
416.31476097963854954286944121122 796:0.055555556 7366:0.055555556 #
416.31476097963854954286944121122 11:0.0063694268 229:0.0063694268 774:0.0063694268 808:0.0063694268 878:0.019108281 952:0.0063694268 1292:0.0063694268 1982:0.0063694268 2003:0.0063694268 2285:0.0063694268 2294:0.0063694268 3084:0.0063694268 4700:0.0063694268 5379:0.0063694268 5395:0.0063694268 7689:0.012738854 8633:0.0063694268 9410:0.0063694268 10868:0.0063694268 18276:0.0063694268 18277:0.0063694268 #
-416.31476097963854954286944121122 16:0.011764706 170:0.011764706 171:0.011764706 445:0.011764706 505:0.011764706 1028:0.011764706 1332:0.011764706 2573:0.011764706 5357:0.011764706 7848:0.011764706 #
-416.31476097963854954286944121122 120:0.017857144 149:0.017857144 453:0.017857144 1578:0.017857144 1601:0.035714287 2573:0.017857144 5006:0.017857144 8017:0.017857144 8824:0.017857144 #
-416.31476097963854954286944121122 191:0.035714287 273:0.017857144 377:0.017857144 516:0.017857144 887:0.017857144 1054:0.017857144 1593:0.017857144 4176:0.017857144 #
295.30072235780016853823326528072 50:0.012658228 149:0.012658228 1081:0.012658228 3860:0.012658228 4339:0.012658228 4508:0.012658228 8401:0.012658228 14068:0.012658228 16843:0.012658228 16844:0.012658228 #
185.21730838621817838429706171155 50:0.022222223 53:0.022222223 233:0.022222223 422:0.022222223 744:0.022222223 1375:0.022222223 #
-416.31476097963854954286944121122 50:0.018518519 89:0.018518519 186:0.018518519 191:0.018518519 321:0.018518519 956:0.018518519 1169:0.037037037 5890:0.018518519 #
416.31476097963854954286944121122 149:0.01754386 443:0.03508772 1155:0.01754386 1552:0.01754386 12253:0.01754386 14087:0.01754386 15433:0.01754386 15434:0.01754386 #
416.31476097963854954286944121122 82:0.019607844 149:0.019607844 315:0.019607844 425:0.019607844 443:0.019607844 785:0.019607844 1841:0.019607844 #
416.31476097963854954286944121122 2629:0.02631579 3136:0.02631579 5383:0.02631579 6303:0.02631579 #
-246.28919260626375375977659132332 149:0.017241379 548:0.017241379 4404:0.017241379 11043:0.017241379 11044:0.017241379 11045:0.017241379 #
416.31476097963854954286944121122 198:0.027027028 370:0.013513514 668:0.013513514 756:0.013513514 1215:0.013513514 1309:0.013513514 1427:0.013513514 2560:0.013513514 8724:0.013513514 #
-322.2042355114237466295890044421 233:0.022727273 422:0.022727273 423:0.022727273 424:0.022727273 425:0.022727273 426:0.022727273 #
-416.31476097963854954286944121122 15:0.030303031 88:0.030303031 149:0.030303031 233:0.030303031 4506:0.030303031 #
-416.31476097963854954286944121122 110:0.0080000004 160:0.0080000004 229:0.0080000004 1327:0.0080000004 1407:0.0080000004 2742:0.0080000004 2805:0.0080000004 2932:0.0080000004 3161:0.0080000004 3909:0.0080000004 6500:0.0080000004 7155:0.0080000004 9176:0.0080000004 9177:0.0080000004 9178:0.0080000004 9179:0.0080000004 9180:0.0080000004 9181:0.0080000004 #
-416.31476097963854954286944121122 149:0.029411765 198:0.029411765 267:0.029411765 3129:0.029411765 11899:0.029411765 #
416.31476097963854954286944121122 152:0.012820513 214:0.012820513 548:0.012820513 612:0.012820513 744:0.012820513 1237:0.012820513 1839:0.012820513 1990:0.012820513 3476:0.012820513 4321:0.012820513 4659:0.012820513 #
416.31476097963854954286944121122 41:0.033333335 1313:0.033333335 1630:0.033333335 3140:0.033333335 5050:0.033333335 #
349.84644072131243319745408371091 1169:0.023255814 1482:0.023255814 2010:0.023255814 2326:0.023255814 2556:0.023255814 3781:0.023255814 #
-416.31476097963854954286944121122 41:0.018518519 228:0.018518519 296:0.018518519 459:0.018518519 1000:0.018518519 1663:0.018518519 2976:0.018518519 10641:0.018518519 #
-416.31476097963854954286944121122 41:0.034482758 838:0.034482758 1251:0.034482758 5724:0.034482758 7461:0.034482758 #
-416.31476097963854954286944121122 41:0.014285714 197:0.014285714 548:0.014285714 695:0.014285714 739:0.014285714 1283:0.014285714 2435:0.014285714 6225:0.014285714 7525:0.014285714 8502:0.014285714 #
-416.31476097963854954286944121122 354:0.025 355:0.025 1375:0.025 1438:0.025 8815:0.025 #
416.31476097963854954286944121122 3129:0.11111111 #
416.31476097963854954286944121122 149:0.041666668 561:0.020833334 1505:0.020833334 2354:0.020833334 3033:0.020833334 3976:0.020833334 #
416.31476097963854954286944121122 214:0.009708738 238:0.009708738 317:0.009708738 530:0.009708738 1630:0.009708738 4607:0.009708738 7873:0.009708738 8993:0.009708738 9277:0.009708738 15057:0.009708738 18310:0.009708738 18311:0.009708738 #
416.31476097963854954286944121122 15:0.025641026 41:0.025641026 757:0.025641026 1270:0.025641026 1718:0.025641026 16950:0.025641026 #
416.31476097963854954286944121122 126:0.013888889 198:0.013888889 408:0.013888889 682:0.013888889 744:0.013888889 966:0.013888889 2077:0.013888889 5210:0.013888889 5734:0.013888889 7570:0.013888889 16440:0.013888889 #
416.31476097963854954286944121122 233:0.023809524 408:0.023809524 619:0.023809524 947:0.023809524 1237:0.023809524 7328:0.023809524 8228:0.023809524 #
416.31476097963854954286944121122 426:0.021276595 1308:0.021276595 1578:0.021276595 3474:0.021276595 3828:0.021276595 13921:0.021276595 #
-203.48347836194307092227973043919 50:0.015384615 60:0.015384615 308:0.015384615 561:0.015384615 643:0.015384615 801:0.015384615 1033:0.015384615 3108:0.015384615 3313:0.015384615 4537:0.015384615 #
-235.64954855861643068237754050642 2354:0.050000001 4517:0.050000001 #
-416.31476097963854954286944121122 1313:0.029411765 2187:0.029411765 5912:0.029411765 6295:0.029411765 12803:0.029411765 12804:0.029411765 #
-291.42982536955872774342424236238 50:0.018867925 60:0.018867925 416:0.018867925 554:0.018867925 2012:0.018867925 2296:0.018867925 5654:0.018867925 5865:0.018867925 #
360.71989553414562124089570716023 149:0.047619049 171:0.047619049 541:0.047619049 1852:0.047619049 #
-299.05486514523278174237930215895 210:0.017241379 739:0.034482758 802:0.017241379 1828:0.017241379 2023:0.017241379 4652:0.017241379 10248:0.017241379 #
416.31476097963854954286944121122 162:0.023809524 214:0.023809524 511:0.023809524 9274:0.023809524 11621:0.023809524 11840:0.023809524 #
416.31476097963854954286944121122 60:0.033333335 453:0.033333335 695:0.033333335 739:0.033333335 2994:0.033333335 4177:0.033333335 #
416.31476097963854954286944121122 152:0.012820513 608:0.012820513 739:0.012820513 811:0.012820513 1272:0.012820513 1383:0.012820513 2166:0.012820513 2816:0.012820513 2823:0.012820513 5465:0.012820513 11258:0.012820513 12148:0.012820513 14264:0.012820513 #
-40.675331298491776976788969477639 335:0.015873017 1628:0.015873017 2223:0.015873017 2640:0.015873017 8982:0.015873017 8983:0.015873017 8984:0.015873017 #
-416.31476097963854954286944121122 15:0.021739131 739:0.021739131 994:0.021739131 1407:0.021739131 2395:0.021739131 2396:0.021739131 2397:0.021739131 #
-171.88635113419212530061486177146 1578:0.045454547 2105:0.045454547 2580:0.045454547 2581:0.045454547 #
-120.46933544585829167772317305207 245:0.037037037 429:0.018518519 553:0.018518519 872:0.018518519 1254:0.018518519 1585:0.018518519 2131:0.018518519 2946:0.018518519 2947:0.018518519 #
-416.31476097963854954286944121122 149:0.023255814 321:0.023255814 2077:0.023255814 4168:0.023255814 7531:0.023255814 10786:0.023255814 #
-416.31476097963854954286944121122 360:0.0075187972 535:0.0075187972 757:0.0075187972 1739:0.0075187972 2162:0.0075187972 2805:0.0075187972 3250:0.0075187972 3351:0.0075187972 4436:0.0075187972 5369:0.0075187972 11168:0.0075187972 12908:0.0075187972 13357:0.0075187972 13399:0.0075187972 13400:0.0075187972 13401:0.0075187972 #
-416.31476097963854954286944121122 49:0.020408163 149:0.020408163 169:0.020408163 539:0.020408163 3887:0.020408163 11535:0.020408163 #
-416.31476097963854954286944121122 149:0.025 245:0.025 739:0.025 915:0.025 3418:0.025 4776:0.025 12493:0.025 #
-416.31476097963854954286944121122 149:0.030303031 739:0.030303031 2475:0.030303031 13245:0.030303031 #
57.483066370625508056946273427457 643:0.0625 846:0.0625 13799:0.0625 #
416.31476097963854954286944121122 67:0.018181818 640:0.018181818 2338:0.036363635 3769:0.018181818 6661:0.018181818 8132:0.018181818 #
416.31476097963854954286944121122 643:0.030303031 1984:0.030303031 4813:0.030303031 6404:0.030303031 16128:0.030303031 #
416.31476097963854954286944121122 273:0.024390243 384:0.024390243 835:0.024390243 1665:0.024390243 2820:0.024390243 4433:0.024390243 9617:0.024390243 #
416.31476097963854954286944121122 50:0.0064516128 149:0.0064516128 196:0.0064516128 487:0.0064516128 546:0.0064516128 834:0.0064516128 855:0.0064516128 1978:0.0064516128 2104:0.0064516128 2290:0.0064516128 2916:0.0064516128 3362:0.0064516128 4586:0.0064516128 5178:0.0064516128 6240:0.0064516128 7689:0.0064516128 10875:0.0064516128 11892:0.0064516128 17400:0.0064516128 #
-77.446370979671399936705711297691 190:0.022727273 245:0.022727273 657:0.022727273 1014:0.022727273 2387:0.022727273 3571:0.022727273 3572:0.022727273 3573:0.022727273 #
-252.1656575232484271964494837448 171:0.047619049 2338:0.047619049 6669:0.047619049 #
416.31476097963854954286944121122 126:0.0084033618 175:0.0084033618 191:0.0084033618 880:0.0084033618 955:0.016806724 1177:0.0084033618 1933:0.0084033618 2687:0.0084033618 3657:0.0084033618 4176:0.0084033618 4412:0.0084033618 6064:0.0084033618 11360:0.0084033618 18683:0.0084033618 18684:0.0084033618 18685:0.0084033618 #
-416.31476097963854954286944121122 49:0.022222223 50:0.022222223 541:0.022222223 643:0.022222223 1601:0.022222223 1663:0.022222223 1746:0.022222223 1747:0.022222223 #
-416.31476097963854954286944121122 384:0.022727273 643:0.022727273 3248:0.022727273 3649:0.022727273 3921:0.022727273 4007:0.022727273 4008:0.022727273 #
312.88909580327486992246122099459 1258:0.030303031 1809:0.030303031 5222:0.030303031 #
68.59158285009954170163837261498 149:0.052631579 2003:0.052631579 7753:0.052631579 #
-416.31476097963854954286944121122 149:0.015873017 354:0.015873017 491:0.015873017 496:0.015873017 741:0.015873017 2341:0.015873017 6713:0.015873017 11562:0.015873017 11833:0.015873017 #
-369.97493625118147519970079883933 137:0.03846154 5217:0.03846154 12433:0.03846154 12434:0.03846154 #
-355.6651146827782667969586327672 149:0.03125 752:0.03125 755:0.03125 1632:0.03125 5369:0.03125 #
-141.16346045959525667967682238668 137:0.037037037 879:0.037037037 1017:0.037037037 2888:0.037037037 #
-416.31476097963854954286944121122 149:0.032258064 718:0.032258064 791:0.032258064 1689:0.032258064 #
416.31476097963854954286944121122 50:0.039999999 539:0.039999999 11071:0.039999999 #
416.31476097963854954286944121122 46:0.0091743115 191:0.0091743115 214:0.0091743115 245:0.018348623 553:0.0091743115 834:0.0091743115 2606:0.018348623 3315:0.0091743115 3340:0.0091743115 6113:0.0091743115 6516:0.0091743115 6919:0.0091743115 6920:0.0091743115 7707:0.0091743115 8088:0.0091743115 14949:0.0091743115 #
416.31476097963854954286944121122 228:0.025 1663:0.025 1741:0.025 6002:0.025 7192:0.025 14296:0.025 #
416.31476097963854954286944121122 101:0.030303031 124:0.030303031 245:0.030303031 321:0.030303031 449:0.030303031 789:0.030303031 #
-400.31131816317548555161920376122 124:0.02631579 245:0.02631579 1762:0.02631579 1984:0.02631579 9937:0.02631579 9938:0.02631579 #
-416.31476097963854954286944121122 9:0.021276595 245:0.021276595 758:0.021276595 944:0.021276595 1337:0.021276595 2654:0.021276595 5559:0.021276595 12370:0.021276595 #
-416.31476097963854954286944121122 50:0.014492754 228:0.014492754 273:0.014492754 307:0.014492754 781:0.014492754 936:0.014492754 2858:0.014492754 3340:0.028985508 4204:0.014492754 4706:0.014492754 #
-146.4154695122271903073851717636 50:0.018867925 245:0.018867925 411:0.018867925 608:0.018867925 1254:0.018867925 3170:0.018867925 9120:0.018867925 10158:0.018867925 10159:0.018867925 #
416.31476097963854954286944121122 149:0.03846154 502:0.03846154 756:0.03846154 1021:0.03846154 1169:0.03846154 #
416.31476097963854954286944121122 149:0.023809524 191:0.023809524 491:0.023809524 496:0.023809524 547:0.023809524 11137:0.023809524 #
28.487893033512783347305230563506 60:0.012195121 741:0.012195121 1098:0.012195121 1174:0.012195121 1214:0.012195121 1496:0.012195121 2280:0.012195121 4215:0.012195121 8385:0.012195121 12446:0.012195121 #
-104.37723951706038860720582306385 149:0.039999999 2274:0.039999999 2275:0.039999999 #
-416.31476097963854954286944121122 149:0.041666668 335:0.041666668 881:0.041666668 1600:0.041666668 #
292.59874351502344325126614421606 506:0.06666667 2457:0.06666667 #
224.15004346443780036679527256638 881:0.032258064 957:0.032258064 1254:0.032258064 3132:0.032258064 16645:0.032258064 #
416.31476097963854954286944121122 148:0.024390243 307:0.024390243 516:0.024390243 2173:0.024390243 2174:0.024390243 5713:0.024390243 18170:0.024390243 18230:0.024390243 #
416.31476097963854954286944121122 126:0.032258064 245:0.032258064 430:0.032258064 752:0.032258064 2390:0.032258064 4282:0.032258064 #
-416.31476097963854954286944121122 126:0.05882353 846:0.05882353 897:0.05882353 #
-416.31476097963854954286944121122 191:0.016129032 430:0.016129032 789:0.016129032 1028:0.016129032 1480:0.016129032 3297:0.016129032 3659:0.016129032 5584:0.016129032 #
-416.31476097963854954286944121122 63:0.018181818 191:0.018181818 430:0.036363635 504:0.018181818 2856:0.018181818 5559:0.018181818 11639:0.018181818 #
416.31476097963854954286944121122 262:0.012195121 305:0.012195121 514:0.012195121 1042:0.012195121 1659:0.012195121 3504:0.012195121 3819:0.012195121 4994:0.012195121 9244:0.012195121 13899:0.012195121 #
416.31476097963854954286944121122 149:0.022222223 273:0.022222223 484:0.022222223 1172:0.022222223 1774:0.022222223 1814:0.022222223 2374:0.022222223 #
416.31476097963854954286944121122 245:0.0089285718 739:0.0089285718 836:0.0089285718 1133:0.0089285718 2012:0.0089285718 5335:0.0089285718 6067:0.0089285718 6733:0.0089285718 7554:0.0089285718 7739:0.0089285718 7913:0.0089285718 13558:0.0089285718 13600:0.0089285718 18526:0.0089285718 18527:0.0089285718 18528:0.0089285718 #
416.31476097963854954286944121122 1175:0.022222223 2274:0.022222223 2439:0.022222223 5763:0.022222223 #
-416.31476097963854954286944121122 1240:0.039999999 1241:0.039999999 1556:0.039999999 #
-416.31476097963854954286944121122 910:0.01923077 1240:0.01923077 2164:0.01923077 2400:0.01923077 4157:0.01923077 4308:0.01923077 #
-416.31476097963854954286944121122 756:0.030303031 3354:0.030303031 7085:0.030303031 11258:0.030303031 11293:0.030303031 #
-254.92363711972998885357810650021 307:0.016129032 547:0.016129032 1335:0.016129032 1916:0.016129032 3314:0.016129032 4865:0.016129032 6005:0.016129032 6919:0.016129032 6920:0.016129032 11652:0.016129032 #
-416.31476097963854954286944121122 149:0.021276595 526:0.021276595 1546:0.021276595 1980:0.021276595 2341:0.021276595 6542:0.021276595 #
371.0879552530288378875411581248 16:0.010989011 43:0.010989011 179:0.010989011 182:0.010989011 1271:0.010989011 1285:0.010989011 2144:0.021978023 3468:0.010989011 4177:0.010989011 4427:0.010989011 8366:0.010989011 16704:0.010989011 #
416.31476097963854954286944121122 90:0.035714287 191:0.035714287 10441:0.035714287 17528:0.035714287 #
145.3393169964782600800390355289 25:0.021739131 41:0.021739131 93:0.021739131 430:0.021739131 1855:0.021739131 3821:0.021739131 #
416.31476097963854954286944121122 752:0.047619049 846:0.047619049 1700:0.047619049 #
416.31476097963854954286944121122 267:0.022222223 430:0.022222223 2064:0.022222223 4989:0.022222223 7377:0.022222223 9794:0.022222223 11724:0.022222223 #
344.47467886390472813218366354704 50:0.011363637 82:0.011363637 1607:0.011363637 5572:0.011363637 14315:0.011363637 15006:0.011363637 15007:0.011363637 15008:0.011363637 15009:0.011363637 15010:0.011363637 15011:0.011363637 15012:0.011363637 #
-416.31476097963854954286944121122 430:0.032258064 1307:0.032258064 1427:0.032258064 8270:0.032258064 #
-131.80880897654580508060462307185 1580:0.055555556 1700:0.055555556 #
-416.31476097963854954286944121122 430:0.036363635 1009:0.018181818 1013:0.018181818 2188:0.018181818 2232:0.018181818 3219:0.018181818 5016:0.018181818 8214:0.018181818 #
-54.035297750376813041839341167361 1035:0.045454547 1699:0.045454547 1700:0.045454547 #
416.31476097963854954286944121122 50:0.021739131 445:0.021739131 516:0.021739131 1220:0.021739131 1382:0.021739131 1556:0.021739131 2137:0.021739131 11258:0.021739131 #
416.31476097963854954286944121122 516:0.014084507 751:0.014084507 758:0.014084507 1556:0.014084507 3060:0.014084507 10133:0.014084507 12835:0.014084507 18822:0.014084507 19443:0.014084507 #
146.57571356434291942605341318995 547:0.02631579 662:0.02631579 789:0.02631579 13690:0.02631579 #
311.32926527528968563274247571826 149:0.03846154 906:0.03846154 2856:0.03846154 4414:0.03846154 #
-416.31476097963854954286944121122 41:0.03846154 191:0.03846154 1382:0.03846154 3129:0.03846154 #
-208.95150266660692750519956462085 160:0.043478262 2722:0.043478262 4989:0.043478262 12773:0.043478262 #
-416.31476097963854954286944121122 41:0.021739131 204:0.021739131 1239:0.021739131 3656:0.021739131 3949:0.021739131 5932:0.021739131 #
102.15701844853660418266372289509 1427:0.043478262 2232:0.043478262 3141:0.043478262 3505:0.043478262 #
401.6722724163135467279062140733 89:0.034482758 162:0.034482758 14803:0.034482758 17546:0.034482758 #
416.31476097963854954286944121122 186:0.013888889 706:0.013888889 791:0.013888889 881:0.013888889 1337:0.013888889 1647:0.013888889 2079:0.013888889 2426:0.013888889 2886:0.013888889 5047:0.013888889 6575:0.013888889 9765:0.013888889 #
283.11886041445046657827333547175 173:0.016949153 2074:0.016949153 2341:0.016949153 2610:0.016949153 4475:0.016949153 8521:0.016949153 10465:0.016949153 10466:0.016949153 #
416.31476097963854954286944121122 162:0.010752688 339:0.010752688 901:0.010752688 1776:0.010752688 3105:0.010752688 3351:0.010752688 4776:0.010752688 5222:0.010752688 14074:0.010752688 18949:0.010752688 18950:0.010752688 #
-416.31476097963854954286944121122 245:0.025641026 1556:0.025641026 3860:0.025641026 3865:0.025641026 11724:0.025641026 11725:0.025641026 #
-416.31476097963854954286944121122 2:0.016666668 487:0.016666668 1647:0.016666668 2003:0.016666668 2274:0.016666668 4149:0.016666668 4504:0.016666668 5555:0.016666668 #
-416.31476097963854954286944121122 93:0.014084507 170:0.014084507 426:0.014084507 523:0.014084507 2088:0.014084507 2166:0.014084507 2167:0.014084507 2168:0.014084507 #
-416.31476097963854954286944121122 149:0.022222223 409:0.022222223 484:0.022222223 2222:0.022222223 2531:0.022222223 4105:0.022222223 5506:0.022222223 10976:0.022222223 #
363.78885753408951586607145145535 640:0.0068027209 900:0.0068027209 3092:0.0068027209 3595:0.0068027209 3831:0.0068027209 4332:0.0068027209 5644:0.0068027209 8647:0.0068027209 9790:0.0068027209 13602:0.0068027209 14240:0.0068027209 14241:0.0068027209 14242:0.0068027209 14243:0.0068027209 14244:0.0068027209 14245:0.0068027209 #
-416.31476097963854954286944121122 41:0.0086956518 50:0.0086956518 90:0.0086956518 149:0.0086956518 535:0.0086956518 587:0.0086956518 1507:0.0086956518 1961:0.0086956518 1985:0.0086956518 2144:0.0086956518 2454:0.0086956518 3017:0.0086956518 4750:0.0086956518 8383:0.0086956518 8384:0.0086956518 8385:0.0086956518 #
-416.31476097963854954286944121122 193:0.012987013 477:0.0064935065 493:0.0064935065 549:0.0064935065 580:0.0064935065 925:0.0064935065 956:0.0064935065 1388:0.0064935065 1409:0.0064935065 4336:0.0064935065 7106:0.0064935065 7870:0.0064935065 9276:0.0064935065 9534:0.0064935065 9535:0.0064935065 9536:0.0064935065 9537:0.0064935065 #
416.31476097963854954286944121122 183:0.013245033 430:0.0066225166 796:0.0066225166 1231:0.0066225166 1757:0.0066225166 2291:0.0066225166 3837:0.0066225166 7885:0.0066225166 8703:0.0066225166 9214:0.0066225166 11257:0.0066225166 15832:0.0066225166 16031:0.0066225166 16093:0.0066225166 16985:0.0066225166 18314:0.0066225166 18315:0.0066225166 18316:0.0066225166 #
299.94126428906406545138452202082 535:0.020833334 1656:0.020833334 1798:0.020833334 12217:0.020833334 18749:0.020833334 18750:0.020833334 #
-245.34007402738239989048452116549 41:0.022222223 408:0.022222223 430:0.022222223 475:0.022222223 2634:0.022222223 9957:0.022222223 #
-416.31476097963854954286944121122 41:0.015873017 430:0.015873017 535:0.015873017 3304:0.015873017 3305:0.015873017 3306:0.015873017 3307:0.015873017 3308:0.015873017 3309:0.015873017 #
-416.31476097963854954286944121122 430:0.021276595 491:0.021276595 739:0.021276595 952:0.021276595 4384:0.021276595 9530:0.021276595 9880:0.021276595 #
416.31476097963854954286944121122 160:0.039999999 2445:0.039999999 15934:0.039999999 #
416.31476097963854954286944121122 487:0.025641026 1624:0.025641026 2722:0.025641026 3662:0.025641026 13497:0.025641026 #
416.31476097963854954286944121122 50:0.017241379 87:0.017241379 198:0.017241379 910:0.017241379 3140:0.017241379 3558:0.017241379 4168:0.017241379 4868:0.017241379 #
12.402089756202897774528537411243 3129:0.03125 4504:0.03125 5246:0.03125 7544:0.03125 #
416.31476097963854954286944121122 282:0.034482758 1239:0.034482758 1244:0.034482758 5236:0.034482758 #
-416.31476097963854954286944121122 50:0.025316456 1244:0.012658228 1505:0.012658228 1565:0.012658228 1734:0.012658228 1824:0.012658228 2732:0.012658228 4225:0.012658228 5203:0.012658228 10021:0.012658228 #
-277.03132883804460107057821005583 50:0.021739131 487:0.021739131 1049:0.021739131 1880:0.021739131 2445:0.021739131 2508:0.021739131 #
-416.31476097963854954286944121122 50:0.023809524 783:0.023809524 1252:0.023809524 1691:0.023809524 1692:0.023809524 1886:0.023809524 #
334.6836862835950796579709276557 549:0.013513514 956:0.013513514 2086:0.013513514 2990:0.013513514 6835:0.013513514 6836:0.013513514 14418:0.013513514 19387:0.013513514 19388:0.013513514 #
416.31476097963854954286944121122 41:0.015267176 60:0.0076335878 204:0.0076335878 238:0.0076335878 245:0.0076335878 722:0.0076335878 1578:0.0076335878 1806:0.0076335878 1816:0.015267176 2084:0.0076335878 2629:0.0076335878 3737:0.0076335878 4877:0.0076335878 6835:0.0076335878 6836:0.0076335878 17831:0.0076335878 #
416.31476097963854954286944121122 354:0.025641026 739:0.025641026 1437:0.025641026 12433:0.025641026 12434:0.025641026 15024:0.025641026 #
218.66477577597098047590407077223 41:0.025 228:0.025 3170:0.025 4580:0.025 6796:0.025 13731:0.025 #
416.31476097963854954286944121122 238:0.014705882 273:0.014705882 1550:0.014705882 2098:0.014705882 3825:0.014705882 5749:0.014705882 16776:0.014705882 19331:0.014705882 #
-416.31476097963854954286944121122 252:0.016129032 273:0.016129032 758:0.016129032 835:0.016129032 1117:0.016129032 2439:0.016129032 7617:0.016129032 8263:0.016129032 9488:0.016129032 #
-416.31476097963854954286944121122 321:0.023809524 422:0.023809524 744:0.023809524 3910:0.023809524 4431:0.023809524 9401:0.023809524 #
-416.31476097963854954286944121122 173:0.011904762 1424:0.011904762 1437:0.011904762 2677:0.011904762 4288:0.011904762 6414:0.011904762 9803:0.011904762 9804:0.011904762 9805:0.011904762 9806:0.011904762 9807:0.011904762 #
-391.5892571461359921158873476088 254:0.015625 561:0.015625 695:0.015625 860:0.015625 1283:0.015625 3352:0.015625 4026:0.015625 7329:0.015625 9457:0.015625 #
-416.31476097963854954286944121122 50:0.021739131 245:0.021739131 541:0.021739131 846:0.021739131 3745:0.021739131 3747:0.021739131 4812:0.021739131 4813:0.021739131 #
-416.31476097963854954286944121122 50:0.014084507 860:0.014084507 1313:0.014084507 2943:0.014084507 2944:0.014084507 3953:0.014084507 8984:0.014084507 12137:0.014084507 #
416.31476097963854954286944121122 149:0.014705882 185:0.014705882 186:0.014705882 252:0.014705882 335:0.014705882 835:0.014705882 3033:0.014705882 6991:0.014705882 11186:0.014705882 12640:0.014705882 #
416.31476097963854954286944121122 183:0.014814815 774:0.0074074073 1401:0.0074074073 1987:0.0074074073 2450:0.0074074073 2475:0.014814815 2957:0.0074074073 3250:0.0074074073 5584:0.014814815 10309:0.0074074073 13598:0.0074074073 14283:0.0074074073 14284:0.0074074073 #
306.4737562329234492608520668 426:0.037037037 3140:0.037037037 8670:0.037037037 #
416.31476097963854954286944121122 15:0.014285714 93:0.014285714 408:0.014285714 425:0.014285714 1427:0.014285714 1700:0.014285714 2000:0.014285714 2139:0.014285714 3140:0.014285714 #
-180.57600238096691214195743668824 149:0.025 228:0.025 420:0.025 445:0.025 1215:0.025 2982:0.025 5749:0.025 #
-416.31476097963854954286944121122 176:0.012987013 1228:0.012987013 1656:0.012987013 1807:0.012987013 1865:0.012987013 2559:0.012987013 4903:0.012987013 6733:0.012987013 9254:0.012987013 10502:0.012987013 12566:0.012987013 #
-416.31476097963854954286944121122 44:0.022727273 60:0.022727273 3337:0.022727273 4215:0.022727273 4446:0.022727273 9101:0.022727273 #
-416.31476097963854954286944121122 1237:0.050000001 2823:0.050000001 6195:0.050000001 12325:0.050000001 #
-416.31476097963854954286944121122 137:0.017857144 853:0.017857144 1596:0.017857144 2678:0.017857144 5968:0.017857144 11595:0.017857144 11596:0.017857144 #
18.95523819855149127988624968566 50:0.034482758 559:0.034482758 1049:0.034482758 2009:0.034482758 #
416.31476097963854954286944121122 50:0.014084507 245:0.014084507 273:0.014084507 443:0.014084507 541:0.014084507 547:0.014084507 1094:0.014084507 1889:0.014084507 2357:0.014084507 4998:0.014084507 #
416.31476097963854954286944121122 50:0.03508772 126:0.01754386 245:0.01754386 2722:0.01754386 5559:0.01754386 5810:0.01754386 18219:0.01754386 18220:0.01754386 #
187.24835704374004308192525058985 9:0.021276595 149:0.021276595 191:0.021276595 1306:0.04255319 2274:0.021276595 3880:0.021276595 4833:0.021276595 14731:0.021276595 #
416.31476097963854954286944121122 575:0.027027028 846:0.027027028 1826:0.027027028 3118:0.027027028 10472:0.027027028 #
416.31476097963854954286944121122 2:0.025 197:0.025 1529:0.025 1884:0.025 4088:0.025 #
314.71914813384671560925198718905 1182:0.023809524 3065:0.023809524 3948:0.023809524 3949:0.023809524 4994:0.023809524 #
416.31476097963854954286944121122 879:0.03846154 1024:0.03846154 2656:0.03846154 #
-416.31476097963854954286944121122 27:0.023255814 752:0.023255814 1601:0.023255814 2009:0.023255814 5369:0.023255814 5577:0.023255814 10325:0.023255814 #
-416.31476097963854954286944121122 927:0.014285714 1989:0.014285714 2499:0.014285714 2980:0.014285714 3302:0.014285714 3778:0.014285714 3779:0.014285714 3780:0.014285714 #
-301.3668672785958051463239826262 38:0.010638298 682:0.010638298 2077:0.010638298 2584:0.010638298 2887:0.010638298 4832:0.010638298 5984:0.010638298 11597:0.010638298 11598:0.010638298 11599:0.010638298 11600:0.010638298 #
-382.37847878983075133874081075191 245:0.01754386 957:0.01754386 1068:0.01754386 2236:0.01754386 3474:0.01754386 3490:0.01754386 3722:0.01754386 10133:0.01754386 #
416.31476097963854954286944121122 50:0.022727273 90:0.022727273 430:0.022727273 3643:0.022727273 6925:0.022727273 9504:0.022727273 16252:0.022727273 #
416.31476097963854954286944121122 6:0.0088495575 50:0.03539823 196:0.0088495575 720:0.0088495575 1678:0.0088495575 2282:0.0088495575 2435:0.0088495575 5379:0.0088495575 19208:0.0088495575 19209:0.0088495575 19210:0.0088495575 19211:0.0088495575 #
416.31476097963854954286944121122 50:0.023809524 1309:0.023809524 5379:0.023809524 15893:0.023809524 16997:0.023809524 #
416.31476097963854954286944121122 400:0.01923077 445:0.01923077 504:0.01923077 1240:0.01923077 4780:0.01923077 5461:0.01923077 11337:0.01923077 #
84.099881983175009736442007124424 41:0.0076923077 82:0.0076923077 137:0.0076923077 238:0.0076923077 352:0.0076923077 1469:0.0076923077 2282:0.0076923077 2453:0.0076923077 2924:0.0076923077 3309:0.0076923077 5968:0.0076923077 8670:0.0076923077 11925:0.0076923077 14954:0.0076923077 14955:0.0076923077 #
416.31476097963854954286944121122 27:0.022727273 245:0.022727273 852:0.022727273 13972:0.022727273 15899:0.022727273 19203:0.022727273 19204:0.022727273 #
416.31476097963854954286944121122 49:0.012658228 191:0.012658228 245:0.012658228 459:0.012658228 665:0.012658228 921:0.012658228 1463:0.012658228 1578:0.012658228 1596:0.012658228 5889:0.012658228 6669:0.012658228 18011:0.012658228 #
416.31476097963854954286944121122 41:0.010638298 149:0.010638298 182:0.010638298 335:0.010638298 1172:0.010638298 1839:0.010638298 2233:0.010638298 2234:0.010638298 2302:0.010638298 3205:0.010638298 4411:0.010638298 13891:0.010638298 #
194.47814940591212007348076440394 927:0.015873017 2629:0.015873017 2680:0.015873017 4837:0.015873017 5075:0.015873017 14560:0.015873017 14561:0.047619049 #
416.31476097963854954286944121122 245:0.014285714 553:0.014285714 602:0.014285714 887:0.014285714 1231:0.014285714 1382:0.014285714 1634:0.014285714 4964:0.014285714 18781:0.014285714 #
-416.31476097963854954286944121122 41:0.01754386 152:0.01754386 865:0.01754386 1094:0.01754386 1463:0.01754386 4175:0.01754386 5955:0.01754386 9552:0.01754386 #
-416.31476097963854954286944121122 126:0.01923077 680:0.01923077 1504:0.01923077 2186:0.01923077 2560:0.01923077 2886:0.01923077 4877:0.01923077 8226:0.01923077 #
-416.31476097963854954286944121122 360:0.0625 1839:0.0625 #
416.31476097963854954286944121122 9:0.024390243 196:0.024390243 377:0.024390243 378:0.024390243 1316:0.024390243 11125:0.024390243 #
416.31476097963854954286944121122 48:0.025 50:0.025 190:0.025 418:0.025 726:0.025 846:0.025 11075:0.025 #
-416.31476097963854954286944121122 1397:0.014084507 2525:0.014084507 2991:0.014084507 4130:0.014084507 4542:0.014084507 12750:0.014084507 12751:0.014084507 12752:0.014084507 #
416.31476097963854954286944121122 50:0.011627907 157:0.011627907 1021:0.011627907 2142:0.011627907 2428:0.011627907 3795:0.011627907 4016:0.011627907 5369:0.011627907 10793:0.011627907 13896:0.011627907 13897:0.011627907 13898:0.011627907 #
-416.31476097963854954286944121122 50:0.017241379 90:0.017241379 196:0.017241379 410:0.017241379 846:0.017241379 1578:0.017241379 2450:0.017241379 4283:0.017241379 #
-416.31476097963854954286944121122 83:0.012048192 196:0.012048192 955:0.012048192 1395:0.012048192 1781:0.012048192 2064:0.012048192 2247:0.012048192 2248:0.012048192 2249:0.012048192 2250:0.012048192 #
132.24967785743936588005453813821 608:0.03125 945:0.03125 4212:0.03125 8059:0.03125 #
210.46578058296864810472470708191 506:0.035714287 3297:0.035714287 6609:0.035714287 14426:0.035714287 #
416.31476097963854954286944121122 81:0.008547009 2050:0.008547009 3084:0.008547009 3091:0.008547009 3276:0.008547009 3597:0.008547009 4489:0.008547009 11030:0.008547009 11712:0.008547009 14092:0.017094018 17418:0.008547009 17419:0.008547009 17420:0.008547009 17421:0.008547009 #
416.31476097963854954286944121122 638:0.024390243 936:0.024390243 1237:0.024390243 3337:0.024390243 4680:0.024390243 5955:0.024390243 #
-142.2107511101696672994876280427 4679:0.06666667 4680:0.06666667 #
-416.31476097963854954286944121122 596:0.037037037 2437:0.037037037 3297:0.037037037 8598:0.037037037 #
-416.31476097963854954286944121122 939:0.013888889 1237:0.013888889 3408:0.041666668 3618:0.013888889 5461:0.013888889 7117:0.013888889 #
-98.019361778692015718661423306912 1844:0.03846154 9892:0.03846154 9893:0.03846154 9894:0.03846154 #
416.31476097963854954286944121122 50:0.011363637 126:0.011363637 186:0.011363637 617:0.011363637 1054:0.011363637 1200:0.011363637 2654:0.011363637 2658:0.011363637 3540:0.011363637 4755:0.011363637 5047:0.011363637 5060:0.011363637 5246:0.011363637 7955:0.011363637 #
416.31476097963854954286944121122 879:0.02631579 1596:0.02631579 1839:0.02631579 2268:0.02631579 #
416.31476097963854954286944121122 355:0.022222223 636:0.022222223 1463:0.022222223 5462:0.022222223 12748:0.022222223 #
-416.31476097963854954286944121122 15:0.011764706 50:0.011764706 182:0.011764706 186:0.011764706 323:0.011764706 384:0.023529412 835:0.023529412 1169:0.023529412 1756:0.011764706 3492:0.011764706 4755:0.011764706 #
-416.31476097963854954286944121122 50:0.02631579 2009:0.02631579 2088:0.02631579 11091:0.02631579 #
