SVM-light Version V6.02
0 # kernel type
3 # kernel parameter -d 
1 # kernel parameter -g 
1 # kernel parameter -s 
1 # kernel parameter -r 
empty# kernel parameter -u 
19801 # highest feature index 
8528 # number of training documents 
6644 # number of support vectors plus 1 
0.048001632 # threshold b, each following line is a SV (starting with alpha*y)
345.12136942679927642529946751893 49:0.015625 739:0.015625 1021:0.015625 1719:0.015625 1798:0.015625 3397:0.015625 3830:0.015625 4871:0.015625 15477:0.015625 #
-414.71134457823615093730040825903 843:0.015151516 947:0.015151516 2291:0.015151516 4896:0.015151516 4897:0.015151516 4898:0.015151516 4899:0.015151516 4900:0.015151516 4901:0.015151516 #
-263.19413345091254541330272331834 149:0.016129032 160:0.016129032 1170:0.016129032 1892:0.016129032 1907:0.016129032 3261:0.016129032 4902:0.016129032 4903:0.016129032 4904:0.016129032 #
-414.71134457823615093730040825903 245:0.0070422534 293:0.0070422534 408:0.0070422534 409:0.0070422534 1237:0.0070422534 2121:0.0070422534 2155:0.0070422534 2425:0.0070422534 3139:0.0070422534 3381:0.0070422534 3820:0.0070422534 3873:0.0070422534 4063:0.0070422534 4905:0.0070422534 4906:0.0070422534 4907:0.0070422534 4908:0.0070422534 #
-414.71134457823615093730040825903 9:0.008130081 238:0.008130081 408:0.008130081 548:0.008130081 580:0.008130081 807:0.008130081 860:0.008130081 1004:0.008130081 1115:0.008130081 1961:0.008130081 2018:0.008130081 4406:0.008130081 9434:0.008130081 9870:0.008130081 10897:0.008130081 10898:0.008130081 10899:0.008130081 #
37.71171951322719451127341017127 16882:0.16666667 #
414.71134457823615093730040825903 15:0.0098039219 149:0.019607844 484:0.0098039219 669:0.0098039219 796:0.0098039219 1482:0.0098039219 1670:0.0098039219 2729:0.0098039219 4173:0.0098039219 4754:0.0098039219 9995:0.0098039219 15115:0.0098039219 #
-302.07353780272416088337195105851 160:0.016949153 360:0.016949153 1810:0.016949153 1843:0.016949153 2862:0.016949153 4304:0.016949153 7670:0.016949153 7671:0.016949153 7672:0.016949153 #
414.71134457823615093730040825903 50:0.016949153 229:0.016949153 245:0.016949153 801:0.016949153 887:0.016949153 1839:0.016949153 13748:0.016949153 #
414.71134457823615093730040825903 801:0.01369863 1337:0.01369863 2564:0.01369863 5743:0.01369863 9100:0.01369863 11097:0.01369863 14570:0.01369863 15029:0.01369863 15621:0.01369863 #
243.85377499617098351336608175188 25:0.021739131 41:0.021739131 93:0.021739131 430:0.021739131 1855:0.021739131 3821:0.021739131 #
-49.772627029960091249449760653079 149:0.07692308 2281:0.07692308 5013:0.07692308 #
-414.71134457823615093730040825903 360:0.0625 1839:0.0625 #
-349.99355187182317195038194768131 149:0.06666667 10696:0.06666667 #
-414.71134457823615093730040825903 273:0.01369863 1403:0.01369863 2967:0.01369863 2974:0.01369863 4758:0.01369863 6003:0.01369863 6259:0.01369863 6260:0.01369863 6261:0.01369863 6262:0.01369863 #
414.71134457823615093730040825903 915:0.090909094 1237:0.090909094 #
414.71134457823615093730040825903 160:0.039999999 2445:0.039999999 15934:0.039999999 #
414.71134457823615093730040825903 233:0.023809524 408:0.023809524 619:0.023809524 947:0.023809524 1237:0.023809524 7328:0.023809524 8228:0.023809524 #
414.71134457823615093730040825903 245:0.083333336 5089:0.041666668 8610:0.041666668 #
-247.86527831377782149502309039235 1237:0.090909094 8074:0.090909094 #
-414.71134457823615093730040825903 293:0.01754386 673:0.01754386 878:0.03508772 1880:0.01754386 3677:0.01754386 9065:0.01754386 9066:0.01754386 #
-402.42998581037124949943972751498 41:0.034482758 838:0.034482758 1251:0.034482758 5724:0.034482758 7461:0.034482758 #
-414.71134457823615093730040825903 41:0.017241379 171:0.017241379 3660:0.017241379 6708:0.017241379 6993:0.017241379 6994:0.017241379 6995:0.017241379 6996:0.017241379 #
-316.78837917517932964983629062772 60:0.027777778 580:0.027777778 878:0.027777778 1186:0.027777778 1242:0.027777778 4695:0.027777778 6410:0.027777778 #
390.04361678169016158790327608585 9061:0.021739131 17530:0.021739131 17531:0.021739131 17532:0.021739131 #
-388.24913533812917876275605522096 50:0.014285714 509:0.014285714 801:0.014285714 865:0.014285714 1159:0.014285714 1435:0.014285714 2405:0.014285714 11543:0.014285714 11544:0.014285714 11545:0.014285714 11546:0.014285714 #
-414.71134457823615093730040825903 1427:0.027027028 3591:0.027027028 12603:0.027027028 12604:0.027027028 12605:0.027027028 #
414.71134457823615093730040825903 149:0.010989011 200:0.010989011 1049:0.010989011 1515:0.010989011 1556:0.010989011 2788:0.010989011 3192:0.010989011 7721:0.010989011 18757:0.010989011 18758:0.010989011 18759:0.010989011 #
89.916816022494671756248862948269 149:0.07692308 6282:0.07692308 #
-198.04937307091415732429595664144 149:0.050000001 245:0.1 3340:0.050000001 7623:0.050000001 #
-414.71134457823615093730040825903 149:0.0625 1852:0.0625 4763:0.0625 #
-388.15308751054442382155684754252 149:0.05882353 1548:0.05882353 8452:0.05882353 #
-414.71134457823615093730040825903 149:0.045454547 796:0.045454547 1556:0.045454547 11237:0.045454547 #
61.654635212004770039584400365129 1014:0.03125 7179:0.03125 10075:0.03125 19371:0.03125 #
201.47497873316277150479436386377 5013:0.1 7162:0.1 #
284.95549404942357796244323253632 608:0.011764706 1244:0.011764706 1258:0.011764706 1578:0.023529412 2630:0.011764706 2850:0.011764706 3340:0.011764706 3978:0.011764706 15362:0.011764706 15559:0.011764706 15560:0.011764706 #
-414.71134457823615093730040825903 9:0.01754386 50:0.01754386 1696:0.01754386 6361:0.01754386 6630:0.01754386 7044:0.01754386 8488:0.01754386 #
-301.27013563110739369221846573055 56:0.010416667 74:0.010416667 149:0.010416667 214:0.010416667 322:0.010416667 665:0.010416667 720:0.010416667 757:0.010416667 915:0.010416667 1505:0.010416667 1724:0.010416667 2329:0.010416667 6018:0.010416667 6742:0.010416667 8560:0.010416667 #
-414.71134457823615093730040825903 50:0.1 320:0.1 #
-414.71134457823615093730040825903 41:0.046511628 126:0.023255814 430:0.023255814 1650:0.023255814 2471:0.023255814 2727:0.023255814 5237:0.023255814 #
-414.71134457823615093730040825903 317:0.015873017 1323:0.015873017 2000:0.015873017 2445:0.015873017 6142:0.015873017 10886:0.015873017 10887:0.031746034 #
-222.68275354636338647651427891105 669:0.055555556 782:0.055555556 1678:0.055555556 #
-374.83056828630242307553999125957 15:0.024390243 233:0.024390243 273:0.024390243 408:0.024390243 552:0.024390243 5279:0.024390243 8301:0.024390243 #
279.63609184407027896668296307325 106:0.009615385 860:0.009615385 881:0.009615385 1182:0.009615385 3783:0.009615385 6245:0.009615385 6533:0.009615385 7704:0.009615385 7863:0.009615385 10237:0.009615385 14841:0.009615385 15593:0.009615385 15594:0.009615385 15595:0.009615385 #
414.71134457823615093730040825903 149:0.047619049 171:0.047619049 541:0.047619049 1852:0.047619049 #
-183.59579429378851500587188638747 541:0.083333336 7206:0.083333336 #
-414.71134457823615093730040825903 149:0.037037037 321:0.037037037 509:0.037037037 643:0.037037037 1585:0.037037037 6718:0.037037037 #
-414.71134457823615093730040825903 49:0.0086206896 229:0.0086206896 1311:0.0086206896 2010:0.0086206896 2380:0.0086206896 3738:0.0086206896 4319:0.0086206896 6654:0.0086206896 6657:0.0086206896 6763:0.0086206896 7113:0.0086206896 8561:0.0086206896 8562:0.0086206896 8563:0.0086206896 8564:0.0086206896 #
-414.71134457823615093730040825903 64:0.012820513 335:0.012820513 1013:0.012820513 1486:0.012820513 1630:0.012820513 3676:0.012820513 3809:0.012820513 12091:0.012820513 12273:0.012820513 #
414.71134457823615093730040825903 50:0.021739131 445:0.021739131 516:0.021739131 1220:0.021739131 1382:0.021739131 1556:0.021739131 2137:0.021739131 11258:0.021739131 #
185.67563905877048568981990683824 1548:0.043478262 5975:0.043478262 17427:0.043478262 #
81.623735083158408087911084294319 229:0.0625 245:0.0625 11319:0.0625 #
381.28223181114088902177172712982 1290:0.015625 5295:0.015625 7840:0.015625 8713:0.015625 12772:0.015625 13471:0.015625 15758:0.015625 19006:0.015625 #
-414.71134457823615093730040825903 9:0.039999999 171:0.039999999 267:0.039999999 2836:0.039999999 #
-414.71134457823615093730040825903 41:0.010989011 167:0.010989011 168:0.010989011 2233:0.010989011 3015:0.010989011 5287:0.010989011 7836:0.010989011 11707:0.010989011 11708:0.010989011 11709:0.010989011 11710:0.010989011 11711:0.010989011 11712:0.010989011 #
-414.71134457823615093730040825903 163:0.027777778 171:0.027777778 197:0.027777778 2353:0.027777778 12596:0.027777778 #
-414.71134457823615093730040825903 9:0.11111111 3177:0.055555556 #
414.71134457823615093730040825903 196:0.013888889 535:0.013888889 852:0.013888889 881:0.013888889 1733:0.013888889 2841:0.013888889 8872:0.013888889 9421:0.013888889 18417:0.013888889 19644:0.013888889 #
414.71134457823615093730040825903 149:0.029411765 393:0.029411765 541:0.029411765 1290:0.029411765 1892:0.029411765 4227:0.029411765 #
358.73551392759100053808651864529 149:0.045454547 273:0.045454547 4695:0.045454547 9254:0.045454547 #
151.4305231128184061617503175512 15695:0.05882353 15696:0.05882353 #
414.71134457823615093730040825903 57:0.010204081 203:0.010204081 229:0.010204081 953:0.010204081 1005:0.010204081 1183:0.010204081 1705:0.010204081 3148:0.010204081 3354:0.010204081 4685:0.010204081 6733:0.010204081 10225:0.010204081 18046:0.010204081 #
414.71134457823615093730040825903 149:0.018867925 677:0.018867925 1800:0.018867925 1839:0.018867925 2802:0.018867925 4284:0.018867925 8909:0.018867925 #
-414.71134457823615093730040825903 149:0.025641026 252:0.051282052 273:0.025641026 321:0.025641026 1270:0.025641026 9393:0.025641026 #
-414.71134457823615093730040825903 47:0.013157895 60:0.013157895 126:0.013157895 548:0.013157895 608:0.013157895 852:0.013157895 1332:0.013157895 2740:0.013157895 2742:0.013157895 2769:0.013157895 5637:0.013157895 8158:0.013157895 #
-414.71134457823615093730040825903 149:0.050000001 214:0.050000001 720:0.050000001 2388:0.050000001 #
-202.27784661509349461994133889675 4695:0.083333336 7759:0.083333336 #
414.71134457823615093730040825903 60:0.0090909088 245:0.0090909088 305:0.0090909088 881:0.0090909088 1815:0.0090909088 2546:0.0090909088 4232:0.0090909088 5245:0.0090909088 8294:0.0090909088 12262:0.0090909088 14650:0.0090909088 17484:0.0090909088 18210:0.0090909088 19769:0.0090909088 #
414.71134457823615093730040825903 9:0.017241379 198:0.017241379 323:0.017241379 344:0.017241379 546:0.017241379 1239:0.017241379 1318:0.017241379 1480:0.017241379 3243:0.017241379 4267:0.017241379 8017:0.017241379 #
414.71134457823615093730040825903 360:0.0052910051 426:0.0052910051 814:0.0052910051 1331:0.0052910051 1710:0.0052910051 1832:0.0052910051 2009:0.0052910051 2185:0.0052910051 2841:0.0052910051 4321:0.0052910051 4357:0.0052910051 4398:0.0052910051 4586:0.0052910051 5816:0.0052910051 6292:0.0052910051 8534:0.0052910051 8773:0.0052910051 15961:0.0052910051 15962:0.0052910051 15963:0.0052910051 15964:0.0052910051 #
414.71134457823615093730040825903 1156:0.0099009899 1498:0.0099009899 3221:0.0099009899 3321:0.0099009899 4641:0.0099009899 7274:0.0099009899 7562:0.0099009899 9650:0.0099009899 16346:0.0099009899 16347:0.0099009899 16348:0.0099009899 #
414.71134457823615093730040825903 9:0.055555556 1244:0.055555556 1733:0.055555556 #
-68.95800395663412984958995366469 15:0.013333334 67:0.013333334 563:0.013333334 1671:0.013333334 1733:0.013333334 2730:0.013333334 4121:0.013333334 4489:0.013333334 6417:0.013333334 6418:0.013333334 #
-76.203153982427309642844193149358 9:0.055555556 50:0.055555556 1803:0.055555556 #
-414.71134457823615093730040825903 9:0.047619049 1733:0.047619049 8064:0.047619049 #
-17.652455335934391200680693145841 9:0.037037037 336:0.037037037 1733:0.037037037 7230:0.037037037 #
414.71134457823615093730040825903 307:0.018518519 509:0.018518519 710:0.018518519 739:0.018518519 3188:0.018518519 3261:0.018518519 13382:0.018518519 13973:0.018518519 #
223.15895793097951127492706291378 43:0.0080000004 149:0.0080000004 238:0.0080000004 789:0.0080000004 796:0.0080000004 1258:0.0080000004 1407:0.0080000004 1798:0.0080000004 1818:0.0080000004 4173:0.0080000004 4899:0.0080000004 5236:0.0080000004 11257:0.0080000004 13015:0.0080000004 16889:0.0080000004 16890:0.0080000004 #
414.71134457823615093730040825903 60:0.02 124:0.02 273:0.02 739:0.02 3860:0.02 6718:0.02 16220:0.02 16221:0.02 #
414.71134457823615093730040825903 3:0.02631579 214:0.02631579 1055:0.02631579 13722:0.02631579 13723:0.02631579 #
-414.71134457823615093730040825903 739:0.090909094 2957:0.090909094 #
-414.71134457823615093730040825903 541:0.052631579 999:0.052631579 1596:0.052631579 #
-278.01217661678447257145307958126 191:0.06666667 440:0.06666667 739:0.06666667 #
414.71134457823615093730040825903 39:0.0065359478 281:0.0065359478 295:0.0065359478 328:0.0065359478 426:0.0065359478 549:0.0065359478 695:0.0065359478 846:0.0065359478 1864:0.0065359478 2886:0.0065359478 4593:0.0065359478 4975:0.0065359478 5154:0.0065359478 5155:0.0065359478 5379:0.0065359478 7986:0.0065359478 10996:0.0065359478 13515:0.0065359478 14308:0.0065359478 14335:0.0065359478 16943:0.0065359478 #
-414.71134457823615093730040825903 1240:0.039999999 1241:0.039999999 1556:0.039999999 #
207.606005836280104404067969881 25:0.01754386 1844:0.01754386 2222:0.01754386 3595:0.01754386 3782:0.01754386 12202:0.01754386 18460:0.01754386 #
197.69522325592487277390318922698 9:0.050000001 50:0.050000001 18631:0.050000001 #
5.4409225155662106487852724967524 38:0.015151516 321:0.015151516 849:0.015151516 6064:0.015151516 10664:0.015151516 14082:0.015151516 15481:0.015151516 15482:0.015151516 #
-414.71134457823615093730040825903 9:0.022727273 50:0.022727273 541:0.022727273 796:0.022727273 1244:0.022727273 1322:0.022727273 1841:0.022727273 #
-332.39498433635822038922924548388 50:0.03846154 1177:0.03846154 1244:0.03846154 5923:0.03846154 #
-414.71134457823615093730040825903 50:0.090909094 2341:0.090909094 #
112.48805336951249955745879560709 173:0.0095238099 1603:0.0095238099 2582:0.0095238099 3004:0.0095238099 3910:0.0095238099 4354:0.0095238099 5475:0.0095238099 7157:0.0095238099 12596:0.0095238099 14364:0.0095238099 14852:0.0095238099 14911:0.0095238099 18639:0.0095238099 #
414.71134457823615093730040825903 197:0.021276595 336:0.021276595 2957:0.021276595 4607:0.021276595 5831:0.021276595 11913:0.021276595 #
-206.73270270074246468539058696479 149:0.012345679 241:0.012345679 245:0.012345679 639:0.012345679 2244:0.012345679 4635:0.012345679 7419:0.012345679 7999:0.012345679 11074:0.012345679 12414:0.012345679 12614:0.012345679 12615:0.012345679 #
-56.88783152788430186319601489231 8806:0.07692308 8807:0.07692308 #
338.36055442823936800778028555214 149:0.0086206896 233:0.0086206896 234:0.0086206896 904:0.0086206896 1363:0.0086206896 1550:0.0086206896 6113:0.0086206896 6686:0.0086206896 7209:0.0086206896 12264:0.0086206896 15236:0.0086206896 17827:0.0086206896 19686:0.0086206896 19687:0.0086206896 19688:0.0086206896 #
-414.71134457823615093730040825903 393:0.02631579 608:0.02631579 2974:0.02631579 3474:0.02631579 12359:0.02631579 12360:0.02631579 #
-414.71134457823615093730040825903 2687:0.032258064 3283:0.032258064 5937:0.032258064 #
-15.478121177140561570695354021154 160:0.018181818 1004:0.018181818 2077:0.018181818 2526:0.018181818 7207:0.018181818 12012:0.018181818 #
-414.71134457823615093730040825903 2:0.0051282053 50:0.0051282053 370:0.0051282053 607:0.0051282053 695:0.010256411 925:0.0051282053 1005:0.015384615 1006:0.0051282053 1323:0.0051282053 2858:0.0051282053 2996:0.0051282053 3185:0.0051282053 3883:0.0051282053 4202:0.0051282053 6719:0.0051282053 6720:0.0051282053 6721:0.0051282053 6722:0.0051282053 6723:0.0051282053 6724:0.0051282053 6725:0.0051282053 6726:0.0051282053 6727:0.0051282053 #
414.71134457823615093730040825903 50:0.11111111 853:0.055555556 #
-414.71134457823615093730040825903 137:0.024390243 423:0.024390243 662:0.024390243 2021:0.024390243 5254:0.024390243 #
414.71134457823615093730040825903 50:0.1 612:0.1 #
414.71134457823615093730040825903 50:0.041666668 171:0.041666668 191:0.041666668 739:0.041666668 #
-414.71134457823615093730040825903 49:0.02631579 50:0.052631579 739:0.052631579 5559:0.02631579 7609:0.02631579 #
-414.71134457823615093730040825903 61:0.013333334 452:0.013333334 1093:0.013333334 1541:0.013333334 8773:0.013333334 9011:0.013333334 10149:0.013333334 10150:0.013333334 10151:0.013333334 #
-414.71134457823615093730040825903 50:0.083333336 443:0.083333336 #
414.71134457823615093730040825903 1177:0.0625 3283:0.0625 #
414.71134457823615093730040825903 149:0.034482758 198:0.034482758 313:0.034482758 541:0.034482758 2341:0.034482758 #
243.15973159096782296728633809835 796:0.055555556 7366:0.055555556 #
356.42229736485501234710682183504 16:0.0071942448 149:0.0071942448 442:0.0071942448 675:0.0071942448 781:0.0071942448 1283:0.0071942448 1550:0.0071942448 1769:0.0071942448 2582:0.0071942448 2657:0.0071942448 3881:0.0071942448 3984:0.0071942448 6857:0.0071942448 10743:0.0071942448 17310:0.0071942448 17311:0.0071942448 17312:0.0071942448 17313:0.0071942448 #
326.10552278892703270685160532594 41:0.0064516128 394:0.0064516128 459:0.0064516128 1507:0.0064516128 2081:0.0064516128 2193:0.0064516128 2872:0.0064516128 2912:0.0064516128 3048:0.0064516128 6063:0.0064516128 8431:0.0064516128 9274:0.0064516128 9557:0.0064516128 13615:0.0064516128 15579:0.0064516128 15580:0.0064516128 15581:0.0064516128 #
-320.16416653803702274672104977071 252:0.014925373 1038:0.014925373 1169:0.014925373 1483:0.014925373 2684:0.014925373 8218:0.014925373 12854:0.014925373 12855:0.014925373 12856:0.014925373 12857:0.014925373 #
-414.71134457823615093730040825903 41:0.03846154 191:0.03846154 1382:0.03846154 3129:0.03846154 #
-414.71134457823615093730040825903 149:0.019607844 191:0.039215688 1252:0.019607844 2582:0.019607844 6006:0.019607844 6076:0.019607844 7309:0.019607844 #
205.6498322278685577657597605139 50:0.029411765 169:0.029411765 739:0.05882353 1332:0.05882353 1709:0.029411765 #
414.71134457823615093730040825903 50:0.03846154 190:0.03846154 228:0.03846154 739:0.03846154 1428:0.03846154 #
-414.71134457823615093730040825903 50:0.032258064 408:0.032258064 739:0.064516127 1332:0.064516127 1709:0.032258064 #
-414.71134457823615093730040825903 50:0.0081967209 60:0.0081967209 245:0.0081967209 323:0.0081967209 418:0.0081967209 638:0.0081967209 744:0.0081967209 782:0.0081967209 1663:0.0081967209 1781:0.0081967209 1793:0.0081967209 2131:0.0081967209 2424:0.0081967209 2445:0.0081967209 2508:0.0081967209 2547:0.0081967209 4572:0.0081967209 7630:0.0081967209 12870:0.0081967209 #
-414.71134457823615093730040825903 273:0.0070921984 638:0.0070921984 1170:0.0070921984 1566:0.0070921984 2839:0.0070921984 3403:0.0070921984 5161:0.014184397 6946:0.0070921984 8233:0.0070921984 8295:0.0070921984 8296:0.0070921984 8297:0.0070921984 8298:0.0070921984 8299:0.0070921984 #
414.71134457823615093730040825903 191:0.055555556 2353:0.055555556 4376:0.055555556 #
414.71134457823615093730040825903 90:0.035714287 191:0.035714287 10441:0.035714287 17528:0.035714287 #
414.71134457823615093730040825903 9:0.025 149:0.025 191:0.025 580:0.025 807:0.025 4686:0.025 #
414.71134457823615093730040825903 152:0.027027028 191:0.027027028 422:0.027027028 3129:0.027027028 16024:0.027027028 #
227.02044348754381530852697324008 82:0.019607844 149:0.019607844 315:0.019607844 425:0.019607844 443:0.019607844 785:0.019607844 1841:0.019607844 #
-414.71134457823615093730040825903 149:0.028571429 228:0.057142857 3526:0.028571429 3754:0.028571429 4985:0.028571429 #
-414.71134457823615093730040825903 128:0.033333335 228:0.033333335 459:0.033333335 6152:0.033333335 7682:0.033333335 #
-414.71134457823615093730040825903 126:0.022727273 228:0.045454547 418:0.022727273 638:0.022727273 726:0.022727273 2011:0.022727273 7242:0.022727273 #
-414.71134457823615093730040825903 149:0.028571429 171:0.028571429 318:0.028571429 511:0.028571429 1824:0.028571429 #
414.71134457823615093730040825903 50:0.024691358 128:0.012345679 273:0.012345679 516:0.012345679 739:0.024691358 1332:0.074074075 1709:0.012345679 4890:0.012345679 5968:0.012345679 17359:0.012345679 #
-221.41116913495503126796393189579 50:0.06666667 3140:0.06666667 4141:0.06666667 #
414.71134457823615093730040825903 422:0.025 1156:0.025 1177:0.025 1244:0.025 1924:0.025 7646:0.025 #
-70.659041750734218112484086304903 50:0.011111111 126:0.011111111 497:0.011111111 616:0.011111111 2068:0.011111111 2353:0.011111111 2547:0.011111111 2722:0.011111111 3177:0.011111111 3696:0.011111111 6546:0.011111111 9900:0.011111111 9901:0.011111111 9902:0.011111111 #
102.08691861668677347552147693932 2296:0.090909094 3109:0.090909094 #
414.71134457823615093730040825903 149:0.015151516 608:0.015151516 771:0.015151516 2531:0.015151516 3772:0.015151516 7562:0.015151516 13732:0.015151516 17603:0.015151516 #
414.71134457823615093730040825903 124:0.040816326 157:0.020408163 228:0.020408163 252:0.020408163 607:0.020408163 669:0.020408163 3738:0.020408163 15843:0.020408163 #
414.71134457823615093730040825903 228:0.018518519 420:0.018518519 1903:0.018518519 3781:0.018518519 4899:0.018518519 5923:0.018518519 10667:0.018518519 18517:0.018518519 #
414.71134457823615093730040825903 92:0.018181818 162:0.018181818 408:0.036363635 1092:0.018181818 2722:0.018181818 10838:0.018181818 13627:0.018181818 #
-12.111067111187026057450566440821 2037:0.14285715 #
-292.08326754552223292193957604468 46:0.03846154 169:0.03846154 422:0.03846154 12451:0.03846154 #
-414.71134457823615093730040825903 149:0.023809524 371:0.023809524 853:0.023809524 1839:0.023809524 3967:0.023809524 #
-227.1974381236395004179939860478 198:0.037037037 229:0.037037037 1578:0.037037037 2010:0.037037037 6355:0.037037037 #
414.71134457823615093730040825903 50:0.039999999 88:0.039999999 186:0.039999999 245:0.039999999 #
414.71134457823615093730040825903 739:0.052631579 1774:0.052631579 1824:0.052631579 #
414.71134457823615093730040825903 295:0.012658228 1093:0.012658228 1850:0.012658228 11317:0.012658228 16477:0.012658228 16478:0.012658228 19195:0.012658228 19196:0.012658228 #
-15.733005043807395395560888573527 50:0.029411765 90:0.029411765 162:0.029411765 186:0.029411765 1776:0.029411765 #
-147.97845733638612841787107754499 50:0.037037037 126:0.037037037 186:0.037037037 947:0.037037037 2232:0.037037037 #
-132.53009194907477308333909604698 50:0.033333335 64:0.033333335 322:0.033333335 739:0.033333335 5056:0.033333335 #
120.80451780181441279182763537392 213:0.090909094 3140:0.090909094 #
-414.71134457823615093730040825903 7:0.0099999998 547:0.0099999998 593:0.0099999998 665:0.0099999998 744:0.0099999998 1816:0.0099999998 1942:0.0099999998 6228:0.0099999998 9510:0.0099999998 9511:0.0099999998 9512:0.0099999998 9513:0.0099999998 9514:0.0099999998 #
414.71134457823615093730040825903 49:0.02631579 149:0.02631579 295:0.02631579 459:0.02631579 541:0.02631579 1578:0.02631579 2283:0.02631579 #
-414.71134457823615093730040825903 149:0.044117648 203:0.029411765 384:0.014705882 834:0.014705882 865:0.014705882 1015:0.014705882 1383:0.014705882 1774:0.014705882 2928:0.014705882 10912:0.014705882 #
-414.71134457823615093730040825903 755:0.0078125 1021:0.0078125 1585:0.0078125 2056:0.0078125 3300:0.0078125 3819:0.0078125 5133:0.0078125 5880:0.0078125 6761:0.0078125 9678:0.0078125 9679:0.0078125 9680:0.0078125 9681:0.0078125 9682:0.0078125 9683:0.0078125 9684:0.0078125 #
414.71134457823615093730040825903 90:0.16666667 #
414.71134457823615093730040825903 50:0.045454547 137:0.045454547 408:0.045454547 860:0.045454547 #
414.71134457823615093730040825903 50:0.035714287 322:0.035714287 547:0.035714287 739:0.035714287 9034:0.035714287 #
-414.71134457823615093730040825903 547:0.125 #
163.00100157269983469632279593498 50:0.020408163 60:0.020408163 360:0.020408163 453:0.020408163 1295:0.020408163 3140:0.020408163 7110:0.020408163 8204:0.020408163 15992:0.020408163 #
414.71134457823615093730040825903 336:0.009708738 842:0.009708738 3581:0.009708738 4170:0.009708738 5508:0.009708738 8680:0.009708738 14217:0.009708738 17203:0.009708738 17204:0.009708738 #
-414.71134457823615093730040825903 149:0.019607844 673:0.019607844 1499:0.019607844 3729:0.019607844 7020:0.019607844 11726:0.019607844 #
414.71134457823615093730040825903 83:0.015384615 306:0.015384615 535:0.015384615 2163:0.015384615 2916:0.015384615 4465:0.015384615 5831:0.015384615 10652:0.015384615 #
-414.71134457823615093730040825903 149:0.033333335 1593:0.033333335 2412:0.033333335 5631:0.033333335 #
-310.7350841964534424732846673578 89:0.027777778 90:0.027777778 149:0.027777778 643:0.027777778 1630:0.027777778 7570:0.027777778 #
-414.71134457823615093730040825903 79:0.0099999998 800:0.0099999998 4644:0.0099999998 5028:0.0099999998 5029:0.0099999998 5030:0.0099999998 5031:0.0099999998 5032:0.0099999998 5033:0.0099999998 5034:0.0099999998 5035:0.0099999998 5036:0.0099999998 5037:0.0099999998 5038:0.0099999998 #
216.49610317347202226301305927336 203:0.045454547 720:0.045454547 2119:0.045454547 17131:0.045454547 #
414.71134457823615093730040825903 126:0.064516127 308:0.032258064 14548:0.032258064 18296:0.064516127 #
210.79110568283169868664117529988 39:0.013157895 1427:0.013157895 1671:0.013157895 2389:0.013157895 2390:0.013157895 4134:0.013157895 4284:0.013157895 7861:0.065789476 15637:0.013157895 #
284.19258933531108368697459809482 186:0.024390243 314:0.024390243 808:0.024390243 1033:0.024390243 15546:0.024390243 15547:0.024390243 #
414.71134457823615093730040825903 50:0.028571429 314:0.028571429 477:0.028571429 2780:0.028571429 5108:0.028571429 #
-174.99537937611265192572318483144 137:0.071428575 558:0.071428575 #
-143.90662244724410356866428628564 50:0.02631579 88:0.02631579 229:0.02631579 791:0.02631579 2296:0.02631579 10782:0.02631579 #
-239.5156331324501479684840887785 518:0.02631579 955:0.02631579 1428:0.02631579 1774:0.02631579 3980:0.02631579 7297:0.02631579 #
414.71134457823615093730040825903 509:0.018867925 881:0.018867925 1656:0.018867925 2309:0.018867925 4567:0.018867925 8654:0.018867925 11028:0.018867925 17422:0.018867925 #
-125.40349486890212915568554308265 41:0.025 47:0.025 50:0.025 273:0.025 307:0.025 545:0.025 9254:0.025 #
414.71134457823615093730040825903 41:0.0092592593 149:0.0092592593 669:0.0092592593 1483:0.0092592593 1768:0.0092592593 2165:0.0092592593 2890:0.0092592593 4216:0.0092592593 5214:0.0092592593 7397:0.0092592593 8169:0.0092592593 10299:0.0092592593 11562:0.0092592593 15681:0.0092592593 #
-414.71134457823615093730040825903 60:0.0081967209 160:0.0081967209 245:0.0081967209 408:0.0081967209 638:0.0081967209 792:0.0081967209 881:0.0081967209 1332:0.0081967209 2018:0.0081967209 2483:0.0081967209 4304:0.0081967209 4808:0.0081967209 8370:0.0081967209 12294:0.0081967209 13190:0.0081967209 #
-263.79261248806255935051012784243 149:0.045454547 3888:0.045454547 4584:0.045454547 5448:0.045454547 #
414.71134457823615093730040825903 89:0.034482758 162:0.034482758 14803:0.034482758 17546:0.034482758 #
414.71134457823615093730040825903 41:0.033333335 1313:0.033333335 1630:0.033333335 3140:0.033333335 5050:0.033333335 #
414.71134457823615093730040825903 50:0.048780486 427:0.024390243 914:0.024390243 2957:0.024390243 8782:0.024390243 #
-285.32112402623386060440680012107 50:0.03846154 677:0.03846154 3140:0.07692308 8485:0.03846154 #
-414.71134457823615093730040825903 50:0.014492754 228:0.014492754 273:0.014492754 307:0.014492754 781:0.014492754 936:0.014492754 2858:0.014492754 3340:0.028985508 4204:0.014492754 4706:0.014492754 #
-414.71134457823615093730040825903 50:0.030303031 295:0.030303031 300:0.030303031 3140:0.030303031 10792:0.030303031 #
414.71134457823615093730040825903 535:0.012345679 868:0.012345679 1015:0.012345679 1159:0.012345679 2525:0.012345679 4177:0.012345679 5485:0.012345679 5747:0.012345679 16484:0.012345679 16485:0.012345679 16486:0.012345679 16487:0.012345679 #
-414.71134457823615093730040825903 50:0.035714287 183:0.035714287 999:0.035714287 1309:0.035714287 #
414.71134457823615093730040825903 25:0.01010101 160:0.01010101 322:0.01010101 538:0.01010101 1387:0.01010101 1692:0.01010101 3764:0.01010101 4456:0.01010101 4794:0.01010101 7346:0.01010101 10421:0.01010101 17810:0.01010101 17811:0.01010101 #
-123.72096935230842973396647721529 149:0.043478262 1548:0.043478262 3879:0.043478262 5223:0.043478262 #
-414.71134457823615093730040825903 149:0.041666668 939:0.041666668 11842:0.041666668 #
96.653841127970110846945317462087 50:0.052631579 1678:0.052631579 6878:0.052631579 #
414.71134457823615093730040825903 50:0.037037037 422:0.037037037 7090:0.037037037 9552:0.037037037 #
199.07754350479405047735781408846 50:0.0625 14515:0.0625 18761:0.0625 #
-414.71134457823615093730040825903 50:0.011627907 337:0.011627907 774:0.011627907 1539:0.011627907 6669:0.011627907 7693:0.011627907 7694:0.011627907 7695:0.011627907 7696:0.011627907 7697:0.011627907 #
414.71134457823615093730040825903 149:0.029411765 4329:0.029411765 11278:0.029411765 15581:0.029411765 #
414.71134457823615093730040825903 149:0.020408163 160:0.020408163 162:0.020408163 1602:0.020408163 1630:0.020408163 1828:0.020408163 12611:0.020408163 #
414.71134457823615093730040825903 162:0.023809524 214:0.023809524 511:0.023809524 9274:0.023809524 11621:0.023809524 11840:0.023809524 #
193.89580424969543059887655545026 1220:0.010989011 3397:0.010989011 3868:0.010989011 4344:0.010989011 8239:0.010989011 10343:0.010989011 11078:0.010989011 14421:0.010989011 18150:0.010989011 18151:0.010989011 18152:0.010989011 18153:0.010989011 #
-164.44814646759184029178868513554 7090:0.047619049 13467:0.047619049 13468:0.047619049 #
-414.71134457823615093730040825903 149:0.025641026 1308:0.025641026 6708:0.025641026 6878:0.025641026 7338:0.025641026 #
-414.71134457823615093730040825903 124:0.037037037 323:0.037037037 422:0.037037037 3795:0.037037037 6558:0.037037037 #
414.71134457823615093730040825903 50:0.051282052 3830:0.025641026 10634:0.025641026 17869:0.025641026 #
345.04041575785129225550917908549 50:0.050000001 11899:0.050000001 17627:0.050000001 #
-164.68228213041743401845451444387 50:0.055555556 330:0.055555556 4075:0.055555556 #
-96.842240967627091663416649680585 50:0.050000001 3236:0.050000001 12898:0.050000001 #
164.35437726714980044562253169715 149:0.01754386 443:0.03508772 1155:0.01754386 1552:0.01754386 12253:0.01754386 14087:0.01754386 15433:0.01754386 15434:0.01754386 #
-13.802231807074212710517713276204 188:0.023809524 196:0.023809524 2189:0.023809524 3652:0.023809524 8818:0.023809524 8819:0.023809524 #
238.88568817221414519735844805837 149:0.022727273 320:0.022727273 1407:0.022727273 1548:0.022727273 2471:0.022727273 4466:0.022727273 13609:0.022727273 #
414.71134457823615093730040825903 41:0.022222223 149:0.022222223 323:0.022222223 582:0.022222223 9770:0.022222223 16444:0.022222223 #
414.71134457823615093730040825903 443:0.02631579 600:0.02631579 953:0.02631579 1665:0.02631579 1972:0.02631579 2131:0.02631579 #
-414.71134457823615093730040825903 149:0.25 #
-414.71134457823615093730040825903 41:0.033333335 238:0.033333335 9034:0.033333335 9274:0.033333335 #
398.98835546961885256678215228021 846:0.011764706 1323:0.011764706 4504:0.011764706 5379:0.011764706 6300:0.011764706 7552:0.011764706 13793:0.011764706 14641:0.011764706 19266:0.011764706 19267:0.011764706 #
-125.51533641207416280849429313093 13:0.039999999 834:0.039999999 1892:0.039999999 2816:0.039999999 #
376.67304097306811172529705800116 3236:0.083333336 3665:0.083333336 #
93.749359746524035585935052949935 50:0.041666668 183:0.041666668 2291:0.041666668 6708:0.041666668 #
414.71134457823615093730040825903 41:0.02631579 330:0.052631579 947:0.02631579 3041:0.02631579 7923:0.02631579 17151:0.02631579 #
-191.16963160737068960770557168871 41:0.037037037 798:0.037037037 1412:0.037037037 3041:0.037037037 #
-414.71134457823615093730040825903 408:0.018518519 548:0.018518519 860:0.018518519 2337:0.018518519 3909:0.018518519 5362:0.018518519 11297:0.018518519 #
-414.71134457823615093730040825903 484:0.03125 485:0.03125 1252:0.03125 1393:0.03125 5899:0.03125 #
-414.71134457823615093730040825903 9:0.01754386 94:0.01754386 1175:0.01754386 1593:0.01754386 2338:0.01754386 5937:0.01754386 6399:0.01754386 #
-414.71134457823615093730040825903 41:0.016666668 94:0.016666668 1503:0.016666668 1505:0.016666668 1860:0.016666668 3151:0.016666668 3152:0.016666668 5020:0.016666668 #
206.62059728828268134748213924468 999:0.047619049 1322:0.047619049 3390:0.047619049 #
-1.2753351839886677421276317545562 445:0.035714287 2064:0.035714287 3293:0.035714287 7929:0.035714287 9617:0.035714287 #
414.71134457823615093730040825903 50:0.023809524 1309:0.023809524 5379:0.023809524 15893:0.023809524 16997:0.023809524 #
154.84878441729782139191229362041 198:0.01754386 360:0.01754386 430:0.01754386 1170:0.01754386 3613:0.01754386 4642:0.01754386 6992:0.01754386 8703:0.01754386 13405:0.01754386 15344:0.01754386 #
232.16498428321051505918148905039 149:0.0078125 284:0.0078125 548:0.0078125 1564:0.0078125 1668:0.0078125 3658:0.0078125 3964:0.0078125 5541:0.0078125 12132:0.0078125 13658:0.0078125 16049:0.0078125 18272:0.0078125 18273:0.0078125 18274:0.0078125 18275:0.0078125 #
-414.71134457823615093730040825903 350:0.018181818 1480:0.018181818 1520:0.018181818 1623:0.018181818 5869:0.018181818 8929:0.018181818 10945:0.018181818 11700:0.018181818 #
-414.71134457823615093730040825903 535:0.06666667 13233:0.06666667 #
-414.71134457823615093730040825903 41:0.0074626864 43:0.0074626864 376:0.0074626864 430:0.0074626864 774:0.0074626864 881:0.0074626864 947:0.014925373 1000:0.0074626864 1156:0.0074626864 1733:0.0074626864 3065:0.0074626864 4850:0.0074626864 5107:0.0074626864 5865:0.0074626864 6892:0.0074626864 7868:0.0074626864 7869:0.0074626864 7870:0.0074626864 #
384.43064705406061420944752171636 321:0.083333336 5937:0.083333336 #
414.71134457823615093730040825903 743:0.0099009899 774:0.0099009899 1274:0.0099009899 2077:0.0099009899 2302:0.0099009899 2521:0.0099009899 2999:0.0099009899 3619:0.0099009899 4354:0.0099009899 6761:0.0099009899 12101:0.0099009899 16941:0.0099009899 16942:0.0099009899 #
250.39854995216393263035570271313 798:0.090909094 10720:0.090909094 #
414.71134457823615093730040825903 41:0.032786883 228:0.016393442 229:0.016393442 580:0.016393442 990:0.016393442 1550:0.016393442 2010:0.016393442 4871:0.016393442 15256:0.016393442 #
-414.71134457823615093730040825903 321:0.05882353 1091:0.05882353 1772:0.05882353 #
-317.28031383482635874315747059882 321:0.033333335 1207:0.033333335 4890:0.033333335 5286:0.033333335 5555:0.033333335 #
-414.71134457823615093730040825903 149:0.02 152:0.02 245:0.02 756:0.02 807:0.02 808:0.02 895:0.02 1169:0.02 3390:0.02 #
-141.99174387838056077271176036447 229:0.055555556 538:0.055555556 5927:0.055555556 #
-1.7684873197209582951217043955694 1322:0.043478262 1573:0.043478262 6329:0.043478262 #
-278.66739919276375303525128401816 38:0.013513514 751:0.013513514 4382:0.013513514 5126:0.013513514 8214:0.013513514 10234:0.013513514 11714:0.013513514 11715:0.013513514 #
414.71134457823615093730040825903 93:0.034482758 351:0.034482758 1375:0.034482758 #
-414.71134457823615093730040825903 149:0.0088495575 179:0.0088495575 191:0.0088495575 238:0.0088495575 367:0.0088495575 2291:0.0088495575 2749:0.0088495575 4006:0.0088495575 4650:0.0088495575 12026:0.0088495575 12027:0.0088495575 12028:0.0088495575 12029:0.0088495575 #
-78.797926617048403841181425377727 50:0.012658228 346:0.012658228 706:0.012658228 1708:0.012658228 1876:0.012658228 2957:0.012658228 3005:0.012658228 4055:0.012658228 13449:0.012658228 13450:0.012658228 13451:0.012658228 #
414.71134457823615093730040825903 149:0.03846154 502:0.03846154 756:0.03846154 1021:0.03846154 1169:0.03846154 #
414.71134457823615093730040825903 149:0.023809524 245:0.023809524 1156:0.023809524 1169:0.023809524 9342:0.023809524 18944:0.023809524 #
414.71134457823615093730040825903 57:0.011904762 1048:0.011904762 1054:0.011904762 1100:0.011904762 1313:0.011904762 2185:0.011904762 3400:0.011904762 3447:0.011904762 3649:0.011904762 6574:0.011904762 7334:0.011904762 16818:0.011904762 #
-414.71134457823615093730040825903 245:0.06666667 430:0.06666667 836:0.06666667 #
-414.71134457823615093730040825903 149:0.025 245:0.025 739:0.025 915:0.025 3418:0.025 4776:0.025 12493:0.025 #
297.47960344437444746290566399693 50:0.028571429 321:0.028571429 2338:0.028571429 2526:0.028571429 4217:0.028571429 #
379.94056195198521663769497536123 50:0.035714287 198:0.035714287 321:0.035714287 1949:0.035714287 4758:0.035714287 11926:0.035714287 #
249.30813678553340650978498160839 360:0.027777778 545:0.027777778 1091:0.027777778 1839:0.027777778 10421:0.027777778 #
-414.71134457823615093730040825903 321:0.023809524 422:0.023809524 744:0.023809524 3910:0.023809524 4431:0.023809524 9401:0.023809524 #
-91.475263643713731198658933863044 43:0.011494253 50:0.022988506 136:0.011494253 606:0.011494253 1124:0.011494253 1866:0.011494253 1876:0.011494253 3961:0.022988506 10926:0.011494253 10927:0.011494253 #
414.71134457823615093730040825903 836:0.07692308 1819:0.07692308 #
414.71134457823615093730040825903 48:0.052631579 245:0.052631579 758:0.052631579 2559:0.052631579 #
414.71134457823615093730040825903 126:0.032258064 245:0.032258064 430:0.032258064 752:0.032258064 2390:0.032258064 4282:0.032258064 #
74.153399589800784497128915973008 245:0.022222223 739:0.022222223 815:0.022222223 2542:0.022222223 2927:0.022222223 5559:0.022222223 8700:0.022222223 13593:0.022222223 #
414.71134457823615093730040825903 49:0.0082644625 82:0.0082644625 191:0.0082644625 1383:0.0082644625 1429:0.0082644625 1647:0.0082644625 1836:0.0082644625 2084:0.0082644625 3595:0.0082644625 6339:0.0082644625 6708:0.0082644625 7536:0.0082644625 12702:0.0082644625 15318:0.0082644625 15791:0.0082644625 #
-154.05866724908165110718982759863 617:0.086956523 1237:0.086956523 #
-167.23402764986784063694358337671 612:0.041666668 718:0.041666668 1819:0.041666668 #
414.71134457823615093730040825903 186:0.01923077 273:0.01923077 807:0.01923077 1585:0.01923077 3140:0.01923077 4478:0.01923077 16027:0.01923077 17395:0.01923077 #
73.70798886045756148632790427655 149:0.03846154 4431:0.03846154 13219:0.03846154 #
414.71134457823615093730040825903 252:0.03125 273:0.03125 1973:0.03125 3340:0.03125 6020:0.03125 #
414.71134457823615093730040825903 160:0.029411765 273:0.029411765 11258:0.029411765 16632:0.029411765 16633:0.029411765 #
-232.53815856021196850633714348078 149:0.03125 752:0.03125 755:0.03125 1632:0.03125 5369:0.03125 #
-414.71134457823615093730040825903 149:0.018867925 1375:0.018867925 8148:0.018867925 8631:0.018867925 8632:0.018867925 8633:0.018867925 8634:0.018867925 #
-414.71134457823615093730040825903 354:0.025 355:0.025 1375:0.025 1438:0.025 8815:0.025 #
-414.71134457823615093730040825903 124:0.1 126:0.1 #
166.92333870075825075218745041639 612:0.0625 14512:0.0625 #
414.71134457823615093730040825903 50:0.0069444445 171:0.0069444445 295:0.0069444445 336:0.0069444445 337:0.0069444445 403:0.0069444445 449:0.0069444445 751:0.0069444445 1055:0.0069444445 1159:0.0069444445 1678:0.0069444445 2563:0.0069444445 2587:0.0069444445 2693:0.0069444445 9105:0.0069444445 10404:0.0069444445 13590:0.0069444445 16676:0.0069444445 18270:0.0069444445 18302:0.0069444445 #
414.71134457823615093730040825903 718:0.041666668 1839:0.041666668 #
-240.43373143879620101870386861265 476:0.012658228 477:0.012658228 677:0.012658228 1141:0.012658228 1437:0.012658228 1635:0.012658228 1972:0.012658228 2598:0.012658228 5110:0.012658228 5313:0.012658228 #
-414.71134457823615093730040825903 1839:0.032258064 7397:0.032258064 7398:0.032258064 #
-414.71134457823615093730040825903 50:0.02 241:0.02 335:0.02 854:0.02 1819:0.02 1839:0.02 #
-414.71134457823615093730040825903 1839:0.052631579 2023:0.052631579 #
414.71134457823615093730040825903 137:0.047619049 149:0.047619049 354:0.047619049 808:0.047619049 #
414.71134457823615093730040825903 149:0.0099999998 2383:0.0099999998 3676:0.0099999998 6712:0.0099999998 7329:0.0099999998 8221:0.0099999998 8331:0.0099999998 12347:0.0099999998 14069:0.0099999998 16594:0.0099999998 17096:0.0099999998 17480:0.0099999998 #
215.90056686216328785121731925756 355:0.05882353 3044:0.05882353 #
208.79048645164090203252271749079 124:0.052631579 2924:0.052631579 3773:0.052631579 #
414.71134457823615093730040825903 617:0.033333335 2394:0.033333335 8060:0.033333335 8876:0.033333335 #
-127.54584767823020285959501052275 190:0.012658228 245:0.012658228 255:0.012658228 2858:0.012658228 2890:0.012658228 4742:0.012658228 4825:0.012658228 6897:0.012658228 8038:0.012658228 13128:0.012658228 #
-414.71134457823615093730040825903 41:0.021276595 157:0.021276595 196:0.021276595 580:0.021276595 607:0.021276595 608:0.021276595 1556:0.021276595 2394:0.04255319 7359:0.021276595 #
-414.71134457823615093730040825903 57:0.039999999 3773:0.039999999 8782:0.039999999 #
414.71134457823615093730040825903 39:0.009708738 176:0.009708738 196:0.009708738 241:0.009708738 305:0.009708738 662:0.009708738 688:0.009708738 814:0.009708738 1671:0.009708738 1798:0.009708738 2563:0.009708738 3005:0.009708738 5572:0.009708738 #
414.71134457823615093730040825903 535:0.0125 887:0.0125 3441:0.0125 10374:0.0125 17768:0.0125 17769:0.0125 17770:0.0125 17771:0.0125 17772:0.0125 17773:0.0125 17774:0.0125 #
414.71134457823615093730040825903 238:0.029411765 8604:0.029411765 18410:0.029411765 #
414.71134457823615093730040825903 9:0.022727273 49:0.022727273 307:0.022727273 384:0.022727273 1054:0.022727273 3352:0.022727273 5555:0.022727273 #
414.71134457823615093730040825903 241:0.047619049 352:0.047619049 19308:0.047619049 #
414.71134457823615093730040825903 149:0.016129032 163:0.016129032 1215:0.016129032 1250:0.016129032 1410:0.016129032 5395:0.016129032 7552:0.016129032 16024:0.016129032 #
-290.94825212854436813358915969729 137:0.03846154 5217:0.03846154 12433:0.03846154 12434:0.03846154 #
-414.71134457823615093730040825903 78:0.02631579 137:0.02631579 5968:0.02631579 7127:0.02631579 11245:0.02631579 #
-140.17528909610592791068484075367 137:0.037037037 879:0.037037037 1017:0.037037037 2888:0.037037037 #
333.5612909866455879637214820832 46:0.011764706 50:0.011764706 459:0.023529412 726:0.011764706 3445:0.011764706 8381:0.011764706 13879:0.011764706 18821:0.011764706 18822:0.011764706 18823:0.011764706 18824:0.011764706 #
-41.404859435815197343799809459597 683:0.039999999 1671:0.039999999 3044:0.039999999 #
414.71134457823615093730040825903 2:0.03125 196:0.03125 459:0.03125 607:0.03125 608:0.03125 4071:0.03125 #
414.71134457823615093730040825903 57:0.034482758 561:0.034482758 1989:0.034482758 3918:0.034482758 #
414.71134457823615093730040825903 57:0.02631579 149:0.02631579 915:0.02631579 16676:0.02631579 16677:0.02631579 16678:0.02631579 #
414.71134457823615093730040825903 55:0.017241379 149:0.017241379 314:0.017241379 677:0.017241379 1117:0.017241379 1270:0.017241379 7397:0.017241379 18010:0.017241379 #
-108.98125346277994651700282702222 2:0.035714287 149:0.035714287 2118:0.035714287 3656:0.017857144 #
-414.71134457823615093730040825903 161:0.02631579 459:0.02631579 915:0.02631579 2399:0.02631579 8846:0.02631579 8847:0.02631579 #
-86.554386393164094215535442344844 277:0.0094339624 302:0.0094339624 344:0.0094339624 408:0.0094339624 569:0.0094339624 619:0.0094339624 990:0.0094339624 1004:0.0094339624 1570:0.0094339624 2077:0.0094339624 3124:0.0094339624 3447:0.0094339624 3484:0.0094339624 6635:0.0094339624 6636:0.0094339624 #
-414.71134457823615093730040825903 51:0.014084507 149:0.028169014 241:0.014084507 314:0.014084507 459:0.014084507 541:0.014084507 1115:0.014084507 1940:0.014084507 5723:0.014084507 5724:0.014084507 #
414.71134457823615093730040825903 64:0.022222223 67:0.022222223 78:0.022222223 315:0.022222223 5369:0.022222223 5588:0.022222223 #
414.71134457823615093730040825903 413:0.032258064 1556:0.032258064 11264:0.032258064 16030:0.032258064 #
414.71134457823615093730040825903 1437:0.029411765 1556:0.029411765 2618:0.029411765 4788:0.029411765 16032:0.029411765 #
-414.71134457823615093730040825903 85:0.0098039219 171:0.0098039219 272:0.0098039219 692:0.0098039219 3043:0.0098039219 3713:0.0098039219 7083:0.0098039219 10010:0.0098039219 10011:0.0098039219 10012:0.0098039219 10013:0.0098039219 10014:0.0098039219 #
-67.205628966483018871258536819369 90:0.055555556 203:0.055555556 3737:0.055555556 #
-414.71134457823615093730040825903 41:0.0078740157 60:0.015748031 276:0.0078740157 608:0.0078740157 1169:0.0078740157 1313:0.0078740157 1540:0.0078740157 2776:0.0078740157 3419:0.015748031 4354:0.015748031 4498:0.0078740157 8551:0.0078740157 8552:0.0078740157 8553:0.0078740157 #
-414.71134457823615093730040825903 60:0.027027028 90:0.027027028 3340:0.027027028 4724:0.027027028 7509:0.027027028 #
414.71134457823615093730040825903 149:0.037037037 210:0.037037037 241:0.037037037 1980:0.037037037 6686:0.037037037 #
414.71134457823615093730040825903 124:0.023255814 245:0.023255814 580:0.023255814 583:0.023255814 638:0.023255814 1393:0.023255814 7104:0.023255814 #
414.71134457823615093730040825903 137:0.0099999998 149:0.0099999998 322:0.0099999998 449:0.0099999998 1021:0.0099999998 2190:0.0099999998 2281:0.0099999998 2388:0.0099999998 3947:0.0099999998 5612:0.0099999998 8440:0.0099999998 9095:0.0099999998 11393:0.0099999998 16711:0.0099999998 16723:0.0099999998 #
323.53763333999745555047411471605 360:0.047619049 422:0.047619049 1058:0.047619049 4695:0.047619049 #
414.71134457823615093730040825903 161:0.02631579 193:0.02631579 535:0.02631579 1725:0.02631579 2406:0.02631579 4693:0.02631579 #
-414.71134457823615093730040825903 295:0.033333335 315:0.033333335 580:0.033333335 695:0.033333335 1578:0.033333335 #
126.04036162005785115525213768706 148:0.010526316 872:0.010526316 914:0.010526316 947:0.010526316 2232:0.010526316 2856:0.010526316 3124:0.010526316 3660:0.010526316 4642:0.010526316 5802:0.010526316 10755:0.010526316 12921:0.010526316 18728:0.010526316 #
173.55654179299787642776209395379 9:0.024390243 50:0.024390243 171:0.024390243 608:0.024390243 2450:0.024390243 15815:0.024390243 #
414.71134457823615093730040825903 67:0.050000001 1448:0.050000001 2353:0.050000001 #
414.71134457823615093730040825903 90:0.028571429 566:0.028571429 6458:0.028571429 7772:0.028571429 7773:0.028571429 #
414.71134457823615093730040825903 43:0.027027028 60:0.027027028 203:0.027027028 1244:0.027027028 1593:0.027027028 2067:0.027027028 #
414.71134457823615093730040825903 2629:0.02631579 3136:0.02631579 5383:0.02631579 6303:0.02631579 #
414.71134457823615093730040825903 946:0.013888889 1337:0.013888889 1647:0.013888889 3812:0.013888889 4604:0.013888889 4852:0.013888889 5474:0.013888889 15882:0.013888889 17777:0.013888889 #
-414.71134457823615093730040825903 41:0.0080000004 46:0.0080000004 121:0.0080000004 149:0.0080000004 207:0.0080000004 229:0.0080000004 273:0.0080000004 541:0.0080000004 582:0.0080000004 1804:0.016000001 1837:0.0080000004 1966:0.0080000004 2149:0.0080000004 2947:0.0080000004 3605:0.0080000004 4037:0.016000001 6002:0.0080000004 7192:0.0080000004 #
-414.71134457823615093730040825903 1299:0.0625 2353:0.0625 #
-414.71134457823615093730040825903 50:0.02 245:0.02 314:0.02 323:0.02 1021:0.02 1244:0.02 3283:0.02 7294:0.02 #
-38.171592445582113839464000193402 43:0.06666667 164:0.06666667 #
414.71134457823615093730040825903 41:0.011904762 323:0.011904762 636:0.011904762 718:0.011904762 846:0.011904762 1806:0.011904762 2723:0.011904762 13891:0.011904762 15209:0.011904762 15210:0.011904762 15211:0.011904762 #
-400.53467371416320474963868036866 49:0.0080645159 186:0.0080645159 238:0.0080645159 724:0.0080645159 1205:0.0080645159 1429:0.0080645159 1818:0.0080645159 3789:0.0080645159 5362:0.0080645159 5363:0.0080645159 5364:0.0080645159 5365:0.0080645159 5366:0.0080645159 5367:0.0080645159 5368:0.0080645159 #
-414.71134457823615093730040825903 198:0.010638298 267:0.010638298 1432:0.010638298 1819:0.010638298 6305:0.010638298 6785:0.010638298 6786:0.010638298 6787:0.010638298 6788:0.010638298 6789:0.010638298 6790:0.010638298 #
-414.71134457823615093730040825903 90:0.019607844 149:0.019607844 459:0.019607844 509:0.019607844 614:0.019607844 808:0.019607844 2283:0.019607844 9740:0.019607844 13012:0.019607844 #
-93.157870969608481459545146208256 190:0.030303031 509:0.030303031 638:0.030303031 1069:0.060606062 3520:0.030303031 9034:0.030303031 #
-414.71134457823615093730040825903 321:0.034482758 422:0.034482758 617:0.034482758 915:0.034482758 1252:0.034482758 #
-414.71134457823615093730040825903 149:0.023255814 321:0.023255814 2077:0.023255814 4168:0.023255814 7531:0.023255814 10786:0.023255814 #
206.56138238974267551384400576353 50:0.052631579 323:0.052631579 1903:0.052631579 18433:0.052631579 #
414.71134457823615093730040825903 15:0.033333335 50:0.033333335 126:0.033333335 323:0.033333335 5913:0.033333335 17247:0.033333335 #
414.71134457823615093730040825903 183:0.021276595 273:0.021276595 323:0.04255319 6464:0.04255319 12065:0.04255319 17642:0.021276595 #
313.8853808080461362806090619415 852:0.0625 1725:0.0625 2655:0.0625 #
414.71134457823615093730040825903 238:0.021276595 245:0.021276595 374:0.021276595 3005:0.021276595 9671:0.021276595 #
414.71134457823615093730040825903 63:0.016666668 67:0.016666668 173:0.016666668 695:0.033333335 1400:0.016666668 2341:0.016666668 4585:0.016666668 #
290.76596860118968379538273438811 509:0.011363637 1159:0.011363637 2149:0.011363637 2531:0.011363637 3355:0.011363637 4776:0.022727273 6113:0.011363637 6905:0.011363637 6959:0.011363637 7943:0.011363637 8169:0.011363637 13454:0.011363637 14706:0.011363637 #
-414.71134457823615093730040825903 245:0.025641026 1556:0.025641026 3860:0.025641026 3865:0.025641026 11724:0.025641026 11725:0.025641026 #
-414.71134457823615093730040825903 308:0.019607844 323:0.019607844 459:0.019607844 484:0.019607844 485:0.019607844 2460:0.019607844 2461:0.019607844 4850:0.019607844 #
-295.24615964322623540283530019224 814:0.039999999 1920:0.039999999 2658:0.039999999 12065:0.039999999 #
367.78820581940772171947173774242 9:0.0090090092 417:0.0090090092 825:0.0090090092 858:0.0090090092 1382:0.0090090092 1990:0.0090090092 2064:0.0090090092 2959:0.0090090092 2976:0.0090090092 3569:0.0090090092 5011:0.0090090092 8085:0.0090090092 13369:0.0090090092 18394:0.0090090092 18395:0.0090090092 #
279.99318244394606836067396216094 970:0.011904762 972:0.011904762 7012:0.023809524 12903:0.011904762 13546:0.011904762 18909:0.011904762 18910:0.011904762 18911:0.011904762 18912:0.011904762 18913:0.011904762 18914:0.011904762 #
198.44959498773309292118938174099 50:0.045454547 1068:0.045454547 8184:0.045454547 15996:0.045454547 #
-25.343112442936241990310008986853 201:0.027777778 3200:0.027777778 6226:0.027777778 7058:0.027777778 #
-414.71134457823615093730040825903 50:0.028571429 1450:0.028571429 1725:0.028571429 2242:0.028571429 2655:0.028571429 8764:0.028571429 #
-414.71134457823615093730040825903 15:0.030303031 183:0.030303031 321:0.030303031 11128:0.030303031 12470:0.030303031 #
414.71134457823615093730040825903 60:0.033333335 453:0.033333335 695:0.033333335 739:0.033333335 2994:0.033333335 4177:0.033333335 #
368.90826989949346170760691165924 739:0.07692308 1028:0.07692308 #
414.71134457823615093730040825903 60:0.052631579 739:0.052631579 1139:0.052631579 #
414.71134457823615093730040825903 94:0.0084745763 137:0.0084745763 149:0.0084745763 640:0.0084745763 723:0.0084745763 1540:0.0084745763 2003:0.0084745763 2169:0.0084745763 3065:0.0084745763 7689:0.0084745763 7755:0.0084745763 8058:0.0084745763 12347:0.0084745763 19260:0.0084745763 #
414.71134457823615093730040825903 193:0.020408163 229:0.020408163 921:0.020408163 1115:0.020408163 3526:0.020408163 12401:0.020408163 18267:0.020408163 #
-414.71134457823615093730040825903 370:0.045454547 739:0.045454547 9409:0.045454547 #
-414.71134457823615093730040825903 739:0.045454547 1254:0.045454547 4404:0.045454547 #
-414.71134457823615093730040825903 9:0.022222223 852:0.022222223 1177:0.022222223 2130:0.022222223 3140:0.022222223 4012:0.022222223 10373:0.022222223 #
414.71134457823615093730040825903 15:0.020833334 580:0.020833334 915:0.020833334 959:0.020833334 1078:0.020833334 1186:0.020833334 1450:0.020833334 2338:0.020833334 3261:0.020833334 #
414.71134457823615093730040825903 2:0.02631579 1725:0.02631579 3033:0.02631579 4088:0.02631579 19110:0.02631579 #
414.71134457823615093730040825903 50:0.01923077 183:0.01923077 245:0.03846154 321:0.01923077 643:0.01923077 865:0.01923077 1401:0.01923077 6123:0.01923077 #
353.30291217073892084954422898591 245:0.0099999998 519:0.0099999998 834:0.0099999998 3132:0.0099999998 3659:0.0099999998 5111:0.0099999998 5732:0.0099999998 8008:0.0099999998 8626:0.0099999998 10131:0.0099999998 11188:0.0099999998 14478:0.0099999998 17882:0.0099999998 17883:0.0099999998 #
-414.71134457823615093730040825903 60:0.013888889 90:0.013888889 229:0.013888889 580:0.013888889 2823:0.013888889 6002:0.013888889 6458:0.013888889 7192:0.013888889 7771:0.013888889 7772:0.013888889 7773:0.013888889 #
-66.943159581553814518883882556111 308:0.03846154 580:0.03846154 643:0.03846154 1722:0.03846154 5842:0.03846154 #
-414.71134457823615093730040825903 643:0.050000001 1028:0.050000001 2071:0.050000001 #
414.71134457823615093730040825903 682:0.06666667 739:0.06666667 1254:0.06666667 #
414.71134457823615093730040825903 1650:0.013333334 2375:0.013333334 2565:0.013333334 3181:0.013333334 3449:0.013333334 10751:0.013333334 15922:0.013333334 18077:0.013333334 18078:0.013333334 #
-68.995325140658437135243730153888 9015:0.05882353 9016:0.05882353 #
-414.71134457823615093730040825903 149:0.030303031 739:0.030303031 2475:0.030303031 13245:0.030303031 #
414.71134457823615093730040825903 50:0.030303031 190:0.030303031 370:0.030303031 581:0.030303031 582:0.030303031 #
366.33213104110069480157108046114 1578:0.034482758 1741:0.034482758 3140:0.034482758 4680:0.034482758 5955:0.034482758 #
414.71134457823615093730040825903 214:0.041666668 643:0.041666668 3340:0.041666668 11349:0.041666668 #
-414.71134457823615093730040825903 322:0.0087719299 1596:0.0087719299 4367:0.0087719299 5303:0.0087719299 5820:0.0087719299 6173:0.0087719299 6525:0.0087719299 8540:0.0087719299 8541:0.0087719299 8542:0.0087719299 8543:0.0087719299 8544:0.0087719299 8545:0.0087719299 8546:0.0087719299 #
-414.71134457823615093730040825903 50:0.029411765 129:0.029411765 1741:0.029411765 6020:0.029411765 10162:0.029411765 #
-414.71134457823615093730040825903 50:0.03846154 453:0.03846154 1141:0.03846154 4042:0.03846154 #
414.71134457823615093730040825903 966:0.017241379 1355:0.017241379 1889:0.017241379 2475:0.017241379 3177:0.017241379 14348:0.017241379 18888:0.017241379 #
-78.84163745472642403910867869854 191:0.013513514 531:0.013513514 620:0.013513514 1238:0.013513514 1831:0.013513514 2769:0.013513514 3477:0.013513514 3908:0.013513514 6747:0.013513514 7153:0.013513514 #
-414.71134457823615093730040825903 15:0.010309278 1048:0.010309278 1313:0.010309278 1700:0.010309278 1982:0.010309278 2229:0.010309278 4760:0.010309278 4825:0.010309278 4995:0.010309278 5122:0.010309278 11104:0.010309278 #
-414.71134457823615093730040825903 149:0.022727273 204:0.022727273 214:0.022727273 541:0.022727273 612:0.022727273 9210:0.022727273 9211:0.022727273 #
414.71134457823615093730040825903 50:0.045454547 580:0.045454547 1565:0.045454547 2054:0.045454547 #
118.62025087550341595488134771585 149:0.010869565 206:0.010869565 1332:0.010869565 1363:0.010869565 1985:0.010869565 5749:0.010869565 9223:0.010869565 9674:0.010869565 13038:0.010869565 13609:0.010869565 15680:0.010869565 18369:0.010869565 18370:0.010869565 #
414.71134457823615093730040825903 50:0.027777778 89:0.027777778 538:0.027777778 835:0.027777778 3738:0.027777778 19553:0.027777778 #
-185.83692056846078344278794247657 214:0.025641026 497:0.025641026 1993:0.025641026 5260:0.025641026 8079:0.025641026 8155:0.025641026 #
-260.15167591495560373004991561174 50:0.02 580:0.02 758:0.02 877:0.02 1021:0.02 2244:0.02 3738:0.02 4312:0.02 12295:0.02 12296:0.02 #
-276.63246123584400493200519122183 551:0.041666668 835:0.041666668 934:0.041666668 3033:0.041666668 #
-414.71134457823615093730040825903 50:0.027777778 89:0.027777778 608:0.027777778 845:0.027777778 1169:0.027777778 6087:0.027777778 #
-414.71134457823615093730040825903 700:0.029411765 835:0.05882353 5209:0.029411765 7357:0.029411765 7358:0.029411765 #
414.71134457823615093730040825903 486:0.021739131 939:0.021739131 9497:0.021739131 16127:0.021739131 #
318.74007517807189060476957820356 149:0.029411765 4012:0.029411765 6702:0.029411765 9479:0.029411765 16092:0.029411765 #
414.71134457823615093730040825903 1169:0.028571429 2093:0.028571429 4012:0.028571429 7525:0.028571429 10894:0.028571429 #
414.71134457823615093730040825903 203:0.023809524 665:0.023809524 1828:0.023809524 2092:0.023809524 2394:0.023809524 4058:0.023809524 #
-306.96012467249067867669509723783 915:0.03846154 1088:0.03846154 7914:0.03846154 12046:0.03846154 12047:0.03846154 #
414.71134457823615093730040825903 16:0.0090909088 756:0.0090909088 1176:0.0090909088 2309:0.0090909088 2576:0.0090909088 4752:0.0090909088 9535:0.0090909088 9840:0.0090909088 10342:0.0090909088 12132:0.0090909088 12161:0.0090909088 18837:0.0090909088 #
-191.71680466178051460701681207865 190:0.045454547 739:0.045454547 3476:0.045454547 4928:0.045454547 #
-414.71134457823615093730040825903 739:0.035714287 2223:0.035714287 3121:0.035714287 5955:0.035714287 #
414.71134457823615093730040825903 50:0.029411765 245:0.029411765 430:0.029411765 2244:0.029411765 18585:0.029411765 18586:0.029411765 #
221.00993328825919093105767387897 175:0.039999999 934:0.039999999 1098:0.039999999 4758:0.039999999 #
414.71134457823615093730040825903 323:0.0084745763 678:0.0084745763 1870:0.0084745763 1916:0.0084745763 4039:0.0084745763 4613:0.0084745763 5028:0.0084745763 6796:0.0084745763 10434:0.0084745763 11353:0.0084745763 12294:0.0084745763 13485:0.0084745763 18870:0.0084745763 18871:0.0084745763 #
-414.71134457823615093730040825903 245:0.028571429 665:0.028571429 852:0.028571429 1074:0.028571429 1903:0.028571429 4412:0.028571429 11900:0.028571429 #
-414.71134457823615093730040825903 15:0.012578616 64:0.006289308 67:0.006289308 295:0.006289308 450:0.006289308 881:0.006289308 1839:0.006289308 2233:0.006289308 2710:0.006289308 2971:0.006289308 4688:0.006289308 5331:0.006289308 5840:0.006289308 6353:0.006289308 6789:0.006289308 6925:0.006289308 7230:0.006289308 7295:0.006289308 7296:0.006289308 7297:0.006289308 #
397.64926860330200497628538869321 33:0.034482758 149:0.034482758 835:0.068965517 2424:0.034482758 4029:0.034482758 #
274.98535229210494890139671042562 149:0.034482758 608:0.034482758 739:0.034482758 1322:0.034482758 9922:0.034482758 #
176.22388067394416566457948647439 835:0.032258064 1130:0.032258064 1141:0.032258064 4204:0.032258064 #
414.71134457823615093730040825903 330:0.0072463769 496:0.0072463769 535:0.0072463769 881:0.0072463769 1009:0.0072463769 1996:0.0072463769 3595:0.0072463769 3708:0.0072463769 3819:0.0072463769 4846:0.0072463769 6245:0.0072463769 10730:0.0072463769 11221:0.0072463769 15838:0.0072463769 16211:0.0072463769 16212:0.0072463769 16213:0.0072463769 #
414.71134457823615093730040825903 835:0.025641026 1169:0.025641026 1383:0.025641026 3484:0.025641026 4591:0.025641026 5474:0.025641026 #
-414.71134457823615093730040825903 337:0.029411765 834:0.029411765 835:0.029411765 1903:0.029411765 7607:0.029411765 7608:0.029411765 #
-414.71134457823615093730040825903 50:0.0064935065 54:0.0064935065 1663:0.0064935065 1875:0.0064935065 2077:0.0064935065 2136:0.0064935065 2601:0.0064935065 4177:0.0064935065 4293:0.0064935065 5268:0.0064935065 5523:0.0064935065 7018:0.0064935065 7090:0.0064935065 9129:0.0064935065 9610:0.0064935065 9773:0.0064935065 9774:0.0064935065 9775:0.0064935065 9776:0.0064935065 9777:0.0064935065 9778:0.0064935065 #
-414.71134457823615093730040825903 477:0.015384615 835:0.015384615 1130:0.015384615 1141:0.015384615 3195:0.015384615 4204:0.015384615 4334:0.015384615 4494:0.015384615 #
-414.71134457823615093730040825903 149:0.033898305 203:0.016949153 826:0.016949153 1068:0.016949153 1294:0.016949153 2064:0.016949153 4692:0.016949153 5614:0.016949153 5615:0.016949153 #
414.71134457823615093730040825903 104:0.028571429 245:0.028571429 793:0.028571429 2049:0.028571429 12433:0.028571429 #
414.71134457823615093730040825903 124:0.016666668 245:0.033333335 872:0.016666668 2730:0.016666668 8226:0.016666668 17927:0.016666668 17928:0.016666668 17929:0.016666668 #
-351.62350533884267633766285143793 245:0.06666667 881:0.06666667 8489:0.06666667 #
-414.71134457823615093730040825903 124:0.014705882 245:0.014705882 385:0.014705882 386:0.014705882 387:0.014705882 580:0.014705882 990:0.044117648 2054:0.014705882 10068:0.014705882 #
414.71134457823615093730040825903 335:0.017241379 408:0.017241379 551:0.017241379 681:0.017241379 1130:0.017241379 3208:0.017241379 3669:0.017241379 #
78.993065164505296138486301060766 46:0.0099009899 162:0.0099009899 473:0.0099009899 852:0.0099009899 1021:0.0099009899 1164:0.0099009899 1596:0.01980198 1671:0.0099009899 2090:0.01980198 2439:0.0099009899 3071:0.0099009899 5573:0.0099009899 14645:0.0099009899 #
414.71134457823615093730040825903 548:0.018518519 1841:0.018518519 4494:0.018518519 4963:0.018518519 9877:0.018518519 10660:0.018518519 #
-414.71134457823615093730040825903 1665:0.037037037 2374:0.037037037 4963:0.037037037 #
-414.71134457823615093730040825903 430:0.032258064 1307:0.032258064 1427:0.032258064 8270:0.032258064 #
-414.71134457823615093730040825903 427:0.021739131 430:0.021739131 3214:0.021739131 3238:0.021739131 3926:0.021739131 10368:0.021739131 10369:0.021739131 #
-414.71134457823615093730040825903 887:0.055555556 1293:0.055555556 #
-313.05674188997079454566119238734 79:0.05882353 1054:0.05882353 7683:0.05882353 #
120.32210641069841017269936855882 126:0.046511628 149:0.023255814 1151:0.023255814 2283:0.023255814 2547:0.046511628 15058:0.023255814 #
414.71134457823615093730040825903 3:0.015151516 50:0.015151516 149:0.015151516 228:0.015151516 245:0.015151516 295:0.015151516 497:0.015151516 707:0.015151516 752:0.015151516 6907:0.015151516 #
414.71134457823615093730040825903 50:0.03508772 126:0.01754386 245:0.01754386 2722:0.01754386 5559:0.01754386 5810:0.01754386 18219:0.01754386 18220:0.01754386 #
94.734215283188788703228055965155 203:0.024390243 245:0.024390243 789:0.024390243 1798:0.024390243 4706:0.024390243 6087:0.024390243 #
414.71134457823615093730040825903 79:0.22222222 #
-35.677606718429849763651873217896 50:0.033333335 1342:0.033333335 2722:0.033333335 9659:0.033333335 12340:0.033333335 #
-240.02058273117972930776886641979 50:0.03125 702:0.03125 791:0.03125 872:0.03125 5008:0.03125 #
-56.280044037535759571255766786635 273:0.023809524 1255:0.023809524 2556:0.023809524 2557:0.023809524 5351:0.023809524 5690:0.023809524 #
41.955626945348576839478482725099 9:0.050000001 1643:0.050000001 4365:0.050000001 #
227.10102949589429499610560014844 990:0.03846154 3300:0.03846154 7657:0.03846154 13801:0.03846154 #
290.45779980600138969748513773084 41:0.018867925 1644:0.018867925 3595:0.018867925 4341:0.018867925 4759:0.018867925 13615:0.018867925 17969:0.018867925 #
414.71134457823615093730040825903 580:0.02631579 739:0.02631579 990:0.02631579 1556:0.02631579 4837:0.02631579 11110:0.02631579 18507:0.02631579 #
414.71134457823615093730040825903 267:0.022222223 430:0.022222223 2064:0.022222223 4989:0.022222223 7377:0.022222223 9794:0.022222223 11724:0.022222223 #
-414.71134457823615093730040825903 214:0.0070921984 245:0.0070921984 895:0.0070921984 968:0.0070921984 998:0.0070921984 1156:0.0070921984 1610:0.0070921984 2149:0.0070921984 2941:0.0070921984 4103:0.0070921984 4104:0.0070921984 5555:0.0070921984 7954:0.0070921984 8105:0.0070921984 8107:0.0070921984 12868:0.0070921984 12869:0.0070921984 #
-150.87197989964411704022495541722 245:0.025 344:0.025 360:0.025 408:0.025 1058:0.025 1407:0.025 11591:0.025 11592:0.025 #
-164.84506892534429312036081682891 497:0.06666667 1413:0.06666667 #
-414.71134457823615093730040825903 295:0.029411765 2927:0.029411765 4171:0.029411765 10259:0.029411765 #
414.71134457823615093730040825903 78:0.008547009 638:0.008547009 834:0.008547009 1383:0.008547009 1593:0.008547009 1700:0.008547009 1733:0.008547009 2035:0.008547009 2054:0.008547009 2693:0.008547009 4140:0.008547009 4436:0.008547009 5121:0.008547009 7631:0.008547009 14914:0.008547009 15955:0.008547009 #
-203.4939755057152410699927713722 50:0.039999999 1237:0.039999999 3181:0.039999999 6029:0.039999999 #
-414.71134457823615093730040825903 50:0.027027028 752:0.027027028 1130:0.027027028 1453:0.027027028 6332:0.027027028 #
-414.71134457823615093730040825903 49:0.025 50:0.025 459:0.025 860:0.025 1819:0.025 10372:0.025 #
414.71134457823615093730040825903 956:0.012345679 1015:0.012345679 1241:0.012345679 1413:0.012345679 2144:0.012345679 4985:0.012345679 5755:0.012345679 6341:0.012345679 7450:0.012345679 18301:0.012345679 #
369.87636315644544993119779974222 149:0.033333335 2164:0.033333335 3195:0.033333335 3687:0.033333335 #
-229.24062840466976354036887641996 189:0.010526316 304:0.010526316 367:0.010526316 1596:0.010526316 2386:0.010526316 4108:0.010526316 4806:0.010526316 6071:0.010526316 8287:0.010526316 9818:0.010526316 11265:0.010526316 #
414.71134457823615093730040825903 27:0.01923077 149:0.01923077 509:0.01923077 618:0.01923077 896:0.01923077 1734:0.01923077 2244:0.01923077 17602:0.01923077 #
155.89239878552146478796203155071 149:0.037037037 515:0.037037037 4412:0.037037037 17226:0.037037037 #
153.02739721727095911774085834622 430:0.012195121 488:0.012195121 535:0.012195121 596:0.012195121 739:0.012195121 1052:0.012195121 1283:0.012195121 7117:0.012195121 13966:0.012195121 19277:0.012195121 #
-329.00774958168915418355027213693 323:0.030303031 1323:0.030303031 3906:0.030303031 4227:0.030303031 6822:0.030303031 11574:0.030303031 #
342.27012743446709919226123020053 50:0.039999999 1237:0.039999999 2138:0.039999999 6496:0.039999999 #
-414.71134457823615093730040825903 50:0.010526316 60:0.010526316 281:0.010526316 460:0.010526316 535:0.010526316 881:0.010526316 1682:0.010526316 2674:0.010526316 2886:0.010526316 4218:0.010526316 4898:0.010526316 4973:0.010526316 4974:0.010526316 4975:0.010526316 #
-414.71134457823615093730040825903 124:0.012987013 193:0.012987013 511:0.012987013 606:0.012987013 774:0.012987013 1054:0.012987013 1237:0.038961038 1502:0.012987013 1889:0.012987013 3795:0.012987013 4366:0.012987013 #
-414.71134457823615093730040825903 50:0.014492754 330:0.028985508 692:0.014492754 2144:0.028985508 2162:0.014492754 3660:0.014492754 4639:0.014492754 5644:0.014492754 9761:0.014492754 11357:0.014492754 11358:0.014492754 #
414.71134457823615093730040825903 9:0.016666668 546:0.016666668 1323:0.016666668 1819:0.016666668 2023:0.016666668 3809:0.016666668 5886:0.016666668 #
414.71134457823615093730040825903 1453:0.047619049 1725:0.047619049 2674:0.047619049 #
414.71134457823615093730040825903 516:0.014285714 545:0.014285714 796:0.014285714 925:0.014285714 1480:0.014285714 1819:0.014285714 2023:0.014285714 2563:0.014285714 5572:0.014285714 14015:0.014285714 #
-343.54688758011701565919793210924 546:0.07692308 2786:0.07692308 #
-209.66948885921968326329078990966 612:0.041666668 862:0.041666668 4605:0.041666668 9315:0.041666668 #
-89.208641665979115487061790190637 9:0.01754386 516:0.01754386 846:0.01754386 862:0.01754386 1556:0.01754386 2068:0.01754386 5865:0.01754386 6526:0.01754386 7450:0.01754386 #
414.71134457823615093730040825903 50:0.016949153 196:0.016949153 430:0.016949153 2364:0.016949153 2399:0.016949153 3243:0.016949153 3261:0.016949153 5254:0.016949153 12852:0.016949153 15120:0.016949153 #
414.71134457823615093730040825903 50:0.021276595 252:0.021276595 386:0.021276595 387:0.021276595 1021:0.021276595 1091:0.021276595 2012:0.021276595 4273:0.021276595 #
414.71134457823615093730040825903 326:0.0074626864 673:0.0074626864 718:0.0074626864 1507:0.0074626864 1893:0.0074626864 2292:0.0074626864 2445:0.0074626864 2582:0.0074626864 4334:0.0074626864 8586:0.0074626864 9118:0.0074626864 12590:0.0074626864 15728:0.0074626864 19064:0.0074626864 19065:0.0074626864 #
196.96445440064672993685235269368 50:0.037037037 459:0.037037037 1502:0.037037037 3326:0.037037037 10183:0.037037037 #
-318.42814782187781474931398406625 608:0.05882353 2244:0.05882353 11287:0.05882353 #
-414.71134457823615093730040825903 196:0.035714287 535:0.035714287 815:0.035714287 1696:0.035714287 #
-285.67539236463392171572195366025 93:0.013888889 238:0.013888889 422:0.013888889 606:0.013888889 826:0.013888889 1800:0.013888889 9961:0.013888889 13405:0.013888889 13406:0.013888889 #
-414.71134457823615093730040825903 50:0.017857144 196:0.017857144 489:0.017857144 607:0.017857144 1177:0.017857144 1383:0.017857144 1429:0.017857144 6793:0.017857144 9922:0.017857144 #
-414.71134457823615093730040825903 1298:0.022727273 2680:0.022727273 10635:0.022727273 10636:0.022727273 10637:0.022727273 #
196.02034593240011872694594785571 149:0.019607844 330:0.039215688 947:0.019607844 1351:0.019607844 1800:0.019607844 3464:0.019607844 4456:0.019607844 14914:0.019607844 #
-414.71134457823615093730040825903 149:0.01923077 307:0.01923077 323:0.01923077 350:0.01923077 352:0.01923077 608:0.01923077 1725:0.01923077 13407:0.01923077 #
-414.71134457823615093730040825903 149:0.029411765 198:0.029411765 267:0.029411765 3129:0.029411765 11899:0.029411765 #
414.71134457823615093730040825903 50:0.039999999 546:0.039999999 682:0.039999999 2450:0.039999999 #
193.40051918785525231214705854654 608:0.021739131 638:0.021739131 1407:0.021739131 5614:0.021739131 6332:0.021739131 8614:0.021739131 18164:0.021739131 #
414.71134457823615093730040825903 9:0.0070422534 67:0.0070422534 93:0.0070422534 149:0.0070422534 238:0.0070422534 739:0.014084507 1180:0.0070422534 1323:0.0070422534 1504:0.0070422534 1874:0.0070422534 2508:0.0070422534 2622:0.0070422534 3822:0.0070422534 5323:0.0070422534 5700:0.0070422534 7729:0.0070422534 15508:0.0070422534 #
-414.71134457823615093730040825903 50:0.012820513 1249:0.012820513 1382:0.012820513 1528:0.012820513 1892:0.012820513 4096:0.012820513 5714:0.012820513 7300:0.012820513 7301:0.012820513 #
-414.71134457823615093730040825903 43:0.0078125 183:0.0078125 228:0.0078125 238:0.0078125 740:0.0078125 881:0.0078125 1237:0.0078125 2386:0.0078125 3447:0.0078125 4268:0.0078125 4850:0.0078125 7588:0.0078125 7704:0.0078125 9109:0.0078125 9110:0.0078125 9111:0.0078125 9112:0.015625 #
308.0902092166539318895956967026 77:0.0070422534 149:0.0070422534 541:0.0070422534 955:0.0070422534 1268:0.0070422534 1539:0.0070422534 1702:0.0070422534 1781:0.0070422534 2003:0.0070422534 2169:0.0070422534 3140:0.0070422534 6523:0.0070422534 8019:0.0070422534 8797:0.0070422534 11387:0.0070422534 16867:0.0070422534 16868:0.0070422534 16869:0.0070422534 #
414.71134457823615093730040825903 3129:0.11111111 #
414.71134457823615093730040825903 83:0.027777778 149:0.027777778 198:0.027777778 2977:0.027777778 5849:0.027777778 #
414.71134457823615093730040825903 198:0.018518519 580:0.018518519 791:0.018518519 1074:0.018518519 1375:0.018518519 1894:0.018518519 9014:0.018518519 17389:0.018518519 #
-414.71134457823615093730040825903 3129:0.11111111 #
161.43839905577016224924591369927 82:0.015151516 252:0.015151516 643:0.015151516 4082:0.015151516 12516:0.015151516 13873:0.015151516 13874:0.015151516 14094:0.015151516 #
-295.87131556957348266223561950028 580:0.052631579 934:0.052631579 6614:0.052631579 #
300.8909452220804610078630503267 50:0.030303031 13407:0.030303031 15821:0.060606062 #
414.71134457823615093730040825903 126:0.0098039219 149:0.0098039219 323:0.0098039219 605:0.0098039219 718:0.0098039219 743:0.0098039219 1021:0.019607844 3387:0.0098039219 3720:0.0098039219 3964:0.0098039219 4776:0.0098039219 5461:0.0098039219 14219:0.0098039219 #
414.71134457823615093730040825903 50:0.029411765 774:0.029411765 1088:0.029411765 1514:0.029411765 1603:0.029411765 4344:0.029411765 #
-414.71134457823615093730040825903 50:0.033333335 2164:0.033333335 12316:0.033333335 #
414.71134457823615093730040825903 16:0.045454547 872:0.045454547 11898:0.045454547 #
414.71134457823615093730040825903 267:0.023255814 516:0.023255814 1668:0.023255814 1725:0.023255814 3658:0.023255814 4001:0.023255814 16656:0.023255814 #
414.71134457823615093730040825903 41:0.010416667 315:0.010416667 320:0.010416667 606:0.010416667 1177:0.010416667 1221:0.010416667 1463:0.010416667 2162:0.010416667 13855:0.010416667 17053:0.010416667 17723:0.020833334 #
414.71134457823615093730040825903 126:0.013888889 198:0.013888889 408:0.013888889 682:0.013888889 744:0.013888889 966:0.013888889 2077:0.013888889 5210:0.013888889 5734:0.013888889 7570:0.013888889 16440:0.013888889 #
91.011532737393991965291206724942 41:0.017857144 214:0.017857144 720:0.017857144 2341:0.017857144 5474:0.017857144 5802:0.017857144 6661:0.017857144 16548:0.017857144 #
-196.52396320634468906973779667169 273:0.039999999 921:0.039999999 1596:0.039999999 1733:0.039999999 #
-99.780553252019117849158647004515 7:0.01369863 196:0.01369863 998:0.01369863 1961:0.01369863 3077:0.01369863 3349:0.01369863 5411:0.01369863 8656:0.01369863 12125:0.01369863 12126:0.01369863 #
414.71134457823615093730040825903 50:0.052631579 88:0.02631579 273:0.02631579 2296:0.02631579 15362:0.02631579 #
414.71134457823615093730040825903 50:0.039999999 1762:0.039999999 4008:0.039999999 15656:0.039999999 #
414.71134457823615093730040825903 50:0.039999999 539:0.039999999 11071:0.039999999 #
200.98585493081677100235538091511 879:0.02631579 1596:0.02631579 1839:0.02631579 2268:0.02631579 #
414.71134457823615093730040825903 49:0.012658228 191:0.012658228 245:0.012658228 459:0.012658228 665:0.012658228 921:0.012658228 1463:0.012658228 1578:0.012658228 1596:0.012658228 5889:0.012658228 6669:0.012658228 18011:0.012658228 #
295.37531815521163025550777092576 283:0.018181818 1596:0.018181818 4890:0.018181818 5239:0.018181818 7609:0.018181818 8959:0.018181818 10216:0.018181818 #
116.5013269386497398727442487143 179:0.034482758 881:0.034482758 1596:0.034482758 12462:0.034482758 16517:0.034482758 #
-146.32691918101266992380260489881 137:0.012987013 1290:0.012987013 1980:0.012987013 2107:0.012987013 3695:0.012987013 7379:0.038961038 7566:0.012987013 10359:0.012987013 12927:0.012987013 #
-414.71134457823615093730040825903 809:0.020833334 1407:0.020833334 1798:0.020833334 2989:0.020833334 9334:0.020833334 10526:0.020833334 #
-414.71134457823615093730040825903 313:0.01923077 360:0.01923077 1117:0.01923077 3297:0.01923077 9150:0.01923077 9151:0.01923077 9152:0.01923077 #
-414.71134457823615093730040825903 739:0.023809524 1141:0.023809524 1437:0.023809524 1826:0.023809524 8505:0.023809524 #
-414.71134457823615093730040825903 210:0.017241379 739:0.034482758 802:0.017241379 1828:0.017241379 2023:0.017241379 4652:0.017241379 10248:0.017241379 #
-414.71134457823615093730040825903 149:0.0082644625 207:0.0082644625 245:0.0082644625 657:0.0082644625 1536:0.0082644625 3278:0.0082644625 3873:0.0082644625 5260:0.0082644625 10604:0.0082644625 10605:0.0082644625 10606:0.0082644625 10607:0.0082644625 10608:0.0082644625 10609:0.0082644625 #
216.95018163798363275418523699045 50:0.020833334 320:0.020833334 1117:0.020833334 1342:0.020833334 14583:0.020833334 15562:0.020833334 #
414.71134457823615093730040825903 50:0.0125 198:0.0125 273:0.0125 350:0.0125 739:0.0125 862:0.0125 1278:0.0125 1727:0.0125 1775:0.0125 2161:0.0125 3243:0.0125 #
-414.71134457823615093730040825903 9:0.032258064 198:0.032258064 273:0.032258064 814:0.032258064 1980:0.032258064 #
-414.71134457823615093730040825903 50:0.023809524 191:0.023809524 1283:0.023809524 1341:0.023809524 3830:0.023809524 4176:0.023809524 #
414.71134457823615093730040825903 129:0.021739131 149:0.021739131 360:0.021739131 563:0.021739131 934:0.021739131 8179:0.021739131 11828:0.021739131 #
414.71134457823615093730040825903 846:0.034482758 1606:0.034482758 2071:0.034482758 4991:0.034482758 #
414.71134457823615093730040825903 3954:0.021276595 5497:0.021276595 7638:0.021276595 10416:0.021276595 17176:0.021276595 #
-414.71134457823615093730040825903 149:0.024390243 608:0.024390243 841:0.024390243 2245:0.024390243 3283:0.024390243 5488:0.024390243 #
-98.776104451075610768384649418294 628:0.047619049 1278:0.047619049 6123:0.047619049 #
414.71134457823615093730040825903 50:0.021739131 191:0.043478262 229:0.021739131 459:0.021739131 1453:0.021739131 2556:0.021739131 2976:0.021739131 #
414.71134457823615093730040825903 184:0.024390243 814:0.024390243 3355:0.024390243 8782:0.024390243 16316:0.024390243 #
-414.71134457823615093730040825903 50:0.013333334 317:0.013333334 603:0.013333334 647:0.013333334 4605:0.013333334 11083:0.013333334 11084:0.013333334 11085:0.013333334 #
414.71134457823615093730040825903 50:0.016949153 198:0.033898305 273:0.016949153 1482:0.016949153 2338:0.016949153 2534:0.016949153 4094:0.016949153 10404:0.016949153 #
-414.71134457823615093730040825903 184:0.020833334 459:0.020833334 656:0.020833334 1953:0.020833334 3355:0.020833334 10219:0.020833334 #
-144.0892958344756777933071134612 184:0.0625 5586:0.0625 #
-414.71134457823615093730040825903 7:0.011627907 50:0.011627907 459:0.011627907 1742:0.011627907 2547:0.011627907 3109:0.011627907 5474:0.011627907 6074:0.011627907 8880:0.011627907 9538:0.011627907 9539:0.011627907 9540:0.011627907 9541:0.011627907 #
-211.25824452874522307865845505148 149:0.020408163 739:0.020408163 1070:0.020408163 1740:0.020408163 3965:0.020408163 5420:0.020408163 10101:0.020408163 #
414.71134457823615093730040825903 149:0.011111111 453:0.011111111 1360:0.011111111 4089:0.011111111 5551:0.011111111 5947:0.011111111 6909:0.011111111 7089:0.011111111 11198:0.011111111 19280:0.011111111 19281:0.011111111 #
414.71134457823615093730040825903 9:0.037037037 342:0.037037037 489:0.037037037 608:0.037037037 9801:0.037037037 #
414.71134457823615093730040825903 149:0.047619049 3283:0.047619049 3308:0.047619049 #
-208.87565968141410621683462522924 149:0.032258064 370:0.032258064 608:0.032258064 1800:0.032258064 2146:0.032258064 #
-414.71134457823615093730040825903 149:0.015873017 523:0.015873017 827:0.015873017 834:0.015873017 1131:0.015873017 1647:0.015873017 2994:0.015873017 3146:0.015873017 6034:0.015873017 9342:0.015873017 #
-414.71134457823615093730040825903 149:0.012658228 183:0.012658228 229:0.012658228 233:0.012658228 342:0.012658228 417:0.012658228 516:0.012658228 4282:0.012658228 5096:0.012658228 6761:0.012658228 9254:0.012658228 13011:0.012658228 #
-414.71134457823615093730040825903 149:0.035714287 203:0.017857144 245:0.017857144 3529:0.017857144 4308:0.017857144 6404:0.017857144 11424:0.017857144 11425:0.017857144 #
7.9139992866207604649275708652567 643:0.041666668 2374:0.041666668 4228:0.041666668 4758:0.041666668 #
414.71134457823615093730040825903 241:0.016949153 245:0.016949153 643:0.016949153 802:0.016949153 877:0.016949153 2276:0.016949153 2610:0.016949153 5280:0.016949153 6537:0.016949153 11616:0.016949153 #
414.71134457823615093730040825903 282:0.028571429 1238:0.028571429 2289:0.028571429 15828:0.028571429 #
414.71134457823615093730040825903 47:0.010752688 49:0.010752688 50:0.010752688 245:0.010752688 422:0.010752688 852:0.010752688 854:0.010752688 1244:0.010752688 1601:0.010752688 2004:0.010752688 2120:0.010752688 3449:0.010752688 4632:0.010752688 19279:0.010752688 #
-108.61392798957226091260963585228 643:0.043478262 2276:0.043478262 4780:0.043478262 12085:0.043478262 #
-414.71134457823615093730040825903 618:0.011764706 814:0.011764706 1984:0.011764706 2383:0.011764706 4089:0.011764706 4414:0.011764706 6876:0.011764706 9084:0.011764706 12779:0.011764706 12780:0.011764706 #
-414.71134457823615093730040825903 1124:0.03125 2291:0.03125 4832:0.03125 11470:0.03125 #
-414.71134457823615093730040825903 2012:0.035714287 4758:0.035714287 7498:0.035714287 7499:0.035714287 #
-414.71134457823615093730040825903 50:0.018867925 1021:0.018867925 1244:0.018867925 3283:0.018867925 3657:0.018867925 8893:0.018867925 9270:0.018867925 9271:0.018867925 #
391.47013357496797425483237020671 170:0.1 4308:0.1 #
414.71134457823615093730040825903 511:0.010752688 678:0.010752688 1407:0.010752688 1499:0.010752688 2415:0.010752688 4724:0.010752688 6696:0.010752688 8654:0.010752688 13772:0.010752688 15219:0.010752688 16064:0.010752688 #
414.71134457823615093730040825903 497:0.013333334 827:0.013333334 1690:0.013333334 2131:0.013333334 3677:0.013333334 4075:0.013333334 6021:0.013333334 9812:0.013333334 13935:0.013333334 #
414.71134457823615093730040825903 1382:0.0094339624 3821:0.0094339624 5919:0.0094339624 6308:0.0094339624 7770:0.0094339624 11544:0.0094339624 16309:0.0094339624 16310:0.0094339624 16311:0.0094339624 16312:0.0094339624 16313:0.0094339624 16314:0.0094339624 16315:0.0094339624 #
-184.70248908753296745999250560999 1283:0.1 13448:0.1 #
-29.117001455309800661552799283527 342:0.02631579 796:0.02631579 1480:0.02631579 2120:0.02631579 9168:0.02631579 9169:0.02631579 #
414.71134457823615093730040825903 50:0.020833334 516:0.020833334 947:0.020833334 1130:0.020833334 1424:0.020833334 10782:0.020833334 #
160.59154639028128030986408703029 60:0.050000001 1252:0.050000001 6404:0.050000001 14050:0.050000001 #
414.71134457823615093730040825903 50:0.028571429 60:0.014285714 124:0.014285714 190:0.014285714 252:0.014285714 459:0.014285714 695:0.014285714 758:0.014285714 834:0.014285714 1005:0.014285714 1255:0.014285714 2858:0.014285714 14228:0.014285714 #
414.71134457823615093730040825903 46:0.010416667 50:0.010416667 245:0.010416667 484:0.010416667 516:0.010416667 541:0.010416667 726:0.010416667 791:0.010416667 915:0.010416667 1054:0.010416667 1528:0.010416667 1668:0.010416667 2220:0.010416667 2723:0.010416667 3794:0.010416667 6656:0.010416667 16286:0.010416667 #
-27.827055837804564930593187455088 50:0.027027028 1580:0.027027028 2289:0.027027028 5600:0.027027028 #
-414.71134457823615093730040825903 50:0.014492754 60:0.014492754 83:0.014492754 170:0.014492754 190:0.028985508 273:0.014492754 3296:0.014492754 10527:0.014492754 11727:0.014492754 #
-174.28623926828257140186906326562 11:0.03846154 50:0.03846154 87:0.03846154 541:0.03846154 #
414.71134457823615093730040825903 207:0.0070921984 814:0.0070921984 846:0.0070921984 1313:0.0070921984 1463:0.0070921984 1528:0.0070921984 1855:0.0070921984 1907:0.0070921984 2169:0.0070921984 3449:0.0070921984 4337:0.0070921984 4592:0.0070921984 10875:0.0070921984 12784:0.0070921984 12911:0.0070921984 17461:0.0070921984 19217:0.0070921984 #
414.71134457823615093730040825903 169:0.01754386 320:0.01754386 342:0.01754386 796:0.01754386 5802:0.01754386 9322:0.01754386 17426:0.01754386 #
414.71134457823615093730040825903 191:0.0125 203:0.0125 276:0.0125 350:0.0125 408:0.0125 523:0.0125 796:0.0125 7157:0.0125 9889:0.0125 11817:0.0125 17584:0.0125 #
-414.71134457823615093730040825903 49:0.020408163 149:0.020408163 169:0.020408163 539:0.020408163 3887:0.020408163 11535:0.020408163 #
-414.71134457823615093730040825903 124:0.02631579 245:0.02631579 1762:0.02631579 1984:0.02631579 9937:0.02631579 9938:0.02631579 #
-414.71134457823615093730040825903 82:0.013888889 149:0.013888889 161:0.013888889 282:0.013888889 739:0.013888889 2686:0.013888889 2819:0.013888889 5789:0.013888889 5886:0.013888889 #
-344.92429195337774672225350514054 124:0.035714287 157:0.035714287 1724:0.035714287 1733:0.035714287 7070:0.035714287 #
414.71134457823615093730040825903 50:0.017241379 87:0.017241379 198:0.017241379 910:0.017241379 3140:0.017241379 3558:0.017241379 4168:0.017241379 4868:0.017241379 #
-216.40749216083807482391421217471 50:0.03125 796:0.03125 1342:0.03125 4054:0.03125 5075:0.03125 #
414.71134457823615093730040825903 190:0.033333335 607:0.033333335 608:0.033333335 3166:0.033333335 17189:0.033333335 #
414.71134457823615093730040825903 57:0.0098039219 149:0.0098039219 701:0.0098039219 703:0.0098039219 704:0.0098039219 749:0.0098039219 1745:0.0098039219 1990:0.0098039219 6175:0.0098039219 6281:0.0098039219 12264:0.0098039219 17967:0.0098039219 17968:0.0098039219 #
414.71134457823615093730040825903 490:0.017241379 895:0.017241379 3954:0.017241379 13732:0.017241379 16238:0.017241379 16239:0.017241379 16240:0.017241379 #
414.71134457823615093730040825903 273:0.014705882 345:0.014705882 1028:0.014705882 1803:0.014705882 2640:0.014705882 2850:0.014705882 3868:0.014705882 17153:0.014705882 17154:0.014705882 #
-414.71134457823615093730040825903 2:0.027777778 612:0.027777778 1482:0.027777778 2825:0.027777778 #
-414.71134457823615093730040825903 1552:0.021739131 1647:0.021739131 1776:0.021739131 2282:0.021739131 11410:0.021739131 11411:0.021739131 #
-414.71134457823615093730040825903 350:0.024390243 354:0.024390243 484:0.024390243 711:0.024390243 934:0.024390243 1506:0.024390243 #
-376.6781251587451606610557064414 111:0.022222223 563:0.022222223 838:0.022222223 1603:0.022222223 2934:0.022222223 4642:0.022222223 6322:0.022222223 #
-414.71134457823615093730040825903 57:0.023809524 276:0.023809524 1088:0.023809524 1251:0.023809524 10574:0.023809524 10986:0.023809524 #
414.71134457823615093730040825903 50:0.013157895 317:0.013157895 789:0.013157895 1141:0.013157895 1151:0.013157895 4354:0.013157895 5385:0.013157895 8277:0.013157895 10683:0.013157895 #
414.71134457823615093730040825903 321:0.018181818 638:0.018181818 996:0.018181818 1038:0.018181818 1332:0.018181818 2135:0.018181818 5779:0.018181818 9490:0.018181818 #
-414.71134457823615093730040825903 9:0.034482758 757:0.034482758 2360:0.034482758 2556:0.034482758 3935:0.034482758 #
-414.71134457823615093730040825903 193:0.012987013 477:0.0064935065 493:0.0064935065 549:0.0064935065 580:0.0064935065 925:0.0064935065 956:0.0064935065 1388:0.0064935065 1409:0.0064935065 4336:0.0064935065 7106:0.0064935065 7870:0.0064935065 9276:0.0064935065 9534:0.0064935065 9535:0.0064935065 9536:0.0064935065 9537:0.0064935065 #
414.71134457823615093730040825903 148:0.024390243 307:0.024390243 516:0.024390243 2173:0.024390243 2174:0.024390243 5713:0.024390243 18170:0.024390243 18230:0.024390243 #
227.38886929979449291749915573746 516:0.020833334 518:0.020833334 1506:0.020833334 6024:0.020833334 7182:0.020833334 10762:0.020833334 #
414.71134457823615093730040825903 314:0.018867925 1409:0.018867925 1892:0.018867925 3140:0.018867925 3830:0.018867925 8158:0.018867925 14174:0.018867925 17461:0.018867925 #
414.71134457823615093730040825903 57:0.0125 1000:0.025 1026:0.0125 1733:0.0125 2722:0.0125 3181:0.0125 5056:0.0125 19619:0.0125 #
229.28012340743094910067156888545 32:0.02631579 3303:0.02631579 5008:0.02631579 16880:0.02631579 #
-414.71134457823615093730040825903 41:0.018518519 228:0.018518519 296:0.018518519 459:0.018518519 1000:0.018518519 1663:0.018518519 2976:0.018518519 10641:0.018518519 #
-414.71134457823615093730040825903 60:0.022222223 107:0.022222223 311:0.022222223 422:0.022222223 600:0.022222223 638:0.022222223 2722:0.022222223 3188:0.022222223 4321:0.022222223 #
-414.71134457823615093730040825903 459:0.023255814 846:0.023255814 3128:0.023255814 4029:0.023255814 6538:0.023255814 6539:0.023255814 6540:0.023255814 #
414.71134457823615093730040825903 9:0.03846154 81:0.03846154 607:0.03846154 757:0.03846154 876:0.03846154 #
414.71134457823615093730040825903 157:0.01923077 245:0.01923077 757:0.03846154 827:0.01923077 1260:0.01923077 3956:0.01923077 19496:0.01923077 19497:0.01923077 #
150.93378784875082487815234344453 9:0.018867925 43:0.018867925 865:0.018867925 1588:0.018867925 1589:0.018867925 2274:0.018867925 7237:0.018867925 10502:0.018867925 #
-414.71134457823615093730040825903 15:0.014925373 50:0.014925373 273:0.014925373 490:0.014925373 561:0.014925373 1072:0.014925373 1588:0.029850746 1589:0.014925373 3636:0.014925373 3788:0.014925373 #
-277.61161881433474718505749478936 43:0.020833334 245:0.020833334 1598:0.020833334 2064:0.020833334 3308:0.020833334 5822:0.020833334 6358:0.020833334 6475:0.020833334 #
116.2699875990142004411609377712 1745:0.025641026 3657:0.025641026 5734:0.025641026 15414:0.025641026 17971:0.025641026 18724:0.025641026 #
-414.71134457823615093730040825903 9:0.01923077 90:0.01923077 245:0.01923077 360:0.01923077 430:0.01923077 1058:0.01923077 2272:0.01923077 2850:0.01923077 3821:0.01923077 #
-414.71134457823615093730040825903 9:0.021276595 245:0.021276595 758:0.021276595 944:0.021276595 1337:0.021276595 2654:0.021276595 5559:0.021276595 12370:0.021276595 #
246.87134383482333532811026088893 41:0.045454547 1663:0.045454547 2175:0.045454547 18201:0.045454547 #
224.04796533008800452080322429538 149:0.022727273 739:0.022727273 4087:0.022727273 6239:0.022727273 8484:0.022727273 14603:0.022727273 #
414.71134457823615093730040825903 4187:0.033333335 15025:0.033333335 #
414.71134457823615093730040825903 41:0.012987013 314:0.012987013 344:0.012987013 706:0.012987013 814:0.012987013 1173:0.012987013 1663:0.012987013 2144:0.012987013 10978:0.012987013 15971:0.012987013 17784:0.012987013 #
414.71134457823615093730040825903 50:0.012195121 417:0.012195121 1551:0.012195121 1569:0.012195121 2556:0.012195121 2582:0.012195121 4763:0.012195121 4813:0.012195121 4830:0.012195121 11863:0.012195121 18291:0.012195121 #
-414.71134457823615093730040825903 9:0.0091743115 193:0.0091743115 214:0.0091743115 656:0.0091743115 1388:0.0091743115 2687:0.0091743115 2825:0.0091743115 3569:0.0091743115 3648:0.0091743115 4092:0.0091743115 8014:0.0091743115 9338:0.0091743115 #
-203.1757169444207704600557917729 41:0.037037037 103:0.037037037 607:0.037037037 1801:0.037037037 #
-414.71134457823615093730040825903 41:0.021739131 739:0.021739131 827:0.021739131 1052:0.021739131 3743:0.021739131 13214:0.021739131 #
414.71134457823615093730040825903 60:0.016129032 139:0.016129032 196:0.016129032 245:0.016129032 553:0.016129032 1021:0.016129032 16631:0.016129032 18402:0.016129032 18403:0.016129032 18404:0.016129032 #
414.71134457823615093730040825903 245:0.018181818 360:0.018181818 1550:0.018181818 1733:0.018181818 3576:0.018181818 4662:0.018181818 5299:0.018181818 9721:0.018181818 15962:0.018181818 #
-414.71134457823615093730040825903 90:0.015151516 553:0.015151516 2556:0.015151516 3499:0.030303031 3956:0.015151516 4139:0.015151516 4140:0.015151516 10848:0.015151516 #
-414.71134457823615093730040825903 502:0.022727273 860:0.022727273 1733:0.022727273 4760:0.022727273 5849:0.022727273 6950:0.022727273 #
-414.71134457823615093730040825903 203:0.01923077 229:0.03846154 1453:0.01923077 1663:0.01923077 2010:0.01923077 3449:0.01923077 8965:0.01923077 #
-414.71134457823615093730040825903 65:0.030303031 90:0.030303031 196:0.030303031 545:0.030303031 1407:0.060606062 #
-223.82913989201668414352752733976 487:0.025641026 1028:0.025641026 1117:0.025641026 9009:0.025641026 #
199.29110661111621993768494576216 31:0.01754386 200:0.01754386 283:0.01754386 1155:0.01754386 1707:0.01754386 2346:0.01754386 5328:0.01754386 13269:0.01754386 #
414.71134457823615093730040825903 739:0.03125 860:0.03125 1342:0.03125 13199:0.03125 #
414.71134457823615093730040825903 149:0.02 1580:0.02 2618:0.02 3339:0.02 3821:0.02 8386:0.02 #
-315.19946877105314797518076375127 179:0.090909094 2162:0.090909094 #
-414.71134457823615093730040825903 92:0.033333335 1365:0.033333335 3595:0.033333335 #
-414.71134457823615093730040825903 88:0.022222223 2903:0.022222223 3595:0.022222223 4603:0.022222223 11279:0.022222223 #
414.71134457823615093730040825903 9:0.0070921984 124:0.0070921984 245:0.0070921984 314:0.0070921984 720:0.0070921984 1066:0.0070921984 1407:0.0070921984 1606:0.0070921984 2724:0.0070921984 2768:0.0070921984 6516:0.0070921984 8155:0.0070921984 8159:0.0070921984 10521:0.0070921984 16689:0.0070921984 16690:0.0070921984 16691:0.0070921984 16692:0.0070921984 #
414.71134457823615093730040825903 50:0.021276595 273:0.021276595 774:0.021276595 1602:0.021276595 1980:0.021276595 9009:0.021276595 #
414.71134457823615093730040825903 1039:0.022222223 3636:0.022222223 5075:0.022222223 16548:0.022222223 18051:0.022222223 19418:0.022222223 #
-143.78297856136182986119820270687 46:0.047619049 90:0.047619049 7017:0.047619049 #
187.51769920170235650402901228517 92:0.050000001 204:0.050000001 #
-395.20743473797358547017211094499 774:0.023255814 2244:0.023255814 2419:0.023255814 7317:0.023255814 8875:0.023255814 8876:0.023255814 8877:0.023255814 #
-414.71134457823615093730040825903 60:0.015151516 314:0.015151516 739:0.015151516 774:0.015151516 1112:0.015151516 1244:0.015151516 2634:0.015151516 3964:0.015151516 8973:0.015151516 12141:0.015151516 #
-414.71134457823615093730040825903 94:0.02 245:0.02 295:0.02 1775:0.02 2062:0.02 6414:0.02 #
-195.23831063999091384175699204206 77:0.01754386 408:0.01754386 608:0.01754386 619:0.01754386 774:0.01754386 2730:0.01754386 8477:0.01754386 9274:0.01754386 #
-414.71134457823615093730040825903 198:0.016666668 346:0.016666668 739:0.016666668 774:0.016666668 1283:0.016666668 1987:0.016666668 5584:0.016666668 6086:0.016666668 6087:0.016666668 #
-414.71134457823615093730040825903 122:0.014084507 695:0.014084507 7063:0.014084507 7968:0.014084507 9598:0.014084507 9599:0.014084507 9600:0.014084507 9601:0.014084507 #
414.71134457823615093730040825903 126:0.01754386 193:0.01754386 273:0.01754386 846:0.01754386 1268:0.01754386 3595:0.01754386 5177:0.01754386 6227:0.01754386 #
414.71134457823615093730040825903 50:0.010204081 495:0.010204081 1453:0.010204081 1990:0.010204081 2341:0.010204081 2998:0.010204081 6484:0.010204081 12246:0.010204081 17253:0.010204081 17254:0.010204081 17255:0.010204081 #
13.54893702891184581460493063787 422:0.02631579 846:0.02631579 3595:0.02631579 17543:0.02631579 17544:0.02631579 #
-357.54310371218230102385859936476 846:0.0625 5938:0.0625 12769:0.0625 #
-414.71134457823615093730040825903 90:0.034482758 92:0.034482758 846:0.034482758 5134:0.034482758 #
-414.71134457823615093730040825903 46:0.01923077 273:0.01923077 722:0.01923077 770:0.01923077 846:0.03846154 2341:0.01923077 4008:0.03846154 6864:0.01923077 #
-0.61789184647357364710273941454943 5539:0.125 #
414.71134457823615093730040825903 1244:0.06666667 2734:0.06666667 #
414.71134457823615093730040825903 1244:0.041666668 4334:0.041666668 5555:0.041666668 #
414.71134457823615093730040825903 50:0.037037037 487:0.037037037 2677:0.037037037 2791:0.037037037 #
-372.4381394519614332239143550396 1244:0.050000001 2563:0.050000001 2936:0.050000001 #
-414.71134457823615093730040825903 50:0.022727273 516:0.022727273 739:0.022727273 2471:0.022727273 3124:0.022727273 3595:0.022727273 5965:0.022727273 #
-414.71134457823615093730040825903 50:0.025316456 1244:0.012658228 1505:0.012658228 1565:0.012658228 1734:0.012658228 1824:0.012658228 2732:0.012658228 4225:0.012658228 5203:0.012658228 10021:0.012658228 #
-166.96652539473973320127697661519 50:0.023809524 149:0.023809524 170:0.023809524 3348:0.023809524 7409:0.047619049 7827:0.023809524 #
414.71134457823615093730040825903 172:0.025641026 617:0.025641026 1844:0.025641026 8702:0.025641026 14958:0.025641026 #
414.71134457823615093730040825903 60:0.014705882 267:0.014705882 408:0.014705882 1028:0.014705882 1112:0.014705882 1242:0.014705882 2739:0.014705882 3228:0.014705882 4774:0.014705882 #
414.71134457823615093730040825903 2244:0.025641026 7552:0.025641026 8035:0.025641026 11470:0.025641026 17565:0.025641026 #
414.71134457823615093730040825903 90:0.022727273 566:0.022727273 2419:0.022727273 3874:0.022727273 15989:0.022727273 15990:0.045454547 #
-351.96870973363667189914849586785 200:0.039999999 835:0.039999999 1692:0.039999999 9588:0.039999999 #
-252.49906983060455445411207620054 2149:0.050000001 5177:0.050000001 11939:0.050000001 #
-309.027684712311327075440203771 245:0.0099009899 321:0.0099009899 322:0.0099009899 459:0.0099009899 477:0.0099009899 866:0.0099009899 925:0.0099009899 1004:0.0099009899 1211:0.0099009899 1263:0.0099009899 1453:0.0099009899 2222:0.0099009899 2986:0.0099009899 4182:0.0099009899 6535:0.0099009899 6536:0.0099009899 #
-414.71134457823615093730040825903 459:0.016129032 588:0.016129032 835:0.016129032 1578:0.016129032 1965:0.016129032 2361:0.016129032 2598:0.016129032 3619:0.016129032 8702:0.016129032 #
-188.06552519140873869218921754509 1844:0.03846154 9892:0.03846154 9893:0.03846154 9894:0.03846154 #
241.18938785376073496991011779755 50:0.037037037 1550:0.074074075 2104:0.037037037 12319:0.037037037 #
414.71134457823615093730040825903 50:0.020408163 191:0.020408163 321:0.020408163 955:0.020408163 1578:0.020408163 4258:0.020408163 5105:0.020408163 10568:0.020408163 13448:0.020408163 #
-303.83969727089089474247884936631 50:0.032258064 193:0.016129032 1552:0.016129032 4197:0.016129032 8035:0.016129032 9492:0.016129032 9493:0.016129032 9494:0.016129032 #
-61.954360754463159821625595213845 50:0.021276595 60:0.021276595 160:0.021276595 740:0.021276595 1112:0.021276595 1711:0.021276595 2283:0.021276595 3956:0.021276595 #
-335.28156562159892928320914506912 50:0.025641026 669:0.025641026 674:0.025641026 3279:0.025641026 9223:0.025641026 #
-414.71134457823615093730040825903 46:0.010526316 50:0.010526316 229:0.010526316 245:0.010526316 1021:0.010526316 1240:0.010526316 1332:0.010526316 2610:0.010526316 3063:0.010526316 7017:0.010526316 8934:0.010526316 8935:0.010526316 8936:0.010526316 #
414.71134457823615093730040825903 43:0.02739726 196:0.01369863 511:0.01369863 915:0.01369863 5236:0.01369863 10010:0.01369863 15873:0.01369863 15874:0.01369863 15875:0.01369863 15876:0.01369863 #
365.59028135041654650194686837494 149:0.02 2694:0.02 3219:0.02 3920:0.02 17501:0.02 #
-414.71134457823615093730040825903 190:0.025641026 459:0.025641026 1070:0.025641026 2556:0.025641026 2941:0.025641026 4508:0.025641026 #
-414.71134457823615093730040825903 120:0.017857144 149:0.017857144 453:0.017857144 1578:0.017857144 1601:0.035714287 2573:0.017857144 5006:0.017857144 8017:0.017857144 8824:0.017857144 #
-414.71134457823615093730040825903 149:0.015151516 459:0.015151516 570:0.015151516 608:0.015151516 1054:0.015151516 2677:0.015151516 6283:0.030303031 7998:0.015151516 9676:0.015151516 9677:0.015151516 #
414.71134457823615093730040825903 608:0.017241379 794:0.017241379 1429:0.017241379 1862:0.017241379 3935:0.017241379 4810:0.017241379 6082:0.017241379 8586:0.017241379 #
287.8159712836073822472826577723 46:0.023255814 1806:0.023255814 3935:0.023255814 6024:0.023255814 10131:0.023255814 14441:0.023255814 #
414.71134457823615093730040825903 46:0.014492754 77:0.014492754 82:0.014492754 1413:0.014492754 1437:0.014492754 1463:0.014492754 2337:0.014492754 5524:0.014492754 11346:0.014492754 #
348.78049418922887525695841759443 77:0.037037037 1733:0.037037037 2026:0.037037037 13672:0.037037037 #
414.71134457823615093730040825903 295:0.023255814 739:0.023255814 838:0.023255814 1821:0.023255814 5375:0.023255814 8200:0.023255814 10420:0.023255814 #
414.71134457823615093730040825903 246:0.016666668 587:0.016666668 636:0.016666668 1907:0.016666668 2723:0.016666668 2778:0.016666668 5933:0.016666668 8646:0.016666668 17052:0.016666668 #
-414.71134457823615093730040825903 802:0.06666667 1806:0.06666667 #
-414.71134457823615093730040825903 172:0.012048192 477:0.012048192 925:0.012048192 2175:0.012048192 2627:0.012048192 2640:0.012048192 4088:0.012048192 9628:0.012048192 9629:0.012048192 9630:0.012048192 9631:0.012048192 #
-414.71134457823615093730040825903 41:0.01754386 152:0.01754386 865:0.01754386 1094:0.01754386 1463:0.01754386 4175:0.01754386 5955:0.01754386 9552:0.01754386 #
-414.71134457823615093730040825903 430:0.010416667 673:0.010416667 2572:0.010416667 2677:0.010416667 2932:0.010416667 3140:0.010416667 3532:0.010416667 4502:0.010416667 5673:0.010416667 8586:0.010416667 8587:0.010416667 8588:0.010416667 #
414.71134457823615093730040825903 15:0.016129032 41:0.016129032 124:0.016129032 149:0.016129032 190:0.016129032 627:0.016129032 1244:0.016129032 2126:0.016129032 2144:0.016129032 12107:0.016129032 #
414.71134457823615093730040825903 90:0.011235955 245:0.011235955 1259:0.02247191 1601:0.011235955 2187:0.011235955 2278:0.011235955 2581:0.02247191 3261:0.02247191 6295:0.011235955 7558:0.011235955 7759:0.011235955 19421:0.011235955 #
390.03462251822008965973509475589 3333:0.023255814 3656:0.023255814 4029:0.023255814 4760:0.023255814 4813:0.023255814 7885:0.023255814 #
