SVM-light Version V6.02
0 # kernel type
3 # kernel parameter -d 
1 # kernel parameter -g 
1 # kernel parameter -s 
1 # kernel parameter -r 
empty# kernel parameter -u 
2826 # highest feature index 
8527 # number of training documents 
5664 # number of support vectors plus 1 
-0.078658401 # threshold b, each following line is a SV (starting with alpha*y)
-215.68208087559841601432708557695 38:0.018518519 160:0.018518519 265:0.018518519 866:0.018518519 1335:0.018518519 1385:0.018518519 1393:0.018518519 #
-215.68208087559841601432708557695 4:0.027777778 5:0.027777778 6:0.027777778 7:0.027777778 8:0.027777778 #
-156.21224897565528522136446554214 9:0.013888889 10:0.013888889 11:0.013888889 12:0.013888889 13:0.013888889 14:0.013888889 15:0.013888889 16:0.013888889 17:0.013888889 #
-215.68208087559841601432708557695 18:0.023255814 19:0.023255814 20:0.023255814 21:0.023255814 22:0.023255814 #
-215.68208087559841601432708557695 23:0.020833334 24:0.020833334 25:0.020833334 26:0.020833334 27:0.020833334 28:0.020833334 #
215.68208087559841601432708557695 13:0.023255814 160:0.023255814 218:0.023255814 725:0.023255814 947:0.023255814 1039:0.023255814 2001:0.023255814 #
92.155296907322664878847717773169 183:0.02 411:0.02 869:0.02 952:0.02 1748:0.02 1909:0.02 1968:0.02 #
-2.4151510370263373772559134522453 43:0.03846154 349:0.03846154 496:0.03846154 642:0.03846154 #
215.68208087559841601432708557695 83:0.03125 157:0.03125 197:0.03125 206:0.03125 227:0.03125 414:0.03125 #
215.68208087559841601432708557695 38:0.02 157:0.02 214:0.02 242:0.02 585:0.02 687:0.02 935:0.02 2002:0.02 #
-162.87003568961233668233035132289 218:0.33333334 #
89.75415388314631570665369508788 98:0.023255814 382:0.023255814 832:0.023255814 1093:0.023255814 1137:0.023255814 2021:0.023255814 2544:0.023255814 #
-215.68208087559841601432708557695 98:0.06666667 157:0.13333334 1412:0.06666667 #
75.213837897590423153815208934247 141:0.012987013 999:0.012987013 1034:0.012987013 1335:0.012987013 1439:0.012987013 1527:0.012987013 2237:0.012987013 2384:0.012987013 2387:0.012987013 2484:0.012987013 #
70.305367457519281515487818978727 373:0.125 472:0.125 #
215.68208087559841601432708557695 183:0.02 211:0.02 731:0.02 826:0.02 1102:0.02 1192:0.02 1814:0.02 2518:0.02 #
215.68208087559841601432708557695 8:0.1 98:0.1 #
-215.68208087559841601432708557695 8:0.090909094 38:0.090909094 #
-176.84450817038813852377643343061 8:0.11111111 1367:0.055555556 #
-215.68208087559841601432708557695 98:0.25 #
215.68208087559841601432708557695 29:0.011111111 31:0.011111111 69:0.011111111 186:0.011111111 218:0.011111111 284:0.011111111 287:0.011111111 485:0.011111111 573:0.011111111 783:0.011111111 1137:0.011111111 1297:0.011111111 1830:0.011111111 2354:0.011111111 #
215.68208087559841601432708557695 18:0.014084507 37:0.014084507 151:0.014084507 1483:0.014084507 2139:0.014084507 2571:0.014084507 2574:0.014084507 2621:0.014084507 #
215.68208087559841601432708557695 21:0.05882353 385:0.05882353 #
215.68208087559841601432708557695 7:0.05882353 31:0.05882353 332:0.05882353 #
215.68208087559841601432708557695 20:0.043478262 157:0.043478262 474:0.043478262 2332:0.043478262 #
-215.68208087559841601432708557695 83:0.16666667 #
-215.68208087559841601432708557695 349:0.33333334 #
119.90309269536342640094517264515 156:0.03125 181:0.03125 1913:0.03125 2029:0.03125 #
-215.68208087559841601432708557695 83:0.1 85:0.1 #
215.68208087559841601432708557695 8:0.090909094 38:0.090909094 #
-215.68208087559841601432708557695 197:0.1 586:0.1 #
-215.68208087559841601432708557695 98:0.032258064 160:0.064516127 172:0.032258064 197:0.032258064 660:0.032258064 #
-215.68208087559841601432708557695 206:0.090909094 647:0.090909094 #
-215.68208087559841601432708557695 13:0.06666667 120:0.06666667 197:0.06666667 #
215.68208087559841601432708557695 83:0.071428575 1019:0.071428575 #
215.68208087559841601432708557695 83:0.071428575 1507:0.071428575 #
52.924030848062145082622009795159 136:0.030303031 637:0.030303031 872:0.030303031 976:0.030303031 1668:0.030303031 #
215.68208087559841601432708557695 242:0.0625 1229:0.0625 1264:0.0625 #
215.68208087559841601432708557695 130:0.012658228 172:0.012658228 472:0.012658228 847:0.012658228 1734:0.012658228 1979:0.012658228 2312:0.012658228 2553:0.012658228 2695:0.012658228 2724:0.012658228 #
-215.68208087559841601432708557695 38:0.017857144 98:0.017857144 157:0.017857144 290:0.017857144 451:0.017857144 906:0.017857144 1152:0.017857144 1722:0.017857144 #
215.68208087559841601432708557695 38:0.2 #
-21.740517845191629220380491460674 38:0.2 #
215.68208087559841601432708557695 98:0.25 #
-215.68208087559841601432708557695 98:0.25 #
215.68208087559841601432708557695 13:0.052631579 38:0.052631579 85:0.052631579 199:0.052631579 #
-215.68208087559841601432708557695 485:0.039999999 1150:0.039999999 1171:0.039999999 1859:0.039999999 #
29.543771303551523033092962577939 172:0.034482758 218:0.034482758 494:0.034482758 1230:0.034482758 2109:0.034482758 #
-215.68208087559841601432708557695 915:0.050000001 1263:0.050000001 1264:0.050000001 #
-170.61457109328495107547496445477 132:0.095238097 1263:0.047619049 1264:0.047619049 #
-215.68208087559841601432708557695 31:0.047619049 157:0.047619049 584:0.047619049 1748:0.047619049 #
215.68208087559841601432708557695 98:0.11111111 552:0.11111111 #
-215.68208087559841601432708557695 98:0.25 #
-215.68208087559841601432708557695 98:0.125 1014:0.125 #
215.68208087559841601432708557695 160:0.0625 172:0.0625 1412:0.0625 #
215.68208087559841601432708557695 157:0.055555556 172:0.055555556 349:0.055555556 678:0.055555556 #
215.68208087559841601432708557695 70:0.014084507 157:0.014084507 160:0.014084507 172:0.014084507 552:0.014084507 680:0.014084507 720:0.014084507 872:0.014084507 1340:0.014084507 1590:0.014084507 1831:0.014084507 2337:0.014084507 #
215.68208087559841601432708557695 647:0.0625 776:0.0625 786:0.0625 #
215.68208087559841601432708557695 125:0.07692308 348:0.07692308 349:0.07692308 #
-215.68208087559841601432708557695 23:0.024390243 414:0.024390243 904:0.024390243 1221:0.024390243 1534:0.024390243 1889:0.024390243 #
-215.68208087559841601432708557695 43:0.020833334 476:0.020833334 545:0.020833334 580:0.020833334 601:0.020833334 1082:0.020833334 #
-215.68208087559841601432708557695 29:0.0625 38:0.0625 552:0.0625 #
-200.87832985905802729575952980667 552:0.047619049 553:0.047619049 554:0.047619049 #
96.874481126584512935551174450666 114:0.024390243 298:0.024390243 986:0.024390243 1110:0.024390243 1351:0.024390243 2245:0.024390243 #
215.68208087559841601432708557695 98:0.015151516 123:0.015151516 207:0.015151516 230:0.015151516 281:0.015151516 308:0.015151516 1011:0.015151516 2088:0.015151516 2349:0.015151516 #
-215.68208087559841601432708557695 98:0.11111111 1137:0.11111111 #
131.81479145114153084250574465841 349:0.047619049 641:0.047619049 1014:0.047619049 1156:0.047619049 #
133.7512216980531434273871127516 1011:0.071428575 1014:0.071428575 #
215.68208087559841601432708557695 23:0.035714287 472:0.035714287 1014:0.035714287 2020:0.035714287 #
215.68208087559841601432708557695 414:0.068965517 425:0.034482758 647:0.034482758 2506:0.034482758 #
-215.68208087559841601432708557695 227:0.05882353 228:0.05882353 472:0.05882353 #
-215.68208087559841601432708557695 29:0.043478262 112:0.043478262 1481:0.043478262 1907:0.043478262 #
-215.68208087559841601432708557695 510:0.090909094 585:0.090909094 #
-215.68208087559841601432708557695 98:0.023809524 146:0.023809524 864:0.023809524 1085:0.023809524 1119:0.023809524 1322:0.023809524 #
-215.68208087559841601432708557695 43:0.0625 1507:0.0625 #
101.48109799209856873858370818198 1137:0.125 1138:0.125 #
215.68208087559841601432708557695 43:0.125 #
215.68208087559841601432708557695 29:0.1 257:0.1 #
215.68208087559841601432708557695 103:0.052631579 172:0.052631579 2292:0.052631579 #
215.68208087559841601432708557695 98:0.016393442 120:0.016393442 121:0.016393442 206:0.016393442 1037:0.016393442 1093:0.016393442 2108:0.016393442 2144:0.016393442 2752:0.016393442 #
-35.664109170832368533865519566461 332:0.071428575 992:0.071428575 1138:0.071428575 #
215.68208087559841601432708557695 155:0.016393442 206:0.016393442 300:0.016393442 528:0.016393442 1741:0.016393442 2102:0.016393442 2178:0.016393442 2338:0.016393442 #
128.022551754404503299156203866 98:0.01369863 146:0.01369863 186:0.02739726 766:0.01369863 1099:0.01369863 1223:0.01369863 1615:0.01369863 1645:0.01369863 2247:0.01369863 #
-215.68208087559841601432708557695 98:0.11111111 257:0.11111111 #
215.68208087559841601432708557695 130:0.027777778 304:0.027777778 1137:0.027777778 1146:0.027777778 2536:0.027777778 #
27.966008497792316234153986442834 29:0.014285714 98:0.014285714 382:0.014285714 753:0.014285714 1044:0.014285714 2208:0.014285714 2539:0.014285714 2635:0.014285714 2742:0.014285714 #
215.68208087559841601432708557695 94:0.047619049 647:0.047619049 710:0.047619049 2638:0.047619049 #
168.96820819779122757609002292156 19:0.01923077 23:0.01923077 254:0.01923077 1462:0.01923077 2075:0.01923077 2592:0.01923077 #
215.68208087559841601432708557695 2:0.025 12:0.025 45:0.025 414:0.025 529:0.025 2519:0.025 #
-215.68208087559841601432708557695 203:0.047619049 981:0.047619049 1103:0.047619049 1658:0.047619049 #
-215.68208087559841601432708557695 157:0.032258064 380:0.032258064 474:0.032258064 580:0.032258064 948:0.032258064 1658:0.032258064 #
-107.38755649125194224779988871887 385:0.07692308 1670:0.07692308 #
-134.68171529736557090473070275038 42:0.030303031 106:0.030303031 550:0.030303031 1052:0.030303031 1658:0.030303031 #
-215.68208087559841601432708557695 38:0.021276595 153:0.021276595 288:0.021276595 299:0.021276595 349:0.021276595 773:0.021276595 802:0.021276595 #
-215.68208087559841601432708557695 29:0.2 #
215.68208087559841601432708557695 249:0.012195121 314:0.012195121 516:0.012195121 726:0.012195121 925:0.012195121 981:0.012195121 1384:0.012195121 1471:0.012195121 2307:0.012195121 2442:0.012195121 #
172.66337289100613361370051279664 472:0.047619049 981:0.047619049 1014:0.047619049 1110:0.047619049 #
215.68208087559841601432708557695 28:0.034482758 38:0.034482758 491:0.034482758 572:0.034482758 948:0.034482758 #
-215.68208087559841601432708557695 472:0.25 #
-215.68208087559841601432708557695 257:0.11111111 839:0.11111111 #
-83.419036072564168193821387831122 948:0.33333334 #
-202.56037686205019099361379630864 57:0.125 572:0.125 #
-175.69873731354573465068824589252 114:0.025641026 319:0.025641026 648:0.025641026 689:0.025641026 1642:0.025641026 #
215.68208087559841601432708557695 98:0.25 #
215.68208087559841601432708557695 29:0.083333336 532:0.083333336 #
215.68208087559841601432708557695 98:0.1 969:0.1 #
-215.68208087559841601432708557695 261:0.05882353 532:0.05882353 608:0.05882353 #
215.68208087559841601432708557695 57:0.22222222 #
215.68208087559841601432708557695 472:0.1 508:0.1 #
112.81979897519887856560671934858 414:0.045454547 740:0.045454547 807:0.045454547 839:0.045454547 #
190.95708852567364033347985241562 38:0.052631579 839:0.052631579 2322:0.052631579 #
174.53368761558320443327829707414 938:0.055555556 2671:0.055555556 #
215.68208087559841601432708557695 261:0.2 #
76.138834431342559128097491338849 8:0.017241379 29:0.017241379 379:0.017241379 832:0.017241379 1843:0.017241379 2279:0.017241379 2460:0.017241379 #
-215.68208087559841601432708557695 125:0.11111111 414:0.11111111 #
-215.68208087559841601432708557695 105:0.047619049 373:0.095238097 414:0.047619049 #
-33.29380832781527033148449845612 414:0.11111111 542:0.11111111 #
215.68208087559841601432708557695 38:0.047619049 426:0.047619049 472:0.047619049 1868:0.047619049 #
-215.68208087559841601432708557695 13:0.1 38:0.1 #
-215.68208087559841601432708557695 359:0.071428575 373:0.071428575 #
-48.494951075674592289033171255141 373:0.06666667 1082:0.06666667 1719:0.06666667 #
-215.68208087559841601432708557695 98:0.043478262 197:0.043478262 294:0.043478262 373:0.043478262 801:0.043478262 #
-44.159135625188405072094610659406 130:0.03125 858:0.03125 1743:0.03125 1893:0.03125 #
215.68208087559841601432708557695 13:0.045454547 67:0.045454547 660:0.045454547 #
81.140975189047409799059096258134 414:0.06666667 472:0.06666667 981:0.06666667 #
-215.68208087559841601432708557695 414:0.25 #
-57.547519426325706604075094219297 981:0.090909094 1602:0.090909094 #
-215.68208087559841601432708557695 981:0.083333336 1439:0.083333336 #
97.233857227698408109972660895437 687:0.043478262 710:0.021739131 773:0.021739131 826:0.021739131 1984:0.021739131 2182:0.021739131 2500:0.021739131 #
215.68208087559841601432708557695 38:0.014285714 66:0.014285714 98:0.028571429 183:0.014285714 641:0.014285714 765:0.014285714 1478:0.014285714 1579:0.014285714 1878:0.014285714 2115:0.014285714 #
215.68208087559841601432708557695 2:0.029411765 38:0.029411765 257:0.029411765 1635:0.029411765 1802:0.029411765 #
215.68208087559841601432708557695 120:0.023809524 157:0.023809524 186:0.023809524 349:0.023809524 542:0.023809524 581:0.023809524 1354:0.023809524 #
-215.68208087559841601432708557695 8:0.083333336 864:0.083333336 #
-215.68208087559841601432708557695 8:0.06818182 91:0.022727273 498:0.022727273 1321:0.022727273 1322:0.022727273 #
-215.68208087559841601432708557695 8:0.055555556 1161:0.055555556 #
24.917627456492144943922539823689 98:0.1 696:0.1 #
-215.68208087559841601432708557695 27:0.020408163 184:0.020408163 249:0.020408163 1050:0.020408163 1594:0.020408163 1721:0.020408163 #
-215.68208087559841601432708557695 126:0.011494253 133:0.011494253 136:0.011494253 261:0.011494253 314:0.011494253 492:0.011494253 1224:0.011494253 1491:0.011494253 1579:0.011494253 1711:0.011494253 #
215.68208087559841601432708557695 472:0.0625 847:0.0625 #
215.68208087559841601432708557695 266:0.0625 472:0.0625 1706:0.0625 #
-215.68208087559841601432708557695 1868:0.16666667 #
-215.68208087559841601432708557695 67:0.052631579 249:0.052631579 #
-215.68208087559841601432708557695 278:0.03846154 279:0.03846154 651:0.03846154 714:0.03846154 #
-215.68208087559841601432708557695 38:0.039999999 436:0.039999999 651:0.039999999 844:0.039999999 #
-215.68208087559841601432708557695 98:0.1 1354:0.1 #
215.68208087559841601432708557695 2:0.043478262 859:0.043478262 1322:0.043478262 1591:0.043478262 #
-215.68208087559841601432708557695 8:0.01923077 66:0.01923077 157:0.01923077 218:0.01923077 257:0.01923077 573:0.01923077 1078:0.01923077 1268:0.01923077 1523:0.01923077 #
-215.68208087559841601432708557695 11:0.020833334 391:0.020833334 410:0.020833334 651:0.020833334 659:0.020833334 709:0.020833334 1562:0.020833334 1676:0.020833334 #
215.68208087559841601432708557695 22:0.039999999 714:0.039999999 1574:0.039999999 #
-107.53427879860225857555633410811 85:0.05882353 472:0.05882353 500:0.05882353 #
-215.68208087559841601432708557695 172:0.0625 199:0.0625 1663:0.0625 #
-215.68208087559841601432708557695 38:0.030303031 199:0.030303031 467:0.030303031 552:0.030303031 836:0.030303031 837:0.030303031 #
-215.68208087559841601432708557695 38:0.011494253 114:0.011494253 126:0.011494253 253:0.011494253 289:0.011494253 441:0.011494253 781:0.011494253 853:0.011494253 914:0.011494253 1080:0.011494253 1478:0.011494253 #
-215.68208087559841601432708557695 98:0.11111111 781:0.11111111 #
215.68208087559841601432708557695 14:0.045454547 485:0.045454547 2486:0.045454547 #
215.68208087559841601432708557695 206:0.021276595 483:0.021276595 863:0.021276595 921:0.021276595 1137:0.021276595 2091:0.021276595 2405:0.021276595 #
-215.68208087559841601432708557695 111:0.022727273 373:0.022727273 696:0.022727273 896:0.022727273 921:0.045454547 945:0.022727273 1566:0.022727273 1878:0.022727273 #
-215.68208087559841601432708557695 8:0.016949153 38:0.016949153 132:0.016949153 175:0.016949153 418:0.016949153 943:0.016949153 1108:0.016949153 1781:0.016949153 #
-215.68208087559841601432708557695 37:0.05882353 969:0.05882353 1112:0.05882353 #
-215.68208087559841601432708557695 98:0.1 806:0.1 #
19.84645738344121568275113531854 16:0.052631579 1878:0.052631579 2258:0.052631579 #
215.68208087559841601432708557695 550:0.083333336 554:0.083333336 #
-215.68208087559841601432708557695 55:0.014925373 289:0.014925373 450:0.014925373 587:0.014925373 807:0.014925373 922:0.014925373 923:0.014925373 924:0.014925373 925:0.014925373 #
215.68208087559841601432708557695 10:0.0625 76:0.0625 #
215.68208087559841601432708557695 98:0.25 #
215.68208087559841601432708557695 37:0.022727273 93:0.022727273 278:0.022727273 279:0.022727273 310:0.022727273 370:0.022727273 839:0.022727273 1697:0.022727273 #
215.68208087559841601432708557695 103:0.017857144 307:0.017857144 472:0.035714287 1016:0.017857144 1026:0.017857144 1110:0.017857144 1112:0.017857144 2774:0.017857144 #
-191.85226694962901206054084468633 310:0.25 #
-215.68208087559841601432708557695 405:0.05882353 475:0.05882353 537:0.05882353 #
215.68208087559841601432708557695 130:0.0125 205:0.0125 751:0.0125 997:0.0125 1053:0.0125 1208:0.0125 1831:0.0125 2276:0.0125 2593:0.0125 2647:0.0125 #
215.68208087559841601432708557695 172:0.03846154 632:0.03846154 1040:0.03846154 2338:0.03846154 #
-215.68208087559841601432708557695 306:0.2 #
-215.68208087559841601432708557695 155:0.016666668 157:0.016666668 399:0.016666668 525:0.016666668 647:0.016666668 689:0.016666668 1331:0.016666668 1629:0.016666668 #
215.68208087559841601432708557695 332:0.045454547 349:0.045454547 525:0.045454547 641:0.045454547 670:0.045454547 #
-215.68208087559841601432708557695 641:0.25 #
215.68208087559841601432708557695 143:0.012987013 218:0.012987013 223:0.012987013 257:0.012987013 573:0.012987013 602:0.012987013 651:0.012987013 690:0.012987013 1137:0.025974026 1537:0.012987013 2518:0.012987013 #
215.68208087559841601432708557695 5:0.025641026 140:0.025641026 365:0.025641026 485:0.025641026 2450:0.025641026 #
215.68208087559841601432708557695 18:0.035714287 480:0.035714287 1167:0.035714287 1177:0.035714287 #
215.68208087559841601432708557695 37:0.01369863 130:0.01369863 148:0.01369863 186:0.01369863 191:0.01369863 249:0.01369863 348:0.01369863 508:0.01369863 580:0.01369863 1868:0.01369863 2296:0.01369863 #
-215.68208087559841601432708557695 157:0.1 525:0.1 #
-215.68208087559841601432708557695 66:0.043478262 67:0.043478262 472:0.043478262 #
-215.68208087559841601432708557695 64:0.025 154:0.025 332:0.025 349:0.025 1181:0.025 1705:0.025 #
215.68208087559841601432708557695 157:0.1 206:0.1 #
215.68208087559841601432708557695 126:0.0625 157:0.0625 257:0.0625 #
215.68208087559841601432708557695 18:0.017857144 38:0.017857144 127:0.017857144 155:0.017857144 157:0.017857144 197:0.017857144 839:0.017857144 2435:0.017857144 2622:0.017857144 #
215.68208087559841601432708557695 58:0.021739131 120:0.021739131 368:0.021739131 472:0.021739131 492:0.021739131 641:0.021739131 808:0.021739131 2629:0.021739131 #
-75.858390921026483511013793759048 223:0.090909094 414:0.090909094 #
-215.68208087559841601432708557695 8:0.052631579 450:0.052631579 1878:0.052631579 #
-215.68208087559841601432708557695 8:0.047619049 266:0.047619049 267:0.047619049 268:0.047619049 #
112.72459217136078279963840031996 98:0.024390243 1086:0.024390243 1195:0.024390243 2174:0.024390243 2175:0.024390243 #
-215.68208087559841601432708557695 678:0.11111111 1057:0.11111111 #
-215.68208087559841601432708557695 38:0.011111111 98:0.011111111 124:0.011111111 140:0.011111111 183:0.011111111 451:0.011111111 620:0.011111111 687:0.011111111 720:0.011111111 776:0.011111111 882:0.011111111 1383:0.011111111 1657:0.011111111 #
-207.80774803638499292901542503387 172:0.055555556 183:0.055555556 1026:0.055555556 #
215.68208087559841601432708557695 27:0.035714287 661:0.035714287 904:0.035714287 2467:0.035714287 #
-215.68208087559841601432708557695 98:0.019607844 667:0.019607844 744:0.019607844 1319:0.019607844 1503:0.019607844 1562:0.019607844 1563:0.019607844 #
158.61308671701198136361199431121 369:0.03125 976:0.03125 1030:0.03125 1377:0.03125 2622:0.03125 #
-215.68208087559841601432708557695 126:0.090909094 414:0.090909094 #
215.68208087559841601432708557695 13:0.043478262 85:0.043478262 157:0.043478262 1672:0.043478262 2202:0.043478262 #
-215.68208087559841601432708557695 13:0.014925373 85:0.014925373 127:0.014925373 136:0.014925373 148:0.014925373 245:0.014925373 394:0.014925373 414:0.014925373 477:0.014925373 565:0.014925373 947:0.014925373 1536:0.014925373 #
215.68208087559841601432708557695 29:0.037037037 34:0.037037037 239:0.037037037 257:0.037037037 572:0.037037037 #
-215.68208087559841601432708557695 77:0.018518519 126:0.018518519 157:0.018518519 530:0.018518519 731:0.018518519 905:0.018518519 1125:0.018518519 1385:0.018518519 #
-215.68208087559841601432708557695 157:0.11111111 492:0.11111111 #
-215.68208087559841601432708557695 45:0.027027028 66:0.027027028 1412:0.027027028 1710:0.027027028 1942:0.027027028 #
215.68208087559841601432708557695 98:0.25 #
-137.43475505146417958712845575064 1706:0.16666667 #
215.68208087559841601432708557695 151:0.033333335 451:0.033333335 776:0.033333335 839:0.033333335 1601:0.033333335 #
-107.94416703996024864409264409915 188:0.055555556 332:0.055555556 373:0.055555556 856:0.055555556 #
215.68208087559841601432708557695 85:0.050000001 610:0.050000001 1923:0.050000001 #
215.68208087559841601432708557695 85:0.037037037 288:0.037037037 510:0.037037037 964:0.037037037 #
-108.6677453179912191671974142082 1923:0.2 #
-64.7186407294588832428416935727 172:0.06666667 660:0.06666667 1111:0.06666667 #
-215.68208087559841601432708557695 710:0.2 #
-51.478180952432616379610408330336 29:0.035714287 125:0.035714287 160:0.071428575 508:0.035714287 #
-215.68208087559841601432708557695 132:0.018867925 197:0.018867925 223:0.018867925 314:0.018867925 897:0.018867925 950:0.018867925 996:0.018867925 #
215.68208087559841601432708557695 132:0.034482758 332:0.034482758 440:0.034482758 580:0.034482758 704:0.034482758 #
215.68208087559841601432708557695 40:0.022222223 148:0.022222223 160:0.022222223 172:0.022222223 310:0.022222223 415:0.022222223 676:0.022222223 #
-215.68208087559841601432708557695 349:0.06666667 472:0.06666667 925:0.06666667 #
-215.68208087559841601432708557695 8:0.055555556 38:0.055555556 895:0.055555556 #
-215.68208087559841601432708557695 38:0.052631579 300:0.052631579 426:0.052631579 #
-152.26321869170061518161674030125 8:0.052631579 38:0.052631579 846:0.052631579 #
215.68208087559841601432708557695 13:0.034482758 29:0.034482758 425:0.034482758 660:0.034482758 854:0.034482758 #
-215.68208087559841601432708557695 612:0.052631579 935:0.052631579 1041:0.052631579 #
-215.68208087559841601432708557695 472:0.05882353 865:0.05882353 1176:0.05882353 #
136.84706924565170993446372449398 69:0.012048192 447:0.012048192 449:0.012048192 729:0.012048192 981:0.012048192 1105:0.012048192 2418:0.012048192 2499:0.012048192 2501:0.012048192 2599:0.012048192 #
-173.46783935292029354968690313399 472:0.032258064 572:0.064516127 792:0.032258064 1556:0.032258064 #
215.68208087559841601432708557695 120:0.035714287 188:0.035714287 480:0.035714287 1280:0.035714287 2824:0.035714287 #
215.68208087559841601432708557695 120:0.015151516 160:0.015151516 257:0.015151516 470:0.015151516 492:0.015151516 612:0.015151516 688:0.015151516 864:0.015151516 1573:0.015151516 2425:0.015151516 #
215.68208087559841601432708557695 59:0.016393442 76:0.016393442 310:0.016393442 408:0.016393442 704:0.016393442 970:0.016393442 981:0.016393442 1030:0.016393442 #
-215.68208087559841601432708557695 729:0.16666667 #
-215.68208087559841601432708557695 157:0.052631579 257:0.052631579 740:0.052631579 1389:0.052631579 #
-215.68208087559841601432708557695 157:0.06666667 257:0.06666667 465:0.06666667 #
-215.68208087559841601432708557695 98:0.050000001 120:0.050000001 148:0.050000001 1280:0.050000001 #
126.63150543782276713500323239714 414:0.034482758 572:0.034482758 680:0.034482758 1611:0.034482758 2370:0.034482758 #
-215.68208087559841601432708557695 13:0.011764706 556:0.011764706 667:0.011764706 826:0.011764706 1236:0.011764706 1271:0.011764706 1304:0.011764706 1322:0.011764706 1490:0.011764706 1592:0.011764706 1679:0.011764706 #
-215.68208087559841601432708557695 98:0.071428575 704:0.071428575 #
215.68208087559841601432708557695 126:0.045454547 257:0.045454547 760:0.045454547 948:0.045454547 #
215.68208087559841601432708557695 21:0.020408163 22:0.020408163 154:0.020408163 349:0.020408163 1301:0.020408163 2369:0.020408163 #
-215.68208087559841601432708557695 206:0.047619049 463:0.047619049 464:0.047619049 948:0.047619049 #
-215.68208087559841601432708557695 69:0.035714287 610:0.035714287 1208:0.035714287 #
-215.68208087559841601432708557695 206:0.034482758 238:0.034482758 426:0.034482758 530:0.034482758 1181:0.034482758 #
215.68208087559841601432708557695 495:0.020833334 725:0.020833334 1439:0.020833334 1493:0.020833334 1565:0.020833334 2515:0.020833334 #
-215.68208087559841601432708557695 98:0.083333336 314:0.083333336 #
215.68208087559841601432708557695 14:0.041666668 157:0.020833334 999:0.020833334 1034:0.020833334 2484:0.020833334 #
-215.68208087559841601432708557695 46:0.025641026 208:0.025641026 399:0.025641026 480:0.025641026 1435:0.025641026 1436:0.025641026 #
-215.68208087559841601432708557695 291:0.071428575 1802:0.071428575 #
-215.68208087559841601432708557695 470:0.07692308 687:0.07692308 #
-215.68208087559841601432708557695 11:0.06666667 1156:0.06666667 #
-215.68208087559841601432708557695 98:0.25 #
-215.68208087559841601432708557695 98:0.047619049 469:0.047619049 1110:0.047619049 #
215.68208087559841601432708557695 6:0.024390243 58:0.024390243 155:0.024390243 1093:0.024390243 1182:0.024390243 1684:0.024390243 #
-33.39356122911863167246337980032 332:0.055555556 356:0.055555556 807:0.055555556 #
-215.68208087559841601432708557695 76:0.025 154:0.025 647:0.025 981:0.025 1974:0.025 #
-192.02310089351681199332233518362 344:0.07692308 1355:0.07692308 #
-215.68208087559841601432708557695 149:0.1 307:0.1 #
215.68208087559841601432708557695 85:0.015384615 469:0.015384615 572:0.030769231 590:0.015384615 630:0.015384615 1223:0.015384615 1345:0.015384615 1677:0.015384615 2571:0.015384615 #
215.68208087559841601432708557695 27:0.027777778 170:0.027777778 332:0.027777778 882:0.027777778 2081:0.027777778 2082:0.027777778 #
215.68208087559841601432708557695 20:0.024390243 104:0.024390243 498:0.024390243 572:0.024390243 1562:0.024390243 1590:0.024390243 #
215.68208087559841601432708557695 126:0.027027028 296:0.027027028 306:0.027027028 452:0.027027028 572:0.027027028 2160:0.027027028 #
-215.68208087559841601432708557695 242:0.045454547 370:0.045454547 556:0.045454547 572:0.045454547 #
-215.68208087559841601432708557695 332:0.1 517:0.1 #
-215.68208087559841601432708557695 8:0.032258064 306:0.032258064 472:0.032258064 682:0.032258064 1329:0.032258064 #
-23.713425711579375843029993120581 38:0.03125 291:0.03125 910:0.03125 1517:0.03125 #
-215.68208087559841601432708557695 34:0.023809524 77:0.023809524 287:0.023809524 395:0.023809524 472:0.023809524 542:0.023809524 869:0.023809524 #
-215.68208087559841601432708557695 29:0.013888889 218:0.013888889 225:0.013888889 257:0.013888889 519:0.013888889 575:0.013888889 1195:0.013888889 1556:0.013888889 1750:0.013888889 #
46.894532948119135085107700433582 100:0.023255814 414:0.023255814 796:0.023255814 1143:0.023255814 2104:0.023255814 2211:0.023255814 2246:0.023255814 #
-29.972624520000341163949997280724 478:0.034482758 948:0.034482758 1804:0.034482758 1805:0.034482758 #
215.68208087559841601432708557695 251:0.045454547 472:0.045454547 1462:0.045454547 #
173.57825427367725978911039419472 23:0.012048192 125:0.012048192 556:0.012048192 665:0.012048192 1464:0.012048192 2045:0.012048192 2356:0.012048192 2574:0.012048192 2679:0.012048192 2786:0.012048192 #
-215.68208087559841601432708557695 76:0.016666668 289:0.016666668 325:0.016666668 477:0.016666668 605:0.016666668 682:0.016666668 735:0.016666668 808:0.016666668 1180:0.016666668 #
-215.68208087559841601432708557695 647:0.03125 648:0.03125 649:0.03125 650:0.03125 651:0.03125 #
-215.68208087559841601432708557695 199:0.05882353 1090:0.05882353 #
-215.68208087559841601432708557695 1478:0.11111111 #
-215.68208087559841601432708557695 198:0.033333335 257:0.033333335 332:0.033333335 647:0.033333335 678:0.033333335 882:0.033333335 #
-215.68208087559841601432708557695 472:0.021276595 610:0.021276595 659:0.021276595 692:0.021276595 1462:0.021276595 1463:0.021276595 #
215.68208087559841601432708557695 38:0.0099999998 120:0.0099999998 126:0.0099999998 214:0.0099999998 265:0.0099999998 509:0.0099999998 807:0.0099999998 975:0.0099999998 1093:0.0099999998 1109:0.0099999998 1538:0.02 1830:0.0099999998 2249:0.0099999998 2788:0.0099999998 #
-215.68208087559841601432708557695 38:0.018518519 418:0.018518519 485:0.018518519 492:0.018518519 579:0.018518519 831:0.018518519 1148:0.018518519 1219:0.018518519 #
215.68208087559841601432708557695 14:0.043478262 659:0.043478262 1769:0.043478262 #
215.68208087559841601432708557695 13:0.01923077 85:0.01923077 660:0.01923077 735:0.01923077 1047:0.01923077 1396:0.01923077 1761:0.01923077 #
-215.68208087559841601432708557695 98:0.0625 675:0.0625 1907:0.0625 #
-9.8300459680766003600638214265928 64:0.021739131 630:0.021739131 1049:0.021739131 1097:0.021739131 1177:0.021739131 1664:0.021739131 1687:0.021739131 #
-215.68208087559841601432708557695 483:0.033333335 807:0.033333335 1012:0.033333335 1790:0.033333335 #
-215.68208087559841601432708557695 1562:0.14285715 #
-215.68208087559841601432708557695 13:0.055555556 414:0.055555556 539:0.055555556 720:0.055555556 #
-215.38032572737304803922597784549 720:0.035714287 854:0.035714287 989:0.035714287 1130:0.035714287 #
74.046292517806520550038840156049 779:0.034482758 839:0.034482758 1011:0.034482758 1226:0.034482758 #
-215.68208087559841601432708557695 45:0.03125 68:0.03125 98:0.03125 206:0.03125 720:0.03125 #
-215.68208087559841601432708557695 143:0.016393442 309:0.016393442 319:0.016393442 720:0.016393442 859:0.016393442 1019:0.032786883 1313:0.016393442 1785:0.016393442 #
-215.68208087559841601432708557695 29:0.015384615 84:0.015384615 87:0.015384615 99:0.015384615 140:0.015384615 237:0.015384615 373:0.015384615 408:0.015384615 432:0.015384615 687:0.015384615 1314:0.015384615 #
124.69207478638773523016425315291 23:0.050000001 2215:0.050000001 #
120.94420654405034554201847640797 29:0.01754386 175:0.01754386 257:0.01754386 493:0.01754386 1079:0.01754386 1570:0.01754386 2123:0.01754386 2265:0.01754386 #
-215.68208087559841601432708557695 23:0.125 #
-215.68208087559841601432708557695 751:0.034482758 1197:0.034482758 1657:0.034482758 #
215.68208087559841601432708557695 22:0.025 50:0.0125 85:0.0125 509:0.0125 675:0.0125 777:0.0125 807:0.0125 1513:0.0125 2454:0.0125 #
-78.518215709996425744066073093563 1575:0.090909094 1591:0.090909094 #
215.68208087559841601432708557695 38:0.014285714 155:0.014285714 439:0.014285714 572:0.014285714 602:0.014285714 970:0.014285714 1606:0.014285714 1998:0.014285714 2320:0.014285714 2724:0.014285714 #
-215.68208087559841601432708557695 242:0.02 385:0.02 472:0.02 483:0.02 776:0.02 943:0.02 1377:0.02 #
-215.68208087559841601432708557695 14:0.07692308 172:0.07692308 #
215.68208087559841601432708557695 114:0.033333335 198:0.033333335 257:0.033333335 332:0.033333335 1907:0.033333335 #
215.68208087559841601432708557695 16:0.012658228 23:0.012658228 120:0.012658228 136:0.012658228 137:0.012658228 1328:0.012658228 1881:0.012658228 2282:0.012658228 2561:0.012658228 #
-215.68208087559841601432708557695 602:0.050000001 1396:0.050000001 #
215.68208087559841601432708557695 31:0.020408163 98:0.020408163 120:0.020408163 248:0.020408163 408:0.020408163 1178:0.020408163 2516:0.020408163 2517:0.020408163 #
215.68208087559841601432708557695 68:0.028571429 472:0.028571429 1208:0.028571429 2434:0.028571429 #
215.68208087559841601432708557695 38:0.027777778 206:0.027777778 349:0.027777778 407:0.027777778 463:0.027777778 948:0.027777778 2589:0.027777778 #
215.68208087559841601432708557695 191:0.027777778 472:0.027777778 864:0.027777778 2035:0.027777778 2365:0.027777778 #
-215.68208087559841601432708557695 16:0.05882353 1507:0.05882353 #
-215.68208087559841601432708557695 136:0.11111111 407:0.11111111 #
-215.68208087559841601432708557695 16:0.039999999 214:0.039999999 591:0.039999999 #
-133.33029963472631607146468013525 859:0.2 #
215.68208087559841601432708557695 34:0.013888889 126:0.013888889 198:0.013888889 349:0.013888889 572:0.013888889 647:0.013888889 772:0.013888889 890:0.013888889 1512:0.013888889 1832:0.013888889 2238:0.013888889 #
215.68208087559841601432708557695 126:0.025641026 326:0.025641026 453:0.025641026 463:0.025641026 572:0.025641026 647:0.025641026 #
-81.813063183446203652238182257861 21:0.0625 126:0.0625 #
-66.470667036146224404546956066042 414:0.029411765 571:0.029411765 920:0.029411765 925:0.029411765 1651:0.029411765 #
-215.68208087559841601432708557695 126:0.039999999 373:0.039999999 452:0.039999999 998:0.039999999 #
-46.53831159860228439129059552215 126:0.03846154 404:0.03846154 835:0.03846154 #
215.68208087559841601432708557695 59:0.011363637 98:0.011363637 222:0.011363637 423:0.011363637 873:0.011363637 1346:0.011363637 1662:0.011363637 1852:0.011363637 2572:0.011363637 #
-39.036873328687860862373781856149 181:0.024390243 294:0.024390243 801:0.024390243 831:0.024390243 1211:0.024390243 1913:0.024390243 #
-215.68208087559841601432708557695 67:0.037037037 647:0.037037037 1328:0.037037037 #
-215.68208087559841601432708557695 267:0.039999999 472:0.039999999 1348:0.039999999 1581:0.039999999 #
-215.68208087559841601432708557695 98:0.032258064 125:0.032258064 143:0.032258064 630:0.032258064 661:0.032258064 781:0.032258064 #
-215.68208087559841601432708557695 56:0.047619049 57:0.047619049 58:0.047619049 #
-215.68208087559841601432708557695 27:0.015873017 28:0.015873017 38:0.015873017 57:0.015873017 225:0.015873017 912:0.015873017 1225:0.015873017 1789:0.015873017 #
215.68208087559841601432708557695 98:0.036363635 132:0.018181818 136:0.018181818 183:0.018181818 308:0.018181818 813:0.018181818 1763:0.018181818 1984:0.018181818 #
-25.344260252346614947782654780895 10:0.14285715 #
-122.24750508660370940106076886877 50:0.037037037 100:0.037037037 349:0.074074075 1060:0.037037037 #
-178.51565638127763691045402083546 1684:0.11111111 #
-215.68208087559841601432708557695 1093:0.1 1364:0.1 #
215.68208087559841601432708557695 18:0.028571429 58:0.028571429 207:0.028571429 1251:0.028571429 2230:0.028571429 #
215.68208087559841601432708557695 38:0.029411765 95:0.014705882 655:0.014705882 1640:0.014705882 1785:0.014705882 2024:0.014705882 2307:0.014705882 2575:0.014705882 #
215.68208087559841601432708557695 592:0.02631579 677:0.02631579 766:0.02631579 1233:0.02631579 1526:0.02631579 #
-215.68208087559841601432708557695 130:0.06666667 265:0.06666667 #
-215.68208087559841601432708557695 13:0.015625 103:0.015625 152:0.015625 255:0.015625 492:0.015625 812:0.015625 1047:0.015625 1985:0.015625 #
91.897782986042614083999069407582 257:0.018518519 710:0.018518519 765:0.018518519 851:0.018518519 1177:0.018518519 2289:0.018518519 2769:0.018518519 #
142.12619149137765361956553533673 85:0.017857144 454:0.017857144 472:0.017857144 523:0.017857144 979:0.017857144 1410:0.017857144 1645:0.017857144 2419:0.017857144 2510:0.017857144 #
-215.68208087559841601432708557695 43:0.021276595 83:0.021276595 205:0.021276595 480:0.021276595 955:0.021276595 1469:0.021276595 1680:0.021276595 #
-215.68208087559841601432708557695 152:0.02631579 472:0.02631579 981:0.02631579 1379:0.02631579 1922:0.02631579 #
-215.68208087559841601432708557695 14:0.027777778 612:0.027777778 751:0.027777778 760:0.027777778 1156:0.027777778 #
215.68208087559841601432708557695 157:0.1 1078:0.1 #
-215.68208087559841601432708557695 34:0.050000001 110:0.050000001 251:0.050000001 #
-215.68208087559841601432708557695 85:0.027777778 343:0.027777778 572:0.027777778 661:0.027777778 1062:0.027777778 1178:0.027777778 1931:0.027777778 #
-215.68208087559841601432708557695 114:0.0625 361:0.0625 #
-215.68208087559841601432708557695 114:0.0625 1937:0.0625 #
-215.68208087559841601432708557695 43:0.125 #
-215.68208087559841601432708557695 14:0.047619049 123:0.047619049 1706:0.047619049 #
-215.68208087559841601432708557695 14:0.041666668 948:0.041666668 1880:0.041666668 #
-215.68208087559841601432708557695 13:0.03773585 35:0.018867925 43:0.018867925 97:0.018867925 864:0.018867925 1478:0.018867925 1524:0.018867925 1923:0.018867925 #
-46.011107794905981904776126611978 45:0.016393442 98:0.016393442 257:0.016393442 357:0.016393442 446:0.016393442 565:0.016393442 689:0.016393442 1113:0.016393442 1819:0.016393442 #
215.68208087559841601432708557695 70:0.032258064 347:0.032258064 476:0.032258064 480:0.032258064 572:0.032258064 #
-50.615614610280864837932313093916 38:0.016949153 98:0.016949153 568:0.016949153 760:0.016949153 1002:0.016949153 1452:0.016949153 1724:0.016949153 1833:0.016949153 1925:0.016949153 #
-215.68208087559841601432708557695 641:0.1 1099:0.1 #
-122.73251006699777576613996643573 29:0.020408163 109:0.020408163 254:0.020408163 689:0.020408163 1229:0.020408163 1678:0.020408163 #
-215.68208087559841601432708557695 119:0.041666668 170:0.041666668 187:0.041666668 347:0.041666668 #
215.68208087559841601432708557695 38:0.022727273 192:0.022727273 630:0.022727273 839:0.022727273 999:0.022727273 1634:0.022727273 1812:0.022727273 2358:0.022727273 #
-62.56098893789315695812547346577 13:0.025 143:0.025 310:0.025 1633:0.025 1774:0.025 1879:0.025 #
-215.68208087559841601432708557695 288:0.06666667 723:0.06666667 #
-215.68208087559841601432708557695 47:0.021739131 126:0.021739131 257:0.043478262 291:0.021739131 1270:0.021739131 1812:0.021739131 #
-215.68208087559841601432708557695 19:0.125 257:0.0625 #
215.68208087559841601432708557695 73:0.033333335 120:0.033333335 530:0.033333335 2382:0.033333335 #
215.68208087559841601432708557695 120:0.010416667 556:0.010416667 655:0.010416667 680:0.010416667 1073:0.010416667 1093:0.010416667 1120:0.010416667 1143:0.010416667 1537:0.010416667 1574:0.010416667 1718:0.010416667 1872:0.010416667 1881:0.010416667 #
102.10966843331671327632648171857 172:0.03125 196:0.03125 667:0.03125 2690:0.03125 2719:0.03125 #
-215.68208087559841601432708557695 826:0.25 #
-215.68208087559841601432708557695 98:0.022727273 120:0.045454547 281:0.022727273 532:0.022727273 1398:0.022727273 #
211.63451123915140783537935931236 38:0.027027028 459:0.027027028 1567:0.027027028 2154:0.027027028 2421:0.027027028 #
59.133584618949477373917034128681 130:0.030303031 265:0.030303031 312:0.030303031 1307:0.030303031 2375:0.030303031 #
-215.68208087559841601432708557695 31:0.012987013 132:0.012987013 151:0.012987013 255:0.012987013 533:0.012987013 972:0.012987013 1152:0.012987013 1171:0.012987013 1664:0.012987013 1687:0.012987013 1763:0.012987013 #
-215.68208087559841601432708557695 449:0.047619049 979:0.047619049 1391:0.047619049 1672:0.047619049 #
215.68208087559841601432708557695 132:0.032258064 218:0.032258064 257:0.032258064 616:0.032258064 1697:0.032258064 2633:0.032258064 #
-149.31893768855923099181381985545 37:0.016129032 38:0.016129032 467:0.016129032 580:0.016129032 606:0.016129032 772:0.016129032 912:0.016129032 1032:0.016129032 1274:0.016129032 1492:0.016129032 #
-215.68208087559841601432708557695 105:0.014492754 136:0.014492754 257:0.014492754 924:0.014492754 941:0.014492754 993:0.014492754 1046:0.014492754 1528:0.014492754 1833:0.014492754 #
215.68208087559841601432708557695 281:0.029411765 472:0.029411765 957:0.029411765 2090:0.029411765 #
-186.99790470722055601981992367655 472:0.022222223 529:0.022222223 822:0.022222223 1618:0.022222223 1619:0.022222223 1620:0.022222223 #
-215.68208087559841601432708557695 34:0.023809524 172:0.023809524 406:0.023809524 430:0.023809524 472:0.047619049 1112:0.023809524 1571:0.047619049 #
-215.68208087559841601432708557695 472:0.027777778 763:0.027777778 905:0.027777778 1164:0.027777778 1424:0.027777778 1636:0.027777778 #
-152.48488288897644338248937856406 391:0.039999999 480:0.039999999 537:0.039999999 1337:0.039999999 #
-82.531657127636748327859095297754 32:0.034482758 85:0.068965517 157:0.034482758 230:0.034482758 1723:0.034482758 #
-215.68208087559841601432708557695 252:0.014285714 256:0.014285714 382:0.014285714 394:0.014285714 595:0.014285714 788:0.014285714 839:0.014285714 1664:0.014285714 1665:0.014285714 1666:0.014285714 #
-90.176800652255792556388769298792 157:0.055555556 631:0.055555556 760:0.055555556 #
182.78350679845885906615876592696 472:0.029411765 1078:0.029411765 1189:0.029411765 1482:0.029411765 1636:0.029411765 2162:0.029411765 #
-215.68208087559841601432708557695 1189:0.090909094 1891:0.090909094 #
215.68208087559841601432708557695 1208:0.032258064 2455:0.032258064 2561:0.032258064 #
-215.68208087559841601432708557695 266:0.027027028 472:0.027027028 519:0.027027028 1267:0.027027028 1692:0.027027028 1693:0.027027028 #
-215.68208087559841601432708557695 199:0.035714287 572:0.035714287 615:0.035714287 616:0.035714287 617:0.035714287 #
-215.68208087559841601432708557695 140:0.022222223 264:0.022222223 472:0.022222223 603:0.022222223 604:0.022222223 #
-40.071466046448456665984849678352 38:0.11111111 1014:0.11111111 #
-215.68208087559841601432708557695 115:0.090909094 485:0.090909094 #
-215.68208087559841601432708557695 492:0.055555556 647:0.055555556 1562:0.055555556 #
154.41156646914342331911029759794 141:0.03125 477:0.03125 908:0.03125 949:0.03125 2781:0.03125 #
-215.68208087559841601432708557695 29:0.03846154 255:0.03846154 256:0.03846154 257:0.03846154 #
-215.68208087559841601432708557695 166:0.03125 371:0.03125 606:0.03125 776:0.03125 1410:0.0625 1831:0.03125 #
-215.68208087559841601432708557695 13:0.011494253 68:0.011494253 104:0.011494253 132:0.011494253 334:0.011494253 441:0.011494253 472:0.011494253 534:0.011494253 864:0.011494253 1150:0.011494253 1658:0.011494253 1799:0.011494253 #
-215.68208087559841601432708557695 29:0.047619049 257:0.047619049 779:0.047619049 1831:0.047619049 #
-215.68208087559841601432708557695 13:0.028571429 242:0.028571429 472:0.028571429 647:0.028571429 654:0.028571429 720:0.028571429 #
-96.485800111129634615281247533858 579:0.05882353 630:0.05882353 719:0.05882353 #
-215.68208087559841601432708557695 22:0.016666668 66:0.016666668 120:0.016666668 296:0.016666668 1163:0.016666668 1306:0.016666668 1852:0.016666668 2000:0.016666668 #
-215.68208087559841601432708557695 404:0.030303031 1011:0.030303031 1599:0.030303031 1961:0.030303031 #
-215.68208087559841601432708557695 204:0.027027028 675:0.027027028 914:0.027027028 1293:0.027027028 1732:0.027027028 #
-215.68208087559841601432708557695 1097:0.06666667 1469:0.06666667 1636:0.06666667 #
139.48799008701064394699642434716 211:0.023255814 223:0.023255814 417:0.023255814 426:0.023255814 741:0.023255814 826:0.023255814 2188:0.023255814 #
59.257666164580804490924492711201 139:0.027777778 257:0.027777778 472:0.027777778 1483:0.027777778 2364:0.027777778 #
-69.342607786490958687863894738257 9:0.018518519 48:0.018518519 827:0.018518519 1007:0.018518519 1450:0.018518519 1901:0.018518519 #
-215.68208087559841601432708557695 257:0.023809524 1161:0.023809524 1393:0.023809524 1481:0.023809524 1506:0.023809524 #
-215.68208087559841601432708557695 257:0.039999999 548:0.039999999 549:0.039999999 1380:0.039999999 #
-114.68150525450985810493875760585 80:0.014285714 212:0.014285714 254:0.014285714 280:0.014285714 302:0.014285714 303:0.014285714 304:0.014285714 305:0.014285714 306:0.014285714 #
-215.68208087559841601432708557695 257:0.045454547 674:0.045454547 729:0.045454547 #
-87.523880408227853422431508079171 255:0.009708738 388:0.009708738 492:0.009708738 765:0.009708738 828:0.009708738 907:0.009708738 1050:0.009708738 1051:0.009708738 1098:0.009708738 1123:0.009708738 1136:0.009708738 1316:0.009708738 1448:0.009708738 1508:0.009708738 1621:0.009708738 1817:0.009708738 #
-53.833897851142232582333235768601 103:0.028571429 472:0.028571429 887:0.028571429 1013:0.028571429 1769:0.028571429 #
215.68208087559841601432708557695 66:0.16666667 #
-215.68208087559841601432708557695 38:0.025641026 347:0.025641026 746:0.025641026 1229:0.025641026 1860:0.025641026 #
215.68208087559841601432708557695 8:0.039999999 130:0.039999999 227:0.039999999 228:0.039999999 #
215.68208087559841601432708557695 98:0.052631579 132:0.052631579 310:0.052631579 1112:0.052631579 #
-39.618582051938084021003305679187 125:0.015873017 371:0.015873017 449:0.015873017 542:0.015873017 579:0.015873017 619:0.015873017 630:0.015873017 913:0.015873017 1248:0.015873017 1471:0.015873017 1714:0.015873017 #
215.68208087559841601432708557695 120:0.047619049 172:0.047619049 199:0.095238097 #
215.68208087559841601432708557695 112:0.052631579 314:0.052631579 414:0.052631579 #
215.68208087559841601432708557695 517:0.083333336 1479:0.083333336 #
215.68208087559841601432708557695 465:0.2 #
215.68208087559841601432708557695 187:0.050000001 294:0.050000001 414:0.050000001 1389:0.050000001 #
215.68208087559841601432708557695 98:0.047619049 112:0.047619049 310:0.047619049 921:0.047619049 #
-24.424842412619202747237068251707 38:0.016666668 45:0.016666668 251:0.016666668 322:0.016666668 404:0.016666668 608:0.016666668 642:0.016666668 713:0.016666668 714:0.016666668 #
215.68208087559841601432708557695 98:0.045454547 103:0.045454547 720:0.045454547 999:0.045454547 #
215.68208087559841601432708557695 291:0.0625 552:0.0625 577:0.0625 #
215.68208087559841601432708557695 537:0.0625 584:0.0625 896:0.0625 #
215.68208087559841601432708557695 414:0.07692308 556:0.07692308 #
215.68208087559841601432708557695 391:0.06666667 414:0.06666667 652:0.06666667 #
215.68208087559841601432708557695 98:0.016393442 120:0.016393442 126:0.016393442 349:0.016393442 379:0.016393442 514:0.016393442 806:0.016393442 1846:0.016393442 1891:0.016393442 #
215.68208087559841601432708557695 50:0.028571429 347:0.028571429 704:0.028571429 1354:0.028571429 2398:0.028571429 #
215.68208087559841601432708557695 38:0.03125 172:0.03125 998:0.03125 1176:0.03125 2351:0.03125 #
215.68208087559841601432708557695 306:0.090909094 464:0.090909094 #
215.68208087559841601432708557695 37:0.023255814 160:0.023255814 176:0.023255814 471:0.023255814 608:0.023255814 647:0.023255814 687:0.023255814 #
215.68208087559841601432708557695 29:0.047619049 281:0.047619049 414:0.047619049 #
215.68208087559841601432708557695 38:0.1 1571:0.1 #
215.68208087559841601432708557695 38:0.1 125:0.1 #
-215.68208087559841601432708557695 98:0.015873017 130:0.015873017 477:0.015873017 610:0.015873017 651:0.015873017 777:0.015873017 1572:0.015873017 1896:0.015873017 #
-49.254547413018961776742798974738 38:0.02631579 64:0.02631579 149:0.02631579 440:0.02631579 1097:0.02631579 2000:0.02631579 #
215.68208087559841601432708557695 29:0.043478262 148:0.043478262 1364:0.043478262 2171:0.043478262 #
215.68208087559841601432708557695 260:0.033333335 615:0.033333335 2262:0.033333335 2263:0.033333335 #
-13.007982786569925792719004675746 123:0.017241379 172:0.017241379 186:0.017241379 399:0.017241379 683:0.017241379 1163:0.017241379 1285:0.017241379 1682:0.017241379 #
215.68208087559841601432708557695 157:0.125 247:0.0625 #
215.68208087559841601432708557695 157:0.035714287 449:0.035714287 556:0.035714287 1714:0.035714287 1857:0.035714287 #
215.68208087559841601432708557695 155:0.03125 157:0.03125 550:0.03125 1891:0.03125 2194:0.03125 #
215.68208087559841601432708557695 155:0.047619049 157:0.047619049 281:0.047619049 #
215.68208087559841601432708557695 38:0.2 #
215.68208087559841601432708557695 29:0.030303031 214:0.030303031 432:0.030303031 433:0.030303031 1328:0.030303031 #
215.68208087559841601432708557695 38:0.029411765 172:0.029411765 432:0.029411765 809:0.029411765 970:0.029411765 #
215.68208087559841601432708557695 50:0.043478262 372:0.043478262 1111:0.043478262 #
202.71569140392929853078385349363 149:0.25 #
215.68208087559841601432708557695 105:0.027777778 310:0.027777778 475:0.027777778 925:0.027777778 2038:0.027777778 #
215.68208087559841601432708557695 347:0.1 710:0.1 #
215.68208087559841601432708557695 38:0.041666668 115:0.020833334 157:0.020833334 414:0.0625 577:0.020833334 580:0.020833334 #
215.68208087559841601432708557695 66:0.025641026 172:0.025641026 1178:0.025641026 1179:0.025641026 1410:0.025641026 1424:0.025641026 2128:0.025641026 #
215.68208087559841601432708557695 29:0.043478262 172:0.043478262 338:0.043478262 2447:0.043478262 #
-215.68208087559841601432708557695 49:0.030303031 66:0.030303031 130:0.030303031 311:0.030303031 720:0.060606062 #
35.768709398721370007478981278837 45:0.035714287 83:0.035714287 172:0.035714287 414:0.035714287 1533:0.035714287 #
215.68208087559841601432708557695 126:0.025 148:0.025 227:0.025 228:0.025 347:0.025 887:0.025 2068:0.025 #
215.68208087559841601432708557695 115:0.039999999 517:0.039999999 591:0.039999999 1714:0.039999999 #
215.68208087559841601432708557695 38:0.01923077 157:0.01923077 172:0.01923077 260:0.01923077 310:0.01923077 313:0.01923077 940:0.01923077 1120:0.01923077 #
215.68208087559841601432708557695 380:0.022222223 414:0.022222223 806:0.022222223 1110:0.022222223 1267:0.022222223 1307:0.022222223 1503:0.022222223 1868:0.022222223 #
215.68208087559841601432708557695 19:0.030303031 178:0.030303031 204:0.030303031 347:0.030303031 654:0.030303031 #
67.018113246599270382830582093447 69:0.015384615 201:0.015384615 335:0.030769231 806:0.015384615 931:0.015384615 1198:0.015384615 2167:0.015384615 2693:0.015384615 #
215.68208087559841601432708557695 197:0.055555556 371:0.055555556 464:0.055555556 467:0.055555556 #
215.68208087559841601432708557695 148:0.037037037 615:0.037037037 920:0.037037037 1142:0.037037037 #
215.68208087559841601432708557695 98:0.02631579 645:0.02631579 781:0.02631579 1633:0.02631579 2527:0.02631579 2533:0.02631579 #
215.68208087559841601432708557695 29:0.015384615 208:0.015384615 414:0.015384615 675:0.015384615 848:0.015384615 2142:0.015384615 2259:0.015384615 2440:0.015384615 2441:0.015384615 #
-81.731814693660936654850956983864 314:0.018867925 412:0.018867925 605:0.018867925 896:0.018867925 1060:0.018867925 1396:0.018867925 1411:0.018867925 #
96.503750692424446810946392361075 157:0.039999999 384:0.039999999 608:0.039999999 1629:0.039999999 #
170.81259446352956388182064983994 347:0.0625 617:0.0625 2759:0.0625 #
215.68208087559841601432708557695 98:0.01010101 114:0.01010101 154:0.01010101 572:0.01010101 800:0.01010101 1184:0.01010101 1297:0.01010101 1727:0.01010101 1774:0.01010101 1907:0.01010101 2597:0.01010101 2598:0.01010101 2599:0.01010101 2600:0.01010101 #
-215.68208087559841601432708557695 464:0.18181819 #
-123.27076943798626018633513012901 148:0.25 #
-215.68208087559841601432708557695 1354:0.2 #
-215.68208087559841601432708557695 414:0.090909094 1301:0.090909094 #
155.46906459511461662259534932673 373:0.083333336 492:0.041666668 1292:0.041666668 2732:0.041666668 #
215.68208087559841601432708557695 492:0.045454547 525:0.022727273 641:0.022727273 675:0.022727273 967:0.022727273 1457:0.022727273 1694:0.022727273 #
54.100912926049211648660275386646 532:0.027027028 585:0.027027028 848:0.027027028 1047:0.027027028 #
215.68208087559841601432708557695 118:0.055555556 492:0.055555556 807:0.055555556 #
135.6731431982650519785238429904 130:0.052631579 492:0.052631579 2577:0.052631579 #
-215.68208087559841601432708557695 556:0.125 #
-215.68208087559841601432708557695 112:0.050000001 350:0.050000001 425:0.050000001 976:0.050000001 #
-215.68208087559841601432708557695 211:0.0625 386:0.0625 #
204.91211808225779122949461452663 98:0.050000001 781:0.050000001 2553:0.050000001 #
215.68208087559841601432708557695 29:0.03846154 98:0.03846154 542:0.07692308 859:0.03846154 #
-215.68208087559841601432708557695 98:0.06666667 136:0.033333335 457:0.033333335 577:0.033333335 999:0.033333335 1705:0.033333335 #
215.68208087559841601432708557695 126:0.024390243 373:0.024390243 414:0.024390243 807:0.024390243 1581:0.024390243 1658:0.024390243 2605:0.024390243 #
215.68208087559841601432708557695 826:0.043478262 864:0.043478262 1041:0.043478262 2740:0.043478262 #
215.68208087559841601432708557695 183:0.025641026 414:0.025641026 467:0.025641026 905:0.025641026 1793:0.025641026 2285:0.025641026 #
-215.68208087559841601432708557695 29:0.03125 347:0.03125 509:0.03125 1301:0.0625 #
-215.68208087559841601432708557695 29:0.020833334 45:0.020833334 59:0.020833334 90:0.020833334 537:0.020833334 1907:0.020833334 1954:0.020833334 #
215.68208087559841601432708557695 98:0.055555556 126:0.055555556 741:0.055555556 #
215.68208087559841601432708557695 98:0.041666668 103:0.041666668 125:0.041666668 2590:0.041666668 #
63.786725184811459143929823767394 98:0.047619049 126:0.047619049 813:0.047619049 1512:0.047619049 #
-215.68208087559841601432708557695 29:0.013513514 95:0.013513514 157:0.013513514 559:0.013513514 632:0.013513514 709:0.013513514 720:0.013513514 735:0.013513514 941:0.013513514 1052:0.013513514 1117:0.013513514 1863:0.013513514 1949:0.013513514 #
215.68208087559841601432708557695 8:0.034482758 98:0.034482758 126:0.034482758 332:0.034482758 448:0.034482758 #
-215.68208087559841601432708557695 986:0.07692308 1714:0.07692308 #
215.68208087559841601432708557695 434:0.0625 1599:0.0625 1988:0.0625 #
215.68208087559841601432708557695 215:0.090909094 266:0.090909094 #
-215.68208087559841601432708557695 8:0.050000001 710:0.050000001 1307:0.050000001 1351:0.050000001 #
-215.68208087559841601432708557695 186:0.041666668 1234:0.041666668 1988:0.041666668 #
-215.68208087559841601432708557695 8:0.032258064 132:0.032258064 172:0.032258064 451:0.032258064 970:0.032258064 #
-215.68208087559841601432708557695 73:0.027027028 151:0.027027028 172:0.027027028 1001:0.027027028 1011:0.027027028 #
46.486448147758309801247378345579 119:0.047619049 284:0.047619049 385:0.047619049 #
43.529963235817341171696170931682 251:0.090909094 844:0.090909094 #
215.68208087559841601432708557695 38:0.043478262 307:0.043478262 464:0.043478262 1503:0.043478262 #
-215.68208087559841601432708557695 8:0.043478262 38:0.043478262 53:0.043478262 1503:0.043478262 #
-215.68208087559841601432708557695 18:0.050000001 38:0.050000001 157:0.050000001 #
215.68208087559841601432708557695 28:0.022727273 38:0.022727273 204:0.022727273 548:0.022727273 572:0.022727273 731:0.022727273 849:0.022727273 1087:0.022727273 #
-215.68208087559841601432708557695 38:0.035714287 191:0.035714287 1756:0.035714287 1993:0.035714287 #
-87.194880636538940166246902663261 130:0.037037037 188:0.037037037 1211:0.037037037 1875:0.037037037 #
165.34841398853163241255970206112 98:0.06666667 414:0.06666667 1882:0.06666667 #
215.68208087559841601432708557695 257:0.029411765 261:0.029411765 314:0.029411765 819:0.029411765 2502:0.029411765 #
-215.68208087559841601432708557695 806:0.090909094 819:0.090909094 #
215.68208087559841601432708557695 95:0.018181818 103:0.018181818 298:0.018181818 449:0.018181818 678:0.018181818 687:0.018181818 895:0.018181818 1244:0.018181818 1383:0.018181818 1693:0.018181818 #
215.68208087559841601432708557695 114:0.047619049 542:0.047619049 772:0.047619049 #
-54.289422962226922209083568304777 10:0.01923077 128:0.01923077 289:0.01923077 347:0.01923077 441:0.01923077 1387:0.01923077 1872:0.01923077 #
-215.68208087559841601432708557695 313:0.125 #
-215.68208087559841601432708557695 22:0.022727273 48:0.022727273 809:0.022727273 1251:0.022727273 1303:0.022727273 #
-215.68208087559841601432708557695 215:0.030303031 216:0.030303031 704:0.030303031 736:0.030303031 #
215.68208087559841601432708557695 98:0.041666668 120:0.041666668 126:0.041666668 1577:0.041666668 #
161.01174322671781169447058346123 306:0.055555556 1397:0.055555556 2242:0.055555556 #
215.68208087559841601432708557695 67:0.033333335 467:0.033333335 1244:0.033333335 1354:0.033333335 #
-215.68208087559841601432708557695 286:0.015384615 347:0.015384615 414:0.015384615 444:0.015384615 760:0.015384615 1518:0.015384615 1824:0.015384615 1883:0.015384615 #
-215.68208087559841601432708557695 79:0.025 324:0.025 467:0.025 810:0.025 1295:0.025 1697:0.025 #
-168.86578619843513138221169356257 676:0.125 #
-215.68208087559841601432708557695 38:0.02 155:0.02 204:0.02 476:0.02 904:0.02 914:0.02 #
-29.752479423858357421295295353048 150:0.027027028 151:0.027027028 152:0.027027028 153:0.027027028 154:0.027027028 #
-69.286059631235659139747440349311 475:0.07692308 1607:0.07692308 #
-215.68208087559841601432708557695 414:0.045454547 652:0.045454547 1654:0.045454547 #
-11.799160312744358947156797512434 198:0.055555556 414:0.055555556 834:0.055555556 1383:0.055555556 #
-215.68208087559841601432708557695 55:0.052631579 414:0.052631579 743:0.052631579 #
-215.68208087559841601432708557695 38:0.0125 98:0.0125 157:0.0125 172:0.0125 905:0.0125 974:0.0125 1027:0.0125 1278:0.0125 1288:0.0125 1458:0.0125 1570:0.0125 1659:0.0125 #
-215.68208087559841601432708557695 178:0.083333336 1774:0.083333336 #
-108.39061447239188851199287455529 38:0.023255814 167:0.023255814 349:0.023255814 732:0.023255814 917:0.023255814 1216:0.023255814 #
86.628846612112695879659440834075 315:0.032258064 1034:0.032258064 2389:0.032258064 #
-215.68208087559841601432708557695 66:0.043478262 67:0.043478262 472:0.043478262 #
-215.68208087559841601432708557695 35:0.03125 187:0.03125 749:0.03125 808:0.03125 1030:0.03125 1694:0.03125 #
-215.68208087559841601432708557695 113:0.01923077 274:0.01923077 513:0.01923077 1052:0.01923077 1207:0.01923077 1211:0.01923077 1591:0.01923077 #
-215.68208087559841601432708557695 206:0.021739131 461:0.021739131 462:0.021739131 463:0.021739131 464:0.021739131 465:0.021739131 466:0.021739131 467:0.021739131 #
-215.68208087559841601432708557695 59:0.025641026 150:0.025641026 314:0.025641026 969:0.025641026 1110:0.025641026 #
215.68208087559841601432708557695 34:0.011235955 154:0.011235955 377:0.011235955 690:0.011235955 1078:0.011235955 1386:0.011235955 1529:0.011235955 2023:0.011235955 2024:0.011235955 2371:0.011235955 2435:0.011235955 #
-215.68208087559841601432708557695 127:0.037037037 1533:0.037037037 1539:0.037037037 1595:0.037037037 #
-215.68208087559841601432708557695 1483:0.071428575 1964:0.071428575 #
-215.68208087559841601432708557695 98:0.03125 131:0.0625 1354:0.0625 #
-215.68208087559841601432708557695 98:0.029411765 453:0.029411765 821:0.029411765 1177:0.029411765 1187:0.029411765 #
215.68208087559841601432708557695 38:0.027027028 87:0.013513514 172:0.013513514 298:0.013513514 414:0.027027028 687:0.081081077 1734:0.013513514 1852:0.013513514 2139:0.013513514 #
-215.68208087559841601432708557695 38:0.028571429 148:0.028571429 154:0.028571429 448:0.028571429 1852:0.028571429 #
-215.68208087559841601432708557695 29:0.039999999 44:0.039999999 377:0.039999999 465:0.039999999 #
180.88722913123714874927827622741 257:0.027027028 341:0.027027028 349:0.027027028 864:0.027027028 1275:0.027027028 1354:0.027027028 2355:0.027027028 #
65.800464480564698988018790259957 464:0.023255814 605:0.023255814 1422:0.023255814 1614:0.023255814 1825:0.023255814 2688:0.023255814 #
-215.68208087559841601432708557695 66:0.071428575 1246:0.071428575 #
-215.68208087559841601432708557695 136:0.028571429 287:0.057142857 1325:0.028571429 1571:0.057142857 #
-215.68208087559841601432708557695 66:0.03846154 245:0.03846154 312:0.03846154 947:0.03846154 #
-215.68208087559841601432708557695 93:0.020408163 278:0.040816326 294:0.020408163 577:0.020408163 634:0.020408163 1064:0.020408163 1065:0.020408163 #
-215.68208087559841601432708557695 227:0.047619049 228:0.047619049 1374:0.047619049 #
-176.31286713669848609242762904614 326:0.07692308 545:0.07692308 #
-215.68208087559841601432708557695 27:0.021739131 38:0.021739131 155:0.021739131 1420:0.021739131 1561:0.021739131 1629:0.021739131 #
215.68208087559841601432708557695 98:0.012658228 367:0.012658228 407:0.012658228 562:0.012658228 1218:0.012658228 1351:0.012658228 1436:0.012658228 1851:0.012658228 1979:0.012658228 2134:0.012658228 2135:0.012658228 #
-215.68208087559841601432708557695 45:0.025 64:0.025 83:0.025 414:0.025 1138:0.025 1552:0.025 #
-215.68208087559841601432708557695 45:0.043478262 1034:0.043478262 1631:0.043478262 #
-215.68208087559841601432708557695 45:0.041666668 882:0.020833334 957:0.020833334 1715:0.020833334 1786:0.020833334 1883:0.020833334 #
139.44597569287438432183989789337 17:0.041666668 98:0.041666668 257:0.041666668 991:0.041666668 #
-215.68208087559841601432708557695 13:0.030303031 186:0.030303031 344:0.030303031 999:0.030303031 1531:0.030303031 #
-215.68208087559841601432708557695 45:0.02631579 440:0.02631579 720:0.02631579 776:0.02631579 806:0.02631579 1322:0.02631579 1634:0.02631579 #
215.68208087559841601432708557695 59:0.012195121 278:0.012195121 556:0.012195121 1221:0.012195121 1386:0.012195121 1569:0.012195121 1645:0.012195121 2018:0.012195121 2199:0.012195121 2200:0.012195121 #
-215.68208087559841601432708557695 85:0.02631579 198:0.052631579 349:0.02631579 414:0.02631579 866:0.02631579 931:0.02631579 987:0.02631579 #
-215.68208087559841601432708557695 197:0.047619049 956:0.047619049 1573:0.047619049 1912:0.047619049 #
-158.63747903293449326156405732036 1601:0.125 1750:0.125 #
-215.68208087559841601432708557695 29:0.034482758 58:0.034482758 234:0.034482758 451:0.034482758 1835:0.034482758 #
-215.68208087559841601432708557695 149:0.045454547 532:0.045454547 1586:0.045454547 #
-215.68208087559841601432708557695 860:0.027027028 1150:0.027027028 1420:0.027027028 1844:0.027027028 #
-215.68208087559841601432708557695 172:0.03846154 187:0.03846154 921:0.03846154 987:0.03846154 1727:0.03846154 #
-2.1645631624455314856447785132332 157:0.047619049 227:0.047619049 228:0.047619049 229:0.047619049 #
-215.68208087559841601432708557695 316:0.02631579 472:0.02631579 740:0.02631579 1185:0.02631579 1406:0.02631579 1482:0.02631579 1764:0.02631579 #
-215.68208087559841601432708557695 197:0.039999999 347:0.039999999 542:0.039999999 645:0.039999999 #
-215.68208087559841601432708557695 149:0.021739131 172:0.021739131 873:0.021739131 1146:0.021739131 1358:0.021739131 1359:0.021739131 1881:0.021739131 #
-50.863252589119369417858251836151 38:0.028571429 157:0.028571429 895:0.028571429 1479:0.028571429 1936:0.028571429 #
-215.68208087559841601432708557695 414:0.035714287 1065:0.035714287 1345:0.035714287 1850:0.035714287 #
-215.68208087559841601432708557695 125:0.023809524 177:0.023809524 364:0.023809524 414:0.023809524 577:0.023809524 1129:0.023809524 1271:0.023809524 #
-215.68208087559841601432708557695 266:0.25 #
-215.68208087559841601432708557695 914:0.043478262 1091:0.043478262 #
-41.189557545954933459597668843344 414:0.1 823:0.1 #
-215.68208087559841601432708557695 257:0.033333335 284:0.033333335 414:0.033333335 527:0.033333335 1653:0.033333335 #
-215.68208087559841601432708557695 98:0.045454547 278:0.045454547 414:0.045454547 1208:0.045454547 #
215.68208087559841601432708557695 38:0.1 350:0.1 #
215.68208087559841601432708557695 132:0.039215688 223:0.019607844 424:0.019607844 634:0.019607844 676:0.019607844 729:0.019607844 1181:0.019607844 #
215.68208087559841601432708557695 377:0.125 #
-177.12073790146945384549326263368 1029:0.019607844 1184:0.019607844 1332:0.019607844 1375:0.019607844 1473:0.019607844 1503:0.019607844 1640:0.019607844 #
214.09556568530248910064983647317 31:0.043478262 386:0.043478262 552:0.043478262 976:0.043478262 #
-215.68208087559841601432708557695 199:0.047619049 467:0.047619049 537:0.047619049 1312:0.047619049 #
-215.68208087559841601432708557695 2:0.029411765 98:0.029411765 130:0.029411765 741:0.029411765 1150:0.029411765 #
215.68208087559841601432708557695 98:0.0625 462:0.0625 1280:0.0625 #
-215.68208087559841601432708557695 13:0.010752688 274:0.010752688 314:0.010752688 349:0.010752688 390:0.010752688 443:0.010752688 513:0.010752688 545:0.010752688 607:0.010752688 661:0.010752688 737:0.010752688 1255:0.010752688 1507:0.010752688 1508:0.010752688 #
215.68208087559841601432708557695 53:0.032258064 58:0.032258064 98:0.032258064 414:0.032258064 819:0.032258064 1878:0.032258064 #
215.68208087559841601432708557695 154:0.029411765 198:0.029411765 208:0.029411765 414:0.029411765 766:0.029411765 1177:0.029411765 #
142.02769023695068995039036963135 98:0.052631579 925:0.052631579 2354:0.052631579 #
-202.22946350471269738591217901558 267:0.047619049 391:0.047619049 568:0.047619049 1882:0.047619049 #
215.68208087559841601432708557695 216:0.11111111 #
215.68208087559841601432708557695 38:0.06666667 83:0.033333335 242:0.033333335 296:0.033333335 1229:0.033333335 #
215.68208087559841601432708557695 38:0.045454547 93:0.045454547 242:0.045454547 477:0.045454547 #
215.68208087559841601432708557695 172:0.03846154 218:0.03846154 256:0.03846154 999:0.03846154 1312:0.03846154 #
215.68208087559841601432708557695 198:0.03846154 249:0.03846154 509:0.03846154 2726:0.03846154 #
215.68208087559841601432708557695 8:0.03125 198:0.03125 648:0.03125 1684:0.03125 2725:0.03125 #
114.86578618000541496257937978953 136:0.11111111 405:0.11111111 #
215.68208087559841601432708557695 38:0.057142857 255:0.028571429 1301:0.028571429 2187:0.028571429 #
215.68208087559841601432708557695 38:0.039999999 312:0.039999999 391:0.039999999 1153:0.039999999 #
53.900556891908820489334175363183 38:0.07692308 2461:0.07692308 #
215.68208087559841601432708557695 136:0.06666667 157:0.13333334 #
215.68208087559841601432708557695 218:0.041666668 311:0.041666668 914:0.041666668 #
215.68208087559841601432708557695 31:0.11111111 98:0.11111111 #
215.68208087559841601432708557695 85:0.041666668 98:0.041666668 123:0.041666668 426:0.041666668 2010:0.041666668 #
-215.68208087559841601432708557695 98:0.035714287 414:0.035714287 448:0.035714287 449:0.035714287 537:0.035714287 #
182.43237407316863141204521525651 399:0.028571429 760:0.028571429 2205:0.028571429 2658:0.028571429 2808:0.028571429 #
215.68208087559841601432708557695 38:0.11111111 475:0.055555556 #
215.68208087559841601432708557695 8:0.05882353 38:0.05882353 647:0.05882353 #
215.68208087559841601432708557695 347:0.039999999 895:0.039999999 1059:0.039999999 1208:0.039999999 #
215.68208087559841601432708557695 537:0.030303031 545:0.030303031 726:0.030303031 1802:0.030303031 #
215.68208087559841601432708557695 537:0.083333336 1400:0.083333336 #
215.68208087559841601432708557695 130:0.06666667 265:0.06666667 #
215.68208087559841601432708557695 155:0.032258064 157:0.032258064 347:0.032258064 826:0.032258064 2269:0.032258064 #
45.104705122590985411079600453377 8:0.05882353 67:0.05882353 #
215.68208087559841601432708557695 13:0.028571429 14:0.028571429 197:0.028571429 294:0.028571429 1078:0.028571429 2236:0.028571429 #
111.50304175669904793721798341721 91:0.052631579 548:0.052631579 729:0.052631579 #
215.68208087559841601432708557695 37:0.035714287 191:0.035714287 1215:0.035714287 2440:0.035714287 #
215.68208087559841601432708557695 37:0.033333335 414:0.033333335 1593:0.033333335 1750:0.033333335 2205:0.033333335 #
215.68208087559841601432708557695 37:0.027777778 98:0.027777778 464:0.027777778 548:0.027777778 1777:0.027777778 2033:0.027777778 #
215.68208087559841601432708557695 37:0.02631579 98:0.02631579 183:0.02631579 267:0.02631579 310:0.02631579 796:0.02631579 1087:0.02631579 #
215.68208087559841601432708557695 157:0.11111111 2796:0.055555556 #
215.68208087559841601432708557695 157:0.06666667 858:0.06666667 859:0.06666667 #
-113.47820646263477328830049373209 38:0.045454547 740:0.045454547 859:0.045454547 1214:0.045454547 #
215.68208087559841601432708557695 836:0.052631579 983:0.052631579 1912:0.052631579 #
-215.68208087559841601432708557695 278:0.1 1634:0.1 #
215.68208087559841601432708557695 42:0.047619049 313:0.047619049 1750:0.047619049 #
215.68208087559841601432708557695 126:0.014285714 843:0.014285714 902:0.014285714 1047:0.014285714 1152:0.014285714 1313:0.014285714 1590:0.014285714 2004:0.014285714 #
215.68208087559841601432708557695 98:0.033333335 131:0.033333335 532:0.033333335 655:0.033333335 #
152.32287352723088247330451849848 451:0.11111111 #
215.68208087559841601432708557695 404:0.090909094 #
215.68208087559841601432708557695 111:0.1 1634:0.1 #
215.68208087559841601432708557695 323:0.0625 464:0.0625 1634:0.0625 #
215.68208087559841601432708557695 14:0.03846154 278:0.07692308 1093:0.03846154 #
215.68208087559841601432708557695 242:0.030303031 310:0.060606062 313:0.030303031 585:0.030303031 2335:0.030303031 #
215.68208087559841601432708557695 68:0.045454547 197:0.045454547 537:0.045454547 #
132.88176910354198412278492469341 313:0.047619049 1143:0.047619049 1562:0.047619049 #
215.68208087559841601432708557695 38:0.029411765 464:0.029411765 552:0.029411765 1171:0.029411765 1634:0.029411765 2587:0.029411765 #
215.68208087559841601432708557695 313:0.02631579 464:0.02631579 788:0.02631579 1586:0.02631579 2041:0.02631579 #
158.1319754883276118562207557261 386:0.047619049 1218:0.047619049 1358:0.047619049 #
147.44371920909600248705828562379 48:0.022727273 148:0.022727273 160:0.022727273 267:0.022727273 976:0.022727273 1748:0.022727273 2811:0.022727273 #
215.68208087559841601432708557695 157:0.03846154 720:0.03846154 970:0.03846154 1234:0.03846154 #
215.68208087559841601432708557695 157:0.050000001 266:0.050000001 882:0.050000001 1694:0.1 #
215.68208087559841601432708557695 719:0.071428575 1363:0.071428575 #
215.68208087559841601432708557695 85:0.028571429 606:0.028571429 719:0.028571429 987:0.028571429 1057:0.028571429 1091:0.028571429 #
215.68208087559841601432708557695 16:0.015873017 55:0.015873017 183:0.015873017 313:0.015873017 470:0.015873017 472:0.015873017 480:0.015873017 1399:0.015873017 #
215.68208087559841601432708557695 384:0.028571429 407:0.028571429 740:0.028571429 1731:0.028571429 2274:0.028571429 #
194.64537099001680076071352232248 525:0.083333336 1846:0.083333336 #
215.68208087559841601432708557695 66:0.034482758 210:0.034482758 414:0.034482758 986:0.034482758 1166:0.034482758 #
215.68208087559841601432708557695 127:0.010309278 197:0.010309278 328:0.010309278 414:0.06185567 682:0.010309278 735:0.010309278 873:0.010309278 1027:0.010309278 1559:0.010309278 #
215.68208087559841601432708557695 222:0.021739131 781:0.021739131 940:0.021739131 1028:0.021739131 2404:0.021739131 2703:0.021739131 #
215.68208087559841601432708557695 132:0.032258064 172:0.032258064 414:0.032258064 1273:0.032258064 1354:0.032258064 1624:0.032258064 #
176.98101057892341714250505901873 98:0.05882353 806:0.05882353 884:0.05882353 #
-105.67026928884280323472921736538 29:0.018518519 726:0.018518519 1052:0.018518519 1321:0.018518519 1391:0.018518519 1542:0.018518519 1716:0.018518519 #
215.68208087559841601432708557695 45:0.027777778 100:0.027777778 801:0.027777778 917:0.027777778 1163:0.027777778 2208:0.027777778 #
215.68208087559841601432708557695 209:0.050000001 846:0.050000001 2807:0.050000001 #
211.72319082404101209249347448349 12:0.010309278 28:0.010309278 38:0.010309278 136:0.010309278 146:0.010309278 300:0.010309278 385:0.010309278 472:0.010309278 1191:0.010309278 1439:0.010309278 2264:0.020618556 2289:0.010309278 2297:0.010309278 #
215.68208087559841601432708557695 148:0.06666667 834:0.06666667 869:0.06666667 #
215.68208087559841601432708557695 87:0.041666668 316:0.041666668 448:0.041666668 820:0.041666668 #
215.68208087559841601432708557695 29:0.05882353 181:0.05882353 834:0.05882353 #
197.9557098344193946104496717453 66:0.071428575 2768:0.071428575 #
215.68208087559841601432708557695 38:0.03125 299:0.03125 552:0.03125 1099:0.03125 2310:0.03125 #
215.68208087559841601432708557695 29:0.033333335 45:0.033333335 110:0.033333335 641:0.033333335 710:0.033333335 #
215.68208087559841601432708557695 106:0.034482758 238:0.034482758 641:0.034482758 2636:0.034482758 #
215.68208087559841601432708557695 35:0.033333335 55:0.033333335 641:0.033333335 756:0.033333335 #
-215.68208087559841601432708557695 38:0.033333335 134:0.033333335 173:0.033333335 751:0.033333335 788:0.033333335 #
215.68208087559841601432708557695 13:0.022727273 85:0.022727273 148:0.022727273 187:0.022727273 947:0.022727273 1188:0.022727273 1580:0.022727273 #
215.68208087559841601432708557695 844:0.050000001 872:0.050000001 1271:0.1 #
215.68208087559841601432708557695 66:0.032258064 257:0.032258064 287:0.032258064 385:0.032258064 525:0.032258064 #
215.68208087559841601432708557695 310:0.027027028 414:0.027027028 509:0.027027028 684:0.027027028 1263:0.027027028 1894:0.027027028 #
215.68208087559841601432708557695 13:0.020833334 332:0.020833334 510:0.020833334 532:0.020833334 581:0.020833334 624:0.020833334 740:0.020833334 1111:0.020833334 1389:0.020833334 #
215.68208087559841601432708557695 38:0.050000001 426:0.050000001 552:0.050000001 1030:0.050000001 #
14.702176613232243340689819888212 451:0.028571429 475:0.028571429 552:0.028571429 1489:0.028571429 2003:0.028571429 #
215.68208087559841601432708557695 66:0.02631579 98:0.02631579 120:0.02631579 373:0.02631579 492:0.02631579 1506:0.02631579 1891:0.02631579 #
215.68208087559841601432708557695 206:0.022222223 470:0.022222223 826:0.022222223 1419:0.022222223 2024:0.022222223 2025:0.022222223 #
215.68208087559841601432708557695 36:0.011235955 38:0.011235955 100:0.011235955 126:0.02247191 501:0.011235955 781:0.011235955 1156:0.011235955 1386:0.011235955 1623:0.011235955 2089:0.011235955 2764:0.011235955 #
215.68208087559841601432708557695 93:0.039999999 139:0.039999999 203:0.039999999 956:0.039999999 #
215.68208087559841601432708557695 8:0.028571429 37:0.028571429 187:0.028571429 230:0.028571429 572:0.028571429 1416:0.028571429 #
215.68208087559841601432708557695 130:0.037037037 556:0.037037037 1939:0.037037037 #
215.68208087559841601432708557695 127:0.07692308 130:0.07692308 #
215.68208087559841601432708557695 127:0.030303031 128:0.030303031 465:0.030303031 1030:0.030303031 2438:0.030303031 #
215.68208087559841601432708557695 291:0.035714287 504:0.035714287 510:0.035714287 800:0.035714287 #
215.68208087559841601432708557695 66:0.027027028 98:0.027027028 102:0.027027028 184:0.027027028 615:0.027027028 1562:0.027027028 #
215.68208087559841601432708557695 43:0.050000001 98:0.050000001 510:0.050000001 #
215.68208087559841601432708557695 66:0.050000001 348:0.050000001 2438:0.050000001 #
215.68208087559841601432708557695 66:0.055555556 1141:0.055555556 1538:0.055555556 #
215.68208087559841601432708557695 45:0.047619049 183:0.047619049 622:0.047619049 #
215.68208087559841601432708557695 45:0.027777778 125:0.027777778 146:0.027777778 149:0.027777778 205:0.027777778 2180:0.027777778 #
215.68208087559841601432708557695 45:0.024390243 131:0.024390243 242:0.024390243 424:0.024390243 714:0.024390243 1037:0.024390243 1737:0.024390243 #
215.68208087559841601432708557695 116:0.023255814 131:0.023255814 588:0.023255814 678:0.023255814 1437:0.023255814 2456:0.023255814 #
215.68208087559841601432708557695 43:0.052631579 154:0.052631579 #
-55.038613458837453151772933779284 684:0.33333334 #
-215.68208087559841601432708557695 93:0.2 #
-215.68208087559841601432708557695 22:0.037037037 492:0.074074075 1280:0.074074075 #
-215.68208087559841601432708557695 225:0.03846154 1155:0.03846154 1156:0.03846154 #
64.411352513241240558272693306208 199:0.25 #
215.68208087559841601432708557695 1383:0.25 #
215.68208087559841601432708557695 114:0.033333335 223:0.033333335 1469:0.033333335 1907:0.033333335 #
215.68208087559841601432708557695 29:0.015384615 127:0.015384615 183:0.015384615 667:0.015384615 847:0.015384615 1469:0.015384615 1738:0.015384615 2395:0.015384615 #
215.68208087559841601432708557695 290:0.03125 906:0.03125 1867:0.03125 2382:0.03125 #
215.68208087559841601432708557695 38:0.043478262 180:0.043478262 1231:0.043478262 #
-215.68208087559841601432708557695 306:0.055555556 350:0.055555556 1226:0.055555556 #
-215.68208087559841601432708557695 983:0.1 #
-215.68208087559841601432708557695 93:0.01754386 613:0.01754386 1207:0.01754386 1462:0.01754386 1490:0.01754386 1491:0.01754386 #
-215.68208087559841601432708557695 8:0.028571429 278:0.028571429 281:0.028571429 310:0.028571429 807:0.028571429 #
-215.68208087559841601432708557695 98:0.055555556 1457:0.055555556 1593:0.055555556 #
215.68208087559841601432708557695 157:0.034482758 835:0.034482758 1898:0.034482758 2109:0.034482758 #
215.68208087559841601432708557695 504:0.023809524 537:0.023809524 1263:0.023809524 1264:0.023809524 1889:0.023809524 2538:0.023809524 #
-215.68208087559841601432708557695 38:0.1 1383:0.1 #
-215.68208087559841601432708557695 20:0.017857144 37:0.017857144 157:0.017857144 667:0.017857144 922:0.017857144 1037:0.017857144 1382:0.017857144 1810:0.017857144 #
-197.46913042306914576329290866852 121:0.01923077 138:0.01923077 518:0.01923077 720:0.01923077 1060:0.01923077 1117:0.01923077 1354:0.01923077 1367:0.01923077 1923:0.01923077 #
215.68208087559841601432708557695 306:0.034482758 483:0.034482758 550:0.034482758 612:0.034482758 2378:0.034482758 #
215.68208087559841601432708557695 57:0.037037037 98:0.037037037 172:0.037037037 332:0.037037037 1009:0.037037037 #
215.68208087559841601432708557695 20:0.025 98:0.025 294:0.025 499:0.025 865:0.025 1071:0.025 #
-215.68208087559841601432708557695 154:0.014492754 693:0.014492754 1001:0.014492754 1126:0.014492754 1170:0.014492754 1220:0.014492754 1234:0.014492754 1554:0.014492754 1571:0.014492754 1741:0.014492754 #
197.21857231112795716398977674544 98:0.019607844 809:0.019607844 902:0.019607844 1313:0.019607844 1633:0.019607844 2001:0.019607844 #
-215.68208087559841601432708557695 191:0.043478262 813:0.043478262 1158:0.043478262 1319:0.043478262 #
-215.68208087559841601432708557695 13:0.033898305 39:0.016949153 191:0.016949153 215:0.016949153 247:0.033898305 310:0.016949153 552:0.033898305 1189:0.016949153 #
-215.68208087559841601432708557695 183:0.023255814 191:0.023255814 193:0.023255814 952:0.023255814 1857:0.046511628 #
215.68208087559841601432708557695 38:0.017241379 85:0.017241379 120:0.017241379 146:0.017241379 148:0.017241379 585:0.017241379 641:0.034482758 1469:0.017241379 2053:0.017241379 #
-215.68208087559841601432708557695 38:0.047619049 658:0.047619049 659:0.047619049 #
215.68208087559841601432708557695 100:0.010989011 537:0.010989011 602:0.010989011 623:0.010989011 1068:0.010989011 1112:0.010989011 1565:0.010989011 1574:0.010989011 1763:0.010989011 1842:0.010989011 1894:0.010989011 2771:0.010989011 #
215.68208087559841601432708557695 254:0.03125 1246:0.03125 1883:0.03125 #
215.68208087559841601432708557695 69:0.017241379 306:0.017241379 503:0.017241379 774:0.017241379 1236:0.017241379 2267:0.017241379 #
215.68208087559841601432708557695 288:0.035714287 670:0.035714287 808:0.035714287 826:0.035714287 2064:0.035714287 #
215.68208087559841601432708557695 970:0.033333335 1161:0.033333335 2227:0.033333335 #
-215.68208087559841601432708557695 328:0.055555556 1030:0.055555556 #
-111.12315676989341284297552192584 561:0.055555556 847:0.055555556 #
-215.68208087559841601432708557695 435:0.025641026 588:0.025641026 643:0.025641026 1095:0.025641026 1269:0.025641026 #
-215.68208087559841601432708557695 157:0.083333336 967:0.083333336 #
-215.68208087559841601432708557695 17:0.041666668 157:0.041666668 562:0.041666668 991:0.041666668 #
215.68208087559841601432708557695 27:0.02631579 95:0.02631579 469:0.02631579 786:0.02631579 1345:0.02631579 #
215.68208087559841601432708557695 288:0.020408163 347:0.020408163 485:0.020408163 986:0.020408163 1335:0.020408163 1940:0.020408163 2539:0.020408163 #
-215.68208087559841601432708557695 38:0.022222223 177:0.022222223 191:0.022222223 197:0.022222223 204:0.022222223 205:0.022222223 1377:0.022222223 #
-122.9098637134815419358346844092 130:0.035714287 306:0.035714287 452:0.035714287 846:0.035714287 #
-128.32648082253226107241061981767 105:0.023809524 840:0.023809524 1007:0.023809524 1037:0.023809524 1075:0.023809524 1615:0.023809524 #
-179.8324420653444235540519002825 45:0.050000001 180:0.050000001 970:0.050000001 #
215.68208087559841601432708557695 18:0.014492754 45:0.014492754 743:0.014492754 1097:0.014492754 1263:0.014492754 1424:0.014492754 2036:0.014492754 2328:0.014492754 2472:0.014492754 2661:0.014492754 #
215.68208087559841601432708557695 127:0.013513514 197:0.013513514 675:0.013513514 711:0.013513514 786:0.013513514 859:0.013513514 908:0.013513514 976:0.013513514 1055:0.013513514 2160:0.013513514 2161:0.013513514 #
-154.49199818499457137477293144912 102:0.071428575 1087:0.071428575 1088:0.071428575 #
-215.68208087559841601432708557695 104:0.041666668 267:0.041666668 510:0.041666668 1136:0.041666668 #
-215.68208087559841601432708557695 213:0.027027028 426:0.027027028 786:0.027027028 887:0.027027028 1334:0.027027028 1599:0.027027028 #
-215.68208087559841601432708557695 38:0.023809524 136:0.023809524 197:0.023809524 715:0.023809524 716:0.023809524 717:0.023809524 #
-215.68208087559841601432708557695 85:0.029411765 869:0.029411765 1427:0.029411765 1447:0.029411765 1624:0.029411765 #
215.68208087559841601432708557695 130:0.039999999 591:0.039999999 2769:0.039999999 #
144.86614721142663597674982156605 349:0.052631579 394:0.052631579 865:0.052631579 2378:0.052631579 #
-200.9911957287938264471449656412 719:0.2857143 #
-215.68208087559841601432708557695 98:0.071428575 349:0.071428575 409:0.071428575 #
-215.68208087559841601432708557695 349:0.052631579 462:0.052631579 593:0.052631579 #
-215.68208087559841601432708557695 82:0.083333336 394:0.083333336 #
-176.39340892978094643694930709898 20:0.01369863 28:0.01369863 172:0.01369863 183:0.01369863 198:0.01369863 414:0.01369863 480:0.01369863 903:0.01369863 1661:0.01369863 1787:0.02739726 #
215.68208087559841601432708557695 85:0.016393442 120:0.016393442 148:0.016393442 199:0.016393442 720:0.016393442 864:0.016393442 1030:0.016393442 1089:0.016393442 1360:0.016393442 2235:0.016393442 #
215.68208087559841601432708557695 2:0.025 131:0.025 774:0.025 938:0.025 1591:0.025 #
214.38054951902498146409925539047 332:0.041666668 624:0.041666668 641:0.041666668 2463:0.041666668 2785:0.041666668 #
-215.68208087559841601432708557695 379:0.041666668 465:0.041666668 1416:0.041666668 #
-215.68208087559841601432708557695 464:0.06666667 531:0.06666667 1166:0.06666667 #
-215.68208087559841601432708557695 341:0.055555556 1149:0.055555556 1399:0.055555556 #
-215.68208087559841601432708557695 98:0.06666667 143:0.06666667 405:0.06666667 #
-215.68208087559841601432708557695 98:0.07692308 1007:0.07692308 #
-38.259864270625371318601537495852 65:0.01369863 154:0.01369863 181:0.01369863 183:0.01369863 347:0.01369863 592:0.01369863 744:0.01369863 1504:0.01369863 1695:0.01369863 1839:0.01369863 #
-215.68208087559841601432708557695 98:0.06666667 522:0.06666667 #
-215.68208087559841601432708557695 28:0.028571429 29:0.028571429 98:0.028571429 172:0.028571429 198:0.028571429 310:0.028571429 1512:0.028571429 #
-215.68208087559841601432708557695 1363:0.1 #
-173.18424319976580250113329384476 37:0.037037037 332:0.037037037 920:0.037037037 1142:0.037037037 #
-215.68208087559841601432708557695 31:0.06666667 154:0.06666667 #
-215.68208087559841601432708557695 31:0.01754386 200:0.01754386 257:0.01754386 370:0.01754386 1019:0.01754386 1273:0.01754386 1354:0.01754386 1753:0.01754386 1754:0.01754386 #
-215.68208087559841601432708557695 98:0.029411765 205:0.029411765 218:0.029411765 382:0.029411765 552:0.029411765 573:0.029411765 839:0.029411765 #
-215.68208087559841601432708557695 98:0.037037037 811:0.037037037 917:0.037037037 997:0.037037037 #
-215.68208087559841601432708557695 58:0.023255814 98:0.023255814 149:0.023255814 416:0.023255814 939:0.023255814 1153:0.023255814 #
-215.68208087559841601432708557695 20:0.021739131 98:0.021739131 126:0.021739131 151:0.021739131 160:0.021739131 210:0.021739131 1011:0.021739131 #
215.68208087559841601432708557695 13:0.012658228 72:0.012658228 98:0.012658228 122:0.012658228 199:0.012658228 288:0.012658228 612:0.012658228 1189:0.012658228 1440:0.012658228 2112:0.025316456 2376:0.012658228 #
-215.68208087559841601432708557695 31:0.022222223 95:0.022222223 254:0.022222223 261:0.022222223 425:0.022222223 1633:0.022222223 1664:0.022222223 #
3.8931062297493812529580736736534 858:0.05882353 1961:0.05882353 2471:0.05882353 #
-215.68208087559841601432708557695 155:0.039999999 883:0.039999999 884:0.039999999 #
-215.68208087559841601432708557695 100:0.041666668 725:0.041666668 1383:0.041666668 1479:0.041666668 #
-215.68208087559841601432708557695 423:0.015625 788:0.015625 869:0.015625 1009:0.015625 1321:0.015625 1335:0.015625 1629:0.015625 1909:0.015625 #
215.68208087559841601432708557695 199:0.03125 206:0.03125 580:0.03125 752:0.03125 1512:0.03125 #
215.68208087559841601432708557695 64:0.028571429 199:0.028571429 257:0.028571429 545:0.028571429 560:0.028571429 1694:0.028571429 #
-215.68208087559841601432708557695 345:0.039999999 385:0.039999999 1634:0.039999999 #
-215.68208087559841601432708557695 130:0.16666667 #
-188.85012103584017495450098067522 311:0.025641026 845:0.025641026 1403:0.025641026 1785:0.025641026 1791:0.025641026 #
215.68208087559841601432708557695 280:0.045454547 522:0.045454547 #
215.68208087559841601432708557695 143:0.0625 373:0.0625 1412:0.0625 #
215.68208087559841601432708557695 155:0.083333336 214:0.083333336 #
215.68208087559841601432708557695 198:0.090909094 1226:0.090909094 #
215.68208087559841601432708557695 28:0.047619049 66:0.047619049 87:0.047619049 562:0.047619049 #
-215.68208087559841601432708557695 66:0.027027028 136:0.027027028 370:0.027027028 418:0.027027028 806:0.027027028 1634:0.027027028 #
201.13262425651058151743200141937 160:0.023255814 195:0.023255814 464:0.023255814 1846:0.023255814 2219:0.023255814 2341:0.023255814 #
-198.4499328067339831704885000363 157:0.021739131 577:0.021739131 652:0.021739131 1306:0.021739131 1406:0.021739131 1407:0.021739131 1408:0.021739131 #
-215.68208087559841601432708557695 127:0.030303031 208:0.030303031 254:0.030303031 1116:0.030303031 1347:0.030303031 #
-215.68208087559841601432708557695 808:0.052631579 820:0.052631579 1486:0.052631579 #
215.68208087559841601432708557695 602:0.025 1438:0.025 1769:0.025 2165:0.025 2166:0.025 #
215.68208087559841601432708557695 191:0.071428575 426:0.071428575 917:0.071428575 #
169.96593959826378750221920199692 38:0.037037037 326:0.037037037 349:0.037037037 1436:0.037037037 2408:0.037037037 #
215.68208087559841601432708557695 83:0.16666667 #
215.68208087559841601432708557695 130:0.018518519 204:0.018518519 482:0.018518519 747:0.018518519 914:0.018518519 1264:0.018518519 1615:0.018518519 #
215.68208087559841601432708557695 492:0.047619049 531:0.047619049 652:0.047619049 1351:0.047619049 #
-215.68208087559841601432708557695 50:0.011764706 98:0.011764706 100:0.011764706 112:0.011764706 267:0.011764706 394:0.011764706 546:0.011764706 605:0.011764706 631:0.011764706 641:0.011764706 687:0.011764706 906:0.011764706 979:0.011764706 1282:0.011764706 #
-215.68208087559841601432708557695 313:0.045454547 492:0.045454547 1231:0.045454547 #
-215.68208087559841601432708557695 98:0.0625 204:0.0625 492:0.0625 #
-215.68208087559841601432708557695 8:0.022222223 38:0.022222223 426:0.044444446 583:0.022222223 745:0.022222223 1294:0.022222223 1315:0.022222223 #
215.68208087559841601432708557695 126:0.028571429 180:0.028571429 441:0.028571429 1347:0.028571429 1692:0.028571429 #
147.85916417982076609405339695513 293:0.083333336 1399:0.083333336 #
215.68208087559841601432708557695 37:0.034482758 460:0.034482758 983:0.034482758 2234:0.034482758 #
215.68208087559841601432708557695 115:0.02 180:0.02 242:0.02 347:0.02 407:0.02 1030:0.02 1059:0.02 2743:0.02 #
-215.68208087559841601432708557695 384:0.03846154 1279:0.03846154 1280:0.03846154 1281:0.03846154 #
-100.57364761576249634345003869385 8:0.017241379 110:0.017241379 242:0.017241379 388:0.017241379 462:0.017241379 510:0.017241379 640:0.017241379 875:0.017241379 #
-121.44369847242006699161720462143 125:0.0625 1094:0.0625 1694:0.0625 #
-215.68208087559841601432708557695 352:0.039999999 652:0.039999999 698:0.039999999 735:0.039999999 #
-215.68208087559841601432708557695 118:0.016949153 126:0.016949153 275:0.016949153 284:0.016949153 509:0.033898305 524:0.016949153 525:0.016949153 #
215.68208087559841601432708557695 38:0.052631579 64:0.02631579 172:0.02631579 1097:0.02631579 2704:0.02631579 #
143.21014436601166153195663355291 38:0.0625 641:0.0625 2115:0.0625 #
215.68208087559841601432708557695 38:0.0625 1363:0.0625 #
215.68208087559841601432708557695 98:0.037037037 141:0.037037037 155:0.037037037 970:0.037037037 2666:0.037037037 #
-215.68208087559841601432708557695 29:0.02 69:0.02 761:0.02 763:0.02 926:0.02 1358:0.02 1359:0.02 #
-215.68208087559841601432708557695 38:0.07692308 1218:0.07692308 #
-215.68208087559841601432708557695 38:0.1 196:0.1 #
-215.68208087559841601432708557695 154:0.034482758 197:0.034482758 1049:0.034482758 1244:0.034482758 #
215.68208087559841601432708557695 8:0.017241379 132:0.017241379 199:0.017241379 208:0.017241379 312:0.017241379 643:0.017241379 680:0.017241379 751:0.017241379 1385:0.017241379 1624:0.017241379 2533:0.017241379 #
215.68208087559841601432708557695 93:0.055555556 485:0.055555556 1360:0.055555556 #
215.68208087559841601432708557695 93:0.1 678:0.1 #
215.68208087559841601432708557695 29:0.022727273 192:0.022727273 196:0.022727273 347:0.022727273 620:0.022727273 743:0.022727273 1041:0.022727273 #
213.90661764468475780631706584245 98:0.018867925 130:0.018867925 457:0.018867925 531:0.018867925 967:0.018867925 1961:0.018867925 2137:0.018867925 2596:0.018867925 2712:0.018867925 #
-215.68208087559841601432708557695 552:0.034482758 881:0.034482758 1683:0.034482758 #
-215.68208087559841601432708557695 262:0.052631579 347:0.052631579 414:0.052631579 1737:0.052631579 #
-130.22568398797176314474199898541 118:0.090909094 1041:0.090909094 #
-215.68208087559841601432708557695 826:0.06666667 1731:0.06666667 #
-215.68208087559841601432708557695 134:0.047619049 288:0.047619049 1577:0.047619049 #
215.68208087559841601432708557695 38:0.045454547 676:0.045454547 1794:0.045454547 #
215.68208087559841601432708557695 38:0.035714287 667:0.035714287 1636:0.035714287 2303:0.035714287 #
57.27372869633642693543151835911 38:0.043478262 983:0.043478262 2050:0.043478262 #
-215.68208087559841601432708557695 155:0.014492754 240:0.014492754 760:0.014492754 761:0.014492754 762:0.014492754 763:0.014492754 764:0.014492754 765:0.014492754 766:0.014492754 #
-215.68208087559841601432708557695 38:0.090909094 1123:0.090909094 #
-215.68208087559841601432708557695 38:0.0625 251:0.0625 1229:0.0625 #
-215.68208087559841601432708557695 197:0.02 599:0.039999999 600:0.02 601:0.02 602:0.02 #
215.68208087559841601432708557695 19:0.018181818 98:0.018181818 154:0.018181818 242:0.018181818 262:0.018181818 1479:0.018181818 2309:0.018181818 #
215.68208087559841601432708557695 218:0.022727273 314:0.022727273 605:0.022727273 740:0.022727273 887:0.022727273 2166:0.022727273 2270:0.022727273 #
-174.55832531043662925185344647616 25:0.043478262 38:0.043478262 447:0.043478262 #
-215.68208087559841601432708557695 45:0.023809524 98:0.023809524 537:0.023809524 542:0.023809524 1141:0.023809524 1469:0.023809524 1574:0.023809524 #
-215.68208087559841601432708557695 98:0.043478262 807:0.043478262 1238:0.043478262 1239:0.043478262 #
-215.68208087559841601432708557695 310:0.052631579 543:0.052631579 807:0.052631579 #
-215.68208087559841601432708557695 136:0.025641026 149:0.051282052 741:0.025641026 834:0.025641026 984:0.025641026 1434:0.025641026 #
-215.68208087559841601432708557695 85:0.02631579 477:0.02631579 1055:0.02631579 1307:0.02631579 1396:0.02631579 1803:0.02631579 1910:0.02631579 #
215.68208087559841601432708557695 38:0.017857144 126:0.017857144 132:0.017857144 205:0.017857144 562:0.035714287 634:0.017857144 1554:0.017857144 1984:0.017857144 2449:0.017857144 #
-215.68208087559841601432708557695 98:0.015873017 186:0.015873017 483:0.015873017 568:0.015873017 810:0.015873017 942:0.015873017 1100:0.015873017 1101:0.015873017 1102:0.015873017 1103:0.015873017 #
-215.68208087559841601432708557695 38:0.050000001 385:0.050000001 390:0.050000001 #
-215.68208087559841601432708557695 641:0.071428575 1261:0.071428575 1878:0.071428575 #
215.68208087559841601432708557695 249:0.014925373 659:0.014925373 691:0.014925373 931:0.014925373 1334:0.014925373 1439:0.014925373 1563:0.014925373 1832:0.014925373 #
-204.10671037725006726759602315724 93:0.090909094 1360:0.090909094 #
-215.68208087559841601432708557695 45:0.03846154 126:0.03846154 477:0.03846154 562:0.03846154 701:0.03846154 #
-215.68208087559841601432708557695 346:0.047619049 498:0.047619049 499:0.047619049 #
-215.68208087559841601432708557695 361:0.029411765 1225:0.029411765 1351:0.05882353 1632:0.029411765 #
-88.895560088220761940647207666188 1278:0.035714287 1704:0.035714287 1866:0.035714287 #
-215.68208087559841601432708557695 31:0.021739131 98:0.021739131 242:0.021739131 398:0.021739131 920:0.021739131 1178:0.021739131 1179:0.021739131 1360:0.021739131 #
165.21222573993608762066287454218 38:0.043478262 651:0.043478262 1623:0.043478262 2521:0.043478262 #
-215.68208087559841601432708557695 102:0.037037037 197:0.037037037 209:0.037037037 373:0.037037037 1045:0.037037037 #
-215.68208087559841601432708557695 281:0.016129032 372:0.016129032 556:0.016129032 790:0.016129032 1193:0.016129032 1282:0.016129032 1425:0.016129032 #
-215.68208087559841601432708557695 1677:0.052631579 1832:0.052631579 #
215.68208087559841601432708557695 29:0.02 155:0.02 157:0.02 412:0.02 608:0.02 682:0.02 1756:0.02 2367:0.02 #
215.68208087559841601432708557695 98:0.022222223 191:0.022222223 207:0.022222223 687:0.022222223 729:0.022222223 1135:0.022222223 1219:0.022222223 2554:0.022222223 #
215.68208087559841601432708557695 6:0.010989011 110:0.010989011 115:0.021978023 205:0.010989011 257:0.010989011 332:0.010989011 492:0.010989011 675:0.010989011 719:0.021978023 784:0.010989011 976:0.010989011 1189:0.010989011 1351:0.010989011 1457:0.010989011 1497:0.010989011 2509:0.010989011 #
-74.796609307519332787705934606493 98:0.041666668 155:0.041666668 157:0.041666668 371:0.041666668 1071:0.041666668 #
-215.68208087559841601432708557695 29:0.037037037 157:0.037037037 834:0.037037037 1037:0.037037037 1289:0.037037037 #
-215.68208087559841601432708557695 29:0.027777778 58:0.027777778 98:0.027777778 451:0.027777778 1777:0.027777778 1778:0.027777778 #
-215.68208087559841601432708557695 103:0.034482758 157:0.034482758 191:0.034482758 687:0.034482758 893:0.034482758 #
215.68208087559841601432708557695 349:0.039999999 1118:0.039999999 1753:0.039999999 1754:0.039999999 #
-215.68208087559841601432708557695 1225:0.05882353 1226:0.05882353 #
-215.68208087559841601432708557695 235:0.045454547 349:0.045454547 1305:0.045454547 1437:0.045454547 #
-215.68208087559841601432708557695 106:0.033333335 112:0.033333335 131:0.033333335 1118:0.033333335 #
-215.68208087559841601432708557695 36:0.030303031 126:0.030303031 281:0.030303031 349:0.030303031 1292:0.030303031 #
215.68208087559841601432708557695 66:0.015384615 98:0.015384615 235:0.015384615 608:0.015384615 737:0.015384615 826:0.015384615 1533:0.015384615 2481:0.015384615 2482:0.015384615 2483:0.015384615 #
215.68208087559841601432708557695 68:0.011627907 87:0.011627907 170:0.011627907 172:0.011627907 191:0.011627907 198:0.011627907 205:0.011627907 453:0.011627907 471:0.011627907 544:0.011627907 769:0.011627907 967:0.011627907 #
-215.68208087559841601432708557695 172:0.025 242:0.025 414:0.025 844:0.025 985:0.025 986:0.025 987:0.025 #
-37.771508653258557330900657689199 769:0.2 #
-215.68208087559841601432708557695 180:0.024390243 181:0.024390243 182:0.024390243 183:0.024390243 184:0.024390243 #
-215.68208087559841601432708557695 655:0.1 #
215.68208087559841601432708557695 28:0.045454547 432:0.045454547 912:0.045454547 2252:0.045454547 #
215.68208087559841601432708557695 522:0.043478262 2422:0.043478262 #
215.68208087559841601432708557695 94:0.018518519 98:0.018518519 155:0.018518519 205:0.018518519 538:0.018518519 643:0.018518519 729:0.018518519 830:0.018518519 #
34.174039742829030785742361331359 1030:0.0625 1389:0.0625 2576:0.0625 #
-215.68208087559841601432708557695 205:0.083333336 212:0.083333336 #
-215.68208087559841601432708557695 235:0.019607844 499:0.019607844 526:0.019607844 621:0.019607844 1653:0.019607844 1829:0.019607844 1856:0.019607844 #
-215.68208087559841601432708557695 205:0.032258064 296:0.032258064 347:0.064516127 442:0.032258064 836:0.032258064 #
-215.68208087559841601432708557695 43:0.022727273 98:0.022727273 157:0.022727273 397:0.022727273 455:0.022727273 652:0.022727273 1178:0.022727273 #
215.68208087559841601432708557695 83:0.043478262 172:0.043478262 1354:0.043478262 1850:0.043478262 #
0.37953961069678499029578233603388 441:0.03125 682:0.03125 1594:0.03125 2287:0.03125 #
-215.68208087559841601432708557695 66:0.052631579 83:0.052631579 1232:0.052631579 #
-215.68208087559841601432708557695 131:0.02631579 136:0.02631579 172:0.02631579 1146:0.02631579 1354:0.02631579 1382:0.02631579 #
-215.68208087559841601432708557695 78:0.029411765 83:0.029411765 186:0.029411765 506:0.029411765 687:0.029411765 1412:0.029411765 #
215.68208087559841601432708557695 38:0.021276595 55:0.021276595 95:0.021276595 180:0.021276595 308:0.021276595 349:0.021276595 641:0.021276595 #
-215.68208087559841601432708557695 314:0.02631579 439:0.02631579 463:0.02631579 651:0.02631579 1043:0.02631579 #
-215.68208087559841601432708557695 76:0.039999999 298:0.039999999 432:0.039999999 1675:0.039999999 #
-215.68208087559841601432708557695 441:0.14285715 #
-215.68208087559841601432708557695 14:0.019607844 20:0.019607844 67:0.019607844 451:0.019607844 845:0.019607844 1776:0.019607844 #
-215.68208087559841601432708557695 143:0.050000001 292:0.050000001 1988:0.050000001 #
215.68208087559841601432708557695 28:0.033333335 105:0.033333335 242:0.033333335 1478:0.033333335 #
-215.68208087559841601432708557695 130:0.032258064 377:0.032258064 451:0.032258064 574:0.032258064 #
-215.68208087559841601432708557695 34:0.083333336 66:0.083333336 #
-215.68208087559841601432708557695 29:0.0625 538:0.0625 #
-215.68208087559841601432708557695 29:0.041666668 242:0.041666668 257:0.041666668 1209:0.041666668 #
-215.68208087559841601432708557695 29:0.019607844 180:0.019607844 242:0.019607844 257:0.019607844 313:0.019607844 411:0.019607844 510:0.019607844 621:0.019607844 #
-215.68208087559841601432708557695 98:0.020833334 349:0.020833334 690:0.020833334 756:0.020833334 768:0.020833334 1528:0.020833334 #
215.68208087559841601432708557695 349:0.0625 467:0.0625 1771:0.0625 #
215.68208087559841601432708557695 98:0.023809524 155:0.023809524 157:0.023809524 349:0.023809524 643:0.023809524 1215:0.023809524 2019:0.023809524 2657:0.023809524 #
215.68208087559841601432708557695 13:0.049180329 64:0.016393442 157:0.032786883 172:0.016393442 242:0.016393442 349:0.016393442 485:0.016393442 687:0.016393442 2713:0.016393442 #
215.68208087559841601432708557695 155:0.023255814 349:0.023255814 434:0.023255814 447:0.023255814 598:0.023255814 2353:0.023255814 2706:0.023255814 #
-206.98827046219230396673083305359 377:0.033333335 414:0.033333335 1709:0.033333335 1924:0.033333335 #
-215.68208087559841601432708557695 13:0.032258064 68:0.032258064 183:0.032258064 278:0.032258064 #
-215.68208087559841601432708557695 155:0.037037037 474:0.037037037 544:0.037037037 688:0.037037037 #
-215.68208087559841601432708557695 7:0.027777778 13:0.027777778 37:0.027777778 68:0.027777778 454:0.027777778 #
215.68208087559841601432708557695 83:0.015625 154:0.015625 191:0.015625 349:0.015625 492:0.015625 893:0.03125 983:0.015625 1485:0.015625 #
215.68208087559841601432708557695 123:0.047619049 191:0.047619049 449:0.047619049 560:0.047619049 #
-215.68208087559841601432708557695 20:0.022222223 157:0.022222223 191:0.022222223 349:0.022222223 525:0.022222223 611:0.022222223 720:0.022222223 1112:0.022222223 #
-215.68208087559841601432708557695 112:0.023809524 191:0.023809524 686:0.023809524 983:0.023809524 1081:0.023809524 #
-95.367466090261061140154197346419 98:0.039999999 189:0.039999999 190:0.039999999 191:0.039999999 #
-215.68208087559841601432708557695 123:0.035714287 543:0.035714287 643:0.035714287 796:0.035714287 838:0.035714287 #
-215.68208087559841601432708557695 191:0.030303031 437:0.030303031 647:0.030303031 849:0.030303031 1056:0.030303031 #
73.032955189983610466697427909821 199:0.05882353 1344:0.05882353 2632:0.05882353 #
-215.68208087559841601432708557695 262:0.11111111 293:0.11111111 #
-215.68208087559841601432708557695 293:0.041666668 634:0.041666668 1184:0.041666668 1344:0.041666668 #
