SVM-light Version V6.02
0 # kernel type
3 # kernel parameter -d 
1 # kernel parameter -g 
1 # kernel parameter -s 
1 # kernel parameter -r 
empty# kernel parameter -u 
2826 # highest feature index 
8526 # number of training documents 
5667 # number of support vectors plus 1 
-0.044493201 # threshold b, each following line is a SV (starting with alpha*y)
216.0434711476933955509593943134 114:0.013513514 213:0.013513514 1128:0.013513514 1354:0.013513514 1439:0.013513514 1451:0.013513514 2210:0.013513514 2678:0.013513514 2742:0.013513514 #
-216.0434711476933955509593943134 4:0.027777778 5:0.027777778 6:0.027777778 7:0.027777778 8:0.027777778 #
-214.24238288646853334284969605505 9:0.013888889 10:0.013888889 11:0.013888889 12:0.013888889 13:0.013888889 14:0.013888889 15:0.013888889 16:0.013888889 17:0.013888889 #
-216.0434711476933955509593943134 18:0.023255814 19:0.023255814 20:0.023255814 21:0.023255814 22:0.023255814 #
-216.0434711476933955509593943134 23:0.020833334 24:0.020833334 25:0.020833334 26:0.020833334 27:0.020833334 28:0.020833334 #
216.0434711476933955509593943134 13:0.023255814 160:0.023255814 218:0.023255814 725:0.023255814 947:0.023255814 1039:0.023255814 2001:0.023255814 #
216.0434711476933955509593943134 183:0.02 411:0.02 869:0.02 952:0.02 1748:0.02 1909:0.02 1968:0.02 #
-216.0434711476933955509593943134 682:0.025641026 912:0.025641026 916:0.025641026 1297:0.025641026 1328:0.025641026 #
216.0434711476933955509593943134 83:0.03125 157:0.03125 197:0.03125 206:0.03125 227:0.03125 414:0.03125 #
216.0434711476933955509593943134 38:0.02 157:0.02 214:0.02 242:0.02 585:0.02 687:0.02 935:0.02 2002:0.02 #
-216.0434711476933955509593943134 414:0.25 #
-216.0434711476933955509593943134 98:0.06666667 157:0.13333334 1412:0.06666667 #
-216.0434711476933955509593943134 157:0.11111111 492:0.11111111 #
-216.0434711476933955509593943134 157:0.1 525:0.1 #
-102.83402358067436921373882796615 332:0.083333336 624:0.083333336 840:0.083333336 #
-113.52140649734562316552910488099 29:0.041666668 242:0.041666668 257:0.041666668 1209:0.041666668 #
145.17051892700112603051820769906 8:0.083333336 884:0.083333336 #
216.0434711476933955509593943134 8:0.07692308 601:0.07692308 #
216.0434711476933955509593943134 59:0.015384615 100:0.015384615 206:0.015384615 533:0.015384615 1403:0.015384615 1784:0.015384615 2216:0.015384615 2275:0.015384615 #
-216.0434711476933955509593943134 38:0.011111111 98:0.011111111 124:0.011111111 140:0.011111111 183:0.011111111 451:0.011111111 620:0.011111111 687:0.011111111 720:0.011111111 776:0.011111111 882:0.011111111 1383:0.011111111 1657:0.011111111 #
-216.0434711476933955509593943134 83:0.1 85:0.1 #
216.0434711476933955509593943134 14:0.07692308 157:0.07692308 #
216.0434711476933955509593943134 157:0.11111111 2796:0.055555556 #
216.0434711476933955509593943134 441:0.027777778 537:0.027777778 2175:0.027777778 2243:0.027777778 #
-216.0434711476933955509593943134 98:0.25 #
216.0434711476933955509593943134 38:0.11111111 475:0.055555556 #
165.32366458861892510867619421333 38:0.055555556 2046:0.055555556 #
-20.215105315264803920172198559158 98:0.014705882 537:0.014705882 807:0.014705882 829:0.014705882 1075:0.014705882 1191:0.014705882 1228:0.014705882 1503:0.014705882 1722:0.014705882 #
-216.0434711476933955509593943134 8:0.083333336 864:0.083333336 #
216.0434711476933955509593943134 136:0.06666667 157:0.13333334 #
216.0434711476933955509593943134 98:0.0625 157:0.0625 2517:0.0625 #
216.0434711476933955509593943134 98:0.11111111 552:0.11111111 #
216.0434711476933955509593943134 50:0.043478262 731:0.043478262 997:0.043478262 1118:0.043478262 #
216.0434711476933955509593943134 38:0.2 #
216.0434711476933955509593943134 8:0.090909094 38:0.090909094 #
216.0434711476933955509593943134 31:0.11111111 98:0.11111111 #
38.015793950927843525278149172664 98:0.11111111 1481:0.11111111 #
134.88062624658965660273679532111 98:0.11111111 1658:0.11111111 #
-216.0434711476933955509593943134 98:0.032258064 160:0.064516127 172:0.032258064 197:0.032258064 660:0.032258064 #
-216.0434711476933955509593943134 98:0.125 1014:0.125 #
216.0434711476933955509593943134 85:0.15384616 188:0.07692308 #
216.0434711476933955509593943134 85:0.07692308 157:0.07692308 257:0.07692308 #
-18.546261468218585122258446062915 85:0.14285715 1097:0.14285715 #
93.598717676274333143737749196589 209:0.041666668 370:0.041666668 448:0.041666668 1177:0.041666668 #
216.0434711476933955509593943134 197:0.03846154 414:0.03846154 864:0.03846154 2189:0.03846154 #
216.0434711476933955509593943134 141:0.045454547 366:0.045454547 864:0.045454547 2740:0.045454547 #
216.0434711476933955509593943134 826:0.043478262 864:0.043478262 1041:0.043478262 2740:0.043478262 #
-216.0434711476933955509593943134 98:0.11111111 257:0.11111111 #
-216.0434711476933955509593943134 257:0.11111111 839:0.11111111 #
-216.0434711476933955509593943134 157:0.06666667 257:0.06666667 465:0.06666667 #
-216.0434711476933955509593943134 206:0.090909094 647:0.090909094 #
-23.429231797720483143621095223352 20:0.0091743115 92:0.0091743115 93:0.0091743115 157:0.0091743115 274:0.0091743115 548:0.0091743115 1107:0.0091743115 1381:0.0091743115 1452:0.0091743115 1548:0.0091743115 1653:0.0091743115 1870:0.0091743115 1929:0.0091743115 #
216.0434711476933955509593943134 8:0.032258064 38:0.032258064 112:0.032258064 349:0.032258064 1153:0.032258064 #
-216.0434711476933955509593943134 59:0.016393442 293:0.016393442 314:0.016393442 401:0.016393442 412:0.016393442 605:0.016393442 1224:0.016393442 #
12.916434930124802704654030094389 1097:0.090909094 2131:0.090909094 #
216.0434711476933955509593943134 172:0.06666667 647:0.06666667 999:0.06666667 #
70.504786407590287922175775747746 465:0.2 #
-216.0434711476933955509593943134 2:0.029411765 98:0.029411765 130:0.029411765 741:0.029411765 1150:0.029411765 #
-216.0434711476933955509593943134 485:0.039999999 1150:0.039999999 1171:0.039999999 1859:0.039999999 #
-216.0434711476933955509593943134 698:0.090909094 1658:0.090909094 #
216.0434711476933955509593943134 98:0.033333335 114:0.033333335 1344:0.033333335 2568:0.033333335 #
-216.0434711476933955509593943134 183:0.024390243 306:0.024390243 627:0.024390243 976:0.024390243 1085:0.024390243 1968:0.024390243 #
216.0434711476933955509593943134 38:0.1 1571:0.1 #
216.0434711476933955509593943134 38:0.1 577:0.1 #
-216.0434711476933955509593943134 38:0.11111111 201:0.11111111 #
216.0434711476933955509593943134 103:0.033333335 125:0.033333335 1109:0.033333335 1694:0.033333335 2716:0.033333335 #
216.0434711476933955509593943134 8:0.030303031 126:0.030303031 622:0.030303031 1302:0.030303031 1506:0.030303031 #
216.0434711476933955509593943134 66:0.0125 183:0.0125 499:0.0125 614:0.0125 786:0.0125 1439:0.0125 2039:0.0125 2103:0.0125 2272:0.0125 2525:0.0125 #
17.405199315013049954359303228557 536:0.14285715 1859:0.14285715 #
-216.0434711476933955509593943134 136:0.028571429 287:0.057142857 1325:0.028571429 1571:0.057142857 #
-216.0434711476933955509593943134 687:0.037037037 1421:0.037037037 1571:0.037037037 1825:0.037037037 #
-216.0434711476933955509593943134 98:0.06666667 136:0.033333335 457:0.033333335 577:0.033333335 999:0.033333335 1705:0.033333335 #
-137.91162400346985350552131421864 230:0.043478262 373:0.043478262 1475:0.043478262 1553:0.043478262 1571:0.043478262 #
-216.0434711476933955509593943134 31:0.047619049 157:0.047619049 584:0.047619049 1748:0.047619049 #
216.0434711476933955509593943134 29:0.06666667 201:0.13333334 525:0.06666667 #
216.0434711476933955509593943134 67:0.025 201:0.075000003 525:0.025 665:0.025 2014:0.025 2825:0.025 #
216.0434711476933955509593943134 58:0.0090909088 130:0.0090909088 257:0.0090909088 387:0.0090909088 640:0.0090909088 696:0.0090909088 881:0.0090909088 1047:0.0090909088 1055:0.0090909088 1586:0.0090909088 1909:0.0090909088 2272:0.0090909088 2311:0.0090909088 2312:0.0090909088 #
63.129737995702512876050604972988 710:0.037037037 2289:0.037037037 2364:0.037037037 #
216.0434711476933955509593943134 98:0.1 969:0.1 #
-216.0434711476933955509593943134 98:0.11111111 1137:0.11111111 #
216.0434711476933955509593943134 38:0.06666667 83:0.033333335 242:0.033333335 296:0.033333335 1229:0.033333335 #
216.0434711476933955509593943134 38:0.020408163 132:0.040816326 172:0.020408163 752:0.020408163 1111:0.020408163 1594:0.020408163 2287:0.020408163 #
-216.0434711476933955509593943134 29:0.2 #
-58.132966894441047145392076345161 1229:0.25 #
-216.0434711476933955509593943134 126:0.034482758 218:0.034482758 332:0.034482758 624:0.034482758 969:0.034482758 1634:0.034482758 #
-216.0434711476933955509593943134 227:0.05882353 228:0.05882353 472:0.05882353 #
216.0434711476933955509593943134 98:0.1 981:0.1 #
178.46029334988762116154248360544 98:0.1 696:0.1 #
216.0434711476933955509593943134 103:0.009708738 136:0.009708738 218:0.009708738 237:0.009708738 307:0.009708738 348:0.009708738 556:0.009708738 601:0.009708738 741:0.009708738 786:0.009708738 881:0.009708738 1118:0.009708738 2008:0.009708738 2041:0.009708738 #
-216.0434711476933955509593943134 98:0.25 #
-216.0434711476933955509593943134 127:0.037037037 1533:0.037037037 1539:0.037037037 1595:0.037037037 #
-216.0434711476933955509593943134 38:0.020408163 266:0.020408163 311:0.020408163 418:0.020408163 888:0.020408163 1746:0.040816326 #
216.0434711476933955509593943134 38:0.050000001 157:0.050000001 257:0.050000001 1071:0.050000001 #
119.84119412752941968847153475508 141:0.032258064 316:0.032258064 317:0.032258064 600:0.032258064 1309:0.032258064 #
216.0434711476933955509593943134 157:0.1 1078:0.1 #
-28.281277439585920774334226734936 48:0.012345679 66:0.012345679 98:0.012345679 111:0.012345679 183:0.012345679 198:0.024691358 208:0.012345679 695:0.024691358 1246:0.012345679 1464:0.012345679 1690:0.012345679 #
-216.0434711476933955509593943134 338:0.025641026 1032:0.025641026 1068:0.025641026 1246:0.025641026 1968:0.025641026 #
-93.380093298176092275753035210073 199:0.03846154 349:0.03846154 471:0.03846154 479:0.03846154 738:0.03846154 #
216.0434711476933955509593943134 98:0.071428575 373:0.071428575 1412:0.071428575 #
-78.186604589117138175424770452082 981:0.090909094 1602:0.090909094 #
-216.0434711476933955509593943134 34:0.016666668 239:0.016666668 315:0.016666668 380:0.016666668 385:0.016666668 412:0.016666668 572:0.016666668 678:0.016666668 786:0.016666668 1289:0.016666668 #
-112.96021549727930732842651195824 38:0.2 #
-216.0434711476933955509593943134 38:0.025641026 201:0.051282052 393:0.025641026 1037:0.025641026 1041:0.025641026 1481:0.025641026 1821:0.025641026 #
-216.0434711476933955509593943134 66:0.043478262 67:0.043478262 472:0.043478262 #
23.913160613078193961200668127276 29:0.011904762 257:0.011904762 543:0.011904762 985:0.011904762 986:0.011904762 2368:0.011904762 2436:0.011904762 2476:0.011904762 2531:0.011904762 2752:0.011904762 #
-216.0434711476933955509593943134 125:0.11111111 414:0.11111111 #
216.0434711476933955509593943134 306:0.045454547 1137:0.045454547 1138:0.045454547 1195:0.045454547 #
216.0434711476933955509593943134 7:0.05882353 31:0.05882353 332:0.05882353 #
-216.0434711476933955509593943134 981:0.083333336 1439:0.083333336 #
-216.0434711476933955509593943134 349:0.125 1071:0.125 #
-216.0434711476933955509593943134 203:0.047619049 981:0.047619049 1103:0.047619049 1658:0.047619049 #
-27.742732685968693573386190109886 1195:0.14285715 #
216.0434711476933955509593943134 98:0.06666667 125:0.06666667 611:0.06666667 #
216.0434711476933955509593943134 45:0.11111111 414:0.11111111 #
-213.83091447382074079541780520231 148:0.25 #
-185.13384607662879943745792843401 66:0.018867925 98:0.018867925 288:0.018867925 294:0.018867925 408:0.018867925 472:0.018867925 953:0.018867925 1151:0.018867925 #
216.0434711476933955509593943134 5:0.035714287 6:0.035714287 267:0.035714287 720:0.035714287 1362:0.035714287 #
72.424644874359785262640798464417 349:0.052631579 1634:0.052631579 2574:0.052631579 #
216.0434711476933955509593943134 175:0.017241379 192:0.017241379 242:0.017241379 254:0.017241379 2137:0.017241379 2216:0.017241379 2225:0.017241379 2239:0.017241379 #
216.0434711476933955509593943134 242:0.0625 1229:0.0625 1264:0.0625 #
-216.0434711476933955509593943134 105:0.047619049 373:0.095238097 414:0.047619049 #
-216.0434711476933955509593943134 85:0.05882353 472:0.05882353 500:0.05882353 #
216.0434711476933955509593943134 38:0.1 125:0.1 #
216.0434711476933955509593943134 45:0.1 306:0.1 #
216.0434711476933955509593943134 28:0.047619049 66:0.047619049 87:0.047619049 562:0.047619049 #
-216.0434711476933955509593943134 98:0.02631579 1343:0.02631579 1344:0.02631579 1345:0.02631579 1346:0.02631579 #
-216.0434711476933955509593943134 306:0.1 562:0.1 #
-216.0434711476933955509593943134 13:0.055555556 414:0.055555556 539:0.055555556 720:0.055555556 #
127.11934932555703881007502786815 17:0.041666668 98:0.041666668 257:0.041666668 991:0.041666668 #
160.26023124645729467374621890485 172:0.019607844 543:0.019607844 937:0.019607844 1301:0.019607844 2243:0.019607844 2430:0.019607844 #
132.11667956691368885913107078522 58:0.0625 130:0.0625 266:0.0625 #
216.0434711476933955509593943134 38:0.050000001 125:0.050000001 148:0.050000001 414:0.050000001 #
-216.0434711476933955509593943134 45:0.035714287 127:0.017857144 192:0.017857144 578:0.017857144 904:0.017857144 964:0.017857144 1429:0.017857144 #
216.0434711476933955509593943134 13:0.015625 68:0.015625 451:0.015625 453:0.015625 563:0.015625 680:0.015625 763:0.015625 2257:0.015625 #
216.0434711476933955509593943134 66:0.052631579 126:0.052631579 2679:0.052631579 #
216.0434711476933955509593943134 414:0.07692308 556:0.07692308 #
216.0434711476933955509593943134 414:0.045454547 740:0.045454547 807:0.045454547 839:0.045454547 #
-110.31056310769101003188552567735 38:0.025641026 126:0.025641026 357:0.025641026 510:0.025641026 1548:0.025641026 #
216.0434711476933955509593943134 38:0.2 #
-216.0434711476933955509593943134 38:0.052631579 45:0.052631579 1007:0.052631579 #
-216.0434711476933955509593943134 8:0.055555556 38:0.055555556 895:0.055555556 #
216.0434711476933955509593943134 98:0.027777778 457:0.027777778 494:0.027777778 698:0.027777778 1112:0.027777778 2141:0.027777778 #
216.0434711476933955509593943134 98:0.02631579 126:0.02631579 698:0.02631579 1464:0.02631579 2094:0.02631579 #
-216.0434711476933955509593943134 38:0.090909094 1112:0.090909094 #
-216.0434711476933955509593943134 435:0.025641026 588:0.025641026 643:0.025641026 1095:0.025641026 1269:0.025641026 #
-41.459727759849350547938229283318 332:0.071428575 992:0.071428575 1138:0.071428575 #
216.0434711476933955509593943134 29:0.025 45:0.025 58:0.025 83:0.025 485:0.025 508:0.025 1705:0.025 #
216.0434711476933955509593943134 34:0.025641026 493:0.025641026 826:0.025641026 1403:0.025641026 1506:0.025641026 2096:0.025641026 #
-216.0434711476933955509593943134 197:0.034482758 251:0.034482758 355:0.034482758 510:0.034482758 651:0.034482758 #
-216.0434711476933955509593943134 29:0.043478262 112:0.043478262 1481:0.043478262 1907:0.043478262 #
216.0434711476933955509593943134 21:0.05882353 385:0.05882353 #
216.0434711476933955509593943134 470:0.0125 544:0.0125 786:0.0125 1137:0.0125 1189:0.0125 1407:0.0125 2125:0.0125 2158:0.0125 2196:0.0125 2439:0.0125 #
98.452536463410709188792679924518 20:0.03125 492:0.03125 2009:0.03125 2186:0.03125 2682:0.03125 #
202.21333659835579510399838909507 1039:0.052631579 1156:0.052631579 1465:0.052631579 #
216.0434711476933955509593943134 35:0.012820513 149:0.012820513 183:0.012820513 191:0.012820513 395:0.012820513 1189:0.012820513 1354:0.025641026 1385:0.012820513 1573:0.012820513 1750:0.012820513 1881:0.012820513 2012:0.012820513 #
-174.82374080172837693680776283145 359:0.071428575 373:0.071428575 #
63.003191367003005041169672040269 499:0.028571429 981:0.028571429 1988:0.028571429 2060:0.028571429 2688:0.028571429 #
-216.0434711476933955509593943134 373:0.035714287 405:0.035714287 813:0.035714287 1759:0.035714287 1785:0.035714287 #
-216.0434711476933955509593943134 98:0.074074075 136:0.037037037 157:0.037037037 1450:0.037037037 1634:0.037037037 #
216.0434711476933955509593943134 373:0.125 472:0.125 #
216.0434711476933955509593943134 146:0.020408163 544:0.020408163 983:0.020408163 1085:0.020408163 1143:0.020408163 1171:0.020408163 2219:0.020408163 #
85.126550966542723131169623229653 23:0.05882353 1471:0.05882353 #
216.0434711476933955509593943134 23:0.01754386 102:0.01754386 126:0.052631579 517:0.01754386 1507:0.01754386 2272:0.01754386 #
216.0434711476933955509593943134 160:0.019607844 209:0.019607844 414:0.019607844 864:0.019607844 931:0.019607844 1071:0.019607844 1260:0.019607844 1563:0.019607844 #
-216.0434711476933955509593943134 306:0.035714287 450:0.035714287 1078:0.035714287 1951:0.035714287 #
174.30295125845952952658990398049 98:0.083333336 933:0.083333336 #
27.378609812189765193579660262913 98:0.02631579 1399:0.02631579 1403:0.02631579 1769:0.02631579 2284:0.02631579 #
170.4525668694330420294136274606 13:0.011627907 91:0.011627907 98:0.011627907 212:0.023255814 267:0.011627907 472:0.011627907 1457:0.011627907 1462:0.011627907 2017:0.011627907 2042:0.011627907 2043:0.011627907 #
-216.0434711476933955509593943134 1562:0.14285715 #
-216.0434711476933955509593943134 98:0.1 806:0.1 #
-89.381365312815603374474449083209 38:0.050000001 124:0.050000001 947:0.050000001 #
216.0434711476933955509593943134 23:0.010309278 139:0.010309278 205:0.010309278 482:0.010309278 976:0.010309278 983:0.010309278 1883:0.010309278 1939:0.010309278 2269:0.010309278 2436:0.010309278 #
-216.0434711476933955509593943134 98:0.071428575 704:0.071428575 #
216.0434711476933955509593943134 38:0.1 350:0.1 #
-216.0434711476933955509593943134 38:0.023809524 95:0.023809524 933:0.023809524 1163:0.023809524 1231:0.023809524 1769:0.023809524 #
216.0434711476933955509593943134 43:0.050000001 98:0.050000001 510:0.050000001 #
-216.0434711476933955509593943134 98:0.1 1354:0.1 #
216.0434711476933955509593943134 218:0.018181818 257:0.018181818 267:0.018181818 453:0.018181818 591:0.018181818 788:0.018181818 1527:0.018181818 2138:0.018181818 #
-25.52482451089460369075823109597 394:0.02631579 546:0.02631579 552:0.02631579 607:0.02631579 742:0.078947365 #
-216.0434711476933955509593943134 43:0.0625 1507:0.0625 #
-88.643748828040813236839312594384 31:0.02 154:0.02 172:0.02 1149:0.02 1524:0.02 1722:0.02 1901:0.02 #
216.0434711476933955509593943134 18:0.020833334 98:0.020833334 287:0.020833334 620:0.020833334 704:0.020833334 809:0.020833334 #
-105.58932111137765730290993815288 475:0.07692308 1607:0.07692308 #
-216.0434711476933955509593943134 38:0.055555556 620:0.055555556 647:0.055555556 #
-216.0434711476933955509593943134 29:0.0625 38:0.0625 552:0.0625 #
216.0434711476933955509593943134 98:0.0076923077 104:0.0076923077 254:0.0076923077 314:0.0076923077 350:0.0076923077 399:0.0076923077 490:0.0076923077 514:0.0076923077 729:0.0076923077 777:0.0076923077 920:0.0076923077 1142:0.0076923077 1221:0.0076923077 1562:0.0076923077 1720:0.0076923077 2465:0.0076923077 #
216.0434711476933955509593943134 34:0.016949153 157:0.016949153 491:0.016949153 914:0.016949153 1269:0.016949153 1407:0.016949153 1851:0.016949153 #
-216.0434711476933955509593943134 34:0.2 #
-216.0434711476933955509593943134 306:0.055555556 350:0.055555556 1226:0.055555556 #
-216.0434711476933955509593943134 31:0.047619049 157:0.047619049 999:0.047619049 1402:0.047619049 #
-216.0434711476933955509593943134 31:0.052631579 157:0.052631579 469:0.052631579 #
-135.6027185802030317063326947391 13:0.016666668 31:0.016666668 157:0.016666668 256:0.016666668 280:0.016666668 391:0.016666668 1189:0.016666668 1370:0.016666668 1906:0.016666668 #
216.0434711476933955509593943134 29:0.043478262 98:0.043478262 199:0.043478262 334:0.043478262 #
216.0434711476933955509593943134 306:0.034482758 483:0.034482758 550:0.034482758 612:0.034482758 2378:0.034482758 #
-168.47503193879998661941499449313 29:0.017857144 33:0.017857144 157:0.017857144 198:0.017857144 256:0.017857144 257:0.017857144 318:0.017857144 1407:0.017857144 1422:0.017857144 #
-117.17005143073509998430381529033 172:0.0625 199:0.0625 1663:0.0625 #
-216.0434711476933955509593943134 199:0.05882353 1090:0.05882353 #
-216.0434711476933955509593943134 199:0.05882353 682:0.05882353 1912:0.05882353 #
-216.0434711476933955509593943134 29:0.03846154 123:0.03846154 199:0.03846154 218:0.03846154 560:0.03846154 #
122.35987964378038839186046971008 38:0.02631579 210:0.02631579 267:0.02631579 530:0.02631579 607:0.02631579 1044:0.02631579 #
216.0434711476933955509593943134 34:0.022727273 83:0.022727273 98:0.022727273 323:0.022727273 660:0.022727273 995:0.022727273 1354:0.022727273 #
216.0434711476933955509593943134 38:0.028571429 267:0.028571429 274:0.028571429 513:0.028571429 552:0.028571429 1718:0.028571429 #
-216.0434711476933955509593943134 38:0.015625 64:0.015625 130:0.015625 143:0.015625 206:0.015625 377:0.015625 710:0.015625 1399:0.015625 1655:0.015625 #
-216.0434711476933955509593943134 98:0.083333336 314:0.083333336 #
216.0434711476933955509593943134 148:0.014285714 223:0.014285714 225:0.014285714 283:0.014285714 306:0.014285714 310:0.014285714 426:0.014285714 678:0.014285714 1073:0.014285714 1118:0.014285714 2527:0.014285714 #
-216.0434711476933955509593943134 83:0.090909094 1364:0.090909094 #
-216.0434711476933955509593943134 83:0.039999999 883:0.039999999 1178:0.039999999 #
-216.0434711476933955509593943134 83:0.035714287 172:0.035714287 245:0.035714287 1178:0.035714287 1179:0.035714287 #
-110.26925448679627095316391205415 95:0.06666667 1201:0.06666667 #
216.0434711476933955509593943134 98:0.037037037 242:0.037037037 248:0.037037037 1239:0.037037037 1402:0.037037037 #
216.0434711476933955509593943134 114:0.012195121 492:0.012195121 614:0.012195121 1178:0.012195121 1484:0.012195121 1640:0.012195121 2231:0.012195121 2232:0.012195121 2316:0.012195121 #
216.0434711476933955509593943134 98:0.06666667 262:0.06666667 1270:0.06666667 #
-216.0434711476933955509593943134 98:0.071428575 349:0.071428575 409:0.071428575 #
-216.0434711476933955509593943134 98:0.043478262 807:0.043478262 1238:0.043478262 1239:0.043478262 #
216.0434711476933955509593943134 38:0.017857144 126:0.017857144 132:0.017857144 205:0.017857144 562:0.035714287 634:0.017857144 1554:0.017857144 1984:0.017857144 2449:0.017857144 #
216.0434711476933955509593943134 29:0.025641026 35:0.025641026 38:0.025641026 127:0.025641026 137:0.025641026 2118:0.025641026 #
-216.0434711476933955509593943134 126:0.090909094 414:0.090909094 #
-216.0434711476933955509593943134 262:0.11111111 293:0.11111111 #
-216.0434711476933955509593943134 470:0.07692308 687:0.07692308 #
115.39622451202023967198329046369 116:0.017857144 130:0.017857144 265:0.017857144 511:0.017857144 1868:0.017857144 2068:0.017857144 2628:0.017857144 2629:0.017857144 #
216.0434711476933955509593943134 118:0.055555556 492:0.055555556 807:0.055555556 #
-216.0434711476933955509593943134 1189:0.090909094 1891:0.090909094 #
-216.0434711476933955509593943134 29:0.055555556 739:0.055555556 740:0.055555556 #
216.0434711476933955509593943134 98:0.020833334 347:0.020833334 472:0.020833334 981:0.020833334 1059:0.020833334 1110:0.020833334 1268:0.020833334 1309:0.020833334 #
-216.0434711476933955509593943134 8:0.052631579 38:0.052631579 846:0.052631579 #
-68.02245801288529492012457922101 38:0.0625 1269:0.0625 #
216.0434711476933955509593943134 98:0.045454547 123:0.045454547 298:0.045454547 2609:0.045454547 #
216.0434711476933955509593943134 98:0.017241379 114:0.017241379 242:0.017241379 253:0.017241379 408:0.017241379 712:0.017241379 2192:0.017241379 2316:0.017241379 #
-216.0434711476933955509593943134 98:0.0625 441:0.0625 786:0.0625 #
-216.0434711476933955509593943134 95:0.029411765 98:0.05882353 502:0.029411765 1563:0.029411765 1911:0.029411765 #
-216.0434711476933955509593943134 38:0.2 #
-216.0434711476933955509593943134 306:0.050000001 349:0.050000001 1193:0.050000001 #
-216.0434711476933955509593943134 8:0.06818182 91:0.022727273 498:0.022727273 1321:0.022727273 1322:0.022727273 #
216.0434711476933955509593943134 306:0.025641026 441:0.025641026 914:0.025641026 1439:0.025641026 2200:0.025641026 #
216.0434711476933955509593943134 126:0.012820513 306:0.012820513 417:0.012820513 425:0.012820513 556:0.012820513 1236:0.012820513 1407:0.012820513 1462:0.012820513 2631:0.012820513 2758:0.012820513 #
-216.0434711476933955509593943134 306:0.07692308 535:0.15384616 #
-216.0434711476933955509593943134 914:0.083333336 #
-216.0434711476933955509593943134 556:0.125 #
-216.0434711476933955509593943134 8:0.047619049 266:0.047619049 267:0.047619049 268:0.047619049 #
-85.231500967134181223627820145339 204:0.029411765 826:0.029411765 1394:0.029411765 1731:0.029411765 #
216.0434711476933955509593943134 20:0.025 98:0.025 294:0.025 499:0.025 865:0.025 1071:0.025 #
-180.91378507354710336585412733257 98:0.027027028 103:0.027027028 299:0.027027028 373:0.054054055 885:0.027027028 1364:0.027027028 #
-216.0434711476933955509593943134 98:0.043478262 197:0.043478262 294:0.043478262 373:0.043478262 801:0.043478262 #
-216.0434711476933955509593943134 8:0.083333336 864:0.083333336 #
216.0434711476933955509593943134 157:0.01754386 242:0.01754386 311:0.01754386 370:0.01754386 408:0.01754386 731:0.01754386 987:0.01754386 1294:0.01754386 1312:0.01754386 2095:0.01754386 #
-216.0434711476933955509593943134 414:0.05882353 512:0.05882353 826:0.05882353 #
-102.61023280747731689643842400983 118:0.090909094 1041:0.090909094 #
-216.0434711476933955509593943134 826:0.06666667 1731:0.06666667 #
216.0434711476933955509593943134 98:0.045454547 103:0.045454547 720:0.045454547 999:0.045454547 #
-216.0434711476933955509593943134 49:0.030303031 66:0.030303031 130:0.030303031 311:0.030303031 720:0.060606062 #
-216.0434711476933955509593943134 45:0.03125 68:0.03125 98:0.03125 206:0.03125 720:0.03125 #
-214.90502899051114127360051497817 786:0.055555556 999:0.11111111 1705:0.055555556 #
-216.0434711476933955509593943134 414:0.090909094 1301:0.090909094 #
-204.33347787197564571215480100363 223:0.090909094 414:0.090909094 #
127.83291705916109037843853002414 29:0.020833334 98:0.020833334 183:0.020833334 267:0.020833334 361:0.020833334 612:0.020833334 637:0.020833334 2679:0.020833334 #
216.0434711476933955509593943134 98:0.045454547 172:0.045454547 1706:0.045454547 2096:0.045454547 #
-216.0434711476933955509593943134 1706:0.16666667 #
-72.146348714340660990274045616388 132:0.02631579 170:0.02631579 733:0.02631579 904:0.02631579 1886:0.02631579 #
-216.0434711476933955509593943134 98:0.0625 204:0.0625 492:0.0625 #
216.0434711476933955509593943134 66:0.022727273 126:0.022727273 306:0.022727273 1011:0.022727273 1221:0.022727273 1299:0.022727273 #
-51.034017076559074155284179141745 1221:0.2 #
216.0434711476933955509593943134 116:0.0099999998 218:0.0099999998 310:0.0099999998 467:0.0099999998 605:0.0099999998 645:0.0099999998 1160:0.0099999998 1224:0.0099999998 1506:0.0099999998 1564:0.0099999998 2060:0.0099999998 2201:0.0099999998 2335:0.0099999998 #
-16.971614250843149562797407270409 421:0.03846154 517:0.03846154 893:0.03846154 980:0.03846154 #
216.0434711476933955509593943134 98:0.014285714 212:0.014285714 651:0.014285714 753:0.014285714 2037:0.014285714 2279:0.014285714 2661:0.014285714 2744:0.014285714 #
25.396083228277529286742719705217 67:0.029411765 95:0.029411765 384:0.029411765 1462:0.029411765 #
65.981885636615857038123067468405 807:0.023809524 1775:0.023809524 1948:0.023809524 2405:0.023809524 2484:0.023809524 #
-118.65994038486383033159654587507 98:0.071428575 234:0.035714287 1181:0.035714287 1476:0.035714287 #
-25.234990750221761857119417982176 38:0.043478262 767:0.043478262 949:0.043478262 1642:0.043478262 #
216.0434711476933955509593943134 120:0.015151516 160:0.015151516 257:0.015151516 470:0.015151516 492:0.015151516 612:0.015151516 688:0.015151516 864:0.015151516 1573:0.015151516 2425:0.015151516 #
13.283206540717921839700466080103 98:0.016129032 149:0.016129032 457:0.016129032 610:0.016129032 1037:0.032258064 1405:0.016129032 2192:0.016129032 2460:0.016129032 2461:0.016129032 #
-216.0434711476933955509593943134 69:0.035714287 610:0.035714287 1208:0.035714287 #
-216.0434711476933955509593943134 38:0.018867925 89:0.018867925 183:0.018867925 267:0.018867925 298:0.018867925 314:0.018867925 1918:0.018867925 1928:0.018867925 #
216.0434711476933955509593943134 98:0.055555556 126:0.055555556 741:0.055555556 #
-216.0434711476933955509593943134 98:0.027777778 126:0.055555556 651:0.027777778 1189:0.027777778 1865:0.027777778 #
-216.0434711476933955509593943134 98:0.045454547 126:0.045454547 860:0.045454547 #
-182.18507682348149501194711774588 98:0.071428575 1791:0.071428575 #
-88.367849907693923228180210571736 332:0.055555556 356:0.055555556 807:0.055555556 #
216.0434711476933955509593943134 98:0.041666668 120:0.041666668 126:0.041666668 1577:0.041666668 #
216.0434711476933955509593943134 98:0.03125 126:0.03125 284:0.03125 287:0.03125 313:0.03125 #
-216.0434711476933955509593943134 98:0.25 #
216.0434711476933955509593943134 21:0.021739131 123:0.021739131 191:0.021739131 216:0.021739131 807:0.021739131 1399:0.021739131 #
-216.0434711476933955509593943134 98:0.052631579 385:0.052631579 759:0.052631579 #
216.0434711476933955509593943134 13:0.030303031 83:0.015151516 127:0.015151516 451:0.015151516 544:0.015151516 1482:0.015151516 1812:0.015151516 2135:0.015151516 2150:0.015151516 #
216.0434711476933955509593943134 98:0.015384615 780:0.015384615 891:0.015384615 1086:0.015384615 1677:0.015384615 1832:0.015384615 2240:0.015384615 #
216.0434711476933955509593943134 98:0.024390243 100:0.024390243 132:0.024390243 457:0.024390243 1883:0.024390243 2292:0.024390243 #
216.0434711476933955509593943134 98:0.027027028 434:0.027027028 587:0.027027028 624:0.027027028 1188:0.027027028 2343:0.027027028 #
216.0434711476933955509593943134 98:0.018867925 130:0.018867925 457:0.018867925 531:0.018867925 967:0.018867925 1961:0.018867925 2137:0.018867925 2596:0.018867925 2712:0.018867925 #
-58.252727690884896105671941768378 140:0.017241379 145:0.017241379 391:0.017241379 699:0.017241379 1026:0.017241379 1224:0.017241379 1783:0.017241379 #
-216.0434711476933955509593943134 45:0.045454547 98:0.045454547 587:0.045454547 593:0.045454547 #
-216.0434711476933955509593943134 98:0.033333335 137:0.033333335 143:0.033333335 310:0.033333335 350:0.033333335 #
-216.0434711476933955509593943134 31:0.027027028 45:0.027027028 160:0.027027028 439:0.027027028 976:0.027027028 1135:0.027027028 1171:0.027027028 #
-216.0434711476933955509593943134 38:0.090909094 1123:0.090909094 #
216.0434711476933955509593943134 98:0.034482758 287:0.034482758 414:0.034482758 525:0.034482758 686:0.034482758 #
216.0434711476933955509593943134 25:0.021276595 98:0.021276595 472:0.021276595 568:0.021276595 1889:0.021276595 2283:0.021276595 #
76.530063984196615933797147590667 120:0.029411765 287:0.029411765 483:0.029411765 2039:0.029411765 2491:0.029411765 #
-216.0434711476933955509593943134 472:0.05882353 865:0.05882353 1176:0.05882353 #
-216.0434711476933955509593943134 66:0.014705882 135:0.014705882 187:0.014705882 204:0.014705882 370:0.014705882 378:0.014705882 686:0.014705882 875:0.014705882 876:0.014705882 #
216.0434711476933955509593943134 111:0.018867925 315:0.018867925 347:0.018867925 731:0.018867925 2124:0.018867925 2146:0.018867925 2582:0.018867925 2590:0.018867925 #
-216.0434711476933955509593943134 278:0.027027028 602:0.027027028 888:0.027027028 1064:0.027027028 1782:0.027027028 #
216.0434711476933955509593943134 306:0.07692308 344:0.07692308 #
-216.0434711476933955509593943134 556:0.125 #
-216.0434711476933955509593943134 782:0.035714287 892:0.035714287 1074:0.035714287 1868:0.035714287 #
-216.0434711476933955509593943134 612:0.052631579 935:0.052631579 1041:0.052631579 #
-216.0434711476933955509593943134 273:0.015151516 274:0.015151516 388:0.015151516 605:0.015151516 735:0.015151516 969:0.015151516 1193:0.015151516 1763:0.015151516 #
216.0434711476933955509593943134 13:0.017857144 83:0.017857144 451:0.017857144 979:0.017857144 1034:0.017857144 1093:0.017857144 1189:0.017857144 1512:0.035714287 #
216.0434711476933955509593943134 98:0.052631579 1715:0.052631579 1824:0.052631579 #
216.0434711476933955509593943134 98:0.021276595 388:0.021276595 893:0.021276595 914:0.021276595 1629:0.021276595 1978:0.021276595 #
-216.0434711476933955509593943134 45:0.0625 196:0.0625 759:0.0625 #
-13.344312828515704438814282184467 803:0.07692308 1824:0.07692308 #
-216.0434711476933955509593943134 34:0.032258064 98:0.032258064 414:0.032258064 1035:0.032258064 1062:0.032258064 #
-216.0434711476933955509593943134 45:0.021739131 46:0.021739131 125:0.021739131 205:0.021739131 296:0.021739131 350:0.021739131 792:0.021739131 864:0.021739131 #
-216.0434711476933955509593943134 90:0.028571429 306:0.028571429 313:0.028571429 485:0.028571429 762:0.028571429 #
216.0434711476933955509593943134 38:0.012345679 66:0.012345679 98:0.012345679 144:0.012345679 211:0.012345679 242:0.012345679 556:0.012345679 864:0.012345679 1155:0.012345679 1156:0.012345679 2470:0.012345679 #
-216.0434711476933955509593943134 37:0.05882353 969:0.05882353 1112:0.05882353 #
-216.0434711476933955509593943134 6:0.027777778 29:0.027777778 85:0.027777778 89:0.027777778 98:0.055555556 1947:0.027777778 #
-216.0434711476933955509593943134 98:0.052631579 499:0.02631579 636:0.02631579 1371:0.02631579 #
216.0434711476933955509593943134 38:0.2 #
216.0434711476933955509593943134 29:0.03846154 98:0.03846154 542:0.07692308 859:0.03846154 #
216.0434711476933955509593943134 48:0.021276595 98:0.021276595 562:0.021276595 1422:0.021276595 1536:0.021276595 2293:0.021276595 2731:0.021276595 #
183.9733509738374834796559298411 98:0.050000001 781:0.050000001 2553:0.050000001 #
-216.0434711476933955509593943134 536:0.33333334 #
-216.0434711476933955509593943134 781:0.25 #
-216.0434711476933955509593943134 188:0.083333336 215:0.083333336 #
-216.0434711476933955509593943134 126:0.047619049 659:0.047619049 1493:0.047619049 #
-144.86923633928742560783575754613 66:0.041666668 126:0.041666668 373:0.041666668 1623:0.041666668 #
216.0434711476933955509593943134 29:0.011111111 98:0.011111111 257:0.011111111 603:0.011111111 922:0.011111111 1034:0.011111111 1211:0.011111111 2137:0.011111111 2309:0.011111111 2493:0.011111111 2539:0.011111111 #
216.0434711476933955509593943134 306:0.07692308 536:0.15384616 #
90.484582883630082505987957119942 98:0.050000001 751:0.050000001 1223:0.050000001 2403:0.050000001 #
216.0434711476933955509593943134 100:0.021739131 126:0.021739131 160:0.021739131 516:0.021739131 1195:0.021739131 1464:0.021739131 #
-216.0434711476933955509593943134 98:0.06666667 1536:0.06666667 1693:0.06666667 #
-216.0434711476933955509593943134 59:0.035714287 98:0.035714287 248:0.035714287 477:0.035714287 #
-123.50925597891890106438950169832 98:0.06666667 927:0.06666667 #
-129.91404247094118318273103795946 38:0.014492754 95:0.014492754 120:0.014492754 160:0.014492754 279:0.014492754 355:0.014492754 1187:0.014492754 1197:0.014492754 1326:0.014492754 #
216.0434711476933955509593943134 93:0.047619049 98:0.047619049 215:0.047619049 449:0.047619049 #
216.0434711476933955509593943134 98:0.045454547 477:0.045454547 1161:0.045454547 #
-216.0434711476933955509593943134 2:0.010869565 310:0.010869565 339:0.010869565 343:0.010869565 550:0.010869565 667:0.010869565 744:0.010869565 807:0.010869565 933:0.010869565 1679:0.010869565 1717:0.010869565 1866:0.010869565 #
216.0434711476933955509593943134 66:0.022727273 98:0.022727273 172:0.022727273 248:0.022727273 414:0.022727273 610:0.022727273 680:0.022727273 #
-216.0434711476933955509593943134 59:0.013333334 98:0.013333334 100:0.013333334 139:0.013333334 155:0.013333334 347:0.013333334 451:0.013333334 680:0.013333334 1042:0.013333334 1541:0.013333334 #
-144.20860573310798713464464526623 98:0.023255814 130:0.023255814 333:0.023255814 428:0.023255814 969:0.023255814 1285:0.023255814 #
-216.0434711476933955509593943134 7:0.037037037 98:0.037037037 1436:0.037037037 1563:0.037037037 #
-216.0434711476933955509593943134 20:0.023255814 98:0.023255814 157:0.023255814 191:0.023255814 196:0.023255814 731:0.023255814 1030:0.023255814 1859:0.023255814 #
-216.0434711476933955509593943134 38:0.043478262 126:0.043478262 1223:0.043478262 1557:0.043478262 #
-53.967257914685561104306543711573 8:0.052631579 450:0.052631579 1878:0.052631579 #
216.0434711476933955509593943134 66:0.02 98:0.02 307:0.02 386:0.02 729:0.02 831:0.02 2613:0.02 #
216.0434711476933955509593943134 477:0.02 1004:0.02 1112:0.02 1191:0.02 1458:0.02 1939:0.02 2173:0.02 #
-216.0434711476933955509593943134 536:0.2857143 #
-216.0434711476933955509593943134 306:0.047619049 858:0.047619049 1540:0.047619049 #
154.19493079734820639714598655701 98:0.024390243 1086:0.024390243 1195:0.024390243 2174:0.024390243 2175:0.024390243 #
-216.0434711476933955509593943134 157:0.014084507 197:0.014084507 198:0.014084507 267:0.014084507 274:0.014084507 481:0.014084507 513:0.014084507 545:0.014084507 632:0.014084507 741:0.014084507 1064:0.014084507 1610:0.014084507 #
-216.0434711476933955509593943134 14:0.050000001 66:0.050000001 1634:0.050000001 #
-216.0434711476933955509593943134 98:0.047619049 218:0.047619049 366:0.047619049 831:0.047619049 #
-62.890919237517124429359682835639 98:0.06666667 715:0.06666667 #
-216.0434711476933955509593943134 98:0.06666667 1384:0.06666667 #
-216.0434711476933955509593943134 38:0.052631579 300:0.052631579 426:0.052631579 #
-64.154210122608333222160581499338 98:0.041666668 314:0.041666668 1654:0.041666668 #
216.0434711476933955509593943134 29:0.024390243 98:0.024390243 126:0.024390243 257:0.024390243 1232:0.024390243 1483:0.024390243 2738:0.024390243 #
-216.0434711476933955509593943134 21:0.025641026 98:0.025641026 157:0.025641026 298:0.025641026 318:0.025641026 1516:0.025641026 #
-216.0434711476933955509593943134 98:0.027027028 126:0.027027028 414:0.027027028 465:0.027027028 1635:0.027027028 1937:0.027027028 #
-118.92308911646554747676418628544 98:0.041666668 157:0.041666668 238:0.041666668 491:0.041666668 #
216.0434711476933955509593943134 40:0.03846154 132:0.03846154 146:0.03846154 859:0.03846154 #
-216.0434711476933955509593943134 136:0.025641026 149:0.051282052 741:0.025641026 834:0.025641026 984:0.025641026 1434:0.025641026 #
86.528877243857323264819569885731 403:0.01923077 729:0.01923077 1713:0.01923077 2290:0.01923077 2557:0.01923077 2585:0.01923077 #
216.0434711476933955509593943134 98:0.045454547 1572:0.045454547 2586:0.045454547 #
216.0434711476933955509593943134 38:0.01754386 98:0.01754386 537:0.01754386 581:0.01754386 1181:0.01754386 1335:0.01754386 1867:0.01754386 1872:0.01754386 #
216.0434711476933955509593943134 104:0.032258064 127:0.032258064 306:0.032258064 859:0.032258064 2447:0.032258064 #
216.0434711476933955509593943134 59:0.015384615 87:0.030769231 98:0.030769231 544:0.015384615 1068:0.015384615 1340:0.015384615 1634:0.015384615 2189:0.015384615 #
-175.24670748709070267068454995751 859:0.2 #
-216.0434711476933955509593943134 98:0.01754386 172:0.01754386 201:0.01754386 296:0.01754386 583:0.01754386 674:0.01754386 1020:0.01754386 1078:0.01754386 1558:0.01754386 #
-216.0434711476933955509593943134 100:0.021276595 172:0.021276595 242:0.021276595 438:0.021276595 510:0.021276595 610:0.021276595 611:0.021276595 #
-216.0434711476933955509593943134 45:0.023809524 98:0.023809524 537:0.023809524 542:0.023809524 1141:0.023809524 1469:0.023809524 1574:0.023809524 #
216.0434711476933955509593943134 98:0.046511628 149:0.023255814 283:0.023255814 472:0.023255814 477:0.023255814 1814:0.023255814 2520:0.023255814 #
-43.700239173938243197881092783064 130:0.041666668 886:0.041666668 1919:0.041666668 1970:0.041666668 #
-166.69464134266218025004491209984 111:0.05882353 306:0.05882353 1322:0.05882353 #
-99.572917253521822544826136436313 98:0.03125 155:0.03125 157:0.03125 306:0.03125 1870:0.03125 #
-216.0434711476933955509593943134 29:0.030303031 257:0.030303031 306:0.030303031 1402:0.030303031 1403:0.030303031 #
-21.645594317421615215835117851384 201:0.083333336 202:0.083333336 #
-216.0434711476933955509593943134 21:0.025641026 98:0.025641026 183:0.025641026 251:0.025641026 612:0.025641026 1300:0.025641026 #
-216.0434711476933955509593943134 98:0.0625 1654:0.0625 #
-48.036043961760583442810457199812 98:0.0625 921:0.0625 1716:0.0625 #
7.5073630824758268431651231367141 735:0.027777778 779:0.027777778 854:0.027777778 2019:0.027777778 2624:0.027777778 #
216.0434711476933955509593943134 208:0.022727273 216:0.022727273 306:0.022727273 431:0.022727273 725:0.022727273 1175:0.022727273 2116:0.022727273 #
-161.56099753156115639285417273641 38:0.010989011 125:0.010989011 294:0.010989011 406:0.010989011 1047:0.010989011 1107:0.010989011 1152:0.010989011 1238:0.010989011 1634:0.010989011 1637:0.010989011 1638:0.010989011 1639:0.010989011 #
-205.68726832471571697169565595686 710:0.2 #
-216.0434711476933955509593943134 306:0.043478262 826:0.043478262 1415:0.043478262 #
149.81157910811768374514940660447 13:0.023255814 98:0.023255814 314:0.023255814 414:0.023255814 1302:0.023255814 2295:0.023255814 2358:0.023255814 #
216.0434711476933955509593943134 98:0.047619049 1395:0.047619049 1402:0.047619049 #
216.0434711476933955509593943134 13:0.010638298 59:0.010638298 687:0.010638298 873:0.010638298 978:0.010638298 983:0.010638298 1231:0.010638298 1354:0.010638298 1679:0.010638298 1750:0.010638298 2110:0.010638298 #
-216.0434711476933955509593943134 98:0.039999999 349:0.039999999 468:0.039999999 1395:0.039999999 #
216.0434711476933955509593943134 254:0.027777778 261:0.027777778 306:0.027777778 1469:0.027777778 2003:0.027777778 #
-216.0434711476933955509593943134 100:0.041666668 725:0.041666668 1383:0.041666668 1479:0.041666668 #
-216.0434711476933955509593943134 98:0.023809524 729:0.023809524 941:0.023809524 1142:0.023809524 1464:0.023809524 #
216.0434711476933955509593943134 208:0.039999999 306:0.039999999 1529:0.039999999 2254:0.039999999 #
32.183870796015888515739788999781 125:0.024390243 1026:0.024390243 1471:0.024390243 2144:0.024390243 2434:0.024390243 #
216.0434711476933955509593943134 29:0.015384615 72:0.015384615 281:0.015384615 552:0.015384615 1985:0.015384615 2053:0.015384615 2354:0.015384615 2671:0.015384615 #
196.55463211521063726650027092546 98:0.020833334 193:0.020833334 439:0.020833334 914:0.020833334 2266:0.020833334 2690:0.020833334 #
-27.519720240825964907571687945165 94:0.029411765 306:0.029411765 361:0.029411765 402:0.029411765 1387:0.029411765 #
146.25430982695914394753344822675 98:0.045454547 464:0.090909094 1143:0.045454547 1581:0.045454547 #
216.0434711476933955509593943134 281:0.014492754 288:0.014492754 299:0.014492754 422:0.014492754 612:0.014492754 1335:0.014492754 2023:0.014492754 2312:0.014492754 2457:0.014492754 #
111.78855052679244863611529581249 98:0.047619049 379:0.047619049 837:0.047619049 #
-150.7253860125741482534067472443 98:0.022222223 205:0.022222223 311:0.022222223 414:0.022222223 1498:0.022222223 1499:0.022222223 1819:0.022222223 #
125.81606965813296028500190004706 98:0.035714287 300:0.035714287 1218:0.035714287 2740:0.035714287 #
216.0434711476933955509593943134 98:0.013513514 115:0.013513514 171:0.013513514 425:0.013513514 433:0.013513514 511:0.013513514 643:0.013513514 710:0.013513514 1086:0.013513514 2003:0.013513514 2080:0.013513514 #
216.0434711476933955509593943134 66:0.032258064 257:0.032258064 287:0.032258064 385:0.032258064 525:0.032258064 #
-216.0434711476933955509593943134 464:0.18181819 #
60.977704358871207546144432853907 125:0.035714287 178:0.035714287 209:0.035714287 349:0.035714287 2527:0.035714287 #
-123.71097194377962580347229959443 42:0.018181818 305:0.018181818 446:0.018181818 596:0.018181818 731:0.018181818 741:0.018181818 1113:0.018181818 1801:0.018181818 #
-216.0434711476933955509593943134 278:0.03846154 279:0.03846154 651:0.03846154 714:0.03846154 #
-216.0434711476933955509593943134 446:0.018181818 471:0.018181818 651:0.018181818 802:0.018181818 1418:0.018181818 1840:0.018181818 1841:0.018181818 #
-216.0434711476933955509593943134 98:0.05882353 326:0.05882353 412:0.05882353 #
216.0434711476933955509593943134 12:0.018181818 114:0.018181818 242:0.018181818 800:0.018181818 1738:0.018181818 2248:0.018181818 2326:0.018181818 #
216.0434711476933955509593943134 40:0.014084507 98:0.014084507 110:0.014084507 157:0.014084507 826:0.014084507 1027:0.014084507 1533:0.014084507 1692:0.014084507 2102:0.014084507 2579:0.014084507 2758:0.014084507 #
-102.13065761464848435480234911665 70:0.032258064 103:0.032258064 348:0.032258064 367:0.032258064 832:0.032258064 #
-84.517621949506661849227384664118 418:0.029411765 904:0.029411765 989:0.029411765 1395:0.029411765 #
-216.0434711476933955509593943134 136:0.014285714 172:0.014285714 227:0.014285714 601:0.014285714 675:0.014285714 985:0.014285714 999:0.014285714 1058:0.014285714 1419:0.014285714 1561:0.014285714 1874:0.014285714 #
-216.0434711476933955509593943134 93:0.090909094 1360:0.090909094 #
-216.0434711476933955509593943134 29:0.047619049 257:0.047619049 779:0.047619049 1831:0.047619049 #
-216.0434711476933955509593943134 915:0.050000001 1263:0.050000001 1264:0.050000001 #
98.138824910986940608381701167673 98:0.052631579 366:0.02631579 516:0.02631579 1363:0.02631579 2336:0.02631579 #
-216.0434711476933955509593943134 125:0.027027028 134:0.027027028 432:0.027027028 616:0.027027028 782:0.027027028 1354:0.027027028 #
-68.043831520970400106307351961732 1581:0.16666667 #
-216.0434711476933955509593943134 449:0.03125 483:0.03125 790:0.03125 1089:0.03125 1814:0.03125 #
-136.17872831426083735095744486898 11:0.06666667 1156:0.06666667 #
-187.77864223570179547095904126763 385:0.07692308 1670:0.07692308 #
-216.0434711476933955509593943134 394:0.027027028 399:0.027027028 451:0.027027028 585:0.027027028 872:0.027027028 1039:0.027027028 #
216.0434711476933955509593943134 38:0.014492754 193:0.014492754 439:0.014492754 605:0.014492754 607:0.014492754 1645:0.014492754 2470:0.014492754 2698:0.014492754 #
-16.478695160902304905903292819858 38:0.047619049 242:0.047619049 414:0.047619049 687:0.047619049 #
216.0434711476933955509593943134 98:0.014084507 149:0.014084507 157:0.014084507 306:0.028169014 318:0.014084507 377:0.014084507 790:0.014084507 941:0.014084507 1288:0.014084507 2123:0.014084507 2627:0.014084507 #
-216.0434711476933955509593943134 98:0.023255814 170:0.023255814 265:0.023255814 291:0.023255814 306:0.023255814 1016:0.023255814 #
-216.0434711476933955509593943134 98:0.043478262 425:0.043478262 691:0.043478262 822:0.043478262 #
-216.0434711476933955509593943134 98:0.028571429 112:0.028571429 194:0.028571429 296:0.028571429 906:0.028571429 #
-216.0434711476933955509593943134 23:0.029411765 98:0.029411765 726:0.029411765 727:0.029411765 #
-75.756934386225537991776946000755 98:0.022727273 125:0.022727273 508:0.022727273 910:0.022727273 917:0.022727273 1090:0.022727273 #
-216.0434711476933955509593943134 38:0.018181818 66:0.018181818 82:0.018181818 254:0.018181818 591:0.018181818 1300:0.018181818 1462:0.018181818 #
-38.134049572183279508408304536715 126:0.039999999 373:0.039999999 452:0.039999999 998:0.039999999 #
-216.0434711476933955509593943134 98:0.037037037 385:0.037037037 1502:0.037037037 1760:0.037037037 #
-216.0434711476933955509593943134 3:0.0099999998 183:0.0099999998 223:0.0099999998 480:0.0099999998 542:0.0099999998 729:0.0099999998 772:0.02 891:0.0099999998 892:0.0099999998 893:0.0099999998 894:0.0099999998 895:0.0099999998 896:0.0099999998 897:0.0099999998 #
-216.0434711476933955509593943134 38:0.03846154 98:0.03846154 127:0.03846154 386:0.03846154 #
-216.0434711476933955509593943134 13:0.03846154 98:0.03846154 432:0.03846154 508:0.03846154 808:0.03846154 #
-216.0434711476933955509593943134 3:0.027777778 720:0.027777778 1009:0.027777778 1619:0.027777778 1878:0.027777778 #
-216.0434711476933955509593943134 50:0.028571429 457:0.028571429 472:0.028571429 1030:0.028571429 1309:0.028571429 1581:0.028571429 #
-167.13389630849201239470858126879 96:0.032258064 424:0.032258064 434:0.032258064 472:0.032258064 1412:0.032258064 #
36.366241824366710488902754150331 98:0.037037037 457:0.037037037 2647:0.037037037 2694:0.037037037 #
-216.0434711476933955509593943134 464:0.06666667 531:0.06666667 1166:0.06666667 #
-216.0434711476933955509593943134 93:0.025 193:0.025 1220:0.025 1262:0.025 #
-216.0434711476933955509593943134 98:0.020408163 154:0.020408163 283:0.020408163 601:0.020408163 900:0.020408163 1943:0.020408163 #
-216.0434711476933955509593943134 191:0.043478262 813:0.043478262 1158:0.043478262 1319:0.043478262 #
-216.0434711476933955509593943134 8:0.055555556 1161:0.055555556 #
-216.0434711476933955509593943134 19:0.012195121 21:0.012195121 23:0.012195121 254:0.012195121 344:0.012195121 350:0.012195121 477:0.012195121 537:0.012195121 997:0.012195121 1232:0.012195121 1566:0.012195121 1634:0.012195121 #
-216.0434711476933955509593943134 38:0.018518519 290:0.018518519 303:0.018518519 306:0.018518519 472:0.018518519 665:0.018518519 741:0.018518519 1678:0.018518519 #
-25.168673809132833696367015363649 14:0.012820513 125:0.012820513 157:0.012820513 290:0.012820513 291:0.012820513 292:0.012820513 293:0.012820513 294:0.012820513 295:0.012820513 296:0.012820513 297:0.012820513 298:0.012820513 #
-216.0434711476933955509593943134 29:0.027777778 58:0.027777778 98:0.027777778 451:0.027777778 1777:0.027777778 1778:0.027777778 #
-216.0434711476933955509593943134 8:0.030303031 98:0.030303031 127:0.030303031 441:0.030303031 1127:0.030303031 #
161.34741904930621103630983270705 122:0.015384615 223:0.015384615 1175:0.015384615 1705:0.015384615 1741:0.030769231 1802:0.015384615 2470:0.015384615 2617:0.015384615 2644:0.015384615 #
-216.0434711476933955509593943134 306:0.027027028 739:0.027027028 746:0.027027028 1051:0.027027028 1984:0.027027028 #
-216.0434711476933955509593943134 43:0.016129032 50:0.016129032 131:0.016129032 205:0.016129032 561:0.016129032 756:0.016129032 917:0.016129032 1562:0.016129032 #
180.80561148507945290475618094206 28:0.022727273 38:0.022727273 204:0.022727273 548:0.022727273 572:0.022727273 731:0.022727273 849:0.022727273 1087:0.022727273 #
197.71075724958740238434984348714 306:0.055555556 1397:0.055555556 2242:0.055555556 #
-88.331987495509793006931431591511 242:0.1 472:0.1 #
-25.049197207112150920238491380587 50:0.024390243 160:0.024390243 427:0.024390243 652:0.024390243 1516:0.024390243 1554:0.024390243 #
216.0434711476933955509593943134 786:0.33333334 #
216.0434711476933955509593943134 218:0.0125 254:0.0125 451:0.0125 686:0.0125 851:0.0125 983:0.0125 1055:0.0125 1267:0.0125 1636:0.0125 1688:0.0125 #
216.0434711476933955509593943134 198:0.090909094 1226:0.090909094 #
216.0434711476933955509593943134 38:0.035714287 1611:0.035714287 1831:0.035714287 1838:0.035714287 #
17.002919917448210185284551698714 731:0.25 #
96.874920366810528093992616049945 136:0.11111111 405:0.11111111 #
-216.0434711476933955509593943134 29:0.02 38:0.02 45:0.02 334:0.02 593:0.02 995:0.02 1032:0.02 #
216.0434711476933955509593943134 157:0.06666667 858:0.06666667 859:0.06666667 #
216.0434711476933955509593943134 1181:0.14285715 #
216.0434711476933955509593943134 112:0.052631579 314:0.052631579 414:0.052631579 #
216.0434711476933955509593943134 441:0.14285715 #
216.0434711476933955509593943134 127:0.07692308 130:0.07692308 #
216.0434711476933955509593943134 29:0.045454547 218:0.045454547 464:0.045454547 741:0.045454547 #
-6.8134226352383944202983911964111 195:0.023255814 206:0.023255814 394:0.023255814 464:0.023255814 688:0.023255814 1549:0.023255814 1742:0.023255814 #
216.0434711476933955509593943134 157:0.1 206:0.1 #
216.0434711476933955509593943134 45:0.11111111 414:0.11111111 #
216.0434711476933955509593943134 196:0.02631579 537:0.02631579 1004:0.02631579 1844:0.02631579 2154:0.02631579 #
216.0434711476933955509593943134 13:0.052631579 38:0.052631579 85:0.052631579 199:0.052631579 #
216.0434711476933955509593943134 38:0.052631579 839:0.052631579 2322:0.052631579 #
216.0434711476933955509593943134 38:0.027027028 87:0.013513514 172:0.013513514 298:0.013513514 414:0.027027028 687:0.081081077 1734:0.013513514 1852:0.013513514 2139:0.013513514 #
95.839771124714815186962368898094 293:0.06666667 2647:0.06666667 #
216.0434711476933955509593943134 204:0.071428575 771:0.071428575 #
216.0434711476933955509593943134 98:0.25 #
216.0434711476933955509593943134 31:0.041666668 311:0.041666668 1112:0.041666668 1360:0.041666668 #
216.0434711476933955509593943134 8:0.0088495575 68:0.0088495575 98:0.0088495575 282:0.0088495575 315:0.0088495575 477:0.0088495575 514:0.0088495575 602:0.0088495575 710:0.0088495575 1198:0.0088495575 1571:0.0088495575 1907:0.0088495575 2215:0.0088495575 2425:0.0088495575 2540:0.0088495575 #
216.0434711476933955509593943134 38:0.018181818 125:0.018181818 228:0.018181818 314:0.018181818 361:0.018181818 414:0.018181818 836:0.018181818 909:0.018181818 1338:0.018181818 2638:0.018181818 #
216.0434711476933955509593943134 38:0.041666668 120:0.041666668 1093:0.041666668 1907:0.041666668 #
216.0434711476933955509593943134 93:0.055555556 485:0.055555556 1360:0.055555556 #
216.0434711476933955509593943134 121:0.06666667 432:0.06666667 826:0.06666667 #
216.0434711476933955509593943134 1493:0.16666667 #
114.53654813182265570503659546375 172:0.015625 468:0.015625 1461:0.015625 1470:0.015625 1942:0.015625 2272:0.015625 2468:0.015625 #
216.0434711476933955509593943134 157:0.03846154 278:0.03846154 298:0.03846154 720:0.03846154 895:0.03846154 #
216.0434711476933955509593943134 13:0.039999999 83:0.039999999 1171:0.039999999 2256:0.039999999 #
216.0434711476933955509593943134 29:0.06666667 834:0.06666667 1052:0.06666667 #
216.0434711476933955509593943134 98:0.03846154 143:0.03846154 183:0.03846154 251:0.03846154 #
216.0434711476933955509593943134 215:0.090909094 266:0.090909094 #
216.0434711476933955509593943134 556:0.027777778 621:0.027777778 1221:0.027777778 1693:0.027777778 2455:0.027777778 #
216.0434711476933955509593943134 67:0.023809524 105:0.023809524 242:0.047619049 587:0.023809524 1229:0.023809524 #
216.0434711476933955509593943134 111:0.022222223 193:0.022222223 199:0.022222223 1208:0.022222223 1389:0.022222223 2005:0.022222223 2006:0.022222223 #
216.0434711476933955509593943134 556:0.0625 1679:0.0625 #
216.0434711476933955509593943134 37:0.021739131 98:0.021739131 123:0.021739131 172:0.021739131 770:0.021739131 1085:0.021739131 2635:0.021739131 2700:0.021739131 #
216.0434711476933955509593943134 22:0.039999999 714:0.039999999 1574:0.039999999 #
216.0434711476933955509593943134 125:0.07692308 348:0.07692308 349:0.07692308 #
119.33961515414070220231224084273 38:0.047619049 349:0.047619049 812:0.047619049 1112:0.047619049 #
216.0434711476933955509593943134 36:0.032258064 38:0.032258064 242:0.032258064 394:0.032258064 801:0.032258064 1179:0.032258064 #
216.0434711476933955509593943134 38:0.0625 85:0.03125 157:0.03125 1229:0.03125 1812:0.03125 #
216.0434711476933955509593943134 38:0.047619049 426:0.047619049 472:0.047619049 1868:0.047619049 #
216.0434711476933955509593943134 120:0.047619049 172:0.047619049 199:0.095238097 #
216.0434711476933955509593943134 95:0.018181818 103:0.018181818 298:0.018181818 449:0.018181818 678:0.018181818 687:0.018181818 895:0.018181818 1244:0.018181818 1383:0.018181818 1693:0.018181818 #
176.51544281174960815405938774347 438:0.16666667 #
216.0434711476933955509593943134 37:0.02631579 210:0.02631579 279:0.02631579 641:0.02631579 687:0.02631579 2534:0.02631579 #
216.0434711476933955509593943134 38:0.029411765 464:0.029411765 552:0.029411765 1171:0.029411765 1634:0.029411765 2587:0.029411765 #
216.0434711476933955509593943134 38:0.043478262 114:0.043478262 409:0.043478262 #
216.0434711476933955509593943134 38:0.045454547 332:0.045454547 790:0.045454547 997:0.045454547 #
121.35591161034822960118617629632 293:0.083333336 1399:0.083333336 #
216.0434711476933955509593943134 172:0.03846154 632:0.03846154 1040:0.03846154 2338:0.03846154 #
216.0434711476933955509593943134 13:0.016129032 98:0.016129032 172:0.016129032 530:0.016129032 741:0.016129032 786:0.016129032 826:0.016129032 1011:0.016129032 1044:0.016129032 1059:0.016129032 #
216.0434711476933955509593943134 172:0.05882353 278:0.05882353 279:0.05882353 #
216.0434711476933955509593943134 43:0.052631579 238:0.052631579 341:0.052631579 #
216.0434711476933955509593943134 43:0.033333335 242:0.033333335 1111:0.033333335 1384:0.033333335 #
216.0434711476933955509593943134 43:0.039999999 166:0.039999999 242:0.039999999 1112:0.039999999 #
216.0434711476933955509593943134 38:0.052631579 199:0.052631579 370:0.052631579 1135:0.052631579 #
216.0434711476933955509593943134 83:0.03846154 157:0.03846154 197:0.03846154 262:0.03846154 439:0.03846154 #
216.0434711476933955509593943134 155:0.047619049 157:0.047619049 281:0.047619049 #
216.0434711476933955509593943134 83:0.035714287 157:0.071428575 485:0.035714287 1234:0.035714287 #
216.0434711476933955509593943134 550:0.083333336 554:0.083333336 #
216.0434711476933955509593943134 8:0.090909094 38:0.090909094 #
146.34400495528893770824652165174 710:0.025 731:0.025 786:0.025 810:0.025 1223:0.025 2403:0.025 2660:0.025 #
216.0434711476933955509593943134 127:0.03125 257:0.03125 501:0.03125 556:0.03125 #
74.658447975417473685411096084863 492:0.039999999 537:0.039999999 928:0.039999999 2396:0.039999999 #
216.0434711476933955509593943134 111:0.02631579 317:0.02631579 735:0.02631579 1198:0.02631579 1208:0.02631579 1561:0.02631579 #
216.0434711476933955509593943134 38:0.041666668 299:0.083333336 1571:0.041666668 #
216.0434711476933955509593943134 38:0.03846154 576:0.03846154 1123:0.03846154 1178:0.03846154 #
-49.766365378266314678512571845204 38:0.025641026 66:0.025641026 98:0.025641026 204:0.025641026 423:0.025641026 1170:0.025641026 #
205.5699637561814938635507132858 38:0.071428575 2448:0.071428575 #
216.0434711476933955509593943134 93:0.039999999 139:0.039999999 203:0.039999999 956:0.039999999 #
216.0434711476933955509593943134 98:0.029411765 123:0.05882353 183:0.029411765 435:0.029411765 920:0.029411765 #
216.0434711476933955509593943134 470:0.037037037 563:0.037037037 698:0.037037037 1923:0.037037037 #
216.0434711476933955509593943134 31:0.030303031 45:0.030303031 83:0.030303031 125:0.060606062 533:0.030303031 #
216.0434711476933955509593943134 13:0.023809524 45:0.023809524 83:0.023809524 98:0.023809524 388:0.023809524 414:0.023809524 1998:0.023809524 2626:0.023809524 #
-216.0434711476933955509593943134 826:0.07692308 1139:0.07692308 #
216.0434711476933955509593943134 38:0.037037037 45:0.037037037 310:0.037037037 460:0.037037037 1434:0.037037037 #
216.0434711476933955509593943134 38:0.03125 172:0.03125 998:0.03125 1176:0.03125 2351:0.03125 #
113.88639967384897033753077266738 38:0.050000001 310:0.050000001 2630:0.050000001 2631:0.050000001 #
216.0434711476933955509593943134 38:0.068965517 1528:0.034482758 2446:0.034482758 #
216.0434711476933955509593943134 472:0.01923077 826:0.01923077 1202:0.01923077 1731:0.01923077 1963:0.01923077 2163:0.01923077 2488:0.01923077 #
157.03510822834996929486806038767 288:0.035714287 670:0.035714287 808:0.035714287 826:0.035714287 2064:0.035714287 #
216.0434711476933955509593943134 85:0.019607844 132:0.019607844 242:0.019607844 391:0.019607844 418:0.019607844 533:0.019607844 1007:0.019607844 2037:0.019607844 #
144.16611007173622738264384679496 536:0.16666667 729:0.055555556 #
-178.35657459565658200517646037042 198:0.018867925 451:0.018867925 552:0.018867925 658:0.018867925 1469:0.018867925 1683:0.018867925 1989:0.018867925 #
42.384186225829097338646533899009 536:0.090909094 2739:0.090909094 #
108.0878668168875975652554188855 211:0.07692308 806:0.07692308 #
216.0434711476933955509593943134 94:0.047619049 647:0.047619049 710:0.047619049 2638:0.047619049 #
216.0434711476933955509593943134 266:0.0625 472:0.0625 1706:0.0625 #
216.0434711476933955509593943134 256:0.02631579 425:0.02631579 1014:0.02631579 1273:0.02631579 1507:0.02631579 2656:0.02631579 #
216.0434711476933955509593943134 29:0.032786883 148:0.016393442 149:0.016393442 332:0.016393442 537:0.016393442 782:0.016393442 984:0.016393442 2684:0.016393442 2685:0.016393442 #
216.0434711476933955509593943134 29:0.023809524 191:0.023809524 208:0.023809524 399:0.023809524 451:0.023809524 834:0.023809524 1037:0.023809524 #
177.40951442386733560852007940412 332:0.039999999 414:0.039999999 537:0.039999999 786:0.039999999 2331:0.039999999 #
216.0434711476933955509593943134 313:0.045454547 1223:0.045454547 1562:0.045454547 #
216.0434711476933955509593943134 218:0.047619049 251:0.047619049 573:0.047619049 1706:0.047619049 #
216.0434711476933955509593943134 131:0.034482758 492:0.034482758 780:0.034482758 1562:0.034482758 #
216.0434711476933955509593943134 66:0.034482758 210:0.034482758 414:0.034482758 986:0.034482758 1166:0.034482758 #
216.0434711476933955509593943134 27:0.025641026 197:0.025641026 202:0.025641026 388:0.025641026 1354:0.025641026 2118:0.025641026 #
70.414372712655193708997103385627 34:0.011494253 98:0.011494253 183:0.011494253 644:0.011494253 1068:0.011494253 1468:0.011494253 1695:0.011494253 2279:0.011494253 2428:0.011494253 2790:0.011494253 2811:0.011494253 #
56.16677933524324828340468229726 60:0.03125 592:0.03125 720:0.03125 1451:0.03125 2445:0.03125 #
216.0434711476933955509593943134 536:0.33333334 #
216.0434711476933955509593943134 386:0.021739131 492:0.021739131 497:0.021739131 531:0.021739131 1139:0.021739131 2018:0.021739131 #
216.0434711476933955509593943134 13:0.0625 510:0.0625 706:0.0625 #
216.0434711476933955509593943134 209:0.050000001 846:0.050000001 2807:0.050000001 #
216.0434711476933955509593943134 123:0.047619049 191:0.047619049 449:0.047619049 560:0.047619049 #
216.0434711476933955509593943134 647:0.06666667 1235:0.06666667 #
216.0434711476933955509593943134 647:0.06666667 1639:0.06666667 #
216.0434711476933955509593943134 8:0.05882353 38:0.05882353 647:0.05882353 #
216.0434711476933955509593943134 98:0.03846154 290:0.03846154 424:0.03846154 552:0.03846154 615:0.03846154 #
216.0434711476933955509593943134 98:0.03125 349:0.03125 352:0.03125 691:0.03125 860:0.03125 #
57.212488680987256373100535711274 615:0.090909094 2589:0.090909094 #
216.0434711476933955509593943134 127:0.041666668 981:0.041666668 2223:0.041666668 #
188.23970056136420225811889395118 100:0.090909094 191:0.090909094 #
216.0434711476933955509593943134 123:0.018518519 130:0.018518519 154:0.018518519 265:0.018518519 509:0.018518519 615:0.018518519 693:0.018518519 1166:0.018518519 #
216.0434711476933955509593943134 98:0.25 #
216.0434711476933955509593943134 85:0.035714287 326:0.035714287 1195:0.035714287 1349:0.035714287 #
216.0434711476933955509593943134 271:0.027777778 298:0.027777778 426:0.055555556 892:0.027777778 1654:0.027777778 #
216.0434711476933955509593943134 157:0.017857144 412:0.017857144 530:0.017857144 545:0.017857144 1178:0.017857144 1516:0.017857144 1714:0.017857144 2044:0.017857144 #
216.0434711476933955509593943134 68:0.025 143:0.025 720:0.025 1039:0.025 1891:0.025 2524:0.025 #
216.0434711476933955509593943134 29:0.035714287 38:0.035714287 126:0.035714287 908:0.035714287 #
216.0434711476933955509593943134 205:0.0625 243:0.0625 921:0.0625 #
216.0434711476933955509593943134 29:0.03846154 174:0.03846154 882:0.03846154 1425:0.03846154 #
216.0434711476933955509593943134 126:0.024390243 373:0.024390243 414:0.024390243 807:0.024390243 1581:0.024390243 1658:0.024390243 2605:0.024390243 #
30.981440232056161931950555299409 98:0.05882353 665:0.05882353 1301:0.05882353 #
-75.933070356747734308555664028972 71:0.03125 319:0.03125 503:0.03125 1707:0.03125 #
216.0434711476933955509593943134 373:0.083333336 492:0.041666668 1292:0.041666668 2732:0.041666668 #
216.0434711476933955509593943134 100:0.025 191:0.025 347:0.025 373:0.050000001 513:0.025 710:0.025 1591:0.025 #
216.0434711476933955509593943134 373:0.050000001 972:0.050000001 1722:0.050000001 #
216.0434711476933955509593943134 474:0.1 859:0.1 #
216.0434711476933955509593943134 98:0.041666668 103:0.041666668 125:0.041666668 2590:0.041666668 #
216.0434711476933955509593943134 98:0.014925373 183:0.014925373 193:0.014925373 472:0.014925373 759:0.014925373 1536:0.014925373 1689:0.014925373 1774:0.014925373 2318:0.014925373 #
216.0434711476933955509593943134 34:0.014705882 45:0.029411765 306:0.014705882 318:0.014705882 349:0.014705882 593:0.014705882 1439:0.014705882 1470:0.014705882 2250:0.014705882 2492:0.014705882 #
216.0434711476933955509593943134 38:0.039999999 125:0.039999999 223:0.039999999 334:0.039999999 #
216.0434711476933955509593943134 536:0.2857143 #
-216.0434711476933955509593943134 37:0.023255814 201:0.023255814 408:0.023255814 537:0.023255814 696:0.023255814 950:0.023255814 1070:0.023255814 #
-115.71840999696628671244980068877 719:0.2857143 #
216.0434711476933955509593943134 56:0.012820513 126:0.012820513 130:0.012820513 132:0.012820513 503:0.012820513 1328:0.012820513 1774:0.012820513 2249:0.012820513 2450:0.012820513 2451:0.012820513 #
202.67562214518616769964864943177 23:0.023255814 154:0.023255814 612:0.023255814 1280:0.023255814 1617:0.023255814 2268:0.023255814 #
-216.0434711476933955509593943134 130:0.16666667 #
216.0434711476933955509593943134 95:0.050000001 136:0.050000001 300:0.050000001 #
216.0434711476933955509593943134 844:0.050000001 872:0.050000001 1271:0.1 #
216.0434711476933955509593943134 126:0.05882353 293:0.05882353 976:0.05882353 #
216.0434711476933955509593943134 29:0.043478262 148:0.043478262 1364:0.043478262 2171:0.043478262 #
216.0434711476933955509593943134 126:0.052631579 414:0.052631579 462:0.052631579 #
-216.0434711476933955509593943134 1093:0.2 #
-216.0434711476933955509593943134 492:0.25 #
-216.0434711476933955509593943134 267:0.071428575 394:0.071428575 440:0.071428575 #
-216.0434711476933955509593943134 143:0.16666667 #
-216.0434711476933955509593943134 183:0.071428575 1292:0.071428575 #
1.7423439603077213178039528429508 98:0.06666667 2665:0.06666667 #
216.0434711476933955509593943134 50:0.050000001 739:0.050000001 1118:0.050000001 #
216.0434711476933955509593943134 203:0.034482758 306:0.017241379 502:0.017241379 634:0.017241379 2120:0.017241379 2380:0.017241379 2476:0.017241379 #
216.0434711476933955509593943134 67:0.018181818 98:0.018181818 572:0.018181818 690:0.018181818 906:0.018181818 914:0.018181818 1012:0.018181818 #
-216.0434711476933955509593943134 172:0.1 1118:0.1 #
216.0434711476933955509593943134 157:0.02631579 204:0.02631579 267:0.02631579 441:0.02631579 492:0.02631579 2432:0.02631579 #
-216.0434711476933955509593943134 341:0.055555556 1149:0.055555556 1399:0.055555556 #
-216.0434711476933955509593943134 986:0.07692308 1714:0.07692308 #
-216.0434711476933955509593943134 673:0.0625 1118:0.0625 #
216.0434711476933955509593943134 472:0.1 508:0.1 #
216.0434711476933955509593943134 464:0.032258064 615:0.032258064 710:0.032258064 1806:0.032258064 2176:0.032258064 #
173.15094012738359197101090103388 464:0.050000001 1229:0.050000001 1358:0.050000001 1614:0.050000001 #
-216.0434711476933955509593943134 57:0.021276595 98:0.021276595 191:0.021276595 255:0.021276595 530:0.021276595 615:0.021276595 811:0.021276595 #
-216.0434711476933955509593943134 114:0.0625 678:0.0625 #
-182.89426952100365042497287504375 287:0.05882353 533:0.05882353 1315:0.05882353 #
-216.0434711476933955509593943134 151:0.027027028 205:0.027027028 251:0.027027028 308:0.027027028 976:0.027027028 1111:0.027027028 #
216.0434711476933955509593943134 126:0.055555556 1118:0.055555556 1651:0.055555556 #
216.0434711476933955509593943134 38:0.030303031 209:0.030303031 948:0.030303031 999:0.030303031 1114:0.030303031 1750:0.030303031 #
216.0434711476933955509593943134 126:0.025 148:0.025 227:0.025 228:0.025 347:0.025 887:0.025 2068:0.025 #
216.0434711476933955509593943134 171:0.041666668 1437:0.041666668 1859:0.083333336 #
-128.42063384409669879460125230253 948:0.33333334 #
-208.42830181820369261913583613932 1601:0.125 1750:0.125 #
-203.63808062389813358095125295222 209:0.050000001 210:0.050000001 211:0.050000001 #
-216.0434711476933955509593943134 20:0.022222223 157:0.022222223 191:0.022222223 349:0.022222223 525:0.022222223 611:0.022222223 720:0.022222223 1112:0.022222223 #
-216.0434711476933955509593943134 38:0.047619049 85:0.047619049 123:0.047619049 525:0.047619049 #
-21.500106663584109156772683490999 11:0.016393442 29:0.016393442 136:0.016393442 157:0.032786883 191:0.016393442 552:0.016393442 1519:0.016393442 1520:0.016393442 1626:0.016393442 #
216.0434711476933955509593943134 71:0.033333335 98:0.033333335 172:0.033333335 612:0.033333335 620:0.033333335 #
216.0434711476933955509593943134 19:0.023255814 178:0.023255814 665:0.023255814 759:0.023255814 1529:0.023255814 2548:0.023255814 #
216.0434711476933955509593943134 38:0.019607844 157:0.019607844 201:0.019607844 287:0.019607844 612:0.019607844 665:0.019607844 925:0.019607844 1523:0.019607844 1897:0.019607844 #
216.0434711476933955509593943134 95:0.020833334 98:0.020833334 267:0.020833334 296:0.020833334 545:0.020833334 620:0.020833334 1141:0.020833334 1508:0.020833334 #
-216.0434711476933955509593943134 98:0.035714287 414:0.035714287 448:0.035714287 449:0.035714287 537:0.035714287 #
-216.0434711476933955509593943134 45:0.017857144 94:0.017857144 125:0.017857144 128:0.017857144 349:0.017857144 577:0.017857144 1032:0.017857144 1168:0.017857144 1179:0.017857144 1500:0.017857144 #
216.0434711476933955509593943134 64:0.014705882 130:0.014705882 267:0.014705882 397:0.014705882 807:0.014705882 1533:0.014705882 2299:0.014705882 2585:0.014705882 2763:0.029411765 #
-215.18649875999636833512340672314 125:0.0625 1094:0.0625 1694:0.0625 #
-216.0434711476933955509593943134 134:0.047619049 288:0.047619049 1577:0.047619049 #
216.0434711476933955509593943134 215:0.055555556 414:0.055555556 735:0.055555556 #
-216.0434711476933955509593943134 119:0.041666668 170:0.041666668 187:0.041666668 347:0.041666668 #
-216.0434711476933955509593943134 85:0.02631579 198:0.052631579 349:0.02631579 414:0.02631579 866:0.02631579 931:0.02631579 987:0.02631579 #
-216.0434711476933955509593943134 98:0.0625 675:0.0625 1907:0.0625 #
-216.0434711476933955509593943134 414:0.032258064 605:0.032258064 735:0.032258064 908:0.032258064 #
216.0434711476933955509593943134 172:0.020408163 209:0.020408163 556:0.020408163 895:0.020408163 1211:0.020408163 1268:0.020408163 1536:0.020408163 #
166.61919923324799697184062097222 434:0.0625 1599:0.0625 1988:0.0625 #
216.0434711476933955509593943134 186:0.030303031 629:0.030303031 893:0.030303031 1230:0.030303031 1705:0.030303031 #
-216.0434711476933955509593943134 784:0.033333335 826:0.033333335 884:0.033333335 1086:0.033333335 #
-216.0434711476933955509593943134 861:0.037037037 884:0.037037037 1942:0.037037037 #
-216.0434711476933955509593943134 226:0.0625 397:0.0625 729:0.0625 #
-216.0434711476933955509593943134 212:0.024390243 215:0.024390243 278:0.024390243 401:0.024390243 517:0.024390243 764:0.024390243 #
-216.0434711476933955509593943134 1354:0.2 #
216.0434711476933955509593943134 8:0.015151516 198:0.015151516 552:0.015151516 675:0.015151516 700:0.015151516 1103:0.030303031 1271:0.015151516 1376:0.015151516 1436:0.015151516 1665:0.015151516 1701:0.015151516 #
216.0434711476933955509593943134 98:0.023809524 682:0.023809524 962:0.023809524 1071:0.023809524 1458:0.023809524 2140:0.023809524 #
-216.0434711476933955509593943134 45:0.041666668 882:0.020833334 957:0.020833334 1715:0.020833334 1786:0.020833334 1883:0.020833334 #
-216.0434711476933955509593943134 38:0.027027028 45:0.027027028 199:0.027027028 256:0.027027028 382:0.027027028 786:0.027027028 976:0.027027028 #
216.0434711476933955509593943134 98:0.0125 123:0.0125 186:0.0125 225:0.0125 729:0.0125 1091:0.0125 2149:0.0125 2434:0.0125 2630:0.0125 2631:0.0125 #
-195.24095940299073959067754913121 45:0.029411765 344:0.029411765 345:0.029411765 720:0.029411765 1085:0.029411765 #
-216.0434711476933955509593943134 45:0.050000001 180:0.050000001 970:0.050000001 #
216.0434711476933955509593943134 126:0.017241379 130:0.017241379 265:0.017241379 308:0.017241379 731:0.017241379 826:0.017241379 1139:0.017241379 1594:0.017241379 #
161.37181159378997108433395624161 13:0.02631579 385:0.02631579 664:0.02631579 914:0.02631579 1634:0.02631579 #
177.48450422521682412480004131794 350:0.0625 2536:0.0625 #
216.0434711476933955509593943134 98:0.013333334 556:0.013333334 579:0.013333334 584:0.039999999 645:0.013333334 2103:0.013333334 2623:0.013333334 2717:0.013333334 2768:0.013333334 #
194.7653859122865185327100334689 402:0.025641026 416:0.025641026 1137:0.025641026 2257:0.025641026 2464:0.025641026 #
-216.0434711476933955509593943134 47:0.035714287 69:0.035714287 197:0.035714287 #
-216.0434711476933955509593943134 29:0.03846154 126:0.03846154 709:0.03846154 1349:0.03846154 #
-197.93933220323165755871741566807 136:0.11111111 407:0.11111111 #
-216.0434711476933955509593943134 183:0.021276595 274:0.021276595 368:0.021276595 524:0.021276595 907:0.021276595 1183:0.021276595 #
-216.0434711476933955509593943134 902:0.03846154 1052:0.03846154 1178:0.07692308 #
-216.0434711476933955509593943134 213:0.027027028 426:0.027027028 786:0.027027028 887:0.027027028 1334:0.027027028 1599:0.027027028 #
-216.0434711476933955509593943134 310:0.052631579 543:0.052631579 807:0.052631579 #
-216.0434711476933955509593943134 8:0.028571429 278:0.028571429 281:0.028571429 310:0.028571429 807:0.028571429 #
-216.0434711476933955509593943134 8:0.034482758 281:0.034482758 663:0.034482758 664:0.034482758 #
-109.58324258388977057165902806446 370:0.071428575 1372:0.071428575 1397:0.071428575 #
216.0434711476933955509593943134 103:0.016129032 201:0.016129032 470:0.016129032 528:0.016129032 752:0.016129032 886:0.016129032 968:0.016129032 1085:0.016129032 1327:0.016129032 #
216.0434711476933955509593943134 468:0.013888889 665:0.013888889 741:0.013888889 1011:0.013888889 1043:0.013888889 1236:0.013888889 1668:0.013888889 2173:0.013888889 #
173.68076419356293627060949802399 836:0.052631579 983:0.052631579 1912:0.052631579 #
216.0434711476933955509593943134 72:0.02631579 759:0.02631579 769:0.02631579 1327:0.02631579 2170:0.02631579 #
-105.65117534703711044130614027381 769:0.2 #
-216.0434711476933955509593943134 983:0.1 #
-216.0434711476933955509593943134 154:0.029411765 313:0.029411765 317:0.029411765 886:0.05882353 1671:0.029411765 #
-216.0434711476933955509593943134 60:0.016393442 76:0.016393442 98:0.016393442 172:0.016393442 413:0.016393442 477:0.016393442 532:0.016393442 905:0.016393442 1077:0.016393442 1078:0.016393442 #
216.0434711476933955509593943134 105:0.027777778 310:0.027777778 475:0.027777778 925:0.027777778 2038:0.027777778 #
216.0434711476933955509593943134 8:0.019607844 29:0.019607844 275:0.019607844 349:0.019607844 1041:0.019607844 2788:0.019607844 2811:0.019607844 #
-216.0434711476933955509593943134 38:0.055555556 185:0.055555556 186:0.055555556 #
-216.0434711476933955509593943134 37:0.034482758 38:0.068965517 414:0.034482758 1812:0.034482758 #
-216.0434711476933955509593943134 38:0.045454547 157:0.045454547 191:0.045454547 994:0.045454547 #
-216.0434711476933955509593943134 38:0.030303031 199:0.030303031 467:0.030303031 552:0.030303031 836:0.030303031 837:0.030303031 #
216.0434711476933955509593943134 37:0.027777778 98:0.027777778 464:0.027777778 548:0.027777778 1777:0.027777778 2033:0.027777778 #
216.0434711476933955509593943134 172:0.025641026 710:0.025641026 1557:0.025641026 2127:0.025641026 2370:0.025641026 2804:0.025641026 #
216.0434711476933955509593943134 120:0.015151516 203:0.015151516 492:0.015151516 529:0.015151516 960:0.015151516 1581:0.015151516 2213:0.015151516 2522:0.015151516 2602:0.015151516 #
-216.0434711476933955509593943134 98:0.043478262 266:0.043478262 796:0.043478262 808:0.043478262 1186:0.043478262 #
-216.0434711476933955509593943134 647:0.07692308 1183:0.07692308 #
2.2005554776232685298964497633278 130:0.020833334 188:0.041666668 504:0.020833334 510:0.020833334 1156:0.020833334 1354:0.020833334 2599:0.020833334 #
-216.0434711476933955509593943134 13:0.011764706 14:0.011764706 98:0.011764706 125:0.011764706 154:0.011764706 240:0.011764706 334:0.011764706 347:0.011764706 372:0.011764706 1179:0.011764706 1274:0.011764706 1320:0.011764706 #
-216.0434711476933955509593943134 8:0.043478262 38:0.043478262 53:0.043478262 1503:0.043478262 #
-216.0434711476933955509593943134 38:0.07692308 1218:0.07692308 #
216.0434711476933955509593943134 98:0.014705882 119:0.014705882 199:0.014705882 349:0.014705882 596:0.014705882 601:0.014705882 634:0.014705882 773:0.014705882 948:0.014705882 1673:0.014705882 2492:0.014705882 #
216.0434711476933955509593943134 490:0.017241379 602:0.017241379 684:0.017241379 1150:0.017241379 1893:0.017241379 2559:0.017241379 2733:0.017241379 #
-216.0434711476933955509593943134 391:0.03846154 501:0.03846154 1071:0.03846154 1878:0.03846154 #
216.0434711476933955509593943134 29:0.02 155:0.02 157:0.02 412:0.02 608:0.02 682:0.02 1756:0.02 2367:0.02 #
216.0434711476933955509593943134 603:0.029411765 947:0.029411765 1188:0.029411765 2644:0.029411765 #
-216.0434711476933955509593943134 29:0.057142857 85:0.028571429 257:0.028571429 828:0.028571429 1160:0.028571429 1232:0.028571429 #
-216.0434711476933955509593943134 157:0.039999999 463:0.039999999 1190:0.039999999 1528:0.039999999 #
216.0434711476933955509593943134 38:0.043478262 651:0.043478262 1623:0.043478262 2521:0.043478262 #
-216.0434711476933955509593943134 38:0.039999999 436:0.039999999 651:0.039999999 844:0.039999999 #
-216.0434711476933955509593943134 38:0.025641026 123:0.051282052 1005:0.025641026 1437:0.025641026 1443:0.025641026 #
-216.0434711476933955509593943134 38:0.039999999 163:0.039999999 296:0.039999999 #
-216.0434711476933955509593943134 456:0.018518519 941:0.018518519 1199:0.018518519 1307:0.018518519 1464:0.018518519 1746:0.018518519 1766:0.018518519 #
-216.0434711476933955509593943134 651:0.027027028 844:0.027027028 967:0.027027028 1404:0.027027028 1701:0.027027028 #
181.31015070846544290361634921283 148:0.071428575 948:0.071428575 2073:0.071428575 #
51.270983505850708183970709796995 125:0.027777778 157:0.027777778 659:0.027777778 1785:0.027777778 2183:0.027777778 2191:0.027777778 #
-216.0434711476933955509593943134 98:0.050000001 120:0.050000001 148:0.050000001 1280:0.050000001 #
216.0434711476933955509593943134 29:0.020408163 38:0.020408163 743:0.020408163 826:0.020408163 1731:0.020408163 2485:0.020408163 2791:0.020408163 #
216.0434711476933955509593943134 37:0.015873017 38:0.015873017 217:0.015873017 294:0.015873017 385:0.031746034 472:0.015873017 523:0.015873017 931:0.015873017 1933:0.015873017 #
216.0434711476933955509593943134 38:0.022727273 192:0.022727273 630:0.022727273 839:0.022727273 999:0.022727273 1634:0.022727273 1812:0.022727273 2358:0.022727273 #
216.0434711476933955509593943134 38:0.025641026 759:0.025641026 1411:0.025641026 1793:0.025641026 2167:0.025641026 #
-149.94712745523980856887646950781 50:0.043478262 1326:0.043478262 1327:0.043478262 #
-216.0434711476933955509593943134 274:0.025641026 460:0.025641026 513:0.025641026 629:0.025641026 630:0.025641026 631:0.025641026 #
-59.171726969957227026952750748023 379:0.07692308 391:0.07692308 #
-216.0434711476933955509593943134 38:0.039999999 98:0.039999999 157:0.039999999 472:0.039999999 474:0.039999999 #
-216.0434711476933955509593943134 98:0.028571429 149:0.028571429 494:0.028571429 606:0.028571429 826:0.028571429 1554:0.028571429 #
-216.0434711476933955509593943134 105:0.014492754 136:0.014492754 257:0.014492754 924:0.014492754 941:0.014492754 993:0.014492754 1046:0.014492754 1528:0.014492754 1833:0.014492754 #
-87.92288674139985005240305326879 595:0.01923077 1208:0.01923077 1298:0.01923077 1299:0.01923077 1369:0.01923077 1819:0.01923077 #
-216.0434711476933955509593943134 98:0.029411765 265:0.029411765 806:0.029411765 1108:0.029411765 1473:0.029411765 #
216.0434711476933955509593943134 85:0.016393442 120:0.016393442 148:0.016393442 199:0.016393442 720:0.016393442 864:0.016393442 1030:0.016393442 1089:0.016393442 1360:0.016393442 2235:0.016393442 #
216.0434711476933955509593943134 95:0.027777778 125:0.027777778 1071:0.027777778 1280:0.027777778 1470:0.027777778 2152:0.027777778 #
216.0434711476933955509593943134 50:0.014084507 83:0.014084507 120:0.014084507 154:0.014084507 230:0.014084507 471:0.014084507 622:0.014084507 921:0.014084507 1533:0.014084507 2620:0.014084507 #
216.0434711476933955509593943134 38:0.018181818 103:0.018181818 125:0.018181818 257:0.018181818 355:0.018181818 891:0.018181818 1389:0.018181818 2233:0.018181818 2552:0.018181818 #
-216.0434711476933955509593943134 328:0.055555556 1030:0.055555556 #
-216.0434711476933955509593943134 67:0.023255814 197:0.023255814 527:0.023255814 568:0.023255814 891:0.023255814 1806:0.023255814 #
-76.982639617326739767122489865869 1611:0.14285715 #
-216.0434711476933955509593943134 98:0.02631579 215:0.02631579 284:0.02631579 287:0.02631579 416:0.02631579 1112:0.02631579 #
-216.0434711476933955509593943134 98:0.03125 281:0.03125 501:0.03125 1071:0.03125 #
-216.0434711476933955509593943134 98:0.05172414 136:0.034482758 230:0.017241379 463:0.017241379 480:0.017241379 550:0.017241379 710:0.017241379 882:0.017241379 1293:0.017241379 #
-216.0434711476933955509593943134 98:0.028571429 224:0.028571429 475:0.028571429 914:0.028571429 #
-216.0434711476933955509593943134 43:0.01923077 98:0.01923077 296:0.01923077 322:0.01923077 414:0.01923077 684:0.01923077 995:0.01923077 1915:0.01923077 #
194.5199178971166702467598952353 157:0.025641026 385:0.025641026 472:0.025641026 1337:0.025641026 1574:0.025641026 2230:0.025641026 #
-205.70350146681542469195846933872 38:0.015384615 41:0.015384615 834:0.015384615 934:0.015384615 1007:0.015384615 1032:0.015384615 1195:0.015384615 1779:0.015384615 1923:0.015384615 #
-216.0434711476933955509593943134 115:0.090909094 485:0.090909094 #
-216.0434711476933955509593943134 38:0.029411765 424:0.029411765 463:0.029411765 649:0.029411765 859:0.029411765 1434:0.029411765 #
216.0434711476933955509593943134 98:0.019607844 122:0.019607844 123:0.019607844 160:0.019607844 204:0.019607844 464:0.019607844 1322:0.019607844 2813:0.019607844 #
216.0434711476933955509593943134 464:0.023255814 605:0.023255814 1422:0.023255814 1614:0.023255814 1825:0.023255814 2688:0.023255814 #
216.0434711476933955509593943134 66:0.055555556 1141:0.055555556 1538:0.055555556 #
-136.03610745866629372358147520572 66:0.052631579 83:0.052631579 1232:0.052631579 #
35.343965836396044721823272993788 138:0.017857144 451:0.017857144 1271:0.017857144 1878:0.017857144 2028:0.017857144 2224:0.017857144 2259:0.017857144 2622:0.017857144 #
-216.0434711476933955509593943134 8:0.01923077 66:0.01923077 157:0.01923077 218:0.01923077 257:0.01923077 573:0.01923077 1078:0.01923077 1268:0.01923077 1523:0.01923077 #
-216.0434711476933955509593943134 28:0.055555556 439:0.055555556 912:0.055555556 #
-216.0434711476933955509593943134 98:0.025 733:0.025 1290:0.025 1527:0.025 1837:0.025 #
216.0434711476933955509593943134 58:0.0088495575 266:0.0088495575 296:0.0088495575 485:0.0088495575 760:0.0088495575 810:0.0088495575 831:0.0088495575 849:0.0088495575 1047:0.0088495575 1913:0.0088495575 2026:0.0088495575 2029:0.0088495575 2201:0.0088495575 2485:0.0088495575 2486:0.0088495575 #
-25.342580442906470494790482916869 38:0.071428575 1206:0.071428575 #
-216.0434711476933955509593943134 38:0.052631579 88:0.052631579 869:0.052631579 #
-216.0434711476933955509593943134 38:0.06666667 977:0.06666667 1039:0.06666667 #
216.0434711476933955509593943134 689:0.024390243 826:0.024390243 1692:0.024390243 1731:0.024390243 1806:0.024390243 2749:0.024390243 #
66.474692890223138874716823920608 1436:0.055555556 2487:0.055555556 #
-32.125096606522191677868249826133 414:0.029411765 571:0.029411765 920:0.029411765 925:0.029411765 1651:0.029411765 #
-216.0434711476933955509593943134 271:0.047619049 800:0.047619049 1851:0.047619049 #
-216.0434711476933955509593943134 1225:0.05882353 1226:0.05882353 #
-216.0434711476933955509593943134 206:0.034482758 238:0.034482758 426:0.034482758 530:0.034482758 1181:0.034482758 #
216.0434711476933955509593943134 38:0.043478262 126:0.043478262 2022:0.043478262 #
-216.0434711476933955509593943134 38:0.027777778 126:0.027777778 186:0.027777778 1470:0.027777778 1718:0.027777778 #
-216.0434711476933955509593943134 14:0.050000001 38:0.050000001 1852:0.050000001 #
-216.0434711476933955509593943134 38:0.034482758 126:0.034482758 1280:0.034482758 1721:0.034482758 #
216.0434711476933955509593943134 19:0.017241379 170:0.017241379 242:0.017241379 254:0.017241379 300:0.017241379 587:0.017241379 864:0.017241379 1226:0.017241379 #
180.2684918055344382992188911885 227:0.030303031 228:0.030303031 265:0.030303031 372:0.030303031 #
216.0434711476933955509593943134 148:0.037037037 615:0.037037037 920:0.037037037 1142:0.037037037 #
-216.0434711476933955509593943134 290:0.029411765 477:0.029411765 864:0.029411765 1715:0.029411765 1838:0.029411765 #
-216.0434711476933955509593943134 13:0.028571429 242:0.028571429 472:0.028571429 647:0.028571429 654:0.028571429 720:0.028571429 #
-216.0434711476933955509593943134 55:0.020833334 242:0.020833334 349:0.020833334 357:0.020833334 432:0.020833334 1234:0.020833334 1984:0.020833334 #
216.0434711476933955509593943134 38:0.041666668 112:0.041666668 126:0.041666668 414:0.041666668 #
216.0434711476933955509593943134 38:0.030303031 126:0.030303031 197:0.030303031 529:0.030303031 796:0.030303031 1623:0.030303031 #
216.0434711476933955509593943134 38:0.025641026 60:0.025641026 126:0.025641026 332:0.025641026 651:0.025641026 1183:0.025641026 #
59.98776023658415823547329637222 377:0.017241379 1202:0.017241379 1351:0.017241379 1889:0.017241379 2134:0.017241379 2633:0.017241379 2734:0.017241379 #
-216.0434711476933955509593943134 69:0.041666668 159:0.041666668 620:0.041666668 #
48.548075485712125498594105010852 373:0.027027028 773:0.027027028 1412:0.054054055 1508:0.027027028 2791:0.027027028 #
-66.127584233581174544269742909819 66:0.01754386 93:0.01754386 389:0.01754386 1047:0.01754386 1094:0.01754386 1095:0.01754386 1152:0.01754386 #
-216.0434711476933955509593943134 98:0.03125 131:0.0625 1354:0.0625 #
-216.0434711476933955509593943134 278:0.1 1634:0.1 #
-216.0434711476933955509593943134 38:0.027777778 271:0.027777778 425:0.027777778 426:0.027777778 1037:0.027777778 1141:0.027777778 1189:0.027777778 #
-216.0434711476933955509593943134 38:0.035714287 380:0.035714287 816:0.035714287 1191:0.035714287 1868:0.035714287 #
216.0434711476933955509593943134 256:0.023255814 310:0.023255814 511:0.023255814 991:0.023255814 1211:0.023255814 2029:0.023255814 #
216.0434711476933955509593943134 29:0.02 126:0.02 820:0.02 1041:0.02 1153:0.02 1851:0.02 2460:0.02 #
216.0434711476933955509593943134 126:0.025641026 326:0.025641026 453:0.025641026 463:0.025641026 572:0.025641026 647:0.025641026 #
216.0434711476933955509593943134 126:0.030303031 941:0.030303031 1010:0.030303031 1718:0.030303031 2182:0.030303031 #
216.0434711476933955509593943134 126:0.025 726:0.025 1261:0.025 1354:0.025 2168:0.025 #
-216.0434711476933955509593943134 112:0.027027028 203:0.027027028 464:0.027027028 1774:0.027027028 1832:0.027027028 #
-72.919654706473821192957984749228 572:0.11111111 918:0.11111111 #
-216.0434711476933955509593943134 98:0.018867925 127:0.018867925 711:0.018867925 1339:0.018867925 1461:0.018867925 1766:0.018867925 #
-216.0434711476933955509593943134 38:0.019607844 100:0.019607844 244:0.019607844 608:0.019607844 735:0.019607844 771:0.019607844 1600:0.019607844 1752:0.019607844 #
-216.0434711476933955509593943134 492:0.039999999 529:0.039999999 1055:0.039999999 1639:0.039999999 #
-216.0434711476933955509593943134 38:0.047619049 658:0.047619049 659:0.047619049 #
-216.0434711476933955509593943134 104:0.041666668 267:0.041666668 510:0.041666668 1136:0.041666668 #
-216.0434711476933955509593943134 116:0.039999999 313:0.039999999 941:0.039999999 1452:0.039999999 #
-216.0434711476933955509593943134 19:0.02631579 68:0.02631579 72:0.02631579 457:0.02631579 510:0.02631579 #
-216.0434711476933955509593943134 83:0.025 209:0.025 298:0.025 704:0.025 705:0.025 706:0.025 #
-216.0434711476933955509593943134 8:0.052631579 112:0.052631579 170:0.052631579 #
-216.0434711476933955509593943134 8:0.029411765 474:0.029411765 620:0.029411765 1354:0.029411765 1572:0.029411765 #
-216.0434711476933955509593943134 38:0.0625 542:0.0625 1354:0.0625 #
-216.0434711476933955509593943134 238:0.018181818 577:0.018181818 709:0.018181818 732:0.018181818 755:0.018181818 1316:0.018181818 1354:0.018181818 1734:0.018181818 1806:0.018181818 #
216.0434711476933955509593943134 126:0.020833334 136:0.020833334 174:0.020833334 212:0.020833334 242:0.020833334 441:0.020833334 2811:0.020833334 #
-101.5297418289069923957868013531 143:0.03125 575:0.03125 889:0.03125 1935:0.03125 #
-65.545926828262253138746018521488 98:0.029411765 154:0.029411765 304:0.029411765 996:0.029411765 #
-216.0434711476933955509593943134 441:0.14285715 #
-216.0434711476933955509593943134 136:0.025 267:0.025 603:0.025 1114:0.025 1143:0.025 1188:0.025 #
-216.0434711476933955509593943134 641:0.1 1099:0.1 #
216.0434711476933955509593943134 19:0.016393442 73:0.016393442 759:0.016393442 801:0.016393442 917:0.016393442 1236:0.016393442 2015:0.016393442 2226:0.016393442 #
216.0434711476933955509593943134 203:0.045454547 1963:0.045454547 2181:0.045454547 #
-181.34445905648081520666892174631 917:0.25 #
-216.0434711476933955509593943134 203:0.03125 299:0.03125 509:0.03125 548:0.03125 911:0.03125 #
-216.0434711476933955509593943134 535:0.090909094 536:0.18181819 #
-216.0434711476933955509593943134 126:0.030303031 310:0.030303031 621:0.030303031 801:0.030303031 1297:0.030303031 1523:0.030303031 #
216.0434711476933955509593943134 95:0.043478262 260:0.043478262 757:0.043478262 1099:0.043478262 #
216.0434711476933955509593943134 6:0.01754386 126:0.01754386 136:0.01754386 201:0.01754386 342:0.01754386 507:0.01754386 1646:0.01754386 1785:0.01754386 2217:0.01754386 #
-34.724368897740504280591267161071 93:0.071428575 321:0.071428575 #
-216.0434711476933955509593943134 43:0.039999999 174:0.039999999 585:0.039999999 650:0.039999999 #
-216.0434711476933955509593943134 78:0.025 95:0.025 147:0.025 157:0.025 218:0.025 786:0.025 1362:0.050000001 #
-216.0434711476933955509593943134 187:0.02 230:0.02 555:0.02 743:0.02 1159:0.02 1362:0.039999999 1800:0.02 #
216.0434711476933955509593943134 8:0.034482758 98:0.034482758 126:0.034482758 332:0.034482758 448:0.034482758 #
-216.0434711476933955509593943134 98:0.01923077 126:0.01923077 181:0.01923077 187:0.01923077 463:0.01923077 1141:0.01923077 1208:0.01923077 1793:0.01923077 #
-216.0434711476933955509593943134 13:0.025 86:0.025 98:0.025 197:0.025 260:0.025 618:0.025 #
-3.6666246210959938522933043714147 126:0.028571429 219:0.028571429 990:0.028571429 1483:0.028571429 1582:0.028571429 #
105.55599147435214035795070230961 125:0.01923077 608:0.01923077 720:0.01923077 999:0.01923077 1312:0.01923077 1335:0.01923077 1389:0.01923077 2388:0.01923077 2648:0.01923077 #
216.0434711476933955509593943134 45:0.011904762 66:0.011904762 414:0.023809524 680:0.011904762 751:0.011904762 781:0.011904762 1052:0.011904762 1135:0.011904762 1533:0.035714287 1694:0.011904762 2433:0.011904762 #
145.85722746007377281785011291504 8:0.015625 98:0.015625 149:0.015625 441:0.015625 472:0.015625 984:0.015625 2083:0.015625 2132:0.015625 2341:0.015625 #
216.0434711476933955509593943134 385:0.016393442 464:0.016393442 480:0.016393442 545:0.016393442 595:0.016393442 844:0.016393442 904:0.016393442 1351:0.016393442 2726:0.016393442 #
112.03164223718121661477198358625 85:0.010869565 115:0.010869565 126:0.010869565 491:0.010869565 529:0.021739131 620:0.010869565 1224:0.010869565 1479:0.010869565 1608:0.010869565 1658:0.010869565 2239:0.010869565 2743:0.010869565 #
-138.00396573118214860187435988337 1351:0.11111111 1551:0.11111111 #
-216.0434711476933955509593943134 8:0.030303031 441:0.030303031 529:0.030303031 687:0.030303031 1285:0.030303031 #
-216.0434711476933955509593943134 595:0.034482758 826:0.034482758 828:0.034482758 1537:0.034482758 1538:0.034482758 #
-216.0434711476933955509593943134 126:0.028571429 426:0.028571429 525:0.028571429 734:0.028571429 1380:0.028571429 1436:0.028571429 #
-216.0434711476933955509593943134 29:0.029411765 303:0.029411765 449:0.029411765 529:0.029411765 998:0.029411765 999:0.029411765 #
-216.0434711476933955509593943134 98:0.016949153 127:0.016949153 299:0.016949153 306:0.016949153 644:0.016949153 942:0.016949153 1336:0.016949153 1358:0.016949153 1359:0.016949153 #
-216.0434711476933955509593943134 38:0.03846154 98:0.03846154 111:0.03846154 1414:0.03846154 #
-216.0434711476933955509593943134 38:0.03846154 111:0.03846154 156:0.03846154 1181:0.03846154 #
-216.0434711476933955509593943134 38:0.020833334 74:0.020833334 98:0.020833334 279:0.020833334 368:0.020833334 414:0.020833334 970:0.020833334 #
216.0434711476933955509593943134 125:0.01754386 126:0.01754386 157:0.01754386 204:0.01754386 700:0.01754386 999:0.01754386 1362:0.01754386 1737:0.01754386 2050:0.01754386 2051:0.01754386 #
216.0434711476933955509593943134 306:0.023255814 350:0.023255814 1007:0.023255814 1236:0.023255814 2083:0.023255814 #
216.0434711476933955509593943134 85:0.022727273 93:0.022727273 203:0.022727273 371:0.022727273 893:0.022727273 999:0.022727273 1156:0.022727273 1881:0.022727273 #
-205.73520637815730083275411743671 85:0.055555556 786:0.055555556 1148:0.055555556 1868:0.055555556 #
-111.06777767780971544198109768331 204:0.043478262 696:0.043478262 1281:0.043478262 #
-216.0434711476933955509593943134 112:0.021276595 126:0.021276595 532:0.021276595 789:0.021276595 1047:0.021276595 #
216.0434711476933955509593943134 38:0.035714287 999:0.035714287 1358:0.035714287 1359:0.035714287 1533:0.035714287 #
-216.0434711476933955509593943134 157:0.06666667 786:0.06666667 1533:0.06666667 #
-216.0434711476933955509593943134 620:0.02 621:0.02 676:0.02 1322:0.02 1470:0.02 1576:0.02 1999:0.02 #
-216.0434711476933955509593943134 513:0.043478262 1495:0.043478262 1533:0.043478262 #
-216.0434711476933955509593943134 100:0.033333335 257:0.033333335 999:0.033333335 1528:0.033333335 1864:0.033333335 #
-216.0434711476933955509593943134 45:0.037037037 95:0.037037037 208:0.037037037 566:0.037037037 1533:0.037037037 #
216.0434711476933955509593943134 29:0.016666668 126:0.016666668 127:0.016666668 1127:0.016666668 1224:0.016666668 2129:0.016666668 2614:0.016666668 #
216.0434711476933955509593943134 8:0.029411765 98:0.029411765 126:0.029411765 1080:0.029411765 1727:0.029411765 #
-69.436361126027051682285673450679 1727:0.16666667 #
-216.0434711476933955509593943134 98:0.023809524 710:0.023809524 995:0.023809524 1007:0.023809524 1314:0.023809524 1794:0.023809524 #
-216.0434711476933955509593943134 554:0.033333335 902:0.033333335 1460:0.033333335 1829:0.033333335 #
-216.0434711476933955509593943134 265:0.010869565 344:0.010869565 404:0.010869565 739:0.010869565 994:0.010869565 1042:0.010869565 1126:0.010869565 1127:0.010869565 1170:0.010869565 1364:0.010869565 1719:0.010869565 1752:0.010869565 1868:0.010869565 #
-216.0434711476933955509593943134 38:0.024390243 66:0.024390243 133:0.024390243 191:0.024390243 620:0.024390243 720:0.024390243 #
-216.0434711476933955509593943134 127:0.034482758 191:0.034482758 243:0.034482758 655:0.034482758 #
-216.0434711476933955509593943134 552:0.047619049 553:0.047619049 554:0.047619049 #
-216.0434711476933955509593943134 100:0.047619049 790:0.047619049 940:0.047619049 #
-34.61672855696727424401615280658 446:0.032258064 464:0.032258064 550:0.032258064 995:0.032258064 #
216.0434711476933955509593943134 306:0.02 759:0.02 1073:0.02 1794:0.02 2101:0.02 2369:0.02 #
-216.0434711476933955509593943134 536:0.2857143 #
216.0434711476933955509593943134 17:0.015625 154:0.015625 562:0.015625 914:0.015625 986:0.015625 1043:0.015625 1067:0.015625 #
216.0434711476933955509593943134 69:0.017241379 126:0.017241379 826:0.017241379 1041:0.017241379 1570:0.017241379 2160:0.017241379 2450:0.017241379 2510:0.017241379 #
216.0434711476933955509593943134 38:0.01923077 85:0.01923077 385:0.01923077 720:0.01923077 914:0.01923077 1026:0.01923077 1654:0.01923077 #
216.0434711476933955509593943134 126:0.030303031 191:0.030303031 400:0.030303031 978:0.030303031 #
216.0434711476933955509593943134 13:0.017241379 123:0.017241379 126:0.017241379 160:0.017241379 560:0.017241379 629:0.017241379 1297:0.017241379 1599:0.034482758 2202:0.017241379 #
216.0434711476933955509593943134 98:0.018867925 126:0.018867925 296:0.018867925 647:0.018867925 746:0.018867925 1623:0.018867925 2134:0.018867925 #
216.0434711476933955509593943134 323:0.0625 464:0.0625 1634:0.0625 #
216.0434711476933955509593943134 83:0.015625 186:0.015625 313:0.015625 651:0.015625 839:0.015625 1009:0.015625 1478:0.015625 2703:0.015625 #
216.0434711476933955509593943134 21:0.045454547 346:0.045454547 2449:0.045454547 #
216.0434711476933955509593943134 19:0.029411765 38:0.029411765 95:0.029411765 254:0.029411765 417:0.029411765 #
216.0434711476933955509593943134 126:0.025641026 342:0.025641026 510:0.025641026 600:0.025641026 1506:0.025641026 2239:0.025641026 #
188.17859384874651595964678563178 112:0.03125 126:0.03125 1850:0.03125 2581:0.03125 2620:0.03125 #
-216.0434711476933955509593943134 38:0.020408163 64:0.020408163 112:0.020408163 349:0.020408163 580:0.020408163 782:0.020408163 887:0.020408163 1338:0.020408163 #
-216.0434711476933955509593943134 126:0.035714287 172:0.017857144 227:0.017857144 298:0.017857144 494:0.017857144 572:0.017857144 806:0.017857144 1608:0.017857144 #
-216.0434711476933955509593943134 323:0.037037037 358:0.037037037 565:0.037037037 665:0.037037037 #
-131.84728080376410730423231143504 126:0.03846154 191:0.03846154 399:0.03846154 788:0.03846154 #
-216.0434711476933955509593943134 492:0.055555556 647:0.055555556 1562:0.055555556 #
216.0434711476933955509593943134 38:0.03125 299:0.03125 552:0.03125 1099:0.03125 2310:0.03125 #
168.58874767086427937101689167321 156:0.071428575 1280:0.14285715 #
216.0434711476933955509593943134 261:0.2 #
-216.0434711476933955509593943134 32:0.035714287 562:0.035714287 773:0.035714287 1280:0.035714287 1389:0.035714287 #
-150.45048829925610789359780028462 157:0.027777778 254:0.027777778 261:0.027777778 1573:0.027777778 1574:0.027777778 #
-124.27697388721445292958378558978 31:0.022222223 95:0.022222223 254:0.022222223 261:0.022222223 425:0.022222223 1633:0.022222223 1664:0.022222223 #
-141.52005201604856665653642266989 60:0.039999999 434:0.039999999 1394:0.039999999 #
97.303197416502854366626706905663 151:0.25 #
-216.0434711476933955509593943134 349:0.029411765 616:0.029411765 1271:0.029411765 1458:0.029411765 1894:0.029411765 #
216.0434711476933955509593943134 391:0.06666667 414:0.06666667 652:0.06666667 #
-45.837784159147275886425632052124 55:0.025 68:0.025 1092:0.025 1143:0.025 1547:0.025 #
-216.0434711476933955509593943134 45:0.0625 251:0.0625 647:0.0625 #
-216.0434711476933955509593943134 13:0.043478262 64:0.043478262 98:0.043478262 151:0.043478262 #
-216.0434711476933955509593943134 262:0.052631579 347:0.052631579 414:0.052631579 1737:0.052631579 #
-216.0434711476933955509593943134 60:0.022727273 267:0.022727273 342:0.022727273 819:0.022727273 882:0.022727273 1026:0.022727273 1374:0.022727273 #
216.0434711476933955509593943134 157:0.047619049 425:0.047619049 816:0.047619049 1675:0.047619049 #
216.0434711476933955509593943134 177:0.05882353 1091:0.05882353 #
216.0434711476933955509593943134 281:0.1 #
216.0434711476933955509593943134 57:0.22222222 #
216.0434711476933955509593943134 157:0.030303031 207:0.030303031 425:0.030303031 1118:0.030303031 1239:0.030303031 1838:0.030303031 #
-147.44340032810418961162213236094 1675:0.16666667 #
-216.0434711476933955509593943134 38:0.022222223 177:0.022222223 191:0.022222223 197:0.022222223 204:0.022222223 205:0.022222223 1377:0.022222223 #
-71.550861631454480971115117426962 126:0.03846154 391:0.03846154 659:0.03846154 1493:0.03846154 #
-216.0434711476933955509593943134 21:0.01754386 157:0.01754386 229:0.01754386 468:0.01754386 644:0.01754386 895:0.01754386 1358:0.01754386 1359:0.01754386 1505:0.01754386 #
-216.0434711476933955509593943134 36:0.030303031 126:0.030303031 281:0.030303031 349:0.030303031 1292:0.030303031 #
