SVM-light Version V6.02
0 # kernel type
3 # kernel parameter -d 
1 # kernel parameter -g 
1 # kernel parameter -s 
1 # kernel parameter -r 
empty# kernel parameter -u 
2826 # highest feature index 
8527 # number of training documents 
5694 # number of support vectors plus 1 
-0.037685324 # threshold b, each following line is a SV (starting with alpha*y)
-214.29260724433751761353050824255 59:0.015384615 98:0.015384615 104:0.015384615 177:0.015384615 414:0.015384615 1223:0.015384615 1259:0.015384615 1834:0.015384615 #
-214.29260724433751761353050824255 4:0.027777778 5:0.027777778 6:0.027777778 7:0.027777778 8:0.027777778 #
67.799515228353911311387491878122 602:0.047619049 1178:0.047619049 2576:0.047619049 #
-14.714164427134191370782900776248 18:0.023255814 19:0.023255814 20:0.023255814 21:0.023255814 22:0.023255814 #
-214.29260724433751761353050824255 23:0.020833334 24:0.020833334 25:0.020833334 26:0.020833334 27:0.020833334 28:0.020833334 #
214.29260724433751761353050824255 13:0.023255814 160:0.023255814 218:0.023255814 725:0.023255814 947:0.023255814 1039:0.023255814 2001:0.023255814 #
205.73427625060969603509875014424 183:0.02 411:0.02 869:0.02 952:0.02 1748:0.02 1909:0.02 1968:0.02 #
214.29260724433751761353050824255 361:0.020408163 511:0.020408163 620:0.020408163 678:0.020408163 883:0.020408163 1217:0.020408163 2527:0.020408163 #
214.29260724433751761353050824255 83:0.03125 157:0.03125 197:0.03125 206:0.03125 227:0.03125 414:0.03125 #
214.29260724433751761353050824255 38:0.02 157:0.02 214:0.02 242:0.02 585:0.02 687:0.02 935:0.02 2002:0.02 #
-214.29260724433751761353050824255 29:0.012987013 98:0.012987013 119:0.012987013 130:0.012987013 143:0.012987013 196:0.012987013 242:0.012987013 331:0.012987013 397:0.012987013 864:0.012987013 968:0.012987013 1727:0.012987013 #
-191.40369734601259210649004671723 218:0.33333334 #
-214.29260724433751761353050824255 85:0.017241379 154:0.017241379 347:0.017241379 401:0.017241379 509:0.017241379 687:0.017241379 1207:0.017241379 1360:0.017241379 1465:0.017241379 #
-214.29260724433751761353050824255 85:0.027777778 343:0.027777778 572:0.027777778 661:0.027777778 1062:0.027777778 1178:0.027777778 1931:0.027777778 #
-214.29260724433751761353050824255 157:0.11111111 492:0.11111111 #
-138.7656097854075198938517132774 31:0.013513514 120:0.013513514 148:0.013513514 154:0.013513514 415:0.013513514 492:0.013513514 641:0.013513514 1131:0.013513514 1730:0.013513514 1955:0.013513514 #
-63.075046252713868000228103483096 105:0.017241379 267:0.017241379 824:0.017241379 864:0.017241379 1330:0.034482758 1344:0.017241379 1734:0.017241379 1803:0.017241379 #
110.86393710116482225203071720898 98:0.02631579 595:0.02631579 2309:0.02631579 2820:0.02631579 #
214.29260724433751761353050824255 8:0.07692308 601:0.07692308 #
-214.29260724433751761353050824255 8:0.090909094 38:0.090909094 #
-214.29260724433751761353050824255 8:0.11111111 1367:0.055555556 #
-214.29260724433751761353050824255 83:0.16666667 #
-214.29260724433751761353050824255 38:0.032258064 106:0.032258064 849:0.032258064 894:0.032258064 #
214.29260724433751761353050824255 14:0.07692308 157:0.07692308 #
118.8079657013964407497041975148 5:0.035714287 6:0.035714287 267:0.035714287 720:0.035714287 1362:0.035714287 #
214.29260724433751761353050824255 20:0.043478262 157:0.043478262 474:0.043478262 2332:0.043478262 #
214.29260724433751761353050824255 20:0.014705882 139:0.014705882 265:0.014705882 494:0.014705882 616:0.014705882 754:0.014705882 1148:0.014705882 1478:0.014705882 2328:0.014705882 #
-214.29260724433751761353050824255 98:0.25 #
-95.331762755246046481261146254838 38:0.027777778 42:0.055555556 106:0.027777778 1690:0.027777778 #
214.29260724433751761353050824255 8:0.090909094 38:0.090909094 #
135.72796221252664849998836871237 83:0.16666667 #
-214.29260724433751761353050824255 349:0.33333334 #
-196.75883221517992183180467691272 197:0.1 586:0.1 #
-214.29260724433751761353050824255 206:0.090909094 647:0.090909094 #
-214.29260724433751761353050824255 13:0.06666667 120:0.06666667 197:0.06666667 #
-153.72926420922200918539601843804 298:0.043478262 311:0.043478262 615:0.043478262 656:0.043478262 #
214.29260724433751761353050824255 98:0.25 #
214.29260724433751761353050824255 136:0.06666667 157:0.13333334 #
-214.29260724433751761353050824255 98:0.25 #
214.29260724433751761353050824255 242:0.0625 1229:0.0625 1264:0.0625 #
214.29260724433751761353050824255 14:0.025641026 143:0.025641026 197:0.025641026 477:0.025641026 1510:0.025641026 1793:0.025641026 #
-94.889633867689269663969753310084 1229:0.25 #
-94.285476919945438112335978075862 136:0.11111111 407:0.11111111 #
-198.28769002566860990555142052472 136:0.083333336 223:0.083333336 #
-214.29260724433751761353050824255 136:0.07692308 171:0.07692308 #
-214.29260724433751761353050824255 29:0.014084507 112:0.014084507 208:0.014084507 391:0.014084507 735:0.014084507 880:0.014084507 1138:0.014084507 1158:0.014084507 1283:0.014084507 1349:0.014084507 1990:0.014084507 #
214.29260724433751761353050824255 157:0.125 247:0.0625 #
94.600029535433037608527229167521 414:0.068965517 425:0.034482758 647:0.034482758 2506:0.034482758 #
214.29260724433751761353050824255 647:0.06666667 1235:0.06666667 #
131.49488636720820977643597871065 647:0.06666667 1639:0.06666667 #
214.29260724433751761353050824255 172:0.06666667 647:0.06666667 999:0.06666667 #
214.29260724433751761353050824255 647:0.0625 776:0.0625 786:0.0625 #
-214.29260724433751761353050824255 485:0.039999999 1150:0.039999999 1171:0.039999999 1859:0.039999999 #
-214.29260724433751761353050824255 267:0.083333336 1342:0.083333336 #
-214.29260724433751761353050824255 160:0.022222223 172:0.022222223 426:0.022222223 464:0.022222223 596:0.022222223 1150:0.022222223 1951:0.022222223 #
-214.29260724433751761353050824255 510:0.090909094 585:0.090909094 #
-214.29260724433751761353050824255 103:0.015873017 118:0.015873017 130:0.015873017 261:0.015873017 575:0.015873017 576:0.015873017 577:0.015873017 578:0.015873017 579:0.015873017 #
-214.29260724433751761353050824255 98:0.25 #
214.29260724433751761353050824255 171:0.041666668 1437:0.041666668 1859:0.083333336 #
214.29260724433751761353050824255 7:0.05882353 31:0.05882353 332:0.05882353 #
214.29260724433751761353050824255 198:0.01923077 464:0.01923077 719:0.01923077 766:0.01923077 891:0.01923077 1184:0.01923077 1376:0.01923077 1634:0.01923077 2040:0.01923077 #
214.29260724433751761353050824255 23:0.05882353 1471:0.05882353 #
-214.29260724433751761353050824255 66:0.05882353 136:0.05882353 157:0.05882353 #
149.96650323175586549950821790844 31:0.020408163 98:0.020408163 120:0.020408163 248:0.020408163 408:0.020408163 1178:0.020408163 2516:0.020408163 2517:0.020408163 #
-118.95639137924500516874104505405 136:0.050000001 157:0.050000001 1416:0.050000001 #
-214.29260724433751761353050824255 31:0.047619049 157:0.047619049 584:0.047619049 1748:0.047619049 #
-26.892322698804594693910985370167 157:0.055555556 160:0.055555556 427:0.055555556 #
214.29260724433751761353050824255 98:0.11111111 552:0.11111111 #
214.29260724433751761353050824255 120:0.019607844 432:0.0098039219 975:0.0098039219 1153:0.0098039219 1161:0.019607844 1301:0.0098039219 1386:0.0098039219 1815:0.019607844 2467:0.0098039219 #
214.29260724433751761353050824255 28:0.047619049 66:0.047619049 87:0.047619049 562:0.047619049 #
214.29260724433751761353050824255 28:0.033333335 105:0.033333335 242:0.033333335 1478:0.033333335 #
-67.990490127553982802055543288589 38:0.033333335 78:0.033333335 425:0.033333335 812:0.033333335 1893:0.033333335 #
214.29260724433751761353050824255 2:0.043478262 859:0.043478262 1322:0.043478262 1591:0.043478262 #
214.29260724433751761353050824255 12:0.03125 28:0.03125 404:0.03125 1033:0.03125 #
-2.2111847996647600034236802457599 958:0.14285715 #
-214.29260724433751761353050824255 29:0.047619049 467:0.047619049 650:0.047619049 1828:0.047619049 #
-214.29260724433751761353050824255 49:0.030303031 66:0.030303031 130:0.030303031 311:0.030303031 720:0.060606062 #
-214.29260724433751761353050824255 38:0.052631579 88:0.052631579 869:0.052631579 #
-145.03236012178302871689083985984 915:0.050000001 1263:0.050000001 1264:0.050000001 #
-214.29260724433751761353050824255 98:0.125 1014:0.125 #
214.29260724433751761353050824255 172:0.03846154 632:0.03846154 1040:0.03846154 2338:0.03846154 #
214.29260724433751761353050824255 45:0.024390243 215:0.024390243 218:0.024390243 632:0.024390243 1224:0.024390243 1812:0.024390243 #
214.29260724433751761353050824255 66:0.16666667 #
214.29260724433751761353050824255 21:0.03125 38:0.03125 196:0.03125 349:0.03125 1244:0.03125 #
214.29260724433751761353050824255 21:0.045454547 346:0.045454547 2449:0.045454547 #
-214.29260724433751761353050824255 13:0.033898305 39:0.016949153 191:0.016949153 215:0.016949153 247:0.033898305 310:0.016949153 552:0.033898305 1189:0.016949153 #
-214.29260724433751761353050824255 29:0.0625 38:0.0625 552:0.0625 #
-59.686338305137418558388162637129 35:0.052631579 37:0.052631579 85:0.052631579 552:0.052631579 #
-214.29260724433751761353050824255 552:0.047619049 553:0.047619049 554:0.047619049 #
-194.37167958762464081701182294637 38:0.045454547 249:0.045454547 552:0.045454547 1215:0.045454547 #
214.29260724433751761353050824255 31:0.11111111 98:0.11111111 #
214.29260724433751761353050824255 13:0.012658228 72:0.012658228 98:0.012658228 122:0.012658228 199:0.012658228 288:0.012658228 612:0.012658228 1189:0.012658228 1440:0.012658228 2112:0.025316456 2376:0.012658228 #
85.627131445604078407995984889567 1011:0.071428575 1014:0.071428575 #
214.29260724433751761353050824255 349:0.047619049 641:0.047619049 1014:0.047619049 1156:0.047619049 #
214.29260724433751761353050824255 472:0.047619049 981:0.047619049 1014:0.047619049 1110:0.047619049 #
162.95205790674816626051324419677 23:0.035714287 472:0.035714287 1014:0.035714287 2020:0.035714287 #
-87.777754011303699144264101050794 274:0.03846154 307:0.03846154 886:0.03846154 1521:0.03846154 #
-214.29260724433751761353050824255 641:0.25 #
-214.29260724433751761353050824255 227:0.05882353 228:0.05882353 472:0.05882353 #
-214.29260724433751761353050824255 349:0.06666667 472:0.06666667 925:0.06666667 #
214.29260724433751761353050824255 98:0.25 #
214.29260724433751761353050824255 130:0.083333336 583:0.083333336 #
214.29260724433751761353050824255 157:0.11111111 2796:0.055555556 #
82.225089018370823623627074994147 13:0.016949153 98:0.016949153 130:0.016949153 141:0.016949153 324:0.016949153 366:0.016949153 2269:0.016949153 2349:0.016949153 2654:0.016949153 #
-154.60255657761268821559497155249 583:0.05882353 635:0.05882353 1842:0.05882353 #
-87.415514391002730576474277768284 83:0.0125 93:0.0125 353:0.0125 544:0.0125 564:0.0125 1440:0.0125 1442:0.0125 1845:0.0125 1986:0.0125 #
214.29260724433751761353050824255 510:0.090909094 641:0.090909094 #
214.29260724433751761353050824255 472:0.0625 847:0.0625 #
214.29260724433751761353050824255 266:0.0625 472:0.0625 1706:0.0625 #
-214.29260724433751761353050824255 472:0.25 #
-90.037171154510886594835028517991 266:0.25 #
209.57215042535895577202609274536 130:0.055555556 583:0.055555556 2096:0.055555556 #
-214.29260724433751761353050824255 130:0.16666667 #
57.720287701120987833292019786313 242:0.030303031 310:0.060606062 313:0.030303031 585:0.030303031 2335:0.030303031 #
214.29260724433751761353050824255 67:0.023809524 105:0.023809524 242:0.047619049 587:0.023809524 1229:0.023809524 #
214.29260724433751761353050824255 43:0.039999999 166:0.039999999 242:0.039999999 1112:0.039999999 #
-156.08558325081594375660642981529 1706:0.16666667 #
-214.29260724433751761353050824255 38:0.050000001 183:0.050000001 1354:0.050000001 #
-214.29260724433751761353050824255 38:0.06666667 1354:0.06666667 1601:0.06666667 #
-214.29260724433751761353050824255 38:0.0625 542:0.0625 1354:0.0625 #
-214.29260724433751761353050824255 38:0.0625 388:0.0625 1354:0.0625 #
-214.29260724433751761353050824255 38:0.018518519 183:0.018518519 198:0.018518519 255:0.018518519 480:0.018518519 615:0.018518519 720:0.018518519 865:0.018518519 1813:0.018518519 #
-59.174792830676011590185225941241 216:0.016129032 432:0.016129032 537:0.016129032 682:0.016129032 796:0.016129032 927:0.016129032 1574:0.016129032 1633:0.016129032 #
-214.29260724433751761353050824255 157:0.06666667 786:0.06666667 1533:0.06666667 #
214.29260724433751761353050824255 38:0.06666667 83:0.033333335 242:0.033333335 296:0.033333335 1229:0.033333335 #
-214.29260724433751761353050824255 13:0.1 38:0.1 #
-214.29260724433751761353050824255 698:0.090909094 1658:0.090909094 #
83.106694685123301269413786940277 55:0.02 98:0.02 205:0.02 251:0.02 629:0.02 983:0.02 2577:0.02 #
-214.29260724433751761353050824255 98:0.074074075 136:0.037037037 157:0.037037037 1450:0.037037037 1634:0.037037037 #
214.29260724433751761353050824255 38:0.02631579 191:0.02631579 585:0.02631579 675:0.02631579 1014:0.02631579 1093:0.02631579 1189:0.02631579 #
-214.29260724433751761353050824255 1093:0.2 #
-214.29260724433751761353050824255 647:0.07692308 1183:0.07692308 #
-214.29260724433751761353050824255 45:0.0625 251:0.0625 647:0.0625 #
-189.23019073568295311815745662898 1093:0.1 1364:0.1 #
183.95040791512232658533321227878 98:0.0625 157:0.0625 2517:0.0625 #
214.29260724433751761353050824255 25:0.018181818 29:0.018181818 98:0.018181818 121:0.018181818 400:0.018181818 426:0.036363635 1037:0.018181818 1189:0.018181818 #
214.29260724433751761353050824255 98:0.013157895 126:0.013157895 296:0.013157895 438:0.013157895 564:0.013157895 813:0.013157895 1047:0.013157895 1177:0.013157895 2142:0.013157895 2150:0.013157895 2551:0.013157895 #
-120.69715692633455716986645711586 98:0.125 1085:0.125 #
214.29260724433751761353050824255 111:0.1 1634:0.1 #
57.382881383042494860546867130324 349:0.052631579 1634:0.052631579 2574:0.052631579 #
214.29260724433751761353050824255 13:0.034482758 38:0.034482758 110:0.034482758 644:0.034482758 #
214.29260724433751761353050824255 45:0.039999999 311:0.039999999 525:0.039999999 698:0.039999999 #
68.15830148141473898704134626314 492:0.019607844 502:0.019607844 1143:0.019607844 1178:0.019607844 1208:0.019607844 1509:0.019607844 2191:0.019607844 2476:0.019607844 #
-214.29260724433751761353050824255 118:0.046511628 134:0.046511628 1232:0.023255814 1600:0.023255814 1601:0.023255814 #
-214.29260724433751761353050824255 38:0.025 776:0.025 1189:0.025 1204:0.025 1703:0.025 1795:0.025 #
-214.29260724433751761353050824255 38:0.011111111 103:0.011111111 184:0.011111111 388:0.011111111 461:0.011111111 462:0.022222223 505:0.011111111 561:0.011111111 592:0.011111111 764:0.011111111 887:0.011111111 1115:0.011111111 #
-214.29260724433751761353050824255 98:0.11111111 1137:0.11111111 #
-214.29260724433751761353050824255 68:0.02631579 300:0.02631579 373:0.02631579 1843:0.02631579 #
214.29260724433751761353050824255 271:0.027777778 298:0.027777778 426:0.055555556 892:0.027777778 1654:0.027777778 #
214.29260724433751761353050824255 537:0.0625 584:0.0625 896:0.0625 #
214.29260724433751761353050824255 157:0.1 206:0.1 #
97.08087918006445704577345168218 251:0.090909094 844:0.090909094 #
-214.29260724433751761353050824255 203:0.047619049 981:0.047619049 1103:0.047619049 1658:0.047619049 #
-214.29260724433751761353050824255 157:0.032258064 380:0.032258064 474:0.032258064 580:0.032258064 948:0.032258064 1658:0.032258064 #
-214.29260724433751761353050824255 105:0.052631579 332:0.052631579 537:0.052631579 #
42.420876237529263619308039778844 1137:0.125 1138:0.125 #
-214.29260724433751761353050824255 98:0.11111111 781:0.11111111 #
214.29260724433751761353050824255 290:0.033333335 545:0.033333335 2468:0.033333335 2579:0.033333335 #
214.29260724433751761353050824255 537:0.030303031 545:0.030303031 726:0.030303031 1802:0.030303031 #
214.29260724433751761353050824255 227:0.030303031 228:0.030303031 265:0.030303031 372:0.030303031 #
214.29260724433751761353050824255 8:0.039999999 130:0.039999999 227:0.039999999 228:0.039999999 #
-172.45737870199658914316387381405 332:0.071428575 992:0.071428575 1138:0.071428575 #
-214.29260724433751761353050824255 8:0.06818182 91:0.022727273 498:0.022727273 1321:0.022727273 1322:0.022727273 #
-214.29260724433751761353050824255 95:0.052631579 399:0.052631579 1537:0.052631579 #
-214.29260724433751761353050824255 95:0.03846154 98:0.03846154 123:0.03846154 615:0.03846154 823:0.03846154 #
214.29260724433751761353050824255 98:0.03125 300:0.03125 530:0.03125 650:0.03125 836:0.03125 #
175.67492918639837284899840597063 781:0.041666668 2323:0.041666668 2324:0.041666668 #
-214.29260724433751761353050824255 29:0.020833334 100:0.020833334 348:0.020833334 410:0.020833334 432:0.020833334 527:0.020833334 691:0.020833334 831:0.020833334 #
214.29260724433751761353050824255 332:0.039999999 414:0.039999999 537:0.039999999 786:0.039999999 2331:0.039999999 #
-62.223405690534001166724920039997 781:0.25 #
-214.29260724433751761353050824255 45:0.025 64:0.025 83:0.025 414:0.025 1138:0.025 1552:0.025 #
-83.365490428543779444225947372615 505:0.071428575 1957:0.071428575 #
-0.97462296498502531960639316821471 1587:0.090909094 #
-214.29260724433751761353050824255 32:0.019607844 157:0.019607844 471:0.019607844 687:0.019607844 691:0.019607844 714:0.019607844 884:0.019607844 1961:0.019607844 #
-214.29260724433751761353050824255 98:0.1 1354:0.1 #
162.1367688178427499678946333006 45:0.11111111 414:0.11111111 #
214.29260724433751761353050824255 38:0.039999999 64:0.039999999 123:0.039999999 157:0.039999999 #
214.29260724433751761353050824255 1219:0.047619049 1304:0.047619049 1537:0.047619049 #
-214.29260724433751761353050824255 83:0.014285714 95:0.014285714 125:0.014285714 136:0.014285714 155:0.014285714 157:0.014285714 172:0.014285714 281:0.014285714 361:0.014285714 480:0.014285714 1089:0.014285714 #
-214.29260724433751761353050824255 47:0.021739131 126:0.021739131 257:0.043478262 291:0.021739131 1270:0.021739131 1812:0.021739131 #
214.29260724433751761353050824255 98:0.029411765 254:0.029411765 568:0.029411765 1156:0.029411765 1817:0.029411765 #
83.676446312733531840422074310482 98:0.1 969:0.1 #
214.29260724433751761353050824255 59:0.012820513 98:0.012820513 253:0.012820513 418:0.012820513 651:0.012820513 1436:0.012820513 1924:0.012820513 2185:0.012820513 2236:0.012820513 2304:0.012820513 #
-214.29260724433751761353050824255 981:0.083333336 1439:0.083333336 #
-214.29260724433751761353050824255 8:0.047619049 266:0.047619049 267:0.047619049 268:0.047619049 #
-214.29260724433751761353050824255 98:0.032258064 160:0.064516127 172:0.032258064 197:0.032258064 660:0.032258064 #
214.29260724433751761353050824255 38:0.041666668 120:0.041666668 1093:0.041666668 1907:0.041666668 #
214.29260724433751761353050824255 98:0.039999999 157:0.039999999 610:0.039999999 615:0.039999999 #
214.29260724433751761353050824255 127:0.018867925 136:0.018867925 274:0.018867925 587:0.018867925 735:0.018867925 835:0.018867925 1425:0.018867925 2109:0.018867925 #
56.314533679037012348089774604887 98:0.052631579 925:0.052631579 2354:0.052631579 #
-170.87716549177227420841518323869 120:0.16666667 #
211.11995525300983445049496367574 29:0.055555556 38:0.055555556 1120:0.055555556 #
214.29260724433751761353050824255 38:0.0625 85:0.03125 157:0.03125 1229:0.03125 1812:0.03125 #
214.29260724433751761353050824255 38:0.039999999 125:0.039999999 223:0.039999999 334:0.039999999 #
-214.29260724433751761353050824255 112:0.012820513 261:0.012820513 284:0.012820513 765:0.012820513 1017:0.012820513 1026:0.012820513 1358:0.012820513 1359:0.012820513 1469:0.012820513 1539:0.012820513 1838:0.012820513 #
-214.29260724433751761353050824255 38:0.037037037 157:0.037037037 172:0.037037037 296:0.037037037 348:0.037037037 #
-214.29260724433751761353050824255 13:0.015384615 130:0.015384615 766:0.015384615 1014:0.015384615 1039:0.015384615 1466:0.015384615 1673:0.015384615 1728:0.015384615 1811:0.015384615 1945:0.015384615 #
-214.29260724433751761353050824255 157:0.090909094 1685:0.090909094 #
214.29260724433751761353050824255 414:0.07692308 556:0.07692308 #
214.29260724433751761353050824255 120:0.050000001 287:0.050000001 796:0.050000001 1734:0.050000001 #
89.531648914755848522872838657349 120:0.029411765 283:0.029411765 414:0.029411765 1469:0.029411765 2653:0.029411765 #
-214.29260724433751761353050824255 200:0.022222223 307:0.022222223 334:0.022222223 581:0.022222223 772:0.022222223 914:0.022222223 #
-58.362792092524117038010444957763 414:0.11111111 542:0.11111111 #
-214.29260724433751761353050824255 126:0.090909094 414:0.090909094 #
-214.29260724433751761353050824255 29:0.020833334 45:0.020833334 59:0.020833334 90:0.020833334 537:0.020833334 1907:0.020833334 1954:0.020833334 #
214.29260724433751761353050824255 38:0.050000001 157:0.050000001 257:0.050000001 1071:0.050000001 #
214.29260724433751761353050824255 157:0.1 1078:0.1 #
120.93652045419162277539726346731 113:0.014705882 183:0.014705882 310:0.014705882 605:0.014705882 689:0.014705882 1112:0.014705882 2294:0.014705882 2341:0.014705882 #
-214.29260724433751761353050824255 556:0.125 #
-214.29260724433751761353050824255 1097:0.06666667 1469:0.06666667 1636:0.06666667 #
214.29260724433751761353050824255 126:0.052631579 414:0.052631579 462:0.052631579 #
214.29260724433751761353050824255 125:0.07692308 348:0.07692308 349:0.07692308 #
214.29260724433751761353050824255 38:0.041666668 112:0.041666668 126:0.041666668 414:0.041666668 #
214.29260724433751761353050824255 66:0.052631579 126:0.052631579 2679:0.052631579 #
-163.37996642018896409354056231678 349:0.125 1071:0.125 #
214.29260724433751761353050824255 103:0.052631579 172:0.052631579 2292:0.052631579 #
214.29260724433751761353050824255 27:0.025641026 197:0.025641026 202:0.025641026 388:0.025641026 1354:0.025641026 2118:0.025641026 #
-214.29260724433751761353050824255 414:0.090909094 1301:0.090909094 #
-214.29260724433751761353050824255 223:0.090909094 414:0.090909094 #
-214.29260724433751761353050824255 13:0.055555556 414:0.055555556 539:0.055555556 720:0.055555556 #
207.3497052527872313021362060681 38:0.047619049 349:0.047619049 812:0.047619049 1112:0.047619049 #
-214.29260724433751761353050824255 257:0.11111111 839:0.11111111 #
-214.29260724433751761353050824255 157:0.052631579 257:0.052631579 740:0.052631579 1389:0.052631579 #
-214.29260724433751761353050824255 38:0.090909094 1112:0.090909094 #
163.10291123898289811222639400512 93:0.041666668 98:0.041666668 651:0.041666668 2777:0.041666668 #
-214.29260724433751761353050824255 141:0.03125 414:0.0625 447:0.03125 909:0.03125 989:0.03125 #
-214.29260724433751761353050824255 149:0.01923077 205:0.01923077 485:0.01923077 1224:0.01923077 1649:0.01923077 1688:0.01923077 #
-214.29260724433751761353050824255 414:0.05882353 512:0.05882353 826:0.05882353 #
-214.29260724433751761353050824255 68:0.016949153 111:0.016949153 254:0.016949153 301:0.016949153 1011:0.016949153 1045:0.016949153 1046:0.016949153 #
214.29260724433751761353050824255 126:0.0625 157:0.0625 257:0.0625 #
-201.97634726557976136973593384027 404:0.033333335 556:0.033333335 1013:0.033333335 #
214.29260724433751761353050824255 83:0.03125 399:0.03125 931:0.03125 1946:0.03125 #
-214.29260724433751761353050824255 157:0.083333336 967:0.083333336 #
-214.29260724433751761353050824255 132:0.06666667 157:0.06666667 533:0.06666667 #
-214.29260724433751761353050824255 20:0.014925373 240:0.014925373 251:0.014925373 1172:0.014925373 1177:0.014925373 1241:0.014925373 1383:0.014925373 1442:0.014925373 1594:0.014925373 #
214.29260724433751761353050824255 38:0.035714287 667:0.035714287 1636:0.035714287 2303:0.035714287 #
214.29260724433751761353050824255 38:0.018181818 125:0.018181818 228:0.018181818 314:0.018181818 361:0.018181818 414:0.018181818 836:0.018181818 909:0.018181818 1338:0.018181818 2638:0.018181818 #
-23.531763310265919386665700585581 125:0.090909094 1677:0.090909094 #
139.5736662162051970881293527782 985:0.028571429 986:0.028571429 1734:0.028571429 1889:0.028571429 2201:0.028571429 #
214.29260724433751761353050824255 83:0.035714287 157:0.071428575 485:0.035714287 1234:0.035714287 #
-88.709033757797129737809882499278 467:0.0625 485:0.0625 836:0.0625 #
-7.2069337842428797813454366405495 38:0.018867925 127:0.018867925 231:0.018867925 232:0.018867925 233:0.018867925 437:0.018867925 1111:0.03773585 #
214.29260724433751761353050824255 2:0.03125 130:0.03125 267:0.03125 348:0.03125 349:0.03125 2771:0.03125 #
214.29260724433751761353050824255 98:0.06666667 125:0.06666667 611:0.06666667 #
214.29260724433751761353050824255 125:0.032258064 253:0.032258064 1183:0.032258064 2779:0.032258064 2810:0.032258064 #
-214.29260724433751761353050824255 414:0.25 #
-214.29260724433751761353050824255 130:0.16666667 #
-214.29260724433751761353050824255 98:0.083333336 314:0.083333336 #
-214.29260724433751761353050824255 45:0.037037037 120:0.037037037 552:0.037037037 637:0.037037037 1734:0.037037037 #
214.29260724433751761353050824255 193:0.021276595 809:0.021276595 995:0.021276595 2120:0.021276595 2286:0.021276595 #
-214.29260724433751761353050824255 8:0.02631579 157:0.02631579 426:0.02631579 524:0.02631579 689:0.02631579 1213:0.02631579 1812:0.02631579 #
65.483928519039537263779493514448 140:0.039999999 460:0.039999999 1693:0.039999999 2126:0.039999999 #
214.29260724433751761353050824255 120:0.023809524 157:0.023809524 186:0.023809524 349:0.023809524 542:0.023809524 581:0.023809524 1354:0.023809524 #
214.29260724433751761353050824255 38:0.029411765 464:0.029411765 552:0.029411765 1171:0.029411765 1634:0.029411765 2587:0.029411765 #
-214.29260724433751761353050824255 1868:0.16666667 #
-214.29260724433751761353050824255 38:0.018181818 215:0.018181818 691:0.018181818 982:0.018181818 1042:0.018181818 1043:0.018181818 1044:0.018181818 #
-214.29260724433751761353050824255 38:0.039999999 436:0.039999999 651:0.039999999 844:0.039999999 #
-214.29260724433751761353050824255 45:0.019607844 67:0.019607844 98:0.019607844 471:0.019607844 1013:0.019607844 1808:0.019607844 1953:0.019607844 #
-47.001182990994024635256209876388 1016:0.11111111 #
214.29260724433751761353050824255 38:0.017241379 132:0.017241379 235:0.017241379 332:0.017241379 537:0.017241379 545:0.017241379 807:0.017241379 1395:0.017241379 2131:0.017241379 #
214.29260724433751761353050824255 38:0.029411765 127:0.029411765 780:0.029411765 914:0.029411765 #
-214.29260724433751761353050824255 8:0.052631579 112:0.052631579 170:0.052631579 #
-214.29260724433751761353050824255 98:0.07692308 180:0.07692308 #
-74.872545329500837851810501888394 98:0.071428575 234:0.035714287 1181:0.035714287 1476:0.035714287 #
214.29260724433751761353050824255 2:0.027027028 8:0.027027028 38:0.027027028 281:0.027027028 379:0.027027028 #
-69.895804954270289499618229456246 109:0.018867925 669:0.018867925 727:0.03773585 957:0.018867925 1637:0.018867925 #
214.29260724433751761353050824255 98:0.25 #
214.29260724433751761353050824255 548:0.020408163 637:0.020408163 1229:0.06122449 1528:0.020408163 2490:0.020408163 #
214.29260724433751761353050824255 157:0.048780486 201:0.024390243 485:0.024390243 887:0.024390243 1019:0.024390243 1030:0.024390243 1309:0.024390243 #
214.29260724433751761353050824255 157:0.033333335 467:0.033333335 1781:0.033333335 1948:0.033333335 #
-214.29260724433751761353050824255 379:0.07692308 391:0.07692308 #
214.29260724433751761353050824255 38:0.043478262 180:0.043478262 1231:0.043478262 #
214.29260724433751761353050824255 38:0.050000001 125:0.050000001 148:0.050000001 414:0.050000001 #
-214.29260724433751761353050824255 38:0.1 196:0.1 #
-198.95708831680562411747814621776 148:0.25 #
-214.29260724433751761353050824255 313:0.045454547 492:0.045454547 1231:0.045454547 #
-214.29260724433751761353050824255 8:0.028571429 278:0.028571429 281:0.028571429 310:0.028571429 807:0.028571429 #
-214.29260724433751761353050824255 126:0.034482758 218:0.034482758 332:0.034482758 624:0.034482758 969:0.034482758 1634:0.034482758 #
214.29260724433751761353050824255 38:0.041666668 115:0.020833334 157:0.020833334 414:0.0625 577:0.020833334 580:0.020833334 #
214.29260724433751761353050824255 38:0.039999999 312:0.039999999 391:0.039999999 1153:0.039999999 #
58.46390845458061846784403314814 98:0.030303031 143:0.030303031 532:0.030303031 2040:0.030303031 2497:0.030303031 #
214.29260724433751761353050824255 14:0.03846154 278:0.07692308 1093:0.03846154 #
214.29260724433751761353050824255 143:0.012987013 218:0.012987013 223:0.012987013 257:0.012987013 573:0.012987013 602:0.012987013 651:0.012987013 690:0.012987013 1137:0.025974026 1537:0.012987013 2518:0.012987013 #
214.29260724433751761353050824255 399:0.028571429 760:0.028571429 2205:0.028571429 2658:0.028571429 2808:0.028571429 #
-214.29260724433751761353050824255 66:0.03846154 245:0.03846154 312:0.03846154 947:0.03846154 #
214.29260724433751761353050824255 21:0.012820513 25:0.012820513 59:0.012820513 477:0.012820513 562:0.012820513 1110:0.012820513 1198:0.012820513 2144:0.012820513 2340:0.012820513 #
-214.29260724433751761353050824255 20:0.022222223 157:0.022222223 191:0.022222223 349:0.022222223 525:0.022222223 611:0.022222223 720:0.022222223 1112:0.022222223 #
-56.558661857941004313943267334253 157:0.032258064 253:0.032258064 284:0.032258064 362:0.032258064 1514:0.032258064 #
9.1861227393031352761454400024377 38:0.050000001 310:0.050000001 2630:0.050000001 2631:0.050000001 #
214.29260724433751761353050824255 38:0.045454547 93:0.045454547 242:0.045454547 477:0.045454547 #
214.29260724433751761353050824255 157:0.025641026 205:0.025641026 218:0.025641026 492:0.025641026 643:0.025641026 1912:0.025641026 2109:0.025641026 2603:0.025641026 #
-214.29260724433751761353050824255 172:0.027027028 311:0.027027028 332:0.027027028 624:0.027027028 1272:0.027027028 1635:0.027027028 #
-161.36099185432405533902056049556 93:0.2 #
214.29260724433751761353050824255 29:0.022222223 315:0.022222223 485:0.022222223 859:0.022222223 1297:0.022222223 2152:0.022222223 2204:0.022222223 #
-214.29260724433751761353050824255 45:0.045454547 98:0.045454547 587:0.045454547 593:0.045454547 #
214.29260724433751761353050824255 38:0.028571429 191:0.028571429 472:0.028571429 591:0.028571429 615:0.028571429 720:0.028571429 #
214.29260724433751761353050824255 157:0.017857144 281:0.017857144 513:0.017857144 552:0.017857144 1523:0.017857144 2290:0.017857144 2300:0.017857144 #
214.29260724433751761353050824255 36:0.028571429 38:0.028571429 125:0.028571429 249:0.028571429 408:0.028571429 472:0.028571429 #
-214.29260724433751761353050824255 98:0.013888889 125:0.013888889 127:0.013888889 191:0.013888889 582:0.027777778 800:0.013888889 920:0.013888889 1341:0.013888889 1431:0.013888889 1725:0.013888889 #
-214.29260724433751761353050824255 38:0.037037037 157:0.037037037 310:0.037037037 472:0.037037037 1722:0.037037037 #
-214.29260724433751761353050824255 93:0.02 313:0.02 618:0.02 643:0.02 882:0.02 1530:0.02 #
-214.29260724433751761353050824255 643:0.2 #
-214.29260724433751761353050824255 43:0.125 #
214.29260724433751761353050824255 720:0.021739131 780:0.021739131 1338:0.021739131 1397:0.021739131 1984:0.021739131 2098:0.021739131 #
-214.29260724433751761353050824255 43:0.0625 1507:0.0625 #
-214.29260724433751761353050824255 166:0.03125 371:0.03125 606:0.03125 776:0.03125 1410:0.0625 1831:0.03125 #
-214.29260724433751761353050824255 98:0.034482758 115:0.034482758 213:0.034482758 414:0.034482758 925:0.034482758 #
214.29260724433751761353050824255 38:0.018181818 157:0.018181818 196:0.018181818 257:0.018181818 314:0.018181818 1009:0.018181818 1045:0.018181818 2113:0.018181818 2114:0.018181818 #
214.29260724433751761353050824255 8:0.03125 98:0.03125 172:0.03125 472:0.0625 2055:0.03125 #
214.29260724433751761353050824255 13:0.020833334 29:0.020833334 83:0.020833334 98:0.020833334 125:0.020833334 361:0.020833334 647:0.020833334 1028:0.020833334 1037:0.020833334 #
9.5196121168086449415568495169282 641:0.055555556 1307:0.055555556 1478:0.055555556 #
-214.29260724433751761353050824255 38:0.045454547 157:0.045454547 191:0.045454547 994:0.045454547 #
-214.29260724433751761353050824255 98:0.014705882 157:0.014705882 284:0.014705882 287:0.014705882 451:0.014705882 552:0.014705882 621:0.014705882 632:0.014705882 956:0.014705882 1247:0.014705882 1646:0.014705882 #
214.29260724433751761353050824255 38:0.035714287 148:0.035714287 1302:0.035714287 2721:0.035714287 #
-214.29260724433751761353050824255 83:0.090909094 1364:0.090909094 #
-214.29260724433751761353050824255 112:0.050000001 350:0.050000001 425:0.050000001 976:0.050000001 #
-214.29260724433751761353050824255 186:0.041666668 1234:0.041666668 1988:0.041666668 #
25.129766393797666523823863826692 13:0.043478262 85:0.043478262 157:0.043478262 1672:0.043478262 2202:0.043478262 #
214.29260724433751761353050824255 98:0.014285714 116:0.014285714 149:0.014285714 157:0.014285714 490:0.014285714 615:0.014285714 741:0.014285714 978:0.014285714 995:0.014285714 1150:0.014285714 #
-130.9743672598078774171881377697 157:0.055555556 631:0.055555556 760:0.055555556 #
-119.41815371569578019261825829744 471:0.047619049 1434:0.047619049 1966:0.047619049 #
-214.29260724433751761353050824255 31:0.052631579 157:0.052631579 469:0.052631579 #
-214.29260724433751761353050824255 98:0.011494253 105:0.011494253 124:0.011494253 165:0.011494253 183:0.011494253 441:0.011494253 492:0.011494253 720:0.011494253 896:0.011494253 1245:0.011494253 1589:0.011494253 1872:0.011494253 1972:0.011494253 #
-199.79299315015606453016516752541 98:0.016129032 130:0.016129032 380:0.016129032 710:0.016129032 738:0.016129032 1192:0.016129032 1435:0.016129032 1700:0.016129032 1821:0.016129032 1824:0.016129032 #
214.29260724433751761353050824255 38:0.052631579 191:0.052631579 274:0.052631579 #
214.29260724433751761353050824255 13:0.010752688 314:0.010752688 404:0.010752688 641:0.010752688 720:0.010752688 735:0.010752688 1028:0.010752688 1086:0.010752688 1567:0.010752688 1894:0.010752688 2684:0.010752688 2785:0.010752688 #
-142.28318699676003689091885462403 38:0.11111111 201:0.11111111 #
214.29260724433751761353050824255 93:0.027777778 114:0.027777778 157:0.027777778 463:0.027777778 2739:0.027777778 #
214.29260724433751761353050824255 157:0.045454547 807:0.045454547 987:0.045454547 1554:0.045454547 #
214.29260724433751761353050824255 37:0.024390243 43:0.024390243 157:0.024390243 298:0.024390243 1019:0.024390243 2382:0.024390243 #
15.590456971351542847514792811126 60:0.018867925 98:0.018867925 183:0.018867925 472:0.018867925 800:0.018867925 920:0.018867925 2469:0.018867925 #
-214.29260724433751761353050824255 84:0.06666667 274:0.06666667 #
-214.29260724433751761353050824255 172:0.06666667 782:0.033333335 1380:0.033333335 1696:0.033333335 #
214.29260724433751761353050824255 38:0.037037037 115:0.018518519 204:0.018518519 223:0.018518519 719:0.018518519 760:0.037037037 2421:0.018518519 #
214.29260724433751761353050824255 38:0.035714287 1611:0.035714287 1831:0.035714287 1838:0.035714287 #
214.29260724433751761353050824255 103:0.014925373 154:0.014925373 659:0.014925373 909:0.014925373 1685:0.014925373 2233:0.014925373 2250:0.014925373 2552:0.014925373 2590:0.014925373 #
-209.87624103164964139978110324591 719:0.2857143 #
-214.29260724433751761353050824255 191:0.043478262 813:0.043478262 1158:0.043478262 1319:0.043478262 #
214.29260724433751761353050824255 157:0.055555556 172:0.055555556 349:0.055555556 678:0.055555556 #
214.29260724433751761353050824255 120:0.047619049 172:0.047619049 199:0.095238097 #
-214.29260724433751761353050824255 77:0.018518519 126:0.018518519 157:0.018518519 530:0.018518519 731:0.018518519 905:0.018518519 1125:0.018518519 1385:0.018518519 #
-36.49829054363492275570024503395 348:0.041666668 974:0.041666668 1040:0.041666668 1494:0.041666668 #
-214.29260724433751761353050824255 786:0.055555556 999:0.11111111 1705:0.055555556 #
-214.29260724433751761353050824255 449:0.047619049 979:0.047619049 1391:0.047619049 1672:0.047619049 #
214.29260724433751761353050824255 38:0.041666668 127:0.041666668 735:0.041666668 813:0.041666668 #
214.29260724433751761353050824255 38:0.025 439:0.025 731:0.025 839:0.025 1514:0.025 2709:0.025 #
214.29260724433751761353050824255 38:0.037037037 691:0.037037037 773:0.037037037 1270:0.037037037 #
-214.29260724433751761353050824255 148:0.015873017 197:0.015873017 242:0.015873017 244:0.015873017 376:0.015873017 492:0.015873017 1424:0.015873017 1457:0.015873017 1942:0.015873017 #
214.29260724433751761353050824255 8:0.039999999 98:0.079999998 110:0.039999999 136:0.039999999 #
-187.41181542628095257896347902715 45:0.03846154 126:0.03846154 477:0.03846154 562:0.03846154 701:0.03846154 #
214.29260724433751761353050824255 29:0.025641026 35:0.025641026 38:0.025641026 127:0.025641026 137:0.025641026 2118:0.025641026 #
214.29260724433751761353050824255 38:0.025641026 132:0.025641026 218:0.025641026 587:0.025641026 864:0.025641026 1086:0.025641026 #
214.29260724433751761353050824255 38:0.027027028 45:0.027027028 485:0.027027028 1635:0.027027028 2287:0.027027028 #
-214.29260724433751761353050824255 29:0.0125 38:0.0125 66:0.0125 98:0.0125 306:0.0125 337:0.0125 765:0.0125 965:0.0125 973:0.0125 1037:0.0125 1154:0.0125 1319:0.0125 #
-214.29260724433751761353050824255 28:0.055555556 439:0.055555556 912:0.055555556 #
-214.29260724433751761353050824255 8:0.055555556 1161:0.055555556 #
-214.29260724433751761353050824255 98:0.25 #
-214.29260724433751761353050824255 64:0.03846154 98:0.03846154 120:0.03846154 408:0.03846154 #
-214.29260724433751761353050824255 348:0.083333336 763:0.041666668 1569:0.041666668 #
214.29260724433751761353050824255 35:0.024390243 140:0.024390243 144:0.024390243 349:0.024390243 426:0.048780486 1354:0.024390243 1562:0.024390243 #
20.764629849376380121839247294702 405:0.03125 694:0.03125 729:0.03125 1527:0.03125 1528:0.03125 #
-214.29260724433751761353050824255 63:0.023255814 85:0.023255814 157:0.023255814 298:0.023255814 368:0.023255814 995:0.023255814 1605:0.023255814 #
214.29260724433751761353050824255 83:0.013513514 98:0.013513514 186:0.013513514 288:0.013513514 494:0.013513514 623:0.013513514 1292:0.013513514 1469:0.013513514 2104:0.013513514 2234:0.013513514 #
214.29260724433751761353050824255 66:0.050000001 348:0.050000001 2438:0.050000001 #
214.29260724433751761353050824255 218:0.025641026 425:0.025641026 525:0.025641026 678:0.025641026 2046:0.025641026 2077:0.025641026 #
-111.23095585328216827747382922098 50:0.022727273 59:0.022727273 73:0.022727273 681:0.022727273 905:0.022727273 1266:0.022727273 #
99.973601377678050994290970265865 313:0.034482758 2146:0.034482758 2601:0.034482758 #
-214.29260724433751761353050824255 197:0.034482758 251:0.034482758 355:0.034482758 510:0.034482758 651:0.034482758 #
214.29260724433751761353050824255 45:0.03846154 111:0.03846154 494:0.03846154 1524:0.03846154 #
-214.29260724433751761353050824255 8:0.083333336 864:0.083333336 #
214.29260724433751761353050824255 148:0.029411765 172:0.029411765 251:0.029411765 394:0.029411765 680:0.029411765 2672:0.029411765 #
214.29260724433751761353050824255 281:0.043478262 1229:0.043478262 1483:0.043478262 #
-214.29260724433751761353050824255 14:0.050000001 66:0.050000001 1634:0.050000001 #
-214.29260724433751761353050824255 235:0.03846154 637:0.03846154 710:0.03846154 1618:0.03846154 #
-214.29260724433751761353050824255 641:0.1 1099:0.1 #
-214.29260724433751761353050824255 66:0.071428575 1246:0.071428575 #
-214.29260724433751761353050824255 98:0.033333335 281:0.033333335 1304:0.033333335 1919:0.033333335 #
214.29260724433751761353050824255 157:0.023809524 218:0.023809524 782:0.023809524 864:0.023809524 1459:0.023809524 1785:0.023809524 2565:0.023809524 #
214.29260724433751761353050824255 157:0.030303031 607:0.030303031 864:0.030303031 1184:0.030303031 1376:0.030303031 #
214.29260724433751761353050824255 34:0.01369863 126:0.01369863 143:0.01369863 157:0.02739726 318:0.01369863 463:0.01369863 1407:0.01369863 1412:0.01369863 1868:0.01369863 2530:0.01369863 2621:0.01369863 #
214.29260724433751761353050824255 38:0.02631579 864:0.02631579 1120:0.02631579 1590:0.02631579 2394:0.02631579 #
-214.29260724433751761353050824255 8:0.037037037 110:0.037037037 112:0.037037037 1322:0.037037037 #
202.80710110517111388617195188999 257:0.027027028 341:0.027027028 349:0.027027028 864:0.027027028 1275:0.027027028 1354:0.027027028 2355:0.027027028 #
214.29260724433751761353050824255 8:0.022727273 38:0.022727273 90:0.022727273 112:0.022727273 304:0.022727273 417:0.022727273 710:0.022727273 #
214.29260724433751761353050824255 13:0.023255814 38:0.023255814 60:0.023255814 132:0.023255814 1669:0.023255814 2081:0.023255814 2082:0.023255814 #
-214.29260724433751761353050824255 157:0.045454547 704:0.045454547 1483:0.045454547 #
-214.29260724433751761353050824255 157:0.039999999 463:0.039999999 1190:0.039999999 1528:0.039999999 #
-214.29260724433751761353050824255 83:0.021276595 249:0.021276595 298:0.021276595 634:0.021276595 773:0.04255319 985:0.021276595 #
-88.143683782250903391286556143314 1483:0.071428575 1964:0.071428575 #
-214.29260724433751761353050824255 267:0.071428575 394:0.071428575 440:0.071428575 #
214.29260724433751761353050824255 18:0.017857144 38:0.017857144 127:0.017857144 155:0.017857144 157:0.017857144 197:0.017857144 839:0.017857144 2435:0.017857144 2622:0.017857144 #
214.29260724433751761353050824255 38:0.018181818 103:0.018181818 125:0.018181818 257:0.018181818 355:0.018181818 891:0.018181818 1389:0.018181818 2233:0.018181818 2552:0.018181818 #
214.29260724433751761353050824255 34:0.01369863 38:0.01369863 157:0.01369863 278:0.01369863 298:0.01369863 310:0.01369863 408:0.01369863 440:0.01369863 510:0.01369863 572:0.01369863 773:0.01369863 836:0.01369863 1230:0.01369863 #
-214.29260724433751761353050824255 113:0.01923077 274:0.01923077 513:0.01923077 1052:0.01923077 1207:0.01923077 1211:0.01923077 1591:0.01923077 #
-199.51177586862439738979446701705 414:0.025641026 523:0.025641026 542:0.025641026 571:0.025641026 772:0.025641026 1402:0.025641026 #
214.29260724433751761353050824255 38:0.037037037 463:0.037037037 941:0.037037037 1404:0.037037037 #
59.940705434718537958360684569925 38:0.045454547 968:0.045454547 2021:0.045454547 #
214.29260724433751761353050824255 38:0.045454547 676:0.045454547 1794:0.045454547 #
-119.95177019356283665274531813338 8:0.052631579 38:0.052631579 846:0.052631579 #
-214.29260724433751761353050824255 8:0.050000001 710:0.050000001 1307:0.050000001 1351:0.050000001 #
-214.29260724433751761353050824255 675:0.071428575 676:0.071428575 #
214.29260724433751761353050824255 98:0.017241379 103:0.034482758 110:0.017241379 157:0.017241379 267:0.017241379 647:0.017241379 914:0.017241379 #
214.29260724433751761353050824255 38:0.016666668 69:0.016666668 125:0.016666668 348:0.016666668 349:0.016666668 807:0.016666668 1469:0.016666668 2339:0.016666668 2813:0.016666668 #
-214.29260724433751761353050824255 30:0.014084507 98:0.014084507 172:0.014084507 314:0.014084507 630:0.014084507 706:0.014084507 735:0.014084507 970:0.014084507 1211:0.014084507 1277:0.014084507 1361:0.014084507 #
-214.29260724433751761353050824255 67:0.034482758 104:0.034482758 155:0.034482758 157:0.034482758 #
-73.264006531368622177069482859224 155:0.034482758 157:0.034482758 210:0.034482758 1189:0.034482758 1826:0.034482758 #
-214.29260724433751761353050824255 157:0.055555556 620:0.055555556 1682:0.055555556 #
214.29260724433751761353050824255 38:0.045454547 1178:0.045454547 1232:0.045454547 1351:0.045454547 #
214.29260724433751761353050824255 38:0.018867925 318:0.018867925 846:0.018867925 1386:0.018867925 1561:0.018867925 2291:0.03773585 #
-26.243868791535199136433220701292 1232:0.2 #
214.29260724433751761353050824255 155:0.03125 157:0.03125 550:0.03125 1891:0.03125 2194:0.03125 #
214.29260724433751761353050824255 155:0.032258064 157:0.032258064 373:0.032258064 447:0.032258064 488:0.032258064 1198:0.032258064 #
-214.29260724433751761353050824255 902:0.03846154 1052:0.03846154 1178:0.07692308 #
214.29260724433751761353050824255 204:0.01923077 214:0.01923077 807:0.01923077 1569:0.01923077 2369:0.01923077 2393:0.01923077 2798:0.01923077 #
-154.838706888652211546286707744 123:0.1 172:0.1 #
-214.29260724433751761353050824255 287:0.028571429 330:0.028571429 738:0.028571429 818:0.028571429 859:0.028571429 1178:0.028571429 #
-214.29260724433751761353050824255 102:0.037037037 197:0.037037037 209:0.037037037 373:0.037037037 1045:0.037037037 #
214.29260724433751761353050824255 38:0.020833334 98:0.020833334 394:0.020833334 641:0.041666668 864:0.020833334 962:0.020833334 1032:0.020833334 1109:0.020833334 #
214.29260724433751761353050824255 99:0.016949153 136:0.016949153 157:0.016949153 373:0.016949153 472:0.016949153 492:0.016949153 859:0.016949153 1232:0.016949153 1579:0.016949153 1649:0.016949153 #
-214.29260724433751761353050824255 13:0.034482758 360:0.034482758 511:0.034482758 941:0.034482758 998:0.034482758 #
-214.29260724433751761353050824255 1404:0.11111111 #
-214.29260724433751761353050824255 29:0.035714287 204:0.035714287 1109:0.035714287 1684:0.035714287 #
-135.91383559863652408239431679249 1351:0.11111111 1551:0.11111111 #
214.29260724433751761353050824255 13:0.014925373 67:0.014925373 179:0.014925373 310:0.014925373 864:0.014925373 917:0.014925373 1037:0.014925373 1657:0.014925373 2692:0.014925373 #
-214.29260724433751761353050824255 38:0.1 1383:0.1 #
-214.29260724433751761353050824255 63:0.015873017 215:0.015873017 608:0.015873017 641:0.015873017 1085:0.015873017 1236:0.015873017 1472:0.015873017 1605:0.015873017 1701:0.015873017 #
-214.29260724433751761353050824255 98:0.04255319 172:0.021276595 174:0.021276595 211:0.021276595 527:0.021276595 609:0.021276595 1991:0.021276595 #
214.29260724433751761353050824255 32:0.018181818 66:0.018181818 98:0.018181818 157:0.018181818 641:0.018181818 960:0.018181818 1171:0.018181818 2018:0.018181818 2374:0.018181818 #
214.29260724433751761353050824255 13:0.014285714 19:0.028571429 38:0.028571429 100:0.014285714 179:0.014285714 654:0.014285714 917:0.014285714 1146:0.014285714 1189:0.014285714 #
214.29260724433751761353050824255 13:0.024390243 38:0.024390243 451:0.024390243 580:0.024390243 1086:0.024390243 #
136.69302169138751423815847374499 38:0.045454547 893:0.045454547 1055:0.045454547 2566:0.045454547 #
7.8587071847571499105811199115124 67:0.016129032 85:0.016129032 1112:0.016129032 1220:0.016129032 1229:0.016129032 1673:0.016129032 1694:0.016129032 2289:0.016129032 2816:0.016129032 #
214.29260724433751761353050824255 38:0.039999999 385:0.039999999 858:0.039999999 1675:0.039999999 #
214.29260724433751761353050824255 38:0.020833334 227:0.020833334 228:0.020833334 659:0.020833334 696:0.020833334 1403:0.020833334 2384:0.020833334 #
214.29260724433751761353050824255 38:0.027027028 125:0.027027028 366:0.027027028 816:0.027027028 1910:0.027027028 2501:0.027027028 #
-6.6187186838759046736413438338786 155:0.021276595 157:0.021276595 717:0.021276595 1407:0.021276595 1616:0.021276595 1929:0.021276595 #
214.29260724433751761353050824255 12:0.022727273 157:0.022727273 883:0.022727273 967:0.022727273 2513:0.022727273 2588:0.022727273 #
-12.181294240528099948051021783613 917:0.25 #
-214.29260724433751761353050824255 121:0.033333335 237:0.033333335 480:0.033333335 969:0.033333335 1112:0.033333335 #
127.42175329533490923950012074783 1270:0.021276595 1468:0.021276595 2018:0.021276595 2221:0.021276595 2304:0.021276595 #
-8.6581514627897782077070587547496 1575:0.090909094 1591:0.090909094 #
214.29260724433751761353050824255 6:0.024390243 58:0.024390243 155:0.024390243 1093:0.024390243 1182:0.024390243 1684:0.024390243 #
-214.29260724433751761353050824255 66:0.018867925 98:0.018867925 172:0.018867925 215:0.018867925 306:0.018867925 310:0.018867925 1182:0.018867925 1451:0.018867925 1734:0.03773585 #
-214.29260724433751761353050824255 534:0.019607844 647:0.019607844 687:0.019607844 807:0.019607844 1012:0.019607844 1251:0.019607844 1687:0.019607844 #
-214.29260724433751761353050824255 294:0.011764706 472:0.011764706 480:0.011764706 622:0.011764706 718:0.011764706 735:0.011764706 781:0.011764706 920:0.011764706 1027:0.011764706 1032:0.011764706 1340:0.011764706 1673:0.011764706 1861:0.011764706 #
214.29260724433751761353050824255 38:0.01369863 93:0.01369863 157:0.01369863 176:0.01369863 237:0.01369863 311:0.01369863 313:0.01369863 1688:0.01369863 2134:0.01369863 #
214.29260724433751761353050824255 38:0.025 100:0.025 228:0.025 710:0.025 2180:0.025 2337:0.025 #
-214.29260724433751761353050824255 38:0.03846154 1086:0.03846154 1695:0.03846154 #
214.29260724433751761353050824255 29:0.043478262 172:0.043478262 338:0.043478262 2447:0.043478262 #
214.29260724433751761353050824255 71:0.03846154 172:0.03846154 621:0.03846154 995:0.03846154 #
-214.29260724433751761353050824255 28:0.0094339624 29:0.018867925 38:0.0094339624 74:0.0094339624 98:0.0094339624 126:0.0094339624 191:0.0094339624 222:0.0094339624 448:0.0094339624 449:0.0094339624 741:0.0094339624 1013:0.0094339624 1711:0.0094339624 1747:0.0094339624 #
142.16354270197996356728253886104 8:0.015625 98:0.015625 149:0.015625 441:0.015625 472:0.015625 984:0.015625 2083:0.015625 2132:0.015625 2341:0.015625 #
-214.29260724433751761353050824255 98:0.017857144 148:0.017857144 157:0.017857144 187:0.017857144 749:0.017857144 1019:0.017857144 1189:0.017857144 1794:0.017857144 1925:0.017857144 #
214.29260724433751761353050824255 215:0.090909094 266:0.090909094 #
214.29260724433751761353050824255 38:0.043478262 126:0.043478262 2022:0.043478262 #
214.29260724433751761353050824255 13:0.010869565 29:0.010869565 38:0.010869565 59:0.010869565 126:0.010869565 941:0.010869565 970:0.010869565 1059:0.010869565 1354:0.010869565 1658:0.010869565 1769:0.010869565 1898:0.010869565 1907:0.010869565 #
214.29260724433751761353050824255 38:0.025641026 60:0.025641026 126:0.025641026 332:0.025641026 651:0.025641026 1183:0.025641026 #
66.505675989371582090825540944934 29:0.05882353 157:0.05882353 2815:0.05882353 #
-214.29260724433751761353050824255 134:0.052631579 464:0.052631579 844:0.052631579 #
-97.955515213335957014351151883602 29:0.030303031 414:0.030303031 735:0.030303031 803:0.030303031 1193:0.030303031 #
-214.29260724433751761353050824255 414:0.032258064 605:0.032258064 735:0.032258064 908:0.032258064 #
-214.29260724433751761353050824255 721:0.037037037 914:0.037037037 1611:0.037037037 #
214.29260724433751761353050824255 38:0.02 172:0.02 311:0.02 372:0.02 1229:0.02 1299:0.02 2176:0.02 #
-214.29260724433751761353050824255 172:0.1 1118:0.1 #
-55.675257197684459242736920714378 1299:0.14285715 #
-214.29260724433751761353050824255 29:0.037037037 157:0.037037037 834:0.037037037 1037:0.037037037 1289:0.037037037 #
-214.29260724433751761353050824255 8:0.01923077 66:0.01923077 157:0.01923077 218:0.01923077 257:0.01923077 573:0.01923077 1078:0.01923077 1268:0.01923077 1523:0.01923077 #
-175.23046366245557692309375852346 32:0.050000001 157:0.050000001 1680:0.050000001 #
214.29260724433751761353050824255 281:0.014492754 288:0.014492754 299:0.014492754 422:0.014492754 612:0.014492754 1335:0.014492754 2023:0.014492754 2312:0.014492754 2457:0.014492754 #
124.72099725720555341013096040115 45:0.11111111 414:0.11111111 #
214.29260724433751761353050824255 38:0.043478262 307:0.043478262 464:0.043478262 1503:0.043478262 #
-214.29260724433751761353050824255 38:0.05882353 45:0.05882353 1592:0.05882353 #
-197.53246175882117086075595580041 149:0.1 307:0.1 #
214.29260724433751761353050824255 157:0.050000001 266:0.050000001 882:0.050000001 1694:0.1 #
214.29260724433751761353050824255 157:0.055555556 1268:0.055555556 2605:0.055555556 #
-214.29260724433751761353050824255 8:0.020833334 132:0.020833334 223:0.020833334 782:0.020833334 819:0.020833334 1118:0.020833334 1367:0.020833334 1380:0.020833334 #
-214.29260724433751761353050824255 612:0.052631579 935:0.052631579 1041:0.052631579 #
-214.29260724433751761353050824255 191:0.023809524 206:0.023809524 257:0.023809524 612:0.023809524 1101:0.023809524 1113:0.023809524 1602:0.023809524 #
-214.29260724433751761353050824255 60:0.033333335 130:0.033333335 529:0.033333335 886:0.033333335 999:0.033333335 #
-214.29260724433751761353050824255 157:0.032786883 191:0.016393442 257:0.016393442 265:0.016393442 313:0.016393442 964:0.016393442 1495:0.016393442 1803:0.016393442 #
214.29260724433751761353050824255 38:0.03125 100:0.03125 266:0.03125 591:0.03125 1592:0.03125 #
-176.94427151051752389321336522698 16:0.014492754 64:0.014492754 130:0.014492754 1458:0.014492754 1500:0.014492754 1700:0.014492754 1883:0.014492754 1991:0.014492754 #
116.53168364621078012532962020487 38:0.01923077 296:0.01923077 585:0.01923077 710:0.01923077 806:0.01923077 902:0.01923077 1111:0.01923077 1288:0.01923077 #
-6.649833167016812041083539952524 194:0.025 282:0.025 298:0.025 613:0.025 901:0.025 1114:0.025 1734:0.025 #
-4.7932569831857989584023016504943 38:0.090909094 1123:0.090909094 #
-214.29260724433751761353050824255 729:0.16666667 #
214.29260724433751761353050824255 43:0.016949153 157:0.016949153 183:0.016949153 446:0.016949153 886:0.016949153 1245:0.016949153 1615:0.016949153 2636:0.016949153 #
-46.668515664102940831980959046632 16:0.035714287 872:0.035714287 1036:0.035714287 1710:0.035714287 #
214.29260724433751761353050824255 123:0.020408163 399:0.020408163 1047:0.020408163 1337:0.020408163 2212:0.020408163 #
-214.29260724433751761353050824255 16:0.039999999 214:0.039999999 591:0.039999999 #
-91.249073172547738863613631110638 118:0.090909094 1041:0.090909094 #
-153.92215953267805161885917186737 125:0.0625 1094:0.0625 1694:0.0625 #
-129.26362394824067791887500789016 98:0.032258064 258:0.032258064 332:0.032258064 456:0.032258064 591:0.032258064 #
214.29260724433751761353050824255 2:0.029411765 38:0.029411765 257:0.029411765 1635:0.029411765 1802:0.029411765 #
214.29260724433751761353050824255 29:0.035714287 38:0.035714287 126:0.035714287 908:0.035714287 #
214.29260724433751761353050824255 38:0.037037037 326:0.037037037 349:0.037037037 1436:0.037037037 2408:0.037037037 #
-213.84446529533781244936108123511 29:0.043478262 394:0.043478262 1111:0.043478262 1918:0.043478262 #
-214.29260724433751761353050824255 98:0.027777778 126:0.055555556 651:0.027777778 1189:0.027777778 1865:0.027777778 #
-214.29260724433751761353050824255 11:0.06666667 1156:0.06666667 #
-67.845926941654539632509113289416 66:0.033333335 70:0.033333335 126:0.033333335 299:0.033333335 678:0.033333335 #
214.29260724433751761353050824255 266:0.028571429 764:0.028571429 765:0.028571429 1185:0.028571429 1229:0.028571429 #
214.29260724433751761353050824255 13:0.013157895 38:0.02631579 112:0.013157895 151:0.013157895 242:0.013157895 332:0.013157895 677:0.013157895 914:0.013157895 1059:0.013157895 1403:0.013157895 #
-197.60158214760286909950082190335 8:0.043478262 38:0.043478262 53:0.043478262 1503:0.043478262 #
-185.7440750991903541944338940084 98:0.014084507 145:0.014084507 205:0.014084507 440:0.014084507 1192:0.014084507 1350:0.014084507 1655:0.014084507 1659:0.014084507 1673:0.014084507 1883:0.014084507 #
-214.29260724433751761353050824255 69:0.035714287 610:0.035714287 1208:0.035714287 #
-82.832590827174612968519795686007 7:0.037037037 98:0.037037037 1436:0.037037037 1563:0.037037037 #
-214.29260724433751761353050824255 125:0.030303031 349:0.030303031 372:0.030303031 731:0.030303031 1187:0.030303031 #
214.29260724433751761353050824255 38:0.041666668 299:0.083333336 1571:0.041666668 #
-214.29260724433751761353050824255 35:0.027027028 83:0.054054055 84:0.027027028 85:0.027027028 86:0.027027028 #
-214.29260724433751761353050824255 38:0.083333336 260:0.083333336 #
214.29260724433751761353050824255 69:0.06666667 1364:0.06666667 #
-175.80993503033025149306922685355 230:0.043478262 373:0.043478262 1475:0.043478262 1553:0.043478262 1571:0.043478262 #
-214.29260724433751761353050824255 299:0.03125 373:0.03125 385:0.03125 505:0.03125 724:0.03125 #
214.29260724433751761353050824255 38:0.035714287 236:0.035714287 1753:0.035714287 1754:0.035714287 #
214.29260724433751761353050824255 38:0.027027028 774:0.027027028 1208:0.027027028 2350:0.027027028 2351:0.027027028 #
-214.29260724433751761353050824255 19:0.125 257:0.0625 #
-2.8652174847814304570192689425312 126:0.024390243 332:0.024390243 408:0.024390243 537:0.024390243 1165:0.024390243 1739:0.024390243 1816:0.024390243 #
-214.29260724433751761353050824255 36:0.02631579 361:0.02631579 647:0.02631579 874:0.02631579 1688:0.02631579 #
-214.29260724433751761353050824255 38:0.030303031 157:0.030303031 329:0.030303031 455:0.030303031 1032:0.030303031 #
214.29260724433751761353050824255 38:0.014705882 42:0.014705882 172:0.014705882 311:0.014705882 443:0.014705882 492:0.014705882 505:0.014705882 972:0.014705882 1160:0.014705882 2316:0.014705882 #
214.29260724433751761353050824255 132:0.025 157:0.025 349:0.025 407:0.025 511:0.025 1188:0.025 1265:0.025 #
-214.29260724433751761353050824255 278:0.1 1634:0.1 #
-214.29260724433751761353050824255 235:0.045454547 349:0.045454547 1305:0.045454547 1437:0.045454547 #
214.29260724433751761353050824255 157:0.046511628 177:0.023255814 720:0.023255814 729:0.023255814 2217:0.023255814 2616:0.023255814 #
214.29260724433751761353050824255 38:0.022222223 488:0.022222223 489:0.022222223 743:0.022222223 949:0.022222223 1204:0.022222223 1299:0.022222223 2211:0.022222223 #
214.29260724433751761353050824255 38:0.01923077 120:0.01923077 157:0.03846154 197:0.01923077 373:0.01923077 480:0.01923077 2467:0.01923077 2765:0.01923077 #
-193.65979632600149784593668300658 1675:0.16666667 #
-214.29260724433751761353050824255 94:0.02631579 114:0.02631579 261:0.02631579 594:0.02631579 813:0.02631579 1184:0.02631579 #
-214.29260724433751761353050824255 111:0.032258064 254:0.032258064 464:0.032258064 1905:0.032258064 #
-214.29260724433751761353050824255 191:0.020408163 756:0.020408163 1202:0.020408163 1326:0.020408163 1386:0.020408163 1940:0.020408163 #
214.29260724433751761353050824255 38:0.2 #
214.29260724433751761353050824255 157:0.047619049 425:0.047619049 816:0.047619049 1675:0.047619049 #
-214.29260724433751761353050824255 83:0.030303031 157:0.030303031 397:0.030303031 425:0.060606062 1827:0.030303031 #
-174.77355842022123511014797259122 157:0.050000001 171:0.050000001 426:0.050000001 624:0.050000001 #
-214.29260724433751761353050824255 171:0.019607844 315:0.019607844 464:0.019607844 678:0.019607844 720:0.019607844 1017:0.019607844 1138:0.019607844 1439:0.019607844 #
214.29260724433751761353050824255 38:0.032258064 66:0.016129032 139:0.016129032 191:0.016129032 414:0.016129032 449:0.016129032 1354:0.016129032 1714:0.048387095 #
214.29260724433751761353050824255 482:0.020408163 1011:0.020408163 1047:0.020408163 1688:0.020408163 #
214.29260724433751761353050824255 38:0.034482758 66:0.034482758 257:0.034482758 1918:0.034482758 2403:0.034482758 #
-214.29260724433751761353050824255 38:0.015384615 105:0.015384615 127:0.015384615 294:0.015384615 508:0.015384615 741:0.015384615 801:0.015384615 928:0.015384615 929:0.015384615 930:0.015384615 #
-214.29260724433751761353050824255 178:0.083333336 1774:0.083333336 #
-214.29260724433751761353050824255 172:0.023255814 348:0.023255814 414:0.023255814 415:0.023255814 1309:0.023255814 1478:0.023255814 1742:0.023255814 #
37.012474621735790947241184767336 157:0.030303031 207:0.030303031 425:0.030303031 1118:0.030303031 1239:0.030303031 1838:0.030303031 #
23.627043557204064683219257858582 313:0.045454547 1223:0.045454547 1562:0.045454547 #
-214.29260724433751761353050824255 83:0.03846154 157:0.03846154 877:0.03846154 972:0.03846154 #
48.836623943941717129746393766254 975:0.023809524 1044:0.023809524 1226:0.023809524 2487:0.023809524 2488:0.023809524 #
214.29260724433751761353050824255 172:0.034482758 230:0.034482758 464:0.034482758 835:0.034482758 1260:0.034482758 #
214.29260724433751761353050824255 38:0.021739131 235:0.021739131 256:0.021739131 579:0.021739131 892:0.021739131 2074:0.021739131 #
-117.45167901218941608476598048583 835:0.14285715 #
-214.29260724433751761353050824255 29:0.03846154 255:0.03846154 256:0.03846154 257:0.03846154 #
-214.29260724433751761353050824255 172:0.039999999 511:0.039999999 807:0.039999999 864:0.039999999 #
-50.757860136005021445271268021315 38:0.027777778 157:0.055555556 261:0.027777778 884:0.027777778 1645:0.027777778 #
-68.805339855789753755743731744587 157:0.039999999 380:0.039999999 743:0.039999999 906:0.039999999 #
-214.29260724433751761353050824255 157:0.047619049 256:0.023809524 318:0.023809524 485:0.023809524 652:0.023809524 801:0.023809524 1030:0.023809524 #
194.93725840137264526674698572606 83:0.034482758 858:0.034482758 1537:0.034482758 2134:0.034482758 #
-78.097197353329178781677910592407 399:0.033333335 741:0.033333335 812:0.033333335 842:0.033333335 #
-214.29260724433751761353050824255 68:0.045454547 69:0.045454547 #
-214.29260724433751761353050824255 28:0.039999999 55:0.039999999 215:0.039999999 1446:0.039999999 #
214.29260724433751761353050824255 157:0.045454547 1099:0.045454547 1223:0.045454547 2336:0.045454547 #
-214.29260724433751761353050824255 157:0.034482758 806:0.034482758 918:0.034482758 1099:0.034482758 1501:0.034482758 #
-214.29260724433751761353050824255 307:0.021276595 535:0.04255319 536:0.063829787 1048:0.021276595 1223:0.021276595 1859:0.04255319 #
-181.20071435632013390204519964755 157:0.035714287 621:0.035714287 709:0.035714287 1928:0.035714287 1976:0.035714287 #
214.29260724433751761353050824255 28:0.015873017 38:0.015873017 183:0.015873017 766:0.015873017 1129:0.015873017 1192:0.015873017 1645:0.015873017 1695:0.015873017 2011:0.015873017 #
-214.29260724433751761353050824255 38:0.07692308 1218:0.07692308 #
214.29260724433751761353050824255 13:0.017241379 68:0.034482758 157:0.017241379 172:0.017241379 306:0.017241379 1863:0.017241379 2141:0.017241379 #
214.29260724433751761353050824255 157:0.02 318:0.02 344:0.02 494:0.02 709:0.02 822:0.02 2048:0.02 #
214.29260724433751761353050824255 55:0.01754386 148:0.01754386 157:0.01754386 187:0.01754386 267:0.01754386 590:0.01754386 912:0.01754386 2192:0.01754386 2239:0.01754386 2397:0.01754386 #
214.29260724433751761353050824255 58:0.015384615 157:0.015384615 172:0.015384615 193:0.015384615 260:0.015384615 864:0.015384615 1506:0.015384615 1831:0.015384615 2119:0.015384615 2786:0.015384615 #
-214.29260724433751761353050824255 243:0.030303031 407:0.030303031 425:0.030303031 581:0.030303031 1055:0.030303031 1806:0.030303031 #
-214.29260724433751761353050824255 492:0.039999999 529:0.039999999 1055:0.039999999 1639:0.039999999 #
-214.29260724433751761353050824255 140:0.029411765 183:0.029411765 206:0.029411765 299:0.029411765 1344:0.029411765 #
-214.29260724433751761353050824255 751:0.034482758 1197:0.034482758 1657:0.034482758 #
214.29260724433751761353050824255 18:0.015151516 98:0.015151516 413:0.015151516 532:0.015151516 614:0.015151516 1261:0.015151516 1354:0.015151516 1436:0.015151516 1967:0.015151516 #
214.29260724433751761353050824255 2:0.02 32:0.02 103:0.02 157:0.02 197:0.02 477:0.02 652:0.02 1724:0.02 #
214.29260724433751761353050824255 40:0.019607844 228:0.019607844 361:0.019607844 801:0.019607844 807:0.019607844 1309:0.019607844 1822:0.019607844 #
-214.29260724433751761353050824255 115:0.032258064 180:0.032258064 636:0.032258064 1120:0.032258064 #
-214.29260724433751761353050824255 154:0.034482758 197:0.034482758 1049:0.034482758 1244:0.034482758 #
-95.097470533239388146284909453243 200:0.06666667 332:0.06666667 1261:0.06666667 #
-214.29260724433751761353050824255 8:0.030303031 103:0.030303031 1084:0.030303031 1110:0.030303031 #
76.514963729337992504042631480843 72:0.017241379 98:0.017241379 205:0.017241379 629:0.017241379 1297:0.017241379 1521:0.017241379 2427:0.017241379 2453:0.017241379 2612:0.017241379 #
214.29260724433751761353050824255 38:0.043478262 114:0.043478262 409:0.043478262 #
-151.23494540487749304702447261661 140:0.0074626864 157:0.0074626864 240:0.0074626864 251:0.0074626864 298:0.0074626864 407:0.0074626864 864:0.0074626864 1364:0.0074626864 1518:0.0074626864 1519:0.0074626864 1520:0.0074626864 1521:0.0074626864 1522:0.0074626864 1523:0.0074626864 1524:0.0074626864 1525:0.0074626864 1526:0.0074626864 #
-195.71484288758779257477726787329 38:0.018181818 218:0.018181818 254:0.018181818 261:0.018181818 313:0.018181818 362:0.018181818 691:0.018181818 866:0.018181818 1718:0.018181818 #
-214.29260724433751761353050824255 22:0.0125 45:0.0125 464:0.0125 533:0.0125 593:0.0125 691:0.0125 1090:0.0125 1091:0.0125 1092:0.0125 1093:0.0125 #
214.29260724433751761353050824255 157:0.025641026 274:0.025641026 806:0.025641026 1043:0.025641026 1374:0.025641026 #
214.29260724433751761353050824255 43:0.017857144 125:0.017857144 157:0.017857144 408:0.017857144 808:0.017857144 977:0.017857144 1164:0.017857144 1771:0.017857144 2520:0.017857144 #
214.29260724433751761353050824255 37:0.023809524 157:0.023809524 222:0.023809524 1483:0.023809524 2571:0.023809524 #
-214.29260724433751761353050824255 114:0.0625 1937:0.0625 #
-214.29260724433751761353050824255 114:0.0625 678:0.0625 #
-214.29260724433751761353050824255 13:0.035714287 50:0.035714287 114:0.035714287 267:0.035714287 #
-214.29260724433751761353050824255 157:0.035714287 208:0.035714287 218:0.035714287 242:0.035714287 573:0.035714287 720:0.035714287 #
214.29260724433751761353050824255 38:0.037037037 131:0.037037037 2514:0.037037037 #
-214.29260724433751761353050824255 130:0.016666668 143:0.016666668 154:0.016666668 206:0.016666668 208:0.016666668 272:0.016666668 373:0.016666668 515:0.016666668 1340:0.016666668 #
214.29260724433751761353050824255 38:0.011494253 154:0.011494253 157:0.011494253 218:0.011494253 300:0.011494253 641:0.011494253 678:0.011494253 746:0.011494253 1089:0.011494253 1481:0.011494253 2248:0.011494253 2706:0.011494253 #
-214.29260724433751761353050824255 38:0.052631579 300:0.052631579 426:0.052631579 #
-133.92670086757649983155715744942 38:0.043478262 900:0.043478262 1302:0.043478262 #
-214.29260724433751761353050824255 38:0.025 98:0.025 751:0.025 776:0.025 858:0.025 1447:0.025 #
-214.29260724433751761353050824255 18:0.02631579 38:0.02631579 66:0.02631579 144:0.02631579 1562:0.02631579 #
-167.72505033695011888994486071169 38:0.05882353 1043:0.05882353 #
168.90140041656155744931311346591 223:0.014925373 387:0.014925373 464:0.014925373 470:0.014925373 525:0.014925373 1044:0.014925373 2062:0.014925373 2510:0.014925373 2523:0.014925373 2605:0.014925373 #
214.29260724433751761353050824255 83:0.013888889 157:0.013888889 183:0.013888889 477:0.013888889 492:0.013888889 605:0.013888889 2139:0.013888889 2272:0.013888889 2537:0.013888889 #
-26.985829908973894220025613321923 1649:0.14285715 #
-214.29260724433751761353050824255 83:0.027777778 157:0.027777778 202:0.027777778 1386:0.027777778 1775:0.027777778 #
-145.53628961069168212816293817014 359:0.071428575 373:0.071428575 #
-214.29260724433751761353050824255 373:0.035714287 405:0.035714287 813:0.035714287 1759:0.035714287 1785:0.035714287 #
-214.29260724433751761353050824255 12:0.039999999 463:0.039999999 941:0.039999999 1257:0.039999999 #
-214.29260724433751761353050824255 172:0.020833334 528:0.020833334 800:0.020833334 969:0.020833334 1358:0.020833334 1359:0.020833334 1395:0.020833334 #
149.36591323148593346559209749103 38:0.027027028 379:0.027027028 861:0.027027028 2137:0.027027028 2138:0.027027028 #
214.29260724433751761353050824255 38:0.021276595 110:0.021276595 218:0.021276595 1232:0.021276595 1452:0.021276595 1479:0.021276595 1562:0.021276595 1571:0.021276595 #
214.29260724433751761353050824255 38:0.018181818 110:0.018181818 112:0.018181818 455:0.018181818 948:0.018181818 1037:0.018181818 1360:0.018181818 1482:0.018181818 1624:0.018181818 #
214.29260724433751761353050824255 29:0.022222223 38:0.022222223 1001:0.022222223 1616:0.022222223 2531:0.022222223 #
83.721676489012864408323366660625 125:0.027777778 157:0.027777778 659:0.027777778 1785:0.027777778 2183:0.027777778 2191:0.027777778 #
-214.29260724433751761353050824255 110:0.047619049 565:0.047619049 1198:0.047619049 #
-21.812510317526925263109660590999 110:0.023809524 157:0.023809524 274:0.023809524 798:0.023809524 799:0.023809524 1160:0.023809524 1254:0.023809524 #
-214.29260724433751761353050824255 111:0.028571429 426:0.028571429 807:0.028571429 892:0.028571429 1985:0.028571429 #
-56.219207391264582440726371714845 226:0.1 1360:0.1 #
214.29260724433751761353050824255 38:0.03846154 924:0.03846154 1395:0.03846154 #
214.29260724433751761353050824255 38:0.030303031 678:0.030303031 1364:0.030303031 1453:0.030303031 2109:0.030303031 2110:0.030303031 #
68.5134761536577059359842678532 38:0.03125 460:0.03125 513:0.03125 914:0.03125 #
214.29260724433751761353050824255 29:0.02631579 143:0.02631579 405:0.02631579 1112:0.02631579 1806:0.02631579 2021:0.02631579 #
-214.29260724433751761353050824255 38:0.06666667 216:0.06666667 #
-137.81438691938467400177614763379 38:0.06666667 1886:0.06666667 #
-83.23692839776543905827566049993 38:0.0625 1269:0.0625 #
-214.29260724433751761353050824255 28:0.024390243 157:0.024390243 914:0.024390243 1037:0.024390243 1196:0.024390243 1582:0.024390243 #
-214.29260724433751761353050824255 157:0.025641026 441:0.025641026 914:0.025641026 1548:0.025641026 #
-214.29260724433751761353050824255 125:0.043478262 157:0.043478262 408:0.043478262 773:0.043478262 #
75.784228941801742962525167968124 48:0.020408163 414:0.020408163 607:0.020408163 610:0.020408163 1169:0.020408163 1913:0.020408163 #
-214.29260724433751761353050824255 38:0.037037037 983:0.037037037 1011:0.037037037 #
-214.29260724433751761353050824255 38:0.021739131 325:0.021739131 924:0.021739131 943:0.021739131 1317:0.021739131 1697:0.021739131 #
-214.29260724433751761353050824255 73:0.027027028 151:0.027027028 172:0.027027028 1001:0.027027028 1011:0.027027028 #
17.129586114499947058220641338266 349:0.014925373 408:0.014925373 1137:0.014925373 1179:0.014925373 1297:0.014925373 1909:0.014925373 2062:0.014925373 2201:0.014925373 2413:0.014925373 2471:0.014925373 2639:0.014925373 #
127.24406040867719980269612278789 12:0.010309278 28:0.010309278 38:0.010309278 136:0.010309278 146:0.010309278 300:0.010309278 385:0.010309278 472:0.010309278 1191:0.010309278 1439:0.010309278 2264:0.020618556 2289:0.010309278 2297:0.010309278 #
140.9685435496037371194688603282 172:0.035714287 2388:0.035714287 2389:0.035714287 #
214.29260724433751761353050824255 38:0.016393442 103:0.016393442 637:0.016393442 691:0.016393442 902:0.016393442 1109:0.016393442 2116:0.016393442 2117:0.016393442 #
-214.29260724433751761353050824255 28:0.022222223 280:0.022222223 315:0.022222223 605:0.022222223 1188:0.022222223 #
-214.29260724433751761353050824255 257:0.021276595 385:0.021276595 1185:0.021276595 1219:0.021276595 1294:0.021276595 1354:0.021276595 1825:0.021276595 #
214.29260724433751761353050824255 38:0.025 172:0.025 447:0.025 969:0.025 1562:0.025 2194:0.025 #
22.577242579885989925969624891877 8:0.015873017 168:0.031746034 172:0.015873017 464:0.015873017 678:0.015873017 781:0.015873017 1734:0.015873017 2609:0.015873017 2673:0.015873017 #
214.29260724433751761353050824255 38:0.022222223 40:0.022222223 151:0.022222223 251:0.022222223 418:0.022222223 704:0.022222223 #
46.217276274522305357095319777727 38:0.043478262 983:0.043478262 2050:0.043478262 #
100.83284605189766125477035529912 38:0.020833334 660:0.020833334 1688:0.020833334 2459:0.020833334 2594:0.020833334 2719:0.020833334 #
214.29260724433751761353050824255 38:0.021739131 110:0.021739131 332:0.021739131 537:0.021739131 652:0.021739131 929:0.021739131 2705:0.021739131 #
214.29260724433751761353050824255 143:0.018181818 157:0.018181818 377:0.018181818 543:0.018181818 647:0.018181818 810:0.018181818 2479:0.018181818 2480:0.018181818 #
214.29260724433751761353050824255 83:0.023809524 157:0.023809524 1229:0.047619049 1985:0.023809524 2674:0.023809524 #
-214.29260724433751761353050824255 55:0.020408163 95:0.020408163 125:0.020408163 736:0.020408163 982:0.020408163 1515:0.020408163 #
-214.29260724433751761353050824255 83:0.015873017 157:0.015873017 231:0.015873017 232:0.015873017 233:0.015873017 332:0.015873017 537:0.047619049 997:0.015873017 #
214.29260724433751761353050824255 38:0.027777778 257:0.027777778 1073:0.027777778 1897:0.027777778 2359:0.027777778 #
214.29260724433751761353050824255 38:0.037037037 281:0.037037037 1219:0.037037037 1250:0.037037037 #
156.26322671717846901628945488483 38:0.028571429 752:0.028571429 1458:0.028571429 2124:0.028571429 #
214.29260724433751761353050824255 38:0.022222223 114:0.022222223 178:0.022222223 267:0.022222223 472:0.022222223 786:0.022222223 2546:0.022222223 #
214.29260724433751761353050824255 2:0.016949153 38:0.033898305 156:0.016949153 741:0.016949153 835:0.016949153 1489:0.016949153 2191:0.016949153 2327:0.016949153 2549:0.016949153 #
-214.29260724433751761353050824255 197:0.034482758 251:0.034482758 418:0.034482758 1662:0.034482758 #
-214.29260724433751761353050824255 60:0.022727273 267:0.022727273 342:0.022727273 819:0.022727273 882:0.022727273 1026:0.022727273 1374:0.022727273 #
-214.29260724433751761353050824255 130:0.023809524 525:0.023809524 617:0.023809524 750:0.023809524 1239:0.023809524 1629:0.023809524 #
75.285849776008987532804894726723 85:0.01754386 127:0.01754386 172:0.01754386 472:0.01754386 659:0.01754386 1462:0.01754386 2529:0.01754386 2716:0.01754386 #
-214.29260724433751761353050824255 291:0.071428575 1802:0.071428575 #
-214.29260724433751761353050824255 38:0.029411765 157:0.029411765 1047:0.029411765 1809:0.029411765 #
214.29260724433751761353050824255 35:0.013888889 37:0.013888889 38:0.013888889 157:0.013888889 251:0.013888889 474:0.013888889 476:0.013888889 647:0.013888889 808:0.013888889 982:0.013888889 1026:0.013888889 1434:0.013888889 #
-214.29260724433751761353050824255 982:0.16666667 #
214.29260724433751761353050824255 265:0.018518519 477:0.018518519 562:0.018518519 595:0.018518519 2190:0.018518519 2215:0.018518519 2520:0.018518519 #
-214.29260724433751761353050824255 38:0.023255814 114:0.023255814 800:0.023255814 801:0.023255814 802:0.023255814 803:0.023255814 #
-214.29260724433751761353050824255 105:0.028571429 537:0.028571429 607:0.028571429 608:0.028571429 609:0.028571429 #
-214.29260724433751761353050824255 66:0.022222223 136:0.022222223 183:0.022222223 326:0.022222223 610:0.022222223 1511:0.022222223 #
214.29260724433751761353050824255 157:0.02631579 204:0.02631579 267:0.02631579 441:0.02631579 492:0.02631579 2432:0.02631579 #
214.29260724433751761353050824255 38:0.018518519 112:0.018518519 241:0.018518519 267:0.018518519 475:0.018518519 632:0.018518519 1251:0.018518519 1639:0.018518519 #
214.29260724433751761353050824255 38:0.015873017 45:0.015873017 126:0.015873017 157:0.015873017 160:0.015873017 205:0.015873017 278:0.015873017 310:0.015873017 380:0.015873017 893:0.015873017 1030:0.015873017 #
-214.29260724433751761353050824255 38:0.039999999 98:0.039999999 157:0.039999999 472:0.039999999 474:0.039999999 #
151.34637414192886240016377996653 157:0.027027028 287:0.027027028 426:0.027027028 1503:0.027027028 1615:0.027027028 2521:0.027027028 2602:0.027027028 #
-214.29260724433751761353050824255 98:0.01923077 126:0.01923077 311:0.01923077 1229:0.01923077 1486:0.01923077 1563:0.01923077 1623:0.01923077 1636:0.01923077 #
214.29260724433751761353050824255 120:0.015873017 172:0.015873017 199:0.015873017 790:0.015873017 1093:0.015873017 1454:0.015873017 1512:0.031746034 1756:0.015873017 2182:0.015873017 2658:0.015873017 #
-39.875630520696013547876646043733 45:0.050000001 62:0.050000001 172:0.050000001 #
-214.29260724433751761353050824255 35:0.022222223 85:0.022222223 166:0.022222223 172:0.044444446 298:0.022222223 367:0.022222223 678:0.022222223 1479:0.022222223 #
-214.29260724433751761353050824255 199:0.05882353 682:0.05882353 1912:0.05882353 #
-214.29260724433751761353050824255 205:0.083333336 212:0.083333336 #
-214.29260724433751761353050824255 83:0.037037037 199:0.037037037 251:0.037037037 1512:0.037037037 1902:0.037037037 #
-214.29260724433751761353050824255 206:0.025 902:0.025 1270:0.025 1562:0.025 1767:0.025 #
-214.29260724433751761353050824255 38:0.022222223 177:0.022222223 191:0.022222223 197:0.022222223 204:0.022222223 205:0.022222223 1377:0.022222223 #
214.29260724433751761353050824255 157:0.023809524 256:0.023809524 645:0.023809524 831:0.023809524 2428:0.023809524 #
214.29260724433751761353050824255 21:0.018867925 38:0.018867925 339:0.018867925 492:0.018867925 655:0.018867925 751:0.018867925 782:0.018867925 #
-214.29260724433751761353050824255 45:0.014285714 157:0.028571429 288:0.014285714 310:0.014285714 475:0.014285714 646:0.014285714 688:0.014285714 911:0.014285714 1478:0.014285714 1802:0.014285714 #
214.29260724433751761353050824255 38:0.034482758 212:0.034482758 610:0.034482758 2148:0.034482758 #
214.29260724433751761353050824255 38:0.023255814 66:0.023255814 1769:0.023255814 1910:0.023255814 2149:0.023255814 2271:0.023255814 #
-214.29260724433751761353050824255 130:0.0088495575 184:0.0088495575 201:0.0088495575 386:0.026548672 583:0.0088495575 1004:0.0088495575 1012:0.0088495575 1211:0.0088495575 1251:0.0088495575 1404:0.0088495575 1528:0.0088495575 1878:0.0088495575 1954:0.0088495575 #
-19.993774736031092231769434874877 38:0.057142857 172:0.028571429 849:0.028571429 1036:0.028571429 1670:0.028571429 #
-144.10932455797225770766090136021 48:0.034482758 183:0.034482758 227:0.034482758 1168:0.034482758 #
-214.29260724433751761353050824255 95:0.03125 142:0.03125 157:0.03125 218:0.03125 439:0.03125 833:0.03125 #
214.29260724433751761353050824255 19:0.029411765 38:0.029411765 95:0.029411765 254:0.029411765 417:0.029411765 #
214.29260724433751761353050824255 38:0.024096385 83:0.012048192 157:0.012048192 242:0.012048192 357:0.012048192 545:0.012048192 872:0.012048192 1161:0.012048192 1233:0.012048192 2279:0.012048192 2711:0.012048192 #
-214.29260724433751761353050824255 2:0.047619049 981:0.047619049 1080:0.047619049 #
97.163856666733494193977094255388 98:0.025 201:0.025 214:0.025 1521:0.025 2026:0.025 2416:0.025 #
-214.29260724433751761353050824255 199:0.05882353 1090:0.05882353 #
-214.29260724433751761353050824255 199:0.032258064 257:0.032258064 1351:0.032258064 1397:0.032258064 2000:0.032258064 #
-214.29260724433751761353050824255 199:0.035714287 572:0.035714287 615:0.035714287 616:0.035714287 617:0.035714287 #
-148.95608381935679176422127056867 157:0.018518519 207:0.018518519 434:0.018518519 472:0.018518519 1241:0.018518519 1295:0.018518519 1645:0.018518519 1748:0.018518519 #
37.125349393899753636105742771178 464:0.050000001 1229:0.050000001 1358:0.050000001 1614:0.050000001 #
-214.29260724433751761353050824255 230:0.041666668 464:0.041666668 1260:0.041666668 1653:0.041666668 #
-214.29260724433751761353050824255 43:0.02 83:0.02 157:0.02 464:0.02 637:0.02 660:0.02 678:0.02 747:0.02 #
-214.29260724433751761353050824255 98:0.047619049 218:0.047619049 366:0.047619049 831:0.047619049 #
-214.29260724433751761353050824255 4:0.020833334 38:0.020833334 157:0.041666668 425:0.020833334 987:0.020833334 1336:0.020833334 1786:0.020833334 #
214.29260724433751761353050824255 28:0.022727273 38:0.022727273 204:0.022727273 548:0.022727273 572:0.022727273 731:0.022727273 849:0.022727273 1087:0.022727273 #
214.29260724433751761353050824255 38:0.016666668 172:0.016666668 408:0.016666668 510:0.016666668 754:0.016666668 772:0.016666668 852:0.016666668 1351:0.016666668 1634:0.016666668 2810:0.016666668 #
185.80719037971917373397445771843 38:0.019607844 225:0.019607844 2242:0.019607844 2304:0.019607844 2321:0.019607844 2322:0.019607844 #
-214.29260724433751761353050824255 595:0.01923077 1208:0.01923077 1298:0.01923077 1299:0.01923077 1369:0.01923077 1819:0.01923077 #
-214.29260724433751761353050824255 100:0.021276595 172:0.021276595 242:0.021276595 438:0.021276595 510:0.021276595 610:0.021276595 611:0.021276595 #
-214.29260724433751761353050824255 172:0.020408163 215:0.020408163 1381:0.020408163 1822:0.020408163 1887:0.020408163 1967:0.020408163 #
-214.29260724433751761353050824255 172:0.028571429 251:0.028571429 339:0.028571429 340:0.028571429 341:0.028571429 #
5.2714831149985528213619545567781 504:0.052631579 800:0.052631579 1186:0.052631579 #
214.29260724433751761353050824255 38:0.021276595 43:0.021276595 446:0.021276595 612:0.021276595 1756:0.021276595 2539:0.021276595 #
214.29260724433751761353050824255 38:0.025641026 759:0.025641026 1411:0.025641026 1793:0.025641026 2167:0.025641026 #
214.29260724433751761353050824255 172:0.03125 464:0.03125 663:0.03125 1645:0.03125 1840:0.03125 #
214.29260724433751761353050824255 157:0.03125 172:0.03125 284:0.03125 830:0.03125 2785:0.03125 #
-214.29260724433751761353050824255 85:0.05882353 472:0.05882353 500:0.05882353 #
214.29260724433751761353050824255 38:0.016393442 118:0.016393442 411:0.016393442 1208:0.016393442 1429:0.016393442 1504:0.016393442 1694:0.016393442 2110:0.016393442 2317:0.016393442 #
214.29260724433751761353050824255 38:0.027027028 123:0.027027028 187:0.027027028 451:0.027027028 1461:0.027027028 #
214.29260724433751761353050824255 38:0.023255814 48:0.023255814 432:0.023255814 472:0.023255814 710:0.023255814 1761:0.023255814 2516:0.023255814 #
-214.29260724433751761353050824255 38:0.045454547 353:0.045454547 780:0.045454547 #
-214.29260724433751761353050824255 38:0.05882353 127:0.05882353 694:0.05882353 #
-147.67143501154464502178598195314 183:0.034482758 395:0.034482758 1463:0.034482758 1695:0.034482758 #
-214.29260724433751761353050824255 38:0.047619049 658:0.047619049 659:0.047619049 #
-214.29260724433751761353050824255 135:0.01010101 148:0.01010101 324:0.01010101 396:0.01010101 436:0.01010101 563:0.01010101 759:0.01010101 797:0.01010101 847:0.01010101 1285:0.01010101 1377:0.01010101 1485:0.01010101 #
214.29260724433751761353050824255 157:0.018867925 251:0.018867925 437:0.018867925 446:0.018867925 773:0.018867925 1047:0.018867925 #
-214.29260724433751761353050824255 451:0.050000001 954:0.050000001 1215:0.050000001 #
-214.29260724433751761353050824255 29:0.034482758 202:0.034482758 451:0.034482758 828:0.034482758 #
-214.29260724433751761353050824255 15:0.01923077 71:0.01923077 157:0.01923077 318:0.01923077 451:0.01923077 910:0.01923077 1055:0.01923077 #
-214.29260724433751761353050824255 8:0.021739131 48:0.021739131 172:0.021739131 313:0.021739131 414:0.021739131 1121:0.021739131 1392:0.021739131 #
214.29260724433751761353050824255 28:0.034482758 38:0.034482758 491:0.034482758 572:0.034482758 948:0.034482758 #
176.48544883769358193603693507612 31:0.022222223 127:0.022222223 136:0.022222223 137:0.022222223 530:0.022222223 1178:0.022222223 2336:0.022222223 #
-160.01392813175559126648295205086 103:0.015151516 126:0.015151516 272:0.015151516 273:0.015151516 274:0.015151516 275:0.015151516 276:0.015151516 #
-214.29260724433751761353050824255 7:0.027027028 38:0.027027028 75:0.027027028 1178:0.027027028 1286:0.027027028 #
-214.29260724433751761353050824255 38:0.035714287 191:0.035714287 1756:0.035714287 1993:0.035714287 #
-214.29260724433751761353050824255 14:0.050000001 38:0.050000001 1852:0.050000001 #
-214.29260724433751761353050824255 38:0.03846154 570:0.03846154 1231:0.03846154 1297:0.03846154 #
214.29260724433751761353050824255 29:0.041666668 157:0.041666668 982:0.041666668 2815:0.041666668 #
-120.55319956191532071443361928686 172:0.015873017 183:0.015873017 295:0.015873017 298:0.015873017 329:0.015873017 334:0.015873017 606:0.015873017 996:0.015873017 1824:0.015873017 #
214.29260724433751761353050824255 8:0.02 38:0.02 73:0.02 562:0.02 864:0.02 1327:0.02 2366:0.02 #
-214.29260724433751761353050824255 8:0.083333336 864:0.083333336 #
-214.29260724433751761353050824255 29:0.047619049 257:0.047619049 779:0.047619049 1831:0.047619049 #
159.02051402337764329786296002567 191:0.024390243 214:0.024390243 385:0.024390243 710:0.024390243 828:0.024390243 2636:0.024390243 #
205.849822321317020623610005714 57:0.07692308 2644:0.07692308 #
-214.29260724433751761353050824255 647:0.03125 648:0.03125 649:0.03125 650:0.03125 651:0.03125 #
-214.29260724433751761353050824255 60:0.016393442 76:0.016393442 98:0.016393442 172:0.016393442 413:0.016393442 477:0.016393442 532:0.016393442 905:0.016393442 1077:0.016393442 1078:0.016393442 #
-214.29260724433751761353050824255 655:0.1 #
-214.29260724433751761353050824255 45:0.020408163 212:0.020408163 537:0.020408163 550:0.020408163 893:0.020408163 924:0.020408163 991:0.020408163 #
214.29260724433751761353050824255 38:0.019607844 157:0.019607844 201:0.019607844 287:0.019607844 612:0.019607844 665:0.019607844 925:0.019607844 1523:0.019607844 1897:0.019607844 #
214.29260724433751761353050824255 8:0.018518519 23:0.018518519 38:0.018518519 157:0.018518519 545:0.018518519 1118:0.018518519 1852:0.018518519 2287:0.018518519 #
214.29260724433751761353050824255 157:0.024390243 318:0.024390243 650:0.024390243 1037:0.024390243 1461:0.024390243 1590:0.024390243 #
-214.29260724433751761353050824255 23:0.125 #
-142.9894997840270320921263191849 157:0.041666668 361:0.041666668 810:0.041666668 1074:0.041666668 #
-214.29260724433751761353050824255 38:0.028571429 157:0.028571429 895:0.028571429 1479:0.028571429 1936:0.028571429 #
-198.00639396879165587961324490607 6:0.030303031 38:0.030303031 267:0.030303031 870:0.030303031 1177:0.030303031 1806:0.030303031 #
198.48185958351254498666094150394 29:0.023255814 31:0.023255814 136:0.023255814 585:0.023255814 605:0.023255814 735:0.023255814 1027:0.023255814 #
214.29260724433751761353050824255 38:0.012987013 45:0.012987013 103:0.012987013 125:0.012987013 179:0.012987013 306:0.012987013 452:0.012987013 783:0.012987013 1810:0.012987013 2233:0.012987013 2552:0.012987013 #
-214.29260724433751761353050824255 38:0.041666668 189:0.020833334 612:0.020833334 983:0.020833334 1202:0.020833334 1710:0.020833334 #
-214.29260724433751761353050824255 38:0.050000001 385:0.050000001 390:0.050000001 #
-214.29260724433751761353050824255 38:0.02631579 58:0.02631579 186:0.02631579 1294:0.02631579 1482:0.02631579 1909:0.02631579 #
-214.29260724433751761353050824255 38:0.02 99:0.02 154:0.02 1033:0.02 1544:0.02 1669:0.02 #
-214.29260724433751761353050824255 38:0.030303031 254:0.030303031 1224:0.030303031 1474:0.030303031 #
214.29260724433751761353050824255 157:0.034482758 315:0.017241379 344:0.017241379 371:0.017241379 575:0.017241379 720:0.017241379 1592:0.017241379 2322:0.017241379 #
-214.29260724433751761353050824255 130:0.030303031 227:0.030303031 228:0.030303031 265:0.030303031 347:0.030303031 #
-191.84866884023998068187211174518 344:0.07692308 1355:0.07692308 #
-214.29260724433751761353050824255 23:0.029411765 98:0.029411765 726:0.029411765 727:0.029411765 #
-214.29260724433751761353050824255 23:0.024390243 414:0.024390243 904:0.024390243 1221:0.024390243 1534:0.024390243 1889:0.024390243 #
214.29260724433751761353050824255 38:0.020833334 154:0.020833334 408:0.020833334 977:0.020833334 1093:0.020833334 1208:0.020833334 1771:0.020833334 #
214.29260724433751761353050824255 29:0.014925373 38:0.029850746 58:0.014925373 83:0.014925373 119:0.014925373 225:0.014925373 680:0.014925373 760:0.014925373 895:0.014925373 1026:0.014925373 #
187.09079772877774416883767116815 38:0.035714287 665:0.035714287 2107:0.035714287 2706:0.035714287 #
214.29260724433751761353050824255 38:0.020833334 413:0.020833334 441:0.020833334 463:0.020833334 864:0.020833334 1288:0.020833334 2186:0.020833334 #
-214.29260724433751761353050824255 40:0.043478262 42:0.043478262 1208:0.043478262 #
214.29260724433751761353050824255 49:0.021739131 157:0.021739131 332:0.021739131 471:0.021739131 1440:0.021739131 1482:0.021739131 2582:0.021739131 #
-214.29260724433751761353050824255 38:0.03846154 98:0.03846154 111:0.03846154 1414:0.03846154 #
-214.29260724433751761353050824255 38:0.015384615 98:0.015384615 157:0.030769231 172:0.015384615 424:0.015384615 485:0.015384615 528:0.015384615 612:0.015384615 1285:0.015384615 1777:0.015384615 1998:0.015384615 #
-214.29260724433751761353050824255 38:0.018518519 155:0.018518519 157:0.018518519 204:0.018518519 310:0.018518519 684:0.018518519 908:0.018518519 1720:0.018518519 #
-214.29260724433751761353050824255 38:0.030303031 136:0.030303031 157:0.030303031 194:0.030303031 420:0.030303031 #
214.29260724433751761353050824255 8:0.013513514 20:0.013513514 38:0.013513514 149:0.013513514 157:0.013513514 274:0.013513514 299:0.013513514 513:0.013513514 773:0.013513514 1208:0.013513514 2563:0.013513514 #
-214.29260724433751761353050824255 267:0.037037037 463:0.037037037 583:0.037037037 632:0.037037037 633:0.037037037 #
-214.29260724433751761353050824255 8:0.034482758 281:0.034482758 663:0.034482758 664:0.034482758 #
-141.58977809069014597298519220203 8:0.035714287 111:0.035714287 391:0.035714287 1073:0.035714287 #
157.64937005135536196576140355319 100:0.017857144 349:0.017857144 414:0.017857144 661:0.017857144 710:0.017857144 1045:0.017857144 1261:0.017857144 2292:0.017857144 2458:0.017857144 #
-94.050218039420954596607771236449 45:0.029411765 125:0.029411765 295:0.029411765 861:0.029411765 952:0.029411765 1204:0.029411765 #
214.29260724433751761353050824255 136:0.024390243 157:0.024390243 439:0.024390243 891:0.024390243 1708:0.024390243 1867:0.024390243 #
214.29260724433751761353050824255 38:0.01923077 157:0.01923077 172:0.01923077 260:0.01923077 310:0.01923077 313:0.01923077 940:0.01923077 1120:0.01923077 #
144.10895281072683360434893984348 405:0.018867925 826:0.018867925 977:0.018867925 1039:0.018867925 1086:0.018867925 1912:0.018867925 2020:0.018867925 2384:0.018867925 #
-116.88275842452935648907441645861 38:0.052631579 143:0.052631579 1484:0.052631579 #
214.29260724433751761353050824255 13:0.023255814 157:0.023255814 479:0.023255814 782:0.023255814 2157:0.023255814 2158:0.023255814 2159:0.023255814 #
-25.31296975491638079347467282787 105:0.027027028 269:0.027027028 314:0.027027028 315:0.027027028 385:0.027027028 #
-33.534669782562588125074398703873 8:0.019607844 38:0.019607844 204:0.019607844 593:0.019607844 675:0.019607844 1146:0.019607844 1553:0.019607844 1633:0.019607844 #
-214.29260724433751761353050824255 197:0.043478262 1184:0.043478262 1437:0.043478262 1443:0.043478262 #
-214.29260724433751761353050824255 29:0.022727273 274:0.022727273 513:0.022727273 537:0.022727273 782:0.022727273 1791:0.022727273 #
-115.10710419488962941159115871415 44:0.055555556 486:0.055555556 741:0.055555556 #
-214.29260724433751761353050824255 299:0.032258064 406:0.032258064 806:0.032258064 1053:0.032258064 1634:0.032258064 #
-214.29260724433751761353050824255 8:0.022727273 38:0.022727273 310:0.022727273 441:0.022727273 647:0.022727273 681:0.022727273 915:0.022727273 #
207.82631090652233751825406216085 16:0.018518519 449:0.018518519 659:0.018518519 780:0.018518519 979:0.018518519 2424:0.018518519 2611:0.018518519 #
-214.29260724433751761353050824255 157:0.023809524 209:0.023809524 228:0.023809524 332:0.023809524 572:0.047619049 1266:0.023809524 1701:0.023809524 #
214.29260724433751761353050824255 38:0.021276595 199:0.021276595 296:0.021276595 323:0.021276595 831:0.021276595 1177:0.021276595 1571:0.021276595 2566:0.021276595 #
44.696582875905434661945037078112 157:0.025 641:0.025 851:0.025 1160:0.025 2009:0.025 2183:0.025 2617:0.025 #
214.29260724433751761353050824255 58:0.029411765 157:0.029411765 394:0.029411765 537:0.029411765 637:0.029411765 696:0.029411765 #
214.29260724433751761353050824255 157:0.043478262 197:0.043478262 475:0.043478262 773:0.043478262 #
-214.29260724433751761353050824255 484:0.030303031 822:0.030303031 1105:0.030303031 1177:0.030303031 1761:0.030303031 #
-192.40525837629255079264112282544 177:0.023255814 714:0.023255814 1177:0.023255814 1537:0.023255814 1708:0.023255814 1916:0.023255814 #
-214.29260724433751761353050824255 3:0.030303031 35:0.030303031 58:0.030303031 98:0.030303031 225:0.030303031 #
-214.29260724433751761353050824255 450:0.027777778 720:0.027777778 891:0.027777778 1312:0.027777778 1985:0.027777778 #
214.29260724433751761353050824255 38:0.01923077 68:0.01923077 172:0.01923077 350:0.01923077 612:0.01923077 706:0.01923077 1078:0.01923077 2530:0.01923077 #
122.73958370512286819575820118189 38:0.027027028 459:0.027027028 1567:0.027027028 2154:0.027027028 2421:0.027027028 #
214.29260724433751761353050824255 8:0.020833334 38:0.020833334 371:0.020833334 443:0.020833334 694:0.020833334 1027:0.020833334 1083:0.020833334 1459:0.020833334 2192:0.020833334 #
-214.29260724433751761353050824255 29:0.052631579 443:0.052631579 722:0.052631579 #
-214.29260724433751761353050824255 98:0.02631579 215:0.02631579 284:0.02631579 287:0.02631579 416:0.02631579 1112:0.02631579 #
-214.29260724433751761353050824255 38:0.027027028 48:0.027027028 834:0.027027028 886:0.054054055 1013:0.027027028 1264:0.027027028 #
-87.017550528540169807456550188363 797:0.055555556 847:0.055555556 #
-214.29260724433751761353050824255 492:0.045454547 847:0.045454547 1277:0.045454547 #
214.29260724433751761353050824255 25:0.011764706 38:0.011764706 48:0.011764706 440:0.011764706 582:0.011764706 782:0.011764706 1011:0.011764706 1229:0.011764706 2104:0.011764706 2329:0.011764706 2409:0.011764706 #
214.29260724433751761353050824255 29:0.019607844 38:0.019607844 155:0.019607844 157:0.019607844 578:0.019607844 651:0.019607844 1177:0.019607844 2164:0.019607844 2406:0.019607844 #
-214.29260724433751761353050824255 29:0.017857144 38:0.017857144 366:0.017857144 596:0.017857144 651:0.017857144 718:0.017857144 1558:0.017857144 1688:0.017857144 #
-214.29260724433751761353050824255 8:0.0125 38:0.0125 157:0.0125 277:0.0125 394:0.025 443:0.0125 530:0.0125 578:0.0125 905:0.0125 1369:0.0125 1411:0.0125 1778:0.0125 1959:0.0125 #
-214.29260724433751761353050824255 38:0.023255814 78:0.023255814 81:0.023255814 246:0.023255814 949:0.023255814 1030:0.023255814 1923:0.023255814 #
-146.68457162261654502799501642585 21:0.023809524 242:0.023809524 407:0.023809524 418:0.023809524 1006:0.023809524 1998:0.023809524 #
-214.29260724433751761353050824255 66:0.043478262 346:0.043478262 562:0.043478262 1112:0.043478262 #
-214.29260724433751761353050824255 98:0.018518519 168:0.018518519 187:0.018518519 207:0.018518519 1219:0.018518519 1384:0.018518519 1482:0.018518519 1781:0.018518519 #
26.886555327426584938166342908517 121:0.035714287 172:0.035714287 426:0.035714287 678:0.035714287 1813:0.035714287 2527:0.035714287 #
214.29260724433751761353050824255 40:0.020833334 157:0.020833334 187:0.020833334 280:0.020833334 441:0.020833334 680:0.020833334 948:0.020833334 #
214.29260724433751761353050824255 38:0.021276595 157:0.021276595 203:0.021276595 608:0.021276595 1030:0.021276595 2015:0.021276595 2338:0.021276595 #
214.29260724433751761353050824255 66:0.027027028 157:0.027027028 598:0.027027028 1403:0.027027028 1673:0.027027028 2045:0.027027028 #
-214.29260724433751761353050824255 522:0.032258064 1403:0.032258064 1459:0.032258064 1857:0.032258064 #
11.046715185718456453400904138107 95:0.052631579 98:0.052631579 267:0.052631579 397:0.052631579 #
-1.4238133345259740281107951886952 478:0.034482758 948:0.034482758 1804:0.034482758 1805:0.034482758 #
-214.29260724433751761353050824255 83:0.021739131 155:0.021739131 157:0.021739131 400:0.021739131 1249:0.021739131 1403:0.021739131 #
-214.29260724433751761353050824255 1262:0.03846154 1586:0.03846154 #
214.29260724433751761353050824255 38:0.01980198 45:0.0099009899 98:0.0099009899 110:0.0099009899 127:0.0099009899 172:0.0099009899 346:0.0099009899 463:0.0099009899 530:0.0099009899 641:0.0099009899 1336:0.0099009899 1521:0.0099009899 2081:0.0099009899 2082:0.0099009899 2139:0.0099009899 #
204.73191064825454077436006627977 45:0.016393442 136:0.016393442 279:0.016393442 643:0.016393442 1223:0.016393442 1419:0.016393442 1527:0.016393442 1812:0.016393442 2119:0.016393442 #
214.29260724433751761353050824255 154:0.03846154 157:0.03846154 225:0.03846154 #
214.29260724433751761353050824255 157:0.035714287 883:0.035714287 2122:0.035714287 #
-214.29260724433751761353050824255 692:0.045454547 1028:0.045454547 1250:0.045454547 1426:0.045454547 #
-214.29260724433751761353050824255 120:0.020408163 157:0.040816326 294:0.020408163 652:0.020408163 976:0.020408163 977:0.020408163 978:0.020408163 #
-214.29260724433751761353050824255 59:0.025641026 150:0.025641026 314:0.025641026 969:0.025641026 1110:0.025641026 #
-214.29260724433751761353050824255 35:0.017241379 148:0.017241379 157:0.017241379 187:0.017241379 247:0.017241379 647:0.017241379 864:0.017241379 999:0.017241379 1576:0.017241379 1607:0.017241379 #
-214.29260724433751761353050824255 38:0.01754386 45:0.01754386 188:0.01754386 323:0.01754386 373:0.01754386 446:0.01754386 560:0.01754386 1341:0.01754386 1405:0.01754386 #
-214.29260724433751761353050824255 517:0.07692308 760:0.07692308 #
-214.29260724433751761353050824255 28:0.014705882 154:0.014705882 368:0.014705882 543:0.014705882 647:0.014705882 782:0.014705882 876:0.014705882 1338:0.014705882 1536:0.014705882 1581:0.014705882 #
214.29260724433751761353050824255 38:0.014925373 59:0.014925373 138:0.014925373 157:0.014925373 957:0.014925373 1538:0.014925373 1616:0.014925373 2385:0.014925373 2386:0.014925373 #
-214.29260724433751761353050824255 17:0.012820513 48:0.012820513 238:0.012820513 556:0.012820513 562:0.012820513 602:0.012820513 809:0.012820513 813:0.012820513 1232:0.025641026 1319:0.012820513 1378:0.012820513 #
-87.784087657405748927885724697262 136:0.03846154 710:0.03846154 1326:0.03846154 1673:0.03846154 #
-140.05398322876277461546123959124 441:0.0625 442:0.0625 #
-214.29260724433751761353050824255 38:0.018867925 59:0.018867925 206:0.018867925 776:0.018867925 1063:0.018867925 1897:0.018867925 1943:0.018867925 #
-214.29260724433751761353050824255 38:0.023255814 110:0.023255814 859:0.023255814 1214:0.023255814 1232:0.023255814 1893:0.023255814 #
43.481700510008067794842645525932 38:0.033333335 872:0.033333335 976:0.033333335 1536:0.033333335 2564:0.033333335 #
9.9322999020190465557789138983935 38:0.027777778 45:0.027777778 278:0.027777778 806:0.027777778 1634:0.027777778 1913:0.027777778 #
-161.64492126692530860054830554873 83:0.015384615 400:0.015384615 575:0.015384615 864:0.015384615 1062:0.015384615 1411:0.015384615 1563:0.015384615 1685:0.015384615 1931:0.015384615 #
-63.992343470469876365314121358097 38:0.016666668 90:0.016666668 157:0.016666668 218:0.016666668 646:0.016666668 953:0.016666668 976:0.016666668 1030:0.016666668 1137:0.016666668 1589:0.016666668 1630:0.016666668 #
-214.29260724433751761353050824255 1029:0.019607844 1184:0.019607844 1332:0.019607844 1375:0.019607844 1473:0.019607844 1503:0.019607844 1640:0.019607844 #
81.774841194502045027547865174711 995:0.03125 1452:0.03125 2345:0.03125 2567:0.03125 #
-214.29260724433751761353050824255 38:0.03125 552:0.03125 647:0.03125 1395:0.03125 1479:0.03125 #
-214.29260724433751761353050824255 33:0.05882353 1374:0.05882353 #
34.00889355922021195510751567781 157:0.034482758 835:0.034482758 1898:0.034482758 2109:0.034482758 #
214.29260724433751761353050824255 38:0.037037037 45:0.037037037 310:0.037037037 460:0.037037037 1434:0.037037037 #
90.010658563458633807385922409594 6:0.02631579 38:0.02631579 518:0.02631579 844:0.02631579 1646:0.02631579 2031:0.02631579 2118:0.02631579 #
214.29260724433751761353050824255 38:0.028571429 511:0.028571429 800:0.028571429 861:0.028571429 1230:0.028571429 #
-214.29260724433751761353050824255 154:0.039999999 1250:0.039999999 1844:0.039999999 #
-74.958350174634261975370463915169 154:0.050000001 1506:0.050000001 1982:0.050000001 #
-214.29260724433751761353050824255 13:0.010869565 113:0.010869565 138:0.010869565 143:0.010869565 235:0.010869565 242:0.010869565 313:0.010869565 371:0.010869565 637:0.010869565 751:0.010869565 992:0.010869565 1130:0.010869565 1222:0.010869565 1223:0.010869565 #
-214.29260724433751761353050824255 94:0.045454547 157:0.045454547 318:0.045454547 1230:0.045454547 #
-214.29260724433751761353050824255 20:0.017857144 37:0.017857144 157:0.017857144 667:0.017857144 922:0.017857144 1037:0.017857144 1382:0.017857144 1810:0.017857144 #
-214.29260724433751761353050824255 85:0.025 433:0.025 479:0.025 1065:0.025 1087:0.025 1267:0.025 1781:0.025 #
214.29260724433751761353050824255 281:0.012658228 511:0.012658228 648:0.012658228 661:0.012658228 710:0.012658228 782:0.012658228 1233:0.012658228 1349:0.012658228 1672:0.012658228 2205:0.012658228 2206:0.012658228 #
214.29260724433751761353050824255 38:0.022222223 126:0.022222223 377:0.022222223 1570:0.022222223 2054:0.022222223 2295:0.022222223 #
23.426767724967081818476799526252 13:0.02 222:0.02 826:0.02 1178:0.02 1912:0.02 2022:0.02 2101:0.02 #
