SVM-light Version V6.02
0 # kernel type
3 # kernel parameter -d 
1 # kernel parameter -g 
1 # kernel parameter -s 
1 # kernel parameter -r 
empty# kernel parameter -u 
19801 # highest feature index 
8530 # number of training documents 
6618 # number of support vectors plus 1 
0.042041514 # threshold b, each following line is a SV (starting with alpha*y)
-185.82765128912777186087623704225 160:0.015384615 273:0.015384615 880:0.015384615 1156:0.015384615 1437:0.015384615 1607:0.015384615 2634:0.015384615 2888:0.015384615 10073:0.015384615 #
-414.35612059994673472829163074493 4:0.022727273 5:0.022727273 6:0.022727273 7:0.022727273 8:0.022727273 9:0.022727273 #
-151.60151369529830844840034842491 10:0.010416667 11:0.010416667 12:0.010416667 13:0.010416667 14:0.010416667 15:0.010416667 16:0.010416667 17:0.010416667 18:0.010416667 19:0.010416667 20:0.010416667 #
-414.35612059994673472829163074493 21:0.0095238099 22:0.0095238099 23:0.0095238099 24:0.0095238099 25:0.0095238099 26:0.0095238099 27:0.0095238099 28:0.0095238099 29:0.0095238099 30:0.0095238099 31:0.0095238099 #
-414.35612059994673472829163074493 32:0.012345679 33:0.012345679 34:0.012345679 35:0.012345679 36:0.012345679 37:0.012345679 38:0.012345679 39:0.012345679 40:0.012345679 #
414.35612059994673472829163074493 15:0.0084745763 252:0.0084745763 360:0.0084745763 994:0.0084745763 1417:0.0084745763 1418:0.0084745763 1901:0.0084745763 2149:0.0084745763 2397:0.0084745763 3820:0.0084745763 4905:0.0084745763 5407:0.0084745763 7385:0.0084745763 9153:0.0084745763 13481:0.0084745763 13482:0.0084745763 13483:0.0084745763 #
414.35612059994673472829163074493 80:0.0066225166 295:0.0066225166 733:0.0066225166 1741:0.0066225166 1916:0.0066225166 2942:0.0066225166 4310:0.0066225166 4385:0.0066225166 5028:0.0066225166 5366:0.0066225166 6733:0.0066225166 7147:0.0066225166 8436:0.0066225166 9713:0.0066225166 10963:0.0066225166 13484:0.0066225166 13485:0.0066225166 13486:0.0066225166 #
-35.658284559885416342694952618331 1581:0.027777778 1734:0.027777778 4493:0.027777778 8503:0.027777778 12114:0.027777778 #
262.78136653959199975361116230488 124:0.025641026 245:0.025641026 321:0.025641026 337:0.025641026 377:0.025641026 739:0.025641026 8037:0.025641026 #
414.35612059994673472829163074493 50:0.015873017 245:0.015873017 352:0.015873017 408:0.015873017 1088:0.015873017 1332:0.015873017 1876:0.015873017 2437:0.015873017 13488:0.015873017 13489:0.015873017 #
-414.35612059994673472829163074493 50:0.032258064 408:0.032258064 739:0.064516127 1332:0.064516127 1709:0.032258064 #
-414.35612059994673472829163074493 149:0.050000001 245:0.1 3340:0.050000001 7623:0.050000001 #
-234.88685764835796021543501410633 41:0.017241379 519:0.017241379 606:0.017241379 1237:0.017241379 1565:0.017241379 2435:0.017241379 3352:0.017241379 3354:0.017241379 #
-414.35612059994673472829163074493 245:0.06666667 430:0.06666667 836:0.06666667 #
-414.35612059994673472829163074493 15:0.014705882 113:0.014705882 182:0.014705882 1040:0.014705882 1181:0.014705882 1237:0.014705882 2276:0.014705882 2823:0.014705882 6556:0.014705882 6557:0.014705882 6558:0.014705882 #
414.35612059994673472829163074493 896:0.0091743115 2003:0.0091743115 2196:0.0091743115 5938:0.0091743115 6759:0.0091743115 7578:0.0091743115 8358:0.0091743115 9434:0.0091743115 10079:0.0091743115 11392:0.0091743115 15437:0.0091743115 15438:0.0091743115 #
414.35612059994673472829163074493 262:0.012195121 305:0.012195121 514:0.012195121 1042:0.012195121 1659:0.012195121 3504:0.012195121 3819:0.012195121 4994:0.012195121 9244:0.012195121 13899:0.012195121 #
414.35612059994673472829163074493 50:0.022727273 384:0.022727273 1297:0.022727273 2131:0.022727273 2233:0.022727273 2893:0.022727273 6995:0.022727273 13972:0.022727273 #
371.69228176314612710484652779996 6:0.043478262 7:0.021739131 234:0.021739131 459:0.021739131 1407:0.021739131 1619:0.021739131 3161:0.021739131 #
414.35612059994673472829163074493 9:0.0089285718 106:0.0089285718 170:0.0089285718 173:0.0089285718 352:0.0089285718 860:0.0089285718 1861:0.0089285718 3961:0.0089285718 3978:0.0089285718 4995:0.0089285718 8066:0.0089285718 9043:0.0089285718 10772:0.0089285718 #
-414.35612059994673472829163074493 9:0.055555556 50:0.055555556 1803:0.055555556 #
-180.29262969802536531460646074265 124:0.1 126:0.1 #
-168.39915238395394680992467328906 9:0.050000001 582:0.050000001 1733:0.050000001 #
-414.35612059994673472829163074493 183:0.0074074073 245:0.014814815 509:0.0074074073 1254:0.0074074073 1988:0.0074074073 1989:0.0074074073 1990:0.0074074073 1991:0.0074074073 1992:0.0074074073 1993:0.0074074073 1994:0.0074074073 1995:0.0074074073 1996:0.0074074073 1997:0.0074074073 1998:0.0074074073 1999:0.0074074073 #
414.35612059994673472829163074493 50:0.029411765 169:0.029411765 739:0.05882353 1332:0.05882353 1709:0.029411765 #
414.35612059994673472829163074493 203:0.047619049 245:0.095238097 14043:0.047619049 #
414.35612059994673472829163074493 135:0.018867925 516:0.018867925 868:0.018867925 1066:0.018867925 1079:0.056603774 3323:0.018867925 3713:0.018867925 #
414.35612059994673472829163074493 16:0.0078740157 278:0.0078740157 324:0.0078740157 1855:0.0078740157 2024:0.0078740157 2461:0.0078740157 2694:0.0078740157 3077:0.0078740157 3084:0.0078740157 3142:0.0078740157 5419:0.0078740157 8893:0.0078740157 15072:0.0078740157 17344:0.0078740157 18096:0.0078740157 18097:0.0078740157 #
414.35612059994673472829163074493 50:0.030769231 175:0.015384615 245:0.015384615 739:0.046153847 1068:0.030769231 1074:0.015384615 4188:0.015384615 13900:0.015384615 #
-414.35612059994673472829163074493 49:0.02631579 50:0.052631579 739:0.052631579 5559:0.02631579 7609:0.02631579 #
-410.1452702243976204954378772527 739:0.050000001 1840:0.050000001 4156:0.050000001 #
-414.35612059994673472829163074493 15:0.021739131 739:0.021739131 994:0.021739131 1407:0.021739131 2395:0.021739131 2396:0.021739131 2397:0.021739131 #
-378.13079148649518401725799776614 149:0.037037037 321:0.037037037 509:0.037037037 643:0.037037037 1585:0.037037037 6718:0.037037037 #
414.35612059994673472829163074493 9:0.055555556 1244:0.055555556 1733:0.055555556 #
414.35612059994673472829163074493 6:0.0053191488 124:0.0053191488 514:0.0053191488 814:0.0053191488 3945:0.0053191488 3978:0.0053191488 4899:0.0053191488 5306:0.0053191488 6446:0.0053191488 8897:0.0053191488 9635:0.0053191488 10895:0.0053191488 11144:0.0053191488 13028:0.0053191488 15877:0.0053191488 15878:0.0053191488 15879:0.0053191488 15880:0.0053191488 15881:0.0053191488 15882:0.0053191488 15883:0.0053191488 #
414.35612059994673472829163074493 9:0.0098039219 146:0.0098039219 459:0.0098039219 656:0.0098039219 786:0.0098039219 843:0.0098039219 1437:0.0098039219 2380:0.0098039219 4896:0.0098039219 8493:0.0098039219 14179:0.0098039219 14180:0.0098039219 14181:0.0098039219 #
-414.35612059994673472829163074493 9:0.043478262 135:0.014492754 895:0.014492754 1624:0.014492754 3030:0.014492754 3031:0.014492754 3032:0.014492754 3033:0.014492754 #
-248.69658489047142779782006982714 9:0.037037037 336:0.037037037 1733:0.037037037 7230:0.037037037 #
-353.99213742509527946822345256805 9:0.039999999 171:0.039999999 267:0.039999999 2836:0.039999999 #
397.51881883804207973298616707325 126:0.064516127 308:0.032258064 14548:0.032258064 18296:0.064516127 #
-76.37149254223110972361610038206 160:0.010638298 191:0.010638298 473:0.010638298 474:0.010638298 475:0.010638298 476:0.010638298 477:0.010638298 478:0.010638298 479:0.010638298 480:0.010638298 #
5.2987852358313727307859153370373 149:0.071428575 643:0.071428575 3340:0.071428575 #
221.68948977311549697333248332143 149:0.014492754 314:0.014492754 737:0.014492754 2916:0.014492754 9877:0.014492754 13930:0.014492754 13931:0.014492754 13932:0.014492754 #
414.35612059994673472829163074493 2:0.021276595 13:0.021276595 60:0.021276595 739:0.021276595 955:0.021276595 4505:0.021276595 14464:0.021276595 #
38.074634615195243725338514195755 146:0.05882353 1403:0.029411765 1596:0.029411765 16669:0.029411765 17755:0.029411765 #
-414.35612059994673472829163074493 196:0.0059171598 203:0.0059171598 449:0.0059171598 2883:0.0059171598 3460:0.0059171598 4934:0.0059171598 5193:0.0059171598 5655:0.0059171598 5656:0.0059171598 5657:0.0059171598 5658:0.0059171598 5659:0.0059171598 5660:0.0059171598 5661:0.0059171598 5662:0.01183432 5663:0.0059171598 5664:0.0059171598 5665:0.0059171598 5666:0.0059171598 5667:0.0059171598 #
-414.35612059994673472829163074493 193:0.011764706 345:0.011764706 1255:0.011764706 2140:0.011764706 2141:0.011764706 3601:0.011764706 3602:0.011764706 3603:0.011764706 3604:0.011764706 #
127.89491162455068717918038601056 9:0.050000001 50:0.050000001 18631:0.050000001 #
-414.35612059994673472829163074493 9:0.11111111 3177:0.055555556 #
-414.35612059994673472829163074493 9:0.022727273 50:0.022727273 541:0.022727273 796:0.022727273 1244:0.022727273 1322:0.022727273 1841:0.022727273 #
-414.35612059994673472829163074493 9:0.022222223 796:0.022222223 955:0.022222223 1332:0.022222223 2894:0.022222223 3834:0.022222223 9667:0.022222223 #
-342.10674038731843893401673994958 50:0.03846154 1177:0.03846154 1244:0.03846154 5923:0.03846154 #
414.35612059994673472829163074493 149:0.047619049 171:0.047619049 541:0.047619049 1852:0.047619049 #
414.35612059994673472829163074493 49:0.03846154 149:0.03846154 322:0.03846154 1601:0.03846154 5559:0.03846154 #
354.60318491800052242979290895164 836:0.07692308 1819:0.07692308 #
414.35612059994673472829163074493 126:0.032258064 245:0.032258064 430:0.032258064 752:0.032258064 2390:0.032258064 4282:0.032258064 #
-171.38730583001290597167098894715 196:0.05882353 10036:0.05882353 10037:0.05882353 #
-158.87662753806858972893678583205 1292:0.041666668 5763:0.041666668 #
414.35612059994673472829163074493 796:0.055555556 7366:0.055555556 #
414.35612059994673472829163074493 9:0.045454547 50:0.045454547 1244:0.045454547 1742:0.045454547 #
414.35612059994673472829163074493 50:0.11111111 853:0.055555556 #
-414.35612059994673472829163074493 50:0.0089285718 163:0.0089285718 677:0.0089285718 798:0.0089285718 814:0.0089285718 846:0.0089285718 860:0.0089285718 1432:0.0089285718 1733:0.0089285718 1980:0.0089285718 2364:0.0089285718 2399:0.0089285718 3140:0.017857144 5789:0.0089285718 5790:0.0089285718 #
41.673257867607709670210169861093 64:0.011111111 481:0.011111111 743:0.011111111 1313:0.011111111 1448:0.011111111 1480:0.011111111 1593:0.011111111 2610:0.011111111 2916:0.011111111 8929:0.011111111 8971:0.011111111 13269:0.011111111 #
-414.35612059994673472829163074493 49:0.025 50:0.025 459:0.025 860:0.025 1819:0.025 10372:0.025 #
-414.35612059994673472829163074493 612:0.041666668 718:0.041666668 1819:0.041666668 #
-307.92523609809848039731150493026 18:0.023255814 3773:0.023255814 4557:0.023255814 4558:0.023255814 4559:0.023255814 #
169.6509198438660916963272029534 5013:0.1 7162:0.1 #
120.85435412842412006284575909376 149:0.07692308 6282:0.07692308 #
391.10101786308757709775818511844 322:0.090909094 2693:0.090909094 #
-414.35612059994673472829163074493 16:0.012048192 892:0.012048192 897:0.012048192 1830:0.012048192 7221:0.012048192 7222:0.012048192 7223:0.012048192 7224:0.012048192 #
-311.2619005615513856355391908437 149:0.06666667 10696:0.06666667 #
-414.35612059994673472829163074493 149:0.05882353 1548:0.05882353 8452:0.05882353 #
414.35612059994673472829163074493 50:0.1 612:0.1 #
-180.52438368561280412905034609139 149:0.045454547 3888:0.045454547 4584:0.045454547 5448:0.045454547 #
414.35612059994673472829163074493 50:0.011904762 245:0.011904762 334:0.011904762 1152:0.011904762 1742:0.011904762 2131:0.011904762 3189:0.011904762 3883:0.011904762 4962:0.011904762 5976:0.011904762 7285:0.011904762 8872:0.011904762 #
414.35612059994673472829163074493 50:0.039999999 88:0.039999999 186:0.039999999 245:0.039999999 #
-283.52675619059823475254233926535 50:0.1 320:0.1 #
-127.83852988306540510166087187827 1185:0.041666668 5108:0.041666668 5529:0.041666668 5530:0.041666668 #
-414.35612059994673472829163074493 50:0.090909094 2341:0.090909094 #
414.35612059994673472829163074493 245:0.007751938 643:0.007751938 846:0.007751938 879:0.007751938 887:0.007751938 1237:0.007751938 1244:0.007751938 2978:0.007751938 3129:0.007751938 3618:0.007751938 4287:0.007751938 4288:0.007751938 5511:0.007751938 7753:0.007751938 9293:0.007751938 10784:0.007751938 10908:0.007751938 16325:0.007751938 #
-360.52051741274522100866306573153 50:0.083333336 443:0.083333336 #
-414.35612059994673472829163074493 234:0.013157895 511:0.013157895 1725:0.013157895 2131:0.013157895 2680:0.013157895 3639:0.013157895 4855:0.013157895 5078:0.013157895 8214:0.013157895 11349:0.013157895 11350:0.013157895 #
-414.35612059994673472829163074493 67:0.01369863 149:0.01369863 295:0.01369863 697:0.01369863 1523:0.01369863 7106:0.01369863 7107:0.01369863 7108:0.01369863 #
414.35612059994673472829163074493 718:0.090909094 #
414.35612059994673472829163074493 1177:0.0625 3283:0.0625 #
412.32863555229107532795751467347 50:0.017857144 149:0.035714287 203:0.017857144 245:0.017857144 315:0.017857144 842:0.035714287 17824:0.017857144 #
-174.66206416541805879205639939755 308:0.03846154 580:0.03846154 643:0.03846154 1722:0.03846154 5842:0.03846154 #
-414.35612059994673472829163074493 643:0.050000001 1028:0.050000001 2071:0.050000001 #
414.35612059994673472829163074493 99:0.011764706 149:0.011764706 273:0.011764706 1159:0.011764706 1177:0.011764706 3566:0.011764706 9570:0.011764706 13939:0.011764706 13940:0.011764706 13941:0.011764706 #
-84.578150240973812401534814853221 5171:0.06666667 5172:0.06666667 #
50.442508373760816198227985296398 796:0.024390243 1323:0.024390243 4094:0.024390243 10404:0.024390243 16537:0.024390243 #
-414.35612059994673472829163074493 1578:0.0099999998 1708:0.0099999998 1709:0.0099999998 1710:0.0099999998 1711:0.0099999998 1712:0.0099999998 1713:0.0099999998 1714:0.0099999998 1715:0.0099999998 1716:0.0099999998 1717:0.0099999998 #
-414.35612059994673472829163074493 103:0.011111111 493:0.011111111 6288:0.011111111 7545:0.011111111 9784:0.011111111 12460:0.011111111 12461:0.011111111 12462:0.011111111 12463:0.011111111 12464:0.011111111 12465:0.011111111 #
-367.80626492537390959114418365061 50:0.06666667 3140:0.06666667 4141:0.06666667 #
-414.35612059994673472829163074493 214:0.0098039219 516:0.0098039219 535:0.0098039219 1290:0.0098039219 1384:0.0098039219 1385:0.0098039219 1386:0.0098039219 1387:0.0098039219 1388:0.0098039219 1389:0.0098039219 1390:0.0098039219 1391:0.0098039219 1392:0.0098039219 1393:0.0098039219 #
414.35612059994673472829163074493 149:0.0069444445 223:0.0069444445 335:0.0069444445 898:0.0069444445 1028:0.0069444445 1551:0.0069444445 2244:0.0069444445 2787:0.0069444445 3468:0.0069444445 4001:0.0069444445 6152:0.0069444445 7629:0.0069444445 9235:0.0069444445 10945:0.0069444445 11727:0.0069444445 13619:0.0069444445 19020:0.0069444445 19021:0.0069444445 #
414.35612059994673472829163074493 149:0.034482758 198:0.034482758 313:0.034482758 541:0.034482758 2341:0.034482758 #
414.35612059994673472829163074493 92:0.018181818 162:0.018181818 408:0.036363635 1092:0.018181818 2722:0.018181818 10838:0.018181818 13627:0.018181818 #
-414.35612059994673472829163074493 27:0.0060240962 44:0.0060240962 149:0.0060240962 157:0.0060240962 169:0.0060240962 490:0.0060240962 957:0.0060240962 1100:0.0060240962 2916:0.0060240962 2999:0.0060240962 4997:0.0060240962 4998:0.0060240962 4999:0.0060240962 5000:0.0060240962 5001:0.0060240962 5002:0.0060240962 5003:0.0060240962 5004:0.0060240962 5005:0.0060240962 #
-113.82050464515216958716337103397 541:0.083333336 7206:0.083333336 #
193.42058149124281385411450173706 50:0.0625 14515:0.0625 18761:0.0625 #
-408.114645509340789431007578969 77:0.012345679 1463:0.012345679 1850:0.012345679 2100:0.012345679 2285:0.012345679 3478:0.012345679 3479:0.012345679 9791:0.012345679 10224:0.012345679 10225:0.012345679 #
92.083940041649469776530168019235 149:0.018518519 511:0.018518519 881:0.018518519 1437:0.018518519 2205:0.018518519 5573:0.018518519 16925:0.018518519 19795:0.018518519 19796:0.018518519 #
146.2877732730583772990939905867 213:0.090909094 3140:0.090909094 #
34.411608530537677097527193836868 2296:0.090909094 3109:0.090909094 #
414.35612059994673472829163074493 47:0.016129032 238:0.016129032 336:0.016129032 1332:0.032258064 1884:0.016129032 4425:0.016129032 11935:0.016129032 #
-414.35612059994673472829163074493 662:0.029411765 836:0.029411765 3352:0.029411765 4556:0.029411765 #
-414.35612059994673472829163074493 459:0.037037037 3109:0.037037037 3110:0.037037037 3111:0.037037037 #
343.56728801908508330598124302924 50:0.0125 834:0.0125 846:0.0125 880:0.0125 1290:0.0125 1567:0.0125 6445:0.0125 11255:0.0125 13604:0.0125 13605:0.0125 13606:0.0125 #
-414.35612059994673472829163074493 5947:0.016393442 6948:0.016393442 10059:0.016393442 11855:0.016393442 11856:0.016393442 11857:0.016393442 11858:0.016393442 #
176.80437682632086193734721746296 758:0.012345679 1268:0.012345679 1601:0.012345679 1774:0.012345679 1972:0.012345679 2341:0.012345679 2558:0.012345679 5178:0.012345679 9063:0.012345679 9896:0.012345679 19363:0.012345679 19364:0.012345679 #
42.103439803005613839559373445809 860:0.03125 947:0.03125 1156:0.03125 13327:0.03125 #
414.35612059994673472829163074493 191:0.025 228:0.025 377:0.025 378:0.025 606:0.025 1783:0.025 7384:0.025 #
101.71157818253564641963748726994 41:0.014925373 726:0.014925373 990:0.014925373 3071:0.014925373 5541:0.014925373 6770:0.014925373 14765:0.014925373 14766:0.014925373 #
414.35612059994673472829163074493 245:0.017241379 379:0.017241379 484:0.017241379 516:0.017241379 1407:0.017241379 1667:0.017241379 1803:0.017241379 3636:0.017241379 4627:0.017241379 6805:0.017241379 #
-414.35612059994673472829163074493 337:0.029411765 834:0.029411765 835:0.029411765 1903:0.029411765 7607:0.029411765 7608:0.029411765 #
-414.35612059994673472829163074493 337:0.019607844 832:0.019607844 833:0.019607844 834:0.019607844 835:0.019607844 836:0.019607844 837:0.019607844 838:0.019607844 839:0.019607844 #
-218.37008900046822645890642888844 782:0.015873017 1093:0.015873017 1239:0.015873017 2293:0.015873017 2853:0.015873017 3966:0.015873017 4398:0.015873017 4399:0.015873017 #
-414.35612059994673472829163074493 337:0.031746034 633:0.015873017 834:0.015873017 835:0.015873017 1225:0.015873017 3483:0.015873017 4464:0.015873017 6657:0.015873017 #
414.35612059994673472829163074493 50:0.052631579 88:0.02631579 273:0.02631579 2296:0.02631579 15362:0.02631579 #
384.71201658516554289235500618815 183:0.011363637 364:0.011363637 496:0.011363637 868:0.011363637 1697:0.011363637 3707:0.011363637 6446:0.011363637 7268:0.011363637 11383:0.011363637 14357:0.011363637 14358:0.011363637 #
-220.66095227954900792610715143383 50:0.011494253 682:0.011494253 998:0.011494253 1189:0.011494253 1860:0.011494253 2064:0.011494253 4005:0.011494253 7721:0.011494253 9318:0.011494253 9797:0.011494253 13385:0.011494253 #
278.07138663839640457808854989707 33:0.034482758 149:0.034482758 835:0.068965517 2424:0.034482758 4029:0.034482758 #
414.35612059994673472829163074493 167:0.0099999998 288:0.0099999998 295:0.0099999998 360:0.0099999998 878:0.0099999998 1326:0.0099999998 1382:0.0099999998 1607:0.0099999998 1694:0.0099999998 2932:0.0099999998 3753:0.0099999998 7704:0.0099999998 9404:0.0099999998 11005:0.0099999998 18703:0.0099999998 18704:0.0099999998 #
230.42432457958338432035816367716 149:0.016949153 4206:0.016949153 4615:0.016949153 6624:0.016949153 8255:0.016949153 11775:0.016949153 12494:0.016949153 12565:0.016949153 #
414.35612059994673472829163074493 843:0.011494253 1039:0.011494253 1360:0.011494253 1679:0.011494253 7090:0.011494253 14037:0.011494253 14038:0.011494253 14039:0.011494253 14040:0.011494253 14041:0.011494253 #
284.01514377626216401040437631309 9:0.014492754 175:0.014492754 273:0.014492754 1739:0.014492754 1933:0.014492754 10257:0.014492754 12454:0.014492754 15263:0.014492754 17888:0.014492754 17889:0.028985508 #
-414.35612059994673472829163074493 273:0.1 2353:0.1 #
-414.35612059994673472829163074493 190:0.0090909088 626:0.0090909088 737:0.0090909088 1596:0.0090909088 1892:0.0090909088 1913:0.0090909088 2341:0.0090909088 2380:0.0090909088 2957:0.0090909088 4138:0.0090909088 6748:0.0090909088 6749:0.0090909088 6750:0.0090909088 6751:0.0090909088 #
414.35612059994673472829163074493 50:0.035714287 322:0.035714287 547:0.035714287 739:0.035714287 9034:0.035714287 #
328.87987338293538641664781607687 50:0.052631579 323:0.052631579 1903:0.052631579 18433:0.052631579 #
-414.35612059994673472829163074493 547:0.125 #
-414.35612059994673472829163074493 157:0.01010101 580:0.01010101 959:0.01010101 1177:0.01010101 1361:0.01010101 1505:0.01010101 3817:0.01010101 3818:0.01010101 8897:0.01010101 10073:0.01010101 11190:0.01010101 11872:0.01010101 11873:0.01010101 #
138.2369100313853493844362674281 4082:0.020833334 13873:0.020833334 18838:0.020833334 19235:0.020833334 19236:0.020833334 19237:0.020833334 #
-357.52469927768771640330669470131 41:0.05882353 4763:0.05882353 9034:0.05882353 #
414.35612059994673472829163074493 149:0.047619049 832:0.047619049 833:0.047619049 2886:0.047619049 #
19.410849774508417198148890747689 41:0.022222223 219:0.022222223 3945:0.022222223 9160:0.022222223 12346:0.022222223 13505:0.022222223 18268:0.022222223 #
1.8934915949446065042138798162341 149:0.045454547 273:0.045454547 4695:0.045454547 9254:0.045454547 #
414.35612059994673472829163074493 79:0.018518519 149:0.018518519 273:0.018518519 580:0.018518519 2084:0.018518519 14651:0.018518519 14652:0.018518519 #
-163.21977672851699026068672537804 209:0.015384615 332:0.015384615 872:0.015384615 1644:0.015384615 1812:0.015384615 10256:0.015384615 11418:0.015384615 11419:0.015384615 11420:0.015384615 #
-414.35612059994673472829163074493 15:0.030303031 88:0.030303031 149:0.030303031 233:0.030303031 4506:0.030303031 #
-414.35612059994673472829163074493 149:0.044117648 203:0.029411765 384:0.014705882 834:0.014705882 865:0.014705882 1015:0.014705882 1383:0.014705882 1774:0.014705882 2928:0.014705882 10912:0.014705882 #
-152.89565699064436898879648651928 149:0.023255814 323:0.023255814 1041:0.023255814 1919:0.023255814 3188:0.023255814 4282:0.023255814 8503:0.023255814 11960:0.023255814 #
-414.35612059994673472829163074493 238:0.0053763441 547:0.0053763441 619:0.0053763441 755:0.0053763441 898:0.0053763441 1094:0.0053763441 1141:0.0053763441 1486:0.0053763441 2317:0.0053763441 2629:0.0053763441 2677:0.0053763441 2801:0.0053763441 2886:0.0053763441 2944:0.0053763441 3184:0.0053763441 3185:0.0053763441 3186:0.0053763441 3187:0.0053763441 3188:0.0053763441 3189:0.0053763441 3190:0.0053763441 #
384.23695023592347297380911186337 64:0.009615385 149:0.009615385 262:0.009615385 484:0.009615385 612:0.01923077 860:0.009615385 878:0.009615385 1724:0.009615385 2314:0.009615385 2620:0.009615385 2680:0.009615385 7435:0.009615385 8907:0.009615385 13653:0.009615385 18072:0.009615385 19571:0.009615385 #
414.35612059994673472829163074493 484:0.039999999 485:0.039999999 1254:0.039999999 3105:0.039999999 #
-414.35612059994673472829163074493 335:0.0089285718 2669:0.0089285718 2672:0.0089285718 3370:0.0089285718 3468:0.0089285718 3475:0.0089285718 6243:0.0089285718 6919:0.0089285718 6920:0.0089285718 6921:0.0089285718 6922:0.0089285718 6923:0.0089285718 6924:0.0089285718 6925:0.0089285718 #
-414.35612059994673472829163074493 484:0.03125 485:0.03125 1252:0.03125 1393:0.03125 5899:0.03125 #
-414.35612059994673472829163074493 308:0.019607844 323:0.019607844 459:0.019607844 484:0.019607844 485:0.019607844 2460:0.019607844 2461:0.019607844 4850:0.019607844 #
-122.37373794984591768297832459211 50:0.037037037 2852:0.037037037 2853:0.037037037 #
414.35612059994673472829163074493 149:0.0060606059 161:0.0060606059 426:0.0060606059 548:0.0060606059 612:0.0060606059 706:0.0060606059 879:0.0060606059 927:0.0060606059 1427:0.0060606059 1540:0.0060606059 1850:0.0060606059 1894:0.0060606059 2422:0.0060606059 2680:0.0060606059 3964:0.0060606059 4789:0.0060606059 4988:0.0060606059 11272:0.0060606059 13585:0.0060606059 14282:0.0060606059 #
236.45513085598201996617717668414 41:0.045454547 1663:0.045454547 2175:0.045454547 18201:0.045454547 #
-269.61616430465755911427550017834 1491:0.015151516 2614:0.015151516 2635:0.015151516 2692:0.015151516 2886:0.015151516 3732:0.015151516 11636:0.015151516 #
168.32039530368854229891439899802 41:0.010309278 430:0.010309278 739:0.010309278 846:0.010309278 867:0.010309278 3036:0.010309278 3109:0.010309278 4218:0.010309278 4376:0.010309278 4534:0.010309278 5236:0.010309278 9129:0.010309278 18204:0.010309278 18205:0.010309278 #
-414.35612059994673472829163074493 41:0.023809524 606:0.023809524 912:0.023809524 2957:0.047619049 9625:0.023809524 #
-414.35612059994673472829163074493 41:0.046511628 126:0.023255814 430:0.023255814 1650:0.023255814 2471:0.023255814 2727:0.023255814 5237:0.023255814 #
-232.24864605973186826304299756885 41:0.045454547 149:0.045454547 2346:0.045454547 2347:0.045454547 #
-203.16404086875871826123329810798 41:0.029411765 238:0.029411765 4366:0.029411765 11563:0.029411765 #
288.45256014520253984301234595478 15:0.034482758 50:0.034482758 308:0.034482758 1155:0.034482758 8085:0.034482758 #
414.35612059994673472829163074493 535:0.02 608:0.02 1028:0.02 1047:0.02 1223:0.02 2008:0.02 2249:0.02 #
414.35612059994673472829163074493 606:0.021276595 1093:0.021276595 1828:0.021276595 2004:0.021276595 8004:0.021276595 15915:0.021276595 15916:0.021276595 #
414.35612059994673472829163074493 170:0.023809524 3810:0.023809524 4228:0.023809524 4775:0.023809524 6418:0.023809524 #
-414.35612059994673472829163074493 50:0.027027028 752:0.027027028 1130:0.027027028 1453:0.027027028 6332:0.027027028 #
-111.4893380397375466372977825813 146:0.041666668 2616:0.041666668 6504:0.041666668 #
-131.17324502941926311905262991786 50:0.023809524 608:0.023809524 1601:0.023809524 2816:0.023809524 3109:0.023809524 3280:0.023809524 #
414.35612059994673472829163074493 323:0.025 3916:0.025 14891:0.025 14892:0.025 14893:0.025 #
414.35612059994673472829163074493 183:0.0078740157 1252:0.0078740157 1855:0.0078740157 2610:0.0078740157 3656:0.0078740157 4508:0.0078740157 4662:0.0078740157 5446:0.0078740157 6493:0.0078740157 13835:0.0078740157 15096:0.0078740157 17503:0.0078740157 18687:0.0078740157 18751:0.0078740157 #
414.35612059994673472829163074493 1015:0.083333336 1026:0.083333336 #
414.35612059994673472829163074493 82:0.011111111 196:0.011111111 703:0.011111111 1169:0.011111111 1252:0.011111111 1363:0.011111111 1776:0.011111111 2243:0.011111111 3447:0.011111111 8035:0.011111111 10613:0.011111111 12770:0.011111111 #
-113.62037291642833736204920569435 1403:0.14285715 3123:0.071428575 #
-79.860779248857014067652926314622 739:0.1 1640:0.1 #
414.35612059994673472829163074493 50:0.048780486 427:0.024390243 914:0.024390243 2957:0.024390243 8782:0.024390243 #
414.35612059994673472829163074493 50:0.021052632 124:0.010526316 238:0.010526316 295:0.010526316 358:0.010526316 1277:0.010526316 1278:0.010526316 1487:0.010526316 3848:0.010526316 5295:0.010526316 15922:0.010526316 #
-350.01560000983602094493107870221 78:0.037037037 79:0.037037037 80:0.037037037 81:0.037037037 #
-198.0501293431185843019193271175 1244:0.050000001 2563:0.050000001 2936:0.050000001 #
-414.35612059994673472829163074493 833:0.035714287 1155:0.035714287 5992:0.035714287 10761:0.035714287 #
-93.227245588787468477676156908274 49:0.022222223 50:0.022222223 541:0.022222223 643:0.022222223 1601:0.022222223 1663:0.022222223 1746:0.022222223 1747:0.022222223 #
117.34541557692996605055668624118 149:0.034482758 608:0.034482758 739:0.034482758 1322:0.034482758 9922:0.034482758 #
401.42115393795654654240934178233 314:0.010989011 1095:0.010989011 1182:0.010989011 1483:0.010989011 1850:0.010989011 3909:0.010989011 7552:0.010989011 15153:0.010989011 15460:0.010989011 16299:0.010989011 18630:0.010989011 #
414.35612059994673472829163074493 149:0.030303031 191:0.030303031 1453:0.030303031 4149:0.030303031 13377:0.030303031 #
414.35612059994673472829163074493 739:0.052631579 1774:0.052631579 1824:0.052631579 #
-414.35612059994673472829163074493 149:0.035714287 739:0.035714287 807:0.035714287 808:0.035714287 990:0.035714287 #
-414.35612059994673472829163074493 149:0.033333335 311:0.033333335 312:0.033333335 313:0.033333335 314:0.033333335 #
-414.35612059994673472829163074493 149:0.030303031 739:0.030303031 2475:0.030303031 13245:0.030303031 #
414.35612059994673472829163074493 50:0.020833334 516:0.020833334 947:0.020833334 1130:0.020833334 1424:0.020833334 10782:0.020833334 #
414.35612059994673472829163074493 50:0.051282052 3830:0.025641026 10634:0.025641026 17869:0.025641026 #
414.35612059994673472829163074493 50:0.030303031 190:0.030303031 370:0.030303031 581:0.030303031 582:0.030303031 #
414.35612059994673472829163074493 50:0.023255814 326:0.023255814 835:0.023255814 1021:0.023255814 2531:0.023255814 2985:0.023255814 4308:0.023255814 #
-216.47667634865553054623887874186 160:0.014705882 636:0.014705882 652:0.014705882 1469:0.014705882 3693:0.014705882 8588:0.014705882 9418:0.014705882 11105:0.014705882 11106:0.014705882 11107:0.014705882 #
414.35612059994673472829163074493 238:0.01754386 606:0.01754386 7087:0.01754386 17833:0.01754386 17899:0.01754386 17900:0.01754386 #
-414.35612059994673472829163074493 39:0.0067567569 194:0.0067567569 549:0.0067567569 561:0.0067567569 617:0.0067567569 954:0.0067567569 1254:0.0067567569 1323:0.0067567569 1816:0.0067567569 3552:0.0067567569 4508:0.0067567569 7117:0.0067567569 7784:0.0067567569 9418:0.0067567569 10929:0.0067567569 10930:0.0067567569 10931:0.0067567569 10932:0.0067567569 #
-153.49993157494463957846164703369 50:0.030303031 191:0.030303031 1086:0.030303031 1654:0.030303031 4692:0.030303031 #
414.35612059994673472829163074493 137:0.047619049 149:0.047619049 354:0.047619049 808:0.047619049 #
350.14681911458416152527206577361 149:0.027027028 860:0.027027028 2475:0.027027028 18480:0.027027028 18481:0.027027028 #
-27.993211904248912702541929320432 196:0.0099009899 273:0.0099009899 768:0.0099009899 1218:0.0099009899 1234:0.0099009899 1343:0.0099009899 1739:0.0099009899 1875:0.0099009899 1972:0.0099009899 4434:0.0099009899 5235:0.0099009899 5966:0.0099009899 6180:0.0099009899 #
-226.30742338321601891948375850916 149:0.032258064 370:0.032258064 608:0.032258064 1800:0.032258064 2146:0.032258064 #
-317.99923134381180034324643202126 149:0.050000001 214:0.050000001 720:0.050000001 2388:0.050000001 #
-414.35612059994673472829163074493 149:0.01923077 307:0.01923077 323:0.01923077 350:0.01923077 352:0.01923077 608:0.01923077 1725:0.01923077 13407:0.01923077 #
414.35612059994673472829163074493 191:0.033333335 739:0.033333335 832:0.033333335 833:0.033333335 8208:0.033333335 #
414.35612059994673472829163074493 50:0.03846154 190:0.03846154 228:0.03846154 739:0.03846154 1428:0.03846154 #
414.35612059994673472829163074493 32:0.013157895 157:0.013157895 191:0.039473683 934:0.013157895 3773:0.013157895 8739:0.013157895 13859:0.013157895 14213:0.013157895 14214:0.013157895 #
414.35612059994673472829163074493 895:0.03846154 1732:0.03846154 3875:0.03846154 12438:0.03846154 #
414.35612059994673472829163074493 915:0.090909094 1237:0.090909094 #
-227.34762466847982409490214195102 1237:0.090909094 8074:0.090909094 #
-86.922239376658808396314270794392 617:0.086956523 1237:0.086956523 #
-98.30358817619473654758621705696 3773:0.14285715 #
-159.59607436350813713943352922797 739:0.045454547 1254:0.045454547 4404:0.045454547 #
297.58716365450607099774060770869 1844:0.014285714 2144:0.014285714 3771:0.014285714 5307:0.014285714 7870:0.014285714 10743:0.014285714 10744:0.014285714 15279:0.014285714 #
227.50938729350252742733573541045 608:0.03846154 1793:0.03846154 1800:0.03846154 1995:0.03846154 #
414.35612059994673472829163074493 27:0.013333334 60:0.013333334 718:0.013333334 1427:0.013333334 2594:0.013333334 6228:0.013333334 6504:0.013333334 6897:0.013333334 10131:0.013333334 #
-414.35612059994673472829163074493 57:0.006289308 600:0.006289308 638:0.006289308 947:0.006289308 1718:0.006289308 2036:0.006289308 2050:0.006289308 2653:0.006289308 2824:0.006289308 3696:0.006289308 5276:0.006289308 6602:0.006289308 8040:0.006289308 8431:0.006289308 8908:0.006289308 12009:0.006289308 12010:0.006289308 12011:0.006289308 #
148.5809717921116828165395418182 350:0.055555556 422:0.055555556 484:0.055555556 #
414.35612059994673472829163074493 214:0.041666668 643:0.041666668 3340:0.041666668 11349:0.041666668 #
414.35612059994673472829163074493 126:0.022222223 196:0.022222223 580:0.022222223 990:0.022222223 1205:0.022222223 2011:0.022222223 9900:0.022222223 13711:0.022222223 #
414.35612059994673472829163074493 67:0.050000001 1448:0.050000001 2353:0.050000001 #
-414.35612059994673472829163074493 189:0.0089285718 872:0.0089285718 1806:0.0089285718 2164:0.0089285718 4157:0.0089285718 4158:0.0089285718 4159:0.0089285718 4160:0.0089285718 4161:0.0089285718 4162:0.0089285718 #
-137.01265789339902312349295243621 157:0.071428575 2283:0.071428575 2284:0.071428575 #
-414.35612059994673472829163074493 128:0.033333335 228:0.033333335 459:0.033333335 6152:0.033333335 7682:0.033333335 #
-414.35612059994673472829163074493 196:0.039999999 228:0.039999999 408:0.039999999 1596:0.039999999 #
-414.35612059994673472829163074493 541:0.052631579 999:0.052631579 1596:0.052631579 #
414.35612059994673472829163074493 39:0.0062500001 152:0.0062500001 849:0.0062500001 1000:0.0062500001 1054:0.0062500001 1156:0.0062500001 1383:0.0062500001 1850:0.0062500001 1901:0.0062500001 2136:0.0062500001 2575:0.0062500001 2788:0.0062500001 4136:0.0062500001 5079:0.0062500001 5662:0.0062500001 15587:0.0062500001 18222:0.0062500001 18223:0.0062500001 18224:0.0062500001 #
414.35612059994673472829163074493 370:0.028571429 1800:0.028571429 2271:0.028571429 2272:0.028571429 8329:0.028571429 9465:0.028571429 #
-414.35612059994673472829163074493 295:0.0076923077 1205:0.015384615 1799:0.0076923077 2589:0.0076923077 4520:0.0076923077 4702:0.0076923077 4890:0.0076923077 6319:0.0076923077 7593:0.0076923077 7594:0.0076923077 8227:0.0076923077 12351:0.0076923077 13354:0.0076923077 13355:0.0076923077 13356:0.0076923077 13357:0.0076923077 #
-160.90294908603556223170016892254 580:0.052631579 934:0.052631579 6614:0.052631579 #
-113.33805740673476236679562134668 46:0.03846154 169:0.03846154 422:0.03846154 12451:0.03846154 #
-308.40915027264736636425368487835 1:0.015151516 41:0.015151516 648:0.015151516 711:0.015151516 796:0.015151516 1584:0.015151516 1816:0.015151516 4460:0.015151516 #
-378.68288200970454226990113966167 303:0.0093457941 408:0.0093457941 422:0.0093457941 619:0.0093457941 867:0.0093457941 1119:0.0093457941 2009:0.0093457941 2010:0.0093457941 4113:0.0093457941 5164:0.0093457941 11303:0.0093457941 11304:0.0093457941 11305:0.0093457941 11306:0.0093457941 11307:0.0093457941 #
414.35612059994673472829163074493 162:0.023809524 214:0.023809524 511:0.023809524 9274:0.023809524 11621:0.023809524 11840:0.023809524 #
-414.35612059994673472829163074493 136:0.0068965517 169:0.0068965517 294:0.0068965517 693:0.0068965517 694:0.0068965517 695:0.0068965517 696:0.0068965517 697:0.0068965517 698:0.0068965517 699:0.0068965517 700:0.0068965517 701:0.0068965517 702:0.0068965517 703:0.0068965517 704:0.0068965517 705:0.0068965517 706:0.0068965517 707:0.0068965517 708:0.0068965517 #
-211.25419430972749523789389058948 16:0.0070422534 190:0.0070422534 245:0.0070422534 501:0.0070422534 502:0.0070422534 503:0.0070422534 504:0.0070422534 505:0.0070422534 506:0.0070422534 507:0.0070422534 508:0.0070422534 509:0.0070422534 510:0.0070422534 511:0.0070422534 512:0.0070422534 513:0.0070422534 514:0.0070422534 515:0.0070422534 516:0.0070422534 #
414.35612059994673472829163074493 57:0.022727273 260:0.022727273 408:0.022727273 2341:0.022727273 4644:0.022727273 5625:0.022727273 #
-414.35612059994673472829163074493 149:0.028571429 171:0.028571429 318:0.028571429 511:0.028571429 1824:0.028571429 #
-414.35612059994673472829163074493 88:0.0090090092 149:0.0090090092 367:0.0090090092 418:0.0090090092 608:0.0090090092 852:0.0090090092 1597:0.0090090092 1853:0.0090090092 3216:0.0090090092 5068:0.0090090092 6075:0.0090090092 6076:0.0090090092 6077:0.0090090092 6078:0.0090090092 #
-208.45013529859338063943141605705 1750:0.023809524 2391:0.023809524 2843:0.023809524 4465:0.023809524 5871:0.023809524 #
414.35612059994673472829163074493 90:0.16666667 #
414.35612059994673472829163074493 149:0.00729927 408:0.00729927 643:0.00729927 744:0.00729927 957:0.00729927 1112:0.00729927 1942:0.00729927 3148:0.00729927 3278:0.00729927 4131:0.00729927 4613:0.00729927 4642:0.00729927 6506:0.00729927 10156:0.00729927 13142:0.00729927 15392:0.00729927 16293:0.00729927 16294:0.00729927 #
414.35612059994673472829163074493 50:0.028571429 393:0.028571429 2161:0.028571429 2283:0.028571429 13612:0.028571429 #
339.47350351861166473099729046226 50:0.030303031 13407:0.030303031 15821:0.060606062 #
414.35612059994673472829163074493 50:0.037037037 422:0.037037037 7090:0.037037037 9552:0.037037037 #
-414.35612059994673472829163074493 50:0.035714287 183:0.035714287 999:0.035714287 1309:0.035714287 #
-155.76001844714647859291289933026 50:0.050000001 3236:0.050000001 12898:0.050000001 #
414.35612059994673472829163074493 330:0.0072463769 496:0.0072463769 535:0.0072463769 881:0.0072463769 1009:0.0072463769 1996:0.0072463769 3595:0.0072463769 3708:0.0072463769 3819:0.0072463769 4846:0.0072463769 6245:0.0072463769 10730:0.0072463769 11221:0.0072463769 15838:0.0072463769 16211:0.0072463769 16212:0.0072463769 16213:0.0072463769 #
414.35612059994673472829163074493 149:0.023529412 1000:0.011764706 1876:0.011764706 7457:0.011764706 7545:0.011764706 7680:0.011764706 13515:0.011764706 14681:0.011764706 18967:0.011764706 18968:0.011764706 #
403.97822761198415264516370370984 149:0.0091743115 600:0.0091743115 841:0.0091743115 846:0.0091743115 1851:0.0091743115 4590:0.0091743115 5418:0.0091743115 5419:0.0091743115 5700:0.0091743115 6228:0.0091743115 6799:0.0091743115 8906:0.0091743115 9926:0.0091743115 10969:0.0091743115 #
108.19819493982916469576593954116 196:0.024390243 4925:0.024390243 5444:0.024390243 12770:0.024390243 #
-209.96745329855266959384607616812 38:0.015151516 1513:0.015151516 3118:0.015151516 3983:0.015151516 6097:0.015151516 6098:0.015151516 6099:0.015151516 6100:0.015151516 #
-414.35612059994673472829163074493 149:0.023809524 393:0.023809524 584:0.023809524 1244:0.023809524 1876:0.023809524 1877:0.023809524 1878:0.023809524 #
-70.820432408109510902249894570559 149:0.032258064 393:0.032258064 1880:0.032258064 3146:0.032258064 4022:0.032258064 #
-414.35612059994673472829163074493 90:0.034482758 92:0.034482758 846:0.034482758 5134:0.034482758 #
-414.35612059994673472829163074493 149:0.022222223 409:0.022222223 484:0.022222223 2222:0.022222223 2531:0.022222223 4105:0.022222223 5506:0.022222223 10976:0.022222223 #
-249.02297181766661537949403282255 241:0.011111111 245:0.011111111 1502:0.011111111 1656:0.011111111 1843:0.011111111 5362:0.011111111 6835:0.011111111 7481:0.011111111 7482:0.011111111 7483:0.011111111 7484:0.011111111 7485:0.011111111 7486:0.011111111 #
414.35612059994673472829163074493 3236:0.083333336 3665:0.083333336 #
174.45164323401473893682123161852 41:0.0098039219 757:0.0098039219 1152:0.0098039219 1427:0.0098039219 1552:0.0098039219 1798:0.0098039219 2190:0.0098039219 2727:0.0098039219 3783:0.0098039219 6113:0.0098039219 9083:0.0098039219 19271:0.0098039219 19272:0.0098039219 19273:0.0098039219 #
-373.17982760474131964656407944858 60:0.032258064 183:0.032258064 1200:0.032258064 1733:0.032258064 1793:0.032258064 #
-414.35612059994673472829163074493 15:0.030303031 183:0.030303031 321:0.030303031 11128:0.030303031 12470:0.030303031 #
-414.35612059994673472829163074493 1133:0.013333334 2601:0.013333334 2625:0.013333334 2648:0.013333334 3389:0.013333334 4151:0.013333334 4369:0.013333334 6474:0.013333334 #
-221.13282201420994965701538603753 84:0.035714287 1205:0.035714287 2291:0.035714287 10922:0.035714287 10923:0.035714287 #
38.448673125409470685553969815373 9:0.027777778 50:0.027777778 2561:0.027777778 11603:0.027777778 13875:0.027777778 #
414.35612059994673472829163074493 245:0.028571429 273:0.028571429 608:0.028571429 1313:0.028571429 15843:0.028571429 19033:0.028571429 #
414.35612059994673472829163074493 157:0.01923077 245:0.01923077 757:0.03846154 827:0.01923077 1260:0.01923077 3956:0.01923077 19496:0.01923077 19497:0.01923077 #
414.35612059994673472829163074493 49:0.014492754 149:0.014492754 245:0.014492754 281:0.014492754 335:0.014492754 384:0.014492754 459:0.014492754 541:0.014492754 1254:0.014492754 3628:0.014492754 5829:0.014492754 #
-414.35612059994673472829163074493 149:0.25 #
-414.35612059994673472829163074493 149:0.018518519 190:0.037037037 336:0.037037037 345:0.018518519 739:0.018518519 1318:0.018518519 7520:0.018518519 #
-414.35612059994673472829163074493 9:0.021276595 245:0.021276595 758:0.021276595 944:0.021276595 1337:0.021276595 2654:0.021276595 5559:0.021276595 12370:0.021276595 #
-140.58067059283740718456101603806 66:0.071428575 1326:0.071428575 2773:0.071428575 #
318.16106975874157569705857895315 50:0.035714287 198:0.035714287 321:0.035714287 1949:0.035714287 4758:0.035714287 11926:0.035714287 #
414.35612059994673472829163074493 126:0.016393442 183:0.016393442 228:0.016393442 323:0.016393442 1407:0.016393442 1733:0.016393442 2131:0.016393442 2285:0.016393442 3154:0.016393442 5246:0.016393442 #
414.35612059994673472829163074493 74:0.027027028 127:0.027027028 321:0.027027028 739:0.027027028 2764:0.027027028 15267:0.027027028 #
-414.35612059994673472829163074493 43:0.041666668 204:0.041666668 541:0.041666668 3154:0.041666668 #
-414.35612059994673472829163074493 1240:0.039999999 1241:0.039999999 1556:0.039999999 #
-414.35612059994673472829163074493 2003:0.037037037 4149:0.037037037 6200:0.037037037 #
-414.35612059994673472829163074493 375:0.030303031 701:0.030303031 702:0.030303031 1427:0.030303031 8639:0.030303031 10847:0.030303031 #
349.50238354669619411652092821896 60:0.039215688 149:0.019607844 360:0.019607844 484:0.019607844 4337:0.019607844 13863:0.019607844 14839:0.019607844 #
414.35612059994673472829163074493 149:0.018518519 758:0.037037037 1259:0.018518519 1844:0.018518519 4353:0.018518519 6835:0.018518519 9434:0.018518519 11128:0.018518519 #
414.35612059994673472829163074493 124:0.023255814 245:0.023255814 580:0.023255814 583:0.023255814 638:0.023255814 1393:0.023255814 7104:0.023255814 #
414.35612059994673472829163074493 60:0.021739131 245:0.021739131 252:0.021739131 638:0.021739131 1035:0.021739131 1332:0.021739131 1593:0.021739131 7312:0.021739131 #
260.75205580267748928235960192978 102:0.023255814 640:0.023255814 5069:0.023255814 12439:0.023255814 12988:0.023255814 #
-244.20459502281440222759556490928 245:0.025 344:0.025 360:0.025 408:0.025 1058:0.025 1407:0.025 11591:0.025 11592:0.025 #
48.448996604004086918848770437762 15:0.0090909088 602:0.0090909088 956:0.0090909088 1151:0.0090909088 1268:0.0090909088 4662:0.0090909088 8052:0.0090909088 8494:0.0090909088 9972:0.0090909088 12988:0.0090909088 16730:0.0090909088 17993:0.0090909088 17994:0.0090909088 17995:0.0090909088 #
269.73117195684045555026386864483 204:0.052631579 17001:0.052631579 #
414.35612059994673472829163074493 413:0.032258064 1556:0.032258064 11264:0.032258064 16030:0.032258064 #
279.60203350197656391173950396478 43:0.022222223 193:0.022222223 203:0.022222223 204:0.022222223 956:0.022222223 2556:0.022222223 7680:0.022222223 #
414.35612059994673472829163074493 106:0.010416667 492:0.010416667 535:0.010416667 939:0.010416667 2290:0.010416667 2941:0.010416667 2957:0.010416667 4212:0.010416667 4618:0.010416667 13734:0.010416667 15556:0.010416667 15557:0.010416667 #
-414.35612059994673472829163074493 57:0.027027028 4638:0.027027028 7312:0.027027028 13363:0.027027028 #
-414.35612059994673472829163074493 196:0.010204081 758:0.040816326 815:0.010204081 1194:0.010204081 1904:0.010204081 2774:0.010204081 2775:0.010204081 2963:0.010204081 3964:0.010204081 4218:0.010204081 4830:0.010204081 5445:0.010204081 11989:0.010204081 #
-414.35612059994673472829163074493 57:0.023809524 276:0.023809524 1088:0.023809524 1251:0.023809524 10574:0.023809524 10986:0.023809524 #
414.35612059994673472829163074493 245:0.023809524 273:0.023809524 491:0.023809524 1654:0.023809524 2303:0.023809524 19055:0.023809524 #
290.55821339270954695166437886655 15:0.023809524 126:0.023809524 245:0.023809524 1436:0.023809524 4477:0.023809524 14602:0.023809524 14603:0.023809524 #
414.35612059994673472829163074493 186:0.01923077 273:0.01923077 807:0.01923077 1585:0.01923077 3140:0.01923077 4478:0.01923077 16027:0.01923077 17395:0.01923077 #
414.35612059994673472829163074493 49:0.011627907 149:0.011627907 186:0.011627907 273:0.011627907 1520:0.011627907 1768:0.011627907 2259:0.011627907 2281:0.011627907 5882:0.011627907 10118:0.011627907 15022:0.011627907 15335:0.011627907 15336:0.011627907 #
414.35612059994673472829163074493 408:0.022727273 541:0.045454547 1839:0.022727273 4431:0.022727273 13827:0.022727273 #
-414.35612059994673472829163074493 295:0.014285714 532:0.014285714 1783:0.014285714 1798:0.014285714 2005:0.014285714 2339:0.014285714 3810:0.014285714 6776:0.028571429 9762:0.014285714 #
414.35612059994673472829163074493 50:0.013157895 317:0.013157895 789:0.013157895 1141:0.013157895 1151:0.013157895 4354:0.013157895 5385:0.013157895 8277:0.013157895 10683:0.013157895 #
-414.35612059994673472829163074493 15:0.023255814 308:0.023255814 324:0.023255814 541:0.023255814 545:0.023255814 3639:0.023255814 4600:0.023255814 #
270.40932175336098453044542111456 124:0.052631579 2924:0.052631579 3773:0.052631579 #
414.35612059994673472829163074493 29:0.0084745763 149:0.0084745763 196:0.0084745763 726:0.0084745763 758:0.0084745763 868:0.0084745763 912:0.0084745763 1028:0.0084745763 1308:0.0084745763 1606:0.0084745763 1640:0.0084745763 1798:0.0084745763 2338:0.0084745763 4218:0.0084745763 6216:0.0084745763 9674:0.0084745763 13006:0.0084745763 #
171.09610553956952117005130276084 245:0.0066225166 295:0.0066225166 496:0.0066225166 592:0.0066225166 695:0.0066225166 881:0.0066225166 3118:0.0066225166 3656:0.0066225166 4832:0.0066225166 8700:0.0066225166 8814:0.0066225166 10553:0.0066225166 10955:0.0066225166 11191:0.0066225166 11361:0.0066225166 13609:0.0066225166 14983:0.0066225166 14984:0.0066225166 14985:0.0066225166 #
414.35612059994673472829163074493 43:0.01369863 60:0.01369863 124:0.01369863 190:0.02739726 966:0.01369863 2664:0.01369863 5514:0.01369863 7687:0.01369863 15325:0.01369863 15326:0.01369863 #
-414.35612059994673472829163074493 149:0.023809524 371:0.023809524 853:0.023809524 1839:0.023809524 3967:0.023809524 #
-414.35612059994673472829163074493 149:0.03125 197:0.0625 3140:0.0625 #
-414.35612059994673472829163074493 126:0.022727273 228:0.045454547 418:0.022727273 638:0.022727273 726:0.022727273 2011:0.022727273 7242:0.022727273 #
-318.74261724432875553247868083417 146:0.020833334 581:0.020833334 4073:0.020833334 4644:0.020833334 6211:0.020833334 10402:0.020833334 #
135.62430401276597535797918681055 110:0.041666668 360:0.041666668 541:0.041666668 605:0.041666668 834:0.041666668 #
231.08765225312041025063081178814 15:0.02 1055:0.02 1746:0.02 1747:0.02 9545:0.02 18017:0.02 #
414.35612059994673472829163074493 273:0.021276595 541:0.021276595 547:0.021276595 934:0.021276595 3828:0.021276595 13660:0.021276595 13661:0.021276595 #
414.35612059994673472829163074493 15:0.025641026 19:0.012820513 124:0.012820513 322:0.012820513 342:0.012820513 561:0.012820513 1038:0.012820513 4642:0.012820513 7333:0.012820513 9415:0.012820513 16033:0.012820513 #
414.35612059994673472829163074493 408:0.017241379 541:0.034482758 547:0.017241379 1088:0.017241379 5124:0.017241379 10117:0.017241379 18828:0.017241379 18829:0.017241379 #
412.09953237443090756642050109804 44:0.0092592593 64:0.0092592593 82:0.0092592593 152:0.0092592593 739:0.0092592593 860:0.0092592593 1151:0.0092592593 1313:0.0092592593 1425:0.0092592593 2172:0.0092592593 3405:0.0092592593 6290:0.0092592593 10621:0.0092592593 12294:0.0092592593 #
-295.55670441509602142104995436966 547:0.02631579 1159:0.02631579 3315:0.02631579 6558:0.02631579 7366:0.02631579 #
-278.80269594063236127112759277225 124:0.035714287 157:0.035714287 1724:0.035714287 1733:0.035714287 7070:0.035714287 #
414.35612059994673472829163074493 15:0.012195121 93:0.012195121 814:0.012195121 816:0.012195121 1039:0.012195121 1184:0.012195121 1318:0.012195121 1505:0.012195121 15058:0.012195121 15059:0.012195121 #
414.35612059994673472829163074493 15:0.014705882 126:0.014705882 228:0.014705882 307:0.014705882 311:0.014705882 1901:0.014705882 2575:0.014705882 4026:0.014705882 7998:0.014705882 11186:0.014705882 #
312.18175969875483133364468812943 126:0.016393442 149:0.016393442 196:0.016393442 228:0.016393442 815:0.016393442 1159:0.016393442 2079:0.016393442 3380:0.016393442 15297:0.016393442 #
414.35612059994673472829163074493 149:0.02631579 197:0.02631579 959:0.02631579 1258:0.02631579 9956:0.02631579 #
-108.08565898120050974284822586924 196:0.07692308 1287:0.07692308 #
-414.35612059994673472829163074493 15:0.012820513 126:0.012820513 193:0.012820513 203:0.012820513 228:0.012820513 411:0.012820513 695:0.012820513 739:0.012820513 860:0.012820513 1041:0.012820513 1901:0.012820513 3868:0.012820513 4686:0.012820513 #
-414.35612059994673472829163074493 15:0.016666668 149:0.016666668 252:0.016666668 295:0.016666668 459:0.016666668 1850:0.016666668 2677:0.016666668 3774:0.016666668 12413:0.016666668 12414:0.016666668 #
115.84339938878201792249456048012 2088:0.047619049 2096:0.047619049 19205:0.047619049 #
414.35612059994673472829163074493 445:0.043478262 2788:0.043478262 5643:0.043478262 #
-414.35612059994673472829163074493 545:0.0099009899 1357:0.0099009899 1693:0.0099009899 3309:0.0099009899 4293:0.0099009899 4409:0.0099009899 5299:0.0099009899 5366:0.0099009899 6709:0.0099009899 7384:0.0099009899 7706:0.0099009899 10777:0.0099009899 13127:0.0099009899 #
-414.35612059994673472829163074493 535:0.021276595 1448:0.021276595 1466:0.021276595 2174:0.021276595 7940:0.021276595 9274:0.021276595 #
-414.35612059994673472829163074493 94:0.035714287 1156:0.035714287 2629:0.035714287 #
-414.35612059994673472829163074493 9:0.01754386 94:0.01754386 1175:0.01754386 1593:0.01754386 2338:0.01754386 5937:0.01754386 6399:0.01754386 #
414.35612059994673472829163074493 50:0.017241379 149:0.017241379 695:0.017241379 1237:0.034482758 1733:0.017241379 1942:0.017241379 2136:0.017241379 2336:0.017241379 6094:0.017241379 #
414.35612059994673472829163074493 350:0.02631579 739:0.02631579 1733:0.02631579 2337:0.02631579 2419:0.02631579 2492:0.02631579 #
414.35612059994673472829163074493 124:0.040816326 157:0.020408163 228:0.020408163 252:0.020408163 607:0.020408163 669:0.020408163 3738:0.020408163 15843:0.020408163 #
-414.35612059994673472829163074493 50:0.039999999 1237:0.039999999 3181:0.039999999 6029:0.039999999 #
414.35612059994673472829163074493 11:0.0067567569 15:0.0067567569 16:0.0067567569 149:0.0067567569 484:0.0067567569 603:0.0067567569 1499:0.0067567569 3984:0.0067567569 4608:0.0067567569 6972:0.0067567569 8116:0.0067567569 8170:0.0067567569 10456:0.0067567569 11784:0.0067567569 13798:0.0067567569 14648:0.0067567569 18090:0.0067567569 19026:0.0067567569 #
414.35612059994673472829163074493 317:0.023809524 5700:0.023809524 13610:0.023809524 13611:0.023809524 #
414.35612059994673472829163074493 57:0.014285714 196:0.014285714 229:0.014285714 418:0.014285714 535:0.014285714 726:0.014285714 1013:0.014285714 1283:0.014285714 3140:0.014285714 6147:0.014285714 #
413.96237852992499028914608061314 55:0.030303031 547:0.030303031 1048:0.030303031 4819:0.030303031 5047:0.030303031 #
414.35612059994673472829163074493 245:0.025 1724:0.025 1725:0.025 15466:0.025 15865:0.025 15866:0.025 #
-263.49981669419418039979063905776 1283:0.1 13448:0.1 #
-165.31330367935379399568773806095 124:0.043478262 2557:0.043478262 5060:0.043478262 8997:0.043478262 #
-414.35612059994673472829163074493 350:0.024390243 354:0.024390243 484:0.024390243 711:0.024390243 934:0.024390243 1506:0.024390243 #
359.30119990893831527500879019499 196:0.035714287 337:0.035714287 3195:0.035714287 3860:0.035714287 #
-414.35612059994673472829163074493 50:0.02631579 2009:0.02631579 2088:0.02631579 11091:0.02631579 #
-363.87977982529855580651201307774 9:0.018181818 50:0.018181818 74:0.018181818 97:0.018181818 3738:0.018181818 3739:0.018181818 3740:0.018181818 3741:0.018181818 #
414.35612059994673472829163074493 516:0.014285714 545:0.014285714 796:0.014285714 925:0.014285714 1480:0.014285714 1819:0.014285714 2023:0.014285714 2563:0.014285714 5572:0.014285714 14015:0.014285714 #
414.35612059994673472829163074493 305:0.017857144 1200:0.017857144 1800:0.017857144 2723:0.017857144 4663:0.017857144 4692:0.017857144 14431:0.017857144 17878:0.017857144 #
414.35612059994673472829163074493 273:0.027777778 580:0.027777778 990:0.027777778 1630:0.027777778 4215:0.027777778 9223:0.027777778 #
-53.714584054303529114804405253381 245:0.01923077 480:0.01923077 541:0.01923077 1182:0.01923077 1332:0.01923077 1630:0.01923077 1733:0.01923077 2115:0.01923077 #
-414.35612059994673472829163074493 90:0.008547009 149:0.008547009 273:0.008547009 354:0.008547009 535:0.008547009 541:0.008547009 2562:0.008547009 3531:0.008547009 4890:0.017094018 8348:0.008547009 11196:0.008547009 12424:0.008547009 12518:0.008547009 12519:0.008547009 12520:0.008547009 12521:0.008547009 #
-287.00404171925077889682142995298 137:0.024390243 423:0.024390243 662:0.024390243 2021:0.024390243 5254:0.024390243 #
246.16285724642631294045713730156 50:0.034482758 559:0.034482758 1049:0.034482758 2009:0.034482758 #
-400.78439714470295029968838207424 50:0.025641026 669:0.025641026 674:0.025641026 3279:0.025641026 9223:0.025641026 #
-414.35612059994673472829163074493 50:0.03125 796:0.03125 1342:0.03125 4054:0.03125 5075:0.03125 #
414.35612059994673472829163074493 57:0.017857144 94:0.017857144 149:0.017857144 162:0.017857144 999:0.017857144 1867:0.017857144 14456:0.017857144 #
414.35612059994673472829163074493 1499:0.011235955 1710:0.011235955 1978:0.011235955 4592:0.011235955 6240:0.011235955 11151:0.011235955 13959:0.011235955 19499:0.011235955 19500:0.011235955 19501:0.011235955 #
27.995085044754606684591635712422 9:0.023255814 1429:0.023255814 4081:0.023255814 12439:0.023255814 12503:0.023255814 18844:0.023255814 #
-133.33885834549974447327258531004 43:0.022727273 758:0.022727273 895:0.022727273 1169:0.022727273 1461:0.022727273 4048:0.022727273 4049:0.022727273 #
-329.05270199069809677894227206707 1238:0.010989011 1323:0.010989011 1540:0.010989011 1634:0.010989011 1656:0.010989011 2903:0.010989011 4094:0.010989011 6087:0.010989011 7529:0.010989011 7530:0.010989011 7531:0.010989011 #
-414.35612059994673472829163074493 190:0.01754386 563:0.01754386 1004:0.01754386 2959:0.01754386 6718:0.01754386 9481:0.01754386 12590:0.01754386 12591:0.01754386 12592:0.01754386 #
414.35612059994673472829163074493 50:0.037037037 487:0.037037037 2677:0.037037037 2791:0.037037037 #
414.35612059994673472829163074493 50:0.03508772 126:0.01754386 245:0.01754386 2722:0.01754386 5559:0.01754386 5810:0.01754386 18219:0.01754386 18220:0.01754386 #
414.35612059994673472829163074493 50:0.029411765 245:0.029411765 430:0.029411765 2244:0.029411765 18585:0.029411765 18586:0.029411765 #
-414.35612059994673472829163074493 50:0.02 245:0.02 314:0.02 323:0.02 1021:0.02 1244:0.02 3283:0.02 7294:0.02 #
-414.35612059994673472829163074493 50:0.03125 245:0.03125 273:0.03125 511:0.03125 607:0.03125 4031:0.03125 #
-414.35612059994673472829163074493 50:0.021739131 487:0.021739131 1049:0.021739131 1880:0.021739131 2445:0.021739131 2508:0.021739131 #
-414.35612059994673472829163074493 50:0.028571429 487:0.028571429 617:0.028571429 1437:0.028571429 1607:0.028571429 #
414.35612059994673472829163074493 43:0.030303031 149:0.030303031 2574:0.030303031 6907:0.030303031 10217:0.030303031 #
414.35612059994673472829163074493 238:0.023255814 796:0.023255814 1029:0.023255814 3128:0.023255814 4002:0.023255814 #
414.35612059994673472829163074493 82:0.019607844 149:0.019607844 315:0.019607844 425:0.019607844 443:0.019607844 785:0.019607844 1841:0.019607844 #
414.35612059994673472829163074493 149:0.029411765 4329:0.029411765 11278:0.029411765 15581:0.029411765 #
10.57638636174019808322555036284 149:0.018867925 496:0.018867925 758:0.018867925 2611:0.018867925 4141:0.018867925 5846:0.018867925 10875:0.018867925 15298:0.018867925 #
-414.35612059994673472829163074493 39:0.012048192 486:0.012048192 549:0.012048192 1141:0.012048192 2575:0.012048192 2576:0.012048192 2577:0.012048192 2578:0.012048192 2579:0.012048192 #
-414.35612059994673472829163074493 149:0.041666668 939:0.041666668 11842:0.041666668 #
414.35612059994673472829163074493 25:0.0089285718 245:0.0089285718 273:0.0089285718 290:0.0089285718 306:0.0089285718 314:0.0089285718 426:0.0089285718 535:0.0089285718 834:0.0089285718 1741:0.0089285718 1892:0.0089285718 2778:0.0089285718 5908:0.0089285718 6079:0.0089285718 7470:0.0089285718 17939:0.0089285718 17940:0.0089285718 #
-414.35612059994673472829163074493 124:0.041666668 229:0.041666668 443:0.041666668 1800:0.041666668 #
-414.35612059994673472829163074493 459:0.023255814 846:0.023255814 3128:0.023255814 4029:0.023255814 6538:0.023255814 6539:0.023255814 6540:0.023255814 #
-358.86143266821858333059935830534 608:0.05882353 2244:0.05882353 11287:0.05882353 #
-414.35612059994673472829163074493 60:0.016666668 124:0.016666668 196:0.016666668 305:0.016666668 358:0.016666668 739:0.016666668 1004:0.016666668 3140:0.016666668 3340:0.016666668 #
414.35612059994673472829163074493 375:0.043478262 487:0.043478262 3892:0.043478262 #
414.35612059994673472829163074493 149:0.025 728:0.025 2445:0.025 2508:0.025 9401:0.025 11899:0.025 #
414.35612059994673472829163074493 160:0.039999999 2445:0.039999999 15934:0.039999999 #
414.35612059994673472829163074493 149:0.03846154 502:0.03846154 756:0.03846154 1021:0.03846154 1169:0.03846154 #
414.35612059994673472829163074493 617:0.033333335 2394:0.033333335 8060:0.033333335 8876:0.033333335 #
-48.998125503652019574474252294749 49:0.01010101 541:0.01010101 711:0.01010101 814:0.01010101 1917:0.01010101 2722:0.01010101 2885:0.01010101 3161:0.01010101 3351:0.01010101 4489:0.01010101 4784:0.01010101 4785:0.01010101 4786:0.01010101 4787:0.01010101 #
-61.602411609467246478288871003315 160:0.043478262 2722:0.043478262 4989:0.043478262 12773:0.043478262 #
248.62558519318977801049186382443 3606:0.027027028 8749:0.027027028 8750:0.027027028 14693:0.027027028 14694:0.027027028 14695:0.027027028 #
-221.25217687027409851907577831298 2392:0.050000001 2393:0.050000001 2394:0.050000001 #
-130.33126986102462296912563033402 66:0.03125 377:0.03125 378:0.03125 846:0.03125 3167:0.03125 3168:0.03125 #
9.8869922558947394009010167792439 15:0.030303031 482:0.030303031 483:0.030303031 739:0.030303031 846:0.030303031 3140:0.030303031 #
6.9975950792706775871465652016923 846:0.032258064 1251:0.032258064 1736:0.032258064 14500:0.032258064 #
414.35612059994673472829163074493 2:0.03125 196:0.03125 459:0.03125 607:0.03125 608:0.03125 4071:0.03125 #
-326.25210714074887619062792509794 535:0.06666667 13233:0.06666667 #
-295.16736720896079759768326766789 846:0.0625 5938:0.0625 12769:0.0625 #
148.49955761981647128777694888413 41:0.018867925 234:0.018867925 1252:0.018867925 2957:0.018867925 14591:0.018867925 14592:0.018867925 14593:0.018867925 #
414.35612059994673472829163074493 608:0.011764706 1244:0.011764706 1258:0.011764706 1578:0.023529412 2630:0.011764706 2850:0.011764706 3340:0.011764706 3978:0.011764706 15362:0.011764706 15559:0.011764706 15560:0.011764706 #
187.74873155215610154300520662218 887:0.012987013 2114:0.012987013 2582:0.012987013 4890:0.012987013 4942:0.012987013 5295:0.012987013 6986:0.012987013 13999:0.012987013 14669:0.012987013 #
289.50051856626549806605908088386 50:0.020833334 320:0.020833334 1117:0.020833334 1342:0.020833334 14583:0.020833334 15562:0.020833334 #
414.35612059994673472829163074493 149:0.023809524 245:0.023809524 1156:0.023809524 1169:0.023809524 9342:0.023809524 18944:0.023809524 #
50.375980849449895515590469585732 1169:0.090909094 14786:0.090909094 #
-414.35612059994673472829163074493 149:0.022727273 238:0.022727273 1732:0.022727273 5428:0.022727273 11935:0.022727273 #
-414.35612059994673472829163074493 149:0.015873017 354:0.015873017 491:0.015873017 496:0.015873017 741:0.015873017 2341:0.015873017 6713:0.015873017 11562:0.015873017 11833:0.015873017 #
-414.35612059994673472829163074493 36:0.01754386 149:0.01754386 728:0.01754386 834:0.01754386 1100:0.01754386 2080:0.01754386 3618:0.01754386 3619:0.01754386 #
405.01495214410101652902085334063 198:0.027777778 273:0.027777778 739:0.027777778 2862:0.027777778 3140:0.027777778 4267:0.027777778 14050:0.027777778 #
414.35612059994673472829163074493 752:0.047619049 846:0.047619049 1700:0.047619049 #
46.28664631784860716834373306483 643:0.0625 846:0.0625 13799:0.0625 #
-147.9731770297524917623377405107 1035:0.045454547 1699:0.045454547 1700:0.045454547 #
-54.003751978838245406677742721513 1580:0.055555556 1700:0.055555556 #
-414.35612059994673472829163074493 1028:0.02631579 1258:0.02631579 4650:0.02631579 9274:0.02631579 #
242.60573701328894458129070699215 245:0.011494253 278:0.011494253 580:0.011494253 608:0.011494253 957:0.011494253 1152:0.011494253 2547:0.034482758 3281:0.011494253 5730:0.011494253 13264:0.011494253 14969:0.011494253 15530:0.011494253 #
-91.414191151618965136549377348274 15:0.021739131 67:0.021739131 198:0.021739131 696:0.021739131 739:0.021739131 846:0.021739131 3118:0.021739131 6702:0.021739131 #
414.35612059994673472829163074493 295:0.010526316 408:0.010526316 608:0.010526316 774:0.010526316 775:0.010526316 1177:0.010526316 2341:0.010526316 3181:0.010526316 3819:0.010526316 4247:0.010526316 6053:0.010526316 7175:0.010526316 9587:0.010526316 14432:0.010526316 #
414.35612059994673472829163074493 34:0.02 36:0.02 1172:0.02 3976:0.02 5445:0.02 #
414.35612059994673472829163074493 50:0.028169014 124:0.014084507 408:0.014084507 511:0.014084507 2722:0.014084507 9790:0.014084507 13857:0.014084507 14451:0.014084507 14452:0.014084507 #
414.35612059994673472829163074493 335:0.017241379 408:0.017241379 551:0.017241379 681:0.017241379 1130:0.017241379 3208:0.017241379 3669:0.017241379 #
414.35612059994673472829163074493 148:0.024390243 307:0.024390243 516:0.024390243 2173:0.024390243 2174:0.024390243 5713:0.024390243 18170:0.024390243 18230:0.024390243 #
143.46403688690975286590401083231 323:0.05882353 2877:0.05882353 3118:0.05882353 #
-168.43181972154687287002161610872 643:0.043478262 2276:0.043478262 4780:0.043478262 12085:0.043478262 #
-414.35612059994673472829163074493 408:0.023809524 426:0.023809524 484:0.023809524 1078:0.023809524 4267:0.023809524 5302:0.023809524 #
-12.860913632334423084557784022763 12144:0.16666667 #
-414.35612059994673472829163074493 162:0.014705882 643:0.029411765 739:0.014705882 2644:0.014705882 2645:0.014705882 2646:0.014705882 2647:0.014705882 #
145.71996445314513835000980179757 1028:0.0625 4504:0.0625 #
414.35612059994673472829163074493 9:0.0065359478 60:0.0065359478 149:0.0065359478 152:0.0065359478 336:0.0065359478 370:0.0065359478 588:0.0065359478 999:0.0065359478 1078:0.0065359478 1800:0.0065359478 2616:0.0065359478 3105:0.0065359478 4808:0.0065359478 6508:0.0065359478 7400:0.0065359478 9465:0.0065359478 9995:0.0065359478 16179:0.0065359478 16180:0.0065359478 16181:0.0065359478 16182:0.0065359478 #
167.74815945013264695262478198856 196:0.037037037 1028:0.037037037 7449:0.037037037 #
-272.35380059040568312411778606474 1027:0.0625 1028:0.03125 1029:0.03125 #
-414.35612059994673472829163074493 196:0.035714287 535:0.035714287 815:0.035714287 1696:0.035714287 #
35.545643920950269034619850572199 50:0.011904762 321:0.011904762 326:0.011904762 580:0.011904762 2104:0.011904762 2222:0.011904762 2460:0.011904762 3140:0.011904762 3782:0.011904762 6171:0.011904762 6922:0.011904762 14967:0.023809524 15821:0.011904762 #
-296.33767491437333774229045957327 196:0.055555556 5609:0.055555556 #
414.35612059994673472829163074493 643:0.057142857 881:0.028571429 2558:0.028571429 2927:0.028571429 15570:0.028571429 15571:0.028571429 #
-414.35612059994673472829163074493 273:0.011494253 996:0.011494253 1027:0.011494253 1028:0.011494253 1556:0.011494253 1771:0.011494253 1775:0.011494253 3243:0.011494253 4509:0.011494253 5455:0.011494253 13055:0.011494253 #
-414.35612059994673472829163074493 67:0.006849315 77:0.006849315 93:0.006849315 470:0.006849315 608:0.01369863 1141:0.006849315 1375:0.006849315 1437:0.006849315 1463:0.006849315 2064:0.006849315 2102:0.006849315 2850:0.006849315 3063:0.006849315 4650:0.006849315 4651:0.006849315 4652:0.006849315 4653:0.006849315 #
-414.35612059994673472829163074493 149:0.041666668 335:0.041666668 881:0.041666668 1600:0.041666668 #
-414.35612059994673472829163074493 169:0.022727273 295:0.022727273 1259:0.022727273 1774:0.022727273 5599:0.022727273 #
-414.35612059994673472829163074493 137:0.016129032 484:0.032258064 509:0.016129032 1068:0.016129032 1215:0.016129032 2220:0.016129032 2221:0.016129032 2222:0.016129032 2223:0.016129032 #
414.35612059994673472829163074493 196:0.015873017 789:0.015873017 815:0.015873017 1839:0.015873017 1869:0.015873017 2071:0.015873017 2490:0.015873017 4837:0.015873017 #
414.35612059994673472829163074493 60:0.016949153 196:0.016949153 820:0.016949153 915:0.016949153 1589:0.016949153 3181:0.016949153 6379:0.016949153 7411:0.016949153 14925:0.016949153 #
414.35612059994673472829163074493 50:0.016949153 198:0.033898305 273:0.016949153 1482:0.016949153 2338:0.016949153 2534:0.016949153 4094:0.016949153 10404:0.016949153 #
414.35612059994673472829163074493 273:0.013333334 322:0.013333334 408:0.013333334 737:0.013333334 758:0.013333334 1258:0.013333334 1527:0.013333334 5741:0.013333334 7412:0.013333334 7750:0.013333334 11291:0.013333334 #
414.35612059994673472829163074493 41:0.020833334 273:0.020833334 588:0.020833334 2406:0.020833334 4693:0.020833334 6911:0.020833334 #
-323.32905137831949105020612478256 9:0.032258064 198:0.032258064 273:0.032258064 814:0.032258064 1980:0.032258064 #
414.35612059994673472829163074493 44:0.0088495575 1407:0.0088495575 1601:0.0088495575 2850:0.0088495575 4682:0.0088495575 6493:0.0088495575 13846:0.0088495575 13990:0.0088495575 14376:0.0088495575 14377:0.0088495575 14378:0.0088495575 14379:0.0088495575 14380:0.0088495575 #
388.33368250657400722047896124423 15:0.017241379 16:0.017241379 149:0.017241379 484:0.017241379 846:0.034482758 2080:0.017241379 2341:0.017241379 3662:0.017241379 3758:0.017241379 #
299.13654809019675440140417777002 149:0.0625 1135:0.0625 6469:0.0625 #
117.81951757060082286443503107876 190:0.027027028 283:0.027027028 345:0.027027028 608:0.027027028 3248:0.027027028 8634:0.027027028 #
-414.35612059994673472829163074493 203:0.010869565 245:0.010869565 553:0.010869565 846:0.021739131 1901:0.010869565 2341:0.010869565 2575:0.010869565 3090:0.010869565 3260:0.010869565 4024:0.010869565 4025:0.010869565 4026:0.010869565 4027:0.010869565 #
-235.87115477676672981033334508538 846:0.043478262 1734:0.043478262 2546:0.043478262 4123:0.043478262 #
-367.77009471189313671857235021889 196:0.039999999 2490:0.039999999 4379:0.039999999 #
-414.35612059994673472829163074493 608:0.027777778 846:0.027777778 1858:0.027777778 5686:0.027777778 13167:0.027777778 #
-304.9194240017548054311191663146 41:0.023809524 739:0.023809524 1437:0.023809524 1587:0.023809524 2598:0.023809524 9000:0.023809524 #
363.11809229513914942799601703882 1028:0.027777778 2071:0.027777778 6498:0.027777778 7354:0.027777778 14433:0.027777778 #
414.35612059994673472829163074493 149:0.037037037 210:0.037037037 241:0.037037037 1980:0.037037037 6686:0.037037037 #
-414.35612059994673472829163074493 2:0.017857144 137:0.017857144 1332:0.017857144 2309:0.017857144 4580:0.017857144 5127:0.017857144 5128:0.017857144 5129:0.017857144 #
-414.35612059994673472829163074493 149:0.020408163 350:0.020408163 351:0.020408163 352:0.020408163 353:0.020408163 354:0.020408163 355:0.020408163 #
291.70375990786214970285072922707 273:0.030303031 484:0.030303031 485:0.030303031 14781:0.030303031 15241:0.030303031 #
411.0287667963070816767867654562 496:0.043478262 1643:0.043478262 1858:0.043478262 2353:0.043478262 #
414.35612059994673472829163074493 295:0.023255814 739:0.023255814 838:0.023255814 1821:0.023255814 5375:0.023255814 8200:0.023255814 10420:0.023255814 #
-308.09959469249122321343747898936 2003:0.083333336 3479:0.083333336 #
-414.35612059994673472829163074493 16:0.017857144 50:0.017857144 314:0.017857144 481:0.017857144 482:0.017857144 483:0.017857144 484:0.017857144 485:0.017857144 #
-414.35612059994673472829163074493 50:0.014084507 137:0.014084507 203:0.014084507 210:0.014084507 244:0.014084507 264:0.014084507 346:0.014084507 408:0.014084507 459:0.014084507 739:0.014084507 11747:0.014084507 11748:0.014084507 #
414.35612059994673472829163074493 355:0.05882353 3044:0.05882353 #
298.85645344149304492020746693015 149:0.018867925 781:0.018867925 1092:0.018867925 1186:0.018867925 2575:0.018867925 6336:0.018867925 10053:0.018867925 16816:0.018867925 17756:0.018867925 #
414.35612059994673472829163074493 83:0.027777778 149:0.027777778 198:0.027777778 2977:0.027777778 5849:0.027777778 #
297.26304585838738603342790156603 149:0.029411765 4012:0.029411765 6702:0.029411765 9479:0.029411765 16092:0.029411765 #
51.630588783753083248484472278506 355:0.045454547 14332:0.045454547 #
-414.35612059994673472829163074493 191:0.0078125 314:0.0078125 1069:0.0078125 1070:0.0078125 1585:0.0078125 2351:0.0078125 3243:0.0078125 3275:0.0078125 5690:0.0078125 6518:0.0078125 6940:0.0078125 6941:0.0078125 6942:0.0078125 6943:0.0078125 6944:0.0078125 #
-414.35612059994673472829163074493 25:0.018181818 50:0.018181818 426:0.018181818 1045:0.018181818 1283:0.018181818 1659:0.018181818 6299:0.018181818 6300:0.018181818 #
-356.5722302753682697584736160934 149:0.050000001 838:0.050000001 1556:0.050000001 1987:0.050000001 #
94.49965343231204428775527048856 50:0.021276595 196:0.021276595 314:0.021276595 319:0.021276595 608:0.021276595 1164:0.021276595 7255:0.021276595 #
-139.79354665914954125582880806178 241:0.039999999 2956:0.039999999 2957:0.039999999 2958:0.039999999 #
-414.35612059994673472829163074493 50:0.027777778 89:0.027777778 608:0.027777778 845:0.027777778 1169:0.027777778 6087:0.027777778 #
-414.35612059994673472829163074493 9:0.022222223 852:0.022222223 1177:0.022222223 2130:0.022222223 3140:0.022222223 4012:0.022222223 10373:0.022222223 #
-414.35612059994673472829163074493 50:0.016949153 472:0.016949153 757:0.016949153 758:0.016949153 2144:0.016949153 2419:0.016949153 2582:0.016949153 3412:0.016949153 3413:0.016949153 3414:0.016949153 #
139.29886894339747982485278043896 50:0.012658228 673:0.012658228 744:0.012658228 1745:0.012658228 3154:0.012658228 3195:0.012658228 8031:0.012658228 14122:0.012658228 15223:0.012658228 15413:0.012658228 #
414.35612059994673472829163074493 64:0.022222223 67:0.022222223 78:0.022222223 315:0.022222223 5369:0.022222223 5588:0.022222223 #
414.35612059994673472829163074493 149:0.015384615 160:0.030769231 169:0.015384615 245:0.015384615 459:0.015384615 1244:0.015384615 1839:0.015384615 5208:0.015384615 #
170.80903006426200363421230576932 196:0.012048192 203:0.012048192 780:0.012048192 803:0.012048192 956:0.012048192 1179:0.012048192 1383:0.012048192 3548:0.012048192 5654:0.012048192 14836:0.012048192 15117:0.012048192 #
-414.35612059994673472829163074493 67:0.024390243 321:0.024390243 422:0.024390243 3058:0.024390243 4680:0.024390243 7354:0.024390243 #
-414.35612059994673472829163074493 360:0.0625 1839:0.0625 #
-414.35612059994673472829163074493 321:0.034482758 422:0.034482758 617:0.034482758 915:0.034482758 1252:0.034482758 #
-414.35612059994673472829163074493 149:0.025 245:0.025 739:0.025 915:0.025 3418:0.025 4776:0.025 12493:0.025 #
414.35612059994673472829163074493 245:0.0075757578 344:0.0075757578 549:0.0075757578 733:0.0075757578 831:0.0075757578 1202:0.0075757578 1341:0.0075757578 3140:0.0075757578 3151:0.0075757578 3649:0.0075757578 4788:0.0075757578 13640:0.0075757578 14093:0.0075757578 15706:0.0075757578 16538:0.0075757578 16763:0.0075757578 19382:0.0075757578 19636:0.0075757578 19637:0.0075757578 #
-414.35612059994673472829163074493 198:0.029411765 426:0.029411765 1172:0.029411765 1852:0.029411765 3681:0.029411765 #
-414.35612059994673472829163074493 50:0.01923077 64:0.01923077 1663:0.01923077 1781:0.03846154 2092:0.01923077 2832:0.01923077 2833:0.01923077 2854:0.01923077 #
-358.51735368939972659063641913235 50:0.021276595 60:0.021276595 160:0.021276595 740:0.021276595 1112:0.021276595 1711:0.021276595 2283:0.021276595 3956:0.021276595 #
-414.35612059994673472829163074493 295:0.033333335 315:0.033333335 580:0.033333335 695:0.033333335 1578:0.033333335 #
-167.61554723734244021215999964625 50:0.033333335 64:0.033333335 322:0.033333335 739:0.033333335 5056:0.033333335 #
110.21083176401008074662968283519 146:0.025 1258:0.025 14007:0.025 15449:0.025 #
414.35612059994673472829163074493 682:0.033333335 898:0.033333335 1506:0.033333335 6195:0.033333335 #
414.35612059994673472829163074493 360:0.016129032 1058:0.016129032 1928:0.016129032 5302:0.016129032 9610:0.016129032 11664:0.016129032 14288:0.016129032 19088:0.016129032 #
148.88602850264152266390738077462 65:0.030303031 834:0.030303031 1383:0.030303031 1427:0.030303031 1656:0.030303031 #
-278.01955721002707377920160070062 6195:0.25 #
-414.35612059994673472829163074493 612:0.027027028 860:0.027027028 898:0.027027028 1687:0.027027028 2244:0.027027028 3753:0.027027028 #
-87.322573707845762669421674218029 682:0.027027028 898:0.027027028 2244:0.027027028 6195:0.027027028 10638:0.027027028 #
-414.35612059994673472829163074493 898:0.027777778 2003:0.027777778 3732:0.027777778 7399:0.027777778 #
414.35612059994673472829163074493 49:0.02631579 149:0.02631579 295:0.02631579 459:0.02631579 541:0.02631579 1578:0.02631579 2283:0.02631579 #
414.35612059994673472829163074493 50:0.020408163 191:0.020408163 321:0.020408163 955:0.020408163 1578:0.020408163 4258:0.020408163 5105:0.020408163 10568:0.020408163 13448:0.020408163 #
414.35612059994673472829163074493 50:0.039999999 1237:0.039999999 2138:0.039999999 6496:0.039999999 #
414.35612059994673472829163074493 50:0.022222223 322:0.022222223 1021:0.022222223 1098:0.022222223 5309:0.022222223 7923:0.022222223 9676:0.022222223 #
-414.35612059994673472829163074493 49:0.024390243 148:0.024390243 459:0.024390243 541:0.024390243 796:0.024390243 1596:0.024390243 3935:0.024390243 #
-414.35612059994673472829163074493 50:0.017857144 196:0.017857144 489:0.017857144 607:0.017857144 1177:0.017857144 1383:0.017857144 1429:0.017857144 6793:0.017857144 9922:0.017857144 #
-414.35612059994673472829163074493 51:0.014084507 149:0.028169014 241:0.014084507 314:0.014084507 459:0.014084507 541:0.014084507 1115:0.014084507 1940:0.014084507 5723:0.014084507 5724:0.014084507 #
414.35612059994673472829163074493 41:0.011764706 430:0.011764706 640:0.011764706 898:0.011764706 900:0.011764706 1038:0.011764706 3208:0.011764706 3281:0.011764706 3852:0.011764706 4596:0.011764706 15958:0.011764706 #
-44.922031653780429394373641116545 295:0.014084507 553:0.014084507 1499:0.014084507 1881:0.014084507 1967:0.014084507 3043:0.014084507 4218:0.014084507 5149:0.014084507 5150:0.014084507 5151:0.014084507 #
139.35500602528571789662237279117 452:0.011764706 535:0.011764706 1798:0.011764706 2353:0.011764706 2478:0.011764706 5881:0.011764706 6744:0.011764706 7089:0.011764706 9334:0.011764706 10526:0.011764706 17289:0.011764706 #
369.23133752997915735249989666045 60:0.033333335 453:0.033333335 695:0.033333335 739:0.033333335 2994:0.033333335 4177:0.033333335 #
359.40679017889783608552534133196 1483:0.012195121 1617:0.012195121 3071:0.012195121 3919:0.012195121 9120:0.012195121 11353:0.012195121 17930:0.012195121 17931:0.012195121 17932:0.012195121 #
-308.49999123893201158352894708514 93:0.013888889 1556:0.013888889 2575:0.013888889 4716:0.013888889 4717:0.013888889 5422:0.013888889 7531:0.013888889 7636:0.013888889 10210:0.013888889 #
-414.35612059994673472829163074493 75:0.020408163 718:0.020408163 1448:0.020408163 5238:0.020408163 5239:0.020408163 #
-414.35612059994673472829163074493 67:0.0093457941 1603:0.0093457941 1980:0.0093457941 2768:0.0093457941 3352:0.0093457941 5135:0.0093457941 6039:0.0093457941 8324:0.0093457941 9284:0.0093457941 12670:0.0093457941 12671:0.0093457941 #
232.1664667944195059590128948912 1596:0.039999999 4030:0.039999999 #
309.08912471145544031969620846212 881:0.023255814 911:0.023255814 1596:0.023255814 1996:0.023255814 4038:0.023255814 7505:0.023255814 11028:0.023255814 #
414.35612059994673472829163074493 38:0.016129032 267:0.016129032 580:0.016129032 1774:0.016129032 8700:0.016129032 12986:0.016129032 13593:0.016129032 15860:0.016129032 15861:0.016129032 #
6.1919966047493097960341401631013 283:0.018181818 1596:0.018181818 4890:0.018181818 5239:0.018181818 7609:0.018181818 8959:0.018181818 10216:0.018181818 #
414.35612059994673472829163074493 549:0.012820513 1027:0.012820513 1066:0.012820513 1237:0.012820513 1765:0.012820513 2249:0.012820513 2337:0.012820513 3976:0.012820513 10652:0.012820513 19690:0.012820513 #
-414.35612059994673472829163074493 43:0.012820513 325:0.012820513 430:0.012820513 638:0.012820513 2104:0.012820513 2821:0.012820513 2862:0.012820513 3140:0.012820513 4117:0.012820513 5067:0.012820513 5068:0.012820513 5069:0.012820513 #
-414.35612059994673472829163074493 124:0.01369863 430:0.01369863 453:0.01369863 496:0.01369863 2064:0.01369863 2336:0.01369863 2587:0.01369863 5068:0.01369863 5069:0.01369863 7445:0.01369863 7446:0.01369863 7447:0.01369863 #
-367.68687278267270812648348510265 321:0.033333335 1207:0.033333335 4890:0.033333335 5286:0.033333335 5555:0.033333335 #
378.21390834164043326381943188608 13:0.022727273 39:0.022727273 718:0.022727273 2137:0.022727273 11156:0.022727273 14670:0.022727273 #
414.35612059994673472829163074493 198:0.0125 245:0.0125 301:0.0125 360:0.0125 665:0.0125 757:0.0125 854:0.0125 1071:0.0125 1383:0.0125 2189:0.0125 2601:0.0125 15657:0.0125 15658:0.0125 #
414.35612059994673472829163074493 50:0.010204081 238:0.010204081 241:0.010204081 519:0.010204081 606:0.010204081 718:0.010204081 2163:0.010204081 3309:0.010204081 4789:0.010204081 9118:0.010204081 14486:0.010204081 #
-414.35612059994673472829163074493 229:0.0080000004 238:0.0080000004 241:0.0080000004 723:0.0080000004 1425:0.0080000004 1437:0.0080000004 1542:0.0080000004 5573:0.0080000004 5870:0.016000001 6523:0.0080000004 9490:0.0080000004 10322:0.0080000004 10591:0.0080000004 10592:0.0080000004 10593:0.0080000004 #
-414.35612059994673472829163074493 1237:0.034482758 2300:0.034482758 2301:0.034482758 2302:0.034482758 2303:0.034482758 #
-414.35612059994673472829163074493 1237:0.050000001 2823:0.050000001 6195:0.050000001 12325:0.050000001 #
-398.50373731636778984466218389571 16:0.0099999998 183:0.0099999998 426:0.0099999998 498:0.0099999998 600:0.0099999998 601:0.0099999998 643:0.0099999998 652:0.0099999998 1156:0.0099999998 1800:0.0099999998 3873:0.0099999998 4332:0.0099999998 5868:0.0099999998 11228:0.0099999998 #
414.35612059994673472829163074493 64:0.0091743115 82:0.0091743115 149:0.0091743115 898:0.0091743115 962:0.0091743115 1141:0.0091743115 1499:0.0091743115 3815:0.0091743115 4994:0.0091743115 13634:0.0091743115 18581:0.0091743115 18582:0.0091743115 18583:0.0091743115 #
299.21153680458337476011365652084 49:0.012658228 126:0.012658228 149:0.025316456 203:0.012658228 321:0.012658228 671:0.012658228 878:0.012658228 1377:0.012658228 1745:0.012658228 2547:0.012658228 6202:0.012658228 6413:0.012658228 9223:0.012658228 16408:0.025316456 #
414.35612059994673472829163074493 149:0.017857144 489:0.017857144 815:0.017857144 1308:0.017857144 3077:0.017857144 6007:0.017857144 9801:0.017857144 11361:0.017857144 #
242.40248418308632949447201099247 608:0.021276595 2353:0.021276595 4346:0.021276595 5068:0.021276595 5069:0.021276595 14737:0.021276595 14738:0.021276595 #
414.35612059994673472829163074493 346:0.039999999 2629:0.039999999 3380:0.039999999 5069:0.039999999 #
-414.35612059994673472829163074493 149:0.024390243 608:0.024390243 841:0.024390243 2245:0.024390243 3283:0.024390243 5488:0.024390243 #
-414.35612059994673472829163074493 149:0.02 484:0.02 739:0.02 2629:0.02 11064:0.02 12022:0.02 12875:0.02 #
-414.35612059994673472829163074493 149:0.014285714 191:0.014285714 290:0.014285714 307:0.014285714 834:0.014285714 2419:0.014285714 2629:0.014285714 5375:0.014285714 7056:0.014285714 7057:0.014285714 #
-414.35612059994673472829163074493 149:0.025641026 1308:0.025641026 6708:0.025641026 6878:0.025641026 7338:0.025641026 #
414.35612059994673472829163074493 39:0.021276595 191:0.021276595 1237:0.021276595 1319:0.021276595 2244:0.021276595 5209:0.021276595 7140:0.021276595 #
414.35612059994673472829163074493 27:0.022727273 245:0.022727273 852:0.022727273 13972:0.022727273 15899:0.022727273 19203:0.022727273 19204:0.022727273 #
414.35612059994673472829163074493 638:0.024390243 936:0.024390243 1237:0.024390243 3337:0.024390243 4680:0.024390243 5955:0.024390243 #
-328.78350374436695346958003938198 191:0.010204081 322:0.010204081 384:0.010204081 426:0.010204081 582:0.010204081 1547:0.010204081 3236:0.020408163 3935:0.010204081 5286:0.010204081 5736:0.010204081 6449:0.010204081 10720:0.010204081 11340:0.010204081 #
-414.35612059994673472829163074493 245:0.028571429 665:0.028571429 852:0.028571429 1074:0.028571429 1903:0.028571429 4412:0.028571429 11900:0.028571429 #
-73.527685342815928493109822738916 245:0.039999999 1283:0.039999999 2163:0.039999999 4678:0.039999999 #
-400.28954372367951464184443466365 7:0.0084745763 47:0.0084745763 126:0.016949153 360:0.0084745763 516:0.0084745763 580:0.0084745763 1000:0.0084745763 1021:0.0084745763 1058:0.0084745763 1756:0.016949153 3205:0.0084745763 3758:0.0084745763 3822:0.0084745763 6239:0.0084745763 13160:0.0084745763 13161:0.0084745763 #
414.35612059994673472829163074493 149:0.029411765 393:0.029411765 541:0.029411765 1290:0.029411765 1892:0.029411765 4227:0.029411765 #
414.35612059994673472829163074493 307:0.018518519 509:0.018518519 710:0.018518519 739:0.018518519 3188:0.018518519 3261:0.018518519 13382:0.018518519 13973:0.018518519 #
414.35612059994673472829163074493 9:0.022727273 49:0.022727273 307:0.022727273 384:0.022727273 1054:0.022727273 3352:0.022727273 5555:0.022727273 #
414.35612059994673472829163074493 93:0.011764706 351:0.011764706 841:0.011764706 1466:0.011764706 2004:0.011764706 2616:0.011764706 6390:0.011764706 16563:0.011764706 18879:0.011764706 18880:0.011764706 #
-414.35612059994673472829163074493 77:0.016393442 200:0.032786883 1237:0.049180329 3000:0.016393442 4458:0.016393442 5923:0.016393442 7123:0.016393442 #
-414.35612059994673472829163074493 39:0.03125 789:0.03125 1835:0.03125 11409:0.03125 #
-32.198074996400407599139725789428 50:0.028571429 1237:0.028571429 3737:0.028571429 6257:0.028571429 9380:0.028571429 #
-414.35612059994673472829163074493 152:0.013333334 295:0.013333334 539:0.013333334 606:0.013333334 1237:0.026666667 1290:0.013333334 1585:0.013333334 1733:0.013333334 3129:0.013333334 4288:0.013333334 #
414.35612059994673472829163074493 124:0.016666668 245:0.033333335 872:0.016666668 2730:0.016666668 8226:0.016666668 17927:0.016666668 17928:0.016666668 17929:0.016666668 #
99.387647023943117119415546767414 124:0.027027028 245:0.027027028 5511:0.027027028 11609:0.027027028 14756:0.027027028 14757:0.027027028 #
-414.35612059994673472829163074493 245:0.039999999 430:0.039999999 1450:0.039999999 3261:0.039999999 3262:0.039999999 #
-378.5219133485775842018483672291 149:0.013513514 196:0.013513514 665:0.013513514 1383:0.013513514 1446:0.013513514 2589:0.013513514 3460:0.013513514 4656:0.013513514 5644:0.013513514 5662:0.013513514 5913:0.013513514 11827:0.013513514 #
414.35612059994673472829163074493 203:0.023809524 665:0.023809524 1828:0.023809524 2092:0.023809524 2394:0.023809524 4058:0.023809524 #
414.35612059994673472829163074493 3129:0.11111111 #
122.06901446126600774277903838083 149:0.023809524 1068:0.023809524 1593:0.023809524 4308:0.023809524 4412:0.023809524 5821:0.023809524 5937:0.023809524 #
-414.35612059994673472829163074493 3129:0.11111111 #
-414.35612059994673472829163074493 229:0.037037037 959:0.037037037 4058:0.037037037 4700:0.037037037 #
-361.56688103030626280087744817138 149:0.027777778 229:0.027777778 319:0.027777778 3250:0.027777778 6288:0.027777778 #
-414.35612059994673472829163074493 149:0.035714287 203:0.017857144 245:0.017857144 3529:0.017857144 4308:0.017857144 6404:0.017857144 11424:0.017857144 11425:0.017857144 #
223.02586149139858662238111719489 146:0.023255814 443:0.023255814 1496:0.023255814 2302:0.023255814 3207:0.023255814 18532:0.023255814 #
414.35612059994673472829163074493 273:0.010309278 1211:0.010309278 2161:0.010309278 5786:0.010309278 8639:0.010309278 8872:0.010309278 9199:0.010309278 9789:0.010309278 9856:0.010309278 13981:0.010309278 13982:0.010309278 13983:0.010309278 13984:0.010309278 #
414.35612059994673472829163074493 273:0.010416667 426:0.020833334 707:0.010416667 1141:0.010416667 1644:0.010416667 1733:0.010416667 2161:0.010416667 3261:0.010416667 4042:0.010416667 6763:0.010416667 7019:0.010416667 9114:0.010416667 #
-113.89968492611332351316377753392 1054:0.11111111 1845:0.11111111 #
-119.55712379192540595340688014403 2601:0.071428575 6459:0.071428575 #
-362.66865439539731141849188134074 88:0.015873017 1205:0.015873017 1436:0.015873017 2172:0.015873017 2296:0.015873017 2477:0.015873017 2547:0.015873017 4446:0.015873017 4572:0.015873017 5998:0.015873017 #
341.16709689612122247126535512507 238:0.013888889 321:0.013888889 422:0.013888889 789:0.013888889 860:0.013888889 3140:0.013888889 3509:0.013888889 3860:0.013888889 4905:0.013888889 15407:0.013888889 15408:0.013888889 #
79.03664601422437385735975112766 229:0.07692308 13753:0.07692308 #
414.35612059994673472829163074493 149:0.018867925 229:0.018867925 245:0.018867925 540:0.018867925 606:0.018867925 615:0.018867925 3135:0.018867925 3660:0.018867925 6009:0.018867925 #
414.35612059994673472829163074493 60:0.022222223 190:0.022222223 219:0.022222223 229:0.022222223 336:0.022222223 12195:0.022222223 12226:0.022222223 #
414.35612059994673472829163074493 83:0.0094339624 149:0.0094339624 238:0.0094339624 739:0.0094339624 2144:0.0094339624 2186:0.0094339624 2687:0.0094339624 2932:0.0094339624 4035:0.0094339624 6842:0.0094339624 6893:0.0094339624 10274:0.0094339624 15348:0.0094339624 15349:0.0094339624 #
-414.35612059994673472829163074493 60:0.018018018 92:0.0090090092 149:0.0090090092 844:0.0090090092 2092:0.0090090092 5127:0.0090090092 5514:0.0090090092 7687:0.0090090092 8060:0.0090090092 8876:0.0090090092 8914:0.0090090092 9574:0.0090090092 10730:0.0090090092 10731:0.0090090092 #
-414.35612059994673472829163074493 60:0.030769231 193:0.015384615 315:0.015384615 1069:0.015384615 1819:0.015384615 1953:0.015384615 3405:0.015384615 6649:0.015384615 #
414.35612059994673472829163074493 93:0.021276595 314:0.021276595 430:0.021276595 1774:0.021276595 8492:0.021276595 12054:0.021276595 #
414.35612059994673472829163074493 46:0.010204081 49:0.010204081 183:0.010204081 238:0.010204081 612:0.010204081 718:0.010204081 1074:0.010204081 1237:0.010204081 1578:0.030612245 1781:0.020408163 2424:0.010204081 3308:0.010204081 8319:0.010204081 13980:0.010204081 #
359.92449069004271677840733900666 2189:0.028571429 2231:0.028571429 2547:0.028571429 2745:0.057142857 7623:0.028571429 9254:0.028571429 #
414.35612059994673472829163074493 295:0.016666668 430:0.016666668 713:0.016666668 1337:0.016666668 5419:0.016666668 8150:0.016666668 19356:0.016666668 19357:0.016666668 #
-113.42320016056422105066303629428 2189:0.055555556 2424:0.055555556 6526:0.055555556 #
-3.3524633124747369450346923258621 612:0.03125 613:0.03125 614:0.03125 615:0.03125 616:0.03125 #
-414.35612059994673472829163074493 90:0.014492754 203:0.014492754 638:0.014492754 744:0.014492754 1174:0.014492754 1593:0.014492754 4308:0.014492754 5821:0.014492754 12095:0.014492754 #
-414.35612059994673472829163074493 210:0.017241379 739:0.034482758 802:0.017241379 1828:0.017241379 2023:0.017241379 4652:0.017241379 10248:0.017241379 #
-414.35612059994673472829163074493 6:0.024390243 1021:0.024390243 1403:0.024390243 1601:0.024390243 2169:0.024390243 2558:0.024390243 #
414.35612059994673472829163074493 60:0.033333335 190:0.033333335 2941:0.033333335 4284:0.033333335 6384:0.033333335 #
371.13799922165816269625793211162 60:0.037037037 547:0.037037037 3881:0.037037037 13730:0.037037037 #
-414.35612059994673472829163074493 190:0.025641026 459:0.025641026 1070:0.025641026 2556:0.025641026 2941:0.025641026 4508:0.025641026 #
-325.29811358503013707377249374986 50:0.022988506 124:0.011494253 273:0.011494253 616:0.011494253 2225:0.011494253 3353:0.011494253 3546:0.011494253 4059:0.011494253 4208:0.011494253 7197:0.011494253 12303:0.011494253 #
-414.35612059994673472829163074493 25:0.044444446 430:0.022222223 3881:0.022222223 4134:0.022222223 4648:0.022222223 #
-34.026494412876253647937119239941 43:0.016393442 229:0.016393442 606:0.016393442 718:0.016393442 801:0.016393442 2187:0.016393442 3931:0.016393442 8370:0.016393442 8371:0.016393442 #
414.35612059994673472829163074493 149:0.016666668 193:0.016666668 636:0.016666668 999:0.016666668 1819:0.016666668 2124:0.016666668 2773:0.016666668 8663:0.016666668 17878:0.016666668 #
272.51987557894460678653558716178 173:0.021739131 203:0.021739131 617:0.021739131 999:0.021739131 3119:0.021739131 12645:0.021739131 #
-414.35612059994673472829163074493 700:0.029411765 835:0.05882353 5209:0.029411765 7357:0.029411765 7358:0.029411765 #
224.79921420627144357240467797965 229:0.011363637 394:0.011363637 459:0.011363637 934:0.011363637 1268:0.011363637 3628:0.011363637 3763:0.011363637 12834:0.011363637 13452:0.011363637 15893:0.011363637 15894:0.011363637 #
-414.35612059994673472829163074493 233:0.016949153 880:0.016949153 2741:0.016949153 3128:0.016949153 5153:0.016949153 10813:0.016949153 10814:0.016949153 #
-414.35612059994673472829163074493 90:0.022222223 149:0.022222223 607:0.022222223 3901:0.022222223 4406:0.022222223 4758:0.022222223 4759:0.022222223 #
48.457179977849683893964538583532 865:0.041666668 2556:0.041666668 4962:0.041666668 #
414.35612059994673472829163074493 791:0.01010101 865:0.01010101 1640:0.01010101 1779:0.01010101 2395:0.01010101 2556:0.01010101 3474:0.01010101 3490:0.01010101 4440:0.01010101 10075:0.01010101 14312:0.01010101 14628:0.01010101 14629:0.01010101 #
414.35612059994673472829163074493 15:0.006849315 50:0.006849315 149:0.006849315 295:0.006849315 959:0.006849315 1344:0.006849315 1384:0.006849315 2275:0.006849315 2387:0.006849315 3338:0.006849315 3464:0.006849315 4845:0.006849315 9434:0.006849315 10294:0.006849315 11779:0.006849315 13592:0.006849315 14205:0.006849315 #
414.35612059994673472829163074493 50:0.039999999 539:0.039999999 11071:0.039999999 #
414.35612059994673472829163074493 104:0.017857144 245:0.017857144 335:0.017857144 459:0.017857144 796:0.017857144 881:0.017857144 2111:0.017857144 8059:0.017857144 #
263.98931967649917851304053328931 200:0.01923077 3056:0.01923077 5135:0.01923077 5647:0.01923077 9585:0.01923077 13613:0.01923077 #
-414.35612059994673472829163074493 1816:0.023255814 2175:0.023255814 2556:0.046511628 3095:0.023255814 3096:0.023255814 #
-235.86575134055351554707158356905 1141:0.024390243 3369:0.024390243 3961:0.024390243 5588:0.024390243 9981:0.024390243 #
414.35612059994673472829163074493 90:0.022727273 566:0.022727273 2419:0.022727273 3874:0.022727273 15989:0.022727273 15990:0.045454547 #
414.35612059994673472829163074493 90:0.020408163 393:0.020408163 1240:0.020408163 2023:0.020408163 3621:0.020408163 4779:0.020408163 #
-414.35612059994673472829163074493 393:0.02631579 608:0.02631579 2974:0.02631579 3474:0.02631579 12359:0.02631579 12360:0.02631579 #
-49.627143122568163846608513267711 346:0.013888889 1376:0.013888889 1733:0.013888889 3030:0.013888889 6533:0.013888889 6610:0.013888889 6611:0.013888889 6612:0.013888889 6613:0.013888889 #
-414.35612059994673472829163074493 927:0.011494253 1130:0.011494253 1240:0.011494253 1665:0.011494253 2460:0.011494253 2461:0.011494253 2764:0.011494253 3859:0.011494253 5955:0.011494253 10266:0.011494253 #
-347.88791304966053985481266863644 149:0.018867925 210:0.018867925 213:0.018867925 214:0.018867925 215:0.018867925 216:0.018867925 217:0.018867925 218:0.018867925 #
414.35612059994673472829163074493 50:0.027027028 302:0.027027028 1529:0.027027028 2629:0.027027028 14003:0.027027028 #
414.35612059994673472829163074493 50:0.028571429 1067:0.028571429 2364:0.028571429 2556:0.028571429 13566:0.028571429 #
414.35612059994673472829163074493 50:0.019607844 242:0.019607844 311:0.019607844 453:0.019607844 629:0.019607844 4197:0.019607844 8608:0.019607844 15524:0.019607844 #
414.35612059994673472829163074493 41:0.022222223 47:0.022222223 50:0.022222223 193:0.022222223 204:0.022222223 269:0.022222223 306:0.022222223 #
414.35612059994673472829163074493 215:0.051282052 541:0.025641026 3902:0.025641026 4339:0.025641026 #
414.35612059994673472829163074493 149:0.020833334 160:0.020833334 190:0.020833334 6334:0.020833334 11159:0.020833334 12127:0.020833334 #
414.35612059994673472829163074493 160:0.016949153 203:0.016949153 358:0.016949153 771:0.016949153 998:0.016949153 1220:0.016949153 1502:0.016949153 2531:0.016949153 12675:0.016949153 #
15.415206535869096171609271550551 51:0.0098039219 219:0.019607844 1080:0.0098039219 1874:0.0098039219 2932:0.0098039219 3981:0.019607844 6112:0.0098039219 15119:0.0098039219 19144:0.0098039219 19145:0.0098039219 19146:0.0098039219 #
-414.35612059994673472829163074493 77:0.025 93:0.025 2290:0.025 2424:0.025 3902:0.025 #
-414.35612059994673472829163074493 1337:0.030303031 2364:0.060606062 6429:0.030303031 9945:0.030303031 #
32.641053503429120041801070328802 50:0.039999999 1990:0.039999999 13649:0.039999999 #
382.4284601489245574157394003123 50:0.039999999 1762:0.039999999 4008:0.039999999 15656:0.039999999 #
414.35612059994673472829163074493 50:0.03125 1063:0.03125 3610:0.03125 6063:0.03125 #
414.35612059994673472829163074493 149:0.01754386 443:0.03508772 1155:0.01754386 1552:0.01754386 12253:0.01754386 14087:0.01754386 15433:0.01754386 15434:0.01754386 #
414.35612059994673472829163074493 77:0.013888889 92:0.013888889 149:0.013888889 273:0.013888889 328:0.013888889 1540:0.013888889 3098:0.013888889 3177:0.013888889 4662:0.027777778 #
-53.682560375021722620658692903817 241:0.027027028 519:0.027027028 750:0.027027028 1529:0.027027028 1552:0.027027028 #
-360.23575875738396234737592749298 49:0.011627907 342:0.011627907 682:0.011627907 846:0.011627907 955:0.011627907 1155:0.011627907 1735:0.011627907 2722:0.011627907 3317:0.011627907 4012:0.011627907 10365:0.011627907 13458:0.011627907 13459:0.011627907 #
-414.35612059994673472829163074493 41:0.02 81:0.02 391:0.02 814:0.02 1071:0.02 1827:0.02 5808:0.02 12778:0.02 #
-258.65492278251565494429087266326 49:0.02 557:0.02 1427:0.02 2186:0.02 4659:0.02 10330:0.02 10331:0.02 #
-414.35612059994673472829163074493 934:0.013888889 1502:0.013888889 1656:0.013888889 1916:0.013888889 2201:0.013888889 3621:0.013888889 7173:0.013888889 7174:0.013888889 7175:0.013888889 #
366.41204481403235604375367984176 1692:0.03846154 1745:0.03846154 2858:0.07692308 9173:0.03846154 #
414.35612059994673472829163074493 443:0.02631579 600:0.02631579 953:0.02631579 1665:0.02631579 1972:0.02631579 2131:0.02631579 #
29.884650773985654836906178388745 124:0.011764706 598:0.011764706 608:0.011764706 910:0.011764706 1108:0.011764706 1616:0.011764706 1647:0.011764706 1656:0.011764706 3550:0.011764706 6446:0.011764706 17546:0.011764706 #
238.68077976078717483687796629965 106:0.009615385 860:0.009615385 881:0.009615385 1182:0.009615385 3783:0.009615385 6245:0.009615385 6533:0.009615385 7704:0.009615385 7863:0.009615385 10237:0.009615385 14841:0.009615385 15593:0.009615385 15594:0.009615385 15595:0.009615385 #
414.35612059994673472829163074493 1437:0.029411765 1556:0.029411765 2618:0.029411765 4788:0.029411765 16032:0.029411765 #
-414.35612059994673472829163074493 570:0.041666668 2131:0.041666668 6283:0.041666668 #
-414.35612059994673472829163074493 171:0.037037037 796:0.037037037 1556:0.037037037 6835:0.037037037 #
-414.35612059994673472829163074493 82:0.02 232:0.02 548:0.02 1972:0.02 2337:0.02 12220:0.02 #
-293.74778659600178798427805304527 1195:0.020833334 1745:0.041666668 2351:0.020833334 5124:0.020833334 5125:0.020833334 5126:0.020833334 #
-414.35612059994673472829163074493 16:0.0083333338 50:0.0083333338 238:0.0083333338 636:0.0083333338 1453:0.0083333338 1546:0.0083333338 2338:0.0083333338 2461:0.0083333338 3208:0.0083333338 3795:0.0083333338 5950:0.0083333338 5951:0.0083333338 5952:0.0083333338 5953:0.0083333338 5954:0.0083333338 #
414.35612059994673472829163074493 241:0.016949153 245:0.016949153 643:0.016949153 802:0.016949153 877:0.016949153 2276:0.016949153 2610:0.016949153 5280:0.016949153 6537:0.016949153 11616:0.016949153 #
414.35612059994673472829163074493 241:0.047619049 352:0.047619049 19308:0.047619049 #
-414.35612059994673472829163074493 41:0.021739131 739:0.021739131 827:0.021739131 1052:0.021739131 3743:0.021739131 13214:0.021739131 #
-414.35612059994673472829163074493 90:0.03125 91:0.03125 92:0.03125 846:0.03125 #
-138.31421547867176968793501146138 46:0.021052632 90:0.010526316 116:0.010526316 422:0.010526316 545:0.010526316 554:0.010526316 1647:0.010526316 4858:0.010526316 4873:0.010526316 5234:0.010526316 5574:0.010526316 8143:0.010526316 10892:0.010526316 10893:0.010526316 #
-414.35612059994673472829163074493 90:0.021276595 191:0.021276595 643:0.021276595 4258:0.021276595 5592:0.021276595 5593:0.021276595 #
414.35612059994673472829163074493 171:0.023809524 3405:0.023809524 3935:0.023809524 4613:0.023809524 17830:0.023809524 17831:0.023809524 #
414.35612059994673472829163074493 64:0.018518519 228:0.018518519 3681:0.018518519 4012:0.018518519 4687:0.018518519 5978:0.018518519 7525:0.018518519 #
-318.44319470637799440737580880523 49:0.011764706 657:0.011764706 2009:0.011764706 2165:0.011764706 2329:0.011764706 2753:0.011764706 3361:0.011764706 3362:0.023529412 3363:0.011764706 #
414.35612059994673472829163074493 50:0.011764706 77:0.011764706 92:0.011764706 190:0.011764706 305:0.011764706 1488:0.011764706 2039:0.011764706 2230:0.011764706 3619:0.011764706 5110:0.011764706 5261:0.011764706 6195:0.011764706 14187:0.011764706 #
-414.35612059994673472829163074493 149:0.028571429 228:0.057142857 3526:0.028571429 3754:0.028571429 4985:0.028571429 #
-414.35612059994673472829163074493 50:0.018181818 300:0.018181818 301:0.018181818 302:0.018181818 303:0.018181818 304:0.018181818 305:0.018181818 306:0.018181818 #
-307.77853381449864400565274991095 5110:0.090909094 5111:0.090909094 #
-252.27105781568346287713211495429 47:0.03125 307:0.03125 1477:0.03125 1601:0.03125 2131:0.03125 4613:0.03125 #
414.35612059994673472829163074493 90:0.014285714 191:0.014285714 535:0.014285714 749:0.014285714 2088:0.014285714 2680:0.014285714 2944:0.014285714 18717:0.014285714 #
414.35612059994673472829163074493 191:0.024390243 286:0.024390243 796:0.024390243 3124:0.024390243 4604:0.024390243 8725:0.024390243 #
414.35612059994673472829163074493 191:0.015151516 430:0.015151516 923:0.015151516 1502:0.015151516 1903:0.015151516 2384:0.015151516 6901:0.015151516 18024:0.015151516 18896:0.015151516 18897:0.015151516 #
414.35612059994673472829163074493 90:0.014285714 391:0.014285714 506:0.014285714 608:0.014285714 614:0.014285714 3952:0.014285714 4267:0.014285714 8305:0.014285714 8377:0.014285714 15819:0.014285714 15820:0.014285714 #
-264.07889348169226195750525221229 190:0.03125 191:0.03125 608:0.03125 2858:0.03125 11775:0.03125 #
-139.91767730823090687408694066107 38:0.014925373 322:0.014925373 921:0.014925373 1742:0.029850746 3619:0.014925373 4734:0.014925373 4867:0.014925373 11416:0.014925373 11417:0.014925373 #
