SVM-light Version V6.02
0 # kernel type
3 # kernel parameter -d 
1 # kernel parameter -g 
1 # kernel parameter -s 
1 # kernel parameter -r 
empty# kernel parameter -u 
19801 # highest feature index 
8530 # number of training documents 
6630 # number of support vectors plus 1 
0.015378408 # threshold b, each following line is a SV (starting with alpha*y)
313.64323649823234063660493120551 970:0.021052632 17315:0.010526316 17316:0.010526316 17317:0.010526316 17318:0.010526316 17319:0.010526316 17320:0.021052632 17321:0.010526316 17322:0.010526316 17323:0.010526316 17324:0.010526316 17325:0.010526316 #
-413.87732724496737546360236592591 4:0.022727273 5:0.022727273 6:0.022727273 7:0.022727273 8:0.022727273 9:0.022727273 #
-413.87732724496737546360236592591 10:0.010416667 11:0.010416667 12:0.010416667 13:0.010416667 14:0.010416667 15:0.010416667 16:0.010416667 17:0.010416667 18:0.010416667 19:0.010416667 20:0.010416667 #
-413.87732724496737546360236592591 21:0.0095238099 22:0.0095238099 23:0.0095238099 24:0.0095238099 25:0.0095238099 26:0.0095238099 27:0.0095238099 28:0.0095238099 29:0.0095238099 30:0.0095238099 31:0.0095238099 #
-413.87732724496737546360236592591 32:0.012345679 33:0.012345679 34:0.012345679 35:0.012345679 36:0.012345679 37:0.012345679 38:0.012345679 39:0.012345679 40:0.012345679 #
413.87732724496737546360236592591 15:0.0084745763 252:0.0084745763 360:0.0084745763 994:0.0084745763 1417:0.0084745763 1418:0.0084745763 1901:0.0084745763 2149:0.0084745763 2397:0.0084745763 3820:0.0084745763 4905:0.0084745763 5407:0.0084745763 7385:0.0084745763 9153:0.0084745763 13481:0.0084745763 13482:0.0084745763 13483:0.0084745763 #
413.87732724496737546360236592591 80:0.0066225166 295:0.0066225166 733:0.0066225166 1741:0.0066225166 1916:0.0066225166 2942:0.0066225166 4310:0.0066225166 4385:0.0066225166 5028:0.0066225166 5366:0.0066225166 6733:0.0066225166 7147:0.0066225166 8436:0.0066225166 9713:0.0066225166 10963:0.0066225166 13484:0.0066225166 13485:0.0066225166 13486:0.0066225166 #
87.314482351258575931751693133265 2439:0.03846154 4567:0.03846154 13487:0.03846154 #
413.87732724496737546360236592591 124:0.025641026 245:0.025641026 321:0.025641026 337:0.025641026 377:0.025641026 739:0.025641026 8037:0.025641026 #
413.87732724496737546360236592591 50:0.015873017 245:0.015873017 352:0.015873017 408:0.015873017 1088:0.015873017 1332:0.015873017 1876:0.015873017 2437:0.015873017 13488:0.015873017 13489:0.015873017 #
-413.87732724496737546360236592591 29:0.0060975607 139:0.0060975607 295:0.0060975607 481:0.0060975607 662:0.0060975607 1809:0.0060975607 1979:0.0060975607 2675:0.0060975607 2749:0.0060975607 3464:0.0060975607 4624:0.0060975607 9663:0.0060975607 9664:0.012195121 9665:0.0060975607 9666:0.0060975607 9667:0.0060975607 9668:0.0060975607 9669:0.0060975607 9670:0.0060975607 9671:0.0060975607 #
-393.84978629127522253838833421469 149:0.050000001 245:0.1 3340:0.050000001 7623:0.050000001 #
-413.87732724496737546360236592591 245:0.06666667 430:0.06666667 836:0.06666667 #
-201.35661239947131662120227701962 245:0.06666667 881:0.06666667 8489:0.06666667 #
-381.69101420184142625657841563225 1354:0.039999999 2225:0.039999999 5144:0.039999999 #
-413.87732724496737546360236592591 273:0.1 2353:0.1 #
413.87732724496737546360236592591 9:0.0071428572 39:0.0071428572 60:0.0071428572 430:0.0071428572 511:0.0071428572 580:0.0071428572 607:0.0071428572 1186:0.0071428572 1187:0.014285714 1188:0.0071428572 1469:0.0071428572 2436:0.0071428572 3571:0.0071428572 5095:0.0071428572 6654:0.0071428572 7402:0.0071428572 11258:0.0071428572 14464:0.0071428572 14757:0.0071428572 16649:0.0071428572 16650:0.0071428572 16651:0.0071428572 #
413.87732724496737546360236592591 90:0.0090090092 163:0.0090090092 252:0.0090090092 740:0.0090090092 860:0.0090090092 887:0.0090090092 1132:0.0090090092 1673:0.0090090092 1678:0.0090090092 2135:0.0090090092 2193:0.0090090092 2436:0.0090090092 2722:0.0090090092 4903:0.0090090092 6946:0.0090090092 14455:0.0090090092 #
-413.87732724496737546360236592591 124:0.041666668 229:0.041666668 443:0.041666668 1800:0.041666668 #
-149.53363349433791995579667855054 570:0.041666668 2131:0.041666668 6283:0.041666668 #
-413.87732724496737546360236592591 9:0.11111111 3177:0.055555556 #
-387.64818338160415578386164270341 9:0.055555556 50:0.055555556 1803:0.055555556 #
-413.87732724496737546360236592591 55:0.0078125 317:0.0078125 554:0.0078125 1201:0.0078125 1400:0.0078125 1733:0.0078125 1819:0.0078125 6222:0.0078125 7754:0.0078125 8671:0.0078125 8672:0.0078125 8673:0.0078125 8674:0.0078125 8675:0.0078125 8676:0.0078125 8677:0.0078125 #
-413.87732724496737546360236592591 50:0.1 320:0.1 #
-413.87732724496737546360236592591 49:0.02631579 50:0.052631579 739:0.052631579 5559:0.02631579 7609:0.02631579 #
413.87732724496737546360236592591 203:0.047619049 245:0.095238097 14043:0.047619049 #
413.87732724496737546360236592591 245:0.083333336 5089:0.041666668 8610:0.041666668 #
350.210483807483626605971949175 149:0.010752688 1548:0.010752688 1565:0.010752688 2357:0.010752688 2582:0.010752688 3260:0.010752688 4146:0.010752688 5673:0.010752688 6236:0.010752688 7102:0.010752688 7965:0.010752688 18965:0.010752688 #
386.22680561624497386219445616007 836:0.07692308 1819:0.07692308 #
324.33921904801775326632196083665 420:0.0625 836:0.0625 5718:0.0625 #
-413.87732724496737546360236592591 149:0.037037037 321:0.037037037 509:0.037037037 643:0.037037037 1585:0.037037037 6718:0.037037037 #
413.87732724496737546360236592591 426:0.021276595 1308:0.021276595 1578:0.021276595 3474:0.021276595 3828:0.021276595 13921:0.021276595 #
413.87732724496737546360236592591 9:0.090909094 50:0.090909094 #
413.87732724496737546360236592591 50:0.11111111 853:0.055555556 #
163.23470821168618272167805116624 25:0.017857144 94:0.017857144 426:0.017857144 529:0.017857144 1244:0.017857144 5318:0.017857144 5559:0.017857144 #
413.87732724496737546360236592591 50:0.1 612:0.1 #
413.87732724496737546360236592591 9:0.045454547 50:0.045454547 1244:0.045454547 1742:0.045454547 #
-413.87732724496737546360236592591 15:0.0084033618 41:0.0084033618 149:0.0084033618 606:0.0084033618 1550:0.0084033618 2950:0.0084033618 4411:0.0084033618 5083:0.0084033618 5179:0.0084033618 5777:0.0084033618 5778:0.0084033618 5779:0.0084033618 5780:0.0084033618 5781:0.0084033618 5782:0.0084033618 5783:0.0084033618 #
-342.75005902468649310321779921651 4465:0.039999999 6710:0.039999999 6711:0.039999999 #
-413.87732724496737546360236592591 84:0.0076923077 317:0.0076923077 630:0.0076923077 1277:0.0076923077 2104:0.0076923077 2384:0.0076923077 2957:0.0076923077 3875:0.0076923077 4269:0.0076923077 6398:0.0076923077 7449:0.0076923077 8886:0.0076923077 8887:0.0076923077 8888:0.0076923077 8889:0.0076923077 8890:0.0076923077 8891:0.0076923077 8892:0.0076923077 #
15.478978804159254423211677931249 173:0.012987013 1078:0.012987013 1528:0.012987013 2362:0.012987013 2564:0.012987013 5844:0.012987013 10772:0.012987013 11140:0.012987013 14022:0.012987013 14023:0.012987013 #
413.87732724496737546360236592591 49:0.03846154 149:0.03846154 322:0.03846154 1601:0.03846154 5559:0.03846154 #
413.87732724496737546360236592591 68:0.016666668 149:0.016666668 1115:0.016666668 4030:0.016666668 16941:0.016666668 16942:0.016666668 #
413.87732724496737546360236592591 88:0.022222223 430:0.044444446 1341:0.022222223 1634:0.022222223 3560:0.022222223 4019:0.022222223 #
68.43493152726229311610950389877 314:0.025 393:0.050000001 1480:0.050000001 6128:0.025 14226:0.025 #
-413.87732724496737546360236592591 82:0.013513514 422:0.013513514 860:0.013513514 2618:0.013513514 4350:0.013513514 4697:0.013513514 5611:0.013513514 5958:0.013513514 #
-298.02278291652390862509491853416 124:0.1 126:0.1 #
413.87732724496737546360236592591 41:0.014925373 100:0.014925373 959:0.014925373 4260:0.014925373 5983:0.014925373 12675:0.014925373 16820:0.014925373 16821:0.014925373 #
-259.5678701657998885821143630892 160:0.06666667 1819:0.06666667 #
-413.87732724496737546360236592591 612:0.041666668 718:0.041666668 1819:0.041666668 #
413.87732724496737546360236592591 50:0.045454547 137:0.045454547 408:0.045454547 860:0.045454547 #
-18.838773412956324904143912135623 50:0.083333336 443:0.083333336 #
80.353673461003751299358555115759 137:0.0064935065 149:0.0064935065 173:0.0064935065 1151:0.0064935065 1358:0.0064935065 1425:0.0064935065 1737:0.0064935065 3514:0.0064935065 4194:0.0064935065 4250:0.0064935065 8048:0.0064935065 10059:0.0064935065 11314:0.0064935065 11727:0.0064935065 13593:0.0064935065 13722:0.0064935065 15411:0.0064935065 17003:0.0064935065 17004:0.0064935065 #
-92.050025485885242915173876099288 41:0.013157895 81:0.013157895 137:0.013157895 241:0.013157895 245:0.013157895 927:0.013157895 1438:0.013157895 2885:0.013157895 3972:0.013157895 5465:0.013157895 5466:0.013157895 #
413.87732724496737546360236592591 718:0.090909094 #
307.64855114523396650838549248874 13:0.022727273 39:0.022727273 718:0.022727273 2137:0.022727273 11156:0.022727273 14670:0.022727273 #
413.87732724496737546360236592591 41:0.010638298 149:0.010638298 182:0.010638298 335:0.010638298 1172:0.010638298 1839:0.010638298 2233:0.010638298 2234:0.010638298 2302:0.010638298 3205:0.010638298 4411:0.010638298 13891:0.010638298 #
413.87732724496737546360236592591 2:0.021276595 13:0.021276595 60:0.021276595 739:0.021276595 955:0.021276595 4505:0.021276595 14464:0.021276595 #
-93.774870319583399691509839612991 137:0.071428575 558:0.071428575 #
-413.87732724496737546360236592591 196:0.017857144 440:0.017857144 656:0.017857144 814:0.017857144 1061:0.017857144 1062:0.017857144 1063:0.017857144 #
-413.87732724496737546360236592591 612:0.027027028 860:0.027027028 898:0.027027028 1687:0.027027028 2244:0.027027028 3753:0.027027028 #
-413.87732724496737546360236592591 137:0.03846154 5217:0.03846154 12433:0.03846154 12434:0.03846154 #
413.87732724496737546360236592591 79:0.22222222 #
-91.708519284420717099237663205713 50:0.05882353 8325:0.05882353 8326:0.05882353 #
-413.87732724496737546360236592591 170:0.011363637 758:0.011363637 1596:0.011363637 1799:0.011363637 3847:0.011363637 9334:0.011363637 9972:0.011363637 11929:0.011363637 12221:0.011363637 12222:0.011363637 12223:0.011363637 12224:0.011363637 12225:0.011363637 #
120.62693422951517163710377644747 1177:0.037037037 3621:0.037037037 4082:0.037037037 #
-196.24460549394888175811502151191 411:0.011363637 895:0.011363637 998:0.011363637 1216:0.011363637 1716:0.011363637 1738:0.011363637 2941:0.022727273 3353:0.011363637 3698:0.011363637 3699:0.011363637 3700:0.011363637 #
413.87732724496737546360236592591 191:0.025 228:0.025 377:0.025 378:0.025 606:0.025 1783:0.025 7384:0.025 #
12.842074562046278174420876894146 377:0.020408163 378:0.020408163 452:0.020408163 640:0.020408163 14518:0.020408163 14519:0.020408163 #
306.78223073424504718786920420825 149:0.011627907 193:0.011627907 846:0.011627907 1332:0.011627907 3528:0.011627907 3830:0.011627907 4519:0.011627907 5749:0.011627907 6445:0.011627907 8063:0.011627907 13183:0.011627907 15529:0.011627907 #
413.87732724496737546360236592591 191:0.016129032 567:0.016129032 816:0.016129032 821:0.016129032 834:0.016129032 1054:0.016129032 1244:0.016129032 16385:0.016129032 16386:0.016129032 #
-413.87732724496737546360236592591 33:0.0059523811 137:0.0059523811 170:0.0059523811 519:0.0059523811 959:0.0059523811 1175:0.0059523811 1384:0.0059523811 1804:0.0059523811 1853:0.0059523811 1881:0.0059523811 2193:0.0059523811 2194:0.0059523811 2195:0.0059523811 2196:0.0059523811 2197:0.0059523811 2198:0.0059523811 2199:0.0059523811 2200:0.0059523811 2201:0.0059523811 2202:0.0059523811 2203:0.0059523811 #
-394.92361926038989849985227920115 79:0.05882353 1054:0.05882353 7683:0.05882353 #
-413.87732724496737546360236592591 78:0.037037037 79:0.037037037 80:0.037037037 81:0.037037037 #
60.75570261906555202813251526095 50:0.052631579 1678:0.052631579 6878:0.052631579 #
-413.87732724496737546360236592591 149:0.012345679 193:0.0061728396 221:0.0061728396 706:0.0061728396 1000:0.0061728396 1133:0.0061728396 1176:0.0061728396 1268:0.0061728396 2235:0.0061728396 2237:0.0061728396 2556:0.0061728396 3086:0.0061728396 3547:0.0061728396 3701:0.0061728396 4029:0.0061728396 4273:0.0061728396 4758:0.0061728396 6003:0.0061728396 7409:0.0061728396 7410:0.0061728396 7411:0.0061728396 7412:0.0061728396 7413:0.0061728396 #
-413.87732724496737546360236592591 149:0.013888889 460:0.013888889 713:0.013888889 1903:0.013888889 1943:0.013888889 2108:0.013888889 2602:0.013888889 6689:0.013888889 7042:0.013888889 12526:0.013888889 12527:0.013888889 #
-413.87732724496737546360236592591 50:0.016129032 261:0.016129032 608:0.016129032 1431:0.016129032 1844:0.016129032 2669:0.016129032 7935:0.016129032 7936:0.016129032 #
-413.87732724496737546360236592591 85:0.01369863 516:0.01369863 1835:0.01369863 2127:0.01369863 2137:0.01369863 3557:0.01369863 3795:0.01369863 13153:0.01369863 13154:0.01369863 #
413.87732724496737546360236592591 245:0.017241379 379:0.017241379 484:0.017241379 516:0.017241379 1407:0.017241379 1667:0.017241379 1803:0.017241379 3636:0.017241379 4627:0.017241379 6805:0.017241379 #
413.87732724496737546360236592591 126:0.013888889 198:0.013888889 408:0.013888889 682:0.013888889 744:0.013888889 966:0.013888889 2077:0.013888889 5210:0.013888889 5734:0.013888889 7570:0.013888889 16440:0.013888889 #
-82.220079307031198823096929118037 67:0.013888889 238:0.013888889 530:0.013888889 4943:0.013888889 5399:0.013888889 9961:0.013888889 10336:0.013888889 13173:0.013888889 #
-413.87732724496737546360236592591 9:0.047619049 1733:0.047619049 8064:0.047619049 #
-413.87732724496737546360236592591 149:0.023809524 371:0.023809524 853:0.023809524 1839:0.023809524 3967:0.023809524 #
-413.87732724496737546360236592591 9:0.043478262 135:0.014492754 895:0.014492754 1624:0.014492754 3030:0.014492754 3031:0.014492754 3032:0.014492754 3033:0.014492754 #
413.87732724496737546360236592591 50:0.052631579 88:0.02631579 273:0.02631579 2296:0.02631579 15362:0.02631579 #
278.32704102613774921337608247995 50:0.050000001 11899:0.050000001 17627:0.050000001 #
-114.80139345520152005519776139408 50:0.02631579 88:0.02631579 229:0.02631579 791:0.02631579 2296:0.02631579 10782:0.02631579 #
-413.87732724496737546360236592591 50:0.020408163 1539:0.020408163 2582:0.020408163 2622:0.020408163 4680:0.020408163 5382:0.020408163 8921:0.020408163 #
117.10311068403551360006531467661 149:0.1 2349:0.1 #
413.87732724496737546360236592591 9:0.055555556 1244:0.055555556 1733:0.055555556 #
-413.87732724496737546360236592591 9:0.018867925 149:0.018867925 370:0.018867925 662:0.018867925 1844:0.018867925 3177:0.018867925 11937:0.018867925 11938:0.018867925 #
-413.87732724496737546360236592591 57:0.0084033618 149:0.0084033618 273:0.0084033618 915:0.0084033618 1377:0.0084033618 2021:0.0084033618 2185:0.0084033618 2758:0.0084033618 3293:0.0084033618 3826:0.0084033618 3827:0.0084033618 3859:0.0084033618 4131:0.0084033618 4825:0.0084033618 7532:0.0084033618 #
354.43960710126276580922421999276 149:0.034482758 608:0.034482758 739:0.034482758 1322:0.034482758 9922:0.034482758 #
-331.49462464388210491961217485368 149:0.0625 1852:0.0625 4763:0.0625 #
130.95803418321744970853615086526 751:0.02 3140:0.02 4681:0.02 5110:0.02 6654:0.02 14655:0.02 #
105.84130141692794779828545870259 229:0.07692308 13753:0.07692308 #
163.76152371799193474544154014438 229:0.0625 245:0.0625 11319:0.0625 #
145.12778358801614331241580657661 229:0.0625 5573:0.0625 7446:0.0625 #
-413.87732724496737546360236592591 9:0.022727273 50:0.022727273 541:0.022727273 796:0.022727273 1244:0.022727273 1322:0.022727273 1841:0.022727273 #
-166.04262641220321938817505724728 229:0.055555556 538:0.055555556 5927:0.055555556 #
413.87732724496737546360236592591 322:0.090909094 2693:0.090909094 #
413.87732724496737546360236592591 149:0.047619049 171:0.047619049 541:0.047619049 1852:0.047619049 #
157.07367378702218729813466779888 149:0.07692308 6282:0.07692308 #
-329.67788808831716096392483450472 149:0.05882353 1548:0.05882353 8452:0.05882353 #
-395.94926245411807030905038118362 149:0.050000001 838:0.050000001 1556:0.050000001 1987:0.050000001 #
311.15247569607709010597318410873 796:0.0625 6355:0.0625 #
229.15146675512951901509950403124 36:0.010869565 50:0.010869565 245:0.010869565 1081:0.010869565 1313:0.010869565 4083:0.010869565 6458:0.021739131 7773:0.010869565 8634:0.010869565 10304:0.010869565 14674:0.010869565 15850:0.010869565 #
247.33867295179359757639758754522 796:0.055555556 7366:0.055555556 #
172.43426805892906372719153296202 999:0.047619049 1322:0.047619049 3390:0.047619049 #
-413.87732724496737546360236592591 535:0.024390243 612:0.024390243 2693:0.024390243 3844:0.024390243 8660:0.024390243 #
-128.2432709565983373067865613848 49:0.022222223 50:0.022222223 541:0.022222223 643:0.022222223 1601:0.022222223 1663:0.022222223 1746:0.022222223 1747:0.022222223 #
-413.87732724496737546360236592591 2692:0.027777778 2693:0.027777778 2694:0.027777778 2695:0.027777778 #
-353.31447555888752276587183587253 197:0.018867925 853:0.018867925 1601:0.018867925 4332:0.018867925 7437:0.018867925 8058:0.018867925 8393:0.018867925 10683:0.018867925 #
-398.93811184344292541936738416553 607:0.03125 1505:0.015625 3996:0.015625 6911:0.015625 9874:0.015625 9875:0.015625 #
413.87732724496737546360236592591 41:0.0071428572 149:0.0071428572 183:0.0071428572 430:0.014285714 865:0.0071428572 1283:0.0071428572 1335:0.0071428572 1453:0.0071428572 1551:0.0071428572 5047:0.0071428572 6025:0.0071428572 8168:0.0071428572 8909:0.0071428572 11647:0.0071428572 14467:0.0071428572 18799:0.0071428572 19339:0.0071428572 19340:0.0071428572 #
210.6727375786355764830659609288 149:0.0625 1135:0.0625 6469:0.0625 #
-120.16052885221624535461160121486 41:0.045454547 149:0.045454547 2346:0.045454547 2347:0.045454547 #
-331.8634870917530292899755295366 149:0.050000001 214:0.050000001 720:0.050000001 2388:0.050000001 #
413.87732724496737546360236592591 190:0.011494253 848:0.011494253 1838:0.011494253 2120:0.011494253 3628:0.011494253 4207:0.011494253 8019:0.011494253 9945:0.011494253 15522:0.011494253 #
413.87732724496737546360236592591 238:0.011627907 322:0.011627907 344:0.011627907 739:0.011627907 1508:0.011627907 1731:0.011627907 2547:0.011627907 5834:0.011627907 8705:0.011627907 10142:0.011627907 15683:0.011627907 19126:0.011627907 #
179.0445926799280869090580381453 1548:0.043478262 5975:0.043478262 17427:0.043478262 #
348.38317737893191861076047644019 314:0.023809524 758:0.023809524 1844:0.023809524 10130:0.023809524 14898:0.023809524 14899:0.023809524 #
413.87732724496737546360236592591 355:0.012048192 695:0.012048192 881:0.012048192 1407:0.012048192 4184:0.012048192 5462:0.012048192 5963:0.012048192 7505:0.012048192 11028:0.012048192 11293:0.012048192 11393:0.012048192 14218:0.012048192 #
413.87732724496737546360236592591 711:0.028571429 881:0.028571429 1205:0.028571429 1993:0.028571429 2362:0.028571429 3993:0.028571429 #
-413.87732724496737546360236592591 93:0.045454547 94:0.045454547 #
-413.87732724496737546360236592591 63:0.029411765 94:0.029411765 321:0.029411765 1904:0.029411765 #
-413.87732724496737546360236592591 94:0.035714287 1156:0.035714287 2629:0.035714287 #
-413.87732724496737546360236592591 94:0.013157895 314:0.013157895 484:0.013157895 696:0.013157895 1539:0.013157895 2693:0.013157895 2800:0.013157895 5264:0.013157895 8324:0.013157895 #
-250.46582092890321291633881628513 1135:0.041666668 1136:0.041666668 1137:0.041666668 #
28.241215684823089304700260981917 81:0.022222223 149:0.022222223 323:0.022222223 2218:0.022222223 3390:0.022222223 4019:0.022222223 6718:0.022222223 14818:0.022222223 #
413.87732724496737546360236592591 41:0.022222223 149:0.022222223 323:0.022222223 582:0.022222223 9770:0.022222223 16444:0.022222223 #
326.40903890864234426771872676909 360:0.012820513 757:0.012820513 777:0.012820513 947:0.012820513 1313:0.012820513 6063:0.012820513 7722:0.012820513 10048:0.012820513 13280:0.012820513 15328:0.012820513 #
413.87732724496737546360236592591 41:0.014285714 815:0.014285714 2312:0.014285714 3831:0.014285714 5541:0.014285714 14127:0.014285714 15329:0.014285714 19437:0.014285714 #
413.87732724496737546360236592591 149:0.034482758 198:0.034482758 313:0.034482758 541:0.034482758 2341:0.034482758 #
-413.87732724496737546360236592591 41:0.046511628 126:0.023255814 430:0.023255814 1650:0.023255814 2471:0.023255814 2727:0.023255814 5237:0.023255814 #
413.87732724496737546360236592591 60:0.014084507 149:0.014084507 295:0.014084507 580:0.014084507 739:0.014084507 1142:0.014084507 1326:0.014084507 1546:0.014084507 1903:0.014084507 2840:0.014084507 2841:0.014084507 10420:0.014084507 #
-152.62221148064000431077147368342 41:0.041666668 991:0.041666668 8825:0.041666668 #
-182.42201062122694565914571285248 351:0.01923077 822:0.01923077 844:0.01923077 1322:0.01923077 5231:0.01923077 5232:0.01923077 #
413.87732724496737546360236592591 3:0.02631579 214:0.02631579 1055:0.02631579 13722:0.02631579 13723:0.02631579 #
413.87732724496737546360236592591 502:0.017241379 1458:0.017241379 1824:0.017241379 2476:0.017241379 4055:0.017241379 6087:0.017241379 8012:0.017241379 9641:0.017241379 13283:0.017241379 #
110.0872741057417698584686149843 185:0.028571429 1358:0.028571429 4165:0.028571429 8951:0.028571429 #
413.87732724496737546360236592591 197:0.015384615 330:0.030769231 548:0.015384615 947:0.015384615 1562:0.015384615 1839:0.015384615 6665:0.015384615 8456:0.015384615 19386:0.015384615 #
292.90378720322672734255320392549 94:0.021739131 314:0.021739131 1331:0.021739131 2253:0.021739131 16150:0.021739131 #
-413.87732724496737546360236592591 171:0.023809524 314:0.023809524 1331:0.023809524 2009:0.023809524 2275:0.023809524 #
-102.33549175960199306700815213844 163:0.027777778 171:0.027777778 197:0.027777778 2353:0.027777778 12596:0.027777778 #
-413.87732724496737546360236592591 92:0.033333335 1365:0.033333335 3595:0.033333335 #
-413.87732724496737546360236592591 643:0.050000001 1028:0.050000001 2071:0.050000001 #
413.87732724496737546360236592591 77:0.0070921984 92:0.0070921984 531:0.0070921984 3575:0.0070921984 3659:0.0070921984 6703:0.0070921984 6807:0.0070921984 8076:0.0070921984 11459:0.0070921984 18686:0.0070921984 18936:0.0070921984 18937:0.0070921984 18938:0.0070921984 18939:0.0070921984 18940:0.0070921984 #
335.27600038981182706265826709569 937:0.018518519 1290:0.018518519 1668:0.018518519 3658:0.018518519 5749:0.018518519 7475:0.018518519 8223:0.018518519 8512:0.018518519 17529:0.018518519 #
65.742919508677587714373657945544 41:0.035714287 430:0.035714287 2379:0.035714287 14041:0.035714287 #
343.23960037825747804163256660104 41:0.024590164 1268:0.0081967209 1507:0.0081967209 1602:0.0081967209 1775:0.0081967209 1826:0.0081967209 3676:0.0081967209 3696:0.0081967209 4138:0.0081967209 4345:0.0081967209 18499:0.0081967209 19142:0.0081967209 #
-413.87732724496737546360236592591 63:0.018181818 191:0.018181818 430:0.036363635 504:0.018181818 2856:0.018181818 5559:0.018181818 11639:0.018181818 #
-413.87732724496737546360236592591 430:0.023809524 1678:0.023809524 1679:0.023809524 1680:0.023809524 1681:0.023809524 #
-413.87732724496737546360236592591 430:0.036363635 1009:0.018181818 1013:0.018181818 2188:0.018181818 2232:0.018181818 3219:0.018181818 5016:0.018181818 8214:0.018181818 #
-413.87732724496737546360236592591 245:0.039999999 430:0.039999999 1450:0.039999999 3261:0.039999999 3262:0.039999999 #
156.6620018653365207228489452973 739:0.07692308 1028:0.07692308 #
284.95498774318440382558037526906 126:0.046511628 149:0.023255814 1151:0.023255814 2283:0.023255814 2547:0.046511628 15058:0.023255814 #
193.06113695906935845414409413934 50:0.034482758 559:0.034482758 1049:0.034482758 2009:0.034482758 #
-135.39803199177467263325524982065 49:0.037037037 12078:0.037037037 13013:0.037037037 #
-187.4622923247470396290736971423 9:0.011363637 335:0.011363637 336:0.011363637 826:0.011363637 860:0.011363637 1861:0.011363637 3208:0.011363637 3678:0.011363637 5375:0.011363637 7112:0.011363637 8452:0.011363637 8453:0.011363637 #
-413.87732724496737546360236592591 739:0.090909094 2957:0.090909094 #
-413.87732724496737546360236592591 39:0.028571429 41:0.028571429 149:0.028571429 273:0.028571429 322:0.028571429 541:0.028571429 3795:0.028571429 #
413.87732724496737546360236592591 93:0.021276595 314:0.021276595 430:0.021276595 1774:0.021276595 8492:0.021276595 12054:0.021276595 #
413.87732724496737546360236592591 191:0.018867925 245:0.018867925 430:0.018867925 1917:0.018867925 11443:0.018867925 11593:0.018867925 19125:0.018867925 #
-413.87732724496737546360236592591 321:0.05882353 1091:0.05882353 1772:0.05882353 #
-413.87732724496737546360236592591 9:0.034482758 757:0.034482758 2360:0.034482758 2556:0.034482758 3935:0.034482758 #
-413.87732724496737546360236592591 1816:0.023255814 2175:0.023255814 2556:0.046511628 3095:0.023255814 3096:0.023255814 #
-196.25354460069689821466454304755 157:0.071428575 2283:0.071428575 2284:0.071428575 #
413.87732724496737546360236592591 682:0.06666667 739:0.06666667 1254:0.06666667 #
413.87732724496737546360236592591 321:0.018181818 638:0.018181818 996:0.018181818 1038:0.018181818 1332:0.018181818 2135:0.018181818 5779:0.018181818 9490:0.018181818 #
413.87732724496737546360236592591 196:0.011363637 238:0.011363637 452:0.011363637 626:0.011363637 739:0.011363637 1257:0.011363637 1642:0.011363637 3851:0.011363637 9899:0.011363637 15687:0.011363637 #
-413.87732724496737546360236592591 149:0.029411765 198:0.029411765 267:0.029411765 3129:0.029411765 11899:0.029411765 #
-413.87732724496737546360236592591 149:0.033333335 311:0.033333335 312:0.033333335 313:0.033333335 314:0.033333335 #
-413.87732724496737546360236592591 149:0.03125 197:0.0625 3140:0.0625 #
413.87732724496737546360236592591 50:0.015151516 245:0.015151516 273:0.030303031 627:0.015151516 2018:0.015151516 2445:0.015151516 3874:0.015151516 4119:0.015151516 15930:0.015151516 15931:0.015151516 #
413.87732724496737546360236592591 245:0.028571429 273:0.028571429 608:0.028571429 1313:0.028571429 15843:0.028571429 19033:0.028571429 #
413.87732724496737546360236592591 50:0.021276595 252:0.021276595 386:0.021276595 387:0.021276595 1021:0.021276595 1091:0.021276595 2012:0.021276595 4273:0.021276595 #
-284.43433327767417040377040393651 2003:0.083333336 3479:0.083333336 #
-413.87732724496737546360236592591 50:0.015151516 152:0.015151516 314:0.015151516 588:0.015151516 1780:0.015151516 8449:0.015151516 9624:0.015151516 9625:0.015151516 #
-45.47765080188587916154574486427 60:0.027777778 580:0.027777778 878:0.027777778 1186:0.027777778 1242:0.027777778 4695:0.027777778 6410:0.027777778 #
-413.87732724496737546360236592591 50:0.021739131 245:0.021739131 541:0.021739131 846:0.021739131 3745:0.021739131 3747:0.021739131 4812:0.021739131 4813:0.021739131 #
251.73789719947654930365388281643 3129:0.11111111 #
413.87732724496737546360236592591 149:0.02631579 197:0.02631579 959:0.02631579 1258:0.02631579 9956:0.02631579 #
-72.596815871326498381677083671093 92:0.016129032 161:0.016129032 241:0.016129032 245:0.016129032 3357:0.016129032 3358:0.016129032 3359:0.016129032 3360:0.016129032 #
-413.87732724496737546360236592591 2:0.0088495575 541:0.0088495575 592:0.0088495575 601:0.0088495575 1015:0.0088495575 1290:0.0088495575 1464:0.0088495575 1596:0.0088495575 1874:0.0088495575 2620:0.0088495575 4504:0.0088495575 4773:0.0088495575 6083:0.0088495575 6463:0.0088495575 #
413.87732724496737546360236592591 16:0.012658228 149:0.012658228 238:0.012658228 311:0.012658228 608:0.012658228 677:0.012658228 1169:0.012658228 1351:0.012658228 3648:0.012658228 4058:0.012658228 7552:0.012658228 13975:0.012658228 #
-413.87732724496737546360236592591 3129:0.11111111 #
-413.87732724496737546360236592591 149:0.01923077 307:0.01923077 323:0.01923077 350:0.01923077 352:0.01923077 608:0.01923077 1725:0.01923077 13407:0.01923077 #
-413.87732724496737546360236592591 739:0.045454547 1254:0.045454547 4404:0.045454547 #
-413.87732724496737546360236592591 149:0.025641026 1308:0.025641026 6708:0.025641026 6878:0.025641026 7338:0.025641026 #
413.87732724496737546360236592591 50:0.048780486 427:0.024390243 914:0.024390243 2957:0.024390243 8782:0.024390243 #
413.87732724496737546360236592591 149:0.010638298 341:0.010638298 631:0.010638298 794:0.010638298 952:0.010638298 1164:0.010638298 1480:0.010638298 3904:0.010638298 5282:0.010638298 9666:0.010638298 19096:0.010638298 #
413.87732724496737546360236592591 157:0.01923077 245:0.01923077 757:0.03846154 827:0.01923077 1260:0.01923077 3956:0.01923077 19496:0.01923077 19497:0.01923077 #
390.66923564375053956609917804599 48:0.052631579 245:0.052631579 758:0.052631579 2559:0.052631579 #
413.87732724496737546360236592591 314:0.037037037 834:0.037037037 880:0.037037037 1892:0.037037037 #
-413.87732724496737546360236592591 1258:0.050000001 12630:0.050000001 #
-413.87732724496737546360236592591 57:0.039999999 3773:0.039999999 8782:0.039999999 #
-413.87732724496737546360236592591 1215:0.027777778 2547:0.027777778 2957:0.027777778 7015:0.027777778 7016:0.027777778 #
-413.87732724496737546360236592591 229:0.037037037 959:0.037037037 4058:0.037037037 4700:0.037037037 #
221.85313412862993232010921929032 50:0.028571429 1067:0.028571429 2364:0.028571429 2556:0.028571429 13566:0.028571429 #
191.39050748385551514729741029441 50:0.045454547 1068:0.045454547 8184:0.045454547 15996:0.045454547 #
-271.69677785756402954575605690479 50:0.033333335 2363:0.033333335 2364:0.033333335 2365:0.033333335 2366:0.033333335 #
-413.87732724496737546360236592591 1337:0.030303031 2364:0.060606062 6429:0.030303031 9945:0.030303031 #
-115.71058987312517274403944611549 50:0.050000001 3236:0.050000001 12898:0.050000001 #
-413.87732724496737546360236592591 50:0.035714287 183:0.035714287 999:0.035714287 1309:0.035714287 #
-75.390002337520684250193880870938 12:0.034482758 149:0.034482758 477:0.034482758 2403:0.034482758 #
381.88190848618705786066129803658 50:0.027777778 3083:0.013888889 3450:0.013888889 5710:0.013888889 7117:0.013888889 9985:0.013888889 11871:0.013888889 13978:0.013888889 #
413.87732724496737546360236592591 198:0.027777778 273:0.027777778 739:0.027777778 2862:0.027777778 3140:0.027777778 4267:0.027777778 14050:0.027777778 #
-175.91264767130840596109919715673 139:0.0092592593 176:0.0092592593 273:0.0092592593 581:0.0092592593 1784:0.0092592593 1785:0.0092592593 1786:0.0092592593 1787:0.0092592593 1788:0.0092592593 1789:0.0092592593 1790:0.0092592593 1791:0.0092592593 1792:0.0092592593 #
413.87732724496737546360236592591 307:0.018518519 509:0.018518519 710:0.018518519 739:0.018518519 3188:0.018518519 3261:0.018518519 13382:0.018518519 13973:0.018518519 #
-413.87732724496737546360236592591 47:0.03125 307:0.03125 1477:0.03125 1601:0.03125 2131:0.03125 4613:0.03125 #
-413.87732724496737546360236592591 273:0.039999999 921:0.039999999 1596:0.039999999 1733:0.039999999 #
-228.01833753178723895871371496469 183:0.021978023 190:0.010989011 315:0.010989011 881:0.010989011 1255:0.010989011 1299:0.010989011 1903:0.010989011 2557:0.010989011 3763:0.010989011 9387:0.010989011 9388:0.010989011 9389:0.010989011 #
-224.29853425614993511771899648011 90:0.0088495575 176:0.0088495575 298:0.0088495575 451:0.0088495575 566:0.0088495575 711:0.0088495575 1656:0.0088495575 6129:0.0088495575 13453:0.0088495575 13454:0.0088495575 13455:0.0088495575 13456:0.0088495575 13457:0.0088495575 #
413.87732724496737546360236592591 3236:0.083333336 3665:0.083333336 #
413.87732724496737546360236592591 149:0.011363637 183:0.011363637 191:0.011363637 526:0.011363637 608:0.011363637 662:0.011363637 927:0.011363637 1593:0.011363637 2907:0.011363637 5919:0.011363637 6369:0.011363637 11055:0.011363637 #
199.0814657219190166870248503983 149:0.022727273 320:0.022727273 1407:0.022727273 1548:0.022727273 2471:0.022727273 4466:0.022727273 13609:0.022727273 #
413.87732724496737546360236592591 39:0.028571429 90:0.028571429 128:0.028571429 1038:0.028571429 9917:0.028571429 15315:0.028571429 #
-320.86408870829859552031848579645 90:0.01754386 137:0.01754386 680:0.01754386 2169:0.01754386 2292:0.01754386 2293:0.01754386 2445:0.01754386 #
-67.076846756167611829368979670107 65:0.027027028 149:0.027027028 445:0.027027028 853:0.027027028 2574:0.027027028 7675:0.027027028 #
-9.8177660435095219781942432746291 149:0.043478262 1548:0.043478262 3879:0.043478262 5223:0.043478262 #
-64.587786149396109180997882504016 89:0.027777778 90:0.027777778 149:0.027777778 643:0.027777778 1630:0.027777778 7570:0.027777778 #
-226.01433350786217602035321760923 149:0.032258064 550:0.032258064 3146:0.032258064 5714:0.032258064 #
-413.87732724496737546360236592591 322:0.01923077 360:0.01923077 669:0.01923077 757:0.01923077 1021:0.01923077 1038:0.01923077 1505:0.01923077 1584:0.01923077 5089:0.01923077 #
-413.87732724496737546360236592591 50:0.02 245:0.02 314:0.02 323:0.02 1021:0.02 1244:0.02 3283:0.02 7294:0.02 #
-413.87732724496737546360236592591 50:0.021739131 487:0.021739131 1049:0.021739131 1880:0.021739131 2445:0.021739131 2508:0.021739131 #
-413.87732724496737546360236592591 50:0.015151516 90:0.015151516 199:0.015151516 314:0.015151516 1177:0.015151516 1407:0.015151516 5266:0.015151516 5900:0.015151516 5901:0.015151516 #
87.075814201570025829823862295598 149:0.052631579 2003:0.052631579 7753:0.052631579 #
299.06427174167600924192811362445 18:0.017241379 5313:0.017241379 6195:0.017241379 9999:0.017241379 11859:0.017241379 19012:0.017241379 19013:0.017241379 #
389.11709306922426776509382762015 74:0.023809524 81:0.023809524 149:0.023809524 739:0.023809524 1630:0.023809524 6195:0.023809524 7789:0.023809524 #
-413.87732724496737546360236592591 149:0.035714287 739:0.035714287 807:0.035714287 808:0.035714287 990:0.035714287 #
-413.87732724496737546360236592591 16:0.010752688 191:0.010752688 614:0.010752688 1295:0.021505376 2092:0.010752688 3552:0.010752688 3553:0.010752688 3554:0.010752688 3555:0.010752688 3556:0.010752688 3557:0.010752688 #
413.87732724496737546360236592591 90:0.16666667 #
413.87732724496737546360236592591 50:0.027777778 89:0.027777778 538:0.027777778 835:0.027777778 3738:0.027777778 19553:0.027777778 #
44.554749735912217545319435885176 484:0.034482758 669:0.034482758 852:0.034482758 1539:0.034482758 6499:0.034482758 #
413.87732724496737546360236592591 643:0.030303031 1984:0.030303031 4813:0.030303031 6404:0.030303031 16128:0.030303031 #
413.87732724496737546360236592591 50:0.0074074073 82:0.0074074073 2726:0.0074074073 3393:0.0074074073 3923:0.0074074073 4925:0.0074074073 4931:0.0074074073 5470:0.0074074073 6201:0.0074074073 12106:0.0074074073 15179:0.0074074073 19222:0.0074074073 19223:0.0074074073 19224:0.0074074073 19225:0.0074074073 #
-413.87732724496737546360236592591 1237:0.050000001 2823:0.050000001 6195:0.050000001 12325:0.050000001 #
-127.45257009065829834071337245405 9:0.018181818 50:0.018181818 74:0.018181818 97:0.018181818 3738:0.018181818 3739:0.018181818 3740:0.018181818 3741:0.018181818 #
-413.87732724496737546360236592591 49:0.035714287 997:0.035714287 1972:0.035714287 2341:0.035714287 #
77.874825974476664214307675138116 149:0.0125 191:0.0125 309:0.0125 726:0.0125 3026:0.0125 3132:0.0125 3677:0.0125 5236:0.0125 10778:0.0125 11531:0.0125 16618:0.0125 #
413.87732724496737546360236592591 149:0.041666668 561:0.020833334 1505:0.020833334 2354:0.020833334 3033:0.020833334 3976:0.020833334 #
-413.87732724496737546360236592591 149:0.033333335 1593:0.033333335 2412:0.033333335 5631:0.033333335 #
-413.87732724496737546360236592591 149:0.033898305 203:0.016949153 826:0.016949153 1068:0.016949153 1294:0.016949153 2064:0.016949153 4692:0.016949153 5614:0.016949153 5615:0.016949153 #
-226.29798884665044056418992113322 149:0.045454547 3888:0.045454547 4584:0.045454547 5448:0.045454547 #
413.87732724496737546360236592591 47:0.02631579 77:0.02631579 1237:0.02631579 1491:0.02631579 8674:0.02631579 #
284.55837184896614644458168186247 990:0.03846154 3300:0.03846154 7657:0.03846154 13801:0.03846154 #
413.87732724496737546360236592591 487:0.015384615 673:0.015384615 675:0.015384615 807:0.015384615 808:0.015384615 881:0.015384615 3056:0.015384615 5770:0.015384615 13938:0.015384615 #
413.87732724496737546360236592591 320:0.02 990:0.02 2071:0.02 5895:0.02 13695:0.02 14605:0.02 #
-55.640044474406508356878475751728 551:0.041666668 835:0.041666668 934:0.041666668 3033:0.041666668 #
-413.87732724496737546360236592591 881:0.021739131 1244:0.021739131 3964:0.021739131 4096:0.021739131 4325:0.021739131 4457:0.021739131 #
-370.09863095574041835789103060961 67:0.027777778 152:0.027777778 608:0.055555556 2196:0.027777778 7558:0.027777778 #
-413.87732724496737546360236592591 337:0.029411765 834:0.029411765 835:0.029411765 1903:0.029411765 7607:0.029411765 7608:0.029411765 #
413.87732724496737546360236592591 173:0.021739131 4598:0.021739131 13961:0.021739131 16580:0.021739131 #
-413.87732724496737546360236592591 149:0.041666668 335:0.041666668 881:0.041666668 1600:0.041666668 #
-413.87732724496737546360236592591 67:0.0089285718 210:0.0089285718 798:0.0089285718 1559:0.0089285718 1643:0.0089285718 1838:0.0089285718 2932:0.0089285718 4477:0.0089285718 4478:0.0089285718 4479:0.0089285718 4480:0.0089285718 4481:0.0089285718 4482:0.0089285718 #
-413.87732724496737546360236592591 149:0.041666668 939:0.041666668 11842:0.041666668 #
334.60119812350740176043473184109 267:0.022222223 430:0.022222223 2064:0.022222223 4989:0.022222223 7377:0.022222223 9794:0.022222223 11724:0.022222223 #
413.87732724496737546360236592591 41:0.030303031 94:0.015151516 547:0.015151516 608:0.030303031 1272:0.015151516 1663:0.015151516 2957:0.030303031 14855:0.015151516 #
169.14116835127870785981940571219 149:0.021276595 1100:0.021276595 3595:0.021276595 4633:0.021276595 19343:0.021276595 19344:0.021276595 #
390.7644175672073174609977286309 354:0.045454547 453:0.045454547 601:0.045454547 14830:0.045454547 #
-413.87732724496737546360236592591 354:0.025 355:0.025 1375:0.025 1438:0.025 8815:0.025 #
-219.0142908530870613503793720156 182:0.047619049 608:0.047619049 4748:0.047619049 5451:0.047619049 #
-285.81511578402694340184098109603 1727:0.025641026 1776:0.025641026 7509:0.025641026 8206:0.025641026 #
-413.87732724496737546360236592591 547:0.125 #
413.87732724496737546360236592591 149:0.037037037 210:0.037037037 241:0.037037037 1980:0.037037037 6686:0.037037037 #
-413.87732724496737546360236592591 149:0.021276595 526:0.021276595 1546:0.021276595 1980:0.021276595 2341:0.021276595 6542:0.021276595 #
-413.87732724496737546360236592591 149:0.022222223 452:0.022222223 1593:0.022222223 2335:0.022222223 3643:0.022222223 3644:0.022222223 3645:0.022222223 #
-218.05879255620487811029306612909 149:0.033333335 548:0.033333335 3645:0.033333335 8937:0.033333335 8938:0.033333335 #
331.29736676891053548388299532235 939:0.043478262 5537:0.043478262 #
249.83762780472957842903269920498 50:0.028571429 245:0.028571429 713:0.028571429 881:0.028571429 934:0.028571429 2283:0.057142857 #
413.87732724496737546360236592591 39:0.01369863 50:0.01369863 335:0.01369863 1009:0.02739726 1054:0.01369863 1429:0.01369863 1705:0.01369863 2283:0.01369863 6535:0.01369863 8440:0.01369863 17623:0.01369863 #
413.87732724496737546360236592591 50:0.014925373 198:0.014925373 393:0.014925373 580:0.014925373 990:0.014925373 1004:0.014925373 1596:0.014925373 3109:0.014925373 3283:0.014925373 6021:0.014925373 #
200.38529657311840992406359873712 179:0.034482758 881:0.034482758 1596:0.034482758 12462:0.034482758 16517:0.034482758 #
-413.87732724496737546360236592591 295:0.0086956518 606:0.0086956518 842:0.0086956518 1000:0.0086956518 1159:0.0086956518 1160:0.0086956518 1844:0.0086956518 1845:0.0086956518 1846:0.0086956518 1847:0.0086956518 1848:0.0086956518 1849:0.0086956518 1850:0.0086956518 1851:0.0086956518 1852:0.0086956518 #
-157.48126380993568318444886244833 9:0.020408163 43:0.020408163 50:0.020408163 198:0.040816326 286:0.020408163 1237:0.020408163 1270:0.020408163 4267:0.020408163 #
-413.87732724496737546360236592591 459:0.037037037 3109:0.037037037 3110:0.037037037 3111:0.037037037 #
140.11757426534680348595429677516 149:0.010526316 549:0.010526316 1174:0.010526316 1268:0.010526316 1341:0.010526316 1650:0.010526316 2003:0.010526316 3662:0.010526316 3771:0.010526316 4411:0.010526316 12990:0.010526316 14856:0.010526316 #
413.87732724496737546360236592591 360:0.011627907 3745:0.011627907 3831:0.011627907 5213:0.011627907 6814:0.011627907 8798:0.011627907 11904:0.011627907 13278:0.011627907 16605:0.011627907 17570:0.011627907 17571:0.011627907 #
413.87732724496737546360236592591 25:0.014285714 426:0.014285714 612:0.014285714 1596:0.014285714 3810:0.014285714 9800:0.014285714 13452:0.014285714 14583:0.014285714 #
413.87732724496737546360236592591 15:0.0073529412 90:0.0073529412 206:0.0073529412 214:0.0073529412 477:0.0073529412 547:0.0073529412 739:0.014705882 925:0.0073529412 1407:0.0073529412 1443:0.0073529412 1942:0.0073529412 4776:0.0073529412 6003:0.0073529412 11603:0.0073529412 11846:0.0073529412 15644:0.0073529412 15645:0.0073529412 15646:0.0073529412 #
-56.1259884599414675676598562859 79:0.021276595 149:0.021276595 314:0.021276595 427:0.021276595 956:0.021276595 1169:0.021276595 1605:0.021276595 #
-413.87732724496737546360236592591 41:0.017857144 90:0.017857144 149:0.017857144 314:0.017857144 541:0.017857144 627:0.017857144 1630:0.017857144 4847:0.017857144 4848:0.017857144 #
-226.0689861839332479576114565134 124:0.0083333338 245:0.016666668 360:0.0083333338 365:0.0083333338 385:0.0083333338 509:0.0083333338 545:0.0083333338 907:0.0083333338 2556:0.0083333338 3794:0.0083333338 3901:0.0083333338 4029:0.0083333338 4813:0.0083333338 4952:0.0083333338 5324:0.0083333338 5567:0.0083333338 7703:0.0083333338 #
413.87732724496737546360236592591 50:0.03125 286:0.03125 1945:0.03125 2726:0.03125 #
413.87732724496737546360236592591 50:0.027027028 286:0.027027028 1745:0.027027028 6037:0.027027028 15413:0.027027028 #
413.87732724496737546360236592591 8:0.033333335 43:0.033333335 580:0.033333335 17549:0.033333335 #
-94.370083213679222922110056970268 580:0.083333336 1186:0.083333336 1682:0.083333336 #
-413.87732724496737546360236592591 50:0.017241379 612:0.034482758 674:0.017241379 2185:0.017241379 2726:0.017241379 6825:0.017241379 6826:0.017241379 #
413.87732724496737546360236592591 92:0.012195121 245:0.012195121 262:0.012195121 336:0.012195121 2144:0.012195121 3060:0.012195121 3105:0.012195121 12249:0.012195121 13795:0.012195121 15678:0.012195121 16739:0.012195121 #
413.87732724496737546360236592591 55:0.017241379 149:0.017241379 314:0.017241379 677:0.017241379 1117:0.017241379 1270:0.017241379 7397:0.017241379 18010:0.017241379 #
268.53215857592994098013150505722 186:0.024390243 314:0.024390243 808:0.024390243 1033:0.024390243 15546:0.024390243 15547:0.024390243 #
-413.87732724496737546360236592591 79:0.020833334 321:0.020833334 453:0.020833334 1427:0.020833334 4885:0.020833334 12557:0.020833334 12558:0.020833334 #
-188.07700791507818394165951758623 60:0.016129032 509:0.016129032 561:0.016129032 1335:0.016129032 1596:0.016129032 1733:0.016129032 1984:0.016129032 2012:0.016129032 4222:0.016129032 #
-27.747730221081724266696255654097 55:0.035714287 232:0.035714287 2629:0.035714287 9956:0.035714287 #
-92.340588537116758516276604495943 1316:0.047619049 2561:0.047619049 3021:0.047619049 #
-413.87732724496737546360236592591 41:0.014705882 453:0.014705882 718:0.014705882 726:0.014705882 936:0.014705882 1593:0.014705882 2678:0.014705882 8699:0.014705882 9632:0.014705882 #
88.799110759282626759159029461443 9:0.018518519 32:0.018518519 50:0.018518519 245:0.018518519 1004:0.018518519 2353:0.018518519 5968:0.018518519 10404:0.018518519 #
-413.87732724496737546360236592591 149:0.25 #
-413.87732724496737546360236592591 50:0.03846154 677:0.03846154 3140:0.07692308 8485:0.03846154 #
-299.11821104603654930542688816786 471:0.015625 472:0.015625 1169:0.015625 3208:0.015625 3650:0.015625 5518:0.015625 12017:0.015625 #
-413.87732724496737546360236592591 9:0.022727273 169:0.022727273 171:0.022727273 1667:0.022727273 3033:0.022727273 9054:0.022727273 12768:0.022727273 #
413.87732724496737546360236592591 580:0.034482758 1186:0.034482758 1237:0.034482758 2303:0.034482758 4307:0.034482758 4539:0.034482758 #
413.87732724496737546360236592591 93:0.016393442 846:0.016393442 1537:0.016393442 1624:0.016393442 2629:0.016393442 9945:0.016393442 14227:0.016393442 #
100.51342725021811475016875192523 1630:0.034482758 4962:0.034482758 9945:0.034482758 #
-268.13769137678150400461163371801 846:0.0625 5938:0.0625 12769:0.0625 #
-413.87732724496737546360236592591 81:0.012345679 921:0.012345679 1244:0.012345679 1491:0.012345679 2003:0.012345679 2186:0.012345679 3403:0.012345679 3804:0.012345679 5618:0.012345679 6909:0.012345679 6910:0.012345679 #
-413.87732724496737546360236592591 608:0.027777778 846:0.027777778 1858:0.027777778 5686:0.027777778 13167:0.027777778 #
-346.97317265915336292891879566014 62:0.012987013 344:0.012987013 706:0.012987013 865:0.012987013 3460:0.012987013 3461:0.012987013 3462:0.012987013 3463:0.012987013 3464:0.012987013 #
119.57529875028461674446589313447 2010:0.041666668 3314:0.041666668 9054:0.083333336 #
-164.57923329243706689339887816459 90:0.037037037 128:0.037037037 6472:0.037037037 6473:0.037037037 #
-413.87732724496737546360236592591 50:0.025641026 90:0.025641026 149:0.025641026 295:0.025641026 7689:0.025641026 8283:0.025641026 #
278.92951063319912918814225122333 751:0.0076923077 865:0.0076923077 1431:0.0076923077 2011:0.0076923077 2144:0.0076923077 2357:0.0076923077 2582:0.015384615 2997:0.0076923077 4092:0.0076923077 5047:0.0076923077 6780:0.0076923077 6878:0.0076923077 9198:0.0076923077 18778:0.0076923077 18779:0.0076923077 18780:0.0076923077 #
333.56511610771326559188310056925 92:0.033333335 838:0.033333335 2769:0.033333335 3140:0.033333335 #
403.39506321129437083072843961418 124:0.052631579 2924:0.052631579 3773:0.052631579 #
195.58636174878304814228613395244 162:0.021276595 171:0.021276595 1153:0.021276595 4607:0.021276595 5047:0.021276595 14330:0.021276595 14331:0.021276595 #
413.87732724496737546360236592591 2:0.02631579 1725:0.02631579 3033:0.02631579 4088:0.02631579 19110:0.02631579 #
-413.87732724496737546360236592591 9:0.01754386 94:0.01754386 1175:0.01754386 1593:0.01754386 2338:0.01754386 5937:0.01754386 6399:0.01754386 #
-120.76344663090289088813733542338 386:0.055555556 6758:0.055555556 9230:0.055555556 #
-291.62428161405063065103604458272 198:0.037037037 229:0.037037037 1578:0.037037037 2010:0.037037037 6355:0.037037037 #
-193.39920513818225344948587007821 64:0.014925373 739:0.014925373 1462:0.014925373 1463:0.014925373 1464:0.014925373 1465:0.014925373 1466:0.014925373 1467:0.014925373 1468:0.014925373 #
-193.97372253376042294803482946008 1237:0.090909094 8074:0.090909094 #
413.87732724496737546360236592591 50:0.022727273 90:0.022727273 430:0.022727273 3643:0.022727273 6925:0.022727273 9504:0.022727273 16252:0.022727273 #
413.87732724496737546360236592591 90:0.035714287 191:0.035714287 10441:0.035714287 17528:0.035714287 #
-413.87732724496737546360236592591 50:0.0063694268 132:0.0063694268 245:0.0063694268 360:0.0063694268 1073:0.0063694268 1242:0.0063694268 1405:0.0063694268 1436:0.0063694268 1919:0.0063694268 1990:0.0063694268 2131:0.0063694268 2277:0.0063694268 2404:0.0063694268 4073:0.0063694268 4287:0.0063694268 4288:0.0063694268 9402:0.0063694268 9403:0.0063694268 9404:0.0063694268 9405:0.0063694268 9406:0.0063694268 9407:0.0063694268 9408:0.0063694268 #
413.87732724496737546360236592591 90:0.034482758 118:0.034482758 146:0.034482758 1028:0.034482758 #
-413.87732724496737546360236592591 189:0.027777778 191:0.055555556 1550:0.027777778 2137:0.027777778 #
-413.87732724496737546360236592591 191:0.016129032 430:0.016129032 789:0.016129032 1028:0.016129032 1480:0.016129032 3297:0.016129032 3659:0.016129032 5584:0.016129032 #
-185.48264687868240230272931512445 191:0.06666667 440:0.06666667 739:0.06666667 #
413.87732724496737546360236592591 198:0.027027028 370:0.013513514 668:0.013513514 756:0.013513514 1215:0.013513514 1309:0.013513514 1427:0.013513514 2560:0.013513514 8724:0.013513514 #
413.87732724496737546360236592591 50:0.016949153 198:0.033898305 273:0.016949153 1482:0.016949153 2338:0.016949153 2534:0.016949153 4094:0.016949153 10404:0.016949153 #
413.87732724496737546360236592591 205:0.013333334 214:0.013333334 634:0.013333334 1129:0.013333334 3481:0.013333334 5169:0.013333334 8993:0.013333334 10342:0.013333334 10654:0.013333334 16032:0.013333334 #
413.87732724496737546360236592591 7:0.016129032 9:0.016129032 49:0.016129032 169:0.016129032 355:0.016129032 589:0.016129032 2903:0.016129032 8656:0.016129032 #
413.87732724496737546360236592591 582:0.014084507 619:0.014084507 643:0.014084507 866:0.014084507 1911:0.014084507 2337:0.014084507 6412:0.014084507 7609:0.014084507 13802:0.014084507 13803:0.014084507 #
-413.87732724496737546360236592591 90:0.034482758 92:0.034482758 846:0.034482758 5134:0.034482758 #
-413.87732724496737546360236592591 90:0.03125 91:0.03125 92:0.03125 846:0.03125 #
60.901805856529435345692036207765 9:0.014084507 50:0.014084507 1270:0.014084507 2054:0.014084507 4030:0.014084507 4561:0.014084507 4890:0.014084507 13730:0.014084507 19122:0.014084507 #
-413.87732724496737546360236592591 77:0.02631579 92:0.02631579 273:0.02631579 2468:0.02631579 7437:0.02631579 #
-339.04428438857917171844746917486 4016:0.052631579 4087:0.052631579 4088:0.052631579 #
413.87732724496737546360236592591 191:0.055555556 2353:0.055555556 4376:0.055555556 #
413.87732724496737546360236592591 50:0.021739131 191:0.043478262 229:0.021739131 459:0.021739131 1453:0.021739131 2556:0.021739131 2976:0.021739131 #
413.87732724496737546360236592591 149:0.030303031 191:0.030303031 1453:0.030303031 4149:0.030303031 13377:0.030303031 #
413.87732724496737546360236592591 50:0.041666668 171:0.041666668 191:0.041666668 739:0.041666668 #
-413.87732724496737546360236592591 2:0.025641026 149:0.025641026 196:0.025641026 1453:0.025641026 2439:0.025641026 8033:0.025641026 #
-413.87732724496737546360236592591 16:0.0052083335 43:0.0052083335 50:0.0052083335 485:0.0052083335 581:0.0052083335 668:0.0052083335 723:0.0052083335 1216:0.0052083335 1791:0.0052083335 3205:0.0052083335 4381:0.0052083335 4685:0.0052083335 6388:0.0052083335 7336:0.0052083335 7617:0.0052083335 9325:0.0052083335 12631:0.0052083335 12632:0.0052083335 12633:0.0052083335 12634:0.0052083335 12635:0.0052083335 12636:0.0052083335 12637:0.0052083335 12638:0.0052083335 12639:0.0052083335 #
413.87732724496737546360236592591 752:0.047619049 846:0.047619049 1700:0.047619049 #
260.8375329380297671377775259316 77:0.013888889 92:0.013888889 149:0.013888889 273:0.013888889 328:0.013888889 1540:0.013888889 3098:0.013888889 3177:0.013888889 4662:0.027777778 #
376.32237944251204453394166193902 135:0.022222223 186:0.022222223 295:0.022222223 6498:0.022222223 10726:0.022222223 14433:0.022222223 #
-359.46949330407056777403340674937 618:0.020408163 1529:0.020408163 3687:0.020408163 3861:0.020408163 4958:0.020408163 6270:0.020408163 8172:0.020408163 #
-413.87732724496737546360236592591 41:0.022222223 187:0.022222223 191:0.022222223 847:0.022222223 3976:0.022222223 5192:0.022222223 #
-413.87732724496737546360236592591 1299:0.0625 2353:0.0625 #
-36.882611212998845928723312681541 191:0.020833334 580:0.020833334 726:0.020833334 990:0.020833334 2498:0.020833334 4905:0.020833334 5595:0.020833334 7743:0.020833334 #
413.87732724496737546360236592591 50:0.016949153 196:0.016949153 430:0.016949153 2364:0.016949153 2399:0.016949153 3243:0.016949153 3261:0.016949153 5254:0.016949153 12852:0.016949153 15120:0.016949153 #
200.61869900434192004468059167266 81:0.028571429 196:0.028571429 453:0.028571429 9230:0.028571429 11157:0.028571429 #
374.72544658056341404517297632992 15:0.016129032 149:0.016129032 273:0.016129032 956:0.016129032 1453:0.016129032 1556:0.016129032 1647:0.016129032 2088:0.016129032 2165:0.016129032 2193:0.016129032 #
-413.87732724496737546360236592591 132:0.013333334 535:0.013333334 547:0.013333334 872:0.013333334 1504:0.013333334 5434:0.013333334 5435:0.013333334 5436:0.013333334 5437:0.013333334 #
397.24297772283074436927563510835 82:0.019607844 149:0.019607844 315:0.019607844 425:0.019607844 443:0.019607844 785:0.019607844 1841:0.019607844 #
-413.87732724496737546360236592591 171:0.037037037 796:0.037037037 1556:0.037037037 6835:0.037037037 #
167.07517071810764264228055253625 1290:0.021276595 3718:0.021276595 4729:0.021276595 5517:0.021276595 10886:0.021276595 #
-413.87732724496737546360236592591 15:0.030303031 88:0.030303031 149:0.030303031 233:0.030303031 4506:0.030303031 #
-413.87732724496737546360236592591 430:0.032258064 1307:0.032258064 1427:0.032258064 8270:0.032258064 #
413.87732724496737546360236592591 32:0.013157895 157:0.013157895 191:0.039473683 934:0.013157895 3773:0.013157895 8739:0.013157895 13859:0.013157895 14213:0.013157895 14214:0.013157895 #
318.65125093523175792142865248024 191:0.037037037 506:0.037037037 1990:0.037037037 14399:0.037037037 #
413.87732724496737546360236592591 191:0.013513514 600:0.013513514 915:0.013513514 1130:0.013513514 2885:0.013513514 3645:0.013513514 3758:0.013513514 6064:0.013513514 8975:0.013513514 14279:0.013513514 14280:0.013513514 #
-134.22137586687671273466548882425 449:0.11111111 506:0.11111111 #
-413.87732724496737546360236592591 149:0.015625 191:0.015625 1198:0.015625 1733:0.015625 1816:0.015625 4724:0.015625 6390:0.015625 12280:0.015625 #
-258.33364368104309960472164675593 915:0.03846154 1088:0.03846154 7914:0.03846154 12046:0.03846154 12047:0.03846154 #
-57.903627570370204580285644624382 191:0.03846154 273:0.03846154 2748:0.03846154 #
-413.87732724496737546360236592591 191:0.023255814 853:0.023255814 1041:0.023255814 2169:0.023255814 2383:0.023255814 #
413.87732724496737546360236592591 81:0.0075187972 149:0.0075187972 417:0.0075187972 429:0.0075187972 547:0.0075187972 1427:0.0075187972 1842:0.0075187972 2009:0.015037594 4337:0.0075187972 4900:0.0075187972 5729:0.0075187972 5966:0.0075187972 7299:0.0075187972 7816:0.0075187972 15759:0.0075187972 15760:0.0075187972 #
413.87732724496737546360236592591 15:0.016129032 41:0.016129032 124:0.016129032 149:0.016129032 190:0.016129032 627:0.016129032 1244:0.016129032 2126:0.016129032 2144:0.016129032 12107:0.016129032 #
-386.69545016302777185046579688787 149:0.023809524 393:0.023809524 584:0.023809524 1244:0.023809524 1876:0.023809524 1877:0.023809524 1878:0.023809524 #
-413.87732724496737546360236592591 149:0.032258064 190:0.032258064 214:0.032258064 1205:0.032258064 1272:0.032258064 1548:0.032258064 #
-291.23889690490432258229702711105 3505:0.05882353 12272:0.05882353 #
-413.87732724496737546360236592591 149:0.022727273 850:0.022727273 3314:0.022727273 6156:0.022727273 6822:0.022727273 7208:0.022727273 12268:0.022727273 #
413.87732724496737546360236592591 15:0.020833334 580:0.020833334 915:0.020833334 959:0.020833334 1078:0.020833334 1186:0.020833334 1450:0.020833334 2338:0.020833334 3261:0.020833334 #
413.87732724496737546360236592591 50:0.021739131 445:0.021739131 516:0.021739131 1220:0.021739131 1382:0.021739131 1556:0.021739131 2137:0.021739131 11258:0.021739131 #
413.87732724496737546360236592591 233:0.023809524 408:0.023809524 619:0.023809524 947:0.023809524 1237:0.023809524 7328:0.023809524 8228:0.023809524 #
413.87732724496737546360236592591 50:0.039999999 88:0.039999999 186:0.039999999 245:0.039999999 #
-413.87732724496737546360236592591 50:0.03846154 453:0.03846154 1141:0.03846154 4042:0.03846154 #
-413.87732724496737546360236592591 50:0.039999999 1237:0.039999999 3181:0.039999999 6029:0.039999999 #
-222.87349808097735603951150551438 136:0.0076923077 376:0.0076923077 554:0.0076923077 905:0.0076923077 940:0.0076923077 1478:0.0076923077 4489:0.0076923077 4714:0.0076923077 4715:0.0076923077 4716:0.0076923077 4717:0.0076923077 4718:0.0076923077 4719:0.0076923077 4720:0.0076923077 4721:0.0076923077 #
413.87732724496737546360236592591 149:0.015151516 317:0.015151516 789:0.015151516 850:0.015151516 1477:0.015151516 1839:0.015151516 3838:0.015151516 8800:0.015151516 #
413.87732724496737546360236592591 273:0.014925373 335:0.014925373 393:0.014925373 613:0.014925373 1152:0.014925373 1273:0.014925373 4230:0.014925373 6835:0.014925373 9207:0.014925373 #
413.87732724496737546360236592591 149:0.016129032 295:0.016129032 320:0.016129032 2013:0.016129032 2439:0.016129032 2634:0.016129032 7689:0.016129032 10076:0.016129032 #
413.87732724496737546360236592591 57:0.017857144 94:0.017857144 149:0.017857144 162:0.017857144 999:0.017857144 1867:0.017857144 14456:0.017857144 #
-19.883821854888772406866337405518 1053:0.023809524 1463:0.023809524 2308:0.023809524 3954:0.023809524 3955:0.071428575 5139:0.047619049 #
-46.504870036572029334820399526507 196:0.071428575 2634:0.071428575 #
-373.91912037069607777084456756711 580:0.052631579 934:0.052631579 6614:0.052631579 #
269.97937319203299466607859358191 50:0.039999999 1237:0.039999999 2138:0.039999999 6496:0.039999999 #
413.87732724496737546360236592591 48:0.025 50:0.025 190:0.025 418:0.025 726:0.025 846:0.025 11075:0.025 #
413.87732724496737546360236592591 50:0.039999999 546:0.039999999 682:0.039999999 2450:0.039999999 #
-202.65931509047476311025093309581 546:0.07692308 2786:0.07692308 #
-413.87732724496737546360236592591 1839:0.032258064 7397:0.032258064 7398:0.032258064 #
-413.87732724496737546360236592591 15:0.021739131 739:0.021739131 994:0.021739131 1407:0.021739131 2395:0.021739131 2396:0.021739131 2397:0.021739131 #
-413.87732724496737546360236592591 273:0.0070921984 638:0.0070921984 1170:0.0070921984 1566:0.0070921984 2839:0.0070921984 3403:0.0070921984 5161:0.014184397 6946:0.0070921984 8233:0.0070921984 8295:0.0070921984 8296:0.0070921984 8297:0.0070921984 8298:0.0070921984 8299:0.0070921984 #
258.48495641730158922655391506851 367:0.022222223 1141:0.044444446 2886:0.044444446 5445:0.022222223 #
222.75253731317690153446164913476 934:0.083333336 3657:0.083333336 #
413.87732724496737546360236592591 149:0.023809524 245:0.023809524 1156:0.023809524 1169:0.023809524 9342:0.023809524 18944:0.023809524 #
413.87732724496737546360236592591 149:0.020408163 223:0.020408163 245:0.020408163 1775:0.020408163 9028:0.020408163 9806:0.020408163 17552:0.020408163 #
-359.84449958258835522428853437304 671:0.03846154 2885:0.03846154 2886:0.03846154 2887:0.03846154 #
-230.67803713804971721401670947671 149:0.028571429 245:0.028571429 1004:0.028571429 8987:0.028571429 8988:0.028571429 #
263.56459038091378488388727419078 739:0.043478262 757:0.021739131 1244:0.021739131 9070:0.021739131 14925:0.021739131 19332:0.021739131 #
-362.66504208522133012593258172274 370:0.045454547 739:0.045454547 9409:0.045454547 #
-383.04193096016223307742620818317 739:0.050000001 1840:0.050000001 4156:0.050000001 #
-315.94636177531259590978152118623 190:0.045454547 739:0.045454547 3476:0.045454547 4928:0.045454547 #
413.87732724496737546360236592591 408:0.022727273 541:0.045454547 1839:0.022727273 4431:0.022727273 13827:0.022727273 #
413.87732724496737546360236592591 9:0.024390243 196:0.024390243 377:0.024390243 378:0.024390243 1316:0.024390243 11125:0.024390243 #
413.87732724496737546360236592591 50:0.021276595 193:0.021276595 1546:0.021276595 1839:0.021276595 18857:0.021276595 #
324.38961685896458675415487959981 32:0.011494253 204:0.011494253 999:0.011494253 1507:0.011494253 2279:0.011494253 5101:0.011494253 6195:0.011494253 14093:0.011494253 16880:0.011494253 #
-413.87732724496737546360236592591 60:0.010526316 89:0.010526316 238:0.010526316 245:0.010526316 336:0.010526316 706:0.010526316 1267:0.010526316 1318:0.010526316 1376:0.010526316 5598:0.010526316 8799:0.010526316 8800:0.010526316 8801:0.010526316 #
-70.644658728567193861636042129248 1169:0.025 1745:0.025 2508:0.025 2959:0.025 2960:0.025 2961:0.025 #
-413.87732724496737546360236592591 846:0.016129032 1156:0.016129032 1268:0.016129032 1343:0.016129032 3593:0.016129032 3594:0.016129032 3595:0.016129032 3596:0.016129032 #
-28.793904642241269442592965788208 124:0.02631579 273:0.02631579 411:0.02631579 2556:0.02631579 2557:0.02631579 3515:0.02631579 3516:0.02631579 #
-413.87732724496737546360236592591 2003:0.037037037 4149:0.037037037 6200:0.037037037 #
413.87732724496737546360236592591 1015:0.083333336 1026:0.083333336 #
413.87732724496737546360236592591 60:0.0088495575 149:0.0088495575 214:0.0088495575 484:0.0088495575 677:0.0088495575 739:0.0088495575 2107:0.017699115 2222:0.0088495575 5284:0.0088495575 6758:0.0088495575 7457:0.0088495575 7922:0.0088495575 8033:0.017699115 8814:0.0088495575 9181:0.0088495575 #
413.87732724496737546360236592591 2629:0.02631579 3136:0.02631579 5383:0.02631579 6303:0.02631579 #
301.7968745587849639377964194864 149:0.022727273 739:0.022727273 4087:0.022727273 6239:0.022727273 8484:0.022727273 14603:0.022727273 #
-224.96317982168088178696052636951 2629:0.071428575 7039:0.071428575 #
-413.87732724496737546360236592591 149:0.02 484:0.02 739:0.02 2629:0.02 11064:0.02 12022:0.02 12875:0.02 #
-281.86659367923209629225311800838 2629:0.055555556 4327:0.055555556 #
413.87732724496737546360236592591 15:0.0078740157 50:0.0078740157 88:0.0078740157 695:0.0078740157 832:0.0078740157 833:0.0078740157 870:0.0078740157 4489:0.0078740157 4798:0.0078740157 5967:0.0078740157 8588:0.0078740157 9113:0.0078740157 10681:0.0078740157 12996:0.0078740157 13081:0.0078740157 14713:0.0078740157 15029:0.0078740157 #
149.58134916351744436724402476102 2003:0.043478262 12407:0.043478262 13626:0.043478262 #
413.87732724496737546360236592591 50:0.021276595 273:0.021276595 774:0.021276595 1602:0.021276595 1980:0.021276595 9009:0.021276595 #
-389.926727981487715624098200351 487:0.025641026 1028:0.025641026 1117:0.025641026 9009:0.025641026 #
-413.87732724496737546360236592591 60:0.027027028 286:0.027027028 1980:0.027027028 3941:0.027027028 3942:0.027027028 #
-413.87732724496737546360236592591 50:0.019607844 238:0.019607844 516:0.019607844 815:0.019607844 2283:0.019607844 5956:0.019607844 5957:0.019607844 #
-413.87732724496737546360236592591 198:0.0125 317:0.0125 370:0.0125 539:0.0125 1290:0.0125 2629:0.0125 2634:0.0125 4475:0.0125 10397:0.0125 13226:0.0125 #
384.73915740448944688978372141719 346:0.039999999 2629:0.039999999 3380:0.039999999 5069:0.039999999 #
413.87732724496737546360236592591 1510:0.032258064 2629:0.032258064 6075:0.032258064 #
413.87732724496737546360236592591 41:0.015267176 60:0.0076335878 204:0.0076335878 238:0.0076335878 245:0.0076335878 722:0.0076335878 1578:0.0076335878 1806:0.0076335878 1816:0.015267176 2084:0.0076335878 2629:0.0076335878 3737:0.0076335878 4877:0.0076335878 6835:0.0076335878 6836:0.0076335878 17831:0.0076335878 #
-413.87732724496737546360236592591 49:0.011764706 657:0.011764706 2009:0.011764706 2165:0.011764706 2329:0.011764706 2753:0.011764706 3361:0.011764706 3362:0.023529412 3363:0.011764706 #
413.87732724496737546360236592591 350:0.055555556 422:0.055555556 484:0.055555556 #
-413.87732724496737546360236592591 9:0.024390243 1510:0.024390243 2475:0.024390243 7972:0.024390243 #
-413.87732724496737546360236592591 484:0.03125 485:0.03125 1252:0.03125 1393:0.03125 5899:0.03125 #
-413.87732724496737546360236592591 149:0.035714287 2374:0.035714287 5068:0.035714287 5069:0.035714287 #
413.87732724496737546360236592591 50:0.037037037 487:0.037037037 2677:0.037037037 2791:0.037037037 #
-413.87732724496737546360236592591 149:0.022727273 238:0.022727273 1732:0.022727273 5428:0.022727273 11935:0.022727273 #
286.07888356559527665012865327299 9:0.043478262 1776:0.043478262 6579:0.043478262 #
330.47079583191612073278520256281 535:0.020408163 860:0.020408163 1382:0.020408163 2136:0.020408163 2786:0.020408163 3071:0.020408163 7060:0.020408163 #
413.87732724496737546360236592591 60:0.033333335 190:0.033333335 2941:0.033333335 4284:0.033333335 6384:0.033333335 #
-226.39036581011006887820258270949 137:0.030303031 1529:0.030303031 1722:0.030303031 1745:0.030303031 2660:0.030303031 #
-413.87732724496737546360236592591 137:0.019607844 418:0.019607844 726:0.019607844 1727:0.019607844 1993:0.019607844 4465:0.019607844 5202:0.019607844 #
413.87732724496737546360236592591 50:0.030769231 175:0.015384615 245:0.015384615 739:0.046153847 1068:0.030769231 1074:0.015384615 4188:0.015384615 13900:0.015384615 #
-362.91417089874209978006547316909 600:0.01923077 990:0.01923077 4131:0.01923077 12694:0.01923077 13289:0.01923077 13290:0.01923077 #
413.87732724496737546360236592591 50:0.02739726 90:0.01369863 207:0.01369863 314:0.01369863 739:0.01369863 808:0.01369863 3140:0.01369863 4758:0.04109589 13858:0.01369863 #
144.73190159044511915453767869622 183:0.016129032 1458:0.016129032 1647:0.016129032 2000:0.016129032 3644:0.016129032 6106:0.016129032 11482:0.016129032 14300:0.016129032 15175:0.016129032 #
-413.87732724496737546360236592591 46:0.022727273 50:0.022727273 408:0.022727273 739:0.022727273 846:0.022727273 4411:0.022727273 9573:0.022727273 #
150.24885281508508683145919349045 898:0.01754386 2957:0.01754386 5781:0.01754386 5956:0.01754386 7694:0.01754386 12100:0.01754386 #
413.87732724496737546360236592591 229:0.02631579 990:0.02631579 2428:0.02631579 2686:0.02631579 19289:0.02631579 #
413.87732724496737546360236592591 2:0.012195121 516:0.012195121 835:0.012195121 915:0.012195121 1318:0.012195121 1588:0.012195121 1589:0.012195121 1590:0.012195121 2169:0.012195121 2634:0.012195121 3860:0.012195121 #
413.87732724496737546360236592591 966:0.017241379 1355:0.017241379 1889:0.017241379 2475:0.017241379 3177:0.017241379 14348:0.017241379 18888:0.017241379 #
14.739320650521866795656933391001 29:0.03846154 4149:0.03846154 8019:0.03846154 #
-413.87732724496737546360236592591 2012:0.035714287 4758:0.035714287 7498:0.035714287 7499:0.035714287 #
64.799903970952172471697849687189 124:0.02631579 548:0.02631579 2572:0.02631579 7150:0.02631579 10502:0.02631579 11811:0.02631579 #
-413.87732724496737546360236592591 15:0.016666668 149:0.016666668 252:0.016666668 295:0.016666668 459:0.016666668 1850:0.016666668 2677:0.016666668 3774:0.016666668 12413:0.016666668 12414:0.016666668 #
-413.87732724496737546360236592591 15:0.030303031 183:0.030303031 321:0.030303031 11128:0.030303031 12470:0.030303031 #
-413.87732724496737546360236592591 83:0.016949153 459:0.016949153 600:0.016949153 1630:0.016949153 1774:0.016949153 2120:0.016949153 3195:0.016949153 3213:0.016949153 3214:0.016949153 #
413.87732724496737546360236592591 370:0.028571429 1800:0.028571429 2271:0.028571429 2272:0.028571429 8329:0.028571429 9465:0.028571429 #
-413.87732724496737546360236592591 898:0.027777778 2003:0.027777778 3732:0.027777778 7399:0.027777778 #
-201.91892153444317159483034629375 1800:0.07692308 4773:0.07692308 #
332.38934956178718493902124464512 484:0.039999999 485:0.039999999 1254:0.039999999 3105:0.039999999 #
413.87732724496737546360236592591 515:0.00729927 834:0.00729927 1273:0.00729927 2424:0.00729927 3468:0.00729927 6133:0.00729927 7240:0.00729927 7915:0.00729927 8784:0.00729927 9143:0.00729927 9800:0.00729927 10225:0.00729927 14236:0.00729927 16054:0.00729927 19360:0.00729927 19361:0.00729927 19362:0.00729927 #
413.87732724496737546360236592591 46:0.018867925 149:0.018867925 408:0.018867925 523:0.018867925 896:0.018867925 2341:0.018867925 4519:0.018867925 13700:0.018867925 #
413.87732724496737546360236592591 41:0.0086956518 109:0.0086956518 149:0.0086956518 191:0.0086956518 238:0.0086956518 273:0.0086956518 408:0.0086956518 836:0.0086956518 1337:0.0086956518 1631:0.0086956518 1828:0.0086956518 2016:0.0086956518 2064:0.0086956518 2120:0.0086956518 7444:0.0086956518 7509:0.0086956518 14570:0.0086956518 #
-413.87732724496737546360236592591 9:0.013888889 326:0.013888889 484:0.013888889 487:0.013888889 541:0.013888889 1596:0.013888889 4693:0.013888889 5284:0.013888889 9770:0.013888889 #
-413.87732724496737546360236592591 1028:0.035714287 8391:0.035714287 #
413.87732724496737546360236592591 152:0.0066666668 990:0.0066666668 1133:0.0066666668 1183:0.0066666668 2233:0.0066666668 2341:0.0066666668 2628:0.0066666668 3932:0.0066666668 3976:0.0066666668 4015:0.0066666668 4071:0.0066666668 5110:0.0066666668 5874:0.0066666668 6412:0.0066666668 8770:0.0066666668 9972:0.0066666668 10670:0.0066666668 15897:0.0066666668 15898:0.0066666668 #
-397.16630616263677211463800631464 439:0.010309278 1000:0.010309278 1505:0.010309278 2066:0.010309278 2488:0.010309278 2489:0.010309278 2490:0.010309278 2491:0.010309278 2492:0.010309278 2493:0.010309278 #
413.87732724496737546360236592591 38:0.019607844 1272:0.019607844 1401:0.019607844 1819:0.019607844 4773:0.019607844 19747:0.019607844 #
413.87732724496737546360236592591 360:0.012820513 744:0.012820513 885:0.012820513 898:0.012820513 900:0.012820513 911:0.012820513 2136:0.012820513 2546:0.012820513 3333:0.012820513 8776:0.012820513 #
-359.97330682646776267574750818312 360:0.032258064 1265:0.032258064 4768:0.032258064 9054:0.032258064 12031:0.032258064 #
-413.87732724496737546360236592591 32:0.015625 739:0.015625 1819:0.015625 2680:0.015625 3861:0.015625 6341:0.015625 6497:0.015625 8712:0.015625 #
-413.87732724496737546360236592591 6434:0.024390243 6925:0.024390243 8775:0.024390243 8776:0.024390243 8777:0.024390243 #
413.87732724496737546360236592591 49:0.02631579 149:0.02631579 295:0.02631579 459:0.02631579 541:0.02631579 1578:0.02631579 2283:0.02631579 #
413.87732724496737546360236592591 41:0.0090090092 295:0.0090090092 1172:0.0090090092 2415:0.0090090092 6135:0.0090090092 6985:0.0090090092 8357:0.0090090092 15153:0.0090090092 15154:0.0090090092 15155:0.0090090092 15156:0.0090090092 15157:0.0090090092 #
413.87732724496737546360236592591 162:0.018181818 541:0.018181818 853:0.018181818 1858:0.018181818 3596:0.018181818 13521:0.018181818 16230:0.018181818 #
225.8118864769516562773787882179 193:0.018518519 1903:0.018518519 1905:0.018518519 1967:0.018518519 2233:0.018518519 4019:0.018518519 11266:0.018518519 13761:0.018518519 17342:0.018518519 #
-413.87732724496737546360236592591 43:0.041666668 204:0.041666668 541:0.041666668 3154:0.041666668 #
-413.87732724496737546360236592591 90:0.019607844 149:0.019607844 459:0.019607844 509:0.019607844 614:0.019607844 808:0.019607844 2283:0.019607844 9740:0.019607844 13012:0.019607844 #
-413.87732724496737546360236592591 49:0.024390243 148:0.024390243 459:0.024390243 541:0.024390243 796:0.024390243 1596:0.024390243 3935:0.024390243 #
413.87732724496737546360236592591 1680:0.015625 1824:0.015625 3474:0.015625 4058:0.015625 5671:0.015625 11140:0.015625 19372:0.015625 #
232.6603205813451324956986354664 102:0.010204081 488:0.010204081 519:0.010204081 570:0.010204081 608:0.010204081 6938:0.010204081 12326:0.010204081 13683:0.010204081 13933:0.010204081 14614:0.010204081 #
413.87732724496737546360236592591 360:0.023255814 2004:0.023255814 2653:0.023255814 2957:0.023255814 2973:0.023255814 4886:0.046511628 #
413.87732724496737546360236592591 41:0.014285714 652:0.014285714 910:0.014285714 1298:0.014285714 2003:0.014285714 2282:0.014285714 3479:0.014285714 4852:0.014285714 #
-413.87732724496737546360236592591 1647:0.047619049 4852:0.047619049 6921:0.047619049 #
-413.87732724496737546360236592591 210:0.010989011 846:0.010989011 860:0.010989011 955:0.010989011 1156:0.010989011 1547:0.010989011 1607:0.010989011 1907:0.010989011 4634:0.010989011 5096:0.010989011 7181:0.010989011 9968:0.010989011 #
-413.87732724496737546360236592591 162:0.018867925 990:0.018867925 1150:0.018867925 1151:0.018867925 1152:0.018867925 1153:0.018867925 1154:0.018867925 1155:0.018867925 #
-413.87732724496737546360236592591 367:0.014925373 898:0.014925373 899:0.014925373 900:0.014925373 901:0.014925373 902:0.014925373 903:0.014925373 #
-146.1423499005870212386071216315 47:0.015384615 408:0.015384615 640:0.015384615 1021:0.015384615 1379:0.015384615 1380:0.015384615 1381:0.015384615 1382:0.015384615 1383:0.015384615 #
413.87732724496737546360236592591 43:0.030303031 149:0.030303031 2574:0.030303031 6907:0.030303031 10217:0.030303031 #
-413.87732724496737546360236592591 149:0.028571429 171:0.028571429 318:0.028571429 511:0.028571429 1824:0.028571429 #
-413.87732724496737546360236592591 149:0.016666668 152:0.033333335 186:0.016666668 273:0.016666668 865:0.016666668 2160:0.016666668 2161:0.016666668 2162:0.016666668 #
-162.28651210281719841077574528754 149:0.03125 752:0.03125 755:0.03125 1632:0.03125 5369:0.03125 #
413.87732724496737546360236592591 955:0.045454547 2164:0.045454547 3935:0.045454547 #
193.21772098613772072894789744169 204:0.052631579 17001:0.052631579 #
381.37384624143339806323638185859 31:0.01754386 200:0.01754386 283:0.01754386 1155:0.01754386 1707:0.01754386 2346:0.01754386 5328:0.01754386 13269:0.01754386 #
413.87732724496737546360236592591 45:0.0098039219 232:0.0098039219 1247:0.0098039219 2124:0.0098039219 2335:0.0098039219 3981:0.0098039219 5387:0.0098039219 8452:0.0098039219 10285:0.0098039219 18801:0.0098039219 18802:0.0098039219 18803:0.0098039219 #
-413.87732724496737546360236592591 295:0.033333335 315:0.033333335 580:0.033333335 695:0.033333335 1578:0.033333335 #
-413.87732724496737546360236592591 190:0.025641026 459:0.025641026 1070:0.025641026 2556:0.025641026 2941:0.025641026 4508:0.025641026 #
-413.87732724496737546360236592591 910:0.01923077 1240:0.01923077 2164:0.01923077 2400:0.01923077 4157:0.01923077 4308:0.01923077 #
-413.87732724496737546360236592591 64:0.011111111 162:0.011111111 245:0.011111111 350:0.011111111 425:0.011111111 459:0.011111111 643:0.011111111 915:0.011111111 1804:0.011111111 2153:0.011111111 2164:0.011111111 2180:0.011111111 7987:0.011111111 #
-413.87732724496737546360236592591 50:0.017241379 90:0.017241379 196:0.017241379 410:0.017241379 846:0.017241379 1578:0.017241379 2450:0.017241379 4283:0.017241379 #
413.87732724496737546360236592591 27:0.01923077 149:0.01923077 509:0.01923077 618:0.01923077 896:0.01923077 1734:0.01923077 2244:0.01923077 17602:0.01923077 #
413.87732724496737546360236592591 83:0.027777778 149:0.027777778 198:0.027777778 2977:0.027777778 5849:0.027777778 #
413.87732724496737546360236592591 129:0.010752688 146:0.010752688 149:0.010752688 198:0.010752688 229:0.010752688 273:0.010752688 322:0.010752688 561:0.010752688 1211:0.010752688 1733:0.010752688 1953:0.010752688 2541:0.010752688 2941:0.010752688 2944:0.010752688 5981:0.010752688 #
413.87732724496737546360236592591 273:0.014705882 345:0.014705882 1028:0.014705882 1803:0.014705882 2640:0.014705882 2850:0.014705882 3868:0.014705882 17153:0.014705882 17154:0.014705882 #
-413.87732724496737546360236592591 149:0.02 430:0.02 6807:0.02 6906:0.02 6907:0.02 6908:0.02 #
413.87732724496737546360236592591 170:0.1 4308:0.1 #
-216.46965753093513740168418735266 846:0.043478262 1734:0.043478262 2546:0.043478262 4123:0.043478262 #
-37.087772233735769589202391216531 1580:0.055555556 1700:0.055555556 #
-139.43675822950581277837045490742 1035:0.045454547 1699:0.045454547 1700:0.045454547 #
-413.87732724496737546360236592591 49:0.022222223 88:0.022222223 606:0.022222223 608:0.022222223 2508:0.022222223 2547:0.022222223 3332:0.022222223 3333:0.022222223 #
-136.36280533442806017774273641407 2:0.014925373 245:0.014925373 799:0.014925373 846:0.014925373 1244:0.014925373 1318:0.014925373 1660:0.014925373 2433:0.014925373 2640:0.014925373 2745:0.014925373 2922:0.014925373 #
413.87732724496737546360236592591 149:0.020833334 160:0.020833334 190:0.020833334 6334:0.020833334 11159:0.020833334 12127:0.020833334 #
413.87732724496737546360236592591 190:0.033333335 607:0.033333335 608:0.033333335 3166:0.033333335 17189:0.033333335 #
413.87732724496737546360236592591 149:0.014925373 183:0.014925373 1240:0.014925373 1647:0.014925373 1650:0.014925373 3403:0.014925373 3795:0.014925373 4406:0.014925373 15738:0.014925373 #
413.87732724496737546360236592591 190:0.011904762 267:0.011904762 326:0.011904762 464:0.011904762 638:0.011904762 1647:0.011904762 1852:0.011904762 2164:0.011904762 2985:0.011904762 6807:0.011904762 9739:0.011904762 16579:0.011904762 #
413.87732724496737546360236592591 160:0.016666668 190:0.016666668 1010:0.016666668 2336:0.016666668 4119:0.016666668 4613:0.016666668 4844:0.016666668 5177:0.016666668 15467:0.016666668 #
-413.87732724496737546360236592591 1:0.015151516 41:0.015151516 648:0.015151516 711:0.015151516 796:0.015151516 1584:0.015151516 1816:0.015151516 4460:0.015151516 #
165.93270853867869618625263683498 90:0.02 323:0.02 328:0.02 2817:0.02 3121:0.02 19147:0.02 #
-413.87732724496737546360236592591 149:0.018518519 190:0.037037037 336:0.037037037 345:0.018518519 739:0.018518519 1318:0.018518519 7520:0.018518519 #
396.64479585004835371364606544375 2189:0.028571429 2231:0.028571429 2547:0.028571429 2745:0.057142857 7623:0.028571429 9254:0.028571429 #
413.87732724496737546360236592591 64:0.0076923077 305:0.0076923077 429:0.0076923077 990:0.0076923077 1756:0.0076923077 2041:0.0076923077 4832:0.0076923077 8000:0.0076923077 8418:0.0076923077 9118:0.0076923077 14803:0.0076923077 14852:0.0076923077 16422:0.0076923077 16423:0.0076923077 16424:0.0076923077 #
413.87732724496737546360236592591 453:0.028571429 846:0.028571429 2711:0.028571429 3754:0.028571429 4695:0.028571429 15072:0.028571429 #
-413.87732724496737546360236592591 50:0.027027028 752:0.027027028 1130:0.027027028 1453:0.027027028 6332:0.027027028 #
413.87732724496737546360236592591 1156:0.012345679 1189:0.012345679 1453:0.012345679 2126:0.012345679 3219:0.012345679 4411:0.012345679 6103:0.012345679 7147:0.012345679 10573:0.012345679 13714:0.012345679 #
-413.87732724496737546360236592591 1115:0.02 1647:0.02 1650:0.039999999 3870:0.02 3871:0.02 3872:0.02 3873:0.02 3874:0.02 #
-413.87732724496737546360236592591 50:0.014925373 170:0.014925373 367:0.014925373 445:0.014925373 1550:0.014925373 1647:0.014925373 7433:0.014925373 8128:0.014925373 8129:0.014925373 #
-413.87732724496737546360236592591 15:0.014925373 50:0.014925373 273:0.014925373 490:0.014925373 561:0.014925373 1072:0.014925373 1588:0.029850746 1589:0.014925373 3636:0.014925373 3788:0.014925373 #
413.87732724496737546360236592591 60:0.022222223 190:0.022222223 219:0.022222223 229:0.022222223 336:0.022222223 12195:0.022222223 12226:0.022222223 #
413.87732724496737546360236592591 152:0.014705882 341:0.014705882 1000:0.014705882 1358:0.014705882 3219:0.014705882 3708:0.014705882 5428:0.014705882 5758:0.014705882 14333:0.014705882 #
413.87732724496737546360236592591 149:0.02 1580:0.02 2618:0.02 3339:0.02 3821:0.02 8386:0.02 #
308.61250322107810006855288520455 149:0.025 728:0.025 2445:0.025 2508:0.025 9401:0.025 11899:0.025 #
-235.54663266652315201099554542452 191:0.025 718:0.025 1665:0.025 2342:0.025 #
-413.87732724496737546360236592591 149:0.028571429 228:0.057142857 3526:0.028571429 3754:0.028571429 4985:0.028571429 #
-159.14821127735166328420746140182 149:0.037037037 2096:0.037037037 4003:0.037037037 4004:0.037037037 #
413.87732724496737546360236592591 50:0.028571429 60:0.014285714 124:0.014285714 190:0.014285714 252:0.014285714 459:0.014285714 695:0.014285714 758:0.014285714 834:0.014285714 1005:0.014285714 1255:0.014285714 2858:0.014285714 14228:0.014285714 #
322.4974082179409720083640422672 50:0.030303031 13407:0.030303031 15821:0.060606062 #
-413.87732724496737546360236592591 60:0.029411765 183:0.029411765 1021:0.029411765 1220:0.029411765 4890:0.029411765 6358:0.029411765 #
-413.87732724496737546360236592591 60:0.027027028 90:0.027027028 3340:0.027027028 4724:0.027027028 7509:0.027027028 #
-413.87732724496737546360236592591 60:0.022222223 107:0.022222223 311:0.022222223 422:0.022222223 600:0.022222223 638:0.022222223 2722:0.022222223 3188:0.022222223 4321:0.022222223 #
-281.65237660806400299406959675252 1:0.011764706 149:0.011764706 367:0.011764706 437:0.011764706 438:0.011764706 439:0.011764706 440:0.011764706 441:0.011764706 442:0.011764706 #
413.87732724496737546360236592591 15:0.014705882 126:0.014705882 228:0.014705882 307:0.014705882 311:0.014705882 1901:0.014705882 2575:0.014705882 4026:0.014705882 7998:0.014705882 11186:0.014705882 #
413.87732724496737546360236592591 53:0.017857144 228:0.017857144 252:0.017857144 273:0.017857144 541:0.017857144 740:0.017857144 1309:0.017857144 16571:0.017857144 #
413.87732724496737546360236592591 15:0.010309278 43:0.010309278 126:0.010309278 149:0.020618556 198:0.010309278 228:0.010309278 367:0.020618556 723:0.010309278 1601:0.010309278 3154:0.010309278 3828:0.010309278 4953:0.010309278 14965:0.010309278 14966:0.010309278 #
-413.87732724496737546360236592591 149:0.025641026 252:0.051282052 273:0.025641026 321:0.025641026 1270:0.025641026 9393:0.025641026 #
-413.87732724496737546360236592591 229:0.018181818 273:0.018181818 1749:0.018181818 2428:0.018181818 3151:0.018181818 3152:0.018181818 6227:0.018181818 6228:0.018181818 #
413.87732724496737546360236592591 60:0.034482758 160:0.034482758 484:0.034482758 1130:0.034482758 #
413.87732724496737546360236592591 50:0.015625 60:0.03125 739:0.015625 3121:0.015625 4706:0.015625 6826:0.015625 11116:0.015625 14367:0.015625 #
413.87732724496737546360236592591 60:0.016949153 196:0.016949153 820:0.016949153 915:0.016949153 1589:0.016949153 3181:0.016949153 6379:0.016949153 7411:0.016949153 14925:0.016949153 #
413.87732724496737546360236592591 60:0.020833334 545:0.020833334 947:0.020833334 1360:0.020833334 3006:0.020833334 6802:0.020833334 17550:0.020833334 #
413.87732724496737546360236592591 57:0.012345679 408:0.012345679 2338:0.012345679 3242:0.012345679 8226:0.012345679 12759:0.012345679 14119:0.012345679 14120:0.012345679 #
-107.16604225607480316284636501223 203:0.01754386 228:0.01754386 408:0.01754386 1783:0.01754386 2189:0.01754386 2349:0.01754386 2483:0.01754386 4028:0.01754386 #
-154.46218592350246012756542768329 198:0.041666668 484:0.041666668 713:0.041666668 2276:0.041666668 #
-413.87732724496737546360236592591 9:0.01923077 90:0.01923077 245:0.01923077 360:0.01923077 430:0.01923077 1058:0.01923077 2272:0.01923077 2850:0.01923077 3821:0.01923077 #
413.87732724496737546360236592591 149:0.01754386 490:0.01754386 2253:0.01754386 3745:0.01754386 4724:0.01754386 5992:0.01754386 15811:0.01754386 #
12.176448303197123124164136243053 881:0.020408163 2886:0.020408163 5883:0.020408163 8948:0.020408163 16088:0.020408163 17516:0.020408163 #
413.87732724496737546360236592591 46:0.012048192 273:0.012048192 990:0.012048192 1021:0.012048192 1028:0.012048192 1556:0.012048192 3886:0.012048192 5507:0.012048192 10414:0.012048192 12268:0.012048192 19123:0.012048192 #
-413.87732724496737546360236592591 1240:0.039999999 1241:0.039999999 1556:0.039999999 #
-413.87732724496737546360236592591 149:0.015151516 459:0.015151516 570:0.015151516 608:0.015151516 1054:0.015151516 2677:0.015151516 6283:0.030303031 7998:0.015151516 9676:0.015151516 9677:0.015151516 #
-413.87732724496737546360236592591 149:0.024390243 608:0.024390243 841:0.024390243 2245:0.024390243 3283:0.024390243 5488:0.024390243 #
-413.87732724496737546360236592591 149:0.012345679 247:0.012345679 511:0.012345679 756:0.012345679 2354:0.012345679 4037:0.012345679 5145:0.012345679 5235:0.012345679 5236:0.012345679 #
197.90824926923687598900869488716 198:0.01754386 360:0.01754386 430:0.01754386 1170:0.01754386 3613:0.01754386 4642:0.01754386 6992:0.01754386 8703:0.01754386 13405:0.01754386 15344:0.01754386 #
97.184413707820581862506514880806 41:0.016129032 360:0.016129032 1650:0.032258064 3060:0.016129032 3870:0.016129032 5684:0.016129032 10151:0.016129032 10875:0.016129032 14352:0.016129032 15725:0.016129032 #
-413.87732724496737546360236592591 109:0.025 245:0.025 4552:0.025 10502:0.025 10787:0.025 12665:0.025 12666:0.025 #
317.20417178582795258989790454507 13:0.011764706 50:0.011764706 245:0.011764706 519:0.011764706 1781:0.011764706 2461:0.011764706 4146:0.011764706 9158:0.011764706 9840:0.011764706 10076:0.011764706 11052:0.011764706 #
-297.69206580578963894367916509509 41:0.020833334 245:0.020833334 1663:0.020833334 2144:0.020833334 2920:0.020833334 8082:0.020833334 8083:0.020833334 8084:0.020833334 #
-192.0198781745920086905243806541 46:0.047619049 90:0.047619049 7017:0.047619049 #
-322.27901484097372986070695333183 13:0.039999999 834:0.039999999 1892:0.039999999 2816:0.039999999 #
165.98528704530886557222402188927 9:0.015873017 262:0.031746034 273:0.015873017 835:0.015873017 1313:0.015873017 1548:0.015873017 4890:0.015873017 14908:0.015873017 15181:0.015873017 #
413.87732724496737546360236592591 9:0.022727273 49:0.022727273 307:0.022727273 384:0.022727273 1054:0.022727273 3352:0.022727273 5555:0.022727273 #
413.87732724496737546360236592591 50:0.0080000004 149:0.0080000004 247:0.0080000004 260:0.0080000004 999:0.0080000004 1578:0.0080000004 1986:0.0080000004 2276:0.0080000004 2862:0.0080000004 3140:0.0080000004 3195:0.0080000004 3332:0.016000001 6171:0.0080000004 7016:0.0080000004 11441:0.0080000004 11720:0.0080000004 11862:0.0080000004 #
-34.598231801588212874776218086481 1054:0.11111111 1845:0.11111111 #
-413.87732724496737546360236592591 15:0.011764706 50:0.011764706 182:0.011764706 186:0.011764706 323:0.011764706 384:0.023529412 835:0.023529412 1169:0.023529412 1756:0.011764706 3492:0.011764706 4755:0.011764706 #
413.87732724496737546360236592591 308:0.0071428572 739:0.014285714 1584:0.0071428572 2277:0.0071428572 2369:0.0071428572 2722:0.0071428572 3740:0.0071428572 4910:0.0071428572 5283:0.0071428572 5873:0.0071428572 6018:0.0071428572 15350:0.0071428572 16666:0.0071428572 19153:0.0071428572 19784:0.0071428572 19785:0.0071428572 #
-413.87732724496737546360236592591 171:0.0059523811 445:0.0059523811 491:0.0059523811 923:0.0059523811 1374:0.0059523811 1507:0.0059523811 2100:0.0059523811 2120:0.0059523811 3151:0.0059523811 3152:0.0059523811 3564:0.0059523811 3619:0.0059523811 3875:0.0059523811 5091:0.0059523811 5849:0.0059523811 13118:0.0059523811 13119:0.0059523811 13120:0.0059523811 13121:0.0059523811 13122:0.0059523811 #
413.87732724496737546360236592591 245:0.01923077 429:0.01923077 1241:0.01923077 1656:0.01923077 6807:0.01923077 14257:0.01923077 #
413.87732724496737546360236592591 50:0.011764706 126:0.011764706 128:0.011764706 252:0.011764706 1331:0.011764706 1756:0.011764706 1800:0.011764706 4121:0.011764706 7316:0.011764706 7733:0.011764706 13992:0.011764706 16217:0.011764706 #
413.87732724496737546360236592591 124:0.012658228 245:0.012658228 874:0.012658228 875:0.012658228 2722:0.025316456 9334:0.012658228 10310:0.012658228 13744:0.012658228 16785:0.012658228 19547:0.012658228 #
-292.00135933368329688164521940053 2149:0.050000001 5177:0.050000001 11939:0.050000001 #
-413.87732724496737546360236592591 718:0.025641026 2088:0.025641026 4135:0.025641026 8038:0.025641026 8647:0.025641026 #
-238.50658736635247691992844920605 39:0.027777778 2627:0.027777778 5554:0.027777778 5555:0.027777778 #
-379.6360792160638197856314945966 662:0.029411765 836:0.029411765 3352:0.029411765 4556:0.029411765 #
413.87732724496737546360236592591 273:0.010526316 580:0.010526316 835:0.010526316 910:0.010526316 1313:0.010526316 1942:0.010526316 2622:0.010526316 3342:0.010526316 5202:0.010526316 7039:0.010526316 9453:0.010526316 13846:0.010526316 14553:0.010526316 14554:0.010526316 #
413.87732724496737546360236592591 137:0.030303031 1313:0.030303031 19243:0.030303031 19244:0.030303031 19245:0.030303031 #
392.21669021640371965986560098827 124:0.0084033618 314:0.0084033618 325:0.0084033618 910:0.0084033618 1000:0.0084033618 1839:0.0084033618 2821:0.0084033618 3860:0.0084033618 7016:0.0084033618 11933:0.0084033618 13945:0.0084033618 15887:0.0084033618 15888:0.0084033618 #
413.87732724496737546360236592591 321:0.020408163 1054:0.020408163 1133:0.020408163 2169:0.020408163 2360:0.020408163 2417:0.020408163 15265:0.020408163 #
413.87732724496737546360236592591 484:0.03125 755:0.03125 2222:0.03125 5284:0.03125 #
-413.87732724496737546360236592591 137:0.016129032 484:0.032258064 509:0.016129032 1068:0.016129032 1215:0.016129032 2220:0.016129032 2221:0.016129032 2222:0.016129032 2223:0.016129032 #
-80.538465965390315659533371217549 1133:0.07692308 4699:0.07692308 #
-413.87732724496737546360236592591 484:0.011904762 1133:0.011904762 1789:0.011904762 2222:0.011904762 5282:0.011904762 5283:0.011904762 5284:0.011904762 5285:0.011904762 5286:0.011904762 #
-329.82802639266532196415937505662 183:0.02 3052:0.02 6241:0.02 6283:0.02 7283:0.02 7284:0.02 7285:0.02 #
-413.87732724496737546360236592591 186:0.010869565 2283:0.010869565 2559:0.010869565 3497:0.010869565 3716:0.010869565 3717:0.010869565 3866:0.010869565 4720:0.010869565 7557:0.010869565 7558:0.010869565 7559:0.010869565 7560:0.010869565 7561:0.010869565 7562:0.010869565 #
-413.87732724496737546360236592591 41:0.0080000004 46:0.0080000004 121:0.0080000004 149:0.0080000004 207:0.0080000004 229:0.0080000004 273:0.0080000004 541:0.0080000004 582:0.0080000004 1804:0.016000001 1837:0.0080000004 1966:0.0080000004 2149:0.0080000004 2947:0.0080000004 3605:0.0080000004 4037:0.016000001 6002:0.0080000004 7192:0.0080000004 #
-413.87732724496737546360236592591 429:0.012345679 547:0.012345679 738:0.012345679 4465:0.012345679 4590:0.012345679 4659:0.012345679 7565:0.012345679 7849:0.012345679 10993:0.012345679 12787:0.012345679 #
413.87732724496737546360236592591 149:0.0088495575 186:0.0088495575 305:0.0088495575 374:0.0088495575 1427:0.0088495575 2156:0.0088495575 2289:0.0088495575 3060:0.0088495575 5684:0.0088495575 5706:0.0088495575 9945:0.0088495575 10282:0.0088495575 17273:0.0088495575 17274:0.0088495575 #
413.87732724496737546360236592591 64:0.01369863 662:0.01369863 2160:0.01369863 3063:0.01369863 5855:0.01369863 6341:0.01369863 10974:0.01369863 19080:0.01369863 #
315.68817101667855240521021187305 831:0.01923077 1506:0.01923077 1507:0.01923077 10899:0.01923077 12582:0.01923077 14819:0.01923077 #
413.87732724496737546360236592591 41:0.020833334 273:0.020833334 588:0.020833334 2406:0.020833334 4693:0.020833334 6911:0.020833334 #
413.87732724496737546360236592591 196:0.015873017 452:0.015873017 2629:0.015873017 2729:0.015873017 3152:0.015873017 4925:0.015873017 13779:0.015873017 13780:0.015873017 #
413.87732724496737546360236592591 57:0.02631579 149:0.02631579 915:0.02631579 16676:0.02631579 16677:0.02631579 16678:0.02631579 #
-30.70708791813123639258265029639 273:0.014492754 350:0.014492754 3902:0.014492754 4165:0.028985508 6586:0.014492754 6587:0.014492754 6588:0.014492754 6589:0.014492754 #
142.04886115299069615502958185971 547:0.041666668 551:0.041666668 1240:0.041666668 #
-413.87732724496737546360236592591 1408:0.025641026 1839:0.025641026 4183:0.025641026 5792:0.025641026 #
-413.87732724496737546360236592591 769:0.025 1839:0.025 4458:0.025 5382:0.025 #
-413.87732724496737546360236592591 204:0.01923077 1557:0.01923077 1839:0.01923077 2928:0.01923077 6876:0.01923077 7542:0.01923077 #
-413.87732724496737546360236592591 1839:0.021739131 2289:0.021739131 3234:0.021739131 3235:0.021739131 #
-413.87732724496737546360236592591 19:0.015625 245:0.015625 1038:0.015625 2026:0.015625 3646:0.015625 5117:0.015625 8459:0.015625 12094:0.015625 #
413.87732724496737546360236592591 92:0.011494253 149:0.011494253 1054:0.011494253 1341:0.011494253 1824:0.011494253 1839:0.011494253 1940:0.011494253 2090:0.011494253 7405:0.011494253 12904:0.011494253 #
-413.87732724496737546360236592591 157:0.019607844 321:0.019607844 345:0.019607844 643:0.019607844 2166:0.019607844 4537:0.019607844 5006:0.019607844 7827:0.019607844 #
413.87732724496737546360236592591 50:0.016666668 1021:0.016666668 1453:0.016666668 1961:0.016666668 2739:0.016666668 5237:0.016666668 13638:0.016666668 #
413.87732724496737546360236592591 41:0.022222223 47:0.022222223 50:0.022222223 193:0.022222223 204:0.022222223 269:0.022222223 306:0.022222223 #
413.87732724496737546360236592591 50:0.011627907 157:0.011627907 1021:0.011627907 2142:0.011627907 2428:0.011627907 3795:0.011627907 4016:0.011627907 5369:0.011627907 10793:0.011627907 13896:0.011627907 13897:0.011627907 13898:0.011627907 #
-155.46015688618803096687770448625 191:0.018867925 553:0.018867925 608:0.018867925 750:0.018867925 1377:0.018867925 5164:0.018867925 6624:0.018867925 8817:0.018867925 #
-312.07785921394838624109979718924 50:0.028571429 1450:0.028571429 1725:0.028571429 2242:0.028571429 2655:0.028571429 8764:0.028571429 #
167.18629311964667749634827487171 643:0.057142857 881:0.028571429 2558:0.028571429 2927:0.028571429 15570:0.028571429 15571:0.028571429 #
413.87732724496737546360236592591 241:0.016949153 245:0.016949153 643:0.016949153 802:0.016949153 877:0.016949153 2276:0.016949153 2610:0.016949153 5280:0.016949153 6537:0.016949153 11616:0.016949153 #
413.87732724496737546360236592591 51:0.011363637 440:0.011363637 606:0.011363637 1004:0.011363637 1305:0.011363637 1391:0.011363637 2582:0.011363637 2824:0.011363637 3653:0.011363637 5096:0.011363637 10730:0.011363637 #
413.87732724496737546360236592591 273:0.021276595 541:0.021276595 547:0.021276595 934:0.021276595 3828:0.021276595 13660:0.021276595 13661:0.021276595 #
413.87732724496737546360236592591 152:0.012820513 314:0.012820513 606:0.012820513 643:0.025641026 925:0.012820513 1207:0.012820513 1383:0.012820513 2255:0.012820513 4088:0.012820513 4309:0.012820513 9509:0.012820513 #
-413.87732724496737546360236592591 541:0.052631579 999:0.052631579 1596:0.052631579 #
-382.18044880724784206904587335885 606:0.025 1355:0.025 2349:0.025 3651:0.025 3652:0.025 3653:0.025 #
-260.70848703332802642762544564903 802:0.06666667 1806:0.06666667 #
-413.87732724496737546360236592591 238:0.015625 541:0.015625 1375:0.015625 3084:0.015625 3868:0.015625 5739:0.015625 7083:0.015625 7084:0.015625 #
324.29765710126690692050033248961 808:0.029411765 2658:0.029411765 3540:0.029411765 6171:0.029411765 6175:0.029411765 #
-413.87732724496737546360236592591 41:0.015151516 53:0.015151516 774:0.015151516 775:0.015151516 1650:0.015151516 2231:0.015151516 2232:0.015151516 2233:0.030303031 2234:0.015151516 #
-370.59028873052579911018256098032 896:0.032258064 1340:0.032258064 1342:0.032258064 9038:0.032258064 #
-413.87732724496737546360236592591 229:0.023809524 452:0.023809524 1739:0.023809524 1953:0.023809524 3216:0.023809524 #
-122.87501576017619697722693672404 66:0.071428575 1326:0.071428575 2773:0.071428575 #
-413.87732724496737546360236592591 41:0.012048192 758:0.012048192 1596:0.012048192 1650:0.012048192 2406:0.012048192 2464:0.012048192 2745:0.012048192 2747:0.012048192 3140:0.012048192 5018:0.012048192 6656:0.012048192 8851:0.012048192 8852:0.012048192 #
413.87732724496737546360236592591 44:0.012345679 149:0.012345679 408:0.012345679 516:0.012345679 607:0.012345679 879:0.012345679 1239:0.012345679 1260:0.012345679 1556:0.012345679 1557:0.012345679 1578:0.012345679 1733:0.012345679 13295:0.012345679 #
413.87732724496737546360236592591 408:0.017241379 541:0.034482758 547:0.017241379 1088:0.017241379 5124:0.017241379 10117:0.017241379 18828:0.017241379 18829:0.017241379 #
413.87732724496737546360236592591 9:0.01754386 171:0.01754386 784:0.01754386 1219:0.01754386 2278:0.01754386 2654:0.01754386 2655:0.01754386 16237:0.01754386 #
401.11313280892642296748817898333 413:0.032258064 1556:0.032258064 11264:0.032258064 16030:0.032258064 #
-413.87732724496737546360236592591 50:0.019607844 60:0.019607844 323:0.019607844 429:0.019607844 669:0.019607844 1556:0.019607844 1990:0.019607844 3471:0.019607844 5186:0.019607844 #
-122.98955908056552743801148608327 1218:0.0625 1219:0.0625 #
-327.01538648830387501220684498549 408:0.015873017 541:0.031746034 547:0.015873017 1252:0.015873017 3483:0.015873017 3659:0.015873017 9256:0.015873017 9257:0.015873017 #
413.87732724496737546360236592591 617:0.012820513 1749:0.012820513 2233:0.012820513 3151:0.012820513 3152:0.012820513 13327:0.012820513 15752:0.012820513 19611:0.012820513 19612:0.012820513 #
413.87732724496737546360236592591 64:0.016129032 238:0.016129032 498:0.016129032 739:0.016129032 989:0.016129032 1596:0.016129032 7525:0.016129032 8276:0.016129032 16470:0.016129032 #
413.87732724496737546360236592591 41:0.012658228 276:0.012658228 1774:0.012658228 2153:0.012658228 2477:0.012658228 3393:0.012658228 3492:0.012658228 4145:0.012658228 4584:0.012658228 7501:0.012658228 9138:0.012658228 17100:0.012658228 #
180.28891477013684152552741579711 2233:0.027777778 6111:0.027777778 8743:0.027777778 18253:0.027777778 18956:0.027777778 #
-48.238740920076942586547374958172 15:0.013333334 46:0.013333334 197:0.013333334 317:0.013333334 1091:0.013333334 1801:0.013333334 3174:0.013333334 7689:0.013333334 9684:0.013333334 12065:0.013333334 13062:0.013333334 #
25.004956381415087918185236048885 186:0.028571429 352:0.028571429 9997:0.028571429 14959:0.028571429 14960:0.028571429 #
-413.87732724496737546360236592591 502:0.022727273 860:0.022727273 1733:0.022727273 4760:0.022727273 5849:0.022727273 6950:0.022727273 #
-396.15990231768250851018819957972 1238:0.010989011 1323:0.010989011 1540:0.010989011 1634:0.010989011 1656:0.010989011 2903:0.010989011 4094:0.010989011 6087:0.010989011 7529:0.010989011 7530:0.010989011 7531:0.010989011 #
376.46641504322514037994551472366 50:0.01369863 149:0.01369863 196:0.02739726 229:0.01369863 323:0.01369863 358:0.01369863 459:0.01369863 2595:0.01369863 5177:0.02739726 8017:0.01369863 #
413.87732724496737546360236592591 16:0.0099999998 126:0.0099999998 213:0.0099999998 245:0.0099999998 252:0.0099999998 323:0.02 671:0.0099999998 1337:0.0099999998 6402:0.0099999998 7372:0.0099999998 17407:0.0099999998 17408:0.0099999998 17409:0.0099999998 17410:0.0099999998 #
413.87732724496737546360236592591 50:0.014492754 60:0.014492754 169:0.014492754 245:0.014492754 418:0.014492754 460:0.014492754 1528:0.014492754 1987:0.014492754 7591:0.014492754 15238:0.014492754 #
413.87732724496737546360236592591 149:0.012345679 182:0.012345679 323:0.012345679 608:0.012345679 666:0.012345679 1117:0.012345679 1132:0.012345679 1215:0.012345679 1528:0.012345679 1903:0.012345679 2638:0.012345679 4478:0.012345679 #
413.87732724496737546360236592591 149:0.014925373 608:0.014925373 614:0.014925373 1342:0.014925373 1726:0.014925373 4222:0.014925373 13784:0.014925373 14826:0.014925373 14827:0.014925373 #
331.67705913614577184489462524652 3333:0.023255814 3656:0.023255814 4029:0.023255814 4760:0.023255814 4813:0.023255814 7885:0.023255814 #
413.87732724496737546360236592591 99:0.008547009 241:0.008547009 1033:0.008547009 1407:0.008547009 2167:0.008547009 3071:0.008547009 3243:0.008547009 3595:0.008547009 5738:0.008547009 6236:0.008547009 12998:0.008547009 16324:0.008547009 16574:0.008547009 19707:0.008547009 19708:0.008547009 #
65.17053786133060100382863311097 744:0.012048192 1584:0.012048192 2169:0.012048192 4339:0.012048192 6227:0.012048192 7942:0.012048192 15350:0.012048192 15758:0.012048192 19706:0.012048192 #
413.87732724496737546360236592591 196:0.014084507 344:0.014084507 789:0.014084507 1310:0.014084507 1382:0.014084507 2149:0.014084507 3753:0.014084507 6446:0.014084507 10577:0.014084507 15479:0.014084507 #
-413.87732724496737546360236592591 245:0.028571429 665:0.028571429 852:0.028571429 1074:0.028571429 1903:0.028571429 4412:0.028571429 11900:0.028571429 #
-45.4008527470585363516875077039 276:0.021276595 1028:0.021276595 1548:0.021276595 1982:0.021276595 6201:0.021276595 7207:0.021276595 13408:0.021276595 #
-413.87732724496737546360236592591 139:0.014705882 203:0.014705882 244:0.014705882 245:0.029411765 2654:0.014705882 3140:0.014705882 3404:0.014705882 4467:0.014705882 6535:0.014705882 10165:0.014705882 #
413.87732724496737546360236592591 152:0.012820513 214:0.012820513 548:0.012820513 612:0.012820513 744:0.012820513 1237:0.012820513 1839:0.012820513 1990:0.012820513 3476:0.012820513 4321:0.012820513 4659:0.012820513 #
287.21483949113832068178453482687 2273:0.022727273 2414:0.022727273 2556:0.022727273 2557:0.022727273 2940:0.022727273 3766:0.022727273 15867:0.022727273 #
362.62273894994473266706336289644 1169:0.023255814 1482:0.023255814 2010:0.023255814 2326:0.023255814 2556:0.023255814 3781:0.023255814 #
413.87732724496737546360236592591 345:0.016666668 459:0.016666668 796:0.016666668 1662:0.016666668 1733:0.016666668 2522:0.016666668 2928:0.016666668 4552:0.016666668 10066:0.016666668 #
-413.87732724496737546360236592591 2169:0.052631579 3737:0.052631579 #
-413.87732724496737546360236592591 321:0.023809524 422:0.023809524 744:0.023809524 3910:0.023809524 4431:0.023809524 9401:0.023809524 #
